{"Layers":[{"Bias":[[-0.028987107260360315,-0.004358908432775338],[-0.013977855431919737,-0.02075539464167625],[-0.004038811346666657,-0.008235530958712094],[-0.02163825581361404,-0.06496685570400279],[-0.01901745070766022,-0.038126753470591974],[-0.04018283951054914,-0.006800098164781523],[-0.021138461913804193,-0.03128414641350002],[-0.029009834868075585,-0.007047384956078195],[-0.025109955524121576,0.02633524968091998],[-0.006376733133783351,-0.001190150745441663],[-0.0020383586106018743,0.012195420609790347]],"Inputs":10,"Name":"FullyConnected","Outputs":11,"UseBias":true,"Weight":[[[-0.03977465427388636,0.032202369533350254],[-0.03596342379305612,0.052870549057182255],[-0.020298073245134614,0.07075951051924734],[-0.020508495056961704,0.05062810311280525],[-0.026264112584360795,0.03438037728541077],[-0.03662374814161476,0.042001106389114855],[-0.034271875705751,0.05312603536801481],[-0.008755773680444175,0.03826314517147492],[-0.014132273315814403,0.049793594578378654],[-0.02433859975237293,0.038123627226779776],[-0.017169430878602225,0.027043301580475]],[[0.032273325850258265,-0.02375156956547712],[0.020084108000122437,-0.039965896726490195],[0.028484866780110116,-0.04643900600299289],[0.02730022008741626,-0.03146883167479219],[0.02439184558516366,-0.041901086576346655],[0.0048391724188237,-0.04360260777533787],[0.027505964241297344,-0.051448031770216195],[0.017708427865184288,-0.050708090104075496],[0.023594833139239987,-0.017804650162544004],[0.021865664351677472,-0.02745910451207969],[0.03746707463378217,-0.021779133148971473]],[[-0.01903790958674005,0.04618362786637964],[-0.02877116144464233,0.043585042022214124],[-0.027815146369116025,0.036935074922758944],[-0.02592288150653169,0.01954587871593297],[-0.003842618670787681,0.007486214243825245],[-0.03486288379545453,0.03691732382622211],[-0.024200403473519764,0.01887844774832593],[-0.03788689307750982,0.03564673064542304],[-0.03438819538492204,0.021358341777464738],[-0.029072084872991164,0.04878717348915379],[-0.041284886669991416,0.026859580310272368]],[[0.03025256232709418,-0.020704047399362387],[0.017944351084244723,-0.028489195948092145],[0.02339547748914589,-0.023296899837629913],[0.03848799437757411,-0.023937810924590252],[0.030994011205175673,-0.02880200774635415],[0.021013544821999217,-0.02181061366286412],[0.02861353694729725,-0.028292010308335554],[0.04253342040393395,-0.03453109540644501],[0.036125125544733995,-0.021344463854786843],[0.022027163463255502,-0.02334072654682062],[0.04606471864977638,-0.010771883181572817]],[[-0.017614991855719516,0.019965999370255512],[-0.017338888707665204,0.03516688421929932],[-0.012450694457511537,0.03671237430253756],[-0.0063186439179133535,0.02636564952639534],[-0.015895198878871187,0.0381381221361652],[-0.032463113821436566,0.022848992907869525],[-0.031203584267228274,0.03896667627903021],[-0.011535227797124724,0.03300484498633701],[-0.03159176969994445,0.022653295631083065],[-0.022191991539587175,0.029191329648216344],[-0.009971510003606266,0.029776432771074956]],[[0.0005365121269999234,-0.016282003736409364],[-0.005806022556673493,-0.01565435765692257],[-0.018575465011292515,-0.006159393247392942],[-0.022756146577423645,0.0069140161716149725],[-0.003198854011709273,-0.010454928893109791],[-0.008979691358425232,-0.013476659715148078],[-0.016338751088873803,-0.017976082318115517],[-0.022793907443026513,-0.024042233299876332],[-0.0010737665245072418,-0.01727678441644001],[-0.007985889853681923,-0.034040182589417996],[-0.006288688510569696,-0.007889729696079161]],[[0.031852750716580946,-0.020988454600575572],[0.020443244453492725,-0.021751488124998906],[0.023702610138429853,-0.011357797676863051],[0.0054996087203844175,-0.030323683622575662],[0.021350049111626253,-0.032463956535160904],[0.0395104347793478,-0.02990562769884378],[-0.0076349447352312815,-0.046860580840462907],[0.013604998904214322,-0.044577003333227234],[0.009269925047314154,-0.0351128932422574],[0.0032175912229483374,-0.04142022571035282],[0.024091784979434573,-0.019875150747907612]],[[0.005686894562703202,0.02775168096634387],[0.01933846403696586,0.024998438831502382],[-0.005653607033791063,0.018100082450353976],[0.008323267375989497,0.032620392411750444],[-0.008307852654986205,0.028303876528080675],[0.02819635917344639,0.05011197594397412],[0.008789817344522102,0.019536698400170506],[0.007585121487621855,0.024335881334592736],[0.016141952712661636,0.04381181722061275],[0.007914706789163003,0.02218179026921587],[0.021797125149857606,0.03439965226760693]],[[-0.02696282295386018,-0.02274685758075341],[-0.033309652621604624,-0.01629960545942867],[-0.018562723176270564,-0.020229201586367814],[-0.02933747747452962,-0.025183103332363056],[-0.03352837686256796,-0.028764599252203964],[-0.0349156466597768,-0.011537928585302603],[-0.036826583198973695,-0.042977564328569993],[-0.03136091460426642,-0.03347244746087672],[-0.02972106395444076,-0.021189925529266285],[-0.02297367048182632,-0.021756875752668846],[-0.021224663081544595,-0.004457115734853396]],[[0.021396216280351717,-0.025565823373696336],[0.01998667909006568,-0.03950910066826621],[0.03164981524703436,-0.025742879004480895],[0.038920298561599086,-0.044848890300683224],[0.026326196477363915,-0.05025784174033039],[0.026624244315107584,-0.021715463979463955],[0.005649624662448574,-0.03717843169251349],[0.035387365500932154,-0.029040791021732425],[0.027720507797002872,-0.04562717290227497],[0.019276001428445797,-0.040971163691746255],[0.009138997265751871,-0.02683435138835138]]]},{"Name":"Tanh","Size":11},{"Name":"Tanh","Size":11},{"Name":"Tanh","Size":11},{"Inputs":11,"Name":"Sum","Outputs":1}],"Name":"FFNN"}