{"Layers":[{"Bias":[[-0.008706594902189405,0.0062664164962282385],[-0.0009718533176499716,0.0050228080844364744],[0.013265498512828617,0.012287211711459044],[-0.0009686068361511132,-0.03686609815766105],[-0.0008093431070316708,-0.012293973521885672],[-0.016867513138267724,0.003828041673452962],[0.0008326812633344382,-0.005366830121856838],[-0.0032701526137299737,0.011986847288082303],[-0.005061179488169877,0.021675369024549678],[0.009257749997529359,0.010887414085955558],[0.026759695745341823,0.017739797463306187],[-0.015755609813304497,-0.0017907493096906723],[0.008984257950612994,0.010217093664100873],[0.00756729258790797,0.017383308611110877],[0.0007221262780939194,0.004988152865290706],[0.0034711571270415755,-0.00860980456073884]],"Inputs":8,"Name":"FullyConnected","Outputs":16,"UseBias":true,"Weight":[[[0.042212673320088115,-0.033586008725557955],[0.019197113267292735,-0.03331468643496832],[0.03682440963255992,-0.04260528119016565],[0.039147121526675634,-0.024471634033055988],[0.032173957905334505,-0.025817240820837792],[0.038620447918056355,-0.030170679863090365],[0.020102823463798398,-0.027037188141347715],[0.03757791127909296,-0.04894461352680874],[0.01503696045521435,-0.03742267291113055],[0.030679136516023383,-0.033785016864060574],[0.04042011526526345,-0.034076371860288834],[0.020567350449997513,-0.029075114896761456],[0.04205357757903366,-0.01830025906145317],[0.0140967772253619,-0.02671892716669887],[0.03444555747971686,-0.005729848862879841],[0.024507441337406875,-0.025520444653485557]],[[-0.009646041922136462,0.03188219470140188],[-0.027220487592784122,0.03359655679945383],[-0.030971333707749155,0.034289574447666095],[-0.026197382602039392,0.04365759673570278],[-0.029791187613695286,0.019173535716264702],[-0.019497297957025986,0.020891216306819015],[-0.039737578255296536,0.021920902015637903],[-0.02830708825519473,0.01749521940137147],[-0.015618664406587478,0.03131784826094069],[-0.030917534943661073,0.012759789530862594],[-0.03484316615269412,0.018260651458943095],[-0.028592809102445473,0.02802559726770339],[-0.041986539298629305,0.026182302333992408],[-0.026349581429100988,0.024493821244752047],[-0.03751977998092359,0.028503343676826966],[-0.030908693976620626,0.04157791678847433]],[[0.03400796671357454,-0.03142289530393612],[0.03852356798894384,-0.034577654538978],[0.029293019576795285,-0.026942222069707516],[0.03835055706956986,-0.02723878603801202],[0.04957588212965789,-0.04318711703215596],[0.0175867712071578,-0.02991604477075777],[0.03430840405117916,-0.031087706459469112],[0.03587369681197614,-0.03350340374781173],[0.03004225012779856,-0.04706849756676385],[0.0475997718716203,-0.028494030001964963],[0.046304670273351285,-0.015182888820675143],[0.03702188290453386,-0.05020000750614386],[0.04735335433735195,-0.015364594223385977],[0.021504851407666538,-0.04680311582035788],[0.03262685890974159,-0.030155878011744134],[0.04804675241810151,-0.042040721517992985]],[[-0.030704062516291288,0.02208012178440399],[-0.020602685709243132,0.02715834780722656],[-0.026036379184564824,0.03027364268486078],[-0.030492215291087216,0.013454330758941651],[-0.03380704454431954,0.02334057761156488],[-0.0363869483427163,0.014392642073905518],[-0.003809234930151229,0.019234487649175243],[-0.04866904179159734,0.03403188556556757],[-0.0446269356068983,0.02955864742638054],[-0.020059416508687422,0.03899558572979998],[-0.03415556700785168,0.023775845522689767],[-0.04464052466064567,0.0074123124095932715],[-0.01801445166528384,0.024675517500180617],[-0.030946287822875767,0.026447711303967576],[-0.024308305443387922,0.028544081985224828],[-0.03334708624395501,0.030791748513095744]],[[0.02669986791477231,-0.01029966598192418],[0.043055293945507535,-0.01852976373957755],[0.020190756690083727,-0.011901532312998737],[0.039114808959492466,-0.014277777651342515],[0.029756746067077053,-0.024147614816882046],[0.032441935290592666,-0.03500211309138555],[0.05435780884379087,0.00527105062494424],[0.023829972768723,-0.022947337993991686],[0.04497476777775925,-0.025482442011079704],[0.027329192000612047,-0.00011693752992660749],[0.03281071847427971,-0.030516193067710636],[0.032402882888062715,-0.021889873847444015],[0.0338189904249599,-0.010372374177590248],[0.01308224610044983,-0.01374878070575126],[0.02466729360354596,-0.017144750657261412],[0.05056625089605759,-0.012137401967310064]],[[-0.03914930113164225,0.042929853627297745],[-0.031109291138799726,0.023403948561800402],[-0.00900679789457778,0.03891344800925355],[-0.012198011229630084,0.022407520077697425],[-0.0014932460998514988,0.0030147053633188263],[-0.037992227629151706,0.03249031489101319],[-0.03310078687077443,0.03180532211012277],[-0.04131456319801763,0.0032365519732144303],[-0.01952488386902931,0.0289566351281486],[-0.031843146322477534,0.017144619145623746],[-0.023660368016836186,0.028478833320977916],[-0.020042711730663534,0.02157335560549126],[-0.016570526888876187,0.030736497049566942],[-0.042513013952462424,0.009086850031963833],[-0.020986076081092882,0.022168405681485967],[-0.03618796783972983,0.024386920501330206]],[[0.010738651132628702,-0.03661160132441127],[0.010409476800371117,-0.03845105520803087],[-0.0013102318829262432,-0.040487929918282026],[-0.0010825527214532575,-0.01694788674336186],[0.014930570847815343,-0.03378262721736308],[-0.006304458137336239,-0.039878804908074245],[0.01605191291582923,-0.0216535716752064],[0.01420517189271155,-0.03779379409014858],[-0.00011776037629941433,-0.042186444414751736],[0.01722805365606131,-0.02689446457339244],[0.008393193212080619,-0.024512609551771477],[0.008398853864281127,-0.04030679973231082],[0.031630347813850275,-0.02569835046599527],[0.01742624431367256,-0.02501072408002911],[0.014151914323830624,-0.035000291862115084],[0.02786559300444847,-0.036016188166679765]],[[-0.02706546452426571,0.045389588510895404],[-0.02254746576918625,0.06794497616486324],[-0.013211024629858455,0.02908714125970067],[-0.029922763015614303,0.027698213025539393],[-0.01998899016235065,0.04118500661555775],[-0.03173305435641677,0.03953219612208322],[-0.03887129555048169,0.05084368172284158],[-0.031189354919178864,0.008068763902985304],[-0.018987086905385323,0.01313739076494732],[-0.033210749617198,0.026451504494399983],[-0.024771440631053666,0.051036716099396494],[-0.015144890004278634,0.024726345300016727],[-0.018134302542171844,0.049316410907687916],[-0.015359963938520915,0.03293311289805292],[-0.022988529904900933,0.021385478782677807],[-0.008760754007757839,0.027262113426878166]]]},{"Inputs":16,"Name":"Sum","Outputs":1}],"Name":"FFNN"}