{"Layers":[{"Bias":[[-0.03074155707886785,-0.018932219806622016],[-0.017976500556826515,-0.013640205321227589],[-0.015642706488312515,-0.005257974516905154],[-0.014695194445973149,-0.05662345688931485],[-0.010496324766242031,-0.03586495554204645],[-0.04819970002858858,0.004541492598312506],[-0.011767825590773611,-0.03213272569943456],[-0.0258327577911093,-0.015235640071775625],[-0.02038780437557039,0.04263385741225579],[-0.01894151153334484,-0.015138803739753489],[-0.0007648787003382556,0.02246665808109263],[-0.02626588683631367,-0.02379314806961952],[-0.010889460791810694,0.018962284739373177],[-0.013689690846410956,-0.011437587084754603],[-0.02383141158062717,-0.023666486032641196],[-0.008918451866121679,-0.02969677818400257],[-0.009769358556608258,-0.014118379709191898],[-0.009228040575018488,0.0015188911972440606],[-0.020355657993229977,-0.028929897110326435],[-0.028744100314668147,-0.0285229612332372],[-0.013817413230276701,-0.005403485987599322],[-0.03476019913171964,-0.007855735451837357],[-0.020813460849088434,-0.027366571144659544],[-0.027660596509155463,-0.009856222155822433],[-0.03285924353669137,-0.029957973948860784],[-0.021689331466083758,-0.014082259087086421],[-0.01946538147205722,-0.03337052360990576],[-0.014682910139770453,-0.02575555612067688]],"Inputs":8,"Name":"FullyConnected","Outputs":28,"UseBias":true,"Weight":[[[0.03125125759601469,-0.027046916369855584],[0.012794371808831284,-0.016707817702391138],[0.029557671954213216,-0.017664706900889327],[0.022583781175184555,-0.028788593611622518],[0.023565811900359206,-0.04139271010497646],[0.04180926960056956,0.0011051932832084376],[0.013863770758178727,-0.026914126896494056],[0.0353849690140185,-0.02972093078837238],[0.017733221373875046,-0.0014812717304221153],[0.022499603692632642,-0.03637368998809463],[0.022746618881149965,-0.024807072888189965],[0.0266996585977814,-0.016083142420624374],[0.004320559296749546,-0.01629493643201658],[0.014588831759510548,-0.021842208951915843],[0.040998951777330796,-0.017500244777682663],[0.011492789854702807,-0.028497602966159212],[0.024980694677072333,-0.012549247855191254],[0.027013973428091177,-0.011902524895320931],[0.032959240597409505,-0.021404298424103463],[0.029522506217624797,-0.04598965981200155],[0.01992230139311122,-0.013356432245950218],[0.02307541735124485,-0.03197332927594017],[0.028779303684946987,-0.021666315003913438],[0.02234852960867393,-0.026519124505418722],[0.03622601708710685,-0.014164522128664345],[0.023922001083226833,-0.018227272779256606],[0.02454714362263737,-0.01045208694156285],[0.033481992629363584,-0.017272017343990875]],[[-0.020796153459916988,0.032245151445456664],[-0.002328272741117189,0.04390102670658099],[-0.0038304964882669265,0.02633129057071412],[0.00516489797564132,0.008484720942978754],[-0.030158842823686045,0.03976241267939612],[-0.022417628720378585,0.03694522588279526],[-0.0327834625407794,0.007492512328711996],[-0.011138058885395619,0.033612046738599875],[-0.02372122317100512,0.017799644651794375],[-0.01470305999465464,0.035226349067513],[-0.011918539312019862,0.023535836941117924],[-0.009576416514515882,0.03525693962584419],[-0.03495433502113167,0.012797327735418414],[-0.012063435680510845,0.027073438856257914],[-0.02731257860598203,0.030353578666155945],[0.0007928050765649512,0.03241898129833057],[-0.017963740199257606,0.02947922014107492],[-0.017834998117068353,0.019954507355446127],[-0.003344608199614243,0.024815994655412708],[-0.02804571616209487,0.02575722025619252],[-0.01462368215760324,0.02243895514541959],[-0.03415403279633943,0.019173540259657982],[-0.013925681735768008,0.022108319917791126],[-0.009783353757546324,0.034597406652480595],[-0.02622935244469108,0.0191032853096339],[-0.01695376692144997,0.03496564062397461],[-0.00795384181722172,0.033431747240991426],[-0.019132263885332602,0.03605106703141553]],[[0.00046484577006434776,-0.04046038444844953],[-0.008047687478253346,-0.03959633456204294],[-0.009170555194731894,-0.015318989426692535],[0.00727429604486314,-0.033143633174023544],[-0.01436697943041798,-0.03995096124481219],[0.005011255967635375,-0.021247804474361188],[0.0023435324140088348,-0.03595436132419244],[-0.009212619644735104,-0.040373267838515275],[0.009378692486638569,-0.024593195282645086],[-0.0005756744441450899,-0.024751433337628515],[0.001088552581626103,-0.038268443873002274],[0.023631277942270035,-0.0259812826655303],[0.00999449356305834,-0.023090289405315184],[0.003698424132164945,-0.03353125530607232],[0.01711401309965845,-0.03498590637260514],[0.0020854537283242457,-0.027219568937049434],[-0.0040640562461475805,-0.033846544481121704],[0.0027722346641164295,-0.02705890600683985],[0.010252486231391338,-0.03856234135516082],[0.014192059361726071,-0.03923769323537453],[-0.0073232771820128046,-0.03565945503098473],[-0.0018705134895411763,-0.047554548803776214],[0.01315981209898781,-0.033009750956463156],[-0.0013590220627377242,-0.035962740764573675],[-0.00039023815982358595,-0.033257020101352695],[0.012535670843174236,-0.03387176521294981],[-0.006270330907398112,-0.03537424863535347],[-0.004654247152981749,-0.024109742194549647]],[[-0.0020312134864018325,0.06456207914875375],[0.007032918969346285,0.02424249943764301],[-0.009504379408981264,0.02159861640365666],[0.0008799391451569934,0.035942153925971325],[-0.010780045087738492,0.0348916987794845],[-0.017763037945258166,0.0458917650580745],[-0.00974786666706944,0.0026076711352406605],[0.0010610803317646993,0.007674908690345619],[-0.012944195668140911,0.019966075994749404],[-0.004115135584287821,0.04658748475478899],[0.0041684602621166805,0.01904291098332441],[0.002789803284323362,0.044848498049013454],[0.0047176719827718315,0.026715848409095633],[-0.002078698029508173,0.016268136448354755],[0.011626050769958495,0.022440415437729143],[0.01212114545153937,0.016872938338178954],[0.005928985608620315,0.022220573944576258],[0.00986754512959762,0.028535235296223586],[0.0015938067815846253,0.013350929904801748],[0.00943139511910908,0.048026869264562864],[-0.001205737164256756,0.02708884725997909],[-0.017837561712257675,0.012103201460131828],[-0.003048408248262081,0.01416547316188182],[0.01569484857660472,0.03922195459115052],[-0.005508284931747291,0.01275312720828176],[-0.01068920875319676,0.015769758673925684],[-0.0004890742082972562,0.005593962947115551],[-0.007224228262565801,0.02319690137766101]],[[0.025855211247911396,-0.02576780397478608],[0.03194580602686744,-0.006201081617144352],[0.023113408093144976,-0.006358039933400891],[0.03182336472884856,-0.011297438992758688],[0.011624799097925641,-0.00976555728753596],[0.026069759727238608,-0.029340141725399498],[0.005164898699889469,-0.019344510232466403],[0.021335673111513135,-0.015937656046489824],[0.031113599016205175,-0.008800511557777948],[0.011135387626598223,-0.011287802235441841],[0.03263323570818987,0.0033084281498715552],[0.007007288473216425,-0.008373348894899279],[0.02589590783989988,0.01655721676152582],[0.014929779809056538,-0.007448382299102447],[0.022622513624614694,-0.016040590416060138],[0.03633649397403111,0.0006022402897973304],[0.023107083701287823,-0.012542718656958989],[0.023125321879170508,-0.005171902036561394],[0.012768258277788639,-0.007437430614599655],[0.012246573905329676,-0.004019138101144093],[0.010025697014102664,-0.005206217323909556],[0.014122801990129896,-0.013092661193971882],[0.01324080623198713,0.0016383976890578078],[0.010596105309257128,-0.007342067609921895],[0.027840057030950348,-0.030669977760388455],[0.03099872406135135,-0.0211283852985856],[0.02960742286542902,-0.017963612635424325],[0.005024334117534716,-0.019492638516464097]],[[-0.0234652759460045,0.03460162799054347],[-0.02196829822404032,0.04048198800303075],[-0.024131073202023585,0.013721166069494584],[-0.01576815062216491,0.016573476247314506],[-0.03471825473893619,0.021101421694376225],[-0.02020843099251936,0.012275767506372891],[-0.009363670760098962,0.02737531630437595],[-0.025151770080701772,0.009391811777697434],[-0.02882774086744132,0.008329345623157328],[-0.02244535109465551,0.026471836052399174],[-0.035986126406524786,0.01917838943540471],[-0.022495529246598815,0.02241635316043943],[-0.03245900433673377,0.020683048177936262],[-0.024972978471231477,0.038201175888451566],[-0.01485512880006124,0.032083751714837384],[-0.024902902702455466,0.003801030447367032],[-0.007841453202509343,0.011248049195638347],[-0.04080581591866579,0.028350925841992995],[-0.03157252423796312,0.02404895164066947],[-0.018597713257408416,0.039777664188936294],[-0.026199989505442407,0.008936085648272373],[-0.009002111610865955,0.012240225240043968],[-0.02983887628055614,0.022994608300111574],[-0.03593095765086911,0.024482750280815365],[-0.012069502349658458,0.013388956079082776],[-0.018770400073756004,0.016560046187778434],[-0.0212824735337456,0.011813094127974334],[-0.041176982586278985,0.05271964597073262]],[[0.01297506659483074,-0.02522643538695101],[0.025610689787641406,-0.02247925480536068],[0.035096179672129864,-0.03655694010628597],[0.0049857874399719315,-0.024625413246271016],[0.02030139771952333,-0.027589340831984617],[0.01901898500278126,-0.027304498610300994],[0.015269458027879865,-0.04131576437543526],[0.03299737594855362,-0.022919793435122994],[0.031759361891988365,-0.007088354474464684],[0.021976480783489707,-0.04602369065719364],[0.03272950358988758,-0.008466507572839031],[0.008670896208085501,-0.04239648042815551],[0.01889644524431068,-0.022834873670923773],[0.03325007416748174,-0.036856763452940006],[0.0051735096013025795,-0.03378933748751628],[0.028626006840404308,-0.040657317267940044],[0.02609580324495333,-0.033624076113289714],[0.0023978203311225887,-0.03188676255604754],[0.008152054798314235,-0.02666509009807323],[0.02291689776423732,-0.029113543676586126],[0.024073424927516053,-0.029930627859111974],[0.0020668683470814885,-0.02577565524767516],[0.008295452362300351,-0.018697194852884215],[0.03131083539758308,-0.046744413797094285],[0.001717992689634031,-0.028652452049666335],[0.007120353472769269,-0.0252512396145429],[0.024795366285264915,-0.023697500111534885],[0.008852219491299758,-0.03004990026424883]],[[-0.013005364313579841,0.0374753891670874],[-0.021302789630507364,0.016614825708138586],[-0.022899801822493692,0.024549545348426863],[-0.02772357070637597,0.01700267605469268],[0.0068888570764838565,0.02427086706549335],[-0.03519199773855833,0.03621576996912704],[-0.033432860398405435,0.031222857625135627],[-0.00879184962765283,0.041225493015413756],[-0.023217360168279848,0.02288511814260937],[-0.033368058670867076,0.011734888398212117],[-0.006709824252615713,0.025530700182793],[-0.021929283466756447,0.030417034413211204],[-0.014032284044823326,0.02876600655404291],[-0.02200759750123457,0.03334207229885684],[-0.01597871993512811,0.03952522737749901],[-0.010574496816903934,0.014623590691561704],[-0.018015253049753287,0.019153008694603277],[-0.030931775981620148,0.013520879421357485],[-0.027518732310342624,0.028577790210544417],[-0.026769509545449162,0.02268118799286634],[-0.00343425647422165,0.016751731782687334],[-0.038982230681277576,0.024515180865233684],[-0.02256090787272248,0.028191329348534758],[-0.03646503090929166,0.03336174813529088],[-0.020098441220203128,0.03384274821867973],[-0.006320476122919435,0.03009296028239496],[-0.02404516368950472,0.04218530115195606],[-0.018360615880126368,0.0280645173294397]]]},{"Name":"Tanh","Size":28},{"Name":"Tanh","Size":28},{"Name":"Tanh","Size":28},{"Inputs":28,"Name":"Sum","Outputs":1}],"Name":"FFNN"}