{"Layers":[{"Bias":[[-0.03782382252306704,-0.013453481197084633],[-0.016327031988517978,0.025195635624326616],[-0.013487392261488075,0.02935345884470745],[-0.02999705096301795,-0.05329873782315031],[-0.027798097723133287,-0.0324119146529581],[-0.04207026175958925,0.022446902055795904],[-0.028008690349712335,0.005928366863674449],[-0.02353022316949015,0.035365420945131565],[-0.03787046266971687,-0.0036450129869961797],[-0.013971855422686195,0.027872812964012724],[0.00104373298724271,0.044037673490132705],[-0.036157925375955455,0.012471393952410297],[-0.020408285031676646,0.015913436930763494],[-0.021049932289564807,0.009013878075908147],[-0.02395392523611571,0.024450685536202166],[-0.026326229517177693,-0.02994284245099774],[-0.01500591901501297,-0.005653082177642955],[-0.0040765503768426335,0.015487644768384773],[-0.01992065914628659,-0.02879246475456348],[-0.029001227129214865,-0.02028916250542535],[-0.030204366722596295,0.012821301517757126],[-0.03990310213990601,0.0412938270149663],[-0.016919864919161143,0.006724450775665403],[-0.024169827199875205,0.036907334842226504],[-0.0338441998695574,0.007954540206280631],[-0.023882269935270546,0.00257312489043154],[-0.022994640033078217,-0.028608021138647386],[-0.01714869889964504,-0.011376722754451509],[-0.016452711613339988,-0.01892498773052151],[-0.0343252072974262,-0.0011073133912516972],[-0.03142317547199699,-0.022051681820216985],[-0.026062275042034854,0.03302866631096823],[-0.021628545258363857,0.0016757802491127929]],"Inputs":12,"Name":"FullyConnected","Outputs":33,"UseBias":true,"Weight":[[[-0.023824557158001473,0.01325196389417587],[-0.008669234937039761,-0.005168522553647854],[-0.01148360849071695,-0.010698954180793597],[-0.02620754282691587,0.012493234278966531],[-0.007500406084043544,0.011805369132112884],[-0.027618591037000473,-0.008877224423710656],[-0.019100814981220307,-7.776228982338386e-05],[-0.011490459605135821,0.001065769120788874],[-0.02936386303957857,0.007733401290010126],[-0.03200798038393305,-0.0007502511487950326],[-0.02021343404460398,-0.023022808104843175],[-0.021838374966562348,-0.007632179764635626],[-0.027154530617459736,0.0028143485402954364],[-0.016632091353758687,-0.005442025702698917],[-0.007704797291273197,-0.012901091008747367],[-0.012643941386787746,0.009289318504140331],[-0.010843878899242815,-0.008948437232912226],[-0.012198187239279108,0.003938186608891656],[-0.040326414331498375,0.036873318714063394],[-0.027557840175816497,0.0005465348818615795],[-0.02658130426305718,-0.006640698778310497],[-0.03626663343365986,0.0034953709472799557],[-0.024351008076321276,0.002883409643122897],[-0.0197411657902985,0.0007958992208992491],[-0.029907069267132737,-0.021002033576900173],[-0.0004239378480063657,-0.010380658563265019],[-0.016307710110870854,0.021372218405554658],[-0.015864301157899434,0.012068557622599885],[-0.013453656674152508,0.016602341811292824],[-0.032720255773633244,0.00622985652870739],[-0.018789345752197657,-0.010052908047179404],[-0.031347937346838134,0.008159837108140682],[-0.006352287892061942,-0.013296657891471794]],[[0.015939811745916597,-0.0193903361648467],[0.006035354405683919,-0.006409326122029487],[0.0036007667573138345,-0.01950370032942159],[0.01825511933464658,-0.012320464213942827],[0.013960111559682194,-0.039338587767984295],[0.023669545513046716,-0.01705726832888354],[0.021224711851379634,-0.040723180958529885],[0.03708018780145115,-0.015372632195229228],[0.017352301481562277,-0.02263399493820817],[0.034999339423100774,-0.026874413408562784],[0.02866367779429952,-0.036846688072520034],[0.01753992842826733,-0.018558992549057716],[0.005789819187333588,-0.02402786554306941],[0.007183486330084553,-0.027934523636231716],[0.0029392505138111855,-0.02147389568171491],[0.011784966229192388,-0.027584759551006664],[0.002758351503542238,-0.025820390646477325],[0.01061725888854815,-0.02724816386989976],[0.00953109712173072,-0.027577514508519835],[0.01799576676603564,-0.01421647105757112],[0.016419853454507173,-0.023036975309716035],[0.017920897494135512,-0.024823167735544414],[0.015033881200450554,-0.00393095209252398],[0.03070781358995597,-0.030739678203056262],[0.026295724313938847,-0.026895048782171242],[0.01697061924839009,-0.018533028436228772],[0.010972810740133622,-0.037136073641863054],[0.003913788131074766,-0.010306922216081975],[0.01602174909768767,-0.024372997286785138],[0.01654836855779161,-0.0372279612069709],[0.011476891828403687,-0.006701614067460435],[0.01759785490021226,-0.019428787602625334],[0.03943333147677805,-0.020869366577583984]],[[-0.008399360286472559,0.0317909985047002],[-0.019989966364076486,0.01856202374896292],[-0.018615654548568627,0.014203911666761425],[-0.025195589749552497,0.04436432512040362],[-0.025226115573100318,0.0318870471978371],[-0.022814252831088847,0.018089205202463255],[-0.02544165327356867,0.008656518639063531],[-0.007853904501528255,0.040512475058650736],[-0.00545497660180778,0.029820659226280584],[0.0018330795815209207,0.019083752344405687],[-0.002074280400596075,0.012742515132838854],[0.0008167394825189837,0.025419540126275945],[-0.018286034707021226,0.027534682228218175],[-0.012259602683474006,0.02561402231314751],[-0.03247227861463137,0.0224627993056184],[0.008605536474344621,0.03671119890718959],[-0.013100198089121693,0.03218525273249223],[-0.010237541908869465,0.0032469984550006765],[-0.011428223948396599,0.026595538079470363],[-0.006363612049817603,0.02484140109071337],[-0.03414693149808166,0.02360301744227729],[-0.019100166709213044,0.013934575743134846],[-0.0038484884158980176,0.02767412115613358],[-0.021868413358696007,0.03419990793231843],[-0.010614746490025303,0.019387704986605067],[-0.017101592566864998,0.031127166856836513],[-0.016810724594997214,0.029903139954599176],[-0.014714809663967713,0.01954862766440546],[-0.0121854820613736,0.02895506096991848],[-0.01402815613246541,0.01929663469205361],[-0.002676969040258796,0.01964688813924954],[-0.02610456023224802,0.011330296550977441],[-0.014026795763756783,0.017728011438247034]],[[0.006250561109964225,-0.018807433458211086],[0.018103587747407564,-0.01543023865291198],[0.017753980442853052,-0.03953920727253679],[0.018664958225757554,-0.04078688192026754],[0.0280979227774206,-0.032189435984634716],[0.025895968057477025,-0.023948229751032578],[0.015161103368006842,-0.026688964708185207],[-0.001231452521219999,-0.016342853855513654],[0.008894899643687493,-0.02384616512712969],[0.017740307742239073,-0.024478362317103895],[0.01810163920145608,-0.01279974374006078],[0.017493013384107317,-0.016468936306485396],[0.02441685417065189,-0.045277982278779126],[0.002405354581599791,-0.01654439423230117],[0.023705576004658533,-0.022594194484504684],[0.002916574825412738,-0.017381350562989874],[0.019289913797654393,-0.019514706679306784],[0.024629414950095373,-0.026635054550323924],[0.005532026228177987,-0.02738919821726092],[0.007106697153851907,-0.023036261225122583],[0.01035819295819602,-0.028732241664552786],[0.011373223000951543,-0.015564730117782978],[0.020231391377175785,-0.036216720008759105],[0.008228378290578733,-0.004599976091230967],[0.017975705857138684,-0.024202309972702247],[0.018867424184120823,-0.030410923900563974],[-0.003069659775715711,-0.029110402912677955],[0.02103291445360891,-0.022376908311077044],[0.016948285760325206,-0.02595358768200593],[0.011081252661498413,-0.0057874637950267325],[0.017130754971976293,-0.01754962649838591],[0.020918675141448365,-0.024169081358748068],[0.017019578941801543,-0.02663477230996305]],[[0.007545496155089958,0.03910357729995017],[-0.009730376929536605,0.014881546973683414],[-0.02063003424442347,0.03143191031623335],[-0.004416114462037925,0.015348586512315802],[-0.0003418885205813913,0.029531854598251323],[-0.014323804059767306,0.013754575760659785],[-0.0008642302716137574,0.020507425049614267],[-0.005625189089271615,0.020372632957821147],[-0.002440431721315605,0.022514598699640984],[-0.0007650888056665984,0.030771244348454616],[-0.007767165730453425,0.02275948270227385],[-0.025840675281019392,0.03076476386447366],[-0.018140607700907727,0.018976013779833347],[-0.009702918880291208,0.012077238814032526],[-0.005025206787666745,0.016352511541203648],[-0.019065448683129347,0.023565785046513958],[-0.008103242057028625,0.029363826018187322],[-0.006691236897728854,0.012088686305999964],[-0.015437128219940583,0.0216632722322761],[-0.020040538504001202,0.03033788491129565],[-0.024597327041847153,0.019823563103669208],[-0.018997376790177725,0.011849783038774653],[-0.0040140163697534115,0.005749997569694239],[-0.006405680859744198,0.018070895546742894],[-0.020862065367818095,0.035771611228100055],[-0.016302338390636453,0.02184276266353427],[-0.008060436358219703,0.035543461839053776],[-0.027675623909762085,0.03109239317275314],[-0.014708208596567664,0.045098407582796075],[0.0027224121250423823,0.023714374006338242],[-0.007081460523785752,0.03447362197332263],[-0.008058589446412833,0.02897526426011014],[-0.021992412048042673,0.020877486106131854]],[[-0.0034389591427712997,-0.0371659358272911],[0.02601411378286453,-0.04033640551364687],[-0.007965686359998909,-0.03655897143878658],[0.008112416516493172,-0.029838925047323755],[-0.0053660640474125325,-0.03832699289108728],[0.021897538809440925,-0.01227991542544125],[0.005833798201863457,-0.036198196733903794],[0.0004439618211295281,-0.04390990074292056],[0.009190810566800026,-0.03131487055988635],[-0.002289735403937729,-0.0366959971501511],[0.0026347907890989205,-0.031608504380781645],[-0.006702726743410714,-0.03535139449881458],[0.020173727219932505,-0.0355323431878392],[0.013834369517651626,-0.03282918986078425],[0.019592888844684277,-0.030682326281769468],[0.020134752068609565,-0.04812663198673342],[0.017711474626018273,-0.031550473296776585],[0.01618467871267075,-0.02706520332631788],[-0.00426738824844756,-0.020150014210953464],[-0.009703946061692151,-0.01737505227705408],[-0.002532684347978667,-0.017857572438237167],[0.022358051826474372,-0.031165761620246722],[0.013833260560668047,-0.016278869964045747],[0.016368923327681504,-0.039396367040198665],[-0.0012546908816071724,-0.03278412397312062],[0.013936717704034846,-0.026112041571307542],[-0.0025162315160190403,-0.020759749890507818],[-0.0036681122155177146,-0.015883298137104616],[0.0018627196301466867,-0.027246613116146765],[-0.01128035489919393,-0.010394545544114777],[-0.0019523835515122038,-0.030783020067534878],[0.012731823042403312,-0.017683881360134976],[0.0055904728940716205,-0.030099484833909108]],[[0.0012954300641201618,0.014115496257556386],[-0.009856572486145408,0.016457549834846305],[-0.01762363156939024,0.025118987248661278],[-0.025229267122302244,0.028440541503027283],[-0.003981057004747021,-0.0014457852433150675],[-0.01112943202992523,0.01642757168459193],[-0.002047512735749067,0.009321972004013355],[-0.009598788967765365,0.020889817461060566],[-0.007825296196283024,0.006065810585330633],[-0.005119636935158941,0.03041221305144828],[-0.0011772862689712576,0.012224966927604549],[-0.018783468666204936,0.00480307818581265],[0.0027578059376186267,0.038417204544203984],[0.009063957797462288,0.008092682925858352],[-0.008443561972040626,0.003960429306071714],[-0.02405285844762403,0.023741041083337133],[-0.015641167986291223,0.005631175975908049],[-0.012466478580558576,0.03389909511425507],[-0.01376398821018464,-0.00012201465839289797],[0.0017507976740260382,0.005740553936106218],[0.00886780941679312,0.02623024327368185],[0.001109708218552856,0.011559855688786315],[-0.00308527186039792,0.027146436717171065],[0.007845056085617915,-0.00793810723258523],[-0.014568588397485304,0.033624987353322235],[-0.01385020368338558,0.015685363315474946],[-0.006739970970104536,0.017288231791084675],[-0.006614895300026314,0.010416065265012672],[-0.005663617796245235,0.006107092167988749],[-0.010473640792361693,0.0019609621006888966],[0.002024815731318175,0.009746573569003443],[0.0010708471259411804,0.01788626901506867],[-0.029896293887271084,0.008655511953449518]],[[0.025611133317375773,0.025132614449053906],[0.018003979340101568,0.0162156682227696],[0.005398696158733175,0.02807016144350436],[0.008420483841635181,0.012616934272521654],[0.016667781394686915,0.015293642475386744],[0.019658971024233467,0.008474638176320734],[0.02497256951398137,0.03412865556118075],[-0.001695679909525346,0.027623604078746738],[0.010412107795517593,0.02345179249646343],[0.006800001118650677,0.012890920481523495],[0.015945635869079364,0.022507059857312686],[0.02895848465294807,0.021730179408914675],[0.007387039659149822,0.028374297058323637],[0.01921754348779585,0.00997521180888375],[0.009331184263699947,0.03654970215382472],[0.03063652489080808,0.025766671201339453],[0.027093077034932113,0.013150578732958874],[0.030525258698794508,0.02717982425820136],[0.007826726423334771,0.0017585721077377295],[0.03052069095579699,0.021536442970796123],[0.018067994011553942,0.025650006757363467],[0.02789127336049942,0.03739034976538029],[0.03707417907618478,0.011805410004930416],[0.014738201386605861,0.06174107938074893],[0.01582881403173829,0.012025434496109183],[-0.004843708509733271,0.004044589748782832],[0.03729529974657661,0.034280995035224325],[0.014751069407135133,0.015377978065388534],[0.00842422086181817,0.024233659583990035],[0.023079751373296275,0.013737711979340428],[-0.004558689401200359,0.019063646061916673],[0.005267061772199512,-0.00627834334745961],[0.006826722210092812,0.020348788615360745]],[[-0.013226836119466975,-0.003595794017654112],[0.007359759477878468,-0.04340304029904447],[-0.02578774185975621,-0.027571671612261414],[-0.030703686152723494,-0.041777343718277425],[-0.018696316100256696,-0.034413212798150204],[-0.014064525078250694,-0.017914004801144346],[-0.026428313025066097,-0.022558498893871154],[-0.030716419353050976,-0.03800671535955829],[-0.017685665507561038,-0.005585404698505242],[0.0036579258886376914,-0.015249626478399022],[0.00256665764341661,-0.03288811942188852],[-0.0018546512797368644,-0.025854665628361445],[-0.011381639341558029,-0.0070929728865124575],[-0.032474519551673874,-0.0308181303933189],[-0.022697103217177602,-0.0203272789798372],[-0.023844422063975614,-0.028217191494656603],[-0.012505238200447839,-0.02788520809266192],[-0.018507890801290606,-0.01546003535664168],[-0.017427759517181722,-0.029556705701066596],[-0.01176308123145885,-0.002858014884359266],[-0.029600749919183652,-0.033472327216809185],[-0.0036791142253544662,-0.019568328649986283],[0.00034436159568562393,-0.022388247251782057],[-0.013842431291831084,-0.03250635946792453],[-0.0026482642485466234,-0.009391395276172302],[-0.01563491312523409,-0.008143721460564265],[-0.019095644918249177,-0.018351532567002466],[-0.01964016616893843,-0.022822210591967092],[-0.005079646209388011,-0.03397834859432929],[-0.013233864413434125,-0.0265767276481723],[-0.01613386800263164,-0.012467586168048952],[-0.010557252637976976,-0.012554185452155931],[-0.031264967866083265,-0.02212712302636572]],[[0.022688488605754325,0.022103843816998058],[0.01996100313979314,0.019802022805647634],[0.016878264762685252,0.021760788279506595],[0.015566384941812093,0.01330726583307119],[0.030946395580710034,0.021400164187562697],[0.012722119872009493,0.027700270450380683],[0.028290210706631153,0.0362866675055211],[0.01929646113333431,0.028600381753163893],[0.03123057868430481,0.007448630943942656],[0.014046093791337168,0.02311582651501645],[0.02134000664706308,0.013162988962376753],[0.024582938392477525,0.012584956137097217],[0.020638950799380204,0.018662224084339568],[0.011857275243544642,0.0030341283465789353],[0.006725769053877746,0.02738616295710086],[0.012649240817484446,0.015826253044403306],[0.006450332791831963,0.02037024365405882],[0.010765191447263503,0.026613817727061603],[0.011543495140619904,0.019647901151393008],[0.017684455549517503,0.0180035934270527],[0.016415779022239934,0.003381982155704417],[0.01850420362016153,0.005645493770279554],[0.0023903615267390835,0.03380008289867648],[0.006608095649413841,0.026748361822807373],[0.01423246955161427,0.022767331006630746],[0.02593474883633323,0.02373943491283442],[0.011064398834424534,0.033473838622542516],[0.0279354583360043,0.02043894560534129],[0.02598396859598288,0.017169500623254084],[-0.0037274638357714584,0.03480435484475294],[0.03281963930432353,0.02685946427588108],[0.036684349363622304,0.024642269697129935],[0.027388489311941187,0.02351928474471034]],[[-0.017445758745119125,-0.02519504474703248],[-0.014347043609356356,-0.008842080961778888],[0.01032133512515975,-0.022004116286553008],[-0.024491451427284497,-0.03912113063864277],[-0.0067156304378982205,0.0010475918231963835],[-0.018821146241465154,0.0018109570374752917],[-0.0032420360573443556,-0.015388765977817744],[-0.00815186731281028,-0.01709655750409063],[-0.019813275661007084,-0.007755633864343966],[-0.002030621651514031,-0.026626973759850115],[-0.013091724464204087,-0.02437707289598224],[-0.013272608637393397,-0.03029463514882912],[-0.025695976357870205,-0.022265997491862873],[-0.03315313369309963,-0.030275086727904833],[-0.020067931190492053,-0.013947711705197883],[-0.01996060439988009,-0.028751707417268693],[-0.00445751884815935,-0.012232409751420823],[-0.022424416290394912,-0.02002359983361674],[-0.031091101278126837,-0.0024784113486073798],[-0.019071665825539298,-0.021823968472941966],[-0.011182432867001385,-0.023076809185620644],[-0.01378096626576369,-0.02616604436370073],[-0.004953871191380992,-0.01991384637806044],[-0.017222325179416926,-0.008968212852812874],[-0.01542090490880104,-0.008948293768996184],[-0.013908567527863241,-0.00785983255730097],[-0.012788548420355003,-0.0247010880824279],[-0.004179731883518628,-0.016285773740657858],[-0.011597952945167581,-0.02956038748156465],[-0.029788430065452193,-0.0010311992986490731],[-0.02807133096014047,-0.015109232757027849],[-0.02260727679886082,-0.017631210426264903],[-0.024277424466397,0.004349501307302247]],[[0.026953258605509223,0.01945834451172309],[0.026704862516312804,0.021554635043359357],[0.041278435826620975,0.042063398619788625],[0.00026242650108540896,0.01148217193968146],[0.015051143283664109,0.03237570278934178],[0.008054291888891434,0.021550863610245597],[0.01894558211849042,0.025310872588909045],[0.020177857725220925,0.046146182305987674],[0.0381416365835927,0.02153451344793914],[0.03096829547920762,0.03250908667154822],[0.022776399121398557,0.029030546502175472],[0.009075374395934076,0.024294115617448365],[0.013064587860334272,0.02599586568126361],[0.010587644672897922,0.017845796425352292],[0.02057970604925318,0.016771231133017855],[0.022755856390327903,-0.0006934579958702111],[0.023267993664814957,0.02906106221534972],[0.0020084238341941756,0.014349232315101072],[0.018732470433852906,0.009014299934417219],[0.021433547806773187,0.03525420133268356],[0.010005134590757381,0.018892215977701774],[0.017510762849973206,0.0187586080033222],[0.014800623849147912,0.02619950533272615],[0.019356418457138383,0.03362304800960707],[0.018077604044686803,0.028149619374759124],[0.01951692528277384,0.021835439276958156],[0.020243611166831932,0.015399582731567439],[0.0228230880056182,0.013752427241838125],[0.044358303292355086,0.011417134537271018],[0.021914556410759588,0.03427359022728442],[0.02357932448840373,0.012445580353812323],[0.009103087742264477,0.008811383824517623],[0.00483427947810584,0.0302832371717326]]]},{"Name":"Tanh","Size":33},{"Name":"Tanh","Size":33},{"Name":"Tanh","Size":33},{"Inputs":33,"Name":"Sum","Outputs":1}],"Name":"FFNN"}