{"Layers":[{"Bias":[[-0.008706594902189405,0.0062664164962282385],[-0.0009718533176499716,0.0050228080844364744],[0.013265498512828617,0.012287211711459044],[-0.0009686068361511132,-0.03686609815766105],[-0.0008093431070316708,-0.012293973521885672],[-0.016867513138267724,0.003828041673452962],[0.0008326812633344382,-0.005366830121856838],[-0.0032701526137299737,0.011986847288082303],[-0.005061179488169877,0.021675369024549678],[0.009257749997529359,0.010887414085955558],[0.026759695745341823,0.017739797463306187],[-0.015755609813304497,-0.0017907493096906723],[0.008984257950612994,0.010217093664100873],[0.00756729258790797,0.017383308611110877],[0.0007221262780939194,0.004988152865290706],[0.0034711571270415755,-0.00860980456073884],[0.013449034663726716,-0.0029937530504415737],[0.018093557926696483,0.004849755885665939],[0.0016138303777685295,-0.001546015564185926],[-3.610618843004042e-06,-0.0009538451853580373],[-0.0015704788013173729,0.005762643945269465],[-0.014591476723308483,0.018646482018222037],[-0.0012539261536140705,-0.006182897054282314],[-0.0037471097523986098,0.013857972425183916],[-0.009566525389068655,-0.002722430759851943],[0.0005191122560488053,0.006564117983717891],[0.006129431653137826,-0.004700774799227799],[0.010097766188205157,0.0041243808374645296],[0.014784947229417873,-0.00246745381238391],[-0.006551466730465954,-0.0008794230472753088],[-0.0015831004858716526,-0.008022350937901905],[0.0007708890026808506,0.03641336007915175],[0.008060770976198527,-0.012013025515049245],[-0.0032317338589162277,0.007257135631930159]],"Inputs":18,"Name":"FullyConnected","Outputs":34,"UseBias":true,"Weight":[[[-0.017088006840097193,-0.017490533194872943],[-0.012500490730099088,-0.028510495754604022],[-0.009927554451500002,-0.011650058269993071],[-0.012071392221424459,-0.023617952053859817],[-0.009359143512358612,-0.040748318631309295],[-0.029174990696726296,-0.018111661643473227],[0.0018861256371192488,-0.02601267476146643],[-0.0118826255059225,-0.021586544950853086],[-0.02399191339819976,-0.022974882442369733],[-0.00958836995671586,-0.032345223432812924],[-0.019424139528559578,-0.02600039129706098],[-0.002981342291022141,-0.02950748083460052],[-0.021949370496311835,-0.02495485972529944],[0.0016330297775785968,-0.01935258859834564],[-0.01399079858424304,-0.024967355204283937],[0.0064856057642695,-0.03206292149049201],[-0.005116516953843855,-0.025940954786894167],[-0.03594418844830565,-0.03696061242211497],[-0.02904912812981488,-0.00941148494648046],[-0.019963122699559528,-0.015303072840430693],[-0.02206011817351186,-0.005854990241536913],[-0.023355102355483517,-0.046682918706665195],[-0.018295415514190262,-0.007754641145039234],[-0.02674026317487154,-0.007886145716292377],[-0.018943238618573853,-0.017434380201126386],[-0.025955597542206055,-0.012469892246321264],[-0.020678202770503352,-0.0295356201460066],[-0.019778648592683915,-0.025273365066945507],[-0.015359675242388831,-0.03463727566157037],[-0.008840453394586407,-0.021162743480956005],[-0.03420287221314635,-0.014129428343005027],[-0.02079529069238428,-0.020340607437840455],[-0.02494890187589308,-0.03083487871982432],[-0.019017955940925414,-0.010171557784087747]],[[0.023801341624795386,0.027273188365282666],[0.04220184722039422,-0.0012351535955729591],[0.003584328133297338,0.039345578287313984],[0.015959333817083768,0.0057608633653105715],[0.005197196148714526,0.004411858090015161],[0.0011820793677832621,0.0048369910730720455],[0.03369486967602121,0.015764009991350584],[0.03448439663178653,0.00931090080160945],[0.012060966093946406,0.023565574520159505],[0.0013221293099326089,0.010305887936628936],[0.03920231050952333,0.032015796307364064],[0.022633248418024738,0.01366564684643],[0.01938599973090205,0.021385596916464605],[0.02216691265097778,0.038113070910102236],[0.012535779224471678,0.01117057792661084],[0.03539489155992493,0.019600338800805635],[0.020458620131735158,0.015844396035788577],[0.0200370804381307,0.03321484300535437],[0.017534878933050627,0.015755216425731078],[0.02882712787433745,0.00645719671194398],[0.03008871371780788,0.016186114566345135],[0.023180434694224233,0.02843352056535369],[0.018485685266005955,0.01781949882643079],[0.023178818057029964,0.022351192029705872],[0.04511875492019287,0.005792148715344078],[0.03377206068299962,0.018204967974052744],[0.026282009151760637,0.01507207515426838],[0.01754265010930167,0.040848350339773076],[0.017673269175386964,0.0317473800675376],[0.0359447347980932,0.02086237446688703],[0.014885413635587283,0.026918829288306762],[0.011021575479528789,0.022113573179616628],[0.019010880020120906,0.02437581372789316],[0.03951053512633914,0.020866917588637093]],[[-0.020813433900906536,-0.014306743839263303],[-0.009795850313328025,-0.021821444400692343],[-0.003919571252169028,-0.03681987930515055],[0.0024717916609136954,-0.017084671715672982],[-0.008601307702927564,-0.02429508537370858],[-0.0073001768474708064,-0.013049541263358373],[-0.00929782130903406,-0.021399980516485485],[-0.0058105570174959344,-0.028428180253412108],[0.0007164023912105026,-0.04197434988113045],[-0.016804369741288856,-0.03660457659691721],[-0.021722006500250964,-0.012984907176318962],[-0.02368534281347913,-0.019433275239828175],[-0.019898539760603167,-0.022356172663338905],[-0.01161027188330314,-0.021045270245149232],[-0.013994363403005557,-0.013915527900081484],[-0.02818180355733167,-0.006298146177832651],[-0.007444323945119546,-0.02121249194157568],[-0.004977400380854167,-0.01595191302879348],[-0.006309227042721706,-0.018858546267253994],[-0.0020564246199795307,-0.022219946257160006],[-0.011121562259688446,-0.014076058969410232],[0.007320435584067783,-0.014886469740088042],[-0.035845510978291986,-0.015379355304520555],[-0.021912892006303177,-0.021530630023440633],[-0.003470169248133392,-0.015074558775283391],[-0.011140317041628031,-0.01482258814656475],[-0.012859882063914644,-0.002211806323963635],[0.0063040140885106954,-0.009201767214667493],[-0.010621942008209567,-0.0026487862114611175],[-0.00456075732874057,-0.009353090184440175],[-0.021917024376964394,-0.017358684844129064],[-0.02810198363494983,-0.024097641833783497],[-0.014848083112209101,-0.006357533993386319],[-0.012201447157468803,-0.028657701924992417]],[[0.015527398705797574,0.03700395321601946],[0.003305736801558033,0.03202726734568788],[-0.0005911162143202265,0.012836657401477157],[0.010617407580802447,0.03833549557587955],[0.004491484869711821,0.01966386081225716],[0.007934763025387773,0.02377537362818304],[0.0069789604110548084,0.029932600631868953],[0.0030426715464152904,0.01653778791576339],[-0.013986293285278744,0.016287030583848734],[-0.01557727974976945,0.008491470662811399],[-0.0138917480407629,0.02085013491513039],[0.013520333557912528,0.027064017024218467],[-0.009328499576202205,0.018913267369438387],[-0.0013118556104710303,0.0170167926879223],[-0.012683320166312961,0.011241040891609431],[0.013212280764819064,0.020110304395757343],[-0.01438080350105341,0.034625962757655324],[0.004512240822090976,0.03129652589900338],[-0.019876649007242144,0.02924631006645193],[0.005452144489182111,0.008462641841598888],[0.0015670081143813403,0.03269384499849423],[-0.004884900841398781,0.021118012038101295],[-0.013984035379050888,0.02209595935836201],[0.00495249668734035,0.028784662283426302],[-0.0020357098222770933,0.006286808540089339],[0.017517118432642663,0.017484925003535906],[0.004008918257326406,0.01908219915097525],[0.004143003605092701,0.040190835601999084],[-0.0240298530068836,0.020581783273604184],[-0.0004029730465378776,0.026465410811590158],[-0.0040913088361937,0.020979113239865198],[-0.005346492599642635,0.017279776061675023],[-0.0004439420156724312,0.02907680027613796],[0.0016537944036573143,0.03777695213397909]],[[-0.013134662340247797,-0.033538822113543684],[0.010024956090616181,-0.023058020653364604],[0.0036477073050913524,-0.027106120473452157],[-0.0007730078865564197,-0.007534224068123592],[-0.00342557659304042,-0.033357691927572486],[0.005850065652276696,0.0013828103468459317],[-0.011983597410801744,-0.03228126813548277],[0.008290314521099967,-0.015676140628172297],[0.01384450274435099,-0.03195800509461543],[-0.005230947475215446,-0.02482315849116515],[0.013983953887923338,-0.04425653285876227],[0.006354715936451223,-0.013836557928338268],[-0.008878770276058968,-0.01646281852054964],[0.0052074881152543735,-0.006912341293078102],[0.013698006692783265,-0.028117364362844757],[-0.0023524187810687832,-0.01751699119071416],[-0.00896471805884632,-0.02839883732556659],[0.0019541537953353914,-0.02062604215734918],[-0.011298764541174072,-0.012320840558447793],[0.030016187731189165,-0.030725142044257032],[-0.011595848396437472,-0.027302023326176886],[-0.006675983983146215,-0.03363717960681448],[-0.005867125828295701,-0.0272772744617795],[-0.011031098528046698,-0.022668738164229534],[-0.00827409120467576,-0.02884363966548572],[-0.016446848379244157,-0.016210407955260207],[0.006459926372284873,-0.03577949124195501],[0.012093214877855286,-0.03230184782472338],[-0.004765470122794773,-0.03303519136751863],[-0.006811355025103874,-0.02032926811565438],[-0.018994515118040036,-0.01956490521285996],[-0.008164140064748783,-0.030575210725618654],[-0.0003065742617867458,-0.03257398009255798],[0.00477745550197986,-0.022577428002933938]],[[0.011170923018741393,0.020213832305670896],[0.009305894768539696,0.0165170846227648],[-0.016904997017416303,0.03365622572748726],[-0.006221729037411017,0.015519554668229758],[0.009237057644321211,0.01585303634598694],[-0.008716587255357889,0.02412921199277276],[0.0044835232725495226,0.03570008489319822],[-0.00025621641404749765,0.016031092894587907],[0.013508792882495029,0.042916750293711586],[0.013940799869356885,0.01273000463188791],[-0.01569175399258993,0.028363586404194868],[0.008936523759490674,0.02768442894253834],[-0.00659441644253347,0.006356681913454608],[-0.0061311446553271145,0.016780573922841303],[0.011502636727604577,0.018517172703320546],[0.00044382003165037084,0.028793945728637603],[-0.005360475266700772,0.03869720667089971],[0.005118056375732144,0.037685832817432804],[0.002455375902931181,0.01730437825899525],[-0.010120406537803722,0.027609185276166976],[0.011856242342620922,0.01655854316573262],[0.013346266104316678,0.009391135924984171],[-0.011441824936806394,0.02838406352078559],[0.0039552770911009125,0.023852167044171316],[0.01275738375919199,0.022745301568996297],[-0.005953493457286697,0.02615529107301274],[0.01424523243460595,0.02295295806311621],[0.009199298828054892,0.04321132105421805],[-0.00619799960577758,0.02450560735255303],[0.00835959903562465,0.020581956668782847],[0.011556845665862287,0.0322383541341434],[0.010537365183799332,0.023143436779471234],[-0.0020348135505935693,0.01952020256428497],[-0.008133504790841583,0.022322061476900683]],[[0.0051847567021543845,-0.01808688410466842],[-0.020006091296808092,-0.024246670777736387],[-0.009639100115526532,-0.031092533813526856],[3.6750201658684975e-05,-0.020673266049992305],[0.008091212754512408,-0.011915509133065596],[-0.004966003594224288,-0.02448650401872275],[-0.014049716299372616,-0.033158498166288235],[-0.006910083006849301,-0.02213136177912252],[-0.010709845549215563,-0.015437727148220368],[-0.020911449724883187,-0.025894405089233664],[0.011772871552309834,-0.018008790118502233],[-0.013676633753894406,-0.030990896198765383],[-0.013387335122932961,-0.039211817113506124],[-0.006170865144231492,-0.026522805181260878],[0.008838156813738335,-0.010296224771491612],[0.008589160123758781,-0.035364170264248804],[-0.0036682848245882544,-0.03315419278601421],[-0.012780975943526545,-0.039442998249900406],[-0.006467926888333411,-0.029607511567575164],[-0.00875169386945835,-0.04027237735485057],[-0.02655555219118715,-0.02610628611054111],[0.0177141667870231,-0.024789588113892307],[0.0028192475571951143,-0.04522393777290124],[-0.006960643858863042,-0.016834294967359352],[0.010881757800795413,-0.010765623462819007],[0.0073548212496447034,-0.02189663864020385],[-0.00770709794779615,-0.010224254340445774],[0.00569584459494666,-0.022279023911326114],[-0.0068635885200262065,-0.030598828708185373],[-0.003401261479796438,-0.03916108598635297],[0.011024995263200565,-0.0410073035509638],[-0.012287116139978798,-0.026021234390271097],[-0.007573247562949921,-0.03939350815845299],[-0.00415899802793925,-0.018049482353937475]],[[-0.013691239861342332,0.02356412850046339],[-0.020919953553403908,-0.0017023543153599613],[-0.03199019589781973,-0.014107849055364729],[-0.025125851953466775,0.0018588589891850398],[-0.02948039655793222,0.006088834098753024],[-0.008841310654075498,0.012449085595959341],[0.0030301874026986103,0.01329756330625347],[-0.0013911893334291841,0.009250497809907174],[-0.013645805079130003,0.020890678859900223],[-0.03443465440658602,0.006449294593754224],[-0.024991704421084667,-0.001004663862715562],[-0.012596744815003528,-0.013542208770692416],[-0.01543360688153799,-0.0031367499062258126],[-0.03656129810864377,0.006446096537519978],[-0.0056777681107160576,0.009500715573042984],[-0.024919208174118506,0.018736974553558598],[-0.003785144354242384,0.018740294019786212],[-0.01909655960875307,0.011882305461721785],[-0.01871937446267308,0.005424366356968395],[-0.015636084744620332,0.0024413316980652928],[-0.015434372170839884,0.015671752447456958],[-0.017906873692466255,0.0011941496445479526],[-0.021658825438592953,0.009978467011498928],[-0.015807625737135067,0.008253965825729459],[-0.017229588427716547,0.009726971134818838],[-0.006670007915652307,0.006162306564992464],[-0.009076748362554185,0.007943660958908411],[-0.01141260169626865,-0.00169916286905501],[0.00496566945900762,0.014612201520889805],[-0.0053500326206395625,-0.005946717817881092],[-0.017835680169923717,0.01297450151082612],[-0.013855746433188328,0.01348706539427369],[-0.014655417442341837,-0.0026646852783892235],[-0.023486278857822677,-0.017272724115977765]],[[0.030408487383914076,0.007298376808212231],[0.028623655224653214,-0.014279520057717853],[0.026664661256619007,-0.002704806713545543],[0.03610854325905229,0.0011761669213016235],[0.03941128465169617,0.01917256862283828],[0.020849013537606514,0.0035778423764063058],[0.022076475488131592,0.006248691354350098],[0.027748622965796048,0.0094641743720242],[0.03154047078684188,0.0018020677717015914],[0.033851074558128226,0.0024086303631412832],[0.021926325923582648,0.0007543228544445789],[0.034672591785157324,-0.000866607231592594],[0.01833234772220812,0.006081303410013567],[0.022277022370921287,-0.0030253939868537076],[0.028386988730401387,-0.012386378775706369],[0.021072499303921872,0.019299470393762605],[0.023278416411909034,0.006256398796405555],[0.007830915478466195,-0.001557861058199624],[0.03458002161011894,0.00391831014764184],[0.020435513936560266,0.020506147867490648],[0.03964949466310434,0.010308396881754351],[0.029451593476975773,-0.0014880258043198553],[0.03341274429969665,0.015570041141644614],[0.023677755756058242,-0.010989040589825848],[0.03311399942528624,-0.0011313552645200594],[0.022621116764174203,0.029819732423929175],[0.019625541087639076,0.0014898734589153288],[0.020440012324090755,0.02178226205238985],[0.010155663730687858,0.004788566324320347],[0.026021847999274185,-0.011616857798058742],[0.01987039452781108,-0.00422627466592685],[0.034960415896480565,0.003974189033740148],[0.014976921584698292,0.0128220442961103],[0.02407907479663405,-0.0005387603910686414]],[[-0.015230756804191028,0.01077353247216213],[-0.028873396631370018,0.028560111964920004],[-0.023309993557863843,-0.003109683499743683],[-0.022542559714413272,0.011581381326189667],[-0.0027529931783876424,0.02199471921340109],[-0.011867245083311204,0.01823820275539276],[-0.00025868964703339576,0.011212416905974252],[-0.03378076591782291,0.02786469777090659],[-0.024441172958447176,0.014901634865910231],[-0.012866976916353462,0.014163118584455564],[-0.018614259242162784,0.0069645602651449865],[-0.014877571532115342,0.009221875954763585],[-0.028303705001288097,0.03219595650313718],[-0.03348134996600789,0.01601878601213039],[-0.01253886537285953,0.01212172659390272],[-0.015975003966615588,0.016685580951709574],[-0.013934965365361237,0.028490137568633285],[-0.01632803459735264,0.031310579073742455],[-0.001487973283670522,0.02036912011455423],[-0.004123326039523523,0.02108331280876994],[-0.025273286936346364,0.022080823130360763],[-0.031617372983861594,0.018456826662345747],[-0.0045910722086263825,0.003546582098062749],[-0.02011937082197734,0.02669119763138801],[-0.009577895345824093,0.021312413615700385],[-0.011610271858032489,0.0346863723560317],[-0.023281368701676367,0.025168598941166593],[-0.015188575313630387,0.02655793080941291],[-0.016564214508595892,0.013084118503459145],[-0.020574277488317846,0.03406736000621974],[-0.022610608776166472,0.031689062996222345],[-0.020977472305080524,0.024815733784023592],[-0.043373428595830925,0.025601218610893567],[-0.03429121470323906,0.022179183161851294]],[[-0.0034818822192421396,-0.009192775856211761],[-0.03262337988622398,-0.02042740877000817],[-0.028053022663791977,-0.01780772536807706],[-0.0004158105250996543,0.0037166827870121493],[-0.008777700753774717,-0.005287372382459496],[-0.012167007425057079,-0.015548895724049026],[0.0006176118352374365,0.0015566357216129378],[-0.029859923473713693,-0.01948389252319622],[-0.015735734238694146,-0.004776453997099994],[-0.0035515645993543545,-0.015173110880461074],[-0.006410712920388326,-0.02928616140021249],[-0.007058320614638713,-0.010748733992992088],[-0.012064427354187364,-0.017899240731328286],[-0.026530374315005083,-0.002147015769029373],[-0.01200322550923496,-0.013246392859136806],[-0.007941164110528158,-0.024298585925961697],[-0.01184288520351359,-0.002349806832643047],[-0.02518164292389938,-0.004785838057276774],[-0.008427464759951642,-0.016036107168605002],[-0.03529627421566768,0.005417323352658747],[-0.007849813176599087,-0.01771955120292823],[-0.0152268118889518,-0.014308180565752393],[-0.010749946288314114,-0.005819380235705105],[-0.020079612105137604,-0.010231761549059798],[-0.021926398428971938,-0.00040391074435857337],[-0.009950398017003087,-0.00019908347229359873],[-0.014050428732186652,-0.020876761899251688],[-0.014490910411119549,-0.020903654688524828],[0.0037710943486911745,-0.017990584269990072],[-0.01734670997417827,-0.016365681676570192],[-0.019475013632503476,-0.008634614186382271],[-0.011726441973343884,-0.020867197983487958],[-0.024014189067650422,-0.030849857785124377],[-0.02171476024994484,-0.011917484863140152]],[[0.03213242417604821,-0.023820570233992686],[0.01135791141279487,-0.013944138666242667],[0.03189354643958999,-0.017659309257409658],[0.016317495886941123,-0.02120284014968667],[0.027759908516802115,-0.015491593262123175],[0.020102435864310705,-0.0320908560056481],[0.01865555605930133,-0.040298076476778244],[0.00890272509856795,-0.033143863990391306],[0.023390336821860973,-0.02813639681636442],[0.01926255726496427,-0.033572009916926604],[0.029960167694969637,-0.03145539800296509],[0.015095324776711142,-0.004508359542528026],[0.012847966289450511,-0.024233478314757636],[0.03948948496931975,-0.011983325221683206],[0.01721952355479144,-0.017374598362248937],[0.03827420124933321,-0.0453636865682996],[0.04083051676812789,-0.03447364159636338],[0.021228704131198935,-0.021335163386352374],[0.02450779431700182,-0.0105197278318408],[0.017263335489247533,-0.03506562295214389],[0.008473651237611481,-0.015803542842257934],[-0.0022895010669666898,-0.02965072284367519],[0.011539000806635774,-0.023064450672451043],[0.0232801343499308,-0.04159280502489304],[0.03757808817743037,-0.03154977011940604],[0.046292747559113535,-0.031117917456653616],[0.039738722141300704,-0.024487306824475308],[0.023275847194844837,0.0039102068325687555],[0.02924495479892019,-0.008211670695658051],[0.03220771316751713,-0.012368284320673086],[0.010366842916523405,-0.03677533895500193],[0.0029516740498046253,-0.02397620549291161],[0.02296504643467016,-0.020452487563596168],[0.02687307235492735,-0.019040458566171568]],[[-0.02377425995231908,0.03684264053396535],[-0.01935994513718603,0.026916890540966933],[-0.01305101615263052,0.006170205180184607],[-0.006158758186433022,0.008907939866681267],[0.008938640582984455,0.028092176811331946],[-0.014955327263577565,0.028433634028829088],[-0.001273826160806673,0.006126089635314894],[0.002735064255521351,0.022134010685352902],[-0.022687760069112765,0.016610529294716778],[-0.01745825041183817,0.03585742197671359],[-0.026960878811582992,0.018800118714570373],[0.00514063927974539,0.027823050834103948],[-0.011702098790334419,0.030669356354219864],[-0.006000880408001639,0.027377704848969224],[-0.016014911208786852,0.0405920881000257],[-0.009334968828699318,0.06038014497667358],[-0.012905814124293284,0.02633894900852307],[0.012181982756732173,0.03833391701754658],[-0.009826893241353567,0.020050276191292755],[-0.0036083046962617753,0.01514071813600777],[-0.01121195985820987,0.02536828814071284],[-0.01723746600240851,0.021559625919535905],[-0.014330839258475917,0.017744406471354657],[-0.01601510729359799,0.01820987330394226],[0.0022055329623400103,0.022767362161799653],[-0.009490806826851104,0.03986811008687879],[-0.00677883831706516,0.03139260824857255],[-0.013695627896648691,0.03052748728477007],[-0.0053019466875999675,0.027232339218540912],[-0.005867437175177009,0.02437357945580389],[-0.004219961666297798,0.012841573340977911],[-0.02770251722524559,0.03827060971874523],[-0.01167389575310564,0.02692351508978753],[0.006056362772385284,0.02938001215812876]],[[-0.0056919927758251315,-0.023951630452882254],[-0.011085562938541522,-0.025229764192808188],[-0.013014068241527956,-0.013593546936091655],[0.0018098718594196513,-0.015922765680807954],[0.006096467697617322,-0.0023334325707337423],[-0.002256678659865634,-0.005572749419971765],[0.011580345573505568,-0.02995424239142834],[0.014057826989867519,-0.024143993085386214],[0.0023869749646804354,-0.018302537791093164],[-0.00634928393595091,-0.01801925642164257],[0.0008729515195072291,-0.011548442426927662],[-0.0032653704081541174,-0.014031446045955203],[0.007569156449303725,-0.019079835872101533],[-0.014946352078316792,-0.0320010942346907],[0.010913908751143632,-0.01570869897490034],[0.00025497403726151607,-0.029818871689078437],[-0.002820477649761478,-0.012695715663034809],[-0.003480878213579778,-0.018307605573452256],[-0.0009311824934827393,-0.015304061277163888],[0.0034547917913834874,-0.025554921515779115],[-0.012587336933911052,-0.032834841368059586],[-0.01617679385377153,-0.020070315191291516],[-0.007107557887542825,-0.02713063080663316],[-0.005329121826210551,-0.024811304291304202],[0.012172873228104458,-0.0002903482496905413],[0.01774280160141773,-0.020727610981878593],[-0.006722126564856161,-0.01693998635654574],[-0.0009450222220056861,-0.027537221477671393],[0.014435512229825151,-0.04291924553323839],[-0.0024178875397437454,-0.030421320592035766],[0.016345238101029568,-0.03730007433557143],[-0.007717371339949976,-0.028367593721792095],[0.012028966456713254,-0.009372270234559001],[-0.0016383246976257205,-0.030406257767414607]],[[0.021660467403311002,-0.0073285225705936605],[0.020164415869711034,-0.013314364144591178],[0.034954569216007494,-0.02152366950875831],[0.014650764080175745,-0.0061874427065147794],[0.003583286723338405,-0.008230208916454743],[0.033902764236633395,-0.024267379203115037],[0.022902769779822123,-0.004708114694029963],[0.02611940197946482,-0.021694265291853383],[0.0064424133496553985,-0.0068214195942424794],[0.008384230608489545,-0.007444976221028064],[0.023204071897846023,-0.010008738310433756],[0.013141614438956924,-0.006925771308327852],[0.011171546968736661,-0.013081351912126022],[0.0205924111943178,-0.030320488908051505],[0.022434167278866136,-0.027126158342458136],[0.01139132930906886,-0.008757656800725959],[0.021799223482485083,-0.020868764175302302],[0.012495752817301921,0.0019622329309171827],[0.02498390258428224,-0.015193118531094878],[-0.0024692742459685242,0.0019049588371103786],[0.025324263336443543,-0.01453505837576367],[0.030998526823623206,-0.01109873237021256],[-0.004165050193198776,-0.03256003596406044],[0.02366229870843339,-0.005249588730406617],[0.015741810418995476,-0.0028244910567944933],[0.0199079968456311,-0.014949961851719259],[0.03123932268921931,0.007566112844160471],[0.03506662378891676,-0.024527444570425692],[0.0005605303194890288,-0.02329504912312295],[0.01711291079858748,-0.013148704722370442],[0.022249739711104694,-0.017634331159883773],[-0.0007909713432285364,-0.011207313213237313],[0.020496823892500883,-0.013106479547664494],[-0.00791688206141688,-0.029581141458393145]],[[-0.022170903240170636,0.009935074779443047],[0.006771901491988768,0.013994498558327493],[-0.015086374936003823,0.022467241397987163],[-0.021572401334494843,0.037299077892599265],[-0.01872929705557634,0.015255360307930394],[-0.022765949821814995,0.02555175942224798],[-0.02057920083665835,0.018429693885729202],[-0.015812659301676454,0.004866894734403912],[-0.022297130262212694,0.005895098677161915],[-0.022422304581480864,0.021815718918034584],[-0.02080724537020359,0.023769299436991985],[-0.025348167079735834,0.014912675457240376],[-0.03236693692870972,0.024275476118082347],[-0.014477031390939725,0.011455552045879195],[-0.01573142459034221,0.0006143968690843458],[-0.020964673490932548,0.027655770743323524],[-0.028410736349137454,0.01598878923436657],[-0.015262212373364519,0.008462662418697496],[-0.03035859988936814,0.038172148089697766],[-0.03199592029006725,0.03363126947056007],[-0.020990008047402288,0.02266757004127372],[-0.027862038433263764,0.03965835821288427],[-0.026450061776467637,0.017601293923109048],[-0.023808075101559967,0.023567590547533226],[-0.027022763530903375,0.007427274047471369],[-0.019404016627645418,0.01787970702744134],[-0.007180770683938656,-0.00017597531306402846],[-0.018509038301535254,0.020654074520136834],[-0.02750352692084761,0.00771549550241361],[-0.00802758462971326,-0.004144401880722085],[-0.02703715960838054,0.024486827876256053],[-0.01802235324065019,0.004280754117774624],[-0.014587107027109109,0.0015429512729335103],[0.002685846123504015,0.010481355620285869]],[[0.0297504063392582,-0.0333706763232945],[0.03865612267310753,0.0012729215212491812],[0.00045832288286412344,-0.03181817917551149],[0.0043723723390424385,-0.01854329825253379],[0.0016793756172668235,-0.0369866751114964],[0.034864564725374254,-0.01613553107100513],[0.004057892734153249,-0.02481488048007417],[0.005320618595548138,-0.015794210265722614],[0.01655286236598315,-0.026577641767808757],[0.01667033370871056,-0.024262475990427853],[0.0226599678472891,-0.024371118718063287],[-0.0008225127409379363,-0.025530555526523294],[-0.0061447517910013134,-0.010848438231785325],[0.007685017986170461,-0.02080959252372376],[0.017023105325924843,-0.008659926154333366],[0.017320636972956074,-0.00862008365597378],[0.0187578243024107,-0.018619875789060204],[0.01701375817997757,-0.022177543575735256],[0.008727515562545038,-0.021205237956741608],[0.017903788415941195,-0.004899060410626937],[0.017130771658758207,-0.010786770214967737],[0.002492598006180467,-0.00935757674619999],[0.01221820808333672,-0.025091924182700457],[0.012404648604840076,-0.006845052291451122],[0.02405259310109209,-0.029149960383093042],[-0.0005944473975583157,-0.025894553638550723],[0.020701744188313664,-0.02615876563509027],[0.017084064596708144,-0.015265303069032432],[0.001936826127601869,-0.02254327843639879],[0.016137411632460658,-0.03382998740555446],[0.010120521035473302,-0.01665109854745318],[0.019448314847000728,-0.014077390433256889],[0.014561794206155929,-0.03341130380978006],[0.026068052936011166,-0.038289770161299114]],[[-0.0009700122591589564,0.024946255610531765],[-0.0064063820747283645,0.03216159546977598],[0.00646784825419409,0.006245419647964742],[0.0012833711340997703,0.02563280342069637],[0.0018907444622848265,0.028053389302934453],[-0.00949356304368374,0.024743193860983406],[0.011098260435360526,0.02081704298577182],[-0.006704846250516479,0.02634093057826694],[0.02064027624845808,0.01696608549709301],[0.008299961788022362,0.02779979478208335],[-0.006548283354302954,0.013830343184964218],[-0.017743866933581705,0.05232933336422851],[0.013030210260426372,0.015010904357914516],[-0.014512770618779605,0.031520266382286395],[0.006245437982771528,0.03534462518894015],[-0.008066301765177742,0.0034378453922117394],[-0.0047313708726732205,0.023614301385404376],[0.0070291267568325135,0.03415539537475683],[0.005687385958875701,0.014758848684892465],[0.0045288628814120855,0.012347429852664136],[0.012069852044041752,0.026349818981518638],[0.0011383283394826302,0.03765067632220024],[0.019737709622086187,0.03645135032679772],[-0.000215155288479452,0.02329307336364092],[-0.00686466084489263,0.02977658617873329],[-0.004574916837150255,0.030914610123560667],[0.0069060138201240875,0.020419625677056165],[0.002534874703460431,0.032391355836600515],[0.020278744748650268,0.02214685771215695],[0.0009476634715560293,0.044427566287504314],[0.005361583143452642,0.019409044078464617],[-0.008313031494803056,0.028510310460352798],[-0.0007932834949250331,0.027433250756955747],[-0.009865152305514413,0.02950451381767208]]]},{"Inputs":34,"Name":"Sum","Outputs":1}],"Name":"FFNN"}