{"Layers":[{"Bias":[[-0.008706594902189405,0.0062664164962282385],[-0.0009718533176499716,0.0050228080844364744],[0.013265498512828617,0.012287211711459044],[-0.0009686068361511132,-0.03686609815766105],[-0.0008093431070316708,-0.012293973521885672],[-0.016867513138267724,0.003828041673452962],[0.0008326812633344382,-0.005366830121856838],[-0.0032701526137299737,0.011986847288082303],[-0.005061179488169877,0.021675369024549678],[0.009257749997529359,0.010887414085955558],[0.026759695745341823,0.017739797463306187],[-0.015755609813304497,-0.0017907493096906723],[0.008984257950612994,0.010217093664100873],[0.00756729258790797,0.017383308611110877],[0.0007221262780939194,0.004988152865290706]],"Inputs":22,"Name":"FullyConnected","Outputs":15,"UseBias":true,"Weight":[[[0.027630337308189194,0.019515550924827083],[0.0397102066949036,0.04275543188574379],[0.01847268373587958,0.019484030589709413],[0.03628011562339307,0.03241076493077068],[0.022706094321961048,0.04763045549925093],[0.0062039906370189545,0.01292883390845405],[0.027579110576964393,0.04116713324708241],[0.0058174076738767766,0.03563688457349],[0.02563373967790599,0.02994104508718292],[0.03032256158145767,0.031285505298920366],[0.03770314154701856,0.03281549569394277],[0.0239590304077455,0.018049634998843562],[0.04387605415312281,0.038086748966497136],[0.02854707106611369,0.010945774475735996],[0.025480531400970854,0.02393623887117058]],[[-0.012332572399442276,-0.030589303782801266],[-0.03908441623233801,-0.03765477638051277],[-0.021610018488666016,-0.046535353896551626],[-0.02813349327117646,-0.04478716855937336],[-0.03397789526953285,-0.026078409954004768],[-0.02034794003573921,-0.022177570542259856],[-0.03463259719438173,-0.03654654315191912],[-0.041315186074237745,-0.03610213512349302],[-0.03758934186785151,-0.02231343290172992],[-0.031218856510642108,-0.03317075116450505],[-0.019595037955639,-0.017952512195307344],[-0.03190132599111109,-0.026174530428820196],[-0.021083357526547598,-0.02357966889058874],[-0.021327162282650473,-0.016195037855804343],[-0.020492087133387942,-0.030340521220477167]],[[0.04097479932184136,0.034857428211279316],[0.03298857153715349,0.027563197499602562],[0.0094468381743269,0.03821461560755087],[0.008954757685694805,0.03653235278223188],[0.022028032141532275,0.031000830777580844],[0.03083963222849102,0.031409169137954815],[0.04114488590597935,0.03636626505137029],[0.012011355496368262,0.018808527037836493],[0.020703426608240406,0.018108793123861027],[0.042946282992756254,0.04198995598279354],[0.030754172277902753,0.03503379413646999],[0.010016529804408801,0.04185046014576805],[0.007022473848905971,0.018124805483632846],[0.026990098990204037,0.0407126525458246],[0.008524065702049867,0.042259758267427096]],[[-0.012540213675428987,-0.033777848436801906],[-0.0037705611828832784,-0.026111211230555598],[-0.03245107947677655,-0.041681933510561237],[0.0025503770084720793,-0.041651964956502016],[-0.009526297484469676,-0.05255496063900962],[-0.008472125229842045,-0.007369426060379425],[-0.016529635215216148,-0.030643424624739964],[-0.000719849853053127,-0.03345964519446135],[-0.010169842232620682,-0.03874903560953602],[-0.023142206678547897,-0.026749218595476736],[-0.022631951638932057,-0.03901522332465254],[-0.011892126944739937,-0.03915376547188135],[-0.01181178101321763,-0.05044878435579521],[0.006318451792158451,-0.04386956349819235],[-0.02328690894096507,-0.03715107373279196]],[[-0.005460799701103904,0.02499862738767085],[-0.003914971835467359,0.04257763049299573],[-0.013871888666810555,0.03395305260940064],[-0.0004242485429564354,0.030625736092101778],[-0.019397261845458282,0.010330818012860144],[-0.015237369214351535,0.02742337743411992],[0.0097231146812578,0.016811720796020634],[0.0076882224396845585,0.02192670688035283],[0.013046506778484878,0.018278913101392985],[-0.019325309315065358,0.02442873067231767],[-0.0028204767891285513,0.005471293221839936],[-0.012381833790154903,0.023663712960885652],[0.00018509500210766566,0.019614046739993812],[0.010800433565752094,0.0255192987236506],[-0.01188125722569442,0.041991372112246864]],[[0.012432404113050813,-0.016858072563596657],[0.01995930364813203,-0.019982622807127957],[0.005342067721805196,-0.019065648975097462],[0.0018925452518260026,-0.0343784566534889],[0.01813541908634122,-0.02844828042911649],[0.014235605488303753,-0.022899714780860062],[0.028946839212250552,-0.010086772655190288],[0.021872136739495094,-0.03221144437584726],[0.018401403038738783,-0.03454074907676343],[0.02781868997337031,-0.04339765290223775],[0.024223408049375297,-0.028147606846932783],[0.012999914068656809,-0.015313183161844532],[0.009119240355132332,-0.023369870001701164],[-0.0014450767680628885,-0.010451341233240562],[0.015533324257939796,-0.031567403548151525]],[[-0.03697482964787842,0.007170977716685298],[-0.022175116318208867,-0.021055140512357098],[-0.03438133133103352,-0.01658704110163477],[-0.01805208505808816,-0.02986972962230091],[-0.0178682402468997,-0.01418552030512118],[-0.015991206470509573,-0.005965389286073935],[-0.023500407862613138,-0.029828862075700548],[-0.01807669675093811,-0.024402587446047085],[-0.040198492526549244,-0.0212031290150917],[-0.03913869979389262,-0.005770225029023584],[-0.021821931046133204,-0.022606797029755644],[-0.015726611943188286,-0.010437112780928097],[-0.039032703931061855,-0.004594882887979244],[-0.009147444351792454,-0.013739076721620997],[-0.010935040170676449,0.00032581913775293295]],[[0.020045010582685114,-0.0014779313512106253],[0.03214339897970196,0.006489497978922819],[0.023213204451672322,0.0034941389833527668],[0.02321443459596118,0.001512204514127492],[0.01770521331433755,-0.005173129759110172],[0.01769588362375547,0.0036225249730039194],[0.03072424052011555,-0.012530767668811681],[0.014050894786441013,0.008971194468237785],[0.017228410869910924,-0.013432089440387311],[0.038270534456768895,0.010903681331298272],[0.02856696058430541,0.00493353984214249],[0.014220335550697927,0.003727151215817922],[0.0212950282331426,0.00016280136370336887],[0.018778371126309184,0.010667570977748146],[0.020125286498058,0.006301081393003173]],[[-0.024521875546930166,-0.006923147871445766],[-0.008414952615827875,-0.022656971828007962],[0.006116451172765501,-0.024580599617216464],[-0.023952700889359704,-0.03505376958150302],[-0.012601301026943087,-0.02758639108232445],[-0.01720301746729067,-0.022896086224219427],[-0.010106835688948058,-0.030617135295347857],[-0.029616192432760355,-0.019079834687091644],[-0.036328417736342586,-0.03466352644965989],[-0.030533013107480356,-0.028724754739841787],[-0.025452052015164928,-0.003344761136543294],[-0.033022387247932994,-0.014299622057461606],[-0.027376255481971798,-0.029644055020202748],[-0.021394538639613936,-0.014645481699673807],[-0.01927073774934071,-0.012644151410978908]],[[0.013227700700917128,0.023714990114254153],[0.009719096082289751,0.03991823840087318],[0.04888168821768698,0.047770781426244],[0.037999861625800053,0.027820270611891317],[0.036084165012658036,0.0387294174877693],[0.024953563127573634,0.021865833282119957],[0.027446847715470023,0.03383284360494838],[0.012789202772872477,0.02388772929665198],[0.01739513178584912,0.02509385884833155],[0.02026848536341821,0.0225314606220766],[0.03863399531435419,0.030898648701011756],[0.0040808137535781564,0.035649421673209475],[0.021533706561880826,0.030989414427482806],[0.03658211238190442,0.015280756356586106],[0.025277685349117143,0.035064922173525935]],[[-0.025996520223075702,-0.022169604860964646],[-0.0331200407228717,-0.03256712590485463],[-0.035058594941565185,-0.021211772343635475],[-0.01587459709036364,-0.0127721040846446],[-0.040762571928920875,-0.029583859326426067],[-0.02618580761215834,-0.03887986014771623],[-0.02697551784047458,-0.028098006837867607],[-0.03359193529709002,-0.02520166097470695],[-0.01363842548650037,-0.03866202534447635],[-0.029690898310735226,-0.04212233126252007],[-0.030693418355200692,-0.02264694149792758],[-0.015622002606410449,-0.03836246345549693],[-0.03917532483747906,-0.03986655876891473],[-0.036201383545107144,-0.0169357188716205],[-0.005457726708341157,-0.04126264573843151]],[[0.03297635887975471,0.006664458198398449],[0.03025724647559,0.016140247851904842],[0.03090626285620334,0.02014036559254879],[0.025905772511139243,0.02731060539489328],[0.04180614522816282,0.02587751851399045],[0.022590729907662373,0.016437044019257076],[0.018336159415363817,0.006610791548440787],[0.04029717349272799,-0.012141595430045992],[0.011134203669893561,0.009678333655121394],[0.0347625587688735,-0.006943620270523345],[0.02173839351123588,0.016542999114170655],[0.04246684708528193,0.012437835264196223],[0.040376787090478934,0.006727465100172108],[0.023467359880388533,0.026004420284914787],[0.024640243046946647,0.014342358998951052]],[[-0.018005060518893536,0.029140149340639958],[-0.030154414471961058,0.017156865403704206],[-0.043655767485713266,0.044327834140305514],[-0.03538814862124247,0.017877016039723467],[-0.015416826474934248,0.02665731903359401],[-0.03127192083488639,0.03956124647591383],[-0.019141146659450485,0.02119316652021833],[-0.042065492184419,0.018928922271182543],[-0.04730402400554884,0.0245260925164331],[-0.017915270009473582,0.01550508920282475],[-0.03333167831152626,0.022134466081501526],[-0.02507318296803284,0.04309532676309377],[-0.01766378285622687,0.02087463407481425],[-0.028638837263162218,0.021348180771902495],[-0.03183571982478222,0.03243828023285079]],[[0.033052044211497045,-0.031392152790908054],[0.03544884277593105,-0.04223493627092994],[0.027081369604810744,-0.04727705683021651],[0.02350257335189771,-0.025390459281787636],[0.02381574069094939,-0.023234763228920752],[0.03391971306437467,-0.041088540756766954],[0.02037136155724313,-0.030086053064461615],[0.031943452897508946,-0.03740310760774896],[0.027666104890057185,-0.03117635172185693],[0.002005348115119224,-0.033486403271152036],[0.0048759236957349236,-0.03439481547415873],[0.019390668973676632,-0.03150244777021517],[0.032303979963977374,-0.015013418003286946],[0.024652277334195956,-0.04224597677242297],[0.02181617231022636,-0.03768992572895421]],[[-0.026550281722252773,0.026591008095405037],[-0.023105407638658086,0.027777041784483203],[-0.02056630339814862,0.017933211728315898],[-0.029891209837117724,0.02239031955136884],[-0.012011517472329225,0.033923556583171595],[-0.022645449338293537,0.03522821268601408],[-0.0046516872719122105,0.016747819294105886],[-0.00755361498602453,0.047728874304710206],[-0.0174267984975882,0.021280381044153408],[-0.020038278940201645,0.036040216108462864],[-0.03987926231308082,0.05516011953817992],[-0.021287042794299417,0.022113347014761038],[-0.01044312599436699,0.030032176135226782],[-0.0014972247397981378,0.00405146327699517],[-0.028290235865615986,0.025665242498132637]],[[0.021678249722766052,-0.030395092907482234],[0.024747749559625075,-0.030458046859268735],[0.026740910684807842,-0.025999265977641857],[0.03491782681753976,-0.02585685815475277],[0.0428991207362452,-0.017642388165446655],[0.04555725438860564,-0.018447834009696757],[0.030184637066042373,-0.03233340076953423],[0.01775023082758201,-0.013602963371071895],[0.034036130071928294,-0.026568544717978506],[0.028215273952145827,-0.02027794285514184],[0.01529886979341233,-0.026902410829964137],[0.028300691494970866,-0.005805486797267816],[0.02719627228888888,-0.03941940385176079],[0.02462551132456143,0.014645579999894987],[0.029450513965642106,-0.02093217872775183]],[[-0.02368935907369627,0.05815450559187382],[-0.0013956697678948462,0.0004724792669651878],[-0.04242883797052617,0.03273906410852761],[-0.0315638143802383,0.012969358155929226],[-0.019276195846681866,0.03952594033469849],[-0.03609039150777316,0.021844694404976564],[-0.02139394872200341,0.015905056612643846],[-0.02287259604737125,0.03569285379212574],[-0.024970301808757374,0.010113854298409873],[-0.02514817797127243,0.027716467070799777],[-0.024211517257386985,0.023093229779002758],[-0.03165498560843698,0.01586341230388165],[-0.021560120038684575,0.01350970342364228],[-0.02511768950703767,0.012040501216353782],[-0.031328199336762654,0.020715801929397534]],[[0.03396387496718552,-0.01852279719864072],[0.02884109755255957,-0.009863694630825601],[0.021462730043620315,-0.01339479975038952],[0.03981363792853225,0.008184219235483566],[0.011236242559987505,-0.0026364431751739626],[0.04177611970919268,-0.012097255580142288],[0.034025271683165735,0.0012936841536268482],[0.032991508127678655,-0.00936798701836395],[0.019143983523771863,0.005985827285923853],[0.03599441129286979,-0.010820451370766057],[0.018738408105284408,-0.01039842289347217],[0.024930965014915367,-0.008825071118123543],[0.02822622294439698,-0.00877885641066539],[0.019044285145717932,-0.0031638910594451782],[0.003945805623767806,-0.023045193240790837]],[[-0.02649383682696078,-0.013606053390754469],[-0.01993273835852809,-0.011209798492838355],[-0.04001884175772839,-0.0419100086585459],[-0.026717218078447964,-0.0201213104697569],[-0.0218720845483126,-0.023401806593668514],[-0.008704502203935274,-0.02513269168151796],[-0.024581912258824796,-0.02749040325977844],[-0.032264282515939643,-0.0263147228397569],[-0.030523802371917524,-0.018764218051617047],[-0.03194696671005981,-0.03167249080644933],[-0.03256697473628832,-0.02432379846908785],[-0.04458994396855244,-0.021356063065661207],[-0.025815190410597634,-0.016293068682319153],[-0.024107460983668817,-0.01100139615827537],[-0.022362291441825763,-0.007681858667514177]],[[0.0008750712037668683,0.030915863623105395],[0.01383299722447257,0.028402781765088734],[0.006188782569246384,0.020616116133043105],[0.008516559720967636,0.013527322812545735],[-0.006913096965361874,0.011054969872455045],[0.007412210528644146,0.025048746890035445],[0.0022648311240881726,0.03005734992066901],[0.0025667981867284065,0.034182060088025615],[-0.0058897295830707685,0.03263976715690691],[0.014981735752841929,0.018898915983377822],[-0.0050707291422025765,0.03499798389790369],[0.0018011436835486776,0.020295528859734943],[-0.0013395933013861995,0.04521147104589015],[0.008728164390327371,0.03942156132797766],[0.011732631456824044,0.030496814377727454]],[[0.030428622307663564,-0.017864695568322302],[0.034006851486587046,-0.031245593792337965],[0.017893549447468342,-0.04856722346614724],[0.026662005986277694,-0.02090890957151884],[0.025518713669352613,-0.021690626949215495],[0.03276713781379331,-0.01754564746739371],[0.03960681736948679,-0.02279284405401042],[0.029382275419296548,-0.03129604939717106],[0.023461560488607508,-0.02108263024430073],[0.02926052910089292,-0.031472237087174955],[0.018106540275513887,-0.041405996501648154],[0.007722193039324278,-0.029438753954273155],[0.03576604287800167,-0.020694842865611223],[0.015561667441890047,-0.04630617085993821],[0.03030041822482949,-0.01618172220025928]],[[-0.03662541821402119,-0.01157225636689447],[-0.04335319331666346,-0.015772199012096953],[-0.042272506389162266,-0.022563451217103535],[-0.03214521226217736,-0.009816939262731902],[-0.04373392880365508,-0.013419504759646992],[-0.04069757242773819,-0.024534705651181515],[-0.02524927187236939,-0.010929142715539242],[-0.040534458312504955,-0.02248432769357086],[-0.024444155024710965,-0.01993507094062852],[-0.039497327126593776,-0.016698787767459346],[-0.036734437142788325,-0.03073734534786668],[-0.04074985804037537,-0.006902741618055852],[-0.024361809063486995,-0.030755654898675256],[-0.01967545506077261,-0.021248797903067922],[-0.02675982122160105,-0.012879479673047936]]]},{"Inputs":15,"Name":"Sum","Outputs":1}],"Name":"FFNN"}