{"Layers":[{"Bias":[[-0.020756091092462445,-0.008551479410215045],[-0.002536074877663227,-0.006059838374917729],[-0.0002792779227407553,0.002103017018995881],[-0.008205258101505172,-0.046508372217358394],[-0.020817849390813135,-0.028646365119890268],[-0.023245369715174862,0.0003604610831052045],[-0.014366582660311216,-0.015480391101007096],[-0.023356260988908858,-0.001693958968114746],[-0.0009702449802341935,0.021556630564157953],[0.0069779901361455106,0.0012133473976623263],[0.010941427374215315,0.012181074752048418],[-0.02252047905495666,-0.010525211196493875],[0.00025941623550557766,0.013339016920852775],[-0.010930443707742791,0.002994115181861388],[-0.009063871612798669,0.000965246773134372],[-0.009712480962888017,-0.021138320485352625],[-0.005762720277903311,-0.006994440461241643],[0.011716711190925457,-0.005621057069835985],[-0.01329166942248926,-0.01123966421796485],[-0.0076724481017719235,-0.013932495046708734],[-0.014695253139781494,-0.0059788170174611775],[-0.02065654677155883,0.012712487878326592],[-0.018523042551850322,-0.02240395387842367],[-0.017894529610481224,-0.0006336392595613006],[-0.0202887232068513,-0.014310927679693468],[-0.014782290192825755,-0.007234574957192446],[-0.004446395092552708,-0.012858335138807546],[-0.004712369283655525,0.004209571172025719],[0.020426447413784223,-0.01199403060008164],[-0.019711106378027716,-0.008091009020611188],[-0.0022149878554000107,-0.01741665271388735],[-0.010679107895013817,0.020938792958152843],[-0.01562305847507956,-0.00802077355083162],[-0.011733316835202748,0.017601189116805943],[-0.01467725161103018,-0.0023104897493263017]],"Inputs":22,"Name":"FullyConnected","Outputs":35,"UseBias":true,"Weight":[[[0.010949725825792164,-0.010149149785080126],[0.015921925930009462,-0.01796068943352112],[-0.0031537491788157118,-0.03705297046194079],[0.007192060001670473,-0.006697345938789755],[0.004161190718727066,-0.012278707155761149],[0.018048024924564546,-0.006484800680555492],[0.01958305534300292,-0.012109021362061484],[0.00905782224931459,-0.023491451707467265],[0.01726760229545745,-0.012093906081329459],[0.012902371548343249,-0.021241076136922495],[-0.0014630479905880897,-0.031437193948796224],[-0.006819833643237678,-0.020066277551437445],[0.02259943349218644,-0.009250971735788477],[-0.006004310647386689,-0.03840749540368214],[0.01096111664566394,-0.005406547737080747],[0.0024947378329674397,-0.015323690281356286],[0.0006086445885525806,-0.025381283447786063],[0.00731870470749642,-0.00812313726026839],[0.004860939480673554,-0.018421669011093284],[0.015137165899624324,-0.015075903826261592],[0.012449481521382325,-0.01587256065890555],[0.024849867386284613,-0.014398683854581547],[0.007883153970097253,-0.02078876795442374],[-0.01316719208325188,-0.019878128920950085],[0.01829219539583458,-0.02862615207978557],[-0.005524702810149316,-0.029007893418096533],[0.012435897895326413,-0.02874767823747433],[0.028632125699150017,-0.011856407093958216],[-0.007081830695489645,-0.021497401625256297],[0.01298507109863629,-0.02406219404151491],[-0.0007958576885547609,-0.02593952528937812],[0.006784149409474276,-0.008374372753716695],[0.00954089358493451,-0.026184505672119274],[0.012174110409178396,-0.009898768441703528],[-0.0003285108899680745,-0.026531592827073645]],[[-0.014384008781737581,0.012687537787685207],[-0.021909237452196233,0.009300891224553182],[-0.020118800740301323,0.0029550291364217043],[-0.009641509947767857,0.014811580448609987],[-0.0203936773316779,0.00589500879824694],[-0.020928367292450185,-0.0014751533568129814],[-0.005150594830315916,0.011070989468032446],[-0.02075298623015205,-0.003183820346307775],[-0.009312085332887339,-0.008638911204064672],[-0.01904967729712317,0.009787124220069554],[-0.014907480533211878,-0.01097206083023541],[-0.02245842163248751,0.01769341029462494],[-0.0033795279804354496,-0.017938647471177727],[0.0016887171311015185,0.0006166966256212826],[-0.004780455073361749,0.010265794193002149],[0.004091816512098001,0.010687459265889048],[-0.0013537732055975858,-0.004023689890081682],[-0.0031837142859594057,0.018450643942208626],[-0.03285545796370135,0.011047435340838694],[-0.011542604655957767,0.016403841252481306],[-0.01204629415005484,0.01387431578417805],[-0.0072366820946269715,0.003409149423049931],[-0.012366955116394737,0.0010058946383907736],[-0.016121852935575325,-0.0033200614340307987],[-0.00595403559238716,-0.010513280474129433],[0.0005231055035570559,-0.003252541824504174],[-0.00304963561612956,0.012947250811461622],[-0.009184636391438405,-0.007880553631649103],[-0.012249841914188564,0.001842348344974959],[-0.006113718265716444,0.0006169205009960526],[-0.00746800590300789,-0.007702907057849763],[-0.017685187135712852,-0.0133313897303063],[-0.03784608297554616,-0.015221663003560315],[0.014342313185445484,-0.005044729295777286],[-0.008714104242450128,0.011999236746049843]],[[0.025584470435117964,0.029391493870165347],[6.506766684417445e-05,0.0002974356255835235],[0.020335752745273706,0.01574749978962948],[0.009401155648797847,0.02915590092432093],[-0.008551256681685606,-0.0005557866155752263],[0.011093949577368308,0.026103294678430856],[-0.007263257992775294,0.02085128512264138],[0.01240815132260846,0.01864248339621077],[0.007149905645474192,0.019675268813347],[0.0217562636581581,0.017891626603714187],[0.008796067949408492,0.004644920877924404],[0.027793441581395215,0.024011806854635616],[0.010223260886104759,-0.0009655365041522732],[0.011295832297460675,0.010981362866139394],[0.015613504163878281,0.025628405367678797],[0.02335935616889314,0.010246126427421273],[0.013471512334593299,0.00723612604881839],[0.017752282278749983,0.011628189454225089],[-0.003122397542335806,0.01280889425608695],[0.0052855570806753,0.015530959691897963],[0.024719077782309796,0.005582267086830144],[0.009555829872855914,0.010621047268955528],[0.01101846609475802,0.03672189827738962],[0.0004375737593752601,0.019733435422781474],[0.004029240194325675,0.030742963038768126],[0.026464449848718635,-0.0024579302523485332],[-0.0007365979215351084,0.019700704889576585],[0.009299544493750351,0.02895609919966451],[0.014135991383401915,0.013171874130704878],[0.0021606171737765987,0.012440269383803881],[0.008366754900844696,0.01459524356836958],[-0.002830938271354947,0.024250602697639553],[0.023649725811644356,0.016644650267686367],[-0.010073574054130511,0.015754625383223978],[0.027046693722413827,0.010362348885637243]],[[-0.013731001590524206,-0.028754449866235977],[0.005481017593627671,-0.031712539704789475],[-0.003702219888651527,-0.03252906283565416],[-0.00707511012631063,-0.009637297696491234],[0.0025866878286393328,-0.013515559706154074],[-0.004904898501650851,-0.02425300157114812],[-0.01609085770918939,-0.02549122884728744],[-0.01377825799307112,-0.014868804882775265],[0.007031586130905955,-0.02413201229578361],[0.008292847710379529,-0.005787619783268807],[-0.005620883167769661,-0.017503678708354155],[0.005136831505848872,-0.014482940561441714],[0.008655334254928926,-0.007558112872176489],[0.002924288536449365,-0.021517328082959416],[-0.007802908115244849,-0.028810745035398815],[0.0054721474634118975,-0.018817396241240573],[-0.023643727915555263,-0.0018641213711310374],[-0.007321729669561819,-0.03946418733170393],[-0.007078419005860506,-0.020459251202977452],[0.004364128432955178,-0.032891873921017355],[0.014358603723349761,-0.017028106024838098],[-0.011887080132572914,-0.019508448295687097],[0.014164545284780618,-0.009331448841056281],[0.0015655364529701626,-0.02712352819616122],[-0.0029222790300751484,-0.02518406092896443],[0.0010991076513252465,-0.023650576607132393],[-0.009189608617577734,-0.028932733272008928],[0.006826911134971756,-0.014945265920818742],[0.003039760692974805,-0.02348812413836126],[0.007276205329404062,-0.029656608440406337],[-0.014373794671227557,-0.023791673665424364],[0.021540901783797008,-0.008442563190645772],[0.013128634540768121,-0.022567381978409518],[0.006306868227433625,-0.007494998926674595],[-0.0008386878230558464,-0.030740574665230672]],[[0.00922371834202592,0.015901431414867682],[-0.015490471163906215,0.021862269710279627],[-0.012757792759731755,0.02258686208352537],[-0.002385587235094612,0.013288027749364287],[0.012585603681620712,0.02242877540496546],[0.011950621273938993,0.022073912269684803],[-0.012506430375370789,0.0051857644809454465],[-0.0013639289894173624,0.008772320889729226],[0.004139884305224526,0.031143621690205996],[0.0031737644030331775,0.02109104169875969],[-0.01378056216938349,0.03069695153237076],[-0.020631644343254856,0.005428602607927619],[-0.001423194696980559,0.03105338605898544],[-0.011498248470838088,0.03321432265274377],[-0.004868933701539236,0.01855918684709183],[0.005484630655607896,0.026258481894490347],[-0.008217051400428057,0.031669157945090023],[0.0007222343722534638,0.022635364346934125],[-0.01209843091533677,0.0227820835067798],[-0.012410211311848888,0.02380533503160476],[0.011046121860416779,0.038624805852109714],[-0.008199250242577467,0.020183055513555516],[0.008839645209006663,0.03966624109557414],[0.013766874432285343,0.029331580821698],[0.011401067864192801,0.02982962956903882],[-0.004214786047698872,0.024498105243678278],[-0.004484629551852933,0.023504423824294633],[-0.012422170274548958,0.015065636458944511],[0.0026038535097046224,0.024257286534241283],[-0.000962902884323888,0.030350867963370973],[-0.021553068746671414,0.014814930658586833],[0.002143564096642148,0.02543014391531167],[-0.0011413759282256728,0.02776322483387589],[-0.018689375182299506,0.01035360781320427],[-0.007934942469433003,0.010829425518166574]],[[0.015075056245048268,-0.010343437706663794],[-0.011238396593281267,-0.022438775076201727],[0.021090413622996927,-0.023545340391056258],[0.010450691965180689,-0.03144472319530966],[0.009340742528019834,0.00687008298987398],[0.007233006286850984,-0.01257584445631852],[0.01887415531785202,-0.018369198837106877],[0.008966522391263282,-0.023983421317317555],[0.008546933176369216,-0.0037866247486745635],[0.0010350610252271273,-0.021199044496050673],[0.007890603867426446,-0.02297875149656482],[0.011812364611227215,-0.03382429897178661],[0.029731856629899245,-0.021877568434430256],[-0.004985431980551945,-0.02317308317307651],[-0.011395453108122983,-0.017237344235997296],[0.006671412649374154,-0.016787971332503007],[0.01009575340197273,0.0012957560749233996],[0.02439376808360249,-0.01104678477639512],[0.012556629273818398,-0.03783683807079737],[0.005622868405145441,-0.014961408454808311],[0.0055528861455123564,-0.004908528354927055],[-0.00030357032476377563,-0.02065921842856501],[0.015180722800589009,-0.025043484358853736],[-0.004376595221027299,-0.016016041979602717],[0.011486459271273808,-0.0150130366155595],[0.0011819669313137661,-0.01342419729036568],[0.006098729317747257,-0.004010517808173767],[0.00834123319745571,-0.005369551930883079],[0.024958321274550947,-0.01324431355992805],[0.0046359130346967856,0.0005562488596928496],[0.005910484047646742,-0.015012378733307151],[0.013503371753116495,-0.00289128017037659],[-0.004608516172692107,0.0015203549758583978],[0.0127478528543029,-0.0019410476150558246],[0.004841464716555161,-0.00019636493297160913]],[[-0.010578029793757021,0.00894172126039788],[-0.01480894060219026,0.007481539211811058],[-0.004410381321609839,-0.00023248885187270363],[-0.024439720690235603,-0.019733893894167735],[-0.023746749767538173,-0.012223349641912691],[0.0052377386910157945,-0.019412522150194865],[0.0002546373981833513,-0.012346400443544993],[0.0055040488646580414,-0.019660687343664017],[-0.018396701081066905,-0.011344788128083467],[-0.008522287884868135,-0.029247090341765515],[-0.017889679216160328,-0.013363557771423742],[-0.005729069597479638,-0.01705131919731837],[0.005851082004445082,-0.014538762603728035],[-0.018902186001927408,0.005860887207654234],[-0.012462004570300222,0.005601820584710874],[-0.010605038849939826,0.0013586885870870218],[-0.01118519594046651,-0.02204367348553985],[-0.012774496311493284,-0.006191240649578107],[-0.01744177055255281,-0.005507827062238196],[-0.004551623510472083,-0.03068769000179379],[-0.015373735832116311,-0.01992233288307157],[-0.003705442428761663,-0.011567892681378023],[-0.0037788223710643713,0.01276390610309619],[-0.01188768634296544,-0.02053874314770541],[-0.014424469455084472,-0.02284586135260987],[-0.009580264341840176,-0.016143042712195483],[-0.012321468749489865,-0.004364924789372662],[-0.017196598062919073,-0.03486863311415449],[-0.005889582219457444,-0.0222774912548394],[-0.005879356768226652,-0.0034228565141378865],[-0.0037005582910567074,-0.01838725677860626],[-0.013748029904289798,-0.004248464050933044],[-0.02151607510157451,-0.002207345155745158],[-0.01303694181086882,-0.012247362203771133],[-0.019309873167941114,-0.01970129965424495]],[[0.009239599722576776,0.01969663049662311],[-0.0058314420812759955,0.015316790094423586],[-0.008609808641082411,0.0012679045412594802],[0.006211791923020617,0.0033516775303385244],[0.003463243775682656,0.017690372552350522],[0.01444139706789224,0.026228233606847614],[0.011128285664953325,0.00566250588763515],[0.00857340275575742,0.006447376525971805],[0.007571110771204587,-0.0013585579255338414],[0.011085583136590584,0.008776102764028326],[0.0011718953374361884,0.02400135659290836],[-0.0033049786375868966,0.014561533190552114],[-0.018207258296770196,0.03071614188734275],[0.0067151121583361615,0.00988566503944854],[-0.005670992214631432,0.018084482452483407],[0.009825746902307753,0.010305666615285909],[-0.0016590920001836487,0.02946133576875588],[-0.00473547771167509,0.0020829968157409936],[0.013368791804171333,0.025959751198894914],[-0.006656248880095782,0.011010326725420651],[0.01315036735379341,0.008443979431770705],[0.003259591319451231,0.029306484949477376],[0.01609833553814533,0.02028017399050474],[0.01871450999195851,0.011960277097461093],[0.0010134335516920295,0.017081281005037707],[-1.3213835274676096e-05,0.016135317309488237],[0.0013595335672745039,0.007679370388899367],[-0.0005353271212905172,0.009749114533955066],[0.015063401681854244,0.006125024678602165],[0.010094267960335048,0.009504357995499318],[0.015434521697970223,0.012125877515036364],[-0.018836615165384533,-0.0011710591183687542],[-0.007568036349079328,0.025574845309282834],[-0.021954276441909434,-0.0026159027969517375],[-0.0010612301530517985,0.027381658578112124]],[[0.0010346395190806035,-0.027365776959961553],[-0.010934203493481376,-0.01674191793758057],[0.001624692024137023,-0.03213377686659759],[0.002606971041102889,-0.013269181009840921],[0.002351778992360669,-0.01360911822386373],[0.002831930328347299,-0.03292497154415249],[0.004698886055379801,-0.028863234567489755],[-0.01856649985466875,-0.02898375775866405],[-0.004369421589453723,-0.011684256759258],[0.003951606975400361,-0.02660609334871323],[0.006078031576541026,-0.01655178610260451],[-0.013165269136463945,-0.009386896316442784],[0.019855995900831737,-0.01911722461041932],[0.008142060499509655,-0.00711760202459538],[0.0006476475870642543,-0.011063463851420471],[-0.011510192365682553,0.006648639065114488],[0.006384155920604097,-0.018480303452264184],[0.01274576375811601,-0.02569016635422681],[0.009695460260104262,-0.03267396695849398],[-0.0005806521411177201,-0.02191666076597704],[-0.00908222403283581,-0.01253073705307439],[0.003973728883194748,-0.016480668315470192],[5.082005006328149e-05,-0.028320762272115347],[0.013323156214098412,-0.005264053440498915],[0.012489127010020923,-0.04145823612596818],[-0.0116086237861187,-0.015275163899898608],[0.0004086029133169418,-0.020530884130454462],[-0.015525725623028622,-0.013363848482559216],[0.0031403526601312347,-0.02055304524986129],[0.0045465600951573575,-0.009707684388912695],[0.008162955263035992,-0.019979026531099092],[-0.0011291645547174204,-0.03006732237658323],[-0.004053003611907599,-0.02920294564748464],[0.01792547730333807,-0.00932929814498281],[0.0020580213960204523,-0.0367866557972245]],[[0.0038259269818523597,0.01864411879044859],[-0.0042525451505953955,0.009975958152856951],[-0.0023876134403628306,0.010431661572581038],[-0.007673545970385493,0.002102872737476902],[-0.009515868140280978,0.01847365377881084],[0.0018983819703608442,-0.0027713396008755523],[-0.012925302305545382,0.02289905040722504],[-0.009666261336966119,0.0005063202954693611],[-0.00025699749739021036,0.02266534268222378],[-0.0014858493349547619,0.014481057774247524],[-0.013698879435733556,0.016639585522579197],[-0.009328674855753878,0.012141869560583602],[-0.017051856216970362,0.027386535837536616],[-0.006403236837152558,0.021979461844515522],[0.018860357620030088,0.026881073434990695],[-0.006869456455141258,0.013900201052981127],[-0.0007975384551585131,0.01907834125150989],[0.016002190720093262,0.012071307917889334],[-0.0012058399997370878,0.020756841396386456],[-0.005941748554529603,0.023325515111849732],[-0.018347313651160827,0.026422063502735578],[0.000885962210986674,0.002095403076197014],[-0.007757429457529455,0.03625187394565036],[-0.0049231150044772255,0.023155860673766616],[-0.0029242272221321197,0.00401298158750761],[-0.01752517495250471,0.011755492293847206],[-0.01058619450683613,0.0019504592998542607],[-0.01569611327029523,0.014189502227664129],[-0.018866276906941835,0.03621660226091626],[-0.00731538634242725,0.026267777662392116],[0.0002651228682395527,-0.00451731036165488],[-0.01777941006454435,0.022616134124247688],[-0.0005596137081363921,0.02638658907199173],[-0.013645684936814539,0.018747228660363397],[-0.009542468304665158,0.015881831706767116]],[[0.02432299540520017,-0.020040122518912133],[0.03233362307542294,-0.01614250327391131],[0.0029627759621670105,-0.02763167868143229],[0.014038136404695584,-0.017478633168591537],[0.011756718490139718,-0.020376041549063133],[0.020656796307053072,-0.02391562837846527],[-0.0015788014477257665,-0.015650418423475126],[-0.008274537216295064,-0.03321207345716198],[0.009664510464621938,-0.02427656162510071],[0.002848582884667424,0.002291627496186404],[-0.005693436733419249,-0.01038269088438512],[0.004093578673242494,-0.024142403708053477],[0.013615315722835699,-0.011456121769985228],[0.009206064301048034,-0.011730987603258705],[-0.0001294378470392291,-0.010729706612333448],[0.010940231637447066,-0.02355307937500009],[0.005046969107662012,-0.0058062813835948815],[0.0058205784423239065,-0.018830558290977597],[-0.0026673609722094034,-0.016792468485481202],[0.006454880373550899,-0.011384828443707655],[0.02294367028770567,-0.022009145924805042],[0.019137904213537723,-0.014844262269267796],[0.0057885615959422905,-0.012322524915138454],[0.026361857841352542,-0.04139496064977604],[0.005794460619613456,0.0007046811950124933],[-0.00043525929556687725,-0.022073812849614426],[0.011616512953694003,-0.026366040867891797],[0.016815406000226584,-0.011705261099073277],[0.003064794313519183,-0.036162608962848064],[0.00628275831862337,-0.013066586085333131],[0.014524086866008317,-0.021447600102625468],[0.026052068017282836,-0.01663745304881399],[0.006208830019723953,-0.025327682018002944],[0.017445725825417684,-0.003760293521498008],[0.01585167470872142,-0.008424520779039723]],[[-0.021743559936445736,0.030103544242445695],[0.01858181975223913,0.03370686095033265],[0.010575715290615238,0.01476693635210772],[0.0058983318923884745,0.023176661214221395],[-0.0014916436597242047,0.014123359601171743],[-0.0070653094546138185,0.021045165043602897],[-0.01798330093203424,0.01325608987674243],[-0.012573284671155137,0.017999140639125666],[-0.021152005481772106,0.01260265344545557],[0.0045416677379781795,0.01904025526880613],[-0.026652916995163763,0.025645038039621558],[-0.01334147290684599,0.02000943162113244],[0.0009105287780325604,0.007433756654173874],[-0.001917253381633132,0.026515291261557168],[-0.011986500882769717,0.026402730019587976],[-0.011411952123689712,0.01878862085968222],[-0.014428892538122441,0.011906403249882904],[-0.0038437455660025855,0.006264414385525223],[-0.009610519863888686,0.010530968537863974],[-0.013069743426540582,0.028861958287762654],[-0.00422412593502669,0.020555933831837105],[-0.010588534382258662,0.02820841057691097],[-0.0019671939299891615,0.008764684311313067],[-0.03011474736004893,0.007179157002154177],[-0.029069185170644354,0.026011993581835754],[-0.01254336134176287,0.009737701209172797],[-0.020884981161230862,0.025221457283250353],[0.006125896534544297,0.020001564545107296],[-0.01565624939011636,0.032711782561959266],[-0.009542221746878026,0.020642675639932113],[-0.026087854338169725,0.028811817294921986],[-0.014528873186315096,0.008969951066131238],[0.004577307936802207,0.009953028026015427],[-0.0073556945534719274,0.0049142839876448645],[-0.028280376553372406,0.03204519693869266]],[[0.00021894045936100617,-0.019124696920732678],[-0.0013053349950340972,-0.003731557224576908],[0.01745826142360644,-0.0026646370490706044],[-0.009426737231649046,-0.01053779569502872],[0.005284270558962671,-0.026491361702091886],[0.009026148248069112,-0.011767917516239483],[5.929983172270379e-05,-0.01083607440852844],[0.020088822928489694,-0.0276891803014829],[0.013800891775436502,-0.026375778894748254],[0.004552425071353925,-0.0074569476016162605],[0.01839144400276528,-0.025453322568192657],[-0.0033534443050326187,-0.02583988215399523],[0.00018808809176135323,-0.0028454465363528343],[0.025373490144991465,-0.026866563489048013],[0.009106562578735064,-0.02082045751564189],[0.014608308537773704,-0.026658433766293302],[0.013148162754216562,-0.01976231921864634],[-0.009009215935240018,-0.013813265643664665],[-0.0030278105045545727,-0.021699294224777677],[0.009344075804976653,-0.015790303541080308],[0.024751501310487495,-0.02025360806390088],[0.010722931380590425,-0.013144389914679158],[0.008355334467418854,0.009063515666075174],[0.002155501742752538,-0.026899325594847083],[0.0031065770840404943,-0.010717010298988113],[0.012766717219127944,-0.015058144209147075],[-0.019131067495553957,-0.010648262177480496],[0.005937477425927058,-0.023228364977196027],[-0.0004553689080017563,-0.011840135812836817],[0.003934063013498982,-0.00622556606021833],[0.009940132990000076,-0.007013252085672711],[0.024282532866740352,-0.011507777226816005],[0.004531335664266452,-0.008520559891198633],[0.019482610490247392,-0.007257660141452733],[-0.009362441278816603,-0.02212624243166991]],[[-0.001084070002220636,0.009489354640143131],[-0.0015955752160416799,0.016922868134898253],[-0.003588927535574704,0.022655881780411315],[0.01009859840685652,0.0208535077627636],[-0.00822328291623282,0.00744774524048474],[-0.01849880188524438,0.0020964261901840597],[0.00753163746298613,-0.016903162759298443],[-0.024201284259690023,0.0005815958865376048],[-0.0029520928545847713,-0.018668602000122225],[-0.013504419714893193,0.011143050349053451],[0.008874354212840175,0.004155184335396633],[0.005135121041340805,0.0025103617533025115],[-0.0091985443077072,0.015936498099946298],[-0.006447436030222292,0.00465242833730869],[-0.0015038185395216121,0.0029874561722280563],[0.005815906457134408,0.004351186413526828],[-0.028930482419330876,0.0025910321187820025],[-0.007984848780791975,0.0020617116602608776],[-0.030108201626107597,-0.01764419873895992],[-0.012221743952597295,0.008173703868091393],[-0.018264570813742987,0.009567106431833979],[-0.009719860841084544,0.0027430705206838274],[-0.007502762430696555,0.01180463255135907],[-0.02020674132369243,0.001707145678841608],[-0.017191114787191257,0.004467587448613078],[-0.013190931267978687,0.0008283937394780828],[-0.01780142474737335,-0.013379616333473591],[-0.03369805651236795,-0.014961553410434033],[-0.010584590636495363,0.005217707364866313],[0.0037323920715724595,0.005181334103229924],[-0.006551171000935566,0.021203197377341772],[-0.014695582412066067,0.00928926524937544],[-0.0011153695654672166,-0.00419974025398807],[-0.010491826122604613,0.009578960968299228],[-0.012048376605269064,0.007559498357610455]],[[-0.001620809993098884,0.0027882280714967545],[-0.014264833503564122,0.027949167980986598],[-0.006392552539308635,0.0010145119972762864],[0.01283972895244867,0.00826655214564587],[0.0010851320634348836,0.02758706427822425],[0.006306605776688681,0.005607105287871792],[-0.012483579247260474,0.004581158073354187],[-0.016390194935347553,0.012743811349613342],[-1.9836179734768855e-05,-0.0005654648324996464],[-0.007230288239193554,0.007309629972897784],[0.003333003801941351,0.030283211629826837],[0.00743996940244522,0.006656460714885587],[-0.003714129140239493,0.007158724755183371],[-0.0014357467880491874,0.018920080681157723],[0.006259970030371254,0.01698053402370177],[0.004372565015154517,-0.005196406826578724],[0.0024083526282083177,0.018340324480972135],[-0.018925181023194765,0.0028678644310419733],[-0.004990990174175819,0.010595108179308027],[0.019737238971172154,-0.0040382707164341985],[-0.00928138560730982,0.014039740284488664],[-0.007773829443711181,0.01186462955555382],[0.0005511155301233016,0.00412790868495413],[0.014729320751872554,0.011325114485087816],[-0.0036550163803958508,0.010861843026689596],[0.00406083053280406,0.018410496871172334],[0.0017129072972781574,0.013588630572919163],[0.01956049709408761,0.0022122810033952524],[0.005125275643465288,0.004614925720281269],[0.015537607272447063,0.023418585972950365],[6.90146945228264e-05,0.01806128511868769],[0.009507242056396257,0.01510488179328542],[0.001557666874201459,-0.008831484544836404],[-0.012052715138645389,0.013890487804543062],[-0.021663419237381805,0.00689367658303186]],[[0.02457321273401758,-0.03155851200192224],[0.01643222408891788,-0.02967281689215358],[0.010705305310033488,-0.009820010884785556],[0.012884447025496163,-0.006505434951029256],[0.019751611892490892,-0.03078630577487201],[0.013691942742842451,-0.014867041031671153],[0.02108034000071227,-0.023536638331851923],[0.01553831557035902,-0.020687554225569643],[0.004859075700313754,-0.020291111225628367],[-0.0028449458650783056,-0.019818890354733287],[0.008278321041477486,-0.017390708640568197],[0.025884245114361253,-0.0036461220915736674],[0.01991275769036049,-0.02970295037477169],[0.00922844560264956,-0.02647765432757441],[-0.008209486753345497,-0.0008345475574297661],[0.03573397573749652,-0.022891645804607192],[0.019175883477566515,-0.00951557731223434],[0.002295269999680963,-0.013616911973696706],[0.0055258859940645584,-0.019684183216217264],[0.0224748759797296,-0.015512704548204876],[0.0182629369434402,-0.015767575391059413],[0.00805720978104004,-0.0222378336875091],[0.019912647414714758,-0.02907513112398419],[0.01725695135364246,-0.019362421573375692],[-0.012036178990449104,-0.013956723910930918],[0.014239943263614026,-0.017024069478729545],[0.008151523809557836,-0.013342412037114898],[0.023828102754440524,-0.03236745104791046],[0.00611666605290253,0.008217969305911961],[0.01284597773632995,-0.030627896941740528],[0.0002467020288044168,-0.01990334037342273],[0.000475736791420151,-0.015048729994133857],[0.01674711606107776,-0.018626501958288466],[0.02536770510006472,0.0038618287325998535],[0.0028229758609961907,0.009432448161362239]],[[-0.015424350990283244,0.014648290532757591],[-0.007340281480802623,0.0021724779928367663],[-0.020007647887720238,0.0034145276383633055],[0.0018973365272229837,0.013990731900865503],[-0.013295268815327896,0.01919935819750387],[0.004262138285767947,-0.003961279184535792],[0.0035188259500490227,0.03224504640497035],[-0.006401283906548025,0.00440502215630077],[-0.01937312405955194,0.013231403010855002],[-0.02947737447678046,0.03806344586158654],[-0.00916761442767087,0.003472173337760683],[-0.002794977209350932,0.012776346245041507],[0.004368765022267016,-0.013490340670566304],[-0.019625145682303727,0.011923394957902367],[-0.008154082870030974,0.003865429607182501],[-0.0185802592434143,0.015766274005968268],[-0.01728965172113476,0.012009372982421005],[-0.025781461907109057,0.011510556076442023],[0.010484897526833827,0.023824455428703456],[-0.013446723272956755,-0.008471881316917644],[-0.0008400328772579734,0.011377130951747916],[0.012518316413764625,0.0076476001184284095],[-0.006817248106097214,0.019185573433440593],[0.0027294625271111162,0.013756996404747524],[0.0010861784011272494,0.02405442623115635],[-0.012342179508369104,0.017049275376591608],[-0.0006996503893229675,0.022264903674752767],[-0.021888674270620495,0.01434477835548138],[-0.0005461952840916576,0.018831426919762632],[-0.01054260102516989,0.00558190125149633],[-0.0208769364151416,-0.0005428545760945474],[0.007220128752913062,0.0110842598870088],[-0.01626438811814598,-0.0009552988786475592],[-0.012699428540093594,0.004976113694105551],[-0.028924161781961843,0.011542437501677504]],[[0.009438780723907896,-0.020394100475412347],[0.009898634588220812,-0.011293007178834392],[0.016665756632517174,-0.010911176413275922],[0.029768756320413262,-0.000983681181267997],[0.02998124117534737,-0.0053391698742866955],[0.015022526840262748,-0.015405112320765326],[-0.0027182569166246274,0.002342991486957707],[0.0145542468918952,-0.015301766638073712],[0.01988937706685384,-0.006912063024760891],[0.001981523883228162,-0.013682573601857118],[0.013048531329482617,0.011164266299724767],[0.01432487308694081,-0.023387678820839475],[0.01488163109947336,0.02963408218149929],[0.01424530105300017,-0.008123289048920096],[0.013636085307376459,-0.005301449360783831],[0.0013791772192129558,-0.025290835562978366],[0.010054094770868226,-0.013846312063058166],[0.020369271717123664,-0.0058919485257466625],[-0.007687785477006428,0.0053168658253245705],[0.001374041397475575,-0.016630349104489656],[0.004881587331727653,0.014602840988517407],[0.010259225607722222,0.0008350090095037259],[0.009898331899198413,-0.004811752515874534],[0.016437670680007156,-0.0009405754312346484],[0.020651393734587593,-0.02448172955032244],[0.004938456978622034,-0.01773116637503204],[0.011191947589106136,-0.009887086873261286],[-0.0007981859196252254,0.0035165658706374555],[0.0019904129571027655,-0.006653455213111885],[-0.001692024213870484,-0.00026108088563636846],[-0.006755768721036028,-0.02737667696216039],[-0.00042680789727338935,-0.019238629994194865],[0.02227085646732814,-0.00828609489798044],[0.014055985139251059,-0.013110960597259254],[0.006427182848486619,-0.013302419073575373]],[[0.012196447650562601,-0.011011014085406869],[-0.023731711141838693,0.021522394443447647],[-0.010747857059228306,-0.0026345942058180025],[-6.86810461994143e-05,0.02633709750583014],[-0.013740689410688968,0.006349775892702711],[-0.005918457835857805,0.0018927797281398436],[-0.006032692048609171,0.021053478882253195],[-0.009116471834654215,-0.005239272370421752],[-0.010567729661976237,0.007033730792067853],[-0.009801426451745771,0.00840155094510435],[-0.014995320607592282,0.0007109199271869985],[-0.005394084899620808,0.0026039049522641436],[-0.007493620016301994,-0.00881602666610213],[-0.010659280930552326,0.004951899980078921],[-0.029171243733325015,0.014932622897554296],[-0.004087509370460587,0.005597598127714242],[-0.013116242027204511,0.011554116462964592],[-0.013711226756775259,0.029588131351947076],[-0.0008433931880498782,0.012683823063753565],[0.0009563811603345451,0.009482019298389502],[-0.0007777773444417054,0.021327214367576546],[-0.014099535003667051,0.011497352382968309],[-0.004557537880566377,0.015699179775189833],[-0.009151983905322991,0.009944356891766381],[-0.008527543042794381,0.015317781365351836],[-0.02263165620756625,0.0036517223392286227],[-0.003478939822203857,-0.008266480952910663],[0.001921192015951036,-0.0019031689134264833],[-0.007733094696975167,-0.0014964452768546435],[-0.0063508527812061845,0.017083418757164275],[-0.009573542647835062,0.0002658092857522296],[0.011987796969401616,0.009462115165642198],[0.00047996013273511514,-0.006619662787777619],[0.00243920903247393,-0.005459812230368891],[-0.018323636991053733,0.0008338555302915806]],[[0.00880025016345101,0.007367126405862924],[-0.0018162855071950945,0.0015299158109233484],[0.02000867494373174,0.024770775325301076],[-0.009963579948194029,0.011242587017126155],[0.023207929910219798,0.006187862118670055],[0.010308337101552718,0.017620847018561935],[0.01333592891459427,0.006717146533717333],[0.001343771732606603,0.026578700650730133],[0.007036509353980078,0.006167862027861104],[-0.003980231712562798,0.0059371625218700135],[0.004471609999271319,0.007909595174353006],[0.006300046239267723,0.008702019400383858],[-0.0034096777796491875,0.013827988655878611],[-0.013838092866068795,-0.006108643820958621],[-0.004897300385210108,0.02040738843741574],[0.0019177176030300575,0.023866855029424785],[0.008185480748179956,0.011386078132483103],[-0.006776220543754411,0.019131730153279226],[-0.002432316389453127,0.008457505076887065],[0.01674881935927106,0.025355732667047836],[0.007431472443158379,0.02292139494714739],[0.017680026123881625,0.02914171764250168],[0.006978745780879979,-0.0030448848190727526],[-0.003970632139793469,0.015658707204086273],[0.0016906781930606136,0.0030360913102023697],[-0.0078454363605438,0.025824306690719563],[0.0071753061285714966,-0.002690746995198473],[-0.001335109432867412,0.009173591448983314],[-0.0038548875866582454,0.014899841156145715],[0.011190219793379091,0.014588843189582775],[0.008036802337091215,0.01604206201431627],[0.008814158718084978,0.008858379124492948],[0.023631843349845916,0.008706885018424084],[-9.741771697220479e-06,0.012810985774326355],[0.024436793081899295,0.009795329361725426]],[[0.005111603658418083,-0.004602784563679757],[-0.014464195313604817,-0.028105515260619086],[-0.002457395972908025,-0.00830533734734939],[0.0030860670533594515,-0.007777769661478945],[0.016261000775347083,-0.01880666725977747],[0.0027454549135249627,-0.015718132382118482],[-0.006902491586766232,-0.016587640558948413],[-0.006764256158571635,-0.012742637019393632],[0.0037884540976597463,-0.022642657250039028],[-0.005469713178199425,-0.013297004132281446],[-0.018990684987433306,-0.013302058258967337],[0.0020195449440910903,-0.007689877727312503],[0.007969572056387082,-0.004963019320040256],[0.0021756902809372865,-0.004118565182532612],[0.0014653587499076752,-0.01310570347175732],[0.010710413699769484,-0.007094676800509252],[-0.015192658918964595,-0.023421262013706593],[-0.0001488094498576869,0.0026361062037655045],[0.00476467537702154,-0.0037956847587552866],[0.005078509501050268,-0.008443633650787936],[0.02917660353208532,-0.022611146241494674],[0.013512851448579824,-0.027685290335564428],[-0.002574522660987922,-0.0017066544120057077],[0.012364123825989346,-0.016886088357643925],[-0.004405241261171601,-0.0020698885615283544],[-0.009822307879584689,-0.02099447122256248],[0.0007050995132171822,-0.009351830173066886],[0.00380480322889104,-0.01830758160064603],[-0.00677970197914949,-0.007379496845044866],[0.004943904288012022,-0.016938259639884608],[0.0064036705021022055,-0.019954244140465958],[0.020893042975822663,-0.02548444822020849],[0.025716234663930953,-0.011384675216528613],[0.007100176290792036,0.014760263140757148],[0.005545102002247651,-0.011721989222760762]],[[0.0018210329131031363,0.01846007002791897],[-0.0015548909524811393,0.002007967600774157],[-0.0006132356002541219,-0.0012131860757269414],[-0.01868358714575232,-0.008041672665619793],[-0.0021327748485144246,0.015364476945598752],[-0.010779087976152615,0.015618112628791515],[-0.008942060542985936,0.021471479718611894],[-0.0167152788912056,0.023906732934450323],[-0.0070283673851354415,0.007299410876472481],[-0.017854387352115954,0.021891183246406622],[-0.008066294907342066,0.008775272509133328],[-0.015555898230997295,0.03252826525370209],[-0.010101797657511985,0.026622795342661966],[0.001430444548374327,0.020892471690202776],[-0.006433842878874556,0.006589378034370118],[-0.025674835116054104,0.030721353772007545],[0.003651893746014044,0.013276867907110437],[-0.011751146817120056,0.026471633951325912],[-0.015282432547079658,0.015608589757892045],[-0.0028458570366059893,0.010232354648101356],[-0.0055856028839925,0.0339253978908698],[0.002766278861089179,0.007150848562560912],[-0.002796183853835832,0.033038692930999064],[-0.00794100883166877,0.003237343638975694],[-0.012761889256771268,0.020271239982676197],[-0.023233897842527416,0.017659012719076224],[-0.015596309499510018,0.026947724333836326],[-0.0027613445271312477,0.014696336421223834],[-0.00803311177919166,0.023941130937337858],[-0.009029289931993223,0.022887330195260635],[-0.008315220237882021,0.020161331502558874],[-0.013222808843433683,0.017545950705511813],[-0.015926040206856836,0.024750718699229672],[-0.013306335221942222,0.014257791057735723],[-0.003575016359565781,0.019288267119059906]]]},{"Name":"Tanh","Size":35},{"Name":"Tanh","Size":35},{"Name":"Tanh","Size":35},{"Name":"Tanh","Size":35},{"Name":"Tanh","Size":35},{"Inputs":35,"Name":"Sum","Outputs":1}],"Name":"FFNN"}