{"Layers":[{"Bias":[[-0.025898799951866218,-0.007777398880955063],[-0.017619988914198262,0.01692547387894539],[0.001412564238262041,0.01211451092519966],[-0.018469255549366202,-0.04596788061013446],[-0.01470970949177504,-0.0018431051659585022],[-0.0364634983620716,-0.012253631038338401],[-0.015470539600164363,-0.01649627098215621],[-0.011320691326003187,0.005821822946775617],[-0.01524463617459378,0.005543937411186638],[-0.008475640221125185,-0.00599505396007001],[0.01300265859114333,0.020430405125537027],[-0.019266181986210728,-0.005733096311925472],[-0.0035172913872500767,-0.006013828853824508],[-0.0040959842966196815,0.004785855594476308],[-0.0141100776197502,0.014061273104762689],[-0.01601160528235605,-0.01160149282962411],[-0.0054003638395231516,-0.019492905965032562],[0.0041080944289381294,0.010875646433398624],[-0.009389696659326603,-0.0030105005138809453],[-0.01757093242694197,0.008222739395969538],[-0.01785521572630976,0.0007859512708542002],[-0.02272787695082664,0.023138680594037817],[-0.007331785364135474,-0.0024964582911505342],[-0.0054144313709000485,-0.000613539492443166],[-0.023858865717173956,-0.00157190325274827],[-0.011265845678202824,0.010426920368984911],[0.005761608483437086,-0.008098977498049147],[0.011806652441345659,0.009953347721197896],[-0.0015186242205328109,-0.017170385769739362],[-0.015819219122625405,-0.008191330856967086],[-0.009792371689512,-0.0024848077958310277],[-0.015082221352661119,0.053156461982305836],[-0.001255269971810415,-0.002854069887030309],[-0.012575478534544339,0.026543443797063],[-0.005429711945963557,0.011174459895770183],[-0.01323319917982363,0.02337956597373269],[-0.02633398202931241,0.015484838134385944],[-0.004023657705349156,0.025588401980169626],[-0.022789984787554854,-0.013138423456633668],[0.005106930152273787,0.006467356860118587],[-0.004676354895395777,-0.00023470984067091297],[-0.014441986907466783,0.01788000476520028],[-0.0034518480722428835,0.009836395767179386],[-0.012402154348953606,-0.007417696311734011],[-0.006022168859235199,-0.00012639530419647824],[0.002361176370839232,-0.02038280672694861],[-0.025594708584618764,0.0260633156413383],[-0.014806145667389673,0.007406242194187714],[-0.014922010750825285,-0.0019679160765760607],[-0.01113804797790771,-0.025980929888262817],[0.002344648928653066,-0.034013047901518836],[-0.01455069011232785,-0.02074280668002751],[-0.009070633832328931,-0.0036142828142620297],[0.010134327621286547,-0.027121029238836098],[-0.011954218055965192,-0.0033826119240399515],[-0.002876922762794517,0.017741335455717103],[-0.0023771317446701617,0.002061976817384391],[0.009049750563512624,0.004886071474139229],[-0.016588185995802782,0.010657363764040485],[-0.020245965033582898,-0.017883682880880856],[-0.014036497507329432,-0.03462415679640438],[-0.03217280368967369,0.005240763362283891],[-0.033903398113713526,-0.030008125718774804],[-0.024572849718957356,-0.0001926219894918589],[-0.02529551976784698,-0.014441300172099625],[-0.028506410960662528,0.007120208801438851]],"Inputs":22,"Name":"FullyConnected","Outputs":66,"UseBias":true,"Weight":[[[0.005066121967997723,0.01082241662903018],[-0.0016451166388014608,0.010307525379536752],[-0.0009542183841668358,0.0036401098302478135],[-0.003313096441819102,0.01093327472096308],[0.011699169441285172,-0.0033996025990502723],[-0.005491988601729234,0.016584196901004832],[-0.0034350479538051318,-0.005558237760632366],[0.01891454920846751,0.01914273274841567],[0.00998886693050104,0.012456939896671375],[-0.005681339911328346,0.011300132252317116],[0.0029544209636761486,0.008385590494403168],[4.455667520353367e-05,0.018621925360773832],[0.0008715521615753197,0.013993471014777024],[0.025810512093324224,0.02736861095629668],[-0.0012074896043314004,0.009888316948133169],[0.0024715862935592347,0.01579525685514597],[0.02398489208363213,0.01168859377383883],[0.0038014159650831152,0.01881606348178945],[0.007928933052171619,0.020090877573269633],[-0.011643723986111852,0.020496399905985254],[0.008543195397503327,0.0005651630851497113],[-0.002097526496626804,0.030193711887218734],[0.010181335758367618,0.01546775195007472],[0.007137946789856496,-0.0017563941740962607],[-0.01431512112113627,0.006765971222291792],[-0.0011919473957715905,-0.0029941067713569846],[-0.0024606681505295195,0.012797663691084284],[-0.003129210647927138,0.031133444222645232],[-0.001553558865749892,0.023728929855933042],[0.013372931107788675,-0.01024784266183135],[-0.004596511358110255,0.014067658935402464],[0.0015071893795318356,0.022270024248013245],[-0.0012885432909283236,0.013851444269632883],[-0.0013854648834948104,0.010468647204135898],[-0.003440747663399783,-0.0012595078171539049],[-0.003987639814925087,0.022289845826605724],[-0.0036241389401630106,0.005019244414195223],[0.009107992786167305,0.009438815691678025],[-0.00758569494076593,0.015746372147822263],[0.008632984403718489,0.01747028919499002],[-0.0018344505065631103,0.013030670467345148],[0.0006630943783065106,0.021248743720266982],[-0.022398988030220536,0.012701790467641241],[0.014317024343972517,0.02381478702972798],[-0.004209945039785026,0.0029824054161424734],[0.011095831792208476,0.018376900899476432],[-0.0045597762327120985,0.018890394839335488],[0.0002566932450538362,0.026116077813961826],[0.00712516997979415,0.02854261660882107],[0.0017175101350845397,-0.0008624441373504575],[-0.0003363897885562998,-0.01442140504017777],[0.0020283385768480526,-0.0026145604420652144],[-0.015590798277734727,0.009806538354794723],[0.007492943308328976,0.009945839960494167],[-0.004206353491245121,0.022674768102633743],[-0.0025834462808070058,0.014398524121412721],[0.015874253318649646,0.01752646805753708],[-0.026728913604229305,0.0006869001856269093],[-0.0069747409647246544,-0.0005082100971671921],[0.00906176263960168,0.0036739675733042094],[0.010143009030691071,0.00705079350014219],[0.020804862162608535,0.03058055143431439],[0.026330181627432253,0.015040185583202685],[0.002960151235769219,0.013646977078700351],[-0.006930639141155987,0.004946462470194067],[-0.0010050022067132802,0.005806622856930409]],[[0.0272117834827337,-0.01676254157425837],[0.0016060945422253228,-0.027317937596499885],[0.012426115782508764,-0.0192492224511159],[0.005000578339015899,-0.014767606688232253],[0.014010758290405854,-0.021518045663853163],[-0.007255926721655504,-0.010310073965057854],[-0.014349714423502049,-0.025962259129661085],[-0.0062174674871828765,-0.021152795003992583],[-0.0022250283124938598,0.005243515650493045],[-0.011950431144591796,-0.005409664987420781],[-0.004241514503069506,-0.020987850508178505],[0.0027449793297813713,-0.005068192733351896],[0.0032959547768748906,-0.0037401551613813187],[-0.0018890292347154515,-0.011204030130810201],[0.005386000866568614,-0.02028193466463704],[0.00317457713972704,-0.0015296623116370291],[-0.0009014669566317578,-0.018667961814748307],[-0.005850794594841894,-0.011786459901077496],[0.00022515353236735676,-0.00797378591059859],[0.015701421967924883,-0.011458158748172114],[0.014952986616615342,-0.011315817037143207],[0.0021487869162287484,-0.005707875443527995],[0.01592148880772865,-0.03302517149673409],[0.0009712396095035833,0.008449486008657638],[-0.00443056797791966,-0.015483402895081159],[0.0031373792554750548,-0.02101058390970268],[0.010289048594779955,-0.009677372777102403],[-0.005498573382446024,-0.03291619507080149],[0.002851505059054365,-0.007388152972766029],[0.002369705016829779,-0.013528118795625979],[0.014047118560044093,-0.004440194999717492],[0.003932802238612599,-0.018660846618329046],[0.00731371961011282,0.0015463583985771444],[0.010095202152333867,-0.00304550644948394],[-0.02268639541952369,-0.01875992221884622],[0.013229840329141438,-0.009330875695108678],[0.012500979166654725,-0.00801179781074361],[-0.008201112019357179,-0.012997960292047694],[0.005280392952789696,-0.003204956153562425],[-0.014684035234303311,-0.02087509710801711],[0.01655971682461963,-0.001871696390909934],[0.010680539903220291,-0.031106935593223133],[0.004331189246910061,-0.0007592180363926226],[-0.006636889121582506,-0.022927606270235407],[0.003890219150234329,-0.014739805091866877],[-0.00956733400429442,-0.014859842995129576],[-0.003042642193597064,-0.022568292061479506],[0.009788072148861642,-0.013113716396648108],[0.0034476463482389437,-0.01845157229812086],[0.0031839167396098727,-0.011064525010845408],[0.011222268355128307,-0.006329701364556162],[-0.00305251670159938,-0.015305871278803281],[0.008214673358167229,-0.017155267767936477],[-0.013522528003534168,-0.014483046766639227],[0.0002620458193930195,-0.026244031360058945],[0.001589037982996131,-0.015967023058248354],[0.004459382540068959,-0.0038035201801036485],[0.005723377704872336,0.00908827225639149],[-0.005150900851384043,-0.022984269389295157],[0.004444149396847784,-0.004743858107315687],[0.015902040127887995,-0.013833888552605695],[0.004751763299215733,-0.025210657146626392],[0.01475273510353471,-0.014436442102088706],[0.0019140081026349951,-0.017382693392086347],[-0.005445439386711708,-0.026745490460194504],[0.004221022571885943,-0.012205334170467538]],[[0.02912579120939195,0.03205030103767878],[0.01625916948549133,0.014899697672831618],[0.01240867039407807,0.022753997423678417],[0.004919807713205214,0.008075730976588483],[0.00475198217807123,0.018007392434746698],[-0.010898440850520929,0.007961816946254146],[-0.005483460503420717,0.010889997475731175],[-0.003362246114171711,0.00897586973224297],[0.014864747817226546,0.014242744260338775],[-0.018337690021758158,0.02045632955410187],[-0.0020194230098472877,0.015563162663814354],[0.0126081654006415,-0.002265249707486696],[0.001981587594018588,0.01873897236326036],[-0.0051469608597632145,0.02593967252392367],[-0.00706736240412034,0.016041900951178464],[-0.01020764548692291,0.007623635686663861],[0.0054376667985733965,0.005827201353270653],[-0.00541374380261331,0.0033206938841450944],[-8.541997475299868e-05,0.025246440752629933],[0.0006781658168027208,0.010613367450508275],[-0.0010295920393859903,0.02420501099807046],[-0.00010064789227745319,-0.00028555716727951465],[-0.019575310091564185,0.0005154218267629892],[-0.022853859530044148,0.015754447342931063],[-0.00882835149460105,0.0022461999042385017],[-0.010484445611295669,0.019283726525190132],[0.01706911630059945,0.016278123929740106],[-0.003228512279293277,0.027149650207172294],[-0.004080930659344726,0.014157535535975811],[-0.013158032099204658,0.020212817739050856],[-0.0025213246226787178,-0.005521872804849578],[0.0015121142711199036,0.0015026828591080473],[0.0037161592705213294,0.0012521042053135344],[-0.021896551962259047,0.026547898914982403],[-0.008585897184884396,0.01134820747175793],[0.009008271785044946,0.009626107300532906],[0.0016488085296921305,0.004415063809865974],[-0.012504569369976504,-0.003920547385240434],[-0.004336573857019184,0.01097051613455703],[0.00822461878427615,0.004194009558718199],[0.00022176484040236914,0.019312183225703824],[0.01133298446817265,0.012116997681994174],[-0.004400930162106004,0.010740662793285817],[0.003080817972008179,0.015075763368027675],[0.008210202012747109,0.007048430092091701],[-0.01059680132923175,0.029972575466364573],[-0.010898730972501406,0.0260910886952989],[0.006867279834617952,-0.00040987096144830655],[-0.0031859489068710666,0.012975069513470942],[0.0004479881760707379,0.002702134168366271],[-0.007901598756180895,0.004828720647679648],[-0.01626224879727309,0.010176261402842002],[0.01989554848841096,0.019572235180625657],[-0.01409594550468458,0.011786976979921917],[-0.01630213079725069,0.030811453516364145],[0.0032132083992324773,-0.00033877833538876524],[-0.014251853409609794,0.018754222195536997],[0.00043380392206429565,0.01513483196956074],[0.002900012117326789,0.012159398804265548],[-0.009204783451880251,-0.0024211256039661636],[-0.011353298090202624,-0.0025792231171030034],[-0.008918788844788385,-0.0018944712488037066],[-0.006083419022954029,0.01010883697991177],[-0.004642161895955379,0.020230726578706493],[-0.0041358761717701364,0.0037740202247097676],[0.0011313399128871405,0.01533295890425302]],[[-0.00940978208826251,-0.004460378884530919],[0.012664446900087145,0.002869847163645779],[-0.011675769200210616,-0.01269625092800659],[-0.000673613091734887,-0.02183594975523772],[0.0007093002711773133,-0.011031866539993482],[-0.006117601220635519,-0.007646104370868248],[0.01329940931040858,-0.02192853885615156],[-0.0017671633464324797,-0.025692362273957214],[-0.0025033849842587687,-0.005548723792806092],[0.010820288788202102,-0.021438491438870864],[-0.011801929292360245,-0.022684405225165197],[-0.007020042441295712,0.0019149712082175455],[0.02296747907303099,-0.024344386071910862],[0.00471784286161488,-0.02112304544151915],[0.009133272058145014,-0.02429365756297154],[0.010125554972402332,-0.017053221760044295],[-0.01679787300324558,-0.013631096207713952],[-0.005187970513360445,-0.017005854319716452],[-0.0018881188312347029,-0.013506317552819941],[0.01817654822330646,-0.014641853924114174],[0.0052963937958775435,-0.009321626903582956],[0.004784705098481514,0.014531253885500658],[-0.008463864656603306,-0.019702052937208135],[-0.002554344698051689,-0.004237552339289566],[0.011129554979501128,-0.009751726461210395],[-0.02717439021293737,-0.005443117993494363],[-0.001285257683681026,-0.021853815466574847],[-0.00973363822201526,-0.006972404277183978],[-0.0006314925042264066,-0.0037045099212784233],[0.000607838925306357,-0.000205400376934471],[0.017481374052524045,-0.002683340952749911],[0.005499805088632348,-0.003948791637292737],[0.012147518462213621,-0.008056360981619857],[-0.012259986347333487,-0.019888980351788668],[-0.018402018566506837,-0.01843496600929765],[0.01189394782759972,-0.016701462011906195],[0.026827812290904182,-0.0008133773264492446],[0.012184073038290565,-0.021637155897450213],[0.005113233237325792,-0.012749280572886164],[0.004403944680384173,0.0003380554573917139],[-0.004344649259992455,-0.016947878346967708],[0.006811196122458582,-0.024671439555481494],[0.013661026256102684,-0.011373782707364229],[0.0003323197849091482,-0.017656059393384087],[0.015271745045440523,-0.0025059731880926707],[-0.005327156556514788,-0.020758494575610034],[0.010264175057059656,-0.04115823871216225],[0.0024250308339357654,-0.017161682797514188],[-0.007329487821831844,-0.01616482852883125],[0.012029954908812061,-0.02319881998599527],[0.0019335648308133149,-0.012256071932867128],[-0.011159073958714608,-0.006453004372604484],[0.004461413329933502,-0.013928216342841089],[0.008809878628672052,-0.024957385772251473],[0.002275351803768705,0.0003907253519608439],[-0.005597301564734714,-0.011776954659225788],[0.0049186919686190185,-0.018838147739455975],[-0.025426468602804054,-0.013049262376797278],[-0.004864144994103059,0.006183577453046855],[-0.004242395900703597,-0.0173819746118218],[0.0024276277947128198,-0.012382800618200821],[4.170965068680526e-05,-0.013066566368630638],[-0.02242765925638256,-0.012229154852020988],[0.014088436189189469,-0.024640741655975133],[0.01877114054024977,-0.002291204551884404],[0.007414930025242767,-0.017947256425982775]],[[0.006605269580534989,0.01859848403691701],[-0.001165109948494448,0.02831915774955639],[0.01988267772404359,0.026320350232268024],[-0.001719982480519029,0.015866364693789388],[-0.0032954076779251273,0.007201324674867605],[0.016772012549062545,-0.01322892579454116],[-0.011203399240984076,0.009072400156037707],[0.012510134122095574,-0.0073384209745867915],[-0.000244670880823781,0.01515281558473168],[0.01955816199347743,0.011435487107232965],[0.018882835413461495,0.0072081498740760135],[0.0015927735481527025,0.02476396286836256],[0.0025530887940681717,0.01318996321342353],[0.010458884254888253,0.008483726019020052],[0.014850664331751572,0.006841263530076889],[-0.017660525016567903,0.008407648797471466],[0.001280119642960377,0.006709703065513932],[-0.018819400221394715,-0.00997978985066166],[-4.0263820698543525e-05,0.015174269296616107],[-0.013232926613138907,0.017643790082086008],[-3.173590513958253e-06,0.007903591605791507],[0.0015396586398398113,0.017363355886446545],[-0.0033736321849000134,0.00753906586049462],[-0.002659983987220617,0.010961552383718732],[-0.00323428447040738,0.008412581035223717],[-0.005795475614383328,-0.009745464730447498],[-0.019185577650187625,-0.005914180822365781],[0.006880621774244568,0.012129317046898291],[0.011968119812588485,0.013679354457558173],[0.008102861725963214,0.02690547413786753],[-0.004159636636783344,0.018221627530003823],[0.003473649719777235,0.005899264378182778],[-0.0018763530773293162,0.021860079914086245],[-0.003437525710859446,0.01675297364065252],[0.005694775059147178,0.022597789990274515],[0.01753805133236008,0.02883638245222336],[-0.005229494628349114,0.015228610922405503],[0.007154997180262566,-0.010517770063036325],[-0.0024553405252683252,0.024955327770452767],[0.002063350120252605,0.02046598630322609],[0.010920738172591388,-0.00024456864404629353],[0.01255934855442556,0.033318306042825256],[0.00896808294633823,0.013039960170841438],[0.008688932436383872,0.016527555674984762],[0.014112325175640567,0.025553705129157635],[0.013332786719738195,0.011452179833871267],[0.02274199362929031,0.014879363986354028],[0.018401869502063527,0.00827511625518488],[0.012424566456725197,0.011584945476335956],[-0.002822746517981469,-0.00032015440939655703],[0.012923033554430434,0.009800617044147255],[0.000587795440593192,0.011577849306856187],[0.03016163535500239,0.019409639214902248],[0.004323962769554824,0.032379909661962164],[0.01510765674651229,0.04362004977254572],[-0.00648224417666402,0.0004304267060109563],[-0.0018375712047651173,0.023431871039975044],[0.009661499765891745,0.007181806064856394],[0.010525442943994713,0.0037623470191304738],[0.00811308245156295,0.016890858866940778],[0.008070739373233994,0.014556238952465519],[-0.0022505933022144184,0.014758047145490704],[0.0073899698963112645,-0.004549274783007906],[0.003898857671721967,0.007981354046472754],[0.019664873580153945,0.00835936853916093],[-0.011547248777494171,0.004408884017987256]],[[-0.028904338458092052,0.03176544785486303],[-0.01981707180429804,-0.0026387198347176143],[-0.0038572293249988453,0.010056561800893283],[-0.015939884619642894,0.022343516803776407],[-0.008695369531938708,0.0023735674656249093],[-0.029036557837269283,0.007176047142419409],[-0.03370994762162354,0.009459295560104823],[-0.0051035313455775515,0.0008848214178233467],[-0.02190111333724225,0.01005644055430417],[-0.012184736960757087,0.029631276658868885],[-0.005960057135663383,0.0036261199150333734],[-0.018957311428687076,0.007865764975926833],[-0.020797787248920348,0.019124279120878124],[-0.01097703125646284,0.019443558859295263],[-0.010973172528235601,-0.008278138699795464],[-0.015068155112139516,0.01774978307562366],[-0.03597694455456886,0.004399608453847233],[-0.024547600518354116,0.010930798055553973],[0.011083668567780789,-0.007357991375731161],[-0.025929609042133202,0.011637494931395341],[-0.025092938295643206,0.013585836570971479],[-0.018773340274954937,0.0035059282239723543],[0.0008982780758350921,0.0037305276471028665],[-0.021307679428383568,0.01304045475040031],[-0.015457322389769454,0.017935738906059005],[-0.012354395583760558,0.009459403406158787],[0.005630998315356286,0.0017775609792394557],[-0.010472777952508396,-0.0035921123143531903],[-0.0019221606937929899,0.025842218691997456],[-0.015086520451166404,0.014971865161953113],[-0.0054029455836111,0.013411426496192487],[-0.02016151815186157,-0.012765444448385975],[-0.02674370836674625,0.011091175163364905],[-0.038027494638907616,-0.00626507562140526],[-0.011715825959468537,0.016854066450959347],[-0.017860090857143844,2.767539948129467e-05],[-0.02127612651037513,-0.0006164724077680137],[-0.001663679208540139,0.012171316579601263],[-0.021653132461535926,0.0311906863739447],[-0.013692336017533472,0.006637625614042109],[-0.011198257771749045,0.01486309951499491],[-0.004734988761552542,0.018045173432975032],[-0.028109877316379487,0.017619030173390147],[-0.030377137453242956,-0.005077325924935571],[-0.020585299511009104,0.013047668707761065],[-0.017227752084581844,0.007919723164815914],[-0.015940839724286022,-0.010834750944979012],[-0.0023926876207673426,0.011529190837599955],[-0.022140164511797764,0.010897060557386273],[-0.010556769204615273,0.025015916317191512],[-0.013739267774712424,0.030937191708300213],[0.0021000491868359518,0.026938231187687987],[-0.006322049727495024,0.005621735947666201],[-0.02669963946519207,0.026948853833877604],[-0.017842710873924646,0.015387323919649733],[-0.020728633095558453,0.008486851712153395],[-0.0369319669931437,0.004740895689396401],[-0.027024527712606185,0.007694029156694571],[-0.027737920629576866,0.006442945163689893],[-0.024825258659868968,0.010729589716563065],[-0.00497775145217506,0.020401485909747198],[-0.015431916980229431,0.017445716738456348],[-0.01920001829836324,0.01454953182625371],[-0.017878756031492145,0.00887055480458003],[-0.006656127085464367,0.032421767774972556],[-0.016459618210230096,-0.003382294979085716]],[[0.019713159303184274,-0.029541631557950584],[0.01366050089377445,0.0003637177009069921],[0.02012322033339001,-0.0006740466443110975],[0.026052461157107177,-0.019703762240856695],[0.016997992232431862,-0.004951330604904539],[0.026026162978774973,-0.017873214189153188],[0.020789776557391743,-0.010513000479912495],[-0.003236692927232048,-0.012127658045169593],[0.0006450766497380887,-0.014297547391646563],[0.013163755067872707,-0.012056480579483166],[0.028643847890165303,0.007111239718461337],[0.023026075199842743,-0.021069558298157987],[0.017951300385966297,-0.017548186956249292],[-0.0018172896655109776,0.0017166094761638646],[0.04544155288143346,-0.008434048082229827],[0.027401396212366286,-0.002521822921129607],[0.0032067640521015158,-0.011281274270456772],[0.014182547460261362,-0.01156904640579436],[0.023004318041283573,-0.0023751067113683207],[0.027244862222621003,-0.0043085527902258156],[0.013547699940244233,-0.017429559197693713],[0.031884877307656045,-0.019538584012433836],[0.02401782007314183,-0.00661872753660241],[-0.004262917197247868,-0.006107248983326891],[0.024368203583046533,-0.009025967658783354],[0.011920651811611047,-0.0030507777483709565],[0.029939464650356847,-0.024770314546069278],[0.0078957247685505,0.022175233357709385],[0.02118976101559052,-0.026651360303924846],[0.004622941737589056,-0.008906381427615878],[0.0027779068050053863,-0.0033193684434587524],[0.0327054924745859,-0.0042652674940109785],[0.025369001520305575,0.01425496570562219],[0.0005904009934324024,0.027666371407441385],[0.012392042759385248,-0.0027863293448003356],[0.00798486378694776,-0.0010336630715825298],[0.01841232166105582,-0.026036056584660607],[0.029667123426860023,0.0012099501276977454],[0.009457854396314145,-0.008816772361934528],[0.015797637856878263,0.009839042355651353],[0.008081649723091337,-0.01965585905990063],[0.0266445934200823,-0.011454532586756926],[3.761078932228767e-05,-0.006901912200448617],[0.015804213313668294,-0.005661509974897124],[0.012713355799963761,-0.002935204676205651],[0.028386161824030785,-0.006711119047967049],[0.007136312685668708,0.001635827680245303],[0.00984539180030461,-0.013961547313974735],[0.010759827673275676,-0.014511219373777775],[0.02998164375680491,-0.01833640485423107],[0.01395572124432233,-0.019557217392510824],[0.02005670518531189,-0.018010902565104226],[-0.0014433319410344808,-0.010434413194800497],[0.012190297292384366,9.8876818129283e-05],[0.009473853810129875,-0.0024459936228021124],[0.012254390465912498,0.0047220520800345805],[0.0032209334002833738,-0.0092868293968833],[0.017591374168101342,-0.0008705273777795959],[0.010560696263782404,-0.005226812921519274],[0.00976103568568949,-0.006894960943275444],[0.028703808730952185,-0.006070617210645205],[0.037156884727823386,-0.0034454665732103415],[0.0019327903092217105,-0.012703478776466364],[0.025371884940814146,-0.014694254331390547],[0.011677090934630858,-0.0011871420289590185],[0.025976687014050794,-0.004330475101744489]],[[-0.01054223702416516,-0.019815769541577714],[-0.016758525668028428,-0.02250521806379658],[-0.002017663695284287,-0.00908529456121967],[-0.01147625189550322,-0.006542022650171726],[0.0049684832606511535,-0.02713402992293707],[0.002609556750589075,0.006715985042160564],[-0.006866708769920832,-0.01928023319168364],[-0.010098020244951631,-0.0063846745562799396],[-0.030615714714594316,0.01370792744388817],[-0.011679833172406277,-0.01884107884986648],[-0.0009830681644293871,-0.012501378293719735],[0.0077509257485781045,-0.03706533987758576],[-0.01847664055143323,-0.015319057214439375],[-0.012155914045212577,-0.0169274419218464],[-0.02108481309748051,-0.008255183115250376],[-0.01908618096678621,-0.011639432206513279],[-0.026282104008794636,-0.01321717418094554],[0.007966138320327961,-0.0036756781078213677],[-0.012297928347136557,-0.03195738505176509],[0.0001888343326017367,-0.016034039277281618],[0.009741546635627258,-0.015864141420667142],[-0.008831743522612838,-0.012303505552565668],[0.005106740110861286,-0.012875220237282194],[-0.0002386917407026761,-0.0029976060104610356],[-0.01536851684561483,-0.009264404227818258],[0.001400245448607613,-0.0036165427675006238],[-0.02381091024289693,-0.010744402453476964],[0.002216874995882206,-0.01046945912054268],[-0.01672556810412715,-0.021391316015442963],[-0.016070402065985853,-0.0273898157231186],[0.013318348695504578,-0.015882668979666677],[-0.020380392929462594,-0.029578459801632918],[-0.00719441445682141,-0.014778597261154597],[-0.021375174342207277,-0.019829029017496638],[-0.0013124172831173713,-0.02668130067505978],[-0.02237916477113083,-0.015573040471969838],[-0.006350627848182741,-0.03215497444091939],[-0.008908740277837487,-0.025940158233231696],[-0.006994249673755063,-0.007819882524959678],[0.014996151801556081,-0.022062052131389724],[-0.01982025367090804,-0.00017621816355323943],[-0.016352675289782428,-0.024636647824439337],[0.0020427076543230735,-0.008569388126321721],[-0.00639167894090604,0.004379592287906761],[-0.025468383271364595,-0.019310790789387997],[-0.033614571666523166,-0.013001984690508565],[0.005368782655593055,-0.011940168037977237],[-0.005481044184957094,-0.025353747471160135],[-0.02199196268398668,-0.030491548554063597],[-0.0002171707426037068,-0.017710350032096787],[-0.029869450006801183,-0.010585818128228],[-0.003055597539158425,-0.001954025813336602],[-0.017137364402032087,-0.036855404758369376],[-0.010465265162381882,-0.028485696791682752],[-6.818130045540425e-05,-0.021425613410869498],[-0.007992059644294666,-0.011324400569113395],[-0.0035986333868836,-0.03249442851161186],[0.004077203390680776,-0.03607618272820661],[-0.009050875591430333,-0.01763533671437762],[-0.003751003980197986,-0.006145267959680238],[-0.005338820731180959,-0.007461317096146833],[-0.00642705025826121,-0.007532858636190628],[-0.020807406056534545,-0.004394656735109885],[-0.0025893681733823713,0.002807324202828196],[-0.008305017294727123,-0.014412068742489764],[-0.00045261496460596254,-0.014111875449707292]],[[0.011466204808218828,0.00782854228878122],[0.015070172635943542,0.010973850501223759],[0.02855582102740241,0.018368914393660635],[0.029449199104432337,0.016312448678226257],[0.01628625898169526,0.004543611393172523],[0.0035209977885701646,0.02036261275338063],[0.019148797127703194,0.008362958768746388],[0.014234009026153243,0.0147697526656701],[0.0006977261546084536,0.007917379514303963],[0.01418622145400437,0.028300561013109453],[0.013257410815395675,-0.003762235302112345],[0.010282713746575755,0.04949952860955883],[0.014534274810982404,0.013881121971659633],[0.016532825071931496,0.011638521014786922],[0.004700161480513052,-0.0037539016834674185],[0.014326577611307014,0.005399567989330797],[0.020599562721456344,0.013479085624469214],[-0.004985537998187729,0.025657640461382542],[0.0010802061968083955,0.008464248286084861],[0.005192401114660395,0.03832671480657691],[0.014239269122683088,0.020076338663242738],[0.01333535069931481,0.017863097911632587],[0.0187645017834022,0.020066167414320844],[0.025887987848511283,-0.004813641574170195],[0.010333700766958054,0.002559462291674396],[0.010452716214622144,0.011369877054791908],[0.0017631227569778218,0.023546194464066604],[0.00171416232979164,0.016825672996889727],[0.0052994206610196435,0.020638186571862407],[-0.0066251064624543625,-0.003188366450163332],[-0.006006990678474466,0.0036966373173806587],[0.02865658041845955,0.01087723967802847],[0.007091093591294575,0.004645342028085734],[0.0007987082603138176,0.014214534962654363],[0.012017610036035128,0.038013494408186736],[-0.0014438876528984385,0.01804510030537496],[0.015528648374866727,0.011967817348062154],[0.015034962036944243,0.00963373702168131],[0.0044362275048509675,0.02641554137622352],[0.01347143214632631,0.01974382252090525],[0.015223875266408001,0.02525130857727656],[0.014344655340652813,0.014375629246429752],[-0.01760575088205419,0.023271578575637292],[0.00872917769712578,0.002910286296574532],[0.0060345338083381515,0.010412349700179018],[0.01183080912791314,0.01755277388200223],[-0.002559534099650089,0.018648027705239104],[0.00291993978872276,0.03145435405694623],[0.01104807214911592,0.02491327607163635],[0.015607833611808276,0.025000793106077834],[0.011242920784709303,0.008535169254022004],[0.00236861623196486,0.008370716732532996],[0.0038853750915708043,0.002562142388689056],[-0.0004921833044957518,0.030347207787969288],[0.014756400548208726,0.025018258651522476],[0.027665681558304667,0.020091099408022527],[0.010563045270061315,0.04079040167486247],[0.012603742716819525,-0.002698117463256501],[-0.000872668371584858,0.024375228062215742],[0.008503450929847646,0.009460505000659451],[0.008832780025318366,0.018358137709289606],[0.011977772620446542,-0.006983445885605984],[-0.00883173161100032,0.00879585327186934],[0.009703359417328677,0.020877378279023393],[0.02339554795289734,-0.0088524156160919],[-0.014676968147862951,-0.0041457235678255]],[[-0.029761874366570563,0.019365500916730276],[-0.016391167510154847,-0.01611116211217896],[-0.009074504410095484,0.013714538642213395],[-0.023656855440017173,8.687804038585432e-05],[-0.011855439601619274,-0.009894474561937629],[-0.011756533274638528,0.01555568235272291],[-0.013443513826154269,-0.010852537899758648],[-0.014660649973918406,0.005161131841776943],[-0.013987467240692535,0.002442425183766424],[-0.02025762465084073,-0.0027690991485328836],[-0.011834978617146979,-0.010726163477576336],[-0.015202794603371095,-0.009885100292517322],[-0.021133277554076017,0.000512999099712725],[-0.034540159794037316,0.00877642307832498],[-0.013674821271633325,-0.007966471702224412],[-0.02446854244341644,0.006589425809005661],[-0.019480321004379412,0.0240286180364466],[-0.009770109926611393,0.0006208212889042229],[-0.002977870651859847,-0.004002080909246469],[-0.008527230403596955,0.011190593743256665],[-0.021914868920127662,0.0026339215247266957],[-0.01403464538592153,0.006648898562491164],[-0.01850337291138766,0.0020964437428654947],[-0.018124199509388744,0.00844706458001154],[-0.030626369818491542,-0.0023249588322583874],[-0.008523321284771063,-0.01738321492711876],[-0.00660763134850113,-0.009217311745098883],[-0.010440920590986566,-0.015044565068374975],[-0.018225399468135835,0.013992821799574208],[-0.015472631864502664,-0.007145458081556008],[0.007207421860113235,0.00432807228455609],[-0.01333503317742445,-0.019564053512504093],[-0.00425979859125686,-0.008846533652627013],[-0.022242505202203035,-0.014981006464770213],[0.0017714706457112935,-0.0016912042869287839],[-0.01494431339520959,0.01464940393860842],[0.00526504015600032,0.001426049400036221],[-0.0323492853523072,-0.006483762488195918],[-0.012892545336668034,0.01941884113331996],[-0.01621460281713492,-0.002575772285760899],[-0.024440588073257084,0.002786715339975204],[-0.019671664456984716,0.004015307769727206],[-0.004497246605853877,-0.01897385008114077],[-0.001152295736154053,-0.019778563196281348],[-0.007562774240721378,-0.00332823510198978],[-0.01380178451356531,0.0032457705464172646],[-0.022896430225680074,0.0035116168191500984],[-0.027392820126712167,-0.01673460082919703],[-0.016775612824814642,0.006648216981015355],[-0.007882058656213433,0.000593403097732079],[0.01028520014619483,0.0010820894670029784],[-0.019492554481729634,0.006416142324779207],[-0.007926979771425277,0.011918363690984762],[-0.008260228660006913,0.017777514221324762],[-0.034326760080067735,-0.0074189710257727415],[-0.03814170075620149,-0.016345316997676516],[-0.004772573445358194,0.006679940998697282],[0.00039464720122501135,-0.01170531570120234],[-0.017461006146825907,-0.02753898791629812],[-0.021005119518542385,-0.013279599673756947],[0.0069699794957734495,0.007056404449555507],[-0.022542382176373124,0.0033312437210418753],[-0.023767410354999963,0.025373116536722314],[-0.024796226907062922,-0.023871616288325105],[-0.010297813678764126,0.011608247116088261],[-0.022233886749950055,-0.014172032581911024]],[[0.00753106207403227,-0.00928060878053263],[0.022952104815319365,0.02324898230735564],[-0.001373685080914491,0.010306477235131282],[0.027463920294877552,-0.001072487136404359],[0.02178818361914436,0.015293251363679422],[0.020005662986435677,0.0004705258436922268],[0.005509129952067894,0.015761406694085493],[0.02342857733348451,-1.1674807032215561e-06],[0.006352336814054085,-4.605891615315316e-05],[0.011810771173012592,-0.0016321354139807065],[0.015863613002793115,0.004041068787856681],[0.006491072249561477,0.007875896061571548],[-0.008921795159815452,-0.013100241486558691],[0.0021824767226548973,0.013814476358224043],[0.008978664069058197,0.022058511430373125],[0.011686841108069668,0.006423083724744704],[0.0012598898240023292,0.012677655452523402],[0.0034796018384433674,0.0025592841613474547],[0.029492512586426163,0.01979908822481472],[0.015326602640791937,0.017868856558362047],[0.026394440298791837,0.024694574772926196],[0.011843669468955645,-0.00850182681530854],[0.009491548899903644,0.008264375348473602],[0.009841427904316326,-0.005888583773326344],[-0.004184623860995694,0.018982946212852476],[0.014422318798453506,-0.007695111508144206],[0.009714827395677458,0.005860385959233652],[0.007047161376239246,0.007197125212441938],[0.01790153985490249,0.007826528314942916],[0.018632174798856385,0.00911024407742488],[0.018234544398930713,-0.0012266120309069842],[0.024793352153635827,0.0068266940520796855],[0.007458211394151839,0.011248866014368017],[0.0289762270806272,0.009968438788123755],[0.0290464185853409,0.004008934027519687],[0.017639821341537965,0.015463137276842042],[0.024935712102386442,0.005933135322613566],[0.016735794610544367,0.010826301674227618],[0.0172080286910201,-0.004491842412701922],[0.002243930002948818,-0.0048796206118169785],[0.031880020509081015,0.00012113224577531464],[0.015246383850033563,0.0159297047600639],[0.008457827181074379,-0.0009440114699881091],[0.018065492479177367,0.0049357183600228114],[0.02147115112660276,-0.0016163128796200328],[0.0011989553309911284,-0.002637915836249512],[0.023256739240028367,0.0065695571582700864],[0.003330969069235117,0.011619508707611742],[0.014475299015745584,0.0020716638346338044],[0.01943440276816392,-0.006430001963290167],[0.018042216858489123,-0.022030734058492776],[0.012691358996186897,0.0006664823194758716],[0.010390136533704348,0.011885912178171225],[0.004614638510321874,0.01606297092182949],[0.014602879088771883,0.018077373900090492],[0.011281040954810063,-0.01061561087233091],[-0.0036090749471635562,-0.0035791380639077384],[0.0031158300770477375,0.012203438193060821],[0.006832671613692941,0.020470648269656434],[0.025406728177953482,0.002251100743999245],[0.01028433661744478,-0.005436986135386987],[0.0023018173103020105,-0.016828307927945575],[0.019750725515119433,0.0008622185078765738],[0.0248318118496022,0.0035146989385934],[-0.004714516880049112,-0.007847639446402158],[0.021096962280468295,0.007490406968935295]],[[-0.02039012938452348,-0.03229443424427439],[-0.0010561872472025222,-0.012003053565626098],[-0.001758093426180707,-0.014102000314320694],[0.01234398387334269,-0.01641789789157516],[-0.005596895696419139,-0.019438988376342066],[-0.011363328117769701,-0.017431901163246936],[-0.010530257396616664,-0.009529888124120749],[-0.010215032227988533,-0.022802978329324385],[-0.012342097484436076,-0.015143765082337796],[-0.024079815516663106,-0.011966087204295015],[-0.006353882941120068,-0.008045298996382273],[-0.004012763857492139,-0.0038724279973254313],[-0.0021324252525042504,0.0017541320571374415],[-0.0028581647932681147,-0.016532899894788226],[0.008226419249627828,-0.012041746514758724],[-0.01543068671320667,-0.02576283983011893],[-0.003771489182446528,0.0008356262869863132],[0.0029124224979552426,-0.005209654041354265],[-0.004765239040578675,-0.009360016680451064],[0.023299286858465128,-0.02091844016774768],[0.007811688475785823,-0.0315051535374456],[-0.004121847630523322,-0.0007894774237085595],[0.0037865631109214697,-0.011687044157587614],[-0.010761982038746756,0.00034892099931458254],[-0.011755582999087615,-0.018745681145460463],[-0.005120300698969481,-0.008994325870667627],[-0.004566449776735087,-0.023060112062318113],[-0.013946664152478257,-0.005890644447022273],[0.0017998719277461438,-0.01710335957138401],[-0.0006212120624873665,-0.01585254453806406],[0.011358167878228012,-0.019926157139632382],[0.024490158077698734,-0.011971039381834114],[-0.0005608326552878501,0.015294783171212637],[0.0042366071492152685,-0.011821830474912096],[-0.004412515505700548,-0.02195650114015053],[-0.002782098429065864,-0.004207977167106398],[0.010959628944920297,-0.023162429966820133],[0.007868767465672874,-0.013606793126513925],[-0.007164294903309872,-0.01322628902387644],[-0.0015838042115501366,-0.011212842169867862],[0.004003771834437078,-0.021448124896007847],[-0.00982505902802955,-0.009688212128092401],[0.0044047175839657,-0.0014960307044804334],[0.002569150690276015,-0.013731781433769711],[-0.01738352005428336,-0.02506450338096036],[-0.00908159789895546,5.890802917656302e-06],[0.0026498326999087937,-0.017493655305144937],[-0.007921428102276067,-0.01500729546694911],[-0.0013059541852545628,-0.019908501245168294],[-0.01471891160107063,-0.006230934434777884],[-0.013582985904595012,-0.015537398371824458],[-0.0020929489341351354,-0.002961254070896623],[0.015720190358289532,-0.015992216061020983],[0.006128317217252134,-0.012215134582779659],[-0.0036021198876478268,-0.019701391898926845],[-0.01268922629711308,-0.00408002470671747],[0.003260334296501541,-0.018484677337162168],[0.014858810028105261,-0.01608033421724754],[-0.0023932423195786095,-0.008138612107655775],[0.004005081547391228,-0.0166355227916658],[-0.016939184483344458,-0.02624743071111183],[0.0028145007779456685,-0.02530875499471777],[-0.023317662128478453,-0.009043835553460326],[-0.004096043473201299,-0.0068840896159345815],[-0.00803962221992763,-0.012173284417579571],[-0.015024781234405085,-0.013702521805227522]],[[-0.0016057398895676215,0.006874411598716173],[-0.00012112606280652511,-0.002891333783319906],[-0.01655495174003418,-0.003478024741853114],[0.0013846344610578605,0.009330093576312808],[-0.0066810772891605225,0.01463756257866964],[-0.007939339325400441,0.02042137596754738],[-0.014818912076723936,0.017720412652866478],[0.005726726467796819,0.005176641357408801],[-0.016071508084331613,0.02086518435047792],[-0.00835655828349972,0.005518940020597168],[-0.010633120918697031,0.029460828454374647],[-0.0031884508005499148,0.02391329729242242],[0.0012177073885089817,0.014818833464946822],[-0.0054989070762783525,0.007829251346233955],[-0.024560634434468605,0.026989955832796574],[0.0020029148368067096,0.008864781968536482],[-0.009172692942099311,0.02638979750208773],[-0.01913046686740836,0.013622487943433731],[0.00467357082984711,0.007046405541890338],[-0.004058911208874478,0.028332132439834335],[0.004648961032043779,0.005806145898142397],[-0.0056205724540744975,0.02781822101230368],[-0.0003540378734099392,-0.004695066199639546],[-0.01324878782334474,0.015772340229979667],[-0.02607362532008747,0.014052432144128352],[-0.010074884705817466,0.022245257628232235],[-0.00033799009361444327,0.013343658763970393],[-0.0021890220507210924,0.018883291044980304],[-0.009742366649984903,0.019881902973462547],[-0.0036704228041029214,0.013544184069095012],[-0.007465843269567566,0.009631774254180008],[-0.018497888583304596,0.019788748384074052],[-0.006859891748659106,0.008303833005122876],[-0.0001335185959024716,0.009879620234106072],[-0.004036238585050738,0.009203030909287232],[-0.013700015119201134,0.009556899415977135],[-0.016774119087264564,0.009514552756233951],[-0.003721050153808305,0.0073070383931260665],[0.014415484430223781,0.0026225141625907914],[-0.0020213474787212993,0.008090196555056653],[-0.0022821501370382602,0.0077067536014817735],[-0.014745386043348728,0.03416818070776658],[-0.033518547995686425,0.015285864571945303],[-0.0007266525753786723,0.004919782467173801],[0.0068615750582770516,0.014743823044179587],[-0.010977811019185183,0.026367504856563948],[-0.006796769007042457,0.011544956710279995],[0.01025968611390798,0.042355150960753325],[0.007172059575759145,0.007755535877879496],[-4.9347731286725355e-05,0.01713433595301016],[-0.016340080825593246,0.02575666352623708],[0.011454890995995927,0.007725465089690593],[-0.005593306315231468,-0.009702003953120859],[-0.018378593493793074,0.0029983255372561545],[0.022149933904203247,0.034366091012378815],[-0.0008920293422261723,0.013741786620225313],[0.004458258802171427,0.009354912009241325],[-0.004290585328112876,0.02098548989927731],[-0.023632489590821832,0.0005385338384484867],[0.00883965531374115,0.015414460076017829],[0.0030119977753276968,0.005803139185911662],[0.0006136162127229685,0.004661693785994344],[0.0040029043405205526,0.0011019353814079552],[0.005385611614517852,0.011707088818911384],[-0.010175332121787164,0.002559694210316445],[-0.023664539504576622,0.010890970650473777]],[[0.002519397732889135,-0.032256565514425045],[0.008063793442467526,0.0011712223652304383],[0.011107303754685017,-0.0017829569937718183],[0.014656599175802488,0.0013559979949714464],[0.024472004188759236,-0.0019689673306877383],[0.014614987597530948,-0.01321048865770645],[0.006550999937736933,-0.0027506196134760297],[0.01358223927171432,-0.012787482643809732],[0.00317438597466506,-0.023263407663922337],[-0.006435922487926789,-0.010957480299636948],[0.020270737936822266,-0.0012692325325726255],[0.0015764734897293952,-0.026655466561582422],[0.016333366417854107,0.00216498951287204],[0.006282870584594284,-0.008574585385117755],[0.005214384793655267,-0.01732845398405156],[0.008837793862387255,-0.0009112337387235994],[0.009281824787755476,-0.00974804323029907],[0.014992942196583273,-0.0039604746027815],[0.01595755620644994,-0.0038349317236521414],[0.02767826917081275,-0.004328717826566011],[0.014016181232911224,-0.009324379978901513],[-0.012794889924595824,-0.007839451289741999],[0.019247309389811968,-0.016135603710763412],[0.003116282521528099,-0.021858728287239837],[0.01049939878483334,-0.019108084342541905],[0.03021363778614763,-0.004597286100893911],[-0.008602009780437882,-0.010230163147615988],[0.01641167780749993,-0.016109191353018252],[-0.000747965154128831,-0.01582597076440723],[0.005755910350980241,0.0024218015779719315],[0.019768036824608506,-0.01823800648841977],[0.011190707190774174,-0.0022320725691960678],[0.00166865539990154,-0.012576519824007266],[-0.010692170621179059,0.012381070951514885],[0.01948530011551323,0.009636212043960904],[0.02101232278023097,0.02071060900534106],[0.006797817415080442,-0.0058818365084798594],[0.00914476537422261,0.006895305571881877],[-0.010673271784411846,-2.7618174753243267e-06],[0.00015210405623105689,0.013448614591296487],[0.007561172022165475,-0.009458718263801916],[-0.001812328594113435,0.004030398600704666],[0.025878335584108684,-0.017877539371305148],[0.002858942707899523,-0.021378151729881566],[0.012443200704581785,-0.022458411342610812],[0.00898435606014272,-0.008473990622222182],[-0.0006658579554679765,-0.007075779478943365],[0.014399791722182465,-0.029730119078333127],[0.009785612829112656,-0.0018143669124604162],[0.007983287634298968,-0.008506835446061073],[0.005617700165422316,-0.010413118934767443],[0.030707290815362866,-0.00751408268751716],[0.01305898200652393,-0.01005691702331985],[0.0036626811604763103,0.0008757676718513785],[0.007382404658462223,-0.011905729255637007],[-0.0022890052642369958,0.011234326441057199],[0.002761775595695143,0.012965011632991203],[-0.00554317546928281,-0.012131128565400636],[-0.001167235505195157,0.0009131726737338635],[0.017854633270284703,-0.011817847976878074],[0.014521005019130033,-0.00898703704360022],[0.008108496993377711,-0.013868130742753778],[0.013180651034423917,-0.008228080138632486],[0.008519243954073512,0.013436624590028748],[0.03216250943195765,-0.011622048467168605],[0.017767896028581913,-0.019041374337003397]],[[-0.021963670831961442,-0.013591500451953432],[-0.00982494359775163,-0.008642024101609747],[-0.02579933458569232,-0.009444603286523967],[-0.02050551256727167,-0.01928730848640598],[-0.007684362645232865,-0.00883069699525459],[-0.021076546451961237,-0.016661458447771813],[-0.005312648077047538,-0.014042629401012648],[-0.021162525215278397,-0.011271819010519239],[-0.01857381397411115,-0.024145142608110248],[-0.020869753667436267,-0.00022844864478712166],[-0.006758193554406981,-0.026087988045202983],[-0.001538111443613468,-0.01484991752061864],[-0.008286192238221786,-0.0064442373657514615],[-0.000681105019206351,-0.009924358478704747],[-0.003240537715566592,-0.020296536571706252],[-0.004761252391446339,-0.00033072493664496267],[-0.031728182319345634,-0.006336444456131303],[-0.010849877076669798,-0.003608373244416987],[-0.01844962786253611,-0.0019395059093438888],[-0.006061756940462407,-0.015627061031827597],[-0.015849257465417144,-0.015767353655262446],[-0.015138618530748507,-0.02044981999656388],[-0.010539552378085987,-0.02668073930556948],[-0.0044849831868047545,-0.018676054209888375],[-0.0026992099896462956,-0.0034468225386269148],[-0.009288230196689876,-0.02039142515089959],[-0.011367602773924778,-0.01667462584442672],[-0.013419876568698759,-0.01824261946339671],[-0.007818699952920874,-0.02201887084113053],[-0.019741993550802382,-0.021305221779068382],[-0.040890581635444775,-0.021105839066534113],[0.011887406584950348,-0.013641438384774192],[-0.010366815195017061,-0.002975321367745949],[0.008024774935027934,-0.014726628544930736],[0.0025169208963014035,-0.02073711945852411],[-0.0066666652725134385,-0.009502094576334476],[-0.009942591579902148,-0.02063735665504022],[-0.006729798834171206,-0.019033278930747802],[0.012330659594697453,-0.02303749129193396],[-0.013702565443221267,-0.0049315417768593574],[-0.009821660322737107,-0.00254894604378261],[0.005647976213154846,-0.007335328496041605],[-0.013263124915948887,-0.005835683395462609],[-0.009520071659924951,-0.005660533715723104],[-0.0016483999646420156,-0.011297782428168434],[-0.01921751584630761,-0.009715334144924976],[-0.004047212992125067,-0.038558676252249326],[-0.013737256218124978,-0.02198297460447822],[-0.008066648391813624,-0.02469566605051711],[-0.014068494198259403,0.0036545956719174545],[-0.014389638499186005,-0.004372071718648075],[-0.014822217223251279,-0.011334955224784213],[-0.017500012671352278,-0.012916637695690255],[-0.003795238902270844,-0.00136973683412463],[-0.0018889896036265858,-0.024497564615812994],[0.02097490137573552,-0.012272680371208962],[-0.019877522609345156,-0.01893608736606385],[-0.016271182019652167,-0.019992897843442072],[-0.008408702764202403,-0.01580734702560689],[-0.02082457328481084,-0.009912518428898284],[-0.014467129262176547,0.0004768953021769809],[-0.006527583297789714,-0.023070678734859313],[-0.02938295612712367,-0.015187999749289331],[-0.009168379145411314,0.003925131597851932],[-0.015926459058141954,-0.011476794996781833],[-0.012685862567698901,-0.005907145135049186]],[[0.014622047166894928,0.018448740176702304],[-0.0021691638567668176,0.03473799258581045],[-0.013999389407124668,-0.000306507173719842],[0.005083991539748207,0.026887672574884704],[-0.014254772406474993,0.02339197485576327],[0.004922766677589238,0.01593887069464979],[0.00948548658570796,0.017756078917512352],[0.017101153050270573,0.01842732184157573],[0.0040198052809218366,0.003946912441101997],[0.02318443899652601,0.02315084451667161],[0.00890324725280241,-0.002124940021315452],[0.0056319008968816,0.009672829014692784],[0.007979300869670287,0.029250207755109614],[0.018738930500768657,0.013851648107951683],[0.0061002897038,0.009410202437829552],[0.012240656351254913,0.01511966070304411],[-0.011840221787299978,0.013085489059397552],[0.0022914131814342465,0.01604112411276724],[0.021764606176012103,0.0057219633807365534],[0.0024265786999666554,0.014986013533663772],[0.0026363868089952576,0.03573597817307849],[-0.0031788247420530837,0.016447662169650365],[0.001218598664804309,0.02682828475679204],[0.021174053656120892,-0.0033105635931181465],[-0.007340182127320416,0.01799801584569173],[0.005461801233342796,0.0294235114689546],[0.011479884200831285,0.010926153419070007],[-0.0025952051216669055,0.015988584484050095],[0.0048927718834825135,0.012161270147918336],[-0.003732944550627367,0.019249475714522114],[0.013792661489332921,0.013790758322287641],[-0.012221483344012083,0.015467228434915518],[0.02165301085663975,0.00786544054573348],[-0.00987547363959967,0.014643311617381116],[0.011799569232233147,0.02611215042806158],[-0.01033012788085496,0.020239864751395154],[0.001462010587629421,0.01711457304582026],[5.3661042488529405e-05,0.024039400668982133],[-0.002491139903159565,0.022822179993041772],[0.011043112589613152,0.01091343892540683],[-0.00856047792524497,0.024799552759522094],[0.003192286845840102,0.016528073118931574],[0.014376586286029646,0.028327235217238636],[-0.00014653806220707465,0.014237229617769487],[0.005676464322832148,0.006314395558353549],[0.004098424437248438,0.019118004194538726],[0.0028569810815646845,0.022448136744947424],[0.015552261508757468,0.030827415878095753],[0.0010452443144968742,0.005967421393368057],[0.00973928241545508,0.02012198526474559],[0.029024792336089962,0.0178460647219343],[0.000672769920052008,0.01115821681684168],[-0.0022320607990307766,0.027595024946940713],[0.016442310823895585,0.01951682002849839],[-0.0024851421232717965,0.00018595141336053814],[0.008364976131675505,0.0019566183138276794],[-2.3995053844033903e-05,0.018939905129347775],[0.002123155395709783,0.03866130575903345],[-0.012435069707216596,0.002546265258789965],[0.017288108039622288,0.0052373384913014555],[-0.0008790139115864256,0.00947832735746617],[-0.0016539770055929452,0.009876815374270285],[0.009948090766133377,0.01805925518904055],[0.027254237316136326,0.024933807669864118],[-0.002646562677815782,0.022172209192381546],[0.008692662350340353,0.00280585890139027]],[[-0.0004729812935129965,-0.030027547829777047],[-0.003575140078765066,-0.011348094893819927],[0.005899533885843549,-0.006836441970682601],[-0.004797187027623625,-0.020718692397131797],[-0.01711393957422928,-0.02115981577760081],[-0.008478297863927885,-0.006963141909881394],[-0.004092106084215807,-0.01742761251846051],[0.006545238083624956,-0.0029873609329498906],[-0.006496825482937263,-0.010915890262268869],[0.007739327030321146,-0.007987431127092716],[0.004101498058163549,-0.0009238853237454711],[0.005462598785806914,-0.013843222009132886],[-0.006705781418461794,-0.027260425714540362],[0.00537953052141451,-0.016857400641469126],[-0.017428121919522303,0.0022199628929940526],[-0.0074248348136057634,-0.03764795721626171],[-0.005376789998936635,-0.016185099680521484],[0.0009005591130650419,-0.02794100362469232],[0.013106886781474869,-0.013550989775095047],[-0.009023062621492136,-0.017846971816234396],[0.018166383043125095,-0.003125712782797917],[0.002025097293614816,-0.018481889881953813],[-0.004902895258269547,-0.016113688911122196],[0.003769171506762952,-0.01728704562275906],[-0.009448214381323563,-0.021710510857853357],[0.004016383469496875,-0.010881142656475527],[-0.0027200027857856657,-0.015923852925964745],[0.006551329465641192,-0.029561783122214268],[-0.01593055421778254,-0.01473074879192064],[0.016257106772430908,0.0006684503213671754],[0.01998436900783282,-0.015677716664094263],[0.005141453083840229,-0.0023172241270253513],[0.0024832802351713334,-0.022300051323229663],[-0.011097561525132124,-0.006914386809011959],[0.008382464653776242,-0.020603593503210473],[-0.011194257244408718,0.005419772017836393],[0.017885641231579458,0.010755351623180549],[-0.0021452533563527812,-0.01862111647224506],[0.0066370685449359,-0.004066518346834958],[0.006832189187065507,-0.00845743285397259],[0.001668302025870711,-0.025123405265695748],[-0.00016555436822446578,-0.031806840773158665],[-0.006758997754526166,-0.017504254071034907],[0.029684080322698186,-0.010075990331527864],[-0.004734808171992786,-0.005792922029702406],[-0.017307767865835603,-0.031866775250967164],[-0.011333739205191203,0.0056235478006543905],[-0.017608809682505226,-0.005464916951769779],[-0.014681258670479997,-0.015053537976180342],[-0.020431580460777355,0.005755205208839065],[-0.0059399933649276525,-0.03572003007639167],[-9.459701587440547e-05,-0.015310183362003406],[-0.0006569500843890064,-0.019684042570488947],[0.015238592009090808,-0.0150509900738649],[0.010890071133456159,-0.008146651784837177],[-0.017574038555527766,-0.00019158077680382776],[0.0019118557013339537,-0.018890680117883567],[0.002905972153079383,-0.021457721646241795],[-0.007990395587188868,-0.007426506231955726],[-0.013998606705588796,-0.011455374136927687],[-0.0012018701980156072,-0.008204535809065591],[-0.004156113302600556,-0.003924684096797715],[-0.005583029817400915,-0.02344549430860675],[0.010441210324284007,-0.004865061508017506],[-0.0020495265975892657,-0.004648255143206463],[-0.007116581917410913,-0.008190966809064731]],[[-0.014771547593153496,0.021283397993734472],[-0.004336708227255853,0.011605050503386529],[0.0028529867179318304,0.012931202022815032],[0.016371946186475368,0.017914496243730357],[-0.01577677288780179,0.0003404128748801154],[-0.005809726459481094,0.0012739176297323705],[0.01695767206973502,0.02435910860573916],[0.0037377792953699643,0.01774761194413442],[-0.01816434846704903,0.024758725584686093],[-0.01840666881786449,0.0014729290245343385],[0.0006206283888876406,0.022233470827462704],[-0.020443316677641793,0.02379474335514496],[-0.010332910132896897,0.017909313982957368],[0.0014956034457975264,0.024163802876241234],[-0.012954477433704224,0.023807399048775536],[0.00046514966178399597,0.021055622190140653],[-0.0150315559769769,0.019347146388998964],[-0.011654837646645436,0.018339293854782824],[0.00780328771065813,0.03173892697730343],[-0.011934022370069368,0.016152439580010093],[0.0016043790171980073,0.02893251327853102],[0.014302722238571841,0.01980434598056757],[0.009990903728178234,0.018971170592037515],[-0.01313806590118273,0.019920728351302798],[-0.006318681521035972,0.016031389158588556],[-0.012567789992518131,0.010734447340002586],[0.005077196574448175,0.015867989853497053],[-0.005820212127326321,0.026476858605639],[-0.01988724181558514,0.007020855190372701],[0.0036556931297463137,0.0147084952111543],[-0.017836280315805884,0.018567984535252657],[-0.018619355938090387,0.0021931679885679885],[-0.01083061903882021,0.0013367575876474787],[-0.02964264108715384,0.0019604725329037623],[-0.0013642082579167815,-0.013838768558289201],[0.002358416170937127,0.011564672840545132],[-0.014651551278619541,-0.00047447016650127983],[-0.002549748796646805,-0.005553768742968201],[-0.008581871900752597,0.014053225417552412],[-0.016605493411815744,0.01739329974126269],[-0.017638193948533054,0.01047317668101355],[-0.0016864992595969222,0.0022021776867133156],[0.005908158690364153,0.00776951482213592],[-0.01578548211352822,0.013616285096816453],[-0.012352408694449675,-0.0009696114977706315],[0.0021596013887691568,0.02926919437113823],[0.004606283635919646,-0.011096754530219941],[-0.00606447133994172,-0.007724325322434573],[-0.017483959066001448,0.01627609683804431],[0.012729391673609886,0.02916596661615984],[-0.009447311471838804,0.008167400378130024],[-0.0066991636129616955,0.028504107234613874],[-0.016612342398606768,0.01463293479732861],[-0.009825822757855132,0.02142607649491227],[-0.0035189789877760427,0.012036236637649692],[-0.010739111040719338,0.03498385297892754],[0.012021240582703749,0.01278373990371328],[-0.001085319126096781,0.01039373788242546],[-0.0041153832228287834,-0.005022497601454422],[-0.0062443046491377305,0.016606892298034737],[-0.006599949876900297,0.012812809155548135],[-0.019833452752205823,0.008583840300241553],[-0.009379132822278823,0.016860695940580452],[-0.0010536548689159305,0.016583107618256567],[-0.009258930679439382,0.02010357717848078],[-0.014988886652881365,0.006989174837154691]],[[0.025369824249054495,-0.008336570962972975],[0.012988023921811335,-0.011647896159461123],[0.017322534558631097,0.03170655321071086],[0.006972026826002161,0.007253101314001329],[0.025214474352427886,0.006086670957923265],[0.014771384040132417,-0.0013808452815989275],[0.0018426226813462049,0.011186684734163881],[0.002949416668611506,-0.0008316251451087603],[0.013563826880900786,-0.0014166432514699633],[0.013257446382726959,-0.013783308538886816],[0.032692599764165234,-0.005023653925192615],[0.002726333061892508,0.0008389761846484834],[-0.005446955527528486,-0.001166302069485657],[0.01222749719386265,0.0019355004971628302],[0.017201436210704094,0.021917577174397965],[0.030166290706229427,0.009735729590800653],[0.01715875959298535,-0.016437168406981534],[0.005371721205410044,0.007265252303842421],[0.00928518880315906,0.016786923361082683],[0.0027092638488189678,-0.0016930790694783303],[0.02258717273763357,-0.0020271835407304753],[-0.002366067042742414,0.006648185600265264],[0.018628906805103797,0.00783638405823305],[0.010239734547717337,0.008517724608673878],[0.008831147773582617,0.018090725220983747],[0.012351692401773478,0.012491241341787923],[0.027348030494919903,0.006905480801596629],[0.014654058909886573,0.02064815172861048],[0.007081362778813917,0.006837049962973872],[0.016478376289809825,0.01835332587875047],[0.005791301648187439,0.02142724187734426],[0.01451473110810398,0.013405397953304338],[0.006586126936574654,0.023345431821107893],[0.002797739182710242,0.0208089732271731],[0.01511910183739854,0.00903259369187019],[0.009784264326784285,-0.004756809221558944],[0.022725740278777794,0.01076016076461415],[0.011511288277583999,0.014760691895722844],[0.006097987977206655,0.010651361555662044],[0.0015418001315216355,0.013879694554630303],[0.013540587568509494,0.0065688385834735425],[0.010749412541183077,0.00794224287188858],[0.003593803468479409,0.01952469646496142],[0.005954529212232184,-0.0164480299050974],[0.023901482503209868,0.008150207906555167],[-0.015298451665384478,0.0019452921600901733],[0.007960512308082703,0.0021646213525450347],[0.009804815661964872,0.019696774557228736],[0.0023947069624947457,0.005203820606185315],[0.0008512445946460674,0.01226191459174646],[0.02002575258246063,-0.008761635048637048],[0.017889078248777716,0.012916646439755982],[0.02135885993602874,0.0002976568225417339],[0.010137810446954094,0.014812739628208652],[0.027059142681040683,0.020646672607283294],[0.0009048173364203666,0.009117029799876684],[0.029807778129255925,0.006489743345512019],[0.01504605851832172,0.009294982107668468],[0.01919183016021037,0.013037792874366785],[0.003635211029400721,-0.00039050468869471667],[0.026219531719994672,0.0022697024395636504],[-0.015172014949660233,0.005141513989184655],[-0.0005880987067283954,0.01590666919509379],[0.009402009437862286,0.007850631888004595],[0.01403066645019208,0.010740583098114488],[0.011794715408604372,0.016129884465073567]],[[-0.004824650132834907,-0.008104018963063966],[-0.021626820147790365,-0.03263714522221501],[-0.021364334281439416,-0.014817041729205305],[0.005495052160286782,-0.02477728554794763],[0.001388339212300234,-0.01992876975457562],[0.0073013943518361775,-0.022112329889179022],[-0.024690346309153854,-0.017160691709501696],[-0.008545632878075488,-0.03554662689585781],[-0.01854154103545379,-0.016992625921671473],[-0.0051829065755319625,-0.020968602675321645],[0.004469757481543618,-0.016280839617290505],[-0.018085982230973793,0.0014694126327859768],[-0.012385832394224087,-0.0037320624595017695],[-0.013368358052444776,-0.009645051338532856],[-0.00962837605421824,-0.027942782548452942],[-0.01533047825061499,-0.015894049149497932],[-0.016258092226848417,-0.011801352045382912],[-0.007668267189781839,-0.034897234726585416],[-0.018598628809011496,-0.0264053193439361],[-0.003107086573434593,-0.02008846320424286],[-0.0025581910357689087,0.005136919866495197],[-0.012812951752759595,-0.022363763437461593],[-0.017198679700610627,-0.025051732386659063],[-0.009722958329351026,-0.019706098825807854],[-0.011521411961490122,-0.008067735499387699],[-0.0196156946999602,-0.039679777154516566],[-0.007063835880545331,-0.02548542465603264],[-0.008538936741697868,-0.01518127798805776],[-0.004122413433002738,-0.01953370182538818],[-0.015160401041520284,-0.0028826621935688734],[-0.017584614282892177,-0.005367664540761914],[-0.01371005665119608,-0.017110190156550895],[-0.017845849227223872,-0.02204449546677676],[-0.0183194267670949,-0.025167704720999266],[-0.0035968211224616273,-0.017547881084859194],[0.0065473510972055065,-0.013438463666671318],[-0.003005920363091974,-0.010265420518194186],[-0.01239494531906844,-0.024318519815799588],[-0.00948598684989341,-0.0017824022315824771],[-0.007346092938591347,-0.02111666306784842],[0.009665505567900624,-0.03099473827513554],[-0.020994748331211434,-0.007189270927421334],[-0.027661336884767993,-0.003818190337470563],[-0.006353037891854562,-0.0067018617026712145],[-0.011716220280936947,-0.034657998145944544],[-0.00785326802873474,-0.0030591429099288588],[-0.007859796663775367,-0.050613171486960866],[-0.02713684055321002,-0.022748634119697336],[-0.007795655611516554,-0.015454966204489795],[-0.026665247211261144,-0.01890682732349503],[-0.004035125361869617,-0.008344722434049837],[-0.005568906883681174,-0.022710533347641074],[9.32066840993551e-05,-0.005560940522651708],[-0.013932935306221347,-0.00814043151511732],[-0.010923037950628602,-0.016770702381523273],[-0.0071499924206842,-0.017761773655643517],[-0.0028803263486997343,-0.030309601137318776],[-0.012917641781715594,-0.019893852326728297],[-0.019256975615936044,-0.010839549611698782],[0.0006051198733980042,-0.008792671907405463],[-0.016108504258330228,-0.027698523485392836],[-0.02031945864742158,-0.01877699896881063],[-0.022216001488938934,-0.01761785935535513],[-0.01318430868872127,-0.02396107728917713],[-0.009368848029765241,-0.006318719694336498],[-0.011351704852186466,-0.03720844155845532]],[[-0.004858970665749915,-0.0029364891429710985],[0.007550392033814544,0.007403535905201001],[0.009648880072938458,0.012381689059526517],[0.02095237820638573,0.023567621976379995],[0.017296779773475837,0.004214690505843934],[0.012558379173015386,-0.00043421008466157],[0.020750428771088847,-0.009655192070953776],[0.019220490143335586,0.006168017543953661],[0.008646174807317702,0.018422100123918865],[0.0032423488315985586,0.010020646031929939],[-0.005398210941632958,0.024585926983136153],[0.011072804508480765,0.0019392355081447356],[-0.0019004941002145296,0.017121396555510496],[0.01637660090504423,0.008050994758062147],[0.0008270908879683405,0.0254664336525024],[4.3528892199695045e-05,0.0007904170794118665],[0.016071383629269072,0.021887876515695983],[0.0022635929305012538,0.007240371590496088],[0.020882323733199967,0.003378656792515387],[0.005936333283189362,0.02806369280168811],[0.019139256482260385,0.0133663418988792],[0.027190122262590186,0.004641655627778813],[0.010331233312481697,0.008359178852317906],[0.004202546603473032,0.010951085025860192],[0.007143986612732964,0.0021702948812664298],[0.00764433798005816,0.00634467759004184],[0.025105834404402852,0.0001484847842031856],[0.016912998432622166,0.008284191569579744],[0.02357977933727227,0.0030610240633438895],[-0.005567917719020537,-0.009723710620370868],[-0.005225138174413488,0.018980744474242698],[-0.009683041108386378,-0.006393424284581807],[0.006180728033660917,0.021629406550517857],[0.013828223152449862,0.025156054852995356],[-0.008935114518399115,-0.006937583740849289],[0.02288683763642558,0.013929296961477277],[0.007646212873831097,0.013006520983465568],[0.0033081395476915625,0.010215188516207062],[0.0248982718203252,0.024799137950308213],[0.008115197074133718,0.04955540596254556],[-0.011776120407822757,0.011783978494597312],[0.01936393622103527,0.01155620393758373],[-0.0038788380056886075,0.010208865480017534],[0.020595782329522118,0.02468554317135343],[-0.0121190232578541,0.014654762335160233],[0.007609131121531486,0.00247917097972893],[0.026319892195393563,0.020266249930642456],[-0.0010302194788253628,0.004039108483650725],[0.016724400111144278,0.01889883988077107],[0.0008284329613871176,0.026974306854720343],[-0.008649044154680815,0.006560621865794036],[0.015509258790670387,0.01606117601187572],[0.030698343376189218,0.03161682567298857],[0.003093016535287203,-0.0030209298065208036],[0.028352198500446,-0.005669380403416246],[0.00761921938890482,0.018678959525512774],[0.010347174342278508,0.020512316930548065],[0.019843345283622492,0.02233077394235237],[0.017088402219217622,0.00878617506970992],[0.008027246636754602,0.023982727270670995],[0.00749004105961609,0.015550704188675088],[0.021280116860452915,0.00805419033532967],[0.027610465448614927,-0.007946431478903525],[0.011556308203201903,0.010979750700433492],[0.011489393457735423,0.004390408259745727],[0.016575599774111008,0.009755510720894674]],[[-0.003772020176362293,-0.029120471047052073],[0.0015591440032189463,-0.01821106055726373],[-0.0034548692132100787,-0.009955245862351145],[-0.007558715410470381,-0.03126778553207376],[-0.005897016410879331,-0.029854478537172175],[-0.026948104333823393,-0.023953686592354924],[-0.02446324250822776,-0.007766704222209732],[-0.008970568176744995,-0.025278022420668414],[-0.003469140888879427,-0.012484162195022653],[-0.02488742787883339,-0.006373433550967873],[0.0024848260013780685,-0.017361065799047403],[0.0015927112827802327,-0.0016751193769168483],[-0.007921841587367395,-0.013184380767077172],[-0.020317366295058602,0.006730637866837824],[0.0016327766814002557,-0.018565936796286556],[0.005028939321247982,-0.026332625513138197],[0.003888239947356302,-0.030580941001955544],[-0.014815362179280159,-0.020168970821359707],[-0.018856808743035487,-0.010399352638429265],[-0.0027192647701770813,-0.018636323749057493],[-0.005099599689831423,-0.02329458655154343],[-0.0003287622110471846,-0.0010376111036731583],[-9.278344966394117e-05,-0.0348182030682616],[-0.020170373285745915,-0.011007206204375853],[-0.011439242655789566,-0.01696669157266633],[-0.02778222179967604,-0.011320903504112625],[-0.014263541047162882,-0.017842099441847198],[-0.00564973668801874,-0.012481495909146975],[-0.005190083013212193,-0.01284873154746473],[-0.01863355240948093,-0.024598332036091568],[-0.004611519454833346,-0.02511150784518161],[0.004123663886373279,-0.01301305181713655],[-0.007831045859472403,-0.030583580515932185],[0.014645120858850886,-0.021955948725633317],[-0.016300935814699474,-0.008840042482547262],[0.0006596810968420554,-0.019063115225372577],[-0.021763109245797184,-0.02077831185013289],[-0.03157522165354803,-0.01693270528191738],[-0.009324575465858277,-0.020462370909387132],[-0.013911637125111355,-0.0353820348192693],[-0.015436863611926727,-0.005384706510253969],[-0.022026763351999355,-0.01391376828637274],[0.008851021955920241,-0.0026221849470307954],[-0.01941072136502162,-0.02279725326185719],[-0.008863226519391981,0.005520124850899339],[-0.012682415165907446,0.0028757868877177313],[0.008396763082256533,-0.018744802688498933],[-0.005811327290067701,-0.028424057851600126],[-0.002362610891602049,-0.021601706906205827],[-0.013644541394765014,-0.015337075150291736],[-0.01972968696892603,-0.0023204743730963384],[-0.01838440487552179,-0.010435207726516422],[-0.017084057339844326,-0.016975000502516296],[-0.014428313012823947,-0.00010596354210692424],[-0.02125382332135795,-0.027224676050472272],[0.007029387302265398,-0.012000821316820667],[-0.009417837205833333,-0.009622641526660956],[-0.03158181782470079,-0.012569786206989847],[-0.007865511127883733,-0.024219875842005845],[-0.010874546144634128,-0.0017943158940271744],[-0.003956455599847605,-0.008322367484757532],[-0.021249930377818322,-0.018579269947156734],[-0.00789902812022297,-0.0019833003359149563],[-0.007276449925973171,-0.002218155515121874],[-0.030469757341530773,-0.001331472942281938],[-0.007512458832782836,-0.03838945214200104]]]},{"Name":"Tanh","Size":66},{"Name":"Tanh","Size":66},{"Name":"Tanh","Size":66},{"Inputs":66,"Name":"Sum","Outputs":1}],"Name":"FFNN"}