{"Layers":[{"Bias":[[-0.012572460051905217,-0.0021111066562861775],[-0.006463041880345625,0.018664512141393138],[0.016724979784001125,0.012375183665120316],[-0.015325434371381378,-0.03333053411757447],[-0.009407556146744949,-0.015824819607486308],[-0.027013327477047044,-0.006063819290952633],[0.0038884411027271804,-0.0045999269803635775],[-0.010373054215561844,-0.0029754609156068387],[-0.004419694766613893,0.017792666257388904],[0.0012845718071576434,0.004064219721015089],[0.018758525182449283,0.030798572211415118],[-0.02263306351227898,0.0008234146648080708],[0.02056023243897532,0.020407579520036693],[0.004323732539401698,0.022881723971869602],[0.01156438349418661,0.009180217262026918],[-0.008883997887960057,-0.0038593713515289647],[0.006555860072390551,-0.004470012493756629],[0.020814356973972502,0.009552751486448817],[0.003953448794770287,-0.0018310034101214259],[-0.0042284915046139114,0.008171186416993628],[0.0034218266796714756,0.011721838918624258],[-0.01607349799106622,0.01607842454279087],[0.007709363444445242,0.0015846247937652527],[-0.01141028532356831,0.01967503328499772],[-0.018452112256455815,0.004537896209704785],[0.0007271573754249348,0.006458825998032419],[-0.0011709543268227,-0.006787553804506055],[-0.0016471937856214077,0.003694181809861916],[0.009040187772830763,0.004161943729444029],[-0.014392233620476026,0.004174135067517823],[-0.0054166135408865715,-0.004418826781562518],[0.0017299547422271273,0.02708298528870681],[0.012728007391709983,-0.028507213483924886],[-0.015480094658601794,0.021053180776794286],[-0.002289457895695221,0.004807636771628633],[-0.00011398625575192179,0.009571553422726819],[-0.014006055077186877,0.0032809247433938852],[0.019973581590874864,0.017300959198680115],[-0.003715069794925493,-0.011629477753325462],[0.011869915228554745,-0.005479862487166244],[-0.010867067975566734,0.01063917769313521],[0.0012619738769373593,0.024399807911557474],[0.003374664681371187,0.003535612851583464],[-0.0016372936967057744,-0.006131073019527633],[0.007993555293361267,-0.005341013061757447],[0.004894678223487101,-0.0013302237017666578],[-0.015477997687171539,0.016984134319355203],[-0.011930420524779675,-0.008810947718380624],[-0.004430029303583021,0.018306483037589555],[-0.004855747123647889,0.0013279408832482054],[0.01865310881700593,-0.005335906580183783],[-0.011980059033900824,-0.0032219197324962062],[-0.0014065745066838757,-0.021986957289620686],[0.026522815541842073,-0.021558557940625653],[0.003363699709527888,-0.005105190992721835],[-0.001395708174714099,0.016870929022085524],[0.012243344880199694,-0.007939862181401016],[-0.00603477500911298,-0.014345762059391224],[-0.01552741158416922,0.006031004470273955],[-0.0003128849323635247,0.002634958376500307],[-0.003089265045671629,-0.019409360198917567],[-0.01572931162623737,0.0031646018285651526],[-0.022567110368743887,-0.0027861713115374795],[-0.01297016806521945,0.016536122385305888],[-0.004304031153862365,0.003846838054616191],[-0.02206271863615639,-0.002455865950596366],[0.007544831314728573,-0.009453545447870162],[0.018001810421221825,-0.003700774372253848],[0.02215298337083639,0.018244971464923775],[-0.01451307980316288,0.0034518904548280953],[-0.0036150574073711816,-0.007237904325974819],[-0.019975937868055654,0.016958289865871657],[0.008426240671674776,-0.019205741787712238],[0.005396522826890076,-0.011966424380427124],[0.0082793291884209,-0.008870655052366354],[-0.027681680791117255,0.019519959345855414],[-0.01041261536947265,-0.011502038550293822],[-0.02134112082601896,-0.021613851890860018],[-0.011653653948011456,-0.0045810092284005914],[-0.012969501843076723,-0.017949690421219563],[-0.017290109456850233,-0.011741762073727725],[0.015117006310123344,0.0058536409101866745],[-0.0033977766500141583,-0.01314958378338235],[-0.028093931432995614,0.01034233426556181],[0.009431671210358521,-0.01897257792534402],[-0.006944542059075438,0.007339826061130786],[-0.015579707041993405,-0.02750032342655105],[0.008784914109051332,-0.017187108225352014],[-0.0025142156991636547,0.005892705965888222],[-0.00741239994821257,-0.01744005220539404],[0.011723156714158108,-0.00554742369112588],[0.004911743796530981,0.015182690062639722],[-0.01097917857961066,0.006019743464261914],[-0.01715992972361967,-0.0018195012538232914],[0.01158261560967959,-0.003843886042434275],[-0.004571478134984933,-0.00458073138546098],[-0.0005896597586146052,-0.011681034212108095],[-0.013760741887749018,0.0010386863008217588],[0.012815722492996087,0.021263840239096332],[-0.016766309260375693,-0.0019191899844955831],[-0.003188891298746549,-0.01655302801886831],[-0.007214025180109091,0.008813555388117955],[-0.016901446209815374,0.010946427569601047],[-0.003543006433692478,0.02114948910937693],[-0.008809686626151867,0.008761053977681219],[-0.007462955609037026,-0.012600245975233008],[0.0006279708234889059,-0.013807492962736397],[-0.02296041454058026,-0.020912346127639505],[0.0011775574261955924,-0.011265725608899562],[0.018206890671710024,0.0034391042978633283],[-0.00483833556611499,0.0010204435748314023],[0.0021121064864235545,0.00012131866359863736],[0.0020258865591031676,-5.930279804778087e-05],[-0.020753620300452937,-0.005750665544324063],[0.010231128724852651,0.00837430780554762],[0.0076431343370538755,0.012183367540385619]],"Inputs":22,"Name":"FullyConnected","Outputs":116,"UseBias":true,"Weight":[[[-0.0005548953364771937,-0.009206412460271193],[0.013107256470435086,-0.02472982129234795],[-0.002535571656375748,-0.017593673502920543],[0.007104593282617706,-0.02131657660797869],[0.0007270850192051077,-0.01895281073854143],[-0.02331751579674943,-0.018947619523088027],[-0.013516726037199124,-0.016936522398818023],[-0.005691709076861249,-0.02029806110852214],[0.009023080214279127,-0.0023204582877428487],[0.00020401634480139025,-0.027889390247870873],[0.004496510048403344,-0.020185963288961523],[-0.02007725413714316,-0.0031460376459485693],[0.027826360715634078,-0.011211699252795828],[0.008757195235309958,-0.010353838675494205],[-0.008876375424835934,-0.015009380597290995],[-0.007538440456896002,-0.01705986039072054],[0.0008960526284918524,-0.01092852537251567],[0.008843760321407126,-0.0028242366094997935],[-0.004349273144106336,-0.024878717347971195],[0.008523818626254471,-0.025598234716889264],[0.0004416054090395091,-0.013289017713441313],[-0.022055284143798568,-0.011003997264749855],[0.006329721268292108,-0.016908885247041885],[-0.0067760702493482455,-0.009172987803782865],[0.004497214976727427,-0.03391186364093622],[-0.012997669486899503,0.015173069364006937],[0.0007013235977200151,-0.031213397452633275],[-0.016868498655351484,-0.017089527689873568],[-0.016329211273565836,-0.004751768304954648],[0.010341438104744383,-0.01789222790947196],[0.005811139464705198,0.003000381064338499],[-0.01336123691572111,0.009938768410734069],[-0.007934876164272202,-0.011628048942376611],[-0.011902209486846406,-0.01343214127121432],[-0.00209725366680655,-0.03484548046253621],[0.012444731196418783,-0.009887028589553596],[-0.014653767921099034,-0.014912895535457518],[-0.001006164715689718,0.0006541465357886714],[-0.012588816734558661,-0.022185848085175954],[0.00867808161961354,-0.0213341217410829],[-0.020891419683971853,-0.013221233670846306],[-0.005081567620177545,-0.014196450428377437],[-0.007624182067340804,-0.009889846545344258],[0.009115638419164065,-0.00956021288414039],[-0.00733296089891595,-0.008467189869085496],[-0.012364364395683749,-0.02223308672550906],[-0.006159662409314736,-0.02136545501233764],[0.008472336575680271,-0.024372984870230603],[-0.00563663131760188,-0.022715394227973685],[0.0011610243157811604,-0.0229536018862647],[-0.02069392442950652,-0.015345864566290624],[-0.0053402598895902174,-0.005503613773967141],[-0.008100842261493674,-0.011291792974326906],[-0.008503077557568047,-0.0044340093543850405],[-0.01683344543539664,-0.019004187145159356],[-0.005842742514241112,-0.008269602420218406],[-0.009971991551110875,-0.01368916783826462],[-0.00886993430197082,-0.013546336700273205],[0.006107158290729095,-0.011122795175200845],[0.019222592310760747,-0.008296435796586265],[-0.016984222940938865,-0.016796431547710895],[0.008106942494400807,-0.024696225513950364],[-0.006796353563426186,-0.005897644305339511],[0.00888152329437755,-0.012637949460386771],[-0.006690984401753346,-0.0016623334928855763],[-0.007989224192488667,-0.007766150021054217],[0.024338140080844284,-0.010073713185928689],[-0.015143099949823054,0.002872059131652979],[-0.006131797080591216,-0.0032248443664126256],[-0.026601082097379276,-0.007328912825591463],[0.0014248335399254517,-0.0018265472563771755],[-0.0031754193726320477,-0.010631983427078192],[0.0012727175231796203,-0.02628875639238268],[-0.0006089083594979522,-0.03082485142860168],[-0.0007415689852136866,-0.0179850123700849],[0.010295345242252854,-0.0003171241015804419],[0.009692456716492626,-0.0036063933059653354],[-0.017894168941931958,-0.030270153778024275],[-0.003257811576024836,-0.019113982229995184],[0.012649467547273053,-0.023746448170632425],[-0.01089378571233271,-0.014122906627407426],[-0.005222471530728603,-0.005124601130005621],[-0.0055889934218312995,-0.012931566983897773],[-0.00816277549815698,-0.003831111495198642],[0.01389145141568596,-0.01851848056954314],[-0.005880691542556353,-0.017914207001505523],[0.0004923561028400715,0.0003141728696820747],[-0.014215531201042271,-0.010239357529209295],[-3.260290852143833e-05,-0.014939873289183928],[-0.005456102637253066,-0.004842061780923296],[-0.013084136588758979,-0.027144430022749896],[-0.00694099696368543,-0.006839943795316915],[-0.01196934543564281,-0.016143929611034422],[-0.012240379717074338,-0.022994615464253302],[-0.0021394381129433435,-0.026734378091794506],[-0.019625797033266827,0.005631097868778456],[-0.020010794000799297,-0.012858356292272909],[-0.0018294044708012107,-0.03458323738968022],[-0.007738320746225244,-0.03559613587151205],[-0.014083716578367085,-0.00818811165557874],[-0.02049246591537202,-0.030249958069656996],[-0.012892759324439883,-0.027665940929146628],[0.004572926190391398,-0.031283979029793824],[0.00593750839234872,-0.0220959386205558],[-0.0016114248819278226,-0.029290865299816882],[-0.009955551424954327,-0.0010532049881326895],[-0.00013126607581429131,-0.008185129242546541],[-0.01712871782798847,0.0014572231509982837],[-0.012666808577550225,0.0018953175988563567],[0.004363083677106126,0.0056472570741734635],[-0.0013876566462671736,-0.036306064218721845],[-0.012352782447631895,-0.008182374360802354],[-0.02103391781608235,-0.011363856963070705],[-0.01826933974844865,-0.008710718279045153],[-0.008175254130876533,-0.008578131569813924],[0.0070288936732446836,-0.013748845731894855]],[[0.014823743216377477,0.010160450693155191],[6.370001725077994e-05,0.01875131375906739],[0.02246940677580105,-0.004523813491075166],[0.013982291298867387,0.026538085737034256],[0.006185322604646958,0.0025984538769586994],[0.0025227551279053025,0.013930007380032262],[-0.01702781605960179,0.030733966854091615],[0.005496672224416038,-0.0029472309758265683],[0.016693191587561072,0.0067830387852362995],[0.023000132200233298,-0.021232351974997316],[-0.008773850305297716,0.00980846120893234],[0.0032140577792377353,0.00048438848446312135],[-0.003570575221094757,0.007945111194762646],[-0.003689788300786463,0.009452331096062312],[-0.012203119255531907,0.006459613879045043],[0.018299322861807403,0.01810956670636096],[0.0017284917489172817,-0.012141687293909903],[0.010911906243359646,-0.00040569223968815656],[0.025530245699480578,0.0044823340428472936],[0.004684761960322266,0.012650719427338865],[0.02179091460884607,0.007337203091721189],[0.015566447796254372,0.015942633813570896],[1.2392961040244007e-05,0.014069338965814037],[0.013227721162466928,0.02133868733010454],[-0.009166928601777084,0.012647216102511405],[0.01650380848112792,0.00991979912992695],[-0.0020253188801977085,-0.00511809478976937],[0.0004521329074169641,-0.008609349018858842],[0.02176700286672027,0.008448151352952234],[-0.004751722148995277,-0.005977019568649626],[0.00714876967911123,0.005159747584606096],[-0.008870016426549623,-0.0002386426751303144],[0.01672876639088844,-0.010000290548614206],[-0.006659764544119635,0.006763465901726324],[0.009957978936134098,-0.00974624555853359],[0.00524205372578653,-0.005988685968963346],[0.00796082816031697,0.01115372189025415],[0.030314443630007168,0.001315029600306724],[-0.00017393243249785905,0.014513786184702962],[0.0012513133010447143,-0.0063767215068380265],[0.011305029535479828,0.011603944638472275],[0.009867933976422065,0.02699259963454461],[-0.010695424577764748,-0.0002835805757015294],[-0.018412609455883747,0.007807951239194688],[0.01644684330646493,0.009774226867025717],[0.007389150920424586,-0.00754356210969925],[-0.007643017040952195,-0.00960297969318142],[0.016262314740967093,-0.00013764545021147573],[-0.01506635434428363,0.008680392389380483],[0.011879676962472262,0.01906531328941285],[-0.0049491758394082834,-0.017019822057925127],[0.0029466438600575504,-0.012958076006550426],[0.016506437227750328,-0.003263070703967794],[0.010415536066064861,0.009583257993819554],[0.013497677118788257,-0.012586082348813513],[0.01684485940390643,-0.010655581395021395],[0.01018338087238418,-0.00019705667806803803],[0.010305110834402753,0.012460228975791266],[0.010666031673724838,0.012882540521119536],[0.010074833612719946,0.017701705774018032],[-0.009238905709140354,0.013582756217373487],[0.01362531515169201,0.023607708258429158],[0.008063114045154016,0.0034953472711883216],[0.010385872695730632,0.007707170157394824],[0.020166916337147265,0.00659717904952459],[0.016344334948547735,-0.0034562030505901208],[0.017047801697628387,0.01189453511921811],[0.011715865929148153,0.017034934947173744],[0.010651460278062082,-0.01885326414172896],[0.00713910624663087,0.013790453097002634],[0.004487156334083378,-0.004618716248825338],[0.001445175585175349,0.007345235892392175],[0.007346959062027429,0.0012157381232971744],[0.0020934433641329416,0.008230452971138497],[-0.0007951715660589238,-0.008078253038265778],[-0.007247676630964629,0.007386696247002216],[-0.008238823728566172,-0.013968927893666681],[-0.004421491572322152,-0.015457199254341435],[0.005779288221813258,0.0155390237555549],[0.011362926332468996,0.004022908380237017],[-0.006854617185199731,-0.018469532442021826],[-0.010335586357898968,-0.00041216633549719437],[0.007898480096439264,0.0004008539576053448],[0.002224277556401941,0.01249399457653506],[0.004270099486487088,0.004407110043897505],[-0.0072533952261162,0.012788115775910443],[0.023080982477699394,0.008787113715831452],[0.008418672536611004,0.0010781827101933592],[-0.0015654407896393352,0.014012881324312833],[0.0004917863862673176,0.006982733114476814],[-0.004101805290519954,0.00928900810251837],[-0.024296773765935368,-0.0014045059069731469],[0.0036572214251923895,0.008048032904894628],[0.0021617696285064214,0.0021734792420957717],[0.006189526299182679,0.0037143129022974546],[-0.0005462450624867725,-0.005177954388137865],[0.013825493593386771,0.0018680881643410652],[0.002825810316506277,0.007323530264319752],[0.014052354994600813,0.01697360157572545],[0.013145028275763271,-0.0017180383350336348],[0.019845297730415733,0.02173658300162883],[-0.006107239121390383,0.003213315833169679],[0.006820120385715556,0.029417820800373046],[0.00881710325384891,-0.0018602114344421557],[0.009144931523268849,0.009852384758160936],[0.00965482048231026,-0.012165649213476737],[-0.002739485157710389,0.008108235792878804],[0.0030605558267583766,0.02207657432733172],[-0.008454824715398324,0.026995406034687704],[-0.008314378647635479,-0.013329406586581747],[-0.0003696812259845081,0.02162138828061604],[-0.008062458634653307,0.014233890069510646],[0.011415175569896716,0.004834169713988709],[0.014833050763823151,-0.010156657251311197],[0.001378996518529851,0.004168944925489684],[-0.0010305923884699523,-0.0015816025540361686]],[[0.0069812629667691814,0.012413751801288906],[0.0132174502997728,0.007561265935851504],[-0.004798493447315402,-0.0021929889268993497],[-0.015312043050662059,0.013033880753718648],[0.003292121858495721,0.0026193616638650378],[-0.003983118309558363,0.009288191002476515],[-0.01574555675865108,-0.0016051726805361385],[-0.006135417174416152,0.02515061919569666],[-0.008907213562023016,-0.008883380943155581],[-0.009620897136233573,0.045535826339602604],[-0.004164763981008471,0.0011033345865948054],[-0.005063655097012819,0.008010835791263826],[-0.01786166011541962,-0.008432279631634553],[-0.008062452183195207,-0.0016264464074016152],[0.0004907785994099073,0.0031820482656242464],[-0.020791854387219828,0.016561582412922063],[-0.01950225127468935,0.00324593633095041],[-0.01430641989985034,0.029808861555691187],[-0.007426027664627586,0.013727917044867421],[-0.006173940094549124,0.007149276659100954],[-0.004870719480386337,0.013607647354687178],[0.006306556471200989,-0.009586350193965124],[-0.01084591528839754,-0.005791514960382038],[-0.00894315640087161,0.0035901284886974655],[-0.017377302403057376,0.012676565460994615],[-0.021787853601960838,0.010202434097886535],[-0.01522038849211488,0.015434315552483738],[-0.027990632410537328,-0.00720064939708322],[-0.02241517975092811,-0.0020065269615630165],[0.008091753787272764,0.00426842895625409],[-0.009664583674197235,-0.0016147454033327209],[-0.017539602402013375,0.007974285481523364],[-0.008117968380538987,0.033296429516865726],[-0.020596702622473366,0.011366990731346007],[-0.004211166958452504,0.006096180037921573],[-0.003362676079707507,0.004113637627005764],[-0.016435265207363256,0.01971321310178075],[-0.007687690460638416,0.012251321788187521],[-0.005445969401465509,0.01932385587206434],[-0.008785089217096491,0.009370473808518083],[-0.03337658387775672,0.017495608918476555],[-0.012563838778853626,-0.0051668308368029376],[-0.014601051658552662,0.005422446801438036],[-0.011237825601527605,0.009292180877401461],[-0.020844926332454494,0.01139540220390769],[-0.01522757878975336,0.024000018890371816],[-0.010565201162182208,0.018856920020530066],[-0.0030758346156760158,0.020488348724278637],[-0.009621766572458395,0.002194322073574846],[-0.017745349846159546,0.0009330862377471044],[-0.018352968119696056,-0.004847667605301115],[-0.021539342407380303,0.02766886727706752],[-0.006735671159730572,0.02035425691355535],[0.006959555467068682,0.014502507517114101],[-0.011496311887318762,0.03513622984249849],[-0.007334386479569697,-0.009929214302918111],[-0.020508999578815357,0.02057250476504476],[-0.010722523652312852,0.005036656635949763],[-0.013306158811504685,0.010843102269741911],[-0.009549758243529632,-0.016614345629340083],[-0.028334030732630144,0.0039472125140654355],[-0.010111772407734091,0.01582710405816743],[0.0018511172760352127,-0.013313404091142478],[-0.03431758654021589,-0.010998982219860357],[-0.005049535516080749,0.00920450276239584],[-0.018504551188372832,0.021891422599043902],[-0.029402526540052508,0.005613701270126087],[0.002528533481779208,0.005279451699191676],[-0.004489655257615039,0.01714219450549656],[-0.0074404684835646115,0.02203275798484292],[-0.008210694334855,0.017481660066279887],[-0.026100859168300905,0.015326194938557249],[-0.009015624577205238,-0.0005904689503191627],[0.0066359460038763205,0.009784948034379235],[-0.006246767268087542,0.028029999141963646],[-0.028993457454225085,-0.004220235648247711],[-0.024242810465727432,0.0002816327503021553],[-0.011684590139131016,0.017800147393568215],[-0.012402799746349235,0.009972975171987312],[-0.01881004368101812,0.005855389266213364],[-0.019284233659715662,0.013883487287094641],[-0.02621611053794993,0.009698816162069886],[-0.008452896742640227,0.01782597755646375],[-0.03088364056404291,0.003418703241533039],[0.0023650834997809775,0.013183105354811795],[-0.015623048346354302,0.016656059388470923],[-0.00025959953728173994,0.020022391168850007],[-0.008097331399438221,0.010043876769139131],[-0.01023962542275196,0.01823256051773505],[-0.010279692601668883,0.0025112651157517805],[-0.004209097919316032,-0.0006163313946674245],[-0.013097724112105483,0.005940298510120501],[-0.009030511975641309,0.009855590114649277],[-0.005606848033699872,-0.019425565846321352],[0.00015037552686905761,0.01870016204058445],[-0.026386229294312228,0.011519785954048999],[-0.022129705418487994,0.03322881117243994],[-0.009667587788378026,0.005860741110897576],[0.007791085400540667,0.009375190735017958],[-0.013096718297620085,0.0386789254812358],[-0.0008250599758339361,0.0014362236816926614],[-0.0035315474909709418,-0.008246015249220476],[-0.02353002082372122,-0.0001897454820889985],[-0.0047107982652992595,0.016335332097783425],[-0.01090321554311384,0.010072145326956583],[-0.021978870601178993,0.021863440599710418],[-0.017564627809715627,-0.011115201435774647],[-0.029860424088457748,0.00572632264737086],[-0.007344604302284258,0.017624854316742232],[-0.02986976336216057,-0.013518042822268024],[-0.013857480952198764,0.00456257646497904],[-0.009215474721062817,-0.009101873160536412],[-0.0019501267827783716,0.012537432192635192],[-0.014900053326429498,0.0171583547786876],[-0.008000669346308772,0.004301583294525198],[-0.008216934046232902,0.012566237034739032]],[[0.011211865334426451,0.014013587117869312],[-0.0004342396233334606,0.004693876847947314],[0.009610766010769399,-0.010945104573783566],[0.006874842576924217,0.009782280878689155],[0.00578715999474027,-0.015396838524618964],[0.005537380047594541,0.003084461737508898],[0.00800691847546749,-0.00021663119551119643],[-0.0007829450601875584,-0.009715375498717406],[0.00982542391184729,-0.011313427176735998],[0.005387895074520902,-0.014397585027868719],[-0.001032711650329041,0.0009016024685056987],[-0.013882325906907576,0.002914402814316188],[0.011171922086033757,-0.0013738403151813243],[-0.0029683630655152264,0.004611378592036235],[0.001750734341874061,0.022033903473355678],[0.009324262491421294,-0.0012143538395641591],[0.01815297987368872,-0.0030939358285821616],[0.01128233625226181,0.013212778661820909],[-0.0009766275827013953,-0.0007673971546504025],[0.008435288428313557,0.009006819207982849],[0.0065510607570072165,-0.00028837326544625924],[0.003493379642667654,0.0016611925141489267],[-0.008969189248342651,-0.003736804094776499],[0.012761362620353163,-0.017242113180069258],[0.016952120468405503,-0.007920907094490956],[0.01326263920921044,-0.013902373975960246],[0.0023649263549752188,0.005930612892156937],[0.006477350274079872,-0.007756242149979628],[0.02716670579272664,0.004426090659770408],[0.006253680123691585,-0.012673317838600985],[0.015565246429404966,-0.006536682704714457],[-0.004774268570745729,-0.00812172266611974],[0.022276151142618293,-0.00023181074429279606],[0.004807543341867497,0.019562973306752607],[0.025487590178516192,0.0023892634014235008],[-0.013313847696234473,-0.005011234860607164],[0.009105053391418524,0.018567095047906965],[0.00422373550681067,0.0034829712598090064],[-0.0020694088958942143,-0.0014893667521421814],[0.0019542934742477216,0.001047796783591997],[0.013599510241265463,-0.019825120236581718],[0.02012316998320193,-0.02146462616630259],[0.012762618281482918,-0.006364324890341453],[0.006681711410981785,-0.004101625028613598],[-0.0045863705575221745,0.009093479470912514],[-0.003335560101422406,-0.015610336750014778],[0.0029522316199038106,0.00506208649184911],[0.012815383766079474,-0.007924920035313202],[0.03143071378943384,-0.009385826805104422],[0.0026885238304276047,0.0015000391659630748],[0.01486848963721466,0.014012975581872552],[0.009787839035911483,0.014515093773199882],[-0.013084286204596096,-0.007017872886399084],[-0.01665099431375176,-0.016447791444163293],[0.015256998606742584,0.0073053441047693166],[0.025363970488466614,-0.0074622252493813475],[0.0027648361192560774,-0.024040392858630567],[-0.0007442083755848217,-0.016663144334552182],[0.028478142681531607,0.0028555086023647567],[-9.98147082508181e-05,0.004275968472225484],[-0.0034011328471157324,0.0175862347542447],[-0.005318083665874807,-0.02606458467574626],[0.009795081524819955,0.005241452020720771],[-0.0020819052236071907,-0.012345542427309711],[0.011745964286987315,-0.0005692911116806426],[0.003808717369172427,0.0070845442567152705],[-0.019616717314731413,-0.006912802957639017],[0.031835347129040424,0.008208240481750948],[0.01063072948888828,0.00575521056041063],[-0.002889476542528895,-0.02433825230710669],[0.014694812184907508,-0.005833433676968202],[0.015926631077894143,0.011528116446348885],[0.009547440262438131,0.0026652137321177046],[0.01205341673106014,-0.0009587664808498543],[0.0029683379826687534,-0.009759678576824804],[0.019988120197461604,-0.008093969766707681],[0.02344235260860057,-0.0040748194155961655],[0.0033257091934705612,-0.0073589762328555245],[-0.0034388416874167067,-0.0053337415598727084],[0.019420753913207293,0.006943784469672472],[0.014065705089836499,-0.002530076479823787],[-0.00010480929979261226,0.028879200004939348],[0.004710320690420959,-0.007398226931033556],[0.005275477019390643,-0.0035991630206183003],[-0.013409690236044772,-0.007346711690395612],[0.002234590419901106,-0.0013179882358422363],[-0.0004450852237656911,-0.01593875847584728],[0.010646965805340245,-0.0007795514334429671],[0.024988753331703993,0.0032318648250534705],[-0.0015741405270674727,0.01781098144572477],[0.016640733934971112,-0.012206362268076846],[0.013888023196438233,0.001052663692937376],[0.007893204585979268,-0.01986553540497573],[0.008355498914127102,-0.023978808689926714],[0.002776980773282004,-0.001353886521281362],[0.0014768196565310685,-0.0014412096377910586],[-0.015552173928727887,-0.012174327493319611],[0.022296885126063135,-0.008460407754076816],[-0.008812047457422317,-0.00026910665540413816],[0.008995047134133105,-0.009088469542151496],[-0.004421593123804584,0.01263014247021096],[0.007249917169362783,-0.0017213898860711236],[0.01963636960402752,-0.006698797761897529],[0.007460415445491345,-0.005782590910812988],[0.002284984891097652,-0.005423421753325678],[0.002009647682815079,-0.006378052371319276],[-0.012692237287985166,-0.010497419179713747],[-0.002857546254939003,-0.01825571028249508],[0.004879646558430238,0.0012692463070002335],[0.010241622193006719,-0.002584859547156257],[0.004974836776451184,0.0030310544840535343],[0.010576931606640368,0.012323196108588412],[-0.007525746262727214,0.0057228000802669],[-0.000498878280915048,0.00570232660365819],[0.009733110233500469,-0.003801265940704069],[0.006360457333182503,-0.009115354083742982]],[[-0.01939262949061145,0.011489323859937086],[0.011229044752968995,0.00010692112123473707],[0.004558133430139643,0.01873942337239397],[0.0015450785540685435,0.00209755937218049],[-0.010901238276649933,0.020340511106967156],[0.0064435481369104,0.0032904087721267986],[-0.012044899713149832,0.001967272017880707],[-0.004735427492208627,0.006576135106091094],[-0.00042471626254106257,0.005597933204381626],[-0.008496511278111834,0.011136854787857873],[-0.02857677596397274,-0.01269338901995253],[-0.015715322305477952,0.01963451304654768],[-0.0038595891318783508,0.02329457542914673],[-0.006831508948358106,0.012003011509163329],[-0.017847027023999196,0.01634782418511442],[-0.009754033871409122,0.001180888934634458],[0.012207108519779707,0.01983243616274937],[0.0014656600573652663,0.014705880117128686],[0.009348867195197638,0.027557111316245553],[-0.005620322945604242,-0.01070837238076157],[-0.011325616603721453,0.008913330217954176],[-0.011913640155541933,-0.0011059566674471116],[-0.022427516697082945,0.024620139076085696],[-0.005657773761888232,-0.007893473015310706],[-0.007070343378236074,0.007474991334141552],[-0.01269081003863557,0.009270609636883751],[0.0018483888078531612,0.011678825407054932],[-0.0004802760845411165,0.011954471745580482],[0.0011614633448562522,0.00039343204683774124],[0.007726314057832399,0.008128881813711361],[-0.008446170894718493,0.010304122090298769],[0.018474396230535085,0.006327664258938055],[0.014932647747751418,0.006355069569505392],[0.00018359767124927727,0.015648392869914388],[0.008274765941824379,0.007235964382042323],[0.0009343170654838258,0.010814816089692994],[-0.0013836307744841602,-0.002665053582467448],[-0.01433324812825125,-0.006892787277738505],[0.016586778378156412,0.00011741951513791657],[-0.00038394804384186347,0.018610137776723323],[-0.006778029978539954,-0.0002497452126616501],[0.0022986609460015155,0.0069717083132068225],[0.004796910640452535,0.001582172858900855],[-0.014501019250263137,0.0023109679969697625],[0.009452530782280921,0.003858829465869729],[-0.012313068078082957,0.011569644149070368],[-0.0036362692002359816,0.0035922749059689807],[0.0054787416111629714,-0.0007729745999320703],[0.0009882150038059477,-0.009547923457617558],[-0.0037860566342390834,0.004959796503007121],[-0.005890620200442377,0.010331646179308845],[-0.008412521277651953,0.019416142163268438],[-0.0030411889449241266,0.020066039806042567],[-0.006884998675528207,-0.008092122734984589],[-0.01862624160729799,-0.0022442612828075864],[-0.014355901999761195,0.016580180974167056],[-0.00928947154981058,0.020970149138793266],[0.010113079332288374,0.006054570247794107],[-0.0072045708324549,-0.0019425492057359222],[-0.018257775271571953,-0.012628637152693772],[0.003749034484829128,0.0070773551509170085],[0.008356793891062544,0.007168689512615759],[-0.023917233127654838,-0.0002273696586583248],[0.0004962777245496144,0.0059248916773232295],[-0.006094330839080775,0.023207528991573256],[-0.0057533720442082235,0.015428538069812776],[-0.018154401818421626,0.01023053875902573],[0.000532136100283241,0.011471392792055363],[-0.016367763888989667,0.02158803685733297],[-0.00946120426017046,-0.0007872293574256563],[0.0007520897334280748,0.005238668653891674],[0.002862840676358959,0.004582552515988534],[-0.001984604801146838,-6.14814755931653e-05],[-0.017391733807643882,0.016083012486202898],[-0.009770304704496854,0.0036320884299469317],[-0.008111673435319591,0.001870876339946387],[-0.008668835444135485,0.009253344829528217],[-0.003606673048514822,-0.011495681587922864],[0.0005308572913662156,0.011554181804418836],[0.0013451094983951866,0.006691632622783402],[-0.014858247306521043,-0.002293501595099468],[-0.00499482554760167,9.552029811485396e-05],[8.210789818992464e-05,-0.002253030103778207],[-0.006301972903076423,0.02733594627558209],[0.0032948832904924675,0.0010159272443454785],[-0.010366843179029939,0.019035802732967087],[-0.009321107941604467,0.025152559306505503],[-0.001913318966607039,0.004788384795330253],[-0.01507887366314433,-0.005973279321630183],[0.012299235291313224,0.012578135934288104],[0.011759308651402088,0.002934505747146384],[-0.003099462085705055,0.009269955631329173],[-0.000755565083552094,0.007636322475115266],[-0.005157416864951161,0.02616118694505688],[0.0031096107085916615,0.014874573824791192],[0.009492908119466582,-0.00724677667699614],[0.01604367927864119,0.0018274437178377888],[0.004665878066414047,0.0185724819757786],[-0.014845756509492426,0.007045136609552073],[-0.0164640577728767,0.003249793411026357],[-0.0014035693502639994,0.02528686507692762],[-0.0036962128973788413,0.013365058149576736],[0.006777473919381112,0.03155698732996616],[-0.0039812955123248355,0.008321144782331475],[-0.002579300903915218,0.003700351655105934],[-0.004977014853706628,0.005891891443525931],[-0.016633173236970382,0.002391275121535062],[0.006129690003650216,-0.0010392786974347933],[0.005754459497591377,0.010761534585339513],[-0.005354056391896275,0.0030782331882602933],[-0.00042651171965783286,0.013762483857544933],[-0.019536976784049077,0.010590872987006969],[-0.018484260939870063,0.00565100270879817],[0.010158054195219236,0.0027589522989521953],[-0.010253980019508554,0.008600859015715083],[0.00628489149943742,0.014458642882774566]],[[0.002717004870413521,-0.009721440662345716],[0.012204816389624224,-0.012258797059082274],[-0.0005157535186991151,-0.015267150977487414],[-0.005386811585055825,-0.01135810382633388],[-0.005885442669925005,-0.0070448195348607745],[-0.004908782432611466,-0.017367541109772358],[-0.010648497483315856,-0.00656449628027387],[-0.018796347695416684,-0.007603475793634676],[-0.0015874710701980045,-0.002706728985657428],[0.0004409488633286841,0.0018922247148836636],[0.0010361517645638108,0.0073205016243303375],[0.003207550994791236,-0.012905243569166523],[0.005434876245988993,-0.00874012441117974],[-0.013130735083308726,-0.019556092421565644],[-0.0024775538854545547,0.005890614065533024],[0.007365107792553213,0.0005612088859428397],[-0.0003638323216722569,-0.005101071530835317],[0.024522041069591015,-0.014558367271773103],[0.013251134655168554,-0.025760509866312464],[-0.0030184781858582145,0.00484654074209494],[0.007012124828746919,-0.00858115424641109],[-0.004811072454605005,0.004730298845076827],[-0.010261734054383157,-0.016400560856713542],[-0.0007605710524669823,-0.0023095609035391155],[7.205673757323278e-05,-0.0171040480318304],[-0.01103962971871625,0.0007164463675465985],[0.00578159195247882,-0.012868393387486108],[0.004875011863653489,-0.012790927409227219],[0.013137953144681743,-0.01520315481532379],[0.03302603970278236,-0.006594821191542039],[-0.0009319657208098585,0.021061615896230713],[0.0014289684766602138,-0.0035420749264250405],[-0.0017471018414089647,-0.018300149136737266],[0.0022544670572651766,5.053174374999972e-05],[0.014141551291535243,-0.016896018702889867],[0.007694276742044156,-0.008114103558650854],[-0.0024527671617943884,-0.0075257767442983335],[-0.002832681448852696,-0.002988093447612706],[0.003248323465294857,-0.017443877511206265],[-0.006830744651784961,-0.0044133617520157025],[0.010715866791093414,0.0032998078099304076],[0.00683390960716615,-0.009112546292909942],[-0.014712616584802201,-0.019392958389764337],[-0.0054350184464477995,0.005867214267958043],[0.0035222562651787905,-0.008559869171334857],[-0.0054281936951551925,-0.008196467722465225],[0.0009475934173163956,-0.013776247307207163],[-0.011278535522903114,-0.0027817132457001272],[-0.00840551552059035,-0.011947013821119913],[0.001277795942390779,0.00073430878470407],[0.018101178514679885,-0.01034762720079714],[0.011453935524039586,-0.008916472382195405],[0.00047532611303765295,-0.012343569342262384],[-0.009594942522837852,0.003086006025605501],[0.005926127980978513,-0.013608361138749437],[0.019339667459731976,-0.011508393683155678],[-0.0003139618931721852,-0.003981576602936272],[0.00957785933808294,-0.01214454404299093],[-0.014196026714618634,-0.0209728382633039],[0.001532131350535286,-0.019522486745672592],[-0.01797279049340236,-0.004985234849633955],[-0.0014628805388444668,-0.0033322551103298495],[-0.0034927391872875426,-0.009285442410578649],[-0.010795830790473407,-0.006903937732546876],[-0.017452960747064095,-0.004466213940337954],[0.016135442193779926,-0.01911563496896424],[0.0015442450084601448,-0.011488313840704393],[7.728343543517876e-05,-0.006490525377019909],[-0.002449980532277759,-0.004703215848456507],[-0.00176623434336108,0.014266625156755242],[0.005773978181870584,-0.008569048149257094],[0.014177362260035496,-0.019561538637187004],[-0.006278343381896098,-0.0016838827844310668],[-0.010586802005646195,0.0006154898203156185],[-0.005941605255760538,0.005402060163129391],[0.011526892595063202,-0.004435897836572397],[-0.002812755331340922,-0.003884449487142168],[0.003912305975473442,-0.011073505133994015],[0.010055478354090479,-0.013071441742173038],[0.0039746090279374644,-0.021415579700309925],[0.013103483935246853,-0.015052401135307406],[0.004696242036965871,-0.008961446422740925],[-0.0046032197624428905,-0.0016922076733568122],[0.012517828066669389,0.007191834493360736],[0.009924792945213236,-0.009216076058354167],[0.0043924528984764614,-0.011651189115330269],[0.012029108570772811,-0.02804236626640924],[-0.0037923987894748082,-0.02271621911492019],[0.015014254768055289,0.00624951780254373],[-0.005659964824878324,-0.024469373194971715],[-0.004244938114783341,-0.019546043330767107],[-0.009989311562158912,-0.019295975724741544],[-0.0009241119036897135,-0.013737915967869122],[0.008118983740090124,0.0036242238096535827],[-0.010604812391611903,0.0021860874053162296],[-0.010916339959896396,-0.009772918886256213],[-0.006375731668586648,-0.005969699476816282],[-0.001944710697844454,-0.017168438050906298],[-0.01299384522965728,-0.009064667007312507],[0.0009502642337801378,0.004455577545821591],[0.0038249855129639404,-0.020645904429650936],[-0.010428865094339216,-0.014284509939367867],[0.014090536511295155,-0.015847985003637946],[0.001507122102766905,-0.00010532885294855291],[0.006351782189805651,0.0036379882171719176],[-0.007628185935669983,-0.02123637629378166],[0.004679382192478439,-0.004487376556258333],[0.013565936484054129,-0.010696853124360212],[0.005173377575542373,-0.0036911556306374674],[-0.006635576277719258,0.003948965563031106],[-0.008525341587707638,-0.0017208554406236026],[0.0030687986030688633,-0.02218828962388354],[-0.008709231697048556,-0.010265276438934053],[0.029608185992716234,-0.010549690355408052],[-2.6381685082608187e-05,-0.014274525347794843],[0.009865656118808972,-0.002908440121631199]],[[-0.007860017918556325,-0.007401098510543925],[0.009074753585869823,0.008073381925999712],[0.0007324987133998308,0.012221340763196623],[-0.0007559499503684699,0.013957827845999676],[-0.0069248260665317595,0.01465476884669277],[0.013358929333654103,-0.0006172908636110843],[-0.00677412895850268,0.01299617469609543],[0.0003792160747987085,0.0016885629290954742],[-0.0026149889369529366,0.027141102012173568],[0.007689727166991411,0.020890801684929773],[0.006527905516024738,0.009587703460410399],[0.0007523535926068604,0.0039033035410673527],[-0.012267051202479345,0.026596068732050386],[0.011137943850764428,0.007187988243134349],[-0.000385682565183186,0.02066164501409298],[-0.009137266877148343,0.0077969431389119355],[0.012041398689045519,0.0034310724190598574],[0.00528031546317784,0.022670332086971088],[0.011013738319008806,0.003726239998192913],[0.006207717425903294,0.024381944082739915],[0.00495637076139328,-0.007729301666287588],[-0.004552839887657524,0.011043370497365583],[-0.015698346307671432,0.012079502229171804],[-0.0031715061062334076,0.01780808499447458],[0.009079403991715545,0.010315409239265399],[0.00574844107963047,0.013284926347459551],[-0.001532879889254485,0.01591376562109957],[0.0058591886329125735,0.011828964764555666],[0.004796419802538341,0.006634745127479163],[-0.010707498489383876,0.01998085242867469],[0.00429082893330586,0.007314892308933876],[0.010845971511945851,0.008376033425881163],[0.005948089372766173,0.007969823739738606],[-0.0055482631464728715,0.00816868736302884],[-0.006055048839990071,0.006579980874174563],[0.0034927743314850206,0.00585037500075679],[0.02630436896076005,-0.001145125070555516],[0.008063155043653538,0.004811694523894542],[0.008855151014588229,0.0025972158672865607],[-0.007930317519895497,0.032149023663038075],[-0.023498586830105417,0.013373288676496073],[0.008151331707717048,0.0012158694221409588],[0.016685206196902166,0.009826469110647992],[-0.0038011518214184446,0.021339076388956112],[0.0012730527297806684,0.0039762404156107765],[0.016879038641870712,0.03723676318085256],[0.013778013474907409,0.0042916778726969805],[0.009520014126101612,0.01425664129235931],[-0.008094529433260441,0.021635800665084078],[0.02034290530694664,0.0038236168011924455],[0.003186245789303156,-0.016076631687974526],[-0.0110609587583357,-0.00019509654284261688],[0.028285345625477683,0.031058362394955],[0.009567611279954185,0.011596513993197884],[0.011748891951840815,0.007869588569641813],[0.005359479332252282,0.02015466790031907],[-0.012944179775248973,-0.0013497396702785917],[0.016666402342621546,0.011853150720576312],[0.013528919888440384,0.001570575806471869],[0.011671676935312889,0.001123565596655959],[0.012937921980353193,-0.003902406630057498],[0.0130402729611871,0.011047921508276319],[-0.0012120348978713752,-0.0006025942888676864],[-0.016194549671832852,0.005374307249529997],[0.018884163754240665,0.012371184104511232],[-0.0008614471396080827,0.016264397321175218],[0.007155930644465403,0.014648301792977275],[0.009249499515795198,0.00954784460033449],[-0.0010220700793405328,0.030635714951233222],[0.0006581745754467995,-0.0022213184936062023],[0.008700656041298521,0.005925296475319362],[0.011975921936375694,0.005932652638124516],[0.00129736489935273,0.004440187712447195],[0.013189951365024783,0.014213147479476615],[0.004633129250569667,0.012091074157214632],[-0.00824128992615427,0.007575083803920883],[0.0069186439370053305,0.0056311443916826805],[-0.004338723174938602,0.013943826634585543],[0.004789164086632809,-0.005354798902198048],[0.0028377855712576933,0.015986536803466084],[0.0009938908460174767,0.016003230175077616],[-0.0013074416766570133,0.010575480132025243],[0.00906017019094078,0.019129944772219888],[-0.007169337194059157,-0.01242942282636018],[-0.010893536951979659,0.008821406013496392],[-0.005581330430121153,0.01109841246105283],[-0.008393297642651837,-0.00645768844014042],[0.01899430422774743,0.01249676572201964],[0.010086582864283088,-2.8398977626119396e-05],[-0.007189257132587924,0.0019271425360151988],[0.006766250224471281,0.009436934136321108],[0.003211436245067072,0.006695781783388103],[0.007331653623589036,0.01672306328553735],[0.018335670131806318,0.0125467834043115],[-0.004541482369953414,0.028219594392542357],[-0.0005410300548549505,0.024749743741975267],[0.009528625818441884,0.006815762920295658],[0.0029093324972733685,0.018379167050815718],[0.0034331136024006092,0.022100098427262918],[0.010526940889086941,-0.0030560808523124572],[-0.0028486479574355303,0.0032426228162050837],[-0.0028020210106753504,-0.00618206875942428],[0.002685623569152801,0.02231352907311338],[-0.007413368385680582,-0.0048437642199802245],[-0.01613544425651333,0.02160364609802612],[0.003812949088143374,0.006311356952913519],[0.0002291157518237122,0.003857625342886689],[0.0018607506791558275,-0.0022103641796472756],[0.004906159612644991,0.0019519180800757544],[0.01951476011273376,0.009549363219631162],[0.011063670602212564,0.014500620720745417],[0.015794061480352607,0.028988762650694812],[-0.0038556133891830776,-0.00181996534060239],[0.009248730985654104,0.015954048800940528],[-0.006199321648273167,0.01598108113877342],[-0.00521153786279395,-0.017341527652083976]],[[6.033003789925718e-06,-0.005392713430925926],[0.005740161170942716,-0.002103649386922072],[0.014006064594057815,-0.006628294239358882],[0.006735252721632748,-0.013106394297176046],[-0.000410837435894488,-0.004486617335192694],[0.006548021890356482,-0.013111825031715872],[-0.005844642193588338,-0.022278537956554496],[-0.016374989835047118,-0.012577198230362087],[0.009546913243023881,-0.0041629900505982505],[-0.010109568946102671,-0.030254810173918782],[0.012602720976211759,0.0027016407580012134],[-0.0018564130248935927,-0.009834266957271479],[-0.010354880215956827,-0.021444966563276643],[-0.00017928345162654782,-0.0032315727518261385],[0.0006409178484752688,-0.008766025764145239],[0.006319096015605157,-0.005209070156414077],[0.006239150290960211,-0.00748666514052666],[0.015756626363790525,-0.0056380909234664545],[0.004687804425954874,-0.012105048484553087],[-0.021653458431620264,-0.010112195824451093],[0.009793872676899048,-0.019348468137413623],[-0.0068683393658194244,-0.02270169292265347],[0.0019810708642684295,-0.022950211882470935],[0.023180089766787412,-0.004880967733449617],[-0.01729248721108147,-0.013153626548440446],[0.00876862745342432,-0.018529315596599916],[-0.011107733590159981,-0.017522552744949148],[-0.005572553472418454,-0.0013301894626622205],[0.011348731512711421,-0.020446099035985668],[0.0032270031377081678,-0.009907210574851503],[-0.00874046077602801,-0.01921349663922872],[-0.0196525600262643,0.006317027460016433],[0.007336404762246397,0.004767962462460193],[0.011777883848286357,0.014948505541048767],[-0.005378684224938695,-0.010882602704071244],[0.0008390384493422,0.0026382675647513083],[-0.021863491201957776,-0.0014687670085938608],[-0.0069706330944356385,0.010761958720511751],[-0.008406469130927761,-0.009169313142181279],[-0.010791509640150182,0.0011522498969842952],[0.015431980471786354,-0.022243169706288545],[-0.004707390476688463,-0.024691303797015344],[0.0015505274352806081,-0.024591077017503366],[0.002499570718520505,-0.008693603641381071],[-0.005487468761201375,-0.008553540388018819],[0.010521942291302008,-0.03172508351491606],[0.0029786326764593375,-0.004120268648977897],[-0.002595483404403055,-0.010165371581962256],[-0.004637975331597433,-0.010278076003313246],[0.020975983999748316,-0.008309573917947127],[0.0013037626060053511,-0.012369290640650834],[-0.005051619103001402,-0.0020729387106198263],[0.0005940440761428429,-0.015949991970594078],[-0.013789070162625983,0.006724757266571075],[-0.0068785006996517845,0.008335860975032064],[-0.010200990111362062,-0.014532854785299077],[-0.011380981344186426,-0.00651803759697695],[0.008469168032983527,-0.01427486577788528],[0.002350582326557189,-0.0097449558871093],[-0.0017207038039283844,-0.014978014565334485],[0.004134778566149136,-0.007252039597634278],[0.002143560599530307,0.009927138997773088],[0.020333630196390288,-0.013733471969137951],[0.011976729856774771,-0.022077576260092883],[0.007573447159549302,0.01157508255753059],[0.012568119434693778,-0.011134740573931521],[-0.011824051450024605,-0.013013231118098764],[-0.00246480110621478,-0.010403666196601406],[-0.002378625684097829,-0.02574694509552266],[0.011767095423681678,-0.0012977357264059416],[0.004902060755161461,-0.0183285762320858],[0.003936152088742503,0.014479304878433508],[-0.0066546028919055485,-0.012798537903834329],[0.0007411271528523189,-0.017044610693955183],[-0.0030230394343703573,-0.012815711817934932],[0.02637034364873094,-0.011997877592115461],[0.017685205658304212,-0.009514827387068547],[0.008605620493371833,-0.011543195292468446],[0.017446443849914027,-0.014073633159173395],[-0.010270983859721446,-0.0020364090443492945],[-0.0025039683137322005,0.003030312010894041],[-0.00966782545323991,-0.017275687516294453],[-0.012631764440506033,-0.0110052882264419],[0.0033720385883007835,-0.022163025699235738],[0.002721768591869996,-0.025135303327970378],[0.004058790925119083,-0.021870731727846995],[-0.008556668259960825,-0.008294386863529178],[0.004521173815541355,-0.00037852206440253875],[-0.0012130403168670065,-0.008845811712583742],[0.006032412550543269,-0.0034689677139131633],[0.010827909044483153,0.0020388616306649798],[-0.002625842287657791,-0.0011444846820687843],[0.0002754298581153874,-0.008383680560490995],[0.013696317538143044,-0.015319136004787669],[-0.013143021303929001,0.0033620618859571106],[-0.008096935443339115,-0.0158046617654915],[0.01059046539185003,-0.001483555834440527],[0.004487354152022933,-0.007236335686606479],[-0.0013457252590844807,-0.006208104407548017],[0.011591891516987949,-0.018989010698359496],[-0.0042734768238868025,-0.0055260526889719845],[-0.004407823078642017,0.001847943060451952],[-0.0019527970776707915,-0.01153808566072196],[-0.0020931091868753027,-0.008108082183364692],[0.0026839833517708317,-0.02057795839503394],[0.0017558984642839293,-0.004563442681266528],[-0.0002738030920857901,-0.0023620529639047606],[0.004508044880581286,-0.0158333554207308],[0.009150194144385223,-8.193746718207037e-05],[-0.01770175554296757,-0.017362670846511517],[-0.008216623716835882,0.005177768399029084],[-0.0031631214570181057,0.013570811915207827],[-0.006211328549678886,-0.001122953429096623],[-0.018026118151272585,0.01405905655389876],[0.001969712696624372,-0.0010798785702901602],[0.018450974120498995,-0.012192808380950182]],[[-0.022993147118750567,0.0003453663602801063],[-0.02270286776350698,-0.0202364002710987],[-0.0045829568806456345,0.0012588181313036037],[-0.0184263271294767,-0.009941498367837661],[-0.0036530328203168345,-0.009653479292488226],[-0.018113743899445593,-0.0037335847008834744],[-0.015501920149485357,-0.018301478810842077],[-0.02026836416406585,0.007906545340684412],[-0.0037891112654194867,-0.017699987804767607],[0.0016241854318711094,-0.00420854607481518],[-0.004205895554668382,-0.006197111268915091],[0.003144661817375407,-0.0009130118665173243],[-0.004255957437924296,-0.015438498425530604],[-0.005225499816443431,0.004106662833397373],[-0.0338932999788274,-0.002799910936825585],[-0.008667448071071412,0.004819036943602478],[-0.01540122544015296,0.009615079859679113],[-0.007863183888751143,-0.006352704806778029],[-0.013553672024502575,-0.005969884879047145],[-0.015740043735671085,-0.02014994923547341],[-0.0069449424468017345,-0.019909552335076974],[-0.00016462105266453663,-0.013336654389320912],[-0.002562606706194043,-0.0012845058948578187],[-0.006547913474175981,-0.016380529953710015],[-0.008854848579390234,-0.014547745972189613],[-0.009149097044239178,-0.007404633027385433],[-0.006186905813622426,-0.014353765324211362],[-0.015796040273926493,-0.01459743449023322],[-0.03967690701610175,-0.01652664096446342],[0.01321560053558955,-0.004240694145945906],[-0.010272871176509333,0.004854506122665876],[0.006099461702572332,0.0022121615367499824],[0.004564114387911665,-0.008670361419046492],[-0.004383968790912296,-0.00026144172209614666],[-0.008369155904331162,-0.010752870570698564],[-0.006745561376789487,-0.009119506904974069],[0.014993541845246067,-0.015181538156336301],[-0.014023055550179945,0.005006890263495866],[-0.012533747684631634,0.007680955390492236],[0.007038523948492684,0.001766552727674276],[-0.00928044064635978,-0.00042254308967610947],[-0.0065390325692246554,0.0005420666917705162],[-0.0002288652700631084,-0.0019256462683612827],[-0.01791393264716934,-0.006876163367753767],[-0.004352428235976822,-0.023065340094429523],[-0.010534659860695642,-0.010628816135517844],[-0.00773323747690079,-0.015364599479504868],[-0.012253627560481258,0.010007204536227651],[-0.012973731201936232,-0.006840413457148212],[-0.012857875799369197,-0.009079124407044928],[-0.015367773509932478,-0.004928374206766674],[-0.002099489082526198,0.010012519229710337],[0.00017407538404527485,-0.007740276641630386],[0.02315520912066556,-0.0020341623463817483],[-0.017039555225334298,-0.004504024417499665],[-0.011903083721451383,-0.013872269433199172],[-0.005117604394475572,-0.00117853292409407],[-0.017293824837511056,-0.0023588737160385722],[-0.01448356614676324,0.0048613026083229195],[-0.009509313566913709,-0.021306851096144074],[-0.02763248342003987,-0.01143744897094863],[-0.008281124872885421,0.009808988996521559],[-0.014139131335279036,-0.006959624454753823],[-0.010460066898513969,0.0014908161193327902],[0.002221720691549591,0.011944967292605762],[0.00023337366623266354,-0.008383302735835837],[0.003918533159929277,0.00938161545734894],[-0.009337626432126203,0.0023771421850073545],[-0.01483478699615374,-0.007513221560962466],[0.002657564476298312,0.0025306962010560557],[-0.013745436563391685,-0.009857853804355207],[-0.011999994067334919,0.004200687725727777],[-0.008300194744594432,0.0365227482004269],[-0.019893900130879758,0.004304085924447147],[-0.012248835809507717,-0.003378763365349185],[-0.01229295594386161,-0.025261989520363095],[-0.011797272171479576,0.001947699058611416],[-0.003974836371306056,0.00360788244488709],[-0.009607963106593696,0.0026673855559632377],[-0.010129941783831722,0.019642507063165504],[-0.0035947638659737722,-0.002518071714067281],[-0.006584433717343045,-0.0047044602448292035],[0.003455385111788666,0.00475051837168194],[-0.000878211272374016,-0.008085314498588278],[-0.012669625102062081,0.009028392108988304],[-0.008005648427235895,-0.005942925029386015],[0.008563492713424945,-0.0009239860048681035],[-0.013439587578688317,-0.013869189372830442],[-0.014047184392317159,-0.00024019746492088555],[-0.02130623083264776,0.0015456167882160169],[-0.0016309749999800923,0.004173855983428646],[-0.001475697834164644,0.0030233870089895402],[-0.006961084449208506,0.0070905683435473965],[-0.01467984003169781,0.014165589647849735],[-0.008124634969028004,0.021685846302254355],[-0.02050266671785922,-0.00895374927313454],[-0.022212698312038846,-0.006021256139537391],[-0.007588596465381988,-0.01586969581202216],[-0.010353622883181052,-0.0015825141438563458],[-0.01144962446751402,-0.0026762710342881435],[-0.022092779444013534,-0.02236611753372984],[-0.0012635017441446589,0.005608357113221962],[0.006394701871454886,0.0012054176925199568],[-0.012884323044746725,-0.0019771659696466294],[-0.01109431026414199,0.005790285612438592],[-0.009579909764820132,-0.004421818619225971],[-0.011762114439749201,0.0005249223197930897],[-0.0022284968443565673,0.011509419837566039],[0.00229219060035281,-0.01515182178588587],[-0.001730601961014444,0.000936545145196178],[-0.005984950019916377,-0.011334732776072089],[-0.007000751809954962,-0.025376195203885017],[-0.018780286114786104,-0.004750145722704633],[-0.0038030297638571545,0.007434302163033026],[-0.013479461299077608,-0.010293098781519256],[-0.009776581527364287,0.0006011418649636553]],[[-0.010391006888476903,-0.009029634338143092],[0.010832971450233538,0.025808585968000376],[-0.010982456918893818,0.014626229377434234],[0.006723613135442752,0.008470126303258765],[0.011592187004299708,0.01116567934049049],[0.019232079454175495,0.011131734433347154],[0.006757045530869481,-0.003916160008451661],[0.026495672245271287,0.015058614372122942],[0.012399737473709862,-0.010358922691126376],[0.008421090566001333,0.0014010695005719973],[0.007945128388835872,0.025338991734966825],[0.020517592791746177,0.0060711307148182585],[0.013243554345007092,0.0024303904156647155],[0.018421316443319336,0.00991631748474545],[-0.004699081696751039,0.008681012771574514],[0.00447702682253715,0.00844627233182008],[0.02451121258286019,-0.002918933725527488],[0.00994873202324354,0.004913761297801922],[0.005979006639143225,0.027549515253918105],[0.0004547321485761217,0.012349492047027864],[0.0028439062038159973,0.02040691075674571],[0.022252403736440662,-0.010057550992388083],[-0.002492703472125313,0.013077705248649025],[0.007594431152616353,0.02318449272975775],[0.012457066649244914,0.006096980428690726],[-0.00198378207957582,0.006166098813058727],[0.008452881512164069,0.00439376622227611],[-0.001865699232716424,0.011644567284764878],[0.01810810534277861,0.00722138081694463],[-0.009015159839619908,0.006724784305737006],[0.027677337084745852,0.001438746714882876],[-0.0024375838923318565,0.0025057166745144003],[0.015493608684111536,0.015670828852035863],[-0.0061537436366267805,0.011987463156357023],[0.0055826635672347824,0.007950802519134409],[0.007279038831799226,0.01666637627869722],[-0.0010855111611664731,0.014509342346529692],[0.01682890094892028,0.00299630704606915],[-0.0003089395807121325,0.015285250367945516],[0.00853776474176718,0.008212010742274204],[0.015967979672022403,0.020961354355746052],[0.001962101189935067,0.007604799340221348],[0.009767881826036067,-0.0023581284226812773],[0.006796924093182344,0.013273014005059239],[0.007067370426532301,0.011149471262548033],[0.017798234412525243,0.021550107347863903],[0.0073424422252363255,-0.0020157554117788573],[0.013083416423552072,0.014015359475754285],[0.031013920698527542,0.013546423189005903],[0.0028230574274149497,0.00620196541666355],[0.0020186627679829616,0.01876895486399095],[0.020214516114848598,0.010303196078970844],[0.0013972436051461546,-0.010934689197169679],[0.012270797738053875,-0.006513441486770863],[0.0033718321652581717,0.009796088189080548],[0.0018790859272425655,0.03132139658740955],[-0.008056327475005039,-0.008903687205729037],[0.019708344822266504,-0.0027482292737212944],[0.003103340518629852,0.00290942170011556],[0.004419790620216575,0.005233950250430128],[0.012551627395486119,0.011919574828720256],[0.03216331038938875,0.017677855120832895],[0.0002606310828977501,0.01659409816146125],[0.012339789104419267,-0.004728523608400207],[0.004138068760117093,0.008740467484911295],[0.02391509991837499,0.012028574043456497],[0.016031797250341435,-0.010469855191974384],[0.0016656633172710288,0.013839815135565661],[0.02212905316927565,-0.016068423230190688],[-0.011468612450703184,0.012330461865367175],[0.012966823360783518,0.001576839376787634],[-0.004579456867277698,0.0060949017334147185],[0.004891394439116259,0.028797805361320414],[-0.0027699678629607444,0.0104613904907921],[0.0046995648363549825,0.021122912162202623],[-0.006183526202609275,0.0019253813901878997],[0.022106831622394785,-0.005423160358005799],[0.008361186645779324,0.010569649782605908],[0.033083999785837676,0.006899268528631299],[0.020091663766491654,0.015116089156579032],[0.006827934583160802,-0.009346200657009505],[0.015503348375611842,0.010033237377094311],[0.022822945198741854,0.01203301518256794],[-0.0024909516889945298,0.005732767315202341],[0.013116756683066184,0.010504887093788067],[0.008836658575063931,0.01148884832527066],[0.013153394926511791,0.0001330124310605082],[0.010639799207720024,0.006353203956267195],[-0.0003266920626235244,0.007117131690146937],[0.012008433927776313,-0.007624474981189806],[0.01108637133853568,-0.01341184558638705],[-0.0012215966965722829,0.024016107068800138],[-0.005796306796686689,0.016032956268988256],[0.0032486719613355605,0.017611695217276294],[0.00729490855153314,-0.0028311581968169307],[-0.009868265517416104,-0.0031100946186655787],[0.0068663679231135725,0.009504948569388381],[0.00083155759457482,0.01447705759904539],[-0.010618050039416377,0.008651923027505108],[0.0016985700061824447,0.016393000641138345],[0.01777284484280386,0.006002071460967295],[0.009072640112282355,-0.0036413093988997784],[0.016199455017404663,0.01052651798021638],[0.015141680451944075,0.021605234463974044],[0.006011049253526281,0.010950384858669988],[-0.001348872629235982,0.000670521063346935],[0.0033285911066336963,0.021618770651188408],[-0.000655954798472309,0.0021991946530670312],[0.02330415482905607,0.015024342429344832],[0.020675435604245226,0.023647257840271264],[0.003689628935004344,0.01621729474973781],[0.008605077285288656,-0.0028844262049778115],[0.02880621032051975,-0.00787903792586737],[0.006408365035367113,0.014297910893872204],[0.011308830915063265,0.00566247550797139],[0.017861391231031254,0.021265216326869]],[[-0.0015364716537195988,-0.0012985394447277464],[-0.015836239698764923,-0.02296970035790187],[-0.02224756421449067,-0.01631033574560885],[-0.016629547227757953,-0.0021177007874980096],[-0.011213512381334409,-0.014192420375967506],[0.0011985625266106594,0.0024090789428332163],[-0.011386423893739943,-0.005772276171307154],[-0.0017018887930857394,-0.001763929117983136],[-0.0025996621806454938,0.0039008224246749154],[-0.0012512072887607781,-0.00896286884915682],[-0.0121342601920746,-0.02504289292494115],[0.00019799617033241075,-0.011717219041939576],[-0.03169372398275262,0.005229405378025916],[-0.017965250404672575,-0.03442767823356984],[-0.014906441074386031,-0.012796310847573615],[-0.005925829134092599,-0.023604643980898024],[0.006717906850258062,-0.008129130921787225],[-0.02138897718309472,-0.01119534884112032],[0.012620083881771433,0.000946752509443428],[-0.011576493715842458,-0.01728786345435397],[-0.010602325697071341,-0.01305845093785535],[-0.0014458032290528755,-0.013180334393390305],[-0.01960245629303027,-0.02024969572584532],[-0.0007874822587568132,-0.007411731751546406],[-0.007287428136623091,-0.014774712343780355],[0.002687801616615727,-0.022296772913142433],[-0.025148755266382734,-0.010869778781729717],[0.010154082515042125,0.004559701874702459],[0.013431536858081244,-0.01297747670670624],[-0.004791052163432122,0.003125195355430862],[-0.01002049732630908,-0.019087469040488886],[-0.021444391879845596,0.0017938264915282587],[0.0013492609685994436,-0.014304348200239526],[-0.01984445863459131,0.010208804737746609],[0.007559387296105576,0.014803889340992476],[-0.015716400561983288,-0.014487623973090499],[-0.0021707976666182605,0.0016220212556929338],[-0.003112229952480536,-0.002069594137705883],[-0.008768579064531792,-0.018867934193501],[-0.007516197313049,-0.02747370929811619],[-0.012159058752459212,-0.014104931955545892],[0.024772255436260396,-0.005572492925183735],[-0.012542423392591928,-0.0005264276421263874],[-0.0255871159420764,-0.027562372156621787],[-0.021488989775531306,0.013473100343802077],[-0.02185413741983249,-0.0008484226292598384],[-0.023743615859779514,-0.009562403860133307],[-0.02836186526116801,0.0091928642524394],[-0.013962960299179247,-0.03344330277176744],[-0.007995094798654706,-0.012460544715289573],[-0.0065934264690676566,-0.014256804986269776],[0.009384277574189899,-0.009791652308781767],[0.0028084473424460094,-0.0005351390766524959],[-0.02499626382480164,0.005990019130563795],[-0.004127673976962405,-0.012992939855837918],[-0.0010873022186084565,-0.01811940848367311],[-0.01559109337002576,-0.0007051185168806776],[-0.02215065656511216,-0.006141775779284104],[-0.011571129236449833,-0.0040417365587832555],[-0.015843300641689366,-0.0015719545749082423],[-0.014175624048033728,-0.018357453317686914],[0.0020210343201448344,-0.00024071217117288166],[-0.011096026695154753,-0.0011452642599885485],[-0.016804380415300538,-0.00399546261440385],[-0.0037637212793249623,-0.04009587018187328],[-0.022539500185542894,0.015608240762358653],[-0.003284400600078942,0.015308432232666641],[0.005843812085899833,-0.008318769688868998],[-0.003713754252883574,-0.0003895528230728113],[-0.0038779201325836684,-0.026008988885739128],[-0.01772656462324581,-0.008555964257584934],[0.0029101904821842214,-0.00019041947223724372],[-0.022235356039357373,0.004981172916863526],[0.014441573308244728,0.0025076468754582264],[0.007432019222516549,-0.028752019202381938],[0.007415764062226345,-0.0036420731277542534],[-0.0004106426799837656,-0.011724341098169758],[-0.006511059415615856,0.009812682905697399],[-0.018130835397086986,-0.005862173627093323],[-0.0022066553245418735,-0.003911204824238149],[-0.018223158873447033,-0.01715644619521722],[-0.014624286567175048,-0.014871963384399807],[-0.005056649804272264,-0.011994599426646439],[-0.0031569092103737153,-0.006447689955304076],[0.006150890698637847,0.017468136183745146],[-0.011456108762504549,-0.026374897267312004],[-0.0017555674100535573,0.008990366074588077],[0.01284413895063437,-0.0008675803584766717],[-0.007370999776614606,-0.0180582020123558],[-0.004550174089855891,-0.011880745009098472],[0.013239465694475521,0.004942917321851401],[-0.027670792594040983,0.0040890679744814565],[-0.014002818197435762,0.005520984940372812],[-0.007604066731595391,-0.02611231688790647],[-0.013649436115399196,-0.00039551600362136644],[0.003598448247012914,-0.007239677461100748],[-0.006355806805846071,-0.003916785245900644],[-0.014976353729836458,-0.015366041316245535],[-0.011066467041947338,0.00019594517162011877],[-0.02331765654326404,0.0027118433479484745],[-0.019040002709413046,-0.007241176651104124],[-0.020631799201072935,-0.003664162875199049],[-0.014052617716410042,-0.007905416480407148],[0.005400490882901125,-0.003920002117600654],[0.001349795228399265,-0.0051133950570315225],[-0.015245743648175202,-0.017073737097298838],[-0.014847918475672161,-0.009578898877366536],[-0.003462359782316878,-0.019170851171421054],[-0.00031582520741323307,-0.0035027511719436283],[-0.0009955739186256894,-0.01194808184402044],[0.009224752996111757,-0.0206097910835785],[-0.011662118912701046,-0.01588766526073708],[-0.0055425240073135006,0.004007461915496882],[0.0006487490333767615,-0.01335647138456106],[-0.00876433361456121,-0.013270186046731542],[-0.004145148387261067,-0.01224962458866181]],[[0.021096091815156946,0.003849250648952094],[0.0327436574739224,0.01471758598274126],[0.0024124475642735444,-0.0074447080367995525],[0.009024549951237292,-0.008438625200966776],[0.030969473857449088,0.016108027106034463],[0.019129841254337806,0.008318962460984257],[-0.0011426786960115573,0.014685600977731436],[-0.004812491889728312,-0.008852996007639459],[0.017406433747874876,0.01360548464626136],[-0.0021681382523915287,0.0142686536536978],[0.00543348058875483,0.012978405795722573],[0.016680722207055052,0.013792851023984915],[0.0027640572029324615,0.02101709990713677],[0.018766947006231313,0.01377807163810236],[0.0022147186966732027,0.011852754431322013],[0.005927563905445123,0.010679273162601163],[0.023481327509750547,0.02293101952545276],[0.0067286202026668246,0.008299276158310205],[0.01657491146851758,0.021170478486686666],[0.03410875718910866,0.014874470760448821],[0.026054368898816446,0.01265979353178388],[0.005247083616044474,0.009708421084035104],[0.014172676502575345,0.010025071497804601],[0.0019464332458559667,0.005644929690297046],[0.023067100570086457,0.010496767478736813],[0.010399623856975914,0.01884953073450651],[-0.0037276539819055283,-0.003218695923830248],[0.021592543596079053,0.0065418753884668324],[0.0005601299962314953,0.013018888746041828],[-0.0010521586049144379,-0.0038278754818781126],[0.008457160367357046,-0.005890695302760514],[-0.011607518441464633,-0.004944862674539073],[0.017425141975083536,-0.023164355815385344],[0.020598026112169637,0.005020808866744929],[0.00367782275906559,-0.0071519763704853915],[0.01332895435658019,-0.012882879690401559],[0.010475318388547093,0.005483851708586518],[0.0014754644176719317,0.011453894283851582],[0.004763837309853012,-0.001993088915440179],[0.012524773505089879,-0.005685570863359437],[0.023511040718480924,0.0008016068873551533],[0.0014683939689270546,0.005485669994323895],[0.005517116619548545,-0.009664769988768805],[0.018233456672661436,0.01977024812601311],[0.02093459103009063,-0.015926205681787722],[0.006463253525735254,-0.011809765380812838],[-0.002131500693017603,0.008413825096276596],[0.029706939607225317,0.019258808425988212],[0.006273953381365905,-0.0002227494370203258],[0.010992523624992248,0.020283001199296553],[0.0022763930479744007,0.007625944850190492],[0.0053063384842204795,0.01214815186128206],[0.00734634304343494,0.002001761267539918],[0.00866570118464635,0.024442042907244523],[0.029269974696690654,0.005671589587602461],[0.017035613804118416,0.00569633734464639],[0.014866489421911074,-0.01576003277756919],[0.009551588128152145,0.007206076180917061],[0.011854648486023068,0.005102403851069661],[-0.0007122235404307338,0.004105271274920177],[0.005937632595952901,0.006465126598819734],[0.014271437223498523,0.007942652002276158],[0.008394862704157628,0.011574483027211169],[0.0020092833093202688,0.000816992485898103],[0.016525227764990113,0.014316705058032229],[0.01739840853015557,-0.003056613210754635],[0.010165257282900853,0.002257265855633131],[0.002246532234667897,0.0002155588518423944],[0.0036600717537964003,0.001254384197260144],[-0.00460921777045043,0.019775601924463412],[0.01636382021050056,-0.005166883007465981],[0.002752447309902182,0.0060408778713249124],[0.011136618876585276,0.011229766887747971],[0.02360236910743627,5.923894311859995e-05],[0.01084626351329936,0.014558189192342688],[0.019579862297431562,0.00993975833193343],[0.013058693842764861,-0.01005296382785016],[0.010255953195795703,0.008444930116335916],[0.0007621778100277194,0.0023115343397217022],[-0.009489666889322084,0.010971473837408992],[0.013522410100429068,-0.008182995207889992],[0.014072790404968314,0.007174877880091712],[0.026158863455378826,0.009493030839169607],[0.010598389598838569,0.017862676806654404],[0.017330691733131915,-0.0154598885502433],[0.023249879047997232,-0.0006870731006366143],[0.01594600622902426,0.01294373426761742],[0.0037140408763103043,-0.003469988481941786],[0.0035488489071513504,-0.0040230147897822865],[0.011734609255920582,0.0064831279533409504],[0.034442380788775956,-0.0003622998834397745],[0.012439509834504777,0.0003125182956216067],[0.0031827454285769077,0.0013026861493343614],[0.0094630049435942,0.004354359739052865],[0.0133624597265428,-0.028306396886061277],[0.011663287030644712,0.009261197753777284],[0.0248686832764241,0.0040169401730139435],[0.03273044142876861,0.01217098388580492],[0.0005976738946400324,0.0011098441370007374],[0.02069732680580891,0.003014443019733351],[0.0072419975659284395,0.009405494096588052],[0.016309267345794357,0.012606180923756505],[0.012373308879980423,0.010408794763896905],[0.01403005931427391,-0.010216522842255776],[0.014103453965326727,0.001865435423909185],[0.022918971673898638,-0.002836154547755042],[0.021806707931968206,0.004680953711491256],[0.016464294370297266,-0.004953258645322998],[0.024674574187783495,0.01353453905021969],[0.011837799515885258,0.015465833116335904],[0.008940609318532735,0.024330547817601498],[0.014452977692035743,0.006347385437554507],[-0.0025719540804510764,0.005285249175559274],[0.011257791770774166,0.03181074509464546],[0.017470298289549508,-0.010102436923229942],[0.019057940947699498,0.011577162708908071]],[[-0.002021475126229671,0.031111083294099166],[-0.009089168188451076,0.007303220491696542],[0.008252392551195056,0.006374356460515781],[-0.0014616427537788696,-0.0004621342961680097],[-0.014944905262560211,0.012208366669015655],[-0.014061417772152128,0.001364368366136754],[-0.002589866397539023,0.0003117203670308133],[-0.0030415074156341453,-0.009935875696464626],[0.013893875561916737,-0.00467190746196173],[-0.01556824592014085,0.002277161736756865],[-0.02303574491631427,-0.003280809775977173],[-0.004310193142398675,0.003884426740856917],[-0.0013954392556349505,0.02103198053948981],[0.011695181715708915,0.010682361091833055],[-0.002101450579714157,-0.014812654548970322],[-0.011378050362395403,0.006880212972613291],[-0.008993343429820838,0.01595385496952888],[-0.015280842021232215,-0.0013579366973672912],[0.005313293131985305,-0.0034009501832376193],[-0.022130941488361193,0.00432703649313724],[-0.002780834170438492,0.008055054099826119],[-0.008401511512646226,0.010888856298616642],[-0.009517613776125061,0.018948251037313197],[-0.007041469146298956,0.013512320773716514],[0.008946418579869206,0.006729281815586421],[-0.006750371935692559,0.02041711429901404],[-0.009528599676788648,0.007856335640090235],[-0.0024677471105164902,0.017761681100098427],[-0.010513748889449719,0.019846277377907496],[-0.003498505334398231,0.011923388494226165],[-0.011899057512281047,0.02197270623816448],[-0.015194658239969317,0.019793564391154164],[-0.0037968129789443254,0.009398346242042659],[-0.008080088086757331,-0.005863154641201474],[0.006249885842526592,0.009172315223235826],[-0.006185205749745263,0.013308992465252457],[-0.01291175908604574,0.011056301075002568],[-0.01789004515417069,0.013251194846865511],[-0.003454597999773514,0.006461374753231549],[-0.007214689726176025,0.008631547724910572],[-0.011405183747654426,0.018477845071593814],[-0.012175693546615829,-0.017500190966816417],[0.00720068224961078,0.010530966231779935],[-0.033729619829820756,0.0035851036318376404],[-0.010123765212512821,0.0014315128297137233],[-0.008144120995778596,0.01822010760936825],[-0.014995571940491646,0.006235479200220589],[-0.016687740257982704,0.014775664806288754],[0.003248510184786762,-0.005421481255603818],[0.0012512075200941258,0.014462296702919365],[0.004314992454312498,-0.002297113861756059],[-0.0066894539830979005,0.01553772461668111],[0.009496795097021896,0.019714553301198503],[-0.01846425378208257,0.010281608139649089],[0.011723489174953024,0.007208315866076364],[-0.006259655656699078,0.008092286380508573],[0.001431094323492408,0.012559044941236643],[-0.012676183722156259,0.0011475916325894783],[0.007343438589073354,0.0031056601965703417],[-0.036088590555071375,0.00441171521954274],[-0.017729516467532923,0.0188401844065302],[-0.007004151512635365,0.008614095106448276],[-0.004626379808184943,0.01255531016148627],[-0.007134583350247954,0.013694527340262126],[0.0037645722757613702,0.003549184739629293],[0.00453649753522232,0.02415957131300556],[0.00539355494465876,0.013890150709209443],[-0.016204464456014277,0.02465987795387646],[-0.013341945292948855,-0.007071843155194078],[-0.016190122305277978,0.010089605083328125],[-0.0295164955233278,0.0009790801174044276],[-0.009013045647075252,0.00031613068231887964],[-0.018322426874449873,0.0013414244917892223],[0.0037032704638222127,0.0025321157153275287],[-0.005722650687046445,-0.008752049274489524],[0.0019106400604428915,-0.004979153441840556],[0.001071870342108494,0.013086226647260942],[0.0036676318005223496,0.029785604948312283],[0.004335331467295472,0.00502187571418502],[-0.009334422187081618,0.0146019276619562],[-0.007947712955362826,0.00846323062562913],[0.004269875820188181,0.004131101454150674],[-0.0077939138840161445,0.003831287091646261],[-0.008544611329738282,0.023235668849772424],[-0.016992024208621222,0.01088312966268733],[0.009169911968031037,0.010120170779569285],[-0.013275815562330179,-7.508891375477398e-05],[0.010985342232745174,-0.0014134797680011512],[-0.006467037187991482,0.009569498263843365],[-0.004341113614634021,-0.0028948141587584048],[-0.011411675309470681,0.014863741836872503],[0.007265370351324143,0.015096525341808295],[-0.010545223121459262,0.0014906721939204955],[-0.002658970833626828,-0.010791056877460748],[-0.00010588713763928219,0.013672781635233635],[-0.015852463698760696,-0.002845823505283345],[-0.004214145212458034,0.009219653439614678],[-0.0011466431148543024,0.008824807764691424],[-0.004899182099432164,0.01140067084358597],[-0.018801351373639454,-0.0012771239318452132],[-0.0017448532257366763,-0.004702637551324595],[-0.019400731559816278,0.0171186762991856],[0.00017031732569860775,0.0022148963827694594],[-0.016969393765534982,-0.004548466291385915],[0.006404952830643102,0.003699672230718974],[-0.01831300981508643,0.014431347407329266],[0.0011035027518270435,0.00038365988125061405],[0.009465911801926064,0.014153407620523039],[-0.008352556597987119,0.012343125731601387],[-0.040227243559778435,0.012438195618278016],[-0.005361411885951377,-0.007921444875013553],[-0.023690281334290814,0.031223391879507532],[-0.01111666872449456,0.020975277662584207],[-0.005531085798004556,-0.0006328485154853974],[-0.009160972922993643,0.03795516288819391],[-0.014304766906646199,0.007480321584015501]],[[-0.008371915652095661,-0.004974855120544072],[0.01166968555350875,-0.017006959819036528],[0.014801654952863858,-0.010715554014116795],[0.019819794368596648,-0.011431925306227188],[-0.013486785475007307,-0.008108859373093903],[0.0032110149852719954,-0.026361458371570383],[-0.006281669846081717,-0.004686812391628101],[0.005291471261540292,-0.012416212713958891],[0.01731034044001756,-0.00641047777823801],[-0.00596653327132855,0.01090830313998431],[-0.0007977702343161048,0.006650175150935485],[-0.0002545653870538202,-0.0008447564241668391],[-0.0016513917165872985,-0.020360837980940665],[-0.004436789760218279,-0.007046873558110456],[-0.007586999864762078,-0.0007868546132830719],[0.003850408023069003,-0.024405871586556716],[-0.007231382896976697,-0.016589541320956396],[0.006840652556672373,-0.008065454547306328],[0.009497189305789952,0.014997326912711668],[-0.004394396293543674,-0.013399531808022612],[-0.0026377246824313525,-0.015029129862007376],[0.005177184291835652,-0.010251085751597092],[0.00021542362127523098,0.0009635372920327261],[-0.00631184151630944,-0.029355947191707973],[0.003592279925650782,-0.015979299993060216],[0.005434939054789349,-0.0029298715354942996],[0.006300765225752024,-0.009703547485984388],[-0.0009453839343232937,0.005941804506576466],[-0.007189582384300254,0.004185659944501237],[-0.0010372682835149518,-0.008181847778412502],[-0.007331860329640142,-0.01264549034029841],[-0.009108937382918906,-0.012673727455177536],[0.008553403859107973,-0.008108249023674042],[0.019261361647538947,-0.0038216949521849087],[0.008987872486278478,0.0003941480877345631],[-0.001962289632661803,-0.01349504411261976],[0.0017707820073761197,0.0071299477097700485],[0.0019916643019932214,-0.010183236821318156],[0.017755945560211244,-0.02043257371183628],[-0.009993896621691974,0.0033098714059523536],[-0.014402684458524067,0.005674500594868066],[0.0062056485026768015,0.0031072752805475245],[-2.797763078297569e-05,-0.02453298845884358],[0.0020610367853329515,0.006182853852995833],[0.0033108763982871844,-0.034078464657052915],[-0.01494932268008058,-0.010082395197033099],[0.0018060591799080755,-0.0046122797065704275],[-0.01591322910811189,-0.010988763865234966],[0.00659001084876092,-0.0008862594406650712],[0.006379904825676418,-0.014617809119638591],[0.01053483944922492,0.005357900153227499],[-0.0013163482492136009,0.0013996073063147498],[0.0007941458488225676,-0.005242013511717989],[0.00567068355673401,-0.008843134404627131],[0.00995141266696601,-0.019088767124601787],[-0.0012212385443492104,-0.008471746327076967],[-0.006478227531138048,-0.0018450570619374556],[0.012261821673603436,-0.00025043368379833837],[-0.004955633873931943,-0.018639993518359172],[-0.01130541693409243,-0.011160266599056513],[-0.01086392126793794,-0.010177707044988174],[-0.0013588770216411887,-0.01590046416510723],[0.0035543577976153225,0.0015441108188607518],[0.0032889076426751928,-0.02664273507669028],[-0.012251481841909004,-0.017401749775477607],[-0.0014015759341327396,-0.0005316610736449124],[-0.003496321954341769,0.0020140774704794184],[-0.0016834237623601432,0.003161301287947054],[-0.006656993516916236,-0.014111986988901223],[0.0025784549595968746,-0.0018315334393771037],[0.00803918385018612,-0.018350144924177803],[0.01643114519425977,-0.0067513088120714744],[-0.010115659894766293,-0.011038118755001783],[-0.005358700187306783,-0.013119389222207935],[-0.004932309952007802,-0.02165742492781478],[-0.013357242373648137,-0.02365591135013389],[0.019676023144240926,-0.02434689627689162],[-0.0009355692525863619,0.004596962304571378],[0.011658928837843644,-0.009362972629612394],[-0.00464232319060888,-0.002681701712954047],[-0.009957996707903953,0.02517681743213321],[-0.01198110537074369,0.004081935764322086],[-0.01151560191009383,0.007505308261382375],[0.0130426805382125,-0.0017980223518011562],[-0.01235655375531786,-0.008128688740836783],[-0.008251987819127947,-0.0004411157510752596],[0.02145884548939771,-0.008862764148888114],[-0.00663937403749245,-0.010975137476273433],[0.012019502936091322,-0.00026251983180336155],[-0.010111109190967056,0.004480973375311609],[0.003222951519481402,-0.010388613823506008],[0.020401190938728397,-0.018272226374775442],[0.008769454942437239,-0.010011486012339676],[-0.005763781569917043,-0.0065367987188719645],[-0.003798245747594215,-0.014443505297367402],[-0.013644427255887949,0.009903158528903732],[0.012231945190332142,-0.011282213164211172],[-0.0017490307884847633,-0.0058734509952224154],[-0.003167962663974696,-0.004595099478178678],[0.0028226166037475034,-0.008485456550439639],[-0.0025361767529425644,-0.008515095894676871],[0.0060689813911486735,-0.011638915178572042],[0.010231081594182664,0.010273958015262458],[-0.00651060141276579,0.0072766700759167345],[-0.0010952065038814442,-0.0036217201262172135],[-0.005435343345549199,-0.009123769173696868],[0.022118999720098915,-0.010462543952451962],[-0.0063105289615365,-0.007809110339070382],[0.015675591157958624,-0.01567117920787994],[-0.00739015723520816,-0.00788649825464473],[-0.011446912222311062,0.011065499312718441],[-0.010878910019457249,-0.03008881735318357],[0.0009386096588288478,-0.013741439550935132],[-9.061032781495509e-05,-0.0039033660723591756],[-0.017290555583834313,-0.001659695109692811],[0.012814218773186344,-0.0071069019447206425]],[[0.004160209601674165,0.009116062158119671],[0.018455410121564826,0.02563448661665045],[0.011345785188216377,0.00040361370914326455],[0.003375168838068871,-0.004158039530360486],[0.013268110592370722,-0.011056991253343092],[0.010882804639251339,0.0023332133192888395],[0.0012341272111206802,0.01470018452623381],[-0.0019163630290992683,0.00668372933644681],[-0.011067483322086066,0.02111248990905296],[0.004230326046301132,-0.0009976627076511606],[-0.014085956713184689,0.017245787086991655],[0.008111515913105554,0.005360583257107367],[0.002383967004637527,0.023811172902835222],[-0.00181568124156014,3.0659968341331496e-05],[0.014516178732046452,0.020253249094858324],[-0.0064014539541345245,0.0034177047703906126],[0.01430161077464464,9.127355661513284e-05],[0.005746825778974943,0.022245485933251326],[0.013948104973997162,0.011511971217700503],[0.021706961778909767,0.006093245018053755],[0.0030889822163213585,0.007551766955722972],[-0.005934448002356492,0.008276752925914267],[0.004890608910306721,0.002519505912599204],[-0.00011373722746853184,0.003027064322505737],[0.015095114697042736,-7.62078298326528e-05],[0.008457203299673798,0.002285629439651894],[0.018279351065650633,0.0017808570549427585],[-0.01268883898218203,-0.011700932822325318],[-0.011115220048795641,0.01623338543270453],[-0.016075876830520922,-0.009897821523634224],[0.0037527193676115825,0.01954157247915025],[0.013971942208069013,0.01602445104106165],[-0.012642165746108356,-0.011606131941076556],[0.017217461042920133,0.01150633513348698],[0.0029540641743003035,0.00977882000387036],[0.002469894300555091,0.006888487242605294],[0.017037197287196885,0.02048543968091957],[0.0069730349664791315,0.044495352164989205],[-0.010535682176923751,0.006279442865029604],[0.016792158291051375,0.009192121259694923],[-0.014899631084860773,0.009373510270779534],[0.012638566336183434,0.02127877634996059],[-0.016527308724905557,0.009958507281308426],[0.0001552155861722027,0.001307188694826479],[0.022142096098922825,0.01234659842931815],[-0.009422178849955807,-0.0011321600403939132],[0.014060611597434566,0.015649330459100063],[-0.004141697364370375,0.027788393847026017],[-0.01610208695798186,0.008716748583961756],[0.009367977189438749,0.016061963408101638],[0.025731324784325153,0.02848831049315214],[-0.0020009776976279295,-0.005144181577551601],[0.024495202694840595,-0.010705929969287641],[0.003020538801072146,0.015226246666695906],[0.005338199866437205,0.01717528399492965],[0.008897000063283454,0.018116718574304226],[0.012622030094400166,0.004426936335422467],[0.0002199988575564299,0.021582369447454366],[0.003299543904068773,0.01434761737349943],[0.02059892912145912,0.0074698415132457355],[0.01993336795939335,-0.00852140938321992],[0.00865664924729555,0.010034586719994201],[0.005771692875028775,0.004149486237208027],[0.01066663483471433,0.005725141540685812],[-0.005418561461673481,0.007207217142211954],[-0.012468887636828543,-0.0026083381105327513],[0.02089461548703515,0.0004200789140558737],[0.02744559605922643,0.014238457904409326],[-0.008592198343345283,-0.0019504046043467538],[-0.017772363708558926,-0.001227652460951773],[0.004210024967560925,0.010436571193424542],[0.00867484060444915,-0.006699651641524088],[0.01834003560308681,0.012904051436797976],[0.020242341578205467,0.00566619012462835],[-0.004996741680044915,0.008197857206977166],[0.013427858895055088,0.02387556255091259],[-0.00555133363999337,-0.009240693058837167],[-0.0027489866828021695,0.0038885320219441627],[-0.00017218174747097074,0.02248028633183621],[0.018032093227936957,0.021292227484399885],[0.0008975934940908916,0.003652841312304286],[0.007401451288167929,-0.0008536133621786125],[-0.0034079802292132453,0.013405812153804212],[0.0034962227838514293,0.02513209883782161],[-0.0007896752252207842,0.007908968962651662],[-0.0012146836750683843,-0.0041300066443410435],[0.004362505981454568,0.011039353136521211],[0.010014064223111446,0.005270471032404229],[0.009756339232543107,0.012960077427627557],[0.015000660550436381,0.02469466009293489],[0.026902361986534166,0.030089377221747097],[0.0003940360724178184,0.019098264115000475],[0.021898388784713795,0.028873665218086167],[0.010002927457212063,0.009002592819609417],[0.013063394540791567,-0.004797502007624312],[0.003998438417572121,0.0123664826862067],[0.008329966953093659,0.007275724744694819],[0.012896628363182621,-0.003661046464936403],[-0.006189619843384515,0.012252843845926774],[-0.014435635827739926,0.005604066557911921],[-0.004961275071744411,-0.0008763385771209259],[-0.004190698234066124,0.002728184851795283],[0.001303832787008017,0.00861686051856914],[0.018110902802310654,0.02449104695109718],[0.010303460491936768,0.019304568774573653],[0.008530847861030168,0.011694453584293555],[-0.006379799763938892,0.007396513123290954],[0.0075126994441737024,0.0004873150763613904],[6.915793346554567e-05,-0.00525427732054972],[0.02009139114677094,0.015322588463677159],[0.002748900171709521,0.012790549280740715],[0.01377257242662169,0.012988722977562548],[0.0053751699599886476,0.016960898420076146],[0.009355733448667695,0.01562239056562335],[0.0014850089460089536,0.010055417603850494],[0.007675198621434779,0.01376818397000813]],[[-0.0007813727225231487,0.0011366849948085444],[-0.008385652244827138,-0.032256212529224226],[-0.002979587348039685,-0.019293782489913668],[-0.02386338732772659,-0.014766772264537646],[-0.022935650049236325,-0.0014317023822169191],[-0.005535072750371133,-0.016314904898733214],[-0.0005245259925876457,-0.0017674187010142575],[-0.023556549804347172,0.003951549219031508],[0.0058297454602291255,-0.0055320161246293865],[0.004407696973839692,0.009386416554686638],[-0.003613232650712335,-0.011707911095493488],[-0.016994044884905222,0.01633365922542289],[0.001072771352662738,-0.010890190482550846],[0.004563892794215363,-0.02202729472791901],[0.002699270021774291,-0.025063940344841516],[-0.012171646091156119,-0.010685071695069642],[-0.015874858929950213,0.0005678151013588978],[-0.0041817394613432425,-0.0072834064125716115],[-0.0033040196746216034,-0.014700019457800952],[0.0022021727170135103,0.0019310757555315446],[0.004707164804417174,-0.027167224606111956],[-0.014761886511973297,-0.0025965173092949824],[-0.010834623501250933,-0.013142293734783289],[-0.025527190032772495,-0.0070499108439541595],[-0.009300805345099425,-0.013474638562611505],[0.0004227666637740716,-0.0010483476499938916],[-0.003098167256519792,-0.0034731392642413862],[-0.01443130762394574,-0.016435212820151233],[-0.003746109014532206,-0.019698938346216176],[0.00548862287357148,-0.0015726983611465358],[-0.007740056731946091,-0.023272979266486263],[0.012704604244923354,-0.005364961751118756],[-0.01412159190690996,0.004627402437584832],[0.0020972675408631753,-0.009225256807138281],[-0.020145571809159008,-0.009624078672614618],[-0.03411103767012431,-0.007035084768986354],[-0.005211035831131246,-0.010749961167810768],[-0.01299739521511634,-0.02488060653229166],[-0.016040929586088343,0.006451948879557811],[-0.02180704296876515,-0.003361263904087637],[0.01166665465245678,0.00391148797117069],[-0.015414375413002388,-0.013496313500900086],[-0.007730099167994373,0.01540347587666051],[-0.010392775718541046,0.006368436730996903],[0.009629336674667642,-0.004732572513927618],[-0.0019288213852154932,-0.01876058360766658],[-0.0028109008643551446,-0.01177772308232638],[-0.010725235007313401,-0.008662498931995008],[-0.016438012663153062,-0.003904869624706863],[-0.015042734235373358,-0.007111366469524036],[-0.015072644358205954,-0.0066974079226455275],[-0.013958963969627229,0.01137943705880763],[-0.020063931062561626,-0.01243260327559005],[0.00973344178780361,0.00012513145450039295],[-0.006332663808450435,0.002911927163713647],[-0.025702413968333997,-0.005803626784741477],[-0.005414814910201798,-0.007204159683240074],[-0.007714479068914184,0.0069816406960277085],[-0.0018847949075317513,-0.00274284643770871],[-0.02162118784748786,-0.01532520566087473],[-0.0053329936649949014,0.00541813381835019],[-0.006691318240262915,0.00541837884021951],[-0.027999061804387423,0.0028009723589756397],[-0.005402976003418986,-0.02917776799884088],[-0.0028148613344968296,-0.005606264750170356],[-0.007959618293635748,-0.01177086523830317],[-0.008217277235082547,0.015555838728993023],[-0.032051039292306994,-0.0224836619617182],[-0.0045682884507812615,-0.006991891744242365],[-0.0029665366790888686,-0.009553131641742436],[-0.01498905668084638,0.010030315763065114],[-0.019192954880199137,0.00985195168302161],[0.007165355187838648,0.006399627864716829],[-0.009523998736922305,-0.011530246352533132],[0.010191374956145638,-0.007375330204950401],[-0.025786869054001085,-0.0043042231196973235],[-0.004658522049595865,-0.013472696442634187],[0.0013308977616975773,-0.009650825856786886],[-0.008655335589573486,-0.02139912045665476],[-0.013637173110282874,-0.013514704290099459],[-0.026182594366651896,0.016460429688252114],[-0.0031294061816423487,-0.006546605530090658],[0.01483065578115072,-0.019081134774852675],[-0.02216589931236749,0.00675621506246776],[-0.012566973603118578,-0.009528077632095277],[-0.007816730134063098,-0.0022819417385329956],[-0.022904202008429752,-0.005374593513017624],[0.0035371868494571495,-0.010951401523732546],[-0.021295054912512594,-0.01176620597503838],[-0.01353121054631742,-0.018685771941426923],[-0.019578553280624026,-0.00996474715750266],[-0.0064016766094588,-0.010935542082891249],[-0.02139707729476945,0.00839130991043733],[-0.0016559833786415148,0.005256856966343055],[0.0004614421438818674,-0.016680881878217927],[-0.02823362812385834,-0.013429133751015362],[-0.02156375659458657,-0.0034552306489102273],[0.0031779280277967354,-0.018990801942101957],[0.0009147687942649194,-0.017552032693652388],[0.0011549836421677975,-0.008702980134563953],[-0.0025063478515116107,0.012119459040148889],[-0.017919550209343407,-0.014305395220877955],[-0.021409643235268155,-0.0028180954635717405],[-0.002560124692694144,-0.0043953079397958264],[-0.014009505775146333,-0.006684096991395964],[-0.01225236863679815,0.0009302862990801495],[-0.01006548597384945,-0.016749190409171805],[-0.0050642967020202035,0.012129658461164042],[-0.00025929935470944985,0.006884175482855021],[0.012711615375122701,0.004660454507005701],[-0.003989178393412563,-0.032691397490267754],[0.01331507799204545,-0.01741782725012736],[0.0028845276975173434,0.0005456497522949005],[-0.01615784653039937,-0.009311105915349822],[0.010331819686623566,-0.0031004452532746836],[-0.009117003787909762,-0.029372915960172337]],[[0.004527388954235991,0.0039780062080232645],[0.018205376959599066,-0.0028154477915191462],[0.0009170134334421863,0.011260784873216054],[0.002834860373108543,-0.011299636497077662],[0.024233278615953296,0.01537193561094826],[0.014328864257307389,0.006471079327924916],[1.2148532403065029e-05,0.003981271435818057],[0.00818738368958925,-0.00021517144558317531],[0.006116382353291746,0.011866055615222654],[0.006515305570443847,0.005984091094026627],[0.028689199426066195,0.025159295249052447],[0.0033986430888786894,0.004379545580539619],[0.012796935267427012,0.012583852685905632],[0.03289854343340936,0.0072877721609438464],[0.013484701662008393,0.013565006115662229],[0.012045607485081364,0.014082525036834551],[-0.004141938412829402,0.014605410763743549],[0.015782471045489077,-0.00764555615187693],[0.004256257965295671,0.02390110645226936],[0.014936296196646555,0.015035114018908712],[0.012182320922148705,-0.007045391536313818],[-0.008531851711159659,0.001128671776524798],[0.00673523170418712,-0.004672578067840732],[-0.00045203381695029795,0.007720167991948875],[0.00031653248601302855,0.029308972611794194],[0.004045228470682393,0.01766602593359518],[0.019202454467117724,-0.01819323630343153],[0.003760696013485889,0.009245201495461068],[0.007686807729404437,0.015152716892145854],[0.008088208628411333,0.00848535051794651],[0.009055273800822841,0.0035068603543488034],[0.004442910205965935,-0.011152060936037298],[0.003092424871876235,0.011834342883944547],[0.0035505302586528614,-0.0004529354729945698],[0.020868653765698724,0.0047337450151631825],[-0.002096785572210427,0.007846806587702326],[0.016626066083646196,0.009183339890348223],[0.004543063904917791,0.007323762089847277],[0.009984627392056425,0.014089925801577708],[-0.013450387136474378,0.00622190548822675],[0.01673924434501707,0.01781670071186798],[0.0027131690519501183,-0.0005868967844795462],[0.016249458141106187,0.011539449778623896],[0.003938203704183687,0.01283947536264315],[0.00513493301748806,0.017022802064068455],[0.014270861428352653,0.021549199897401377],[0.007983832579508122,-0.006556422277168689],[0.003968592847327802,-0.015400980252874763],[0.0075278866638595465,-0.003663384792688877],[-0.010648850217094774,0.0060259984507841325],[0.01604505508842968,0.003676176394294465],[0.0011303796460645323,0.013551397658787202],[0.003372821645973308,0.003961564417857386],[0.022385147247599914,0.009680770324828116],[-0.02396579001092187,-0.004669591944783443],[-0.0002198124044620095,-0.006254145919536207],[0.014374437718189494,-0.005691911287247535],[0.014675135572209006,0.0007300346608356215],[0.029906938938858235,0.024788650972776695],[0.03512826479038418,0.013497048354126675],[0.010005087066110351,0.0078052912002692255],[-0.001326074670274596,0.0006272895465441563],[0.00683383537988398,0.001505629955135114],[-0.0019255297052703214,0.0011140378608592162],[-0.0007417317631730207,-0.004748199665116918],[0.014856167568194899,0.012225226844691352],[0.009647846045755646,0.003279535630709736],[0.011685314672852143,-0.007833073203531393],[0.020587106427711565,0.01711234346728819],[0.014476238260483219,0.01273960502906858],[0.018533966181725908,0.0021161230827171184],[0.009610934499220465,0.015449763770134874],[0.008059888923245634,0.0010047026816941119],[0.005307591272324745,-0.0076648376337978],[0.004051731351574691,-0.007161221512156092],[0.00036493296031935615,0.0008244952693156926],[0.01454862423549116,0.0049120618437845966],[0.025158663418286473,-6.519258515557762e-05],[-0.014361966448447503,-0.0027629451633918887],[-0.002080036705772492,-0.0014125384160605186],[0.006867887139351234,0.021620274111591783],[0.0031029246382958445,0.02601538943373438],[0.018491073914471107,0.014092985661892158],[0.007837445718071335,-0.0013577771570380081],[0.00040439072418818996,0.007825932197418865],[0.0077212519376322316,-0.0031849071852891016],[0.011308387982707389,-0.03145886672482658],[0.018686020549957574,0.019883525142667825],[-0.003041802568538932,0.008192354674447748],[0.02441209323579123,-0.0008271336095894311],[0.003603521077391497,0.004924720473482014],[0.02379808974190699,-0.008311695778643373],[0.010705518293575265,-0.008275723971647057],[0.02716810001284886,0.02526837769029415],[0.009125212724202901,0.008494776419111479],[0.02361551491856485,0.005751131193073195],[0.0034727010300569907,0.0019234557203797894],[0.011579708742854933,0.015604231163415118],[-0.008375419538101465,0.004483299259196504],[0.015356620694240314,-0.0012808988407033387],[0.006154055105543351,-0.005159401427749239],[0.022144623834194823,0.006321951258759655],[0.016329803889747502,0.010676142941651794],[0.014284028487018244,0.008405378185465731],[5.923038820371143e-06,0.03153263178177019],[0.0030724703994674933,-0.006353573483387511],[0.012648192285085178,0.027385101842880396],[0.02030066335207598,-0.004763952907116118],[-0.0028126378384041462,0.013343111543536953],[0.009890175068345131,0.010264887963769022],[0.027487925231330458,0.01910261302113563],[0.02869160439656633,0.01576945063715373],[0.015297673502788229,0.008017587624508356],[0.006650262478815081,-0.01252721812164106],[0.013465394968875201,-0.009944529811860206],[-0.0034892278507503323,0.013935854799765933]],[[-0.004675948283887226,-0.008790717872280283],[0.003052879969282365,-0.022372166202935827],[-0.01733156509298656,-0.005686254744977773],[-0.021192635571528725,-0.020582543790573903],[-0.015038119573244626,-0.015472660383114251],[-0.010253282965308063,0.010493329129205278],[-0.019614730366223097,-0.0019189676385629353],[-0.01366649298890876,-0.014481181308204786],[-0.009424122932214164,-0.0010815413549384585],[-0.006115875295671388,0.002442881667613824],[-0.007035581382382113,-0.010377512912534892],[-0.003133753152590555,-0.016788624743820993],[-0.010025284966046506,0.0020184600044702823],[-0.012223071472685287,-0.014144203299104307],[-0.018000997786708287,-0.011429561416197173],[-0.008453045642279404,-0.002131364198736935],[0.00724535217490532,-0.008836324820991306],[0.0032302896788834927,-0.005598828291014714],[-0.007694785320952012,-0.0013416827981995133],[0.0050513268848918855,-0.03269123988169132],[-0.010134724766805617,0.012234743603049793],[-0.011600641393417977,-0.012400434629046133],[-0.008302066843165968,-0.019305505526402943],[0.0015180127731730577,-0.0061810599867190095],[-0.01639468731921847,-0.028064693479272505],[-0.006073607055639416,-0.002994390288662985],[-0.00727944294548309,-0.00906777217001926],[0.003237940346354277,-0.0027119768425364864],[-0.00427599853529233,-0.017048263335678257],[-0.0030505108425132616,0.005281683545800186],[-0.004263234641018538,0.0029851541861908412],[-0.036440292073363745,-0.011313457957170899],[0.0007588054463653331,-0.003513489434491064],[0.0030478116045083575,-0.00662624277982727],[-0.01916962243813863,-0.00901280853973094],[-0.005313169773692258,0.0016836503916373554],[-0.0274139222619339,-0.015229204718309462],[0.007727918458399886,0.002176385320824852],[-0.0039308753165892656,-0.02303588648915392],[-0.00691266164114414,0.002108225657763533],[-0.012585907313820142,-0.018717632147101825],[-0.0059264080829326635,-0.012201226233001227],[-0.02020177583222664,-0.007744794771763133],[-0.015160034715863985,-0.015462980593310648],[0.0004656029529543663,-0.005102418652885091],[-0.00573364439470188,-0.012338437213904603],[-0.007410659910922216,-0.006341716336050312],[0.003787994144431056,-0.0022658324800182857],[-0.012007133983059312,-0.013298028772680348],[-0.0034225871993553997,-0.015111371233547192],[-0.02314742318458442,-0.011311287056273222],[-0.007770411679715069,-0.01679683262781483],[-0.009283322291918287,-0.009447128190155422],[-0.0082694714969931,0.002955866157371692],[-0.006442818239214785,0.01369076595204197],[-0.01606229398857942,-0.021064825524835226],[-0.005704866997714323,0.0019195793133019992],[0.008307931940447138,-0.00912072894347979],[-0.006696048828807851,-0.021455027989002402],[0.0020221028892785852,-0.011666537521043187],[-0.006723018267060374,-0.012261108529095432],[-0.015811732048267437,-0.0231818171319289],[-0.00634562077259512,-0.010334083387518142],[-0.02886551866017014,-0.015050962347588688],[-0.017173590119143874,-0.009999700718755113],[-0.00515411547419038,-0.013640016127406797],[-0.02060911574217063,-0.019636763476783923],[-0.008017050941084108,-0.009726044193261124],[-0.011777425239046539,-0.007684082315728811],[-0.0033119092165142727,0.017693118400901216],[0.011165576913963608,0.009538419512086064],[-0.011738896713828065,-0.011095085360380544],[-0.019680194034408776,-0.022688233118684818],[-0.001901693265864679,0.0057741889691952306],[-0.007006596317601313,-0.0161243713851058],[0.008595702200134536,-0.03994424135618456],[0.0005920251774577636,-0.00428064041195694],[-0.0032896629192579454,-0.024964816077028197],[-0.005699988765187882,-0.006043422400315375],[-0.004877723804241523,-0.025227762671626627],[-0.01069378096801779,-0.012349097274599256],[-0.005532419211610411,0.0007473385596395338],[0.004187392924690945,-0.00860038720021539],[-0.009311719387878732,-0.004018186897545164],[-0.008184289711171537,-0.01781618149860355],[-0.006301124284612719,-0.007688104950515201],[-0.011173210992371254,0.0035418966113504266],[-0.023003018661296688,-0.016699665950358017],[-0.008801271899423322,0.0013221745191873018],[0.006995660639582876,0.00715585230846114],[-0.010385072941008171,-0.004903699800229228],[0.003510672144248903,-0.018053967999932672],[-0.022569864842280817,-0.010924402872507592],[0.010418797746482184,-0.009540510398710539],[-0.012938786559929862,-0.01074549557154786],[0.0029644725143531557,-0.014379519328589097],[0.00582460198111957,-0.003514740745909619],[-0.01368965711367502,-0.013872560227522085],[-0.02544501470692972,-0.0009753647871732635],[-0.007453762478612252,-0.013848663598848709],[0.0001646130466389898,-0.009983389296533174],[-0.010313084223354701,-0.011969108645995465],[0.015536692901167496,-0.0038773088606260703],[-0.008043808282616405,-0.004324154785795079],[-0.01180128257471329,-0.0014992684296692154],[-0.015050161893481304,-0.0073953920942617995],[-0.0026255311470694135,-0.005380530390736796],[-0.012046821718496522,0.0019490072156421133],[-0.016920635417181237,0.005411605487780601],[0.012697092397857731,-0.020501239604034313],[-0.011281902715024225,-0.021488342068559194],[-0.022299211587677642,-0.010253657576280247],[-0.032415354302423545,-0.015300706367376913],[-0.014470521280875226,0.012092481907607262],[-0.004767983769516917,-0.004571223327945645],[-0.015985137322386725,-0.010698698609866848]],[[0.009246356774300708,0.003841055493573885],[0.012291538527718969,0.01785779977613954],[-0.0033691180918930482,0.006389332932067587],[-0.000160672746915619,0.006789791993930429],[0.003724151834239162,0.005792865358713935],[0.021784454921461933,0.012833604675260027],[-0.01335983917200712,0.01569843399055337],[0.005559084714444542,0.012834462838014482],[0.020930489082929,-0.002525458460215791],[0.009402093457263826,0.016651759727473518],[-0.002992547326396762,0.023819576758565695],