{"Layers":[{"Bias":[[0.0021459683429964037,0.016001768087325865],[-0.004435397790630438,0.01595054760695769],[0.02165049761160912,0.021933399078378248],[-0.005431701754680471,-0.0478576049251996],[-0.00646350577847323,-0.005130626859839767],[-0.021727939985715365,0.004451519977381856],[0.005958721981064495,-0.01493807762572489],[-0.010771487386925526,0.01632359832501865],[-0.016085949579310182,0.023122097729701755],[0.022497721275173656,-0.0023215585599884983],[0.02763464389300889,0.033061524495296396],[-0.011753382402829237,0.0017324318579234447],[0.006405584595297361,0.012639740518823618],[-0.002308285020433444,0.030006313942252304],[-0.005897154286351006,0.014770465318468503],[0.009650933674316166,-0.011810323885060463],[0.017303196789856565,0.0005681406661335914],[0.021200204819269586,0.0021993091204061993],[0.011485806684947471,-0.0017534440717171908],[0.0018517516980994877,0.004309946936232272],[0.005591368594094167,0.009081335323310997],[-0.00778015909704881,0.013491642989918316],[-0.00414650148260794,0.0008422979416879603],[0.0014385611506050429,0.01783860048710779],[-0.011789877954349945,-0.0005982120993423579],[0.013903813755412957,0.0058586351466056235],[0.001573305575146205,-0.013098406470680602],[0.020358208451970693,-0.002517779638186303],[0.02827007443312686,0.004346306974494369],[-0.010201335965521023,0.0017647142904474247],[-0.00435562868107843,0.01216544212027224],[0.0005969682779250193,0.04984862855524555],[0.024004364793838388,-0.006593474518204854],[-0.000663641631592684,0.010414700956021298],[-0.0020233999243754767,0.004293276305825681],[-0.003742486047456432,0.01583981339354676],[-0.0014665366125683093,0.0044475560598175486],[0.03079126020765725,0.02393275107117202],[-0.009216313373849386,-0.007658311635014139],[0.01345027646294105,0.007292629751084979],[0.011521175184401858,0.01257660764895532],[0.003595100396720796,0.018393045390680186],[0.0013243324251405347,0.00848365490457385],[0.0007429576031262004,0.003001589675075235],[0.018411639448123674,0.013854442425429046],[0.012870552870917084,0.0147769577534585],[-0.01197535423223964,0.027040637467312938],[-0.00428222313521292,-0.008694200236463608],[-0.008332195403211956,0.0042745201391483825],[0.006221890819412878,-0.006727682441031048],[0.01497424607983428,-0.0016711913730197117],[-0.0012509543580515594,0.0018571018748246978],[0.0018408958090067853,0.0005789462201077717],[0.034207338367382885,-0.02305677643005031],[0.019357691376328364,0.012072987605744587],[0.005405601389553553,0.021889712624687363],[0.012538816393417692,0.005964025888500426],[0.008753209336331853,-0.006987201283431723],[-0.016867871564174852,0.005067732475140828],[-0.01083964323199828,-0.006436809532653198],[0.0011952349241314527,-0.020848827734557495],[-0.012863921840312393,-0.0009007511912942227],[-0.020281127426828135,-0.007574969659538123],[-0.008090011239129266,0.006160606406997463],[0.0008082598706745895,0.0022063288114519534],[-0.0081673236885408,-0.004857487132698561],[0.011495943558499035,-0.014101662784756662],[0.02318457647325719,0.007937742639186698],[0.03263392469954133,0.027266598624017355],[-0.005921550479750951,0.00999947221488492],[0.0020337980127330068,0.011669072683250367],[-0.013482640689709552,0.028845791423228965],[0.007995836501898446,-0.02366616267249909],[0.0062997697678770625,-0.015341640635580566],[0.012837762950262687,0.0025534586782292416],[-0.018421241262271067,0.021829953008171386],[-0.0006297029838849367,0.005421928039145776],[-0.01505344080042822,-0.021411686983732407],[0.0011925425308088064,-0.001638665354452422],[-0.007369969797300264,-0.024537099906226222],[-0.014906014148714074,-0.004279235946934858],[0.003932372320821972,0.014210114214650469],[-0.00040222021972159114,0.0013641034109378011],[-0.008875956702120498,0.014539608136690163],[0.015021498142520297,-0.007264153725663202],[-0.002179743759135942,0.011339811237999813],[-0.007789553923497551,-0.012821950848836004],[0.006656605326522598,-0.011373181325985273],[-0.002556887049389529,0.005063423262478718],[-0.011043320458617622,-0.01715088864554789],[0.020007761049188305,0.007419180012900907],[0.0018862971242262598,0.028902357925465437],[-0.004982095227931422,0.02049232425427854],[-0.006106427119702377,-0.0001419630532883064],[0.0019499297834458345,0.0008579035049680099],[-0.009687816875010129,0.00035148816480549825],[0.014491589012234659,0.010727939813208109],[-0.008493601265236904,-0.0006544850598533368],[0.01392535282993336,0.024340477849584558],[0.001899902635276427,5.587080728637199e-05],[0.013904438397425303,-0.02309872108690657],[0.004204132751361962,0.008623395499730164],[0.0005638789485303556,-0.005182678986702242],[-0.004908599864213029,0.029717214700104834],[-0.005469230477227459,0.0005256539010116501],[0.0030997522360788256,0.008535044419607608],[-0.0009447660480011656,-0.010106814908961244],[-0.017136670181408728,-0.014527122417352023],[-0.0006183988009511941,0.003732618122914775],[0.012963730289547063,0.0027025017141091793],[-0.010353482307405572,-0.006132565288185304],[0.009673954066525584,0.0019480812140808708],[0.009211222228884994,0.022971769696247122],[-0.0036698159903732863,-0.0034550012803282997]],"Inputs":22,"Name":"FullyConnected","Outputs":114,"UseBias":true,"Weight":[[[0.01969078837265595,0.022703133234727845],[-4.930223400436889e-05,0.01503994469084402],[-0.003756833290321612,0.0038503881455945136],[0.01819703288296862,-0.015354373715130914],[-0.011162482658636947,0.008553809562923691],[0.01265521776807224,-0.009692063373311582],[-0.00029082856260404205,0.012742425883255186],[0.020158857461211772,0.009932704685512245],[0.01823868987411066,0.003318778528281502],[0.0020495881822565087,0.02193480917938998],[0.002574384419889854,0.011894257749777242],[0.00951873599597222,0.005986338400573049],[0.01561944290760037,0.004064588556296797],[-0.01717721009119451,0.008417158775910054],[0.0034925364040862546,0.005951580171142123],[-0.017619018080565124,-0.012576681718456667],[0.000563088865304965,0.011548937138622805],[-0.011416751360483026,0.01535047912813176],[-0.00015958480606534592,0.0048274547762684646],[0.0018726762963628785,0.015451092846142772],[-0.005615473660065914,0.005398925415550322],[-0.0044097751593664474,0.008467714787821658],[-0.0025797628623001746,0.006757568420765536],[-0.004868371598201567,-0.01068197555044799],[-0.02107558413331907,-0.008988942583138752],[0.004723750775258905,0.0072180703527920395],[0.012804096631524637,0.011219281383614457],[0.006627156174382321,0.023544045349934678],[-0.002317015594798729,0.01556591683283645],[0.004696665334608213,0.0016404576036218213],[0.00016032366193661823,0.020439831821305706],[-0.0006802184573616865,0.013639884348984523],[0.005719383108083966,0.0185538293656969],[0.018452832757512357,0.024059078967760526],[-0.004341372414130549,0.011422886871486475],[0.010053427300452342,-0.012897934649048462],[-0.003593488235503719,0.021877280207911052],[0.0038208004267761687,0.017729271997761347],[0.011828082094076285,-0.003012243202394779],[0.013318241806076377,0.0303020581535009],[0.011016250156519768,0.010624105742756504],[0.007765854880140437,0.012433396849622774],[0.01495670693025504,0.023221513254383663],[0.013808697210555313,0.010859283717550211],[0.023961903279252565,0.008726364868589706],[0.0182989456486048,0.005521139006435839],[0.014958941094404357,0.009017469200553819],[-0.0030592747732782755,-0.0017082952129983137],[0.012242263616417231,0.008374412407907136],[-9.08987270881866e-05,0.009806626875578798],[0.030644859220738768,0.015613757061691439],[0.005220154244125215,0.02894668316939413],[0.01485709126412477,0.03980285898310622],[-0.006572380187333044,-0.002578963336966554],[-0.002900707744027091,0.021569874659815916],[0.0070726327565816625,0.00436675366017306],[0.010813061432078238,-0.0004982187266585784],[0.008003645897214579,0.014061715410966477],[0.008084717011404003,0.012388551461965658],[-0.001392002025632135,0.012361197053778304],[0.008555537823251738,-0.005465611396228613],[0.004595258730064594,0.005037614403235296],[0.019353547687712958,0.006322234683038773],[-0.010534056354402441,0.0012569211217731222],[-0.012687288043112772,0.012661346473367275],[0.00020523419445997622,-0.002893435688317446],[-0.008419484449616169,0.0022427918937114365],[0.010258948000275858,0.0030529050540495806],[-0.00183929688701808,0.025571200876355484],[0.009404834180763494,0.01972021459735921],[-0.006786793483073453,0.008836275084345261],[0.01634699856870588,0.002616590215562612],[0.01594232495824135,0.004929788609274823],[-0.018308180506247492,-0.007688483989494062],[-0.0008759580904063919,-0.002444926798601407],[0.03064132906726958,0.0032335155986003648],[-0.012755274866154286,0.012769516645933036],[-0.014591698439573543,0.014012699141303157],[0.006860467589182681,0.02314284362125333],[0.0007521893244352522,0.011837994349306238],[-0.006404911765170062,0.0018822734020320778],[0.009444605247510937,0.015189193513766233],[0.016673347732435253,0.018016069851351093],[0.0049750899499985644,0.009907131622176858],[0.0015864686420445874,-0.000914249948085312],[-0.004976909922665521,0.007794821009512871],[0.002192306474768747,0.005494870091186055],[0.0076622436595592015,-0.004671024666440819],[0.009549223400118717,0.008900002391202302],[0.014732501714233782,0.014539255801468186],[0.0053020472832286175,0.030135184057219506],[0.0032893025364234135,0.009403672508702488],[0.005497725364862093,0.009723962949259722],[0.005799096745812351,0.016645125376729568],[-0.0002942365589787125,0.009782348977498799],[0.025989043584496243,0.020873088228861924],[0.014193220954451883,0.0007197027513467451],[0.006935248220721913,0.00805984125076963],[0.005524243817455084,0.0036477172463087425],[0.002044493254316315,0.011003099878609167],[0.012073044034680375,0.018774171821902164],[0.00994658550385639,0.02613126701302681],[0.006128043179822774,0.005557080456525245],[0.00933908849122016,0.00561117964616731],[-0.015119622697782147,0.002778138537756269],[-0.0026113235193708545,0.02182626551916737],[0.03296866748955454,-0.0015425836906676161],[-0.007896489144875818,0.01606449012525006],[0.015589784534291416,0.00465909384111881],[0.005366770515027609,0.004943482181370275],[0.003562861053205656,0.010017594712152009],[0.018300038135750204,0.013859249840108534],[0.009833931345563011,0.014670880588636812],[-0.0043086973911422655,0.019015110822611286]],[[0.00678556521095715,-0.006740632033955746],[-0.009031699918182715,0.005963600599186699],[0.002676094125826348,-0.011835543887754686],[-0.01941586374601952,-0.013700002241036697],[-0.025878455364220548,-0.00883256186383899],[0.004774053694622847,-0.017497772538853647],[-0.01120925115472017,-0.010684040752564522],[-0.002646480080221878,0.009478269719956182],[0.0047891465978582735,-0.01231117649046345],[-0.007543332949373681,-0.011448030850736177],[-0.009845152995286746,-0.0009746804577433116],[-0.0011322214698086762,0.001497285713132226],[-0.00024268665221542757,-0.021641857420595875],[-0.006588655355838976,0.0002857148451133883],[-0.02789510424309524,-0.016163530186609883],[-0.012097951515444698,-0.007323466159290955],[0.0194143618114622,-0.022436795280377866],[-0.01361833530000067,-0.00399800031192183],[-0.013759509576940684,-0.0033386027118240654],[-0.008331900781090218,-0.01557135163566442],[0.012048414759513522,-0.010268536433958093],[-0.009895353950087515,-0.00925827892856675],[-0.004664151968785699,-0.0015393577334042734],[-0.0030191943845991566,-0.005961710853558977],[0.01653389865303185,-0.014728454466013823],[-0.00018470079723175556,-0.015983224412763904],[0.008558241083556758,0.006933259023395463],[-0.003248240639083531,-0.003648646295333219],[0.006406249342396045,-0.006786914985258292],[-0.007611709805645708,-0.02707010542106053],[-0.016246221795654457,-0.002912059706187837],[-0.02859755093279771,-0.013714799841924101],[-0.0015282171836973717,0.0026832766882253062],[-0.0065548212340921334,-0.014797081830747965],[-0.00984681830327973,-0.019287177058627623],[0.006540017388371406,0.0004021320077154128],[-0.008661986406406448,0.01080944118716897],[-0.005019660177491031,-0.004524567108132601],[-7.120621144455372e-05,-0.003927226943720736],[0.0024458223697126466,0.004652059001076082],[-0.01641770554069605,-0.0034590502201311776],[-0.018173318593118746,-0.024149498352267682],[-0.010739212706877995,-0.005660807839890476],[-0.008412410057833188,-0.012409326201891899],[-0.008549438662809848,-0.02429627744132375],[0.007008822428261721,-0.002651457743542594],[-0.01338756024411515,-0.003765230179966843],[-0.0019183845393138394,0.004898862745453104],[-0.004241505947586543,0.00834339438497007],[0.011610237123422207,0.006013082828053463],[0.005688883151738674,-0.010771678824677567],[-0.016069692386399947,0.00928851055385831],[-0.0102564875803618,-0.00016061355143142346],[-0.009539780230161412,-0.0077834042455915955],[-0.02516403490616911,-0.008401190130021618],[-0.012401640527651105,-0.005627289122318103],[-0.01568744857561309,-0.009219038813841795],[-0.01490084060247219,-0.009093869059323167],[0.004925886951420365,-0.00015734776638830984],[-0.0054381250262615175,-0.001329576078385793],[-0.010534193621860836,-0.007186806403504993],[-0.009443050665586107,-0.008000344416011593],[0.0030373759868208084,0.010691866549673756],[-0.005921332187210157,-0.0181042328530076],[-0.0131554528403698,-0.007243183574645074],[-0.006623791925315522,0.005668137285705336],[-0.008052889163797977,-0.0041289549294346506],[0.008398957485598177,-0.0035257808726263545],[0.014405012575306787,0.002570350099915136],[-0.01212361134549791,-0.004630339603836965],[-0.014605361488253248,-0.0027167869870171548],[-0.004579390452257506,-0.006013395206471254],[-0.02136234243283263,-0.025828154884396225],[-0.015896941433712314,-0.0019677960795092247],[-0.005171989905436294,-0.0056161793148157835],[0.0027016719106985484,-0.00646957947980561],[0.001708141709439103,-0.0012143319071288533],[-0.014302982951494847,-0.009639024127073703],[0.00503140254609736,-0.01011115903423548],[0.008034322922933507,0.0015636484284993028],[0.0025964107056118367,-0.010440734065632087],[-0.003267781055648662,-0.015522282558911834],[-0.012433373935135479,-0.029751838429293728],[-0.0036604123614200914,-0.023549220240065165],[-0.0029111062191831,-0.017860523133793067],[-0.0031485999626013625,-0.007769282428487509],[-0.00417859485258472,-0.004040028034265172],[-0.0128612518409976,-0.019623263668396795],[-0.00847669794049433,-0.005425495879749252],[-0.000627073740628008,0.001952251243649237],[-0.006671764859916103,-0.024289057610623166],[-0.010024388554259711,0.0022465717637873733],[0.012413157642610882,-0.0243722734644659],[-0.006226271042602168,-0.028549898216198563],[0.0026989164054373013,0.0036467568347687256],[0.0014486192996608668,-0.006086718972709184],[-0.015513631959786486,-0.011924871929417321],[0.002157258174834333,0.005070666305271558],[-0.009589964887985698,-0.020754333381462556],[-0.0007151025511173129,-0.011407431437472738],[0.0029423320654582007,-0.020894262591142704],[-0.015404073936332094,-0.00815462411681569],[-0.005993992588633185,0.0156467904119337],[-0.010245134105574923,-0.016954553921834467],[-0.011725325691933726,-0.003329983426284992],[-0.00975052145200589,-0.007667774485849369],[-0.010840285956969824,-0.013151943989950274],[-0.010265384209841551,0.0011681676315904162],[0.00844862758771566,-0.0250849240664709],[-0.011193241569038892,-0.01967051637490004],[-0.006923415684207213,-0.0018252975704727338],[-0.01397382968663795,-0.0025795791809403745],[-0.006439611678808678,-0.003391954381288709],[-0.000454878059557835,-0.01321054284490096]],[[0.011399047920276281,0.014676758060840081],[0.020835575571719202,-0.002194212446084416],[0.007811894729650008,0.007840072282554749],[0.01940479284035918,0.00014147661695223946],[0.014997793706340471,0.0075087605797923285],[-0.010854370891944668,0.004632526778465765],[-0.0075831060785030175,0.003143836618172122],[0.00659202433411784,0.006691523400846013],[0.019600574330750326,0.022520165127830335],[0.013008476705042758,-0.004921951161530147],[0.009220935620212398,0.0008351238914173625],[-0.009219744921000427,0.019911872252513906],[0.03541405909461898,0.001749472346093893],[0.020202798864290605,0.01550634814535259],[-0.0012543301522656833,0.007623356689322865],[0.005181044545748824,0.003657103267330479],[0.015591202105998339,0.012423337388414987],[0.01870546729105984,0.011265104135741886],[0.005866100962803169,-0.0006465393521133059],[0.022899442639815918,-0.003318224217767013],[0.01089675818275547,0.00826100067689309],[-0.013431285513154539,0.012708407058941787],[0.01607262198902259,0.00834782280979219],[0.004611389061754022,0.012514624490286227],[0.019170241354397752,-0.009523799015547535],[-0.0016502058258668396,0.0353222989018683],[0.013506748004307487,-0.009070087358216081],[-0.004832329905599397,0.007563433018594595],[-0.005730313572999423,0.014371708555327297],[0.02267586981497486,0.00621212510128027],[0.01805282076122191,0.027655665330981922],[-0.00044837199773033876,0.035260459904459876],[0.004053990876285825,0.01164460042152669],[0.00011132496938571094,0.011603609626448488],[0.00939940211273807,-0.01244217951480985],[0.023769060252081455,0.014405256290141366],[-0.0007736181503983898,0.008560258932217063],[0.009928934483737259,0.021794456946147057],[-0.000454915516302709,-0.002975310516319911],[0.020269076994157326,0.0031410652203529453],[-0.008603621448706257,0.009715613919785464],[0.006171239353268349,0.009682386519335949],[0.005178903416518906,0.013528152394886542],[0.021306349947254163,0.012646706274126113],[0.004303656422300492,0.01303229369683875],[0.0015479698724514017,1.766142356064531e-05],[0.005790995278046519,0.0003527138177777561],[0.02243391829051021,0.0005036989785865416],[0.0062034714917899485,0.0016141999114436254],[0.011554362549218437,0.0006697715118131989],[-0.010463020573307155,0.004458053722483374],[0.006289291527653213,0.01754053138690757],[0.0045873925316861205,0.01333761434755697],[0.003451108050442237,0.019901584791766475],[-0.0033882173467413815,0.004360571102541005],[0.0061091946390256285,0.012040917566952131],[0.0015168985244972959,0.0074295007328989],[0.002527211785100657,0.010947714481025743],[0.020206361176417442,0.011949210680102379],[0.029792358443648914,0.01373412643217438],[-0.004034218380621235,0.007470956996310788],[0.019284542124614255,0.002128316092511703],[0.004049438422029696,0.018235258910909276],[0.01768278682989119,0.008153044331430164],[0.00500524329366115,0.02034509221276195],[0.005339783788481765,0.01171839284405407],[0.036254016992212805,0.01187377576061252],[0.0013119459143695789,0.026516697257595156],[0.008628266435796667,0.016284747058346347],[-0.012770770717490377,0.019140798885535527],[0.015305504513315102,0.02171015977794321],[0.008325496020821409,0.013931549976218068],[0.012421547792456689,-0.0014430778732289625],[0.012130982081022403,-0.005688025620683494],[0.010400603262990644,0.0048576951526951495],[0.01660660062201525,0.013855223496356754],[0.02308697822747607,0.02065232692984707],[-0.006585920662796897,-0.006425890622307857],[0.008096416745027977,0.004866433536904759],[0.026181856413347766,-0.001044975048293347],[0.0030622445098439973,0.005982753030246836],[0.005532280669586283,0.01674688522781983],[0.0064889668537616955,0.012199458265915727],[0.003421800487023394,0.02022891159858298],[0.02554239002918288,0.005923181824237555],[0.006829915430402536,0.006389231745104269],[0.012040484844983398,0.02533291679011585],[-0.0028651644906086907,0.011593780887113948],[0.011728393321595691,0.008055853832577554],[0.00643155385088206,0.018273158131673774],[-0.001021444928319635,-0.0018926067912878434],[0.005699162037470192,0.018590238425663968],[0.000944448070443018,0.009228767744722725],[-0.001064554276908258,0.0018904277334787563],[0.009258672481322559,-0.0018985947152181804],[-0.009475739047277228,0.024869746265430925],[-0.00816085035068476,0.011624532181914364],[0.011312961101163794,-0.009515193800884782],[0.0038766558712095655,-0.011881535724751579],[-0.00042255983756818335,0.015027471829182381],[-0.009285633311417843,-0.006456513988425801],[-0.00023380912264039374,-0.0041882741849580025],[0.016269172311697375,-0.0065811449388381935],[0.01762321985361916,0.0029079873702805895],[0.008668037410805855,-0.006356632374825387],[0.004014096226822318,0.022951211082272674],[0.008768671230701708,0.014764159821849716],[-0.005450263548109216,0.0242244748038962],[-0.0016665624683043921,0.026588246312328916],[0.01529537057408026,0.02563822243240033],[0.009321278321015604,-0.010693634445391665],[-0.0006760822255008527,0.012918063894769845],[-0.008604356612977072,0.013274672460159535],[-0.006073062382034957,0.013349869678601781]],[[-0.0006348052937182418,-0.0021721448102286142],[-0.01060808601843323,-0.0020543695068077866],[0.006735336866557459,-0.019265246126502905],[0.004075001692281341,0.012057064492951254],[-0.006159889868071888,-0.01537516097045859],[-0.008306449734465367,-8.793889768494125e-06],[-0.028639464974191703,0.019570446853370442],[-0.009532547869581938,-0.01418295450934921],[0.0010119358922026154,-0.005814102180609474],[0.009187341058340277,-0.031545232742775424],[-0.0168725400473122,-0.010780460452873944],[-0.010313385076061459,-0.01283936746956492],[-0.019669229103831107,-0.0033319477216304915],[-0.01829189744659279,-0.007396284226563139],[-0.0257201405682239,-0.008745915751959559],[0.00901840087434489,0.0037043146725860387],[-0.010971454008643714,-0.024858841159023877],[-0.000650279064551766,-0.009606100746885492],[0.01127852110677617,-0.011291371859982684],[-0.007281856953087143,-0.005687276457980077],[0.00815303387444816,-0.007731996507561629],[0.0019446004587012906,0.0014084789221581236],[-0.014298242960035311,-0.0038869027717948475],[0.0026566911521183636,0.0019771933840090727],[-0.0207697148562631,-0.0036087166082572814],[0.004674736106292889,-0.002730415588812796],[-0.014520380915146704,-0.016918384919353147],[-0.013938332571104639,-0.02107812244232653],[0.013131122992718701,-0.010393081520358633],[-0.01958033322904911,-0.020115323263240774],[-0.0071530717653931365,-0.008827624414447337],[-0.023574078011605545,-0.009928805980990541],[-0.00013633339127960177,-0.01952161472053905],[-0.021431266095901787,-0.00629701732180688],[-0.005231246852295114,-0.024122241456571884],[-0.00894408779666285,-0.019575937552533788],[-0.004669575961696145,-0.0009548994330382544],[0.014597068735374872,-0.013511877491488484],[-0.017907977915503265,0.005837348672760245],[-0.014518763820570152,-0.019509359437985464],[0.0024919843911909113,-0.003280905687952953],[-0.004222402787526452,0.01187084055570548],[-0.023935202682464487,-0.012904012564936555],[-0.03192009848854098,-0.00889042102508722],[0.004545198662998617,-0.0021502315307872803],[-0.002778558329235136,-0.019219549161833615],[-0.021201174802848256,-0.023903127060430487],[0.001301822810358073,-0.013159693399308512],[-0.027327074015008106,-0.00905810163949916],[-0.0011573213818121815,0.0020001015920186583],[-0.014956750784996758,-0.03040197293065121],[-0.0098288478515645,-0.023500857500078767],[0.0016904698259539927,-0.014769570602021515],[-0.006224019889439758,-0.0030355675147371733],[-0.002240097658243718,-0.024432225467580747],[0.007449420224343671,-0.029730351145382677],[-0.007462347840728584,-0.008182089832626147],[-0.002225944864008303,-0.0007861734023563796],[-0.00369020027001091,-0.0025838450587126545],[-0.00538966797555235,-0.0022491137874403218],[-0.01950621308872648,-0.000478767230151274],[-0.0019370472921297845,0.009414075120465928],[-0.006839943577565434,-0.011786640555613346],[0.00023645410977164873,-0.007266777057182649],[0.006211014991831802,-0.00735258263209949],[0.007905350115956403,-0.015185854103218713],[0.0003321208446130867,0.0018613840250830732],[0.000734958913425298,0.004006085280642013],[-0.0028654600861997698,-0.028815965128423424],[-0.008592954355987574,0.0011091096385273732],[-0.010160994237104556,-0.01636549582065779],[-0.01435291482365236,-0.004824074277664386],[-0.0059075086235799434,-0.0141948823300883],[-0.014163852833138311,-0.005468770896895294],[-0.017139641399699458,-0.018576021818413863],[-0.0121275073783175,-0.007505591945261772],[-0.022594419803291035,-0.025581673631140337],[-0.019837507897561342,-0.02757900293824103],[-0.0055881678499951635,0.0007109669998478554],[-0.0021778683276107657,-0.010501048361303507],[-0.02133177773276687,-0.028543886026331327],[-0.023434112371230706,-0.013311387169132978],[-0.007926273211772146,-0.013556248655996831],[-0.009312253164877797,-0.0011065901981516806],[-0.010601840489435434,-0.00873186860964599],[-0.018857534154793132,-0.002240523018233409],[0.006934274116420906,-0.00035820716581422285],[-0.004730999118899239,-0.01444417049841446],[-0.01679047624617072,0.0011222462349746414],[-0.012760130971193218,-0.006236492267659753],[-0.018328674385137276,-0.003564278324907392],[-0.03852153105684263,-0.014661273409553782],[-0.009164550341233297,-0.00256034586555299],[-0.007012058393361168,-0.016710281093402723],[-0.011328527391473879,-0.00641732671921826],[-0.012212317582739825,-0.018429022813313874],[0.0013260211893767943,-0.010984308700487132],[-0.008958996555133634,-0.011858364811057202],[-0.001832854532849469,0.0031607996745418032],[0.0004201578170207605,-0.013452811770767587],[0.006968512505923587,0.00769172590177407],[-0.01743661607241632,-0.01306942594461986],[-0.004646564109693923,0.014093782650649068],[-0.0063764171870984215,-0.017133694582761566],[-0.004318781271702854,-0.003534553326284365],[-0.005217361760350974,-0.023449291755413573],[-0.013844469471202358,-0.008287809059255953],[-0.012001934694709568,0.013224827113966399],[-0.023434393940859954,0.014522137085559376],[-0.022478188387175958,-0.0274580217328781],[-0.014637428418041094,0.0018984902285883608],[-0.017981789887703728,-0.002468978834709036],[-0.0008810919213618423,-0.006676640308792653],[0.0019771029289125997,-0.022042227778184348]],[[0.028026409855314408,0.013237806260169542],[0.030230792318711418,0.012899929513956325],[0.015366060343973774,-0.001522026498794867],[0.002849994830226625,0.016890102735816787],[0.019302533045786528,0.0048581140493159265],[0.012851219399614177,0.010669618632755883],[0.00041086265569438096,0.0036440748285929236],[0.012716735648876588,0.025502652851976965],[0.012213097216403743,-0.008605062895082768],[0.010419220014959499,0.04502792550612672],[0.014330522447490637,0.010191925351658216],[0.014816239133179511,0.008150429481253498],[0.004439282845684967,-0.007805052441979872],[0.014372055947446052,0.002279659531005942],[0.02040086210818264,0.009802413253278157],[-0.004684741161875153,0.020358780917467283],[0.00032085331602267863,0.0033757011324021904],[0.007024969539583523,0.033045215099030835],[0.012389121689561916,0.01642823693527223],[0.012986131054690007,0.013200653139699942],[0.01659556153990951,0.01721378002073503],[0.024506819517948742,-0.00870961723219281],[0.010769433065023322,-0.001365972083353383],[0.010392677667998179,0.007222961581900865],[-0.0005038516406513879,0.018355295002614],[-0.00013354571175149774,0.010964904459669815],[0.004094025612913203,0.017027596977818277],[-0.007950952934371643,-0.0077224473422134975],[-0.003790571331190429,-0.00044723984607803586],[0.029503264790713656,0.0037938471861372514],[0.010102988560733987,0.00014247874785327367],[0.004910493725185156,0.0068042855911437435],[0.012738613699220042,0.03260513358293745],[-0.0002618700623984985,0.011651518126507329],[0.015623299807563391,0.00638573739001847],[0.01713802491180427,0.005052510386114579],[0.0034367920012914415,0.02141069378407628],[0.01501746074448536,0.013809742393154197],[0.01448481362085358,0.020903617735010805],[0.013566323162050326,0.01019428410398994],[-0.016370605825743054,0.019250407836638995],[0.007040448342147106,-0.0022598911305572356],[0.006447766030497912,0.006013377885440314],[0.010831023582337694,0.014813262497859823],[-0.0012614872397482832,0.012333794129064856],[0.0022046596974297033,0.026688454824076627],[0.01188850522973528,0.020443084793557324],[0.015445106391503354,0.021584066041049746],[0.010062947182235465,0.0060750664529069034],[0.0014473191504358115,0.0049306876981714065],[0.00255536881486935,-0.0026655577703256204],[-0.00038138329773091127,0.02689478183875268],[0.013603178195246753,0.020581893759732232],[0.027853814747232405,0.014297614618607762],[0.00948946203264979,0.035538538480892536],[0.010831109668387632,-0.008253677168691948],[-0.0011992952479173997,0.01812849694817359],[0.00774240874782313,0.005541323314701625],[0.008313282778337748,0.014628690145096025],[0.012268727282960133,-0.011010849350669457],[-0.009464216676344367,0.0060483208963262695],[0.009744944879336304,0.016756884127472463],[0.022605879753649586,-0.011832298016267999],[-0.014115237456205854,-0.009518498497802156],[0.01575618571713994,0.01117221303890291],[0.00012002549474941385,0.02317507954589935],[-0.00927937045273477,0.0056500527171032995],[0.018639056141876793,0.007090445392306885],[0.015764401722875087,0.0177118296810994],[0.013387956128504228,0.021391537822864366],[0.01085692292094105,0.01768799325814482],[-0.005207872902359886,0.015157757308659252],[0.00942250887631491,0.0012379232365117118],[0.027420519733009914,0.011256747020822433],[0.016951266915873894,0.028260627846468215],[-0.00989624469906508,0.00364202442414479],[-0.0028856665740209972,0.0004663882488678299],[0.008635292346388981,0.017724799101913793],[0.007101129981542944,0.013190142327937205],[0.0014720791980948713,0.007751620050526081],[-0.0006728082695840742,0.013161484706758899],[-0.002597413217317817,0.0111767755417904],[0.01253744069560724,0.018798365130563394],[-0.012710328213756925,0.004700859566480137],[0.0229598304558857,0.01376032415382866],[0.0032967473972961114,0.020066739047629754],[0.018196037452756574,0.018964455999062255],[0.012077807732897527,0.011906546316696996],[0.011215142374402636,0.020408124965283027],[0.009716758548368638,0.003691201201469108],[0.014907113126535919,-8.723665560018412e-05],[0.007768581974693902,0.007591433332961089],[0.008110374145255544,0.00992478931472533],[0.010640571812803975,-0.017014194416668436],[0.01926724767196809,0.017706962742374023],[-0.004438274459348323,0.010738327940623163],[-0.0033151679885701285,0.03300648158429468],[0.006957507162859029,0.009893724769671791],[0.028397718777027788,0.012141059206983088],[0.0058767917162998815,0.039998622544570143],[0.01656234911132446,0.003648023774945885],[0.01381627803309645,-0.005733380073435921],[-0.006296853657545389,0.003196082368686518],[0.015702137987571658,0.017831132546746797],[0.009207668046392179,0.01348210264949716],[-0.0019202017750579435,0.021413988280484075],[0.0025603232307572577,-0.007094114135964077],[-0.00969560226844495,0.004003915393407565],[0.013793776069596517,0.018040903004458722],[-0.0037520222555961617,-0.011607798711038106],[0.005450788273298485,0.01099980110603278],[0.009318172526200876,-0.001745787116962663],[0.015212358246630697,0.013412934493043037],[0.005165912484674933,0.016158995898520274]],[[-0.001570949303515033,0.008474520990589185],[-0.017171217057829907,-0.009442529693545981],[-0.003540674223589078,-0.014541708052697912],[-0.004440005289618787,0.006060156515359745],[-0.0065601949774931525,-0.021394022501545634],[-0.006509160396323639,-0.003007397431292199],[-0.006327373298196404,-0.006256286021003154],[-0.013081063920428538,-0.015874627968971412],[-0.0030397884193863697,-0.0164626355869026],[-0.00852501812193581,-0.017114580591171647],[-0.013418948334980604,-0.010055680431819156],[-0.026577676683958554,-0.0016739048346617452],[-0.006596022150496411,-0.011931871243676768],[-0.016912971203077613,-0.0031850445172173568],[-0.013716603121557416,0.012223299970315715],[-0.002380608472340223,-0.00470811460582636],[0.004515286614730815,-0.008690221388783712],[-0.003591381094626608,0.007192179674715767],[-0.014354080623197254,-0.005254011896395496],[-0.0065428469930356925,-0.000977481545010774],[-0.007184741205519961,-0.003850969758701881],[-0.00895270992216744,-0.0018396078833706922],[-0.02308397760529381,-0.010798946552102343],[-0.0008311889580111775,-0.024064571113602082],[0.0026438332001902545,-0.015004255454855354],[-0.0016950348035214087,-0.01879047275325167],[-0.010208788213818775,0.0030169989572804818],[-0.00660641013212325,-0.013997844590114378],[0.013167481367647922,-0.001803640665880071],[-0.005530315513499126,-0.020578162925212938],[0.0026065733186588706,-0.013708095711744141],[-0.018916089033526044,-0.015128508449204981],[0.008550431906481101,-0.005776104788520089],[-0.007753804597686112,0.012640534784621231],[0.012657770541587902,-0.0021944051187718664],[-0.02514769093247999,-0.010241984993052894],[-0.0040616868331252685,0.011765197866849833],[-0.011704008855057292,-0.00431996152889842],[-0.01683999738596787,-0.005833505300876386],[-0.01166418005635426,-0.0031654012474678396],[0.001886394566231716,-0.025741421186524813],[0.007512478445698775,-0.02627122508890999],[-0.0005165563826472841,-0.011436319082303014],[-0.006771374838589915,-0.012080117584950983],[-0.018304389887699384,0.0036671623863692568],[-0.018177173920063815,-0.021405417757411307],[-0.010652556723986926,-0.0002258975033460972],[-0.0002434562587242963,-0.0126959108747367],[0.018303511415681026,-0.01751436793258645],[-0.01147791853078726,-0.005014099821948194],[0.0008335664808389894,0.006962424695067328],[-0.0024406553263549144,0.009606408916262339],[-0.026313671737161624,-0.013642889542283078],[-0.02973770054955124,-0.02189773580199043],[0.0012290898900698785,0.002206288501483777],[0.010633391497489358,-0.015276459174926805],[-0.009357549219101832,-0.029849319223207507],[-0.013065673515890344,-0.02256017694718037],[0.014315301998233327,-0.0037825314972703933],[-0.015177897232625772,-0.005945743469267378],[-0.01622386283795675,0.010724205737269305],[-0.01797449291691805,-0.030755333614173277],[-0.002751127683763045,-0.001678191695151964],[-0.014750254083335542,-0.01764603705303515],[-0.004234771972822104,-0.003371635255025531],[-0.00880269911265153,0.004075351688731802],[-0.03214100694750169,-0.010973336605498634],[0.019441850825024202,8.327854550622618e-05],[-0.005068154527040553,0.0024730888117570514],[-0.015641648553829976,-0.030562069882542304],[0.002147533450238125,-0.011324775080682652],[0.0033117017120061977,0.005371849744248416],[-0.0027799638984822347,-0.0046849877072470975],[-0.0013256395841235277,-0.005212682616968133],[-0.011520221496624164,-0.011230430541587219],[0.008618635812139668,-0.016987113609307023],[0.010603544680245904,-0.009743500177597491],[-0.009270513095192747,-0.013292600120846617],[-0.01588587307477856,-0.011144136671805133],[0.006002943249600838,0.0014964331823807337],[0.0021959868384685893,-0.008624136077728568],[-0.013472207373723828,0.022732542324271375],[-0.008955779562595826,-0.0143998654676617],[-0.00638219565024166,-0.009696921709496915],[-0.025896425972088435,-0.013075967484426906],[-0.010035815838937293,-0.0065065893390794756],[-0.01237595015955692,-0.01981925409012261],[-0.0044601861950588784,-0.005405644265811204],[0.012809429901565432,-0.0036926540021557006],[-0.014085158591331057,0.011157974625821134],[0.00404297964565646,-0.018920265826211115],[0.0015257688253767798,-0.005140162716562948],[-0.0039143328934327926,-0.02468636097807851],[-0.004442350587746787,-0.0307381486554702],[-0.009665553526567254,-0.005835214994835807],[-0.01425306455702915,-0.00756700020561447],[-0.028162214463381855,-0.01783742898845142],[0.008230555950055405,-0.015752217925002667],[-0.021919494394293273,-0.004007974339075941],[-0.003778121723143631,-0.013924899596868764],[-0.01761452153051549,0.009540270489938872],[-0.005635472526086128,-0.008106907606548155],[0.00791216814733827,-0.010049085355831317],[-0.004989139136887506,-0.013574949848734346],[-0.009830858528622463,-0.009501566569479923],[-0.011681466933618758,-0.012212822280351768],[-0.02418812927768505,-0.01951726635072489],[-0.01506669193476101,-0.023812794307841112],[-0.007431400496287552,-0.00501666044074545],[-0.006248095488533854,-0.010917842741916818],[-0.010635318759329599,-0.006303485971619459],[-0.005262051663433128,0.0030634507616606097],[-0.01968474579533323,-0.001311615196732495],[-0.01490251855224689,0.0012094323886657663]],[[-0.008307351270667718,0.012437370350770884],[0.02158643494104751,0.00315787093211993],[0.014641926400254846,0.015945814901312704],[0.012928956084749213,0.004830017067552478],[-0.0005388608875993732,0.021370410251547418],[0.015684131554332126,0.0041433921390312935],[-0.0008639960032378241,0.0038228486679298093],[0.004562736289811125,0.006767337062717588],[0.008069771527913196,0.005937091375511738],[0.0008795659845770823,0.010988948326632225],[-0.01578164253204176,-0.007946684341392457],[-0.005197337439122252,0.01940837444589099],[0.0017465935154035495,0.023442357198490336],[0.004582254446090943,0.010637385768655415],[-0.004889264374020602,0.019468464886218666],[-0.003205247335079218,0.0042162864486537605],[0.02338945966705996,0.021542619966578212],[0.0115058416557755,0.01782145924237033],[0.019492896770893126,0.027758916414048387],[0.005163371176688785,-0.005994984264879807],[-0.00044005296602486765,0.010904756512036987],[0.0014088929120763096,-0.0010163951656703924],[-0.011157513943182984,0.02331235927525726],[0.008406661239911682,-0.005576494827401442],[0.0017293565655448575,0.00770250161330529],[-3.5253888200204e-05,0.00978517639308253],[0.010245942052868972,0.012725458030043317],[0.010968174915304081,0.01140860046619561],[0.012762683898529897,0.0017197049491226603],[0.018271193376001624,0.005194472757555726],[0.002166108592855115,0.012249248969448675],[0.026658028420602362,0.007101849797902634],[0.02256831581555567,0.00553793737452944],[0.011132220877420926,0.014675416058216805],[0.018246880942933183,0.00621707733954008],[0.010716321037215303,0.01164743619681668],[0.008997276990020226,-0.0014118543298257797],[-0.0013326098136171893,-0.00554294780443602],[0.024198425292629125,0.0036950150242532334],[0.00820403708354507,0.018755787789562592],[0.002511537197383947,0.001999275265420099],[0.00992617201343985,0.006997568866263373],[0.01460102674140925,0.0012931092113281657],[-0.005275586301357628,0.005430336553815634],[0.019582472669122025,0.006136506959325716],[-0.0038875385545438425,0.012836622961604843],[0.008771958466371224,0.004418646034395592],[0.01274258913353757,-0.0007089045236285734],[0.010391109075886723,-0.00969865134423089],[0.0057468387166223125,0.0059722787596559225],[0.0025805670251316717,0.013847922528200761],[-0.0011563781982316338,0.020374823113270303],[0.007924404493983378,0.020710064075958462],[0.004204464812706983,-0.00997128798416597],[-0.009357160316115025,-0.0022924963051419857],[-0.0057283571772913855,0.01524382481509758],[-0.0005923434416682987,0.019893689440923137],[0.01826676510063267,0.006034741309852357],[0.0035801838528840622,-0.0008567090821222851],[-0.004456608020875064,-0.012591697919961035],[0.01293608437754735,0.008778276634556681],[0.01874690956743994,0.006555531500780601],[-0.01210804665871812,-0.0009189842703891799],[0.01451225166854398,0.007637573776902535],[0.006826161030844375,0.022927907874279032],[0.004717052970735802,0.018122164092528564],[-0.00814767582870292,0.010182086439752217],[0.009254675349716208,0.013669437766049017],[-0.008426598626837064,0.02286849882489717],[0.0013172752328302797,-0.0023089177436997708],[0.00961786246685845,0.00481882547845875],[0.010095366046689432,0.003648102652564239],[0.010157780229773537,0.0007118058262522162],[-0.006359508110873516,0.01558614732705008],[0.00046979537183535977,0.0039588487392621325],[0.002409999090548286,0.007802241811991234],[-0.0008524014153881958,0.009695032770615198],[0.006785674286624347,-0.01263832358300205],[0.011309188989089503,0.014008685280482821],[0.012429935551445831,0.00740528889127152],[-0.01097760802651388,-0.002298254993194692],[0.002453951735342675,0.001160280752818928],[0.011274028670441345,-0.002379558187807226],[0.00223257429863289,0.028580545903948647],[0.013786553163129349,0.0008882433340288429],[-0.0005555023639933896,0.01987947449860668],[0.0003758117838360907,0.024072677969695998],[0.008460110174184356,0.004872870840786785],[-0.005043566913712633,-0.005038290712223787],[0.02164848290774205,0.01320276783795144],[0.02215314486544931,0.003309860242824377],[0.006558794081136841,0.008621735181198582],[0.008376871853077353,0.007907184274474406],[0.003937782917917242,0.027801482412087335],[0.010903936512978364,0.013717431058296103],[0.02291104696114171,-0.007312933333984591],[0.026733867467729402,0.002748174951344311],[0.015347177687424197,0.017959096313746096],[-0.0027252710263123313,0.007548041954816176],[-0.00749985939552215,0.004534632602436451],[0.0058203722177937135,0.027050157233114578],[0.008163116312399117,0.01491218252682636],[0.01662610014180079,0.03203911877807725],[0.007506154693175426,0.00932895188294008],[0.008214579492519723,0.0062493035806912515],[0.00497602434661519,0.004470543099454869],[-0.005228141515452438,0.005841829597468393],[0.015111522580066502,-0.0026105654317756877],[0.016338766574901173,0.011021412378941723],[0.009162646823536834,0.0046029725321660876],[0.009484986636383535,0.013820337066303427],[-0.013003020273669931,0.01145759548433491],[-0.008990175962235137,0.008277345086609482],[0.02010458961692477,0.0032171016815619553]],[[-0.003620226485604262,-0.010997716222648229],[0.009013284768673196,-0.01344991669050716],[-0.006327314470527658,-0.015023173596519826],[-0.013955173206488019,-0.014052900834330577],[-0.012987535632897012,-0.006785944076474429],[-0.013434137876629703,-0.019456815251851882],[-0.01435384706207194,-0.01155774412356163],[-0.026265605717550603,-0.009355886517016031],[-0.0075340816974080625,-0.003937424203460243],[-0.006163342108228465,0.001863495825703455],[-0.004217736916179535,0.004587263958718889],[-0.0036535290933298594,-0.01366651474775639],[0.006025723237225163,-0.007178199961889371],[-0.018588844862972867,-0.021510545676600434],[-0.006193115537910721,0.004046206633587963],[0.00013459332508533608,-0.0013526871037216298],[-0.007215670406540692,-0.0053946894990174335],[0.020937567453329864,-0.017038682254534858],[0.007859450164008668,-0.02649839886474974],[-0.006724798511936804,0.003198519757609406],[0.0023115868954051906,-0.010002951467796835],[-0.012031834522907467,0.0030890296404870125],[-0.013681524870655899,-0.01662825887997576],[-0.008051869137453448,-0.005424237916408526],[-0.005574679533950819,-0.016548084496400425],[-0.01702093344718222,-0.0012278592695388103],[0.001046150892170676,-0.01378056854198635],[-0.002125281610782576,-0.012420191470139697],[0.0068842753789220895,-0.017438262154294275],[0.022783300850881615,-0.00703847593636315],[-0.006732963335924654,0.019169818062620535],[-0.004934617459466854,-0.005749928603328511],[-0.008372666398755802,-0.01858417477262165],[-0.005418049997609491,0.0005789588469937047],[0.008632858757652913,-0.01730974275939317],[0.001513846315093795,-0.010170111874447664],[-0.009832119437025128,-0.009690478383169618],[-0.00823604179602495,-0.005999996939667223],[0.0029183057680776496,-0.01847638257047549],[-0.011609361228925667,-0.005529718822258879],[0.0014471026965431205,0.0024023766930827014],[0.0012509043937701215,-0.009899574515356491],[-0.021546053239131883,-0.02176817030282636],[-0.010433216643963144,0.0032127127616381522],[-0.003789323072947566,-0.012602566839682482],[-0.011208846423412583,-0.010771243390787716],[-0.00520247950275135,-0.016355426851491314],[-0.017494601326623022,-0.0030125858165014514],[-0.014373218545492294,-0.013509366373985362],[-0.004325310700169245,-0.0005846339620359836],[0.014906960506566688,-0.012829864061557453],[0.004510134101492021,-0.0092492739740204],[-0.006840803757780095,-0.014403902148663314],[-0.016255812544769436,0.0026966296950082292],[-0.0003403349721508281,-0.014845540235440758],[0.01420615306447117,-0.012312402645409254],[-0.004926928493284608,-0.0019309246858949755],[0.0010893505791955073,-0.013242764282550033],[-0.019727388798621646,-0.023721763022387835],[-0.0008314327858817035,-0.02217271773380022],[-0.026144637869299436,-0.006776635247955956],[-0.007899069807365475,-0.0030954909237313082],[-0.009728877948652851,-0.010529664115153792],[-0.017798769097606255,-0.009386498912358817],[-0.022694513774695696,-0.005623433165924202],[0.008255232323087874,-0.02158111481412975],[-0.0018949432792580304,-0.010656902115966729],[-0.007744273411042847,-0.00897860091387389],[-0.00590683435841054,-0.007225518825926649],[-0.008964403846875567,0.01581871647007684],[-0.0012663634425610255,-0.009749476907567004],[0.007980060114800073,-0.01975960732094319],[-0.011676349921712096,-0.002220500986005495],[-0.015186224786760374,0.00017881000667692163],[-0.009453885238702945,0.004857889591385259],[0.003561763948193072,-0.006385178800670384],[-0.009372037841808383,-0.003586058219935398],[-0.002972381625636845,-0.011337610873713712],[0.002464168992286817,-0.015303354483025958],[-0.0007722101784437777,-0.022112505572273945],[0.007923785304375488,-0.013841904424578817],[-0.0004345498712704406,-0.01119336260885684],[-0.011004940648249726,-0.0021606642266812684],[0.004997348162282724,0.006962149948072037],[0.002813977008422773,-0.010977318310246866],[-0.002675520076910695,-0.012778897266000325],[0.005879036372822903,-0.027471221629105005],[-0.008333034900550311,-0.02478164564748004],[0.008969387930420122,0.004335790553551599],[-0.01216554055525972,-0.026560749357078],[-0.010907941251296415,-0.019304520940145634],[-0.017263011720951356,-0.02025884144228642],[-0.008975195417201112,-0.013884430062372687],[-0.0002654153229335616,0.003375601941199939],[-0.014766414988828856,0.003680764781943009],[-0.017032860556747218,-0.011722479215227863],[-0.015152352593061356,-0.007098745927522489],[-0.00807176054900155,-0.01624009525425502],[-0.01856560828144487,-0.009923000760217616],[-0.007304972980922236,0.003785485081754143],[-0.0019502596998511787,-0.020895212830573443],[-0.018002614518638136,-0.015397445449317594],[0.007170908618751576,-0.014753038553603902],[-0.004930983822211264,-0.0011484023514206467],[0.0014152143846295408,0.0024757245692140872],[-0.015864434792249024,-0.02212320158950506],[-0.001975341538580122,-0.0067432433293623095],[0.006287632146868289,-0.010834737925847646],[-0.0018887576062274012,-0.0039387445222470036],[-0.009662070688890625,0.0018648465791400903],[-0.013118038388340242,-3.4610616438718215e-05],[-0.0018653663044921037,-0.0230910699682457],[-0.016310700389302258,-0.01266437271238886],[0.023773292335830212,-0.011386377597220734]],[[-0.01147476864294074,-0.011905520514564541],[0.002801941335634328,0.0018776300922025819],[-0.002241433063470247,0.0067437844217286234],[-0.0024341389846895497,0.011365720440438777],[-0.0107988146037172,0.009987059622168575],[0.010382681987083456,-0.003869069700916465],[-0.009841143582116508,0.011966441818980702],[-0.003339168337997852,-0.0023520027629990213],[-0.006163412245062423,0.022021451736509958],[0.004469596031884728,0.01608632966104491],[0.007043965397778357,0.0070834116067031725],[-0.0017265709718076363,-0.00043768061772571154],[-0.021556012300210838,0.02124342195450472],[0.005865858715146813,0.0028369497185276953],[-0.005416004672522646,0.01776573732479974],[-0.012004393937390124,0.0052480001217737994],[0.008418398105807034,-0.0010380449779143538],[0.001088098966034436,0.020595297077229055],[0.007704903840080137,-0.001376238706818834],[0.0011245425773516468,0.0208253480689791],[0.0015346557447495862,-0.010484418777592399],[-0.006031344308370266,0.007217896294260734],[-0.019752336018347656,0.006221745830097655],[-0.00548252108624646,0.014730974258821269],[0.004735304877199663,0.005006082505078644],[0.0025245981840082764,0.009886246536855752],[-0.005696501341273424,0.012656859632226259],[0.002379142764966837,0.0057958317672271034],[0.0018240074768360566,0.0023457432804585713],[-0.013306882353014842,0.012471655964855508],[0.00041491132391050244,0.003810976784264413],[0.00618547519404509,0.005264490729365017],[0.0019433211568419032,0.0023958150796804436],[-0.008658330447660808,0.002179928986366448],[-0.009869316446475615,0.0015294393131209654],[-0.0002565224448916704,0.0022856676341690974],[0.022391985362040796,-0.005168513197724333],[0.004319124489069485,0.0020093688891478544],[0.0026198737829942,-0.00016855775153160036],[-0.012448137366714011,0.027844602179632114],[-0.025502724313058996,0.007885768932939446],[0.005068000838227611,-0.004263723411068101],[0.0129711825744453,0.006922659142267889],[-0.0069713074373077485,0.01755986789852227],[-0.002127546146682616,0.0030809634070572594],[0.013647527773351901,0.03487289892699362],[0.010241052087679467,0.0011463702710192102],[0.004853564397395044,0.009320462466592312],[-0.01140011602423687,0.01698516205139287],[0.016746020462413212,-0.0002474174508004328],[-0.0021430835095306447,-0.017484582684216456],[-0.014372810899036855,-0.0044642398412996515],[0.024474643905492977,0.027029121824162217],[0.005869450528243606,0.006201591802580405],[0.00816861606164372,0.0037044898565618705],[0.0009722855333252084,0.015225394464097987],[-0.01733525979950488,-0.00756926293042555],[0.014059279578951832,0.007349431372110237],[0.00867431550599064,-0.002319588799032189],[0.00590234962087484,-0.003401091843862634],[0.009014907878767986,-0.008158060951489209],[0.008946622176904706,0.005133991279838806],[-0.004587026166470541,-0.006066803616232932],[-0.01826771815110596,0.002990142192255168],[0.014970627132406818,0.009642140552670743],[-0.0030624336696694465,0.014152535635201038],[0.002502584800582701,0.00920000502592709],[0.005277581814297756,0.005822750858131586],[-0.00607649037329141,0.029279030089703256],[-0.0030736867719696128,-0.009504738194496805],[0.005068077345519382,0.0021327098973221974],[0.00828239114314366,0.00017330380161125944],[-0.0029820254510667253,-0.0009527641777112254],[0.008786581740552227,0.00876350549521485],[9.67472670960847e-05,0.009302277949325446],[-0.007650140511345761,0.004213758458957577],[0.003208930555810495,0.00039178278168246856],[-0.0077986508696650135,0.0076135346787856405],[0.002828356301792151,-0.008608004812907744],[-0.0016694454771608049,0.011523936588210488],[-0.0033255849060712292,0.010310495122928776],[-0.00615160057337679,0.007228214020942374],[0.005188421108218332,0.013587140960025291],[-0.00927703414702799,-0.01764748470499844],[-0.014227636371978377,0.0043121979899824695],[-0.008688784948266266,0.006503685279581899],[-0.011400580525929084,-0.011260837570180081],[0.014643994325861973,0.009903403818879991],[0.00673831482650507,-0.004766576735657852],[-0.011328630099125903,-0.00266779632426977],[0.0033936852375028815,0.004587130955111688],[-0.000550742537421101,0.002286446370083433],[0.004218619623286093,0.01185414545416034],[0.016417553199604522,0.008735349415575383],[-0.00995015710773572,0.023269086652848988],[-0.004540269456695377,0.021509337879224464],[0.006733821496757448,0.002394504673393233],[-0.0009315637816910815,0.011676160943219901],[-1.0680251256978278e-05,0.01732089031109198],[0.008034820285311483,-0.00805445933496791],[-0.006160528808640871,4.390506331646517e-05],[-0.005742559409510358,-0.010068231114223633],[-0.00014559409139748735,0.016348234451668324],[-0.010661473075387545,-0.010141666095950614],[-0.019021183566811678,0.016926462201941037],[0.00039974276161280496,0.0018781579918131046],[-0.0009580254498558645,0.0005378543831187924],[-0.0020413907262257763,-0.007988537974288562],[0.0018394604826098093,-0.003636407410579948],[0.014010750370578237,0.005649611174928919],[0.006008107758934603,0.008244868373195345],[0.009113593105306295,0.02584214029191096],[-0.0071989068996778606,-0.005101447356744648],[0.005118565126734442,0.012505219236790065]],[[0.006049492905698228,-0.0025974001738224193],[0.012479281900393695,0.0007730807109648612],[0.020280521598054158,-0.004601362237867182],[0.009336332441288082,-0.014625445276488559],[0.0028164787847051245,-0.00261224147602701],[0.009393240584556524,-0.013458467786091131],[-0.001812825322024777,-0.023709539953941264],[-0.01236072446443903,-0.01010608973778627],[0.015256270058724397,-0.002868545263010041],[-0.002894813734666517,-0.028943974245106144],[0.010783256274822694,0.001975103158322893],[0.002756790431071232,-0.008347611492569247],[0.002581281841915225,-0.02017904905315859],[0.0044637196305510425,-0.0017902853355599164],[0.004202141545090686,-0.009154666949156207],[0.008855332950652522,-0.006690543833910481],[0.01294699608487777,-0.006091875907753884],[0.02313354820350606,-0.008877606958255178],[0.011395968861858188,-0.011687311016586389],[-0.017818281551398935,-0.008840830180501141],[0.016712562886368142,-0.01994278994507157],[-0.0034286712091326946,-0.022134414716777105],[0.007630111163476939,-0.019894063113589554],[0.02607295509865835,-0.0067946884305241425],[-0.014301912022415113,-0.011584545097633224],[0.014371323392102361,-0.018853246144950778],[-0.006285965487428627,-0.0165363638762021],[0.00026034090771366136,0.0009241339322014188],[0.015751120702046414,-0.02063966966610341],[0.005956442809752622,-0.0062493578680942324],[-0.0031530992136340587,-0.015560795359706387],[-0.012651875328408986,0.008565597589921946],[0.015587870356225966,0.006818401640210196],[0.016380482791244183,0.01794449468732748],[0.001207406420320548,-0.008681203223105288],[0.00585256396888903,0.0031384659461823733],[-0.01811008214506732,-0.0010005160880510598],[-0.0013379751678240662,0.010407604680624589],[0.0024250356820786096,-0.010220381659335146],[-0.004254435031168772,0.0031434285411875854],[0.017805946184728198,-0.019608587040561672],[0.0003042622514844184,-0.02303134169361334],[0.006804716828755599,-0.02309038969605291],[0.005271481267254309,-0.006144759942359192],[-0.0013828070175585035,-0.01031471549634417],[0.014614303335615302,-0.03170017946543911],[0.008281775238422594,-0.003251094275870948],[0.0033221263218692508,-0.00874836169486552],[-0.0018753753940781983,-0.008240315241772253],[0.025186772465537414,-0.008308704414879534],[0.007746768236352861,-0.011300713361197519],[5.090326448763787e-05,0.000276293203557508],[0.006953368301973272,-0.013383249267985278],[-0.007216128816619674,0.009479216123080825],[-0.00021739418137661597,0.010370851849723717],[-0.007541514634325745,-0.014341021512210731],[-0.004148419398405457,-0.002042340507181757],[0.013097460441249107,-0.012983263151289476],[0.00838248585533892,-0.009698038385370908],[0.004994510908173256,-0.01426992623526913],[0.007700640367290526,-0.007560351036593322],[0.007970904501147848,0.011125203704407739],[0.025671414219421616,-0.011124774872315866],[0.01598660524733301,-0.02244783034932225],[0.013894616906730191,0.008794333554726018],[0.016441194234213148,-0.013221550582519413],[-0.004332842194411914,-0.01130150305246125],[0.0011755477744162487,-0.010559589101461965],[0.0049401989193682124,-0.026305385810895518],[0.017878382373947063,0.002830895806157209],[0.010024410614655775,-0.017079711367757898],[0.009850038890064116,0.016719051992357997],[-0.0014264505696603906,-0.010985175469408366],[0.007848768679160966,-0.015151446700175042],[0.005084450290946282,-0.011490047716740255],[0.025453026338617676,-0.012037377192602613],[0.024487433825619097,-0.006943448630577464],[0.014513407757499604,-0.008653407511547641],[0.02162697533202856,-0.013029382990870876],[-0.00463576021846302,-0.0012066753286637721],[0.003160726242817419,0.0063424443178744985],[-0.004595437075971789,-0.015390054387195658],[-0.006586646402443442,-0.00757117821394624],[0.007145440513825872,-0.018961634496940574],[0.008332546548489103,-0.022606328030396392],[0.007330416688410224,-0.020706862829069587],[-0.002456791781063007,-0.007015922971174772],[0.010966566161672754,-0.001114398334147229],[0.0038546737109523828,-0.005986093367841],[0.010991195339620678,-0.002685626013997495],[0.016435728649995995,0.00419619611617913],[0.0012788071787774033,0.0012385218879641692],[0.00414619668550305,-0.007367621155712873],[0.016502076113510098,-0.01405526011917011],[-0.006182782985723527,0.005281194062703289],[-0.002593079460629413,-0.015159138226364204],[0.015239423802316833,-0.00025340685030091303],[0.008570822081835315,-0.004818390839878764],[0.004302778687821976,-0.004705033113219463],[0.01675628052518127,-0.01687356736217133],[0.0003907210473994035,-0.005740908048181235],[-0.001432678853509452,0.003542588972618479],[0.0017942644572792063,-0.01032153478107153],[0.003604216531187516,-0.004397599972658522],[0.008323432325143687,-0.01949713366836249],[0.00703437665237256,-0.0030041684939564146],[0.001633118181984171,-0.00043639880194027195],[0.010907980126029695,-0.013438571617817316],[0.01414595341919828,0.0028876201668961146],[-0.0091797461727209,-0.015707585352543442],[-0.0051348599733494265,0.007267062424289301],[0.0012271327523942174,0.012267048556380625],[-0.0021995139327061495,0.0011087381645515776],[-0.011614483387644994,0.013400015888427328]],[[-0.026669889482695216,-0.0007168416242331678],[-0.023113343906319424,-0.01238052394898786],[-0.008331238785861016,0.00205402291969954],[-0.022750659931215212,-0.008278868463732039],[-0.007091962954407589,-0.007950755964947535],[-0.02169821555672392,-0.0038552168295960857],[-0.019366470988531878,-0.01675794202569889],[-0.023153863196273425,0.005289967985582182],[-0.006642389755804519,-0.017551814995722243],[-0.0036062239613460344,-0.0069130348983099535],[-0.009758005032403528,-0.0004604147017695062],[-0.0013306021954110163,-0.0034025553228890512],[-0.003944965752497864,-0.010342981762900237],[-0.00617882738394302,0.005358455863343946],[-0.03381506483757608,-8.424834298702542e-05],[-0.013018710632546678,0.0058577045823624664],[-0.01974824107842045,0.007656649892179187],[-0.010300208905681956,-0.0042050119613962255],[-0.017410481219480137,-0.007293012115830968],[-0.016641954127731427,-0.012191014698131629],[-0.010040434640753578,-0.018391472589870485],[-0.004611272780640086,-0.012560735535881596],[-0.0043044229609877265,0.003186402227166941],[-0.01084705599455988,-0.012632109393909425],[-0.011322859751971082,-0.007626341134749687],[-0.013031731588275239,-0.006408767702844672],[-0.008972609677377261,-0.015637527860799957],[-0.020045185239201877,-0.01257028529309919],[-0.044387771003407885,-0.013294231436122734],[0.010198020210056873,-0.0020772110014888423],[-0.01340292652534073,0.0051482978414907005],[0.0029836845827795754,-0.0024209583002630704],[0.0004763856872351186,-0.01035920722582891],[-0.008468543503932963,0.00257116168625479],[-0.01192129773141204,-0.009452175911820836],[-0.00919507215990734,-0.010356620484414837],[0.01195594482832794,-0.014262738724377007],[-0.017725484317792885,0.006646775532652462],[-0.011009929868087224,0.00522225612422601],[0.004427408630909447,0.0007164832962592384],[-0.01577772464181576,0.0016417524250163626],[-0.00978358435113934,0.0038351348567627493],[-0.003351569068206918,-0.0035146319755634038],[-0.02026268308746446,-0.004944894063273702],[-0.00746303268206644,-0.02535851753002026],[-0.014719350397795131,-0.012081605042332954],[-0.010560117085631766,-0.01627972507593999],[-0.015450865189749695,0.009978008308794533],[-0.015276733101246172,-0.0010097258231825366],[-0.016004920689185083,-0.005296151572927954],[-0.01800183364444575,-0.0039373744039369],[-0.006486234591859836,0.005928709633218434],[-0.0034718820268834862,-0.014975779847660216],[0.019694322366484045,-0.001890459283544653],[-0.02198137595908726,-0.008235274288612753],[-0.014564178484230767,-0.010452571927441466],[-0.009067904681980895,-0.0038479346586993584],[-0.021817461649133,-0.0020198341357091686],[-0.01591364321931161,0.006900900989222366],[-0.008069136923593895,-0.016072533511826657],[-0.030551157528969988,-0.009846727421441265],[-0.011685150540315116,0.012875737258245635],[-0.016921508710340944,-0.006037837201177168],[-0.01499931240726651,0.003906233306150071],[-0.0013786556513783101,0.01310981471247748],[-0.00535913422515752,-0.0087505332346926],[0.0015071419442292183,0.009347829704227269],[-0.012392628132520471,0.00329453708811854],[-0.016998298813078728,-0.009313570949072415],[-0.00014015124490296548,0.004236660090239515],[-0.01717032700209034,-0.01128726492315639],[-0.015131230640070112,0.00466322646510982],[-0.010769519119151782,0.039053677082657764],[-0.022344249469800015,0.0034579648654084467],[-0.014023313012198025,-0.007454310272983777],[-0.020936426438260276,-0.022164783999627645],[-0.015512896379463589,0.0021322983715989082],[-0.00776334782466234,0.004542416405695303],[-0.014098672411391703,0.0023805721050421413],[-0.012566757488916756,0.02056325198704771],[-0.007426161777539295,-0.005509081020254842],[-0.008358205810803095,-0.0040488208180757155],[-0.0002542047287470899,0.005730822273722612],[-0.005522894209847337,-0.006372445938131716],[-0.01589808707103147,0.008673430527304534],[-0.011755533262045774,-0.005016468078621299],[0.0045638758240344295,-0.004350342700874621],[-0.016118800954066672,-0.01365187706857598],[-0.017133545206327885,0.0014536812912973012],[-0.023350384770425607,0.0019354632643958515],[-0.005762261056316495,0.004179642459198051],[-0.003837657670421384,0.002028461787068301],[-0.011489806920750925,0.005026655425976075],[-0.01976870096932542,0.01672526630708987],[-0.011203702176538466,0.021355057101032405],[-0.02384782032408082,-0.010233719351985124],[-0.02705062752357058,-0.00767766288837043],[-0.011129653576434157,-0.009399145258552203],[-0.013442036300293852,-0.0008824629421447106],[-0.01725238723659954,-0.004332328956107433],[-0.025792978715682955,-0.023825906935144397],[-0.004886815256408689,0.007713243307681078],[0.002206134467880264,0.005256230716430511],[-0.016236984463194253,0.00025340972224577036],[-0.014933247437779167,0.008167275381239653],[-0.0142328084099044,-0.007257354695966031],[-0.014971851211416504,0.0015572224019298469],[-0.00611832758910539,0.01062885139852225],[-0.0009178730653797883,-0.015444361203514795],[-0.0030697769373698603,0.004156937881850024],[-0.006882132700574456,-0.0022838204598779263],[-0.00776522697732367,-0.021594245421296565],[-0.022768567861782836,-0.010381406270454776],[-0.007541026676091938,0.005698400318755553]],[[-0.010034458596036489,-0.004909911777381688],[0.010689242665545202,0.023691481449328592],[-0.010517951244258705,0.017859243808393776],[0.009154798900272225,0.011320142308655707],[0.013560805092208925,0.014222185940168698],[0.020993502877510978,0.0150017747664195],[0.007657753968780053,-0.0008365539742882553],[0.027202999806495324,0.02087072651138833],[0.011922691792464198,-0.007344750926448598],[0.01012024445984176,0.005108863224395839],[0.011815021450568829,0.025782337198678083],[0.02192182208662716,0.01001760276572343],[0.009884065790421422,0.0042925045145843724],[0.016848476485790898,0.012543798803941337],[-0.00685588522333551,0.010240778640035857],[0.0071217913129482955,0.010668327754511077],[0.026209380509868638,0.0007028133432743255],[0.00888135852953456,0.009342632425919241],[0.006378510195976707,0.03091889035844736],[0.0007520906327863985,0.012011829496174738],[0.0028415751553008033,0.023699007947668146],[0.023302459174982134,-0.0077072171915818655],[-0.0029007665357605942,0.014005519421255032],[0.0093586826206052,0.02507312550475886],[0.013453934710262504,0.005481861016392164],[-0.0010677385529731759,0.009497205849821362],[0.009142480986268112,0.007815065465488312],[-0.0008148720276308803,0.014463414410258663],[0.020099635198503534,0.009440181109204937],[-0.007606964631129699,0.009542785880651047],[0.027621113147274945,0.005395272470780633],[-0.002834259251145532,0.009207814934485293],[0.016013078915182197,0.02084537469100479],[-0.005153505158507338,0.014074911249261584],[0.0061771012887290285,0.01082669760215274],[0.006646632897139935,0.021354149629379444],[0.00034785282188516675,0.01806202526719848],[0.017223995169446414,0.006136505794666783],[-0.00498586211252832,0.02001196567182445],[0.00787193783114923,0.012555874923753488],[0.019659727602242126,0.023988019619373555],[0.002682761531767477,0.0089364337950806],[0.009973283944463316,0.0023151351214887876],[0.0077441360051416705,0.01613820597601638],[0.008424276822722378,0.017123362029608256],[0.01934468562413488,0.026984022759289177],[0.007105701476350825,0.0020593654186961312],[0.01412948707625295,0.016874849515561438],[0.03156099682107904,0.014084882303962399],[0.003939287190720812,0.00749130632391888],[0.0016081907661213378,0.02256482972063139],[0.021175121707299467,0.014530024437800004],[0.0019282757569265335,-0.004148327789810992],[0.01215715061812673,-0.0034605102438827282],[0.004483590822583918,0.01452069659174341],[0.0030592018298022626,0.03350854254069778],[-0.008187818140933403,-0.003561340345597086],[0.02149759328158644,0.000918306507564452],[0.0029192957967777156,0.005693589600092295],[0.003116142445061531,0.006341311863567225],[0.013925578338081552,0.015152771959601612],[0.03203273861628076,0.019816141227550082],[0.000530845734829351,0.018585491864971496],[0.013818480058078056,-0.002391224430536171],[0.004302093580079079,0.01169295856154747],[0.02685244305870418,0.017264230065939523],[0.01660811781390468,-0.007262461647703111],[0.004188471744068101,0.017894199429491484],[0.022791120929851222,-0.011828023616966827],[-0.011024949852412086,0.014929981032567598],[0.014434988039353096,0.0063958909637747375],[-0.004462353292407115,0.009554055628020048],[0.005615055457636569,0.030745593604749127],[-0.0032715309464439895,0.012984632534049413],[0.0027145605800434325,0.025609389565301087],[0.0010122647420095817,0.005319557189545038],[0.022664340035120713,-0.0021645297155398996],[0.009472558353140172,0.013878894234849783],[0.03454347870213666,0.01101503118167518],[0.02046103935215564,0.01714562958431936],[0.008307624325786729,-0.005428223916263716],[0.014714429605594614,0.013353796318146725],[0.023077541078484993,0.015721455259975262],[-0.00018866621817426876,0.008881535359673032],[0.013427177510730153,0.014405951797694681],[0.010237101205022045,0.014684597002553186],[0.014007846389314842,0.005458243503124343],[0.009699294385803255,0.009747779815909758],[0.00013559941559555512,0.009637976279514194],[0.012226662800407701,-0.004200051098207271],[0.012214984528686877,-0.009727526057518315],[-0.0010886769407289674,0.0282842210206804],[-0.0037792075583579854,0.021289708945561977],[0.006380896172257149,0.019975831573223104],[0.006425815656537622,0.0006858866896049307],[-0.010090310750532296,0.0002493869292113798],[0.008751037775864187,0.015123140954699847],[0.0022783718639870325,0.01486965750126177],[-0.010855030770624406,0.011361489251411238],[0.004645177146910704,0.020380637046669686],[0.01905067413078872,0.008386799927887737],[0.011182539604200818,-0.0015879043300815077],[0.018092614364296364,0.011428391884066651],[0.015853828764983563,0.0249434992975293],[0.006598580467472294,0.013108010030752782],[0.0006295581173691458,0.006414436907082235],[0.0043352509755866814,0.024603919372569883],[5.612575370127571e-05,0.006303809992595837],[0.0234001626701782,0.018774757549596514],[0.01887439898569506,0.026146022759133036],[0.002911091943887627,0.014071805344557929],[0.008270853537231934,-0.0020196337163349673],[0.030340573689927996,-0.0022853846029000035],[0.007478477792459368,0.01820328906929241]],[[-0.00022419046879188935,-0.005540995272675416],[-0.013845189224146098,-0.020234346365807315],[-0.021219036155017683,-0.019455372515694805],[-0.017559408925929963,-0.005346492642563109],[-0.010637993969881233,-0.016891151926775302],[0.0008292047264185208,-0.0012823349182802272],[-0.011918101590403142,-0.008967046278314746],[-0.0006749851610985373,-0.0071526699306596045],[-0.0009265002824223314,0.0007716404493717425],[-0.0012825015505373092,-0.013133811313351503],[-0.013140617538583477,-0.02636587177167129],[0.00017957074537905027,-0.01583853118218355],[-0.026003115680534438,0.003499419718949507],[-0.014215903307533691,-0.037529761115867644],[-0.011218229435147803,-0.0146239065742612],[-0.006376520066685838,-0.026089666751892265],[0.006964053210335671,-0.01141947469386805],[-0.019090210125508426,-0.016220720468155973],[0.013266899130255357,-0.0015167783354883909],[-0.007502104101783682,-0.01730623839380505],[-0.00884297874012501,-0.016160928046811407],[-0.0016960825270368924,-0.016120936487321765],[-0.016492747069758455,-0.0212526111524033],[-0.0008757397760955582,-0.009783123323594923],[-0.006801303603402425,-0.014200497219649713],[0.0031724555231699425,-0.026184403248525855],[-0.02354146048281435,-0.014303078813218491],[0.01045219777136732,0.0019639172737001558],[0.012577560350970855,-0.015405540872667883],[-0.004038189403175617,-0.0006443793207451235],[-0.00820489131814626,-0.022804654451215826],[-0.019394156669446626,-0.0038594244351105858],[0.0022582834996104115,-0.01939182272415465],[-0.01938341093914921,0.007638878094573201],[0.00841617474259387,0.012000693075375034],[-0.013279077729029783,-0.01902314355537489],[-0.0014360807848388109,-0.0023990531393879434],[-0.0014571482350174796,-0.0063124908474472136],[-0.003243554381731801,-0.02342459334785617],[-0.005257965767831222,-0.03136577324474068],[-0.014326898034745057,-0.016605485423674456],[0.0249166177653903,-0.007366402870251482],[-0.011345603097101822,-0.004760538882194299],[-0.023037147355899425,-0.030135636506259843],[-0.021006775627664384,0.00815023222618202],[-0.02180466103791434,-0.00512982938294909],[-0.021588940484417993,-0.013795283127269055],[-0.027330071473957333,0.006622941446867082],[-0.01295686199400834,-0.03469953983012106],[-0.007651705979126051,-0.013930029854073052],[-0.005111905264093136,-0.017997328778933397],[0.009880237011568732,-0.014006319744011763],[0.003936487139657466,-0.00629522891391434],[-0.02341828761368231,0.002042550625205857],[-0.003968309855802088,-0.017565707612335578],[-0.0003676171387307908,-0.0202796240026206],[-0.014829725490422921,-0.005534727468244875],[-0.02258356819114138,-0.009941305621752381],[-0.009168651421666833,-0.007072053343724723],[-0.011183957753260336,-0.0029216427170802297],[-0.013645875855260513,-0.021510555129372347],[0.003131480346071117,-0.0026617833901084226],[-0.009707475878112236,-0.003524315713404621],[-0.016635384611681424,-0.006865929533819307],[-0.002596288722719216,-0.043936211973619785],[-0.023626912926762736,0.011165869765585456],[-0.001518887098796816,0.012146771691695531],[0.005944884070806686,-0.012263947035791404],[-0.002048097677279626,-0.0054123816126609185],[-0.0025956833304723744,-0.029122557757053285],[-0.016973418678449443,-0.013296310077422052],[0.0041264741002810055,-0.003626666557774374],[-0.0207099277060351,0.0032426097046791146],[0.01615278139230686,0.00024673666925233086],[0.010331642158345582,-0.03336714197725516],[0.0018791168638350821,-0.007485175955265313],[0.0006094287020954944,-0.014996694724819478],[-0.005929235348314944,0.0067927070135182475],[-0.018102152796776266,-0.009414340780445623],[-0.00042831352749578646,-0.006103475949345973],[-0.017491414154884553,-0.020775432653724706],[-0.012200774964588084,-0.01825861357596735],[-0.0038434466529297896,-0.015378367982521164],[-0.0034134318453184517,-0.009175773733754776],[0.0076053717799496575,0.013840046089940885],[-0.01119750822103138,-0.029419351479344907],[-0.001288961053377821,0.0036566323784903215],[0.014342528598758958,-0.003869653618026465],[-0.006119625849402954,-0.020712157018758254],[-0.003384013895124554,-0.015660445345645525],[0.01353468350675085,0.0014628338960019193],[-0.0255793430795272,0.000609398959308638],[-0.014178973753978976,0.001046743513659896],[-0.008896409522035329,-0.028857331922644995],[-0.012318029813939185,-0.004318444478256215],[0.0041752554322756884,-0.011180589910327719],[-0.006766776368907089,-0.008698961301356365],[-0.014750324525567559,-0.014835524846362545],[-0.009194088789317396,-0.0022575812644200183],[-0.02432946790248212,-0.0011053495673496695],[-0.01873807089608435,-0.009548464544300351],[-0.02021751386470983,-0.005705811909329042],[-0.014587922362962706,-0.008594533321971342],[0.006441042465705756,-0.0068786358147265],[0.0020018076076741232,-0.0071026195568919285],[-0.015054389817316025,-0.02234207198684508],[-0.013744489321038843,-0.012519186875283986],[-0.0033279591512389234,-0.02371210323144302],[0.0009383023719087396,-0.006964056330172053],[0.0029107818654684897,-0.014647423835701175],[0.011548577017460489,-0.01935965293428878],[-0.010495562498928256,-0.016488611577282843],[-0.004978515973135304,-0.0011051044265050097],[0.001144046071206243,-0.017303813016737536]],[[0.012251290919706616,0.0022829704630525625],[0.022618887177351308,0.007424127770073679],[-0.006303871660754522,-0.010506941979252775],[0.0018040388054195076,-0.011105280792721878],[0.024506379652574965,0.013140901144221343],[0.011592624266529319,0.005929903138925894],[-0.008556099609469408,0.012499450215913671],[-0.011714038205269513,-0.010619960388675388],[0.007931908231278728,0.011475310888427069],[-0.00877831050590393,0.012783366486045384],[0.0007635743472447518,0.00596148438144677],[0.009204431364615821,0.012231961391150145],[-0.007906767961235399,0.01628839434597677],[0.008208494440245465,0.009521903892427396],[-0.008460006134812605,0.006882841888990361],[-0.0005389458093931481,0.006682972682225574],[0.01638341529441169,0.020580032223023976],[-0.0015172946654177007,0.006534586146301193],[0.008525719085941292,0.018518812195787663],[0.024789206487418076,0.00852849256336308],[0.01678413805259104,0.010206298774148725],[-0.002993943646185568,0.007409036084046586],[0.003959380517579975,0.00523022478503629],[-0.004512921774268963,0.00013528122192644451],[0.01486987466607324,0.003924610575520793],[0.002039116158493422,0.01591498916336082],[-0.012086267861385648,-0.004439617940470332],[0.013412544410729227,0.00376465426383573],[-0.005635709095251475,0.008188901816076235],[-0.008738224010106689,-0.006940690344337478],[-0.0006228653728289641,-0.008823086929272488],[-0.020438874566301453,-0.006084116048597405],[0.008811404965909412,-0.02390705882891774],[0.012727805989079624,0.0018059439815197433],[-0.004476280785928831,-0.010128534907522913],[0.0036084157777971464,-0.01480215402786084],[0.002559534937353142,0.0024870239382521015],[-0.006707296224269396,0.007283325695685803],[-0.009098867037367047,-0.0013766567096918545],[0.003003290337250213,-0.007535526683125055],[0.018159583607392442,-0.002673488463613239],[-0.006893785432663792,0.0016357102327070865],[-0.0035858654349889673,-0.012012557751305889],[0.010429857618920948,0.01631225501871291],[0.011971389082580082,-0.018628641209839397],[-0.0006299549731800913,-0.015064888351334465],[-0.01070303559663438,0.006185020689584689],[0.02167103618184422,0.017151065027282635],[-0.002227480681866642,-0.0058571224719729574],[0.0028720151319871854,0.01586257495791373],[-0.007431842900072385,0.004106085854695606],[-0.0023806572559944947,0.010693524799184775],[0.0003763559088607822,0.0012721560391821519],[-0.00010079224496274852,0.023431657896653333],[0.021233942456341703,0.004079279507105574],[0.007843499948128331,0.001005591426450616],[0.007122218256178615,-0.015709984810370406],[0.0029196315341868573,0.004871094705845638],[0.002433131286656754,0.0007653750736082468],[-0.011400957253084147,-0.0024873581684903357],[-0.0015578790108402634,0.003085206901261384],[0.006370748524273109,0.004742869227867083],[-0.0006922186506922774,0.007851997235876497],[-0.0058832124085595,-0.0030175895841927686],[0.008451679804253095,0.011489015876611091],[0.010587989664728865,-0.004477111390989088],[0.00264310823084826,0.0009603727044054779],[-0.0041289061825495535,-0.0035030347676695715],[-0.005082268471349288,-0.0006592492563202188],[-0.013395909415767062,0.017447140176174],[0.009020601533281408,-0.0069348370738514685],[-0.006042914280052234,0.004069445094046209],[0.0022349228976171064,0.008336740637189146],[0.014320447683764583,-0.0024774984882042998],[-7.489247190135535e-05,0.013363056734240474],[0.016972033199568682,0.004592419280942895],[0.0046882094705451086,-0.012309242746623619],[0.0026958946477511265,0.006103534217514948],[-0.006088660779645223,-0.0007969396087588864],[-0.01778620061451643,0.007259309920256136],[0.006535749622573287,-0.009730378117732908],[0.003979203488070295,0.003920685798003132],[0.017794931527922588,0.007142769072252338],[0.003945584519539239,0.014762004630047669],[0.008347968718779325,-0.017296459259564446],[0.015760787838996638,-0.0037257622354147143],[0.008005622919431897,0.012990128210314991],[-0.0057463408633150765,-0.007104553689326572],[-0.005339631475479836,-0.007162781397496834],[0.0032318987840324782,0.00384821667261889],[0.026472455589975,-0.002417168123165223],[0.003546228262417516,-0.002388259887829781],[-0.0027843059393317412,-3.6216340965131936e-05],[0.003697301914096307,0.0002555727226336371],[0.0048197795220362785,-0.029255343471769724],[0.0027432473853761033,0.006208946440824744],[0.018610074610241414,0.002814267616419012],[0.02477479610627682,0.007193319629134885],[-0.008699287324687024,-0.0015668126285293272],[0.015025162864704572,0.0009036929535571701],[-0.0003377431690929053,0.007128451012936855],[0.00920218561805467,0.009462683251810352],[0.005267568493434024,0.006650697930043238],[0.006001719505775807,-0.013541267186249326],[0.005448116111861967,-0.0006758924628071359],[0.016389112943923347,-0.004294761042930533],[0.013198161372057725,0.0007545041419619469],[0.008991726464722467,-0.006096685988868032],[0.01618211168217586,0.011648278190831205],[-0.00021730315382541979,0.011287678967650268],[-0.0008589557903126677,0.017828025772967836],[0.004481351275677321,-5.2454417561934305e-05],[-0.009200490006640222,0.003892402132415745],[0.0033176323937969517,0.029704144813927066]],[[0.012901701029798866,0.03504674088432928],[0.004466257747889174,0.011848437992190396],[0.020585537580207834,0.008739622389961352],[0.011129956906647162,0.0028992354838661928],[-0.0019244633075182894,0.015482318026415521],[-0.0016653820022446422,0.00314049048649113],[0.009490247936338196,0.0026198984084483817],[0.009240126262904625,-0.007775595352709606],[0.027408285750124193,-0.001800479085928997],[-0.0012485826757537492,0.004459259330585554],[-0.00955045892048031,0.003965835428447845],[0.0080287970223565,0.0065848683151771845],[0.01227257739704345,0.02443637106415856],[0.026633858692730022,0.013659382705543597],[0.014842408301374038,-0.010691894537824289],[0.0013261206449901204,0.010025015125775449],[0.004947328741670643,0.019161019942168275],[0.0007823724366739315,0.00016519675011921088],[0.019075114261524067,0.0010724293069658392],[-0.006862036352964133,0.010110384199672912],[0.012090733661371245,0.010700833412211248],[0.0047537952760456584,0.013095610805081268],[0.004913277590841004,0.02194341075070008],[0.008158188608050055,0.015824104321572725],[0.02221329109372612,0.010341921456337222],[0.007568435983977512,0.022816823783563884],[0.0033071380071781576,0.011610816769220008],[0.01126195708600108,0.021511996696110126],[0.003276027854966639,0.024174577308196353],[0.010449248917463455,0.01437011530644832],[0.0029271029978555204,0.02620884339135198],[-1.7103195002521728e-05,0.02171347638943433],[0.010331833293680641,0.011863815811669974],[0.005698087272243753,-0.0028957820766543152],[0.019024727554787773,0.012346432738649023],[0.008421519647123517,0.016712704952617844],[0.0008451585798402589,0.014787716206780634],[-0.0019691440784817154,0.016070667078835692],[0.009877804158589899,0.010609084583463949],[0.0072466355425221665,0.011937140232976245],[0.0001857077005609336,0.022508936871252654],[0.0012027730160029764,-0.013040797328481886],[0.020118016482143206,0.01218078440472753],[-0.018995664898511982,0.00891264361850432],[0.00411063849610632,0.001977058614342439],[0.004726001178172965,0.022249965001104783],[-0.0005331443750718094,0.009248285915521237],[-0.0030967018443253235,0.01770486678957433],[0.015927416627218388,-0.001488072854525317],[0.013138624463669901,0.01768962191280465],[0.016726874898350192,0.0033345974776556697],[0.006693030152245507,0.018775577456520285],[0.023323282252232274,0.0229555446745691],[-0.004192917706071876,0.011863922570126242],[0.02522678123864823,0.00908707387402112],[0.007643236064367498,0.011664004873040373],[0.014464719534529755,0.014841707177368794],[-0.0005305202290370831,0.003924390678285546],[0.022168037469134275,0.006802544029905948],[-0.01864025484731918,0.00941294572737228],[-0.0038443376723278264,0.022024824507247163],[0.006164489911012337,0.011190084239982889],[0.009847680443880935,0.01607911230778105],[0.007518018707682621,0.01804407469662542],[0.018672037447837464,0.004959852620962087],[0.01770814848975652,0.028378915748422946],[0.019175220263310668,0.016520107966655356],[-0.002825859195566321,0.029893978871207084],[0.0012078475507713202,-0.0037044809208604413],[-0.002365360262892003,0.013172779927449989],[-0.016263155378624668,0.0026635204504612737],[0.004431626514609255,0.0031849221483784477],[-0.004257974080035477,0.004264070510321276],[0.017544902628409183,0.004957361805295279],[0.00819143179594696,-0.00678604766644635],[0.01253964923265285,0.0009605433716045248],[0.015199572178079162,0.01658667253402388],[0.0172486750857845,0.033106570310437365],[0.01704048552487581,0.009475631137716399],[0.004709267659319355,0.018893366848928977],[0.005013045098978936,0.01180606971077576],[0.01892858078186914,0.0069673883253093885],[0.006235122051352175,0.00737147971963397],[0.00392227726409109,0.027219476655475437],[-0.002522667735209637,0.01331323512565],[0.022070961260088943,0.013329203130240722],[-0.0005586666147609003,0.0008901269193088975],[0.024948400349489176,0.0009009989532474064],[0.007075656875278574,0.014053145133230787],[0.009360426383749362,0.0005597273524766164],[0.0015143147564559126,0.01748324366432099],[0.02026332097025659,0.018144071405260184],[0.0012452663396471423,0.003725474753490029],[0.009348413650907862,-0.006650598962188725],[0.012598320814215278,0.016203145585044397],[-0.00108569100893021,-0.00037933248103016526],[0.007838488308653782,0.011184208368642378],[0.01141523150306602,0.012803040047739325],[0.009500593490888155,0.016014261561373012],[-0.006124361921442456,0.0016955845830420478],[0.010548235883092835,-0.0008544070426100207],[-0.006771227320069883,0.02171175287974083],[0.011694702500424183,0.0069527405625298385],[-0.002425090954960402,-0.0008670838154071069],[0.020133009887170383,0.00900333532943241],[-0.00474362323473694,0.016056622957280182],[0.01510388074986208,0.006054383965245133],[0.022491944971186294,0.015903598972838367],[0.004711610938770785,0.014787708078384419],[-0.023080535063062353,0.015933345017851278],[0.007741748621435396,-0.002935927170498824],[-0.00973151196873595,0.03531693455824405],[0.002553153577619265,0.024475903813894452],[0.007628696086497128,0.0015218397012920944]],[[-0.016368862745318336,-0.006458135365781727],[0.008958387810259538,-0.01679088033401143],[0.00666824771125521,-0.011590620694718556],[0.012071945220172678,-0.014887621571062689],[-0.020245639091032493,-0.0093915879239658],[-0.003613446301563953,-0.028197862342965556],[-0.013456183446432752,-0.00952033133590489],[-0.000752797937562229,-0.014571205127584263],[0.009977721913369222,-0.008004473569144934],[-0.013483181225955035,0.008987037958539116],[-0.007429683468362885,0.0031649460446583613],[-0.008370019985717785,-0.002773888344174348],[-0.003907631297843398,-0.01927670860175218],[-0.010912815032072176,-0.008956930325440727],[-0.012625412575447163,-0.004927596071836113],[-0.0029108601900692255,-0.026537665234403884],[-0.013612173368644415,-0.017881372383865588],[0.0004678569285705516,-0.011652240601117636],[0.0016841548878343035,0.013196017232115312],[-0.00783904365914774,-0.014928472223046845],[-0.009835995326015893,-0.01752035142660407],[-0.003234398549849257,-0.012593853708756122],[-0.006799564283587425,-0.000931503419791399],[-0.0147221167385107,-0.031399463616391524],[-0.0010443860699161473,-0.017175794968046124],[-0.0015561892431841114,-0.005367456447322562],[0.0007389977916110897,-0.012417357520362587],[-0.0092709151661919,0.005248906197889857],[-0.014486661303294329,0.0023020990559606282],[-0.009092274286570683,-0.007933267470646143],[-0.014244935683046427,-0.014567685389939234],[-0.01516616954462015,-0.015266491494520027],[0.0009591018647813268,-0.008805822855212092],[0.010676237628467644,-0.004206444621049753],[0.0012972732732952719,-0.0010528892088050247],[-0.00906741508527115,-0.015345342208727542],[-0.003553548901512302,0.005754570678321204],[-0.003833071799490168,-0.012133360225113039],[0.014564937322834905,-0.023507738658643144],[-0.016831732721017095,0.0008901767608165298],[-0.023427418927097352,0.00442922332255963],[-0.0010931242476497386,0.0011166040994459304],[-0.007359757945642003,-0.027558448009642363],[-0.0030238744665812525,0.002729712265819737],[-0.0034152759093885655,-0.03744953310196038],[-0.0215213357992808,-0.014364569299984163],[-0.004512070354366566,-0.007669796322015543],[-0.02162217192293918,-0.011446210635168104],[0.0016199177936571747,-0.003166854145217189],[7.325905578543519e-05,-0.01556381846115347],[0.00458672731031648,0.002926203122638062],[-0.009483235510124843,-0.00033311264840352856],[-0.006574513170011488,-0.007756726958140438],[-0.001827776108093073,-0.009301403668438695],[0.0021005905464231882,-0.02067127145239579],[-0.006212300132312811,-0.0112238180261501],[-0.014065825222462221,-0.0014665474646204347],[0.005500725140977593,-0.0014772285443772925],[-0.01091884471549116,-0.020706559394407117],[-0.01607242826999361,-0.01227398974380513],[-0.016992007434084057,-0.01152740652476544],[-0.008784523291394581,-0.015303346562868055],[-0.004287317214772016,0.0005425265462650598],[-0.006100217764753045,-0.028698622124943545],[-0.018807982521042457,-0.02009326802676295],[-0.010188981249618494,-0.0043956681006271986],[-0.010662274625526645,0.0019997522120018705],[-0.007327591267095853,0.001358293292262267],[-0.01172313967938642,-0.01905243284023801],[-0.004953953607064875,-0.0021690924402286535],[0.001911550634637289,-0.019824733563687132],[0.009175348811203916,-0.007822193333910243],[-0.01649757613320729,-0.010984274851855703],[-0.011561969345016104,-0.014384533319605272],[-0.011264525057234905,-0.02477844393103936],[-0.026397756817735003,-0.025999849352751205],[0.01282108569336617,-0.025400721009089078],[-0.009560521322582796,0.0044459503785266455],[0.004028086322402267,-0.01181921944997573],[-0.010417184285685126,-0.003996503954068879],[-0.016117041802767743,0.024578664147951207],[-0.01929824813241097,0.0013490893258109571],[-0.018338323158184542,0.006217471809769514],[0.005142825962356561,-0.002337116333601113],[-0.02032958993709524,-0.009567141713784021],[-0.01659447428417495,-0.0030479425795562043],[0.013943911576273494,-0.009609211672528841],[-0.013121568139523407,-0.01430034977899908],[0.004719588314015263,-0.0017491503158943594],[-0.01719724927672295,0.0026814951547957815],[-0.003687524851681438,-0.011053413715297429],[0.01461846645417307,-0.01950856745140823],[0.0020306546338089027,-0.01087283680432237],[-0.013248694402836951,-0.008800348338617828],[-0.010026736179626135,-0.014800211134302051],[-0.02114965714084427,0.006294037915492422],[0.004655332667693853,-0.012474096163166602],[-0.007405736522876998,-0.007046390830807998],[-0.010471360267636287,-0.006726156329222861],[-0.004511593286541686,-0.009506519784013885],[-0.009471676417129414,-0.01106468708113794],[-0.0002770884690601078,-0.013047371028281175],[0.003932609863222068,0.008515386422842277],[-0.014328651028868199,0.006445605850145227],[-0.009886719876952992,-0.005343245381328787],[-0.012786573595320937,-0.010442938392810798],[0.01399215864704752,-0.01334431791441623],[-0.01467575439380127,-0.007685990086135339],[0.00778376867844407,-0.016857619267949073],[-0.010783112071047794,-0.009438665096958499],[-0.015307329936610142,0.01011810566494617],[-0.01355725831234846,-0.03191223512858612],[-0.006477169871528963,-0.015467589051008486],[-0.006511387117095258,-0.006002443234536849]],[[0.007259439044626613,0.007079241327874559],[0.021280061022909743,0.019731884285874593],[0.014744076234269212,-0.0023511841972531184],[0.011121729371000342,-0.005346583796122245],[0.020059963867915975,-0.013384071505483736],[0.016742406468095952,0.001773262983720361],[0.005824106375891127,0.01401920943545617],[0.0016274469027976843,0.006770576674449643],[-0.008963348397104278,0.019280867343611313],[0.009127583695854197,-0.002379455937183125],[-0.00406521690612723,0.013481190851775973],[0.013642656612613534,0.00405941512922671],[-0.0016464834109205509,0.021357860140529403],[-0.0010428722631611116,-0.002826822441694054],[0.015060757405826129,0.018276500384434312],[0.0014996050225960732,0.0014946860597468744],[0.01867719234753504,-0.0017752874392244966],[0.006992531161526703,0.022773616539960812],[0.017707424084878576,0.008924593849382568],[0.02514980964344732,0.00012068282622761089],[0.005881733896481478,0.005980603404319852],[-1.590688325069119e-05,0.006992896621347719],[0.006026724202375931,-0.0018227758191990216],[0.006524414364965553,0.0018158251321584978],[0.02124749927410268,-0.00571490052019934],[0.01260708722521761,0.002261746656376148],[0.021710868860722963,0.0001000451891429943],[-0.008578309660383109,-0.014731136298742375],[-0.004662655164643934,0.015321312360242527],[-0.01038739607477304,-0.013374950569205192],[0.005814510394079473,0.01695863960158152],[0.01483703045511943,0.01699243897667696],[-0.01068772996815802,-0.012481655109136122],[0.021725394277580124,0.007292890824883855],[0.006526422286702012,0.007186281828415773],[0.004693174730210963,0.0054037441976657365],[0.021410280726289806,0.019502306027650084],[0.008291425946040015,0.04354075362535752],[-0.013727267894464821,0.0070438175607058446],[0.018545381377136336,0.007348263443514361],[-0.004114694706206978,0.006266786983191431],[0.01681144937989265,0.018387919993754966],[-0.013656466751433336,0.009889331210730538],[0.005169344601263584,-0.00020626635283880403],[0.026453430445160808,0.013167024545262074],[-0.0032458518003177883,-0.0007293158917153196],[0.016741492657908003,0.014633136793826898],[-0.0013601344994920224,0.023831923211189023],[-0.011833162353375726,0.0051007413751422],[0.012808403923091126,0.01267227089257665],[0.028196024163297622,0.02651688541196761],[0.0029477157874620986,-0.006023534421086314],[0.02722674186091104,-0.01073928952380934],[0.005109107829294225,0.01218846855450463],[0.008660556812220095,0.015583401641206189],[0.014441510168042166,0.01719241998217852],[0.014422686466038092,0.0017175478899965524],[0.005712944380365203,0.01956671617314392],[0.005162208044022703,0.011895434678497074],[0.020150434448643395,0.003948608434037349],[0.025656166866397642,-0.01067250871973679],[0.011187609301872835,0.005722078218017066],[0.009160462792124782,0.0014454411209266947],[0.015611574397385355,0.0032280152023042444],[-0.0026343226165974052,0.006890534512217059],[-0.004044155956976784,-0.00176192033978201],[0.021718713631901275,-0.003021437180165523],[0.03485795877254516,0.013480947436876854],[-0.00519461346610932,-0.00046702711467708647],[-0.014137864477834067,-0.004909070265092488],[0.008205732921696643,0.010150984253088033],[0.011232893091144665,-0.008860203668759087],[0.020107039972634428,0.008150368777588717],[0.021916079692560007,0.00218132514411483],[-0.00439906178741742,0.0076393460787193826],[0.025135370191693013,0.022973513547314722],[-0.002867818458231646,-0.011495736681628269],[0.0004098882969237529,0.0006038568774693287],[0.0053237644916917385,0.021101107411788812],[0.0199812956321129,0.018714738947977712],[0.00450044614386033,0.0012177187379291325],[0.009742955692984947,-0.0028066357589084097],[-0.0008479672956729421,0.010291505511302512],[0.009376119242703944,0.022129831868504913],[0.0024071436214304926,0.0055914816261796165],[0.004760997902825293,-0.006785277086107869],[0.0074806538451045596,0.01156772594307692],[0.012419714218679809,0.004358105338421742],[0.013003386546853598,0.009048929524981639],[0.017723287720447116,0.022671499514179072],[0.030339977690140133,0.027607598119118136],[0.0019031328984437498,0.017564862692077295],[0.027099234501743005,0.02841798261937135],[0.017749230704980704,0.006618732943060178],[0.013751945299059327,-0.0064864087338630996],[0.007170102619759522,0.01210287464346392],[0.013559249295805532,0.00610722311676157],[0.018507603463694542,-0.008680247364875372],[-0.003055018752678186,0.008943495370782973],[-0.007679412092980714,0.003290658125529169],[-0.00016177395568712743,-0.00296235055707972],[0.0012709567134947218,0.0001485867580902796],[0.0071875741457096305,0.0045900678846421015],[0.020974349373382085,0.020098839652402067],[0.013905511726901638,0.016171827056544984],[0.013253415844757125,0.011988790236762513],[-0.0016911322128631417,0.004984317134267883],[0.010839086060479468,-0.0021312597198063672],[0.0030189078919944565,-0.007193714437776434],[0.01857837078219374,0.012836832139140539],[0.004582854566207645,0.00683117709054713],[0.017311797334943632,0.010914983403470524],[0.00993179893707858,0.01701721598006041],[0.012619020670042148,0.01479238268499029]],[[-0.0021293178798770167,-0.0023178942885707246],[-0.009301523115814695,-0.02620529705794497],[-0.004205235826893024,-0.020662487869255168],[-0.02614614021760514,-0.016547916890703673],[-0.025061293411408874,-0.0025605468580898972],[-0.0076064643217467805,-0.01879450119419307],[-0.0018894505109466361,-0.005820721900192039],[-0.024856034562738282,-0.0013354258432656007],[0.004983329619639857,-0.009822251035972979],[0.002406664597123857,0.005012653295557601],[-0.0070471790431009046,-0.007286415543929457],[-0.018796392677782946,0.012831637732128856],[0.002707090979692713,-0.010884642037792384],[0.004344307256868341,-0.02134580434915212],[0.0027664218353684288,-0.02493124171717317],[-0.014693701254378713,-0.01145770167690271],[-0.017793336173992466,-0.0024698681232933543],[-0.004819073614477159,-0.009852429955924037],[-0.0046819401348938555,-0.015868154093969963],[0.0007603144131263349,0.006122347568640735],[0.0035243914005093383,-0.029067635312337265],[-0.016608583275481557,-0.005010510831810711],[-0.011376100622682461,-0.010808333522089113],[-0.027301772350063886,-0.005371017857204059],[-0.01084219168911243,-0.00949847545706303],[-0.0011949913134304193,-0.002852788381848877],[-0.004619324141653637,-0.006804752209475564],[-0.016062023353180754,-0.01717602525208541],[-0.006304638417017687,-0.018949490384300223],[0.003776941563520076,-0.002467159893754483],[-0.008954495406211679,-0.025613936706513962],[0.01175646989054283,-0.011955858236608283],[-0.015426822768281879,-0.0009912616066340273],[0.0003683675853900515,-0.008808257649213681],[-0.021498771643220702,-0.010851438970536503],[-0.034813447596503504,-0.010532727037285887],[-0.00710577749910691,-0.012757564807853883],[-0.014390729342173865,-0.026377440508983854],[-0.014746763068827485,0.002020470720112295],[-0.022616332900592787,-0.006777667102610567],[0.008504993071954181,0.00337479098619279],[-0.016904975431333454,-0.013005282193229417],[-0.00874239685415425,0.012032459745333379],[-0.012026268739056477,0.006999836226133074],[0.007642210589321875,-0.008985674842560144],[-0.004037671758424556,-0.021644381217086853],[-0.0038368464131772243,-0.014426069481000198],[-0.012477826746712039,-0.010577663370647116],[-0.017608147166332754,0.0005784513162834959],[-0.016686557566576433,-0.005401799531459698],[-0.015639089382416385,-0.008560768588934457],[-0.015918691892571557,0.0067832701411746615],[-0.021649253638565926,-0.01927940153868325],[0.008593580234076739,-0.002600840456642796],[-0.008259258574672024,-0.0011479464093363896],[-0.027086886426934215,-0.0048382670473831385],[-0.006636689007073037,-0.014416943953187322],[-0.009885342715204666,0.004801443227405924],[-0.0027573425338559923,-0.002514657465583321],[-0.021542502674425403,-0.011194673553593574],[-0.007326900906223704,0.0021531011047237754],[-0.008095580307047498,0.005722161222532036],[-0.028979319456627198,0.004041147448393316],[-0.007340959152629015,-0.029983054666638278],[-0.003942187506502422,-0.007240580952307165],[-0.010587074746919743,-0.01569262893197855],[-0.009783590038749714,0.011672784030607328],[-0.03391960998334763,-0.024802425889908407],[-0.005700393427425407,-0.010284737278545382],[-0.004195752007086334,-0.0109227042820606],[-0.016814800950447177,0.006304833744277522],[-0.020379244828419324,0.007545458098704729],[0.005757533424913083,0.003103729816532212],[-0.010438748900491464,-0.012736634247653462],[0.010309009024444373,-0.011530684002763827],[-0.030274168502904365,-0.0041416975219199246],[-0.006194279069021104,-0.016266761205717004],[-0.00039475389829177985,-0.011047677140328546],[-0.010579816869035863,-0.023796572138612554],[-0.014794910873003615,-0.014070899241067284],[-0.027877897354187806,0.013075760916512056],[-0.003841154026625267,-0.008518246933620736],[0.013474434728301139,-0.020578291990574243],[-0.024364115475133872,0.005331808023179216],[-0.013630216406895424,-0.012619110333405783],[-0.009646968318397578,-0.0037053946567061112],[-0.024521434565155112,-0.013805343483648206],[0.0030298740232120504,-0.013203919741833544],[-0.02253239313655091,-0.01235884969926548],[-0.014689484753071932,-0.021232584081815283],[-0.021398104862109,-0.012391755941624342],[-0.007494025854307901,-0.013311098902024913],[-0.023598962971755216,0.003395381309807114],[-0.004268789830286679,0.006070602438245311],[-0.000623592903608292,-0.0219366868087197],[-0.02910527676126364,-0.016083557011755345],[-0.02373038521711503,-0.007871113259587224],[0.0013352799610136766,-0.015753396935342914],[-8.364670456188466e-05,-0.0190189550346558],[-0.0017945082204859277,-0.011762817436680471],[-0.004283959106619154,0.010495272611154637],[-0.019861940875763623,-0.01456522879502243],[-0.023510977177513295,-0.0019382412714603872],[-0.003934518825537794,-0.0047654162129690805],[-0.01532970154884423,-0.007749985358679544],[-0.014422042394266428,-0.00445033529470104],[-0.011495381373611883,-0.016270587187746086],[-0.006800453704917193,0.007404918507729563],[-0.0015895783795330848,0.0036077442200009887],[0.012453759088527291,0.005014004958506551],[-0.004510203460386843,-0.02773455375576344],[0.01214992327902579,-0.015817529740945534],[0.0008207668004865653,-0.005350681738072026],[-0.01776337702939922,-0.01463169901853099]],[[0.006291530774167392,0.0017628915825252153],[0.019266590593674006,-0.01375934500132437],[0.0026386621541440703,0.007403856555474604],[0.005744449139893181,-0.017591022382142642],[0.026921762697236194,0.009715110441020951],[0.016837445643994874,0.0027536248606138676],[0.002792614039945514,-2.3994508585885413e-05],[0.009614528815826048,-0.001593085481218972],[0.007066073288733742,0.008132664862256576],[0.009338112345688657,0.00224411051182659],[0.03288110118814823,0.017786162090636336],[0.006068163351405455,0.0009838775315449684],[0.011238057727877913,0.006711947387801982],[0.032446939687018304,0.0033128680571667753],[0.013151967167871962,0.008274435955813814],[0.01518140788328558,0.008409509990546508],[-0.0016775100069945745,0.010475369469897354],[0.016626399094884645,-0.011030607313236471],[0.005887193484578,0.019364549630820637],[0.015517640356204655,0.0060816570987453486],[0.013551051910637579,-0.011532711473878798],[-0.0055578919875473075,-0.003938911556341021],[0.00727058381725169,-0.012567064392681463],[0.0024533766068783013,0.0017961714365873674],[0.0017168775467661936,0.019043422979483856],[0.005878904759997772,0.013821485859632356],[0.020710526947042295,-0.022268055990890483],[0.006161506662146565,0.0036839946603441963],[0.010725770925100811,0.01033586141995568],[0.009836987308632647,0.0038900734413790643],[0.010311860317582192,0.0004031712767365273],[0.005478773542127233,-0.00963643384206794],[0.0049683530957461836,0.010208104960423068],[0.005427393436458124,-0.006565276052344254],[0.022623116166607962,-5.485971657882342e-05],[-0.0010399509699872106,0.006117116050040773],[0.018647237697087007,0.004992597545340308],[0.005954368551267181,0.003436457972986933],[0.008195007920415134,0.01068204614453988],[-0.012412312844654907,0.0032075661836937774],[0.02105066386290093,0.012154105364560104],[0.004260738998010822,-0.007695858494428031],[0.017845392235113743,0.008890874590809903],[0.005476531905008718,0.007926389024674982],[0.007477483332918851,0.016476973810206297],[0.016854327867870052,0.02039634270863152],[0.009159215942021258,-0.00987392518003331],[0.00608458670780249,-0.021467680815910592],[0.008991636324752231,-0.012703187948091721],[-0.008566282755493112,-0.001616984048671293],[0.01719909122081274,0.00022600538543699682],[0.003636335509896787,0.0107151663211743],[0.005474084136473311,0.004026103046338762],[0.023989846945855604,