{"Layers":[{"Bias":[[-0.008706594902189405,0.0062664164962282385],[-0.0009718533176499716,0.0050228080844364744],[0.013265498512828617,0.012287211711459044],[-0.0009686068361511132,-0.03686609815766105],[-0.0008093431070316708,-0.012293973521885672],[-0.016867513138267724,0.003828041673452962],[0.0008326812633344382,-0.005366830121856838],[-0.0032701526137299737,0.011986847288082303],[-0.005061179488169877,0.021675369024549678],[0.009257749997529359,0.010887414085955558],[0.026759695745341823,0.017739797463306187],[-0.015755609813304497,-0.0017907493096906723],[0.008984257950612994,0.010217093664100873],[0.00756729258790797,0.017383308611110877],[0.0007221262780939194,0.004988152865290706],[0.0034711571270415755,-0.00860980456073884],[0.013449034663726716,-0.0029937530504415737]],"Inputs":22,"Name":"FullyConnected","Outputs":17,"UseBias":true,"Weight":[[[0.03914503160213257,0.03393205792182693],[0.031158803817444743,0.026637827210150174],[0.007617070454618174,0.03728924531809846],[0.00712498996598608,0.03560698249277949],[0.020198264421823552,0.030075460488128456],[0.029009864508782287,0.030483798848502424],[0.03931511818627057,0.035440894761917904],[0.010181587776659534,0.017883156748384105],[0.01887365888853167,0.017183422834408633],[0.04111651527304749,0.041064585693341135],[0.02892440455819402,0.03410842384701761],[0.008186762084700079,0.04092508985631564],[0.005192706129197242,0.017199435194180452],[0.025160331270495315,0.0397872822563722],[0.00669429798234114,0.041334387977974694],[0.01718837117481889,0.03402563691738623],[0.025786656995093398,0.0405072929069346]],[[-0.017502493412568192,-0.03337542989997658],[-0.008732840920022484,-0.02570879269373025],[-0.037413359213915746,-0.04127951497373592],[-0.002411902728667124,-0.04124954641967671],[-0.01448857722160888,-0.05215254210218432],[-0.01343440496698125,-0.006967007523554097],[-0.02149191495235536,-0.030241006087914617],[-0.005682129590192329,-0.03305722665763602],[-0.015132121969759887,-0.0383466170727107],[-0.0281044864156871,-0.026346800058651396],[-0.02759423137607126,-0.03861280478782722],[-0.016854406681879146,-0.03875134693505603],[-0.01677406075035684,-0.05004636581896991],[0.0013561720550192373,-0.04346714496136705],[-0.02824918867810427,-0.03674865519596662],[-0.03573747496202075,-0.038047558500464346],[-0.01824408708706724,-0.03514096115169617]],[[-0.0034813415353934095,0.020396666076547016],[-0.0019355136697568674,0.03797566918187188],[-0.01189243050110007,0.029351091298276805],[0.0015552096227540544,0.026023774780977952],[-0.0174178036797478,0.005728856701736294],[-0.01325791104864105,0.022821416122996097],[0.011702572846968285,0.012209759484896792],[0.009667680605395048,0.017324745569229],[0.015025964944195364,0.013676951790269141],[-0.017345851149354875,0.019826769361193836],[-0.0008410186234180618,0.0008693319107160894],[-0.010402375624444416,0.019061751649761826],[0.0021645531678181544,0.015012085428869969],[0.012779891731462576,0.020917337412526774],[-0.009901799059983936,0.03738941080112303],[-0.0043667721033509655,0.032307921652665],[-0.0053213288779552,0.02616467737745133]],[[0.027052232221111045,0.02114775683112715],[0.03457913175619225,0.01802320658759585],[0.01996189582986543,0.01894018041962635],[0.01651237335988623,0.003627372741234916],[0.03275524719440144,0.009557548965607326],[0.02885543359636399,0.015106114613863752],[0.043566667320310774,0.027919056739533515],[0.036491964847555305,0.005794385018876559],[0.033021231146799,0.0034650803179603813],[0.042438518081430524,-0.005391823507513957],[0.038843236157435505,0.00985822254779103],[0.027619742176717043,0.022692646232879275],[0.023739068463192573,0.014635959393022646],[0.013174751339997336,0.027554488161483245],[0.030153152366000035,0.0064384258465722995],[0.017767412561173968,0.021576582960643804],[0.03535646545237274,0.012295531779635079]],[[-0.03965568654201455,-0.0023141744330446978],[-0.02485597321234497,-0.030540292662087118],[-0.03706218822516964,-0.02607219325136477],[-0.02073294195222427,-0.039354881772030906],[-0.020549097141035803,-0.023670672454851188],[-0.018672063364645674,-0.015450541435803943],[-0.02618126475674924,-0.039314014225430544],[-0.020757553645074218,-0.033887739595777094],[-0.04287934942068538,-0.030688281164821717],[-0.041819556688028746,-0.015255377178753592],[-0.02450278794026931,-0.03209194917948566],[-0.018407468837324383,-0.019922264930658108],[-0.04171356082519798,-0.01408003503770925],[-0.011828301245928555,-0.023224228871351005],[-0.01361589706481255,-0.009159333011977073],[-0.02360811668485163,-0.020351101135004705],[-0.035303494232765895,-0.0005824862404832324]],[[0.01516328094966881,0.005410132059022777],[0.027261669346685675,0.013377561389156219],[0.018331474818656015,0.010382202393586169],[0.01833270496294487,0.008400267924360896],[0.012823483681321243,0.00171493365112323],[0.012814153990739166,0.010510588383237322],[0.02584251088709926,-0.005642704258578278],[0.009169165153424707,0.01585925787847119],[0.012346681236894617,-0.006544026030153909],[0.033388804823752574,0.017791744741531678],[0.02368523095128911,0.011821603252375891],[0.00933860591768162,0.010615214626051323],[0.016413298600126296,0.007050864773936774],[0.013896641493292878,0.01755563438798155],[0.015243556865041693,0.013189144803236574],[0.03929831980463811,0.02656512312365341],[0.012576062120421613,0.010448230187452189]],[[-0.01072924558970643,-0.015261869738408566],[0.005377677341395866,-0.030995693694970763],[0.019909081129989254,-0.03291932148417927],[-0.010160070932135966,-0.04339249144846581],[0.0011913289302806465,-0.035925112949287255],[-0.003410387510066927,-0.031234808091182228],[0.0036857942682756812,-0.03895585716231066],[-0.015823562475536606,-0.027418556554054445],[-0.022535787779118837,-0.043002248316622686],[-0.016740383150256603,-0.0370634766068046],[-0.011659422057941194,-0.011683483003506094],[-0.019229757290709245,-0.022638343924424396],[-0.013583625524748056,-0.03798277688716556],[-0.007601908682390195,-0.022984203566636597],[-0.005478107792116968,-0.0209828732779417],[-0.01137542951880965,-0.027309220344334577],[-0.003431330266144429,-0.03900063844742893]],[[0.0016663144612788247,0.032299882453070645],[-0.001842290157348551,0.04850313073968969],[0.03732030197804871,0.05635567376506048],[0.026438475386161772,0.03640516295070781],[0.02452277877301974,0.04731430982658581],[0.013392176887935335,0.030450725620936446],[0.015885461475831718,0.042417735943764884],[0.0012278165332341728,0.03247262163546847],[0.005833745546210819,0.03367875118714805],[0.008707099123779915,0.03111635296089309],[0.027072609074715925,0.03948354103982826],[-0.007480572486060139,0.04423431401202599],[0.009972320322242531,0.03957430676629932],[0.025020726142266126,0.02386564869540259],[0.01371629910947884,0.04364981451234244],[0.005478444513311507,0.049088083568712026],[0.00525660723187441,0.04014443123740752]],[[-0.019097775435303496,-0.022479969073440364],[-0.026221295935099496,-0.03287749011733034],[-0.028159850153792968,-0.021522136556111182],[-0.00897585230259143,-0.013082468297120309],[-0.03386382714114864,-0.029894223538901782],[-0.019287062824386133,-0.03919022436019193],[-0.020076773052702373,-0.028408371050343325],[-0.02669319050931781,-0.025512025187182662],[-0.006739680698728161,-0.03897238955695205],[-0.022792153522963016,-0.04243269547499576],[-0.02379467356742848,-0.022957305710403293],[-0.008723257818638239,-0.038672827667972635],[-0.03227658004970683,-0.040176922981390424],[-0.029302638757334916,-0.01724608308409621],[0.0014410180794310673,-0.0415730099509072],[-0.014759784589408523,-0.03837540251737502],[-0.009927028728926765,-0.04262040299539817]],[[0.031018331431712926,0.01560227332401809],[0.028299219027548214,0.025078062977524483],[0.028948235408161556,0.029078180718168437],[0.023947745063097457,0.03624842052051292],[0.039848117780121026,0.0348153336396101],[0.020632702459620587,0.025374859144876714],[0.01637813196732204,0.015548606674060427],[0.03833914604468619,-0.0032037803044263494],[0.009176176221851785,0.01861614878074104],[0.032804531320831706,0.001994194855096292],[0.019780366063194103,0.02548081423979029],[0.04050881963724014,0.02137565038981587],[0.038418759642437135,0.01566528022579175],[0.02150933243234675,0.03494223541053443],[0.022682215598904862,0.023280174124570695],[0.02933399741314635,0.01818594357839934],[0.03556631903349615,0.0165506233195441]],[[-0.017463358687923522,0.027023424563441017],[-0.029612712640991048,0.015040140626505258],[-0.04311406565474327,0.04221110936310655],[-0.03484644679027244,0.015760291262524526],[-0.014875124643964233,0.024540594256395067],[-0.030730219003916388,0.03744452169871486],[-0.018599444828480468,0.01907644174301939],[-0.041523790353449,0.0168121974939836],[-0.046762322174578826,0.022409367739234156],[-0.01737356817850357,0.013388364425625805],[-0.032789976480556246,0.020017741304302585],[-0.024531481137062817,0.0409786019858948],[-0.017122081025256856,0.01875790929761531],[-0.028097135432192204,0.019231455994703554],[-0.03129401799381222,0.03032155545565184],[-0.022668578507008482,0.03241479413200438],[-0.022085352578988148,0.008987808751733762]],[[0.038172524691626145,-0.031204428300390396],[0.04056932325606015,-0.042047211780412284],[0.03220185008493985,-0.04708933233969884],[0.028623053832026832,-0.02520273479126998],[0.028936221171078507,-0.023047038738403094],[0.03904019354450377,-0.040900816266249286],[0.025491842037372252,-0.029898328573943957],[0.03706393337763804,-0.037215383117231306],[0.03278658537018629,-0.030988627231339272],[0.007125828595248333,-0.03329867878063439],[0.009996404175864029,-0.03420709098364108],[0.02451114945380575,-0.03131472327969752],[0.03742446044410648,-0.014825693512769291],[0.029772757814325073,-0.0420582522819053],[0.02693665279035548,-0.037502201238436554],[0.008325339413479859,-0.01772326856957134],[0.053235618364476205,-0.035982520066872914]],[[-0.03223421617439983,0.020980989359606742],[-0.02878934209080514,0.022167023048684904],[-0.02625023785029568,0.012323192992517598],[-0.035575144289264775,0.016780300815570554],[-0.017695451924476295,0.028313537847373293],[-0.028329383790440595,0.029618193950215765],[-0.010335621724059286,0.011137800558307587],[-0.013237549438171601,0.04211885556891192],[-0.023110732949735268,0.01567036230835512],[-0.025722213392348713,0.03043019737266455],[-0.045563196765227895,0.049550100802381626],[-0.026970977246446478,0.01650332827896275],[-0.016127060446514064,0.024422157399428483],[-0.007181159191945222,-0.0015585554588031117],[-0.03397417031776304,0.020055223762334352],[-0.02728513942279517,0.017582116182429226],[-0.036866748858470355,0.026811290551367304]],[[0.029218100273667235,0.001776037774363703],[0.03228760011052625,0.0017130838225772021],[0.03428076123570901,0.006171864704204071],[0.04245767736844095,0.006314272527093159],[0.0504389712871464,0.014528742516399283],[0.05309710493950684,0.013723296672149185],[0.037724487616943546,-0.00016227008768829586],[0.025290081378483185,0.018568167310774052],[0.04157598062282948,0.005602585963867421],[0.03575512450304699,0.0118931878267041],[0.022838720344313508,0.005268719851881787],[0.03584054204587203,0.026365643884578134],[0.034736122839790044,-0.007248273169914837],[0.0321653618754626,0.04681671068174092],[0.03699036451654327,0.011238951954094106],[0.03722581759171778,0.009407363898469814],[0.0272482330582404,-0.0062664828958561595]],[[-0.026496829369424792,0.016531357408612918],[-0.00420314006362337,-0.04115066891629571],[-0.0452363082662547,-0.008884084074733307],[-0.03437128467596683,-0.028653790027331677],[-0.022083666142410394,-0.002097207848562421],[-0.0388978618035017,-0.019778453778284338],[-0.024201419017731936,-0.025718091570617052],[-0.02568006634309978,-0.005930294391135163],[-0.027777772104485895,-0.031509293884851027],[-0.027955648267000956,-0.013906681112461128],[-0.027018987553115506,-0.018529918404258144],[-0.03446245590416551,-0.02575973587937925],[-0.024367590334413103,-0.02811344475961862],[-0.027925159802766192,-0.029582646966907114],[-0.03413566963249118,-0.020907346253863368],[-0.04712073957138935,-0.013009569419928528],[-0.027670346008590103,-0.024379641552970087]],[[0.03232518162345446,0.007452011558085686],[0.027202404208828516,0.0161111141259008],[0.019824036699889254,0.012580009006336887],[0.038174944584801196,0.034159027992209975],[0.009597549216256445,0.023338365581552434],[0.04013742636546163,0.013877553176584118],[0.03238657833943468,0.027268492910353246],[0.031352814783947594,0.016606821738362452],[0.01750529018004081,0.03196063604265027],[0.03435571794913874,0.015154357385960349],[0.017099714761553354,0.015576385863254235],[0.023292271671184306,0.017149737638602867],[0.026587529600665925,0.017195952346061017],[0.017405591801986878,0.022810917697281222],[0.002307112280036754,0.0029296155159355694],[0.012797499277160633,0.030623792980077755],[0.02024785793366598,0.035310901834151504]],[[-0.02454221401908818,-0.017415400028145487],[-0.017981115550655485,-0.015019145130229372],[-0.038067218949855805,-0.04571935529593692],[-0.02476559527057536,-0.023930657107147906],[-0.019920461740439998,-0.027211153231059517],[-0.0067528793960626695,-0.02894203831890897],[-0.022630289450952194,-0.031299749897169445],[-0.03031265970806705,-0.03012406947714791],[-0.02857217956404492,-0.022573564689008053],[-0.029995343902187218,-0.03548183744384033],[-0.03061535192841573,-0.028133145106478855],[-0.04263832116067985,-0.025165409703052217],[-0.023863567602725035,-0.020102415319710167],[-0.02215583817579621,-0.014810742795666383],[-0.020410668633953164,-0.01149120530490519],[-0.019918697133973515,-0.030026464532762105],[-0.009994812789143383,-0.023942391534288208]],[[-0.00037451980172327357,0.03065819810920954],[0.01258340621898243,0.02814511625119288],[0.0049391915637562395,0.020358450619147248],[0.007266968715477497,0.013269657298649876],[-0.008162687970852024,0.010797304358559188],[0.006162619523154003,0.02479108137613959],[0.0010152401185980317,0.02979968440677316],[0.001317207181238265,0.03392439457412977],[-0.007139320588560919,0.03238210164301105],[0.013732144747351788,0.018641250469481965],[-0.0063203201476927226,0.034740318384007846],[0.0005515526780585359,0.020037863345839086],[-0.002589184306876342,0.0449538055319943],[0.007478573384837232,0.0391638958140818],[0.010483040451333902,0.030239148863831597],[0.0014573962371139193,0.02232353461832052],[-0.018243332795735256,0.044118171923888505]],[[0.023175372992669745,-0.010408767077751945],[0.026753602171593227,-0.023789665301767602],[0.010640300132474514,-0.04111129497557688],[0.019408756671283865,-0.013452981080948482],[0.01826546435435879,-0.014234698458645145],[0.025513888498799497,-0.010089718976823358],[0.032353568054492965,-0.01533691556344007],[0.022129026104302722,-0.0238401209066007],[0.016208311173613685,-0.013626701753730376],[0.0220072797858991,-0.024016308596604592],[0.01085329096052006,-0.0339500680110778],[0.0004689437243304589,-0.021982825463702803],[0.028512793563007847,-0.013238914375040869],[0.008308418126896214,-0.03885024236936787],[0.023047168909835675,-0.008725793709688933],[0.015025382925249069,-0.019163047016378845],[0.01600202477168929,-0.03076934704238015]],[[-0.031208222782125372,-0.019865479243476127],[-0.03793599788476765,-0.02406542188867862],[-0.03685531095726646,-0.0308566740936852],[-0.026728016830281556,-0.01811016213931356],[-0.03831673337175926,-0.02171272763622866],[-0.03528037699584238,-0.03282792852776318],[-0.01983207644047359,-0.0192223655921209],[-0.035117262880609144,-0.030777550570152523],[-0.019026959592815168,-0.028228293817210183],[-0.034080131694697965,-0.024992010644041003],[-0.03131724171089251,-0.03903056822444833],[-0.03533266260847956,-0.015195964494637514],[-0.0189446136315912,-0.03904887777525691],[-0.01425825962887681,-0.029542020779649583],[-0.021342625789705246,-0.0211727025496296],[-0.013000677796150705,-0.02476822981650327],[-0.016037807507758146,-0.032247361728861515]],[[0.04086295319540214,0.04177097545368987],[0.019625430236378128,0.018499574157655508],[0.037432862123891616,0.03142630849871676],[0.02385884082245959,0.04664599906719701],[0.007356737137517501,0.01194437747640015],[0.028731857077462942,0.04018267681502851],[0.006970154174375321,0.03465242814143609],[0.02678648617840453,0.028956588655129012],[0.03147530808195621,0.030301048866866454],[0.0388558880475171,0.03183103926188886],[0.02511177690824404,0.017065178566789654],[0.045028800653621366,0.03710229253444323],[0.029699817566612236,0.009961318043682095],[0.0266332779014694,0.022951782439116674],[0.02936639018064555,0.04216842473926309],[0.03926294680852771,0.02715685048508374],[0.027854303005107595,0.02170420493044306]],[[-0.03655055549608633,-0.03691035567808742],[-0.01907615775241432,-0.04579093319412628],[-0.02559963253492478,-0.04404274785694801],[-0.03144403453328117,-0.02533398925157945],[-0.017814079299487518,-0.021433149839834534],[-0.03209873645813005,-0.03580212244949378],[-0.03878132533798606,-0.035357714421067686],[-0.035055481131599835,-0.021569012199304596],[-0.02868499577439043,-0.03242633046207973],[-0.017061177219387307,-0.017208091492882018],[-0.02936746525485941,-0.025430109726394878],[-0.0185494967902959,-0.02283524818816342],[-0.018793301546398775,-0.015450617153379018],[-0.01795822639713625,-0.02959610051805184],[-0.03082999610228399,-0.04208662253310596],[-0.017348866624224007,-0.03190992906647648],[-0.043967168727223734,-0.01284263376795174]]]},{"Inputs":17,"Name":"Sum","Outputs":1}],"Name":"FFNN"}