{"Layers":[{"Bias":[[-0.020879277780660357,0.009523100882659495],[-0.006056842865327942,0.008971104444981401],[0.005218060874180248,0.011015999650169358],[-0.014177026900157038,-0.040518526550384903],[-0.007691600817578963,-0.0006669709500343661],[-0.023195650775876563,0.015270974188201501],[0.0017453626387613453,0.0027991340066593606],[-0.016436928012300255,0.021341992515715003],[-0.018866283169789878,0.029471402360690686],[-0.005699978511511303,0.014127051592510981],[0.025634088066691443,0.025317902367532334],[-0.0301812895394587,-0.005381568624885339],[0.011392707205307289,0.018623687876403987],[0.004701980336466629,0.024823030026901945],[-0.006815473375582789,0.012196581579080525],[0.003897248472977832,-0.01161270058099895],[0.013864965363287724,0.010188043252403443],[0.005098624175569462,0.007280411141306601],[-0.004100644797987592,0.006675368228443499],[-0.004657211557887361,0.003680552960016487],[-0.016492947320832778,0.012095231243237392],[-0.013564451791836846,0.02413777926435199],[-0.002566822143782437,-0.004696100722167255],[-0.016146492402515852,0.02301618926073547],[-0.015438607816175516,0.011104195957696378],[-0.007379211348782536,0.010460359408029135],[-0.0027662325472126753,0.001028241687704578],[0.005347669489382167,0.010971017438199927],[0.004671742466191565,0.0026210495851404225],[-0.00809149996553362,0.0030574529631681993],[-0.012650822401687844,-0.004385983769092631],[-0.006370114447779904,0.04837415533002626],[-0.00339513427585269,-0.0021012915268713473]],"Inputs":22,"Name":"FullyConnected","Outputs":33,"UseBias":true,"Weight":[[[-0.005572270332810698,-0.005092492285398998],[-0.002630025249978349,-0.0066543523989832185],[-0.019414592735290215,-0.03203580507419139],[-0.009469636683357027,-0.016527693623629543],[-0.005659249110527861,-0.020112624959105745],[0.012437195721593769,-0.016974021085298902],[-0.004842748710358701,-0.021178171199309072],[-0.012492582647846598,-0.01899761330898114],[-0.011497838473868491,-0.01064946715256207],[-0.012380914701237155,-0.02560438416483738],[-0.011251659987474334,-0.014327207184548099],[-0.025235014416833092,-0.016293031574476157],[-0.0075067209111476275,-0.006564352083056305],[-0.004730656700102476,-0.0009240301050602357],[-0.0014704955390090315,0.00037072052454346124],[-0.00715871950287248,-0.018705310186955048],[0.003946546955973148,-0.015829793732045246],[-0.016614282997138775,-0.025774059924806067],[-0.005365513897651675,0.002061187742350195],[-0.0011737713301307004,-0.007947284503635051],[-0.005607215698953663,-0.013555618703663407],[0.021272531913988667,-0.016105560798418687],[0.00587254589538982,-0.030493552596114106],[-0.004091700929426891,-0.0020654224359265604],[0.000233069590463393,-0.01850986948364235],[-0.013454706168734041,-0.00248935304855783],[-0.012963733207613104,-0.022919559363341654],[-0.004155214946201181,-0.004304453769116973],[-0.003467053116227344,-0.022671173250179262],[-0.01614669217296449,-0.006727823734031536],[-0.00039237379497041887,-0.023091295878703365],[-0.0027554170722329224,-0.02145298219166188],[0.005824928500615944,-0.023120864464769984]],[[0.003030489898573115,0.014385385286062315],[0.018121187907713138,0.013051164486715169],[0.004950848859692738,0.003714824894790471],[0.013913428361524824,0.0026918489315354336],[0.0010865267531516142,0.00014871873743389598],[0.005047136088941673,0.010740398009892847],[0.006262463139308967,0.016306558141858607],[0.0028524524711584028,0.01925287176785129],[-0.00826489444502702,0.017589456576179698],[0.013065021103568782,0.005755295707865104],[-0.0014734468634848862,0.014985170047771907],[0.004094036836495003,0.00843190676592562],[0.006200989480800089,0.028157272680727388],[0.012956755374176903,0.020584609315945458],[0.01066775142471654,0.012349056124364757],[0.01100184576946053,0.0066734404240557385],[-0.007786935880446135,0.03041310703777017],[0.010854125614357698,0.010942210358155449],[0.0042888672184003135,0.023250271313785178],[-0.001204596713983529,0.01629753554839853],[0.015638947421610178,0.01135414673356729],[0.010008831286769906,0.02285587958116754],[0.01866454482145669,0.006636647217406707],[0.0055450467653140705,0.03122025968805072],[0.010232670444776038,0.0013115468162837151],[0.004855662150544699,0.01559463380111702],[-0.011327668213142785,0.015145006156123643],[0.00012788740192810503,0.01657394888706234],[0.008460894922731017,0.014517195177619645],[0.012375876505778911,0.015784743148087848],[0.005718280598292908,0.025358432386343072],[0.016175469408954746,0.019327563168505556],[0.008850177497017997,0.011486551018184757]],[[0.012047182237591034,0.0010394474352096825],[0.01214620427806012,-0.017424984200823466],[-0.0018110702728933125,-0.030927117682495682],[0.007971750376896826,-0.0067489152880158285],[0.006510306874843009,-0.010304346695981787],[0.013404637077149353,0.003872414197288571],[0.02048238795656453,-0.005219879313923074],[0.009824142951310726,-0.014585076221289232],[0.003726912993870932,-0.0020741405204157603],[0.012083176209433383,-0.01577384620529173],[-0.003160141210614317,-0.021528250251717576],[-0.009732088016880646,-0.01350563884861231],[0.01534874556918426,-0.002606343800300402],[-0.0041430902366290925,-0.027860194507847276],[0.010454858297621003,0.004382746780731641],[-0.0018401421261550904,-0.010419327624635986],[0.00010673862495938118,-0.02275953295100112],[0.006885595808004243,-0.0025724337079492876],[0.0030378830890589103,-0.006782139963221648],[0.007659694152412582,-0.007166919547909354],[0.010982622308095201,-0.010478586118984596],[0.020000477961532297,-0.003817547808050952],[0.007936886787904714,-0.01159378470315806],[-0.01799367691782667,-0.006931331671010401],[0.014027019240350203,-0.02299404675357097],[-0.004832855708509494,-0.024247093910512198],[0.008402687140692491,-0.02129080563139775],[0.024967918218159316,-0.0007518325570453733],[-0.011580636984129398,-0.011106782363811655],[0.011331957535967475,-0.01805429024557509],[-0.005935827480796573,-0.022018496656315098],[-0.0004435557865908032,-0.005534639658050667],[0.013282144810967756,-0.020199910263215694]],[[-0.01404959518891804,-0.00802047298052872],[-0.02328273836624729,-0.011745415534417927],[-0.019438464068899618,-0.016743984477104838],[-0.01089884577072797,-0.006923521551837522],[-0.025416127053969985,-0.013674193606060075],[-0.017240996668425344,-0.021120882022753164],[-0.005430833526732135,-0.00945032470766689],[-0.01737484798915409,-0.019106226374748254],[0.0007717446016313901,-0.014162645719023325],[-0.01335560535943079,-0.012544528059634762],[-0.01730686046916238,-0.02363619869492127],[-0.015280498761652814,-0.0023513018209828057],[-0.008455881862575685,-0.02628586734588861],[-0.00017061941993348032,-0.014884334977613342],[-0.003244285223212301,-0.006966420923150478],[-0.0032086521731597207,-0.01126093168096805],[-0.0052345090976036205,-0.022812970968400643],[0.00020797363946957714,-0.0032575564762785405],[-0.03231214954134579,-0.007839793617430337],[-0.012609729674062015,-0.005791222578908379],[-0.015309258344294297,-0.006681341344863829],[-0.0085026278538429,-0.009617755491110214],[-0.01856271529160216,-0.016332014411013243],[-0.010221915292083692,-0.021993159835315815],[-0.00958487090971774,-0.03270952902886745],[-0.0037894374087907635,-0.023830271040545335],[0.0007986172480645873,-0.007558497364168555],[-0.006039792696653922,-0.017272453892420485],[-0.0038186614162128746,-0.01823798153488552],[-0.012052525851748801,-0.015273722689735918],[-0.006193099631954277,-0.02800758412917264],[-0.019525805152298376,-0.025320169911307623],[-0.040829769263141504,-0.023797460182893585]],[[0.02312828369302036,0.02918644415412495],[0.004426645682245089,0.008296719786946476],[0.01708119971838713,0.01686705944252518],[0.009578586006517701,0.03836145035146455],[-0.006659597532623848,0.006037428971970251],[0.009256146436020254,0.027428583428986738],[-0.009255315489507086,0.023052850957594975],[0.009395216636315382,0.01629843287609475],[0.010876618796968933,0.01726169377160125],[0.020135351134034186,0.01939409210556582],[0.0067575309642061735,0.001989245478303986],[0.02833723701024438,0.0270654641813372],[0.016239150692183242,-0.004138810680919176],[0.010513374719727972,0.007565785357543525],[0.01004957456654262,0.028014902654809905],[0.02669280464204377,0.017564214940437525],[0.01475372274073393,0.012288144351084617],[0.015674645296154345,0.017314009187170704],[-0.004836580189019564,0.011863862548024798],[0.01066468118652943,0.016679748209876756],[0.026797090334667227,0.008130859513020715],[0.009999760278363521,0.008149266465082],[0.010462609154583262,0.03490269682653111],[-0.0009609688164216912,0.01667400738736036],[0.00639577546926097,0.03018992996692204],[0.027522349786907617,-0.00012659996027421404],[-0.0017461207601395903,0.020759157350503724],[0.007826320980644128,0.02346228395785422],[0.012496576683284636,0.010503145408528796],[0.0022426925126587736,0.012563964724576339],[0.012471261060611999,0.016862138366829166],[0.0023777849300792376,0.025366928617119713],[0.021935173744191263,0.014742661956514502]],[[-0.0207716216534028,-0.023582732241153082],[-0.00584989092541414,-0.034979690156089836],[-0.008068545203278108,-0.029447063904481457],[-0.018983533126386794,-0.01550474751321396],[-0.005442853013091603,-0.014259743631324637],[-0.013136936690291154,-0.02393627498257562],[-0.025723970005620597,-0.02357432136979176],[-0.017988101428123408,-0.009545999894027882],[-0.009059190413031588,-0.01879510748594588],[0.0023667966340184,-0.006024299283298648],[-0.013177582689670621,-0.007444450092642264],[-0.0029550791518554932,-0.01121460893071306],[-0.0043074636074180266,-0.000520137913883358],[-0.003542205405249874,-0.013594347394246824],[-0.01203814207931306,-0.028578791091408703],[-0.007280602519204167,-0.018992333115529482],[-0.03288395115087076,-0.0011152417397870598],[-0.014157197870296014,-0.04035213353329358],[-0.013780591496562144,-0.01541658771745891],[-0.01190862595139706,-0.03204495314703617],[0.0031739428928230845,-0.02022238023251387],[-0.02231049033686718,-0.013467733764277076],[0.006703780677712764,-0.0034719078857127525],[-0.007613702177153885,-0.02308098515963575],[-0.01640495675764544,-0.022763934799248625],[-0.006193893364182807,-0.020255889560467817],[-0.02053316912660117,-0.025539387730033544],[-8.67308651383301e-05,-0.006256004181439445],[-0.00730398481505835,-0.01918472894401904],[-0.002646592938179124,-0.027729624734733276],[-0.029607684170084934,-0.024149064366662972],[0.0030320547040764987,-0.0063350007680522125],[0.009653703674219541,-0.018503200242326597]],[[0.008507388340593185,0.012042964268556893],[-0.009837278375865113,0.02605869393900309],[-0.014340051892270304,0.02015534700787591],[0.000369876316746188,0.021221095141731355],[0.011491612639521793,0.023601071512503027],[0.015863091697906104,0.021793017499296657],[-0.00921382744730795,0.004863934153803836],[-0.002579852970342999,0.004711335723617847],[0.01566841770196999,0.027272443899540613],[0.0032834173763852145,0.02209784678483071],[-0.011038660931403885,0.022166402094241325],[-0.016668285202885044,0.006348396534594142],[0.009903033787624103,0.02400825314095891],[-0.012753967144723712,0.024694207106952464],[-0.00469801682015427,0.018575564396917096],[0.010988520380323953,0.02721946284919787],[-0.005859296385746364,0.03267339840092719],[0.0011418299434962163,0.02416267645410588],[-0.010435283905884874,0.017684115063967422],[-0.0024029287925892147,0.023034696498637007],[0.012394321710766413,0.04077708776782945],[-0.002774058539556645,0.014876690818288274],[0.008970989801901454,0.0324991182733379],[0.017958678986495627,0.023620467262861097],[0.016262142438467405,0.029101916900957033],[-0.0038003943862726882,0.02264264764609044],[0.000713576112959685,0.02091429997842447],[-0.009759551751695128,0.007826136707462449],[0.008183052296994512,0.01990607035072082],[0.0011986165034910661,0.02900123314599331],[-0.013600166424110043,0.016024999562702282],[0.012545378986553125,0.023110118978952716],[-0.009667359585370934,0.0226509901548688]],[[0.019297062858379812,-0.0032575977185034027],[-0.012138923298546024,-0.02280797356011722],[0.02295642232789901,-0.019026745307804408],[0.012204923477653772,-0.03504449229122463],[0.011840047281191333,0.008392980932178015],[0.006277664348057681,-0.007254380172888623],[0.021533536074418852,-0.012949814545578676],[0.011547775643225686,-0.017680449275605446],[-0.0017445170852179823,-0.004686729395255166],[0.0013539026114011467,-0.017638341381335312],[0.00797998323737243,-0.013247373548416793],[0.011605440993826294,-0.030275672238511773],[0.02386029560300903,-0.020775843074465904],[-0.0016305670881335166,-0.012983275707509234],[-0.00822962611422314,-0.013447407016941523],[0.0035871697515412653,-0.01565241731472686],[0.009035451657327059,0.005254263883233094],[0.02854205356439947,-0.004938484445238372],[0.013094630999024304,-0.029257378136439076],[0.0023230383161288054,-0.01114999731002993],[0.004288338327259924,-0.006169243594922861],[-0.0008620315485374363,-0.014647622220006627],[0.016126341207661495,-0.018803704970285835],[-0.006691271004658748,-0.009422441225843022],[0.010534995778836747,-0.011701187346227715],[0.003373881702636011,-0.008558164330954257],[0.005853408240607645,0.0004858075509638722],[0.006242650735283253,0.004886262825414131],[0.023909621008297296,-0.009752304798093626],[0.006060604659608405,0.00743988137740416],[0.003916899732173497,-0.013001163815968407],[0.010620813579932394,-0.0036518005617111765],[0.0010171326897974269,0.00471434135570218]],[[-0.012033100958095582,0.012629995606259915],[-0.01971229942047062,0.00778518954300808],[-0.004910154711727745,0.0007065510923435651],[-0.02507561982881939,-0.014518739385883347],[-0.02087822147086849,0.003796676795181501],[0.005849857435702434,-0.015020352877398821],[0.00022112448177753427,-0.005240464610306681],[0.009442720827791032,-0.01070285067987962],[-0.024024659483167277,-0.0032078266960236692],[-0.010249528809093243,-0.020705832629029867],[-0.016103445236666625,-0.005414186380053829],[-0.004885265139164394,-0.005260115448793881],[0.006433461688879125,-0.004818381469773131],[-0.019738524932400553,0.01258836340122425],[-0.011663936840149098,0.00769801496247345],[-0.01328203556650202,0.0029867759148427325],[-0.006012635189487231,-0.010905551662015662],[-0.015661884645810614,-0.0030946866406374967],[-0.020179876980961735,-0.0027878282886250366],[-0.010356787655549185,-0.02180085341146764],[-0.01966120928550586,-0.010567790543304428],[-0.003166627651531441,-0.00677723950648039],[-0.005984165500404397,0.018458207162031736],[-0.014929413147291933,-0.01116832418405697],[-0.01663751108240995,-0.011991984560685136],[-0.005319682081675558,-0.007690471296784034],[-0.011552707000496583,0.005184660148372938],[-0.014403074256401124,-0.02863903418932077],[-0.007106657049937704,-0.01343134126587738],[-0.007901284359924857,-0.0009564175734680326],[-0.0040477415671853366,-0.005731222878059499],[-0.016012664453958762,0.013653634894219701],[-0.017963353302132872,0.006451206925026044]],[[0.012335509805824792,0.010151069217699519],[0.0016052822616066205,0.014467130190004706],[-0.006417433492767988,-0.003588750915884604],[0.01370627727174682,0.002722228960944833],[0.013395285265649103,0.01289995780269694],[0.01722758432340595,0.02566530327364494],[0.018550683887621804,0.0002901368671922002],[0.011100485938949621,-8.074412419686147e-05],[0.018222107038877562,-0.012431573692479355],[0.015582601608436202,0.003127096782073258],[0.007824052080066587,0.014579963519461083],[0.0014809571631331344,0.009369815576016275],[-0.0037678937165129267,0.01940787586288586],[0.010061720918434823,-0.0016137030850748382],[-0.006762916749800096,0.016890580626738042],[0.018367975632075338,0.005353368461327661],[0.005746159225489214,0.023415529728476703],[-0.0006035560056694779,0.0017995057266678462],[0.016982349936324883,0.019887476899070958],[0.005254049936824807,0.005839541884894008],[0.02042040926452102,0.0023432463406316047],[0.009378329533393945,0.022005363260464657],[0.024007301874677457,0.0089666935222031],[0.02469266669858455,0.005662061602851237],[0.010100495102121531,0.014200416394195132],[0.0027626045870021575,0.008494053809048293],[0.00789862863195018,0.004414178835528612],[0.007629882074931634,0.0010559277845535507],[0.02071456688460565,-0.003356530903685085],[0.015521718669935847,0.0018321142367774535],[0.02628726261448476,0.0032524402967340775],[-0.0021144253243244567,-0.008688661587825143],[-0.0033755634655367214,0.01726527462887783]],[[-0.005836120578699392,-0.02027998798156743],[-0.021073359404990475,-0.01843228260246697],[-0.0020500384244685897,-0.028011609443951896],[-0.0048550901438342365,-0.01601470667579745],[-0.004062594992506838,-0.007239816367182862],[-0.0074846235351301825,-0.030266077374956454],[-0.0037447254211302647,-0.024737760315032515],[-0.025431262778346085,-0.02261995391687762],[-0.02126923808494693,-0.005561769307305282],[-0.00532396147824441,-0.02340965780625485],[-0.001833608017869019,-0.006456419901855987],[-0.0248616848848365,-0.005559118791811258],[0.002448585324143629,-0.009490598221267393],[0.00402773932416991,0.0037323058382880635],[-0.00464803819486183,-0.008531772302656697],[-0.019017413725200744,0.013006965444299764],[-0.0006730417612081438,-0.01485906121186957],[0.007264544914914371,-0.025301557055019415],[0.0005702951195425632,-0.02597294216759062],[-0.016642771928560035,-0.017588236309279373],[-0.02028129144633815,-0.009492894429406392],[-0.005213188642569556,-0.00938622775045254],[-0.007605624613594311,-0.01890700280761865],[0.002828285532118822,0.0019262249180612664],[0.0002900619842061103,-0.036236475051284606],[-0.01883679299802103,-0.009780091780209877],[-0.011291883051492974,-0.015324530348556983],[-0.02486462397196637,-0.004177336649289527],[-0.00870844261205095,-0.014540467510100366],[-0.0024066665665034258,-0.004681938535506082],[-0.005449576491840037,-0.01375116527660843],[-0.019862783425375025,-0.025034115254558686],[-0.006445579282892267,-0.02271932926185093]],[[0.008012713268296116,0.012378377138563277],[0.004728308701801469,0.01070437522542187],[0.0024712327884775878,0.006086443507379135],[-0.00260506361264253,0.006278154599659986],[0.00022007040272553147,0.014866667680890722],[0.006360998037544605,-0.00598991295342603],[-0.006273088715110962,0.01740643601700045],[-0.0045227446913212455,-0.006428433949801846],[0.01389871143437593,0.016800394654927185],[0.00444298254422136,0.015453008326692786],[-0.005098051924133164,0.006676285665802085],[-0.0008933896920633195,0.009189699847574154],[0.0020294747194232517,0.01630624214699109],[-0.00043059467229130197,0.009773943789482958],[0.018675522680505006,0.024403871754258576],[0.0020363052665542335,0.010412576882390773],[0.007266659944768631,0.01796109932843946],[0.019090509854340697,0.011139037668317676],[0.004901028281577001,0.014839417235194155],[0.0075311286720588155,0.02114663997424131],[-0.010252415809706397,0.02445133150290719],[0.00802763059403042,-0.005977262356296762],[0.0007237893304421264,0.028655625421630682],[0.00439546900938205,0.016786172105360722],[0.004892807954754646,0.0024820860010034175],[-0.012806267910732234,0.006404522399304216],[-0.003127233072295968,-0.00035928705029003555],[-0.007965138621881019,0.004956520450119013],[-0.012134072326053277,0.028924328229049532],[-0.0004989462970745362,0.022035564795285654],[0.01138600490846951,-0.009063870756566764],[-0.0004555420698164271,0.01784072528557121],[0.002156280001259484,0.01921144283822263]],[[0.012773981000317928,-0.014576698670913877],[0.02370127016897526,-0.019951186757739846],[-0.0007091405167517403,-0.02636638554811845],[0.006154273178712598,-0.02475560216579697],[0.0009065650478883578,-0.02198558075948626],[0.014726401401866832,-0.023226913835038665],[-0.008663780640790451,-0.012489428631834236],[-0.01229233734545131,-0.029001871899890893],[-0.003579252571694935,-0.021238039807855786],[-0.0012227490391808814,0.0015247818817115818],[-0.005751468929841814,-0.004714134913140131],[-0.005096626266456311,-0.024051875028302926],[-0.00240862127750109,-0.004622006446800371],[0.00018964448120095592,-0.0033282897054447594],[0.00029783458626702865,-0.010543021557705139],[-0.0013319979276268943,-0.023726897508575706],[-0.0030818124076855773,-0.005615084274520574],[0.0039134115458069035,-0.019355976313494352],[-0.004682827992809778,-0.01227697533376104],[-0.004375930504709159,-0.008923588357143004],[0.012072787780867018,-0.021131737267193897],[0.011248924510558502,-0.006597393112631592],[-0.0022422362655343977,-0.00646237117862705],[0.016773775180565526,-0.03673119218949811],[-0.004101092763876346,0.0031488500369880683],[-0.008423150382578315,-0.01919266510270537],[0.001331287632770509,-0.023977300588671504],[0.009087419647717606,-0.0035752259798593903],[-0.006704999089065341,-0.032524739383395194],[0.00012278881979798246,-0.007139515683280412],[-0.0017710319942812606,-0.02122558299342831],[0.00897847096391593,-0.014160399951804445],[0.00030554189402130197,-0.02160592231213873]],[[-0.015892488231204045,0.024503700321916736],[0.024410312488511693,0.036380167949379254],[0.009661043491339153,0.012865688871920541],[0.012139003357101254,0.028753345057687646],[0.0024659509178488487,0.012889804682573676],[-0.001297457070012568,0.01896367870408288],[-0.011866503157217111,0.010857724314689567],[-0.008132358395091611,0.011266452168089329],[-0.006500178939994286,0.006577799048215615],[0.011558417149862256,0.019310868579175803],[-0.019166865998515976,0.017155080315767894],[-0.005103957373236212,0.018485962984231087],[0.013862358276350217,-0.0005024980480983397],[0.00042690261681880247,0.017575457514597305],[-0.010255882348036044,0.024026463676456365],[-0.0017444083729023154,0.017912783063801438],[-0.00913985558453433,0.009402472557427459],[-0.00031165861384124956,0.008461990743742615],[-0.0037042004817957083,0.003576280971696097],[-0.0006861943491374087,0.027536266064435808],[0.0022423567967918916,0.021104304484874048],[-0.002802687015681429,0.02056019776628341],[-0.0014553266925960158,0.003967975361819435],[-0.020511757903825846,0.0015746805387431458],[-0.019338397518317212,0.02097743341330112],[-0.00829835226498304,0.0055991902520908556],[-0.01162521262498117,0.020533300771909457],[0.012690289734614052,0.011943134931236518],[-0.006031808788119476,0.027473289457760706],[-0.00460007821690586,0.0157685979946314],[-0.013756106053641118,0.02739581789467755],[-0.0007523156894755132,0.005159316625652647],[0.0014422247293122711,0.0043714842002858115]],[[0.0017331288704425017,-0.01342438314425981],[-0.002835403787257387,-0.003167747585937424],[0.01710177664775454,0.008037860084498631],[-0.007608050312454145,-0.016458248826493698],[0.005173197080502914,-0.02692994773517048],[0.008188869051669153,-0.009726222131550614],[-0.0009353776345568422,-0.007968542659823333],[0.020037495104267004,-0.021584383261290647],[0.006183748109176686,-0.022984479269133065],[0.006511876413780412,-0.005948987562924447],[0.01563786785653114,-0.01631958886941944],[-0.003618012148134335,-0.022959763957227444],[-0.0030230876388808448,0.003507609543694456],[0.027163988834318278,-0.020498750398290192],[0.013409911245221758,-0.017895230797960016],[0.01136487089941171,-0.02462904462662135],[0.012217974466607207,-0.018404176525482548],[-0.005871008589092549,-0.011615787172761544],[-0.0035964005524193915,-0.014546077119597416],[0.0035117221422818565,-0.012838219133878441],[0.023813178488559857,-0.020499100747912877],[0.009500408020863993,-0.004716084480042365],[0.007567760189265855,0.017031684545895383],[0.0030379119168765303,-0.02100235478468265],[0.0004865035835558158,-0.00830836230967922],[0.01402295728660944,-0.010860533579501976],[-0.018801561004467202,-0.0061854119656170265],[0.0031307269664813163,-0.015302870169313846],[-0.0015487534109607807,-0.006168374354069084],[0.00453537432925825,-0.0013594032865090664],[0.005070896817238976,-0.004348008520770127],[0.019011364063159664,-0.009783983551400621],[0.008622930191823596,-0.002576549996490609]],[[-0.002952475911358292,-0.0017509222348460693],[-0.005651806697556109,0.004121676281090794],[-0.007141434740669931,0.01115689767634925],[0.007818159007954763,0.015711042713892325],[-0.013464174975723924,0.00046392439510854907],[-0.01583009108177529,-0.011488339949163881],[0.0058508428073349526,-0.033089648192063434],[-0.021427389372142835,-0.006394222456414498],[0.0040280840424443435,-0.02077442959593308],[-0.011682390872068259,0.0029340192216554127],[0.005951658206519536,-0.00569227420825152],[0.00869031499639847,-0.004177790978352734],[-0.012210662353427491,0.011243440304364825],[-0.011214595231591814,-0.003109224025930114],[0.00021851510666715747,-0.006807788023755985],[-0.0022009654576696986,-0.007025458308970849],[-0.030130758106672293,-0.010332707554944223],[-0.006018981340510279,-0.007836409993444517],[-0.025234553559877807,-0.02660683098006549],[-0.01577537319346965,-0.0003320873045706287],[-0.022642319204363933,0.0032527129156065477],[-0.015654631965838207,-0.008075571887272693],[-0.010547846223147245,-0.000163585879336303],[-0.014951123450629876,-0.0076331183224979645],[-0.018023487171610512,-0.0029329429907357196],[-0.0161713085128242,-0.008411550027413752],[-0.017922867762145196,-0.024691642216060287],[-0.03187425173403619,-0.023226095852612007],[-0.005151921663024476,-0.0017039125183522885],[0.0002769069177186813,-0.002450559459232073],[-0.006008018669811952,0.013695592751590529],[-0.016863611262658333,0.0026929464800270796],[-0.00864457142488475,-0.014433647416579811]],[[0.002873947027464089,0.0026326674094487384],[-0.008189472305835414,0.03268221229692665],[-0.0020959951869717283,-0.0013069713295007317],[0.017056938390154767,0.011846786298660457],[0.005025819403053463,0.028063731024719537],[0.013040455714828788,0.006024494225460363],[-0.0053764515290414695,0.0014645816037170674],[-0.015734929174222655,0.010149437382909696],[0.010366500927263994,6.570666771834905e-05],[-0.0022880069233539276,0.006464683845237847],[0.010810333732806113,0.0256913577719807],[0.012549011240602218,0.006182710675224681],[0.010399028024597693,0.005458004035367247],[0.0030330530558551803,0.014909895730291497],[0.007461183348745435,0.01700870973124249],[0.015124143628629814,-0.005158908974949637],[0.010023070139532768,0.020308623418877344],[-0.020033850295120028,6.93660541003059e-05],[0.0012750219255897055,0.0070984916443384855],[0.033100091650331696,-0.0021548507213775604],[-0.0023731086174281265,0.015620165544743676],[0.001448294089919919,0.008665186981566509],[0.005131092973905884,0.003267991290303885],[0.01962827093537027,0.007965526920330744],[0.004430317936879833,0.0104694781283544],[0.009253071535450708,0.01678476585277438],[0.007242321121227666,0.011983509810685999],[0.0295507723895926,0.0013625213112370361],[0.008457601590595009,0.00033941294219500597],[0.021553453673332983,0.024068752644890157],[0.00858564415231692,0.017885654825355524],[0.02346295202314989,0.014213334978445706],[0.004490190670329243,-0.01050401547285655]],[[0.015475873425839412,-0.026281831311549375],[0.0033658167833471525,-0.034692317512365047],[0.002778545937817836,-0.0079292533108414],[0.0016080533440091898,-0.012243845694839509],[0.010039915106521262,-0.03120421294236694],[0.001949513334469653,-0.013902503218977846],[0.011234548481670069,-0.02315956513303934],[0.0070942872588496755,-0.016423523367108162],[-0.017240967159340037,-0.017374287766867686],[-0.014398352849457707,-0.01976119645237358],[-0.002258732912512709,-0.011681254450177002],[0.012409903748941154,-0.001142843937994116],[0.0002710188599122306,-0.025280246737021107],[0.0009705856045711974,-0.01941798819046068],[-0.01408783331265487,-0.0008005414738647293],[0.0215143449033524,-0.021541424366584953],[0.00845674398180395,-0.009482126773300221],[-0.00595220898904743,-0.015635217462652423],[-0.004614974955282103,-0.01620179065613671],[0.005713993043381657,-0.011776481256827499],[0.008259675728424279,-0.016606991692668178],[-0.003350071553435968,-0.01785141921319048],[0.01018053830565137,-0.025723077059861574],[0.0031962541894859,-0.0140854853533779],[-0.022704858266632752,-0.013209739790654368],[0.005990533607936329,-0.01568859868512123],[-0.002815306876588086,-0.011026201605514778],[0.010867793789966825,-0.02522617768415368],[-0.006931016708549479,0.015144083958501767],[0.0024597379172780764,-0.02976187179856666],[-0.0138768469170898,-0.019677278801641336],[-0.015875413430058872,-0.013896281091057588],[0.011555896036810464,-0.0159925693312799]],[[-0.011910733349123931,0.008341268483620806],[-0.005023149138607116,-0.002468705386201037],[-0.015004470517256221,0.0017352165549541535],[-0.0017847617614320853,0.017133193723060772],[-0.00852946059264585,0.02279055437372035],[0.005251908621668246,-0.005407048623340904],[0.00719915497544805,0.0323507243618628],[-0.007484650416088408,0.0005420838605705942],[-0.009554205702020936,0.015948538813396276],[-0.03312423143176138,0.037618339753604714],[-0.005156551701665356,9.362202704588778e-05],[-0.00019487963753788562,0.012829966964330761],[0.012553060539402762,-0.017230379062614116],[-0.014154523529173608,0.004556586640693436],[-0.008916423181798286,0.0007494498035069981],[-0.010890473088816762,0.015697277871671845],[-0.011947268737633797,0.012622466495263232],[-0.027978727191364645,0.008755222564670349],[0.009083811730055277,0.016016062292764425],[-0.009391577531243157,-0.007923310422800178],[-0.0002488313273146069,0.01058075204983264],[0.012784556183424384,0.0048187539567383425],[-0.006425329677910354,0.012279442924963586],[0.004255336205833854,0.008235794704094213],[0.00025927013660374874,0.020871224640027098],[-0.011710441421951719,0.01441091106561017],[0.003308129383622789,0.020390227108297798],[-0.017733891720072965,0.00988751091772002],[0.0011462340157592451,0.012663520092729306],[-0.008588183988725455,-0.00324881299856703],[-0.012695043802927703,-0.00254239599948185],[0.014504419943480968,0.012314540226788294],[-0.019107046710065034,-0.0036200373320317463]],[[0.010089741681318104,-0.0027894693014394113],[0.011563430011884089,0.0044666573355041815],[0.018760777504338473,0.0030970281377064412],[0.029778744581619825,0.017122837665903407],[0.03577426997274257,0.02036772082819408],[0.012438359322427862,0.00075273281068063],[0.004982938030688325,0.018654472446782176],[0.019224407353550833,0.0049566580121359945],[0.008265406538831578,0.012113995264654766],[-0.00022880346255042756,0.005877204323767379],[0.014864313259049975,0.02417147174000209],[0.012768237304481577,-0.004804237595232895],[0.013419607226445415,0.0455364667475289],[0.01566382219569826,0.010083868361251509],[0.012370130818145562,0.006510538059188886],[0.00868670671375277,-0.010410818006319286],[0.018569714620079954,0.00612899880359531],[0.01844219400403005,0.011294756998441347],[-0.0014139250031659563,0.020666353563286638],[0.003643113511745903,0.005902010901046179],[0.009103476992747783,0.04220389728829376],[0.014037853425823595,0.013152418224245068],[0.0174156320944721,0.013921640745553493],[0.015321511679235282,0.021123808283390527],[0.029659515682315687,-0.00454652086045605],[0.012658909688825356,0.0016705834394934223],[0.011634636199217311,0.012999875305440594],[-0.0015530944199774724,0.016352059007221496],[-0.0045927894178183805,0.014574035615279667],[0.006919682892496027,0.017513208977836033],[-0.007434713999068087,-0.0016874798897803655],[0.0014985843940921381,0.004898400864195632],[0.02900867508063992,0.009112071419648581]],[[0.016462473964964208,-0.031456741101541154],[-0.028478678710126607,0.002666897110524277],[-0.014225269443556326,-0.017757751159219563],[0.00012628338483014522,0.005547094838724995],[-0.020157832318921143,-0.013236241499580274],[-0.003682201495090984,-0.01694714989007321],[-0.010454156628696983,0.005843696401797376],[-0.007750447096710747,-0.024288334149899712],[-0.004969127262300322,-0.002633837462769225],[-0.0024887751833772894,-0.011143436794151638],[-0.01698032450090946,-0.01306805157822592],[-0.004176202152562364,-0.02096093779505582],[-0.012797164393371542,-0.019932751739353452],[-0.01618431331592034,-0.008610542021879601],[-0.027711288360274044,-0.0020379203284436225],[-0.012679452660758116,-0.015481996338839734],[-0.02145367199422037,-0.006354041986169939],[-0.014127361886153733,0.011622996644095392],[-0.006461209021373578,-0.008038478419664756],[0.0019604967259981457,-0.012317115592116495],[-0.0008739900663008658,0.001821882841332037],[-0.01617209126156524,-0.00472512518990563],[-0.011945729302220256,-0.00297205341666378],[-0.005883687218485497,-0.007816452629156263],[-0.008731336731319497,-0.006057439358861891],[-0.024135209060001793,-0.01448380009625675],[-0.0032039657178843635,-0.02810911756226955],[0.0031578968559513353,-0.013580313517831129],[0.0005481616909033367,-0.022313902277376042],[-0.012960241482125018,0.0017972163808655],[-0.00855436341783379,-0.019235151013579553],[0.01161139671234151,-0.006884626990758002],[-0.00698962227982209,-0.022801391425910894]],[[0.003275135359986512,0.007047455792907057],[-0.00036343966568222724,0.006332238234073234],[0.01445144492924067,0.024493787988044816],[-0.010800458252826946,0.019081764718219252],[0.022070328618559797,0.009094374974362258],[0.008277799484511135,0.0195115682630918],[0.00808085676616681,0.009393123057104396],[-0.005432779882682513,0.024761647410526548],[0.011982306362856677,0.006135475097473483],[-0.005168194659040159,0.009326138237004703],[0.001796065419121326,0.0055568383771707665],[0.003521123324652432,0.011186652255831419],[-0.0025308681563235053,0.013112720025207941],[-0.02090926249875436,-0.008462830009726573],[-0.010063054038331364,0.020313118022818297],[0.0020258368306677803,0.027197040831820833],[0.005011380991664012,0.015034248399016554],[-0.00999238954166019,0.022451635098687642],[-0.00481995652186247,0.005896201405963291],[0.019082982720363663,0.027501899569471962],[0.008347806406112745,0.02559762586486366],[0.015208266464484163,0.02634651594217478],[0.00025726356095536195,-0.0008583731086790293],[-0.005937550524713526,0.017252919022598134],[0.000388398304932471,0.006136113231261764],[-0.013880570427747499,0.02712515233559503],[0.004242853762535266,5.475931023562565e-05],[-0.005013749957128001,0.005401485806573241],[-0.005971672188994035,0.01484595184977864],[0.007147299864940293,0.014240882820753628],[0.008114086293621484,0.018095241658983012],[0.011222580832827032,0.008280990869234168],[0.014164157074963513,0.010225161426527827]]]},{"Name":"Tanh","Size":33},{"Name":"Tanh","Size":33},{"Name":"Tanh","Size":33},{"Name":"Tanh","Size":33},{"Name":"Tanh","Size":33},{"Name":"Tanh","Size":33},{"Inputs":33,"Name":"Sum","Outputs":1}],"Name":"FFNN"}