{"Layers":[{"Bias":[[0.0009397195418165889,0.0037531950371979695],[-0.0030708327040121822,-0.010490432912433284],[-0.0024081610884731245,0.01787445200546244],[-0.01526053460389553,-0.06334758041838087],[-0.015712134322451995,-0.036704224260622746],[-0.0319648406391112,-0.012646635925406643]],"Inputs":14,"Name":"FullyConnected","Outputs":6,"UseBias":true,"Weight":[[[0.015327070508690983,-0.03368362364007605],[0.011515362952128787,-0.02104831397809355],[0.011229298532243422,-0.02529889691118318],[0.015907841687798,-0.0224787605813109],[-0.004812223121417772,-0.03722112070408717],[0.009525094376300407,-0.0352879785959131]],[[-0.01611169615835599,0.04327509136832842],[-0.025325981184682142,0.04902485196633491],[-0.008051487740546748,0.03852960591447136],[-0.013788566640966154,0.022567422944337865],[-0.019441388153070106,0.038601966366138156],[-0.0282885259571756,0.009161915016613556]],[[0.010876509070367989,-0.008399374982466897],[0.013991558506866201,-0.03592784419525987],[0.008155222307711808,-0.02590149015583488],[0.031142866806574486,-0.04306362486790116],[0.006342769843064032,-0.025847638296899025],[0.017679543240488493,-0.0369041965316082]],[[0.0033186590240408247,0.04112048274314209],[-0.007462987287196799,0.043488652423882355],[0.00899541934057476,0.045386699117341146],[-0.006352563168576643,0.030571205017075505],[-0.014022977669573694,0.024671069750773947],[-0.011990089528196166,0.006622409112235834]],[[0.006952493373193915,-0.004330357821761341],[-0.02701232175753202,-0.023727393852710107],[-0.02986990384759174,-0.03284322629486705],[-0.0176340093947772,-0.027743838629922756],[-0.016707684118277808,-0.02152813680182927],[-0.031295698573757295,-0.02919969791818431]],[[0.008652733466505816,-0.007587393739812907],[0.024827858733283092,-0.0017812444183138644],[0.03396256455463279,-0.008597074142620094],[0.046121560828908094,-0.03799056067626004],[0.04990292449209157,-0.01447468363520947],[0.036139025792786744,-0.0015904825692571905]],[[-0.002425255943049734,-0.015474364848471677],[-0.006567341578824999,-0.02997892445909654],[-0.0013659142621156605,-0.01981885891887157],[-0.00982830752680728,-0.027836690002392854],[0.011536090075129176,-0.0025488739863528138],[-0.014114528364711998,-0.044035709370426356]],[[-0.009953223270991764,0.04852972449925447],[-0.006458612612054969,0.03434282551906527],[-0.01583004711444512,0.04785020508912709],[-0.012531158811747514,0.04076043160594218],[-0.02341881825250002,0.03813971289337322],[-0.030236363458640596,0.03761798733871356]],[[0.030246376699180087,-0.024615080266336218],[0.04266112363165392,-0.031121698002863747],[0.03469918718738955,-0.027064618852471776],[0.03766775052848118,-0.02950010242685304],[0.03176543636025475,-0.020667733311872154],[0.04537003193526204,-0.0391600882833411]],[[-0.016797650682446135,0.017735716971661725],[-0.025077699670627313,0.024562334483365318],[-0.019094972037772835,0.016426749317207313],[-0.011049880265635338,0.01988175910521906],[-0.033621287067424545,0.0458636817813398],[-0.014535361059535998,0.030912280380221688]],[[0.008135245210447525,-0.034918920328240496],[-0.007045693108462003,-0.03931412097041599],[0.005471852238885068,-0.029960793697832576],[-0.01955580293297447,-0.029944044928126745],[0.0011005453042692835,-0.049724433705285086],[-0.016340190976842747,-0.043427359453804555]],[[0.026557765513694626,0.034314398544041405],[0.011015147236251282,0.06602835287972418],[0.020409596576224445,0.027886665011517927],[0.005721961440448347,0.019828486176553018],[0.009839342673848672,0.019749599163463905],[0.013227476965888012,0.010600559540881694]],[[0.015530795168188756,-0.03398817605771502],[0.0198609379215444,-0.043151865397315824],[0.0007479089062023533,-0.018797631057208507],[0.015719208862839798,-0.05038099250322698],[0.014805175668798649,-0.03506889485080908],[0.014832899314470337,-0.035011408142130204]],[[-0.017647563022285435,0.02861067361926094],[-0.019009124541999406,0.03650121288385402],[-0.023226102526671528,0.025980312209995936],[-0.02866485119139385,0.03817783975224354],[-0.03268476421828319,0.04055074658463425],[-0.0196292296484418,0.015337400102828143]]]},{"Name":"Tanh","Size":6},{"Name":"Tanh","Size":6},{"Inputs":6,"Name":"Sum","Outputs":1}],"Name":"FFNN"}