{"Layers":[{"Bias":[[-0.03147029859920337,0.021431815312989985],[-0.013101011134221546,0.025798211205456577],[-0.011501810168745543,-0.0023144401813074917],[-0.014381343737472968,-0.05130790315904056],[-0.02921049060018982,0.005262589005154479],[-0.044230104889050076,0.03245935680925725],[-0.022501823052683986,0.022485031627615053],[-0.03162194198407657,0.03424585498611063],[-0.031131262937536805,0.01751007802349477],[-0.01518120346134673,0.027063592224218173],[0.005282946051425848,0.006682382307372846],[-0.043024658571186945,-0.005462344301018845],[-0.021017324359012594,0.02155513070952213],[-0.014478178855539595,0.04302449319895947],[-0.0017834205401771283,0.028275525306238822],[-0.022691741616863683,0.011649335461524817],[-0.004223071949011768,0.018710315373131423],[-0.005996641043614949,0.022471692926325837],[-0.01814572786408569,-0.005919166437501279],[-0.019930810838450646,-0.024340761047162332],[-0.029440110277619922,0.008426067829688398],[-0.03608248810074293,0.04652851227565872],[-0.02780638397419452,0.014673488037263604],[-0.02703619122724545,0.029812586948212965],[-0.04062573063272778,-0.02611427533844008],[-0.022908341547785538,0.026403442993909388],[-0.021547501665260916,0.011158456827086919],[-0.019094866554445148,0.020512335401033442],[-0.013546772689055747,-0.011163291212258482],[-0.027668450795168362,0.021861869516977266],[-0.02777549452482435,-0.022750189251164177],[-0.021526291439648123,0.05857190345315035],[-0.017991550715887834,-0.019040264001854525],[-0.03232512798075657,0.024619674295051085],[-0.015769015834610132,-0.007264043984442762],[-0.011642951891115968,0.03211915492150065],[-0.039011815576208676,0.003668251903967463],[-0.006894196737792079,0.03607583924458535],[-0.024068125855434868,0.009481982296846164],[-0.016543633640111282,0.014589690487944243]],"Inputs":14,"Name":"FullyConnected","Outputs":40,"UseBias":true,"Weight":[[[-0.00475038159489944,0.024802699700432803],[-0.012456596276670551,0.014245858521611504],[0.010852667922054509,0.04124698825990179],[-0.01799613452232931,0.002782818855638707],[-0.0034488007829609037,0.015234756753268403],[-0.018033581810905273,0.006672414565870241],[-0.030223478617505108,0.020672986111375607],[0.0024655822349402613,0.00474162547786344],[-0.00019809591875786264,0.03230254098100661],[-0.016697686363236635,0.020849168763959713],[-0.0012691971346621405,-0.004001610122262929],[-0.010829601621835189,0.013015168868568008],[-0.02241745109824786,0.03183943507052564],[-0.01779218389041979,0.014787864025936572],[-0.01020156869658985,0.026913259248188288],[-0.02331362302881308,0.013802631434118574],[-0.023134173942929482,0.017999820090518485],[-0.027123637083028153,0.028000892358927602],[-0.0010193578288337037,0.0330852492358259],[-0.028747395251085002,0.03325947691474347],[-0.009061558387323903,0.03066291340468051],[-0.01756204591374004,0.019453091200339737],[-0.0318965569901269,0.012348743629642549],[-0.026333910820135725,0.029348522605657863],[-0.01944708695281775,0.025242523611927473],[-0.03591845830657258,0.03268298624510115],[-0.008392230740778462,0.010785709898044166],[0.007760120661403719,0.017848520400910697],[-0.03714037689436437,0.022387373720915864],[-0.01522985215206832,0.013415000399262507],[-0.02001652907102728,0.01475163757263193],[-0.0061629264002331825,0.012363806023804226],[-0.031046028837095868,0.026250845381694303],[-0.021154868188864796,0.009344812849766246],[-0.0015558814365496604,0.03893449316343165],[-0.01621534915270356,0.007179558551136097],[-0.015180811135971329,0.012490808517770789],[-0.006672234742259513,0.027898459809323664],[-0.012078861706808079,0.003911077319642214],[-0.007887861925784403,0.008168234964805817]],[[0.004259857954017968,9.233373385621858e-05],[0.006939820589374671,-0.0074148324567680675],[-0.006017142207028281,-0.010389606965134713],[-0.01147409821112936,-0.010467387797654756],[-0.0041950997339707165,-0.026138874439613626],[0.01109049361929545,-0.02387372604554071],[-0.014827481755179655,-0.03297810515796023],[-0.0006781328532367035,-0.008268095341159227],[0.0015592789226240775,-0.03603633877262188],[0.01582882463455575,-0.015280738390740055],[-0.011639707807658715,-0.022931999337616384],[0.019901337438877495,-0.025516463012636284],[-0.0045398005519066,-0.015376172248260723],[-0.0004947820700797069,-0.03079453869657029],[0.011668763884750261,-0.0120964234167853],[0.00323654285711158,-0.01597894580854654],[-0.009281637842606598,-0.010766171837934674],[0.02118503208333882,-0.007336597289261558],[0.012007583577698905,-0.014661270995754204],[0.011824324530911631,-0.019914380539462602],[-0.008738562955261885,-0.03919923101496504],[0.0003848122441866942,-0.009391710564729493],[0.0015206144108287226,-0.005959826862759243],[0.0035973256803132655,-0.022744780024014637],[0.009548981957997565,-0.031021734238033],[-0.009445613900068235,-0.0015033864907894744],[-0.008219709786066972,-0.009673575296570567],[-7.044364370991448e-05,-0.023022778261077542],[-0.013445322311054577,-0.016648145148539014],[0.01915453080815803,-0.005499112128319502],[-0.004261283642799012,-0.0223361262015266],[0.007831366488603697,-0.015948293098619466],[-0.005229624786063164,-0.013327299070972498],[0.008631772845290087,-0.02251363153097613],[0.013788125956309757,-0.034999668571657316],[0.00719402481711406,0.010255194168617265],[0.019829763685828294,-0.009170135873496594],[0.0016196136039744364,-0.01331600491670587],[0.001869425071784,0.0032865342712404713],[0.01759413677618937,-0.034723584509854626]],[[0.016753780325725675,0.02422877138881078],[0.01923750066675435,0.022350849033409764],[0.014443413987259448,0.029640176376507746],[0.028354495972747838,0.011277482765249574],[0.023465429591584437,0.03639203103791879],[0.020471922692148585,0.03519394125295691],[0.014038281945515903,0.027242293476361916],[0.026601872310386594,0.02548352720794106],[0.019813042982164117,0.004159257387014805],[0.013197029523523345,0.02658120243966329],[0.02394763244746299,0.012446316306123646],[0.01491982332285716,0.009976126020613072],[0.0007975674086029698,0.0265769275276335],[0.018454997537005458,0.004023579865768118],[0.0021154679516722638,0.01606841382161796],[0.002713187456104119,0.01807226357554568],[-0.006975935681221214,0.031213399610671773],[0.014926546010634839,0.0255161282653084],[0.01520179434855316,0.00500087587342895],[0.009023395313723375,0.026174361904786225],[0.016569853332055302,0.01668390800860869],[0.010503406185281868,0.013385127298494809],[-0.0006892082465547781,0.02750136481879059],[0.008274158548840336,0.01761560827403775],[0.020289603132203547,0.017442590499765195],[0.013212268659385379,0.0365214661037641],[0.008146238509521475,0.024406652659358742],[0.014946634499752283,0.01622310292194519],[0.003841599289726532,0.017824608212341463],[-0.00236200678789933,0.03441121517455722],[0.015749015685509054,0.027609314644165963],[0.002741267927655745,0.03287914617101894],[0.022178324767065417,0.02348271195382051],[0.009287865006989414,0.0384037537061401],[0.018032999883381525,0.015502498988371317],[0.007292933477735407,0.029261696619869576],[-0.004887577984452747,0.021826122554395446],[0.0023022481861592232,0.0247644865652036],[-0.009962781199962936,0.028336890863823194],[0.012909819419684809,0.016336610226358197]],[[-0.018208149712151397,-0.028987035222250258],[-0.009401889642444775,-0.028002730959018996],[-0.033767288573956264,0.0026772129086473336],[-0.014004536062247712,-0.01216724181899891],[-0.021233913142035588,-0.01925263312949975],[-0.030474736600913245,-0.024689397120493697],[-0.008828399337561228,-0.019810432965791182],[-0.02609923247732777,-0.021784868941524864],[-0.0071607782253193765,-0.027330343122630735],[-0.03617435305148907,-0.012987052518350022],[-0.005468703576626841,0.0018885971841297038],[-0.0362250101797736,-0.028489283572905807],[-0.021115734907470818,-0.016426395542721368],[-0.008158686109981982,-0.03025339228935999],[-0.01639074177343043,-0.043024386481819214],[-0.027457530451929175,-0.024557938278313242],[-0.008770350998876136,-0.029480797304099488],[-0.0340314476252486,-0.03158804344671466],[-0.015448409626991382,-0.02684431150692278],[-0.01787535101694895,-0.0070640849207151205],[-0.014807150107972728,-0.024460056835508847],[-0.024954466703997213,-0.025025248909145266],[-0.016624292730280207,-0.01971187925936406],[-0.021203862338854126,-0.02422735972928668],[-0.011096099187272364,-0.029030264196332076],[-0.014241393499582002,-0.03327647271503948],[-0.03097365225147133,-0.034175070900478874],[-0.03411996192924074,-0.022693690730735596],[-0.030103313089735257,-0.012403520228658703],[-0.013927834278833266,-0.018863783662093733],[-0.02135778451215499,-0.011487504224117456],[-9.343096462790441e-06,-0.031068096282169624],[-0.008228541140664045,-0.01921019482034229],[-0.013202066443412791,-0.024613085669672272],[-0.013087680665255263,-0.022645883648684768],[-0.02099858503615139,-0.029281176016491106],[-0.01770442042379264,-0.026627703364200186],[-0.010135560513675547,-0.022221983678221396],[-0.02304274620567647,-0.01509858497614705],[-0.02365865841322619,-0.014423647759879579]],[[0.026472104716105567,-0.013731008164053888],[0.0007200280960986037,-0.012876683566411916],[0.024066324042798105,-0.03610822586381434],[0.004230395380190271,-0.02935801724004088],[0.01958569146166884,-0.029879898692948065],[0.028947060575239363,0.0033985703895559292],[0.01965682133070487,0.010947494564368694],[0.028480097042814602,-0.018820138031174757],[0.019498807206682,-0.009796970666603741],[-0.0005437996300053226,-0.023271487199755806],[0.009435432374739976,-0.00817847627551881],[0.011031583704122574,-0.03411857518737611],[0.020141986282526416,-0.019238208469783264],[-0.0007038544789223092,-0.019447662655467345],[0.02664778744711225,-0.01867565670807492],[0.0064351818655178274,-0.0068095467241438765],[0.032042837691522795,-0.014629362001052158],[0.017749447739752625,-0.033524802450680895],[0.017817435610204813,-0.01848332643787844],[0.027245126611578564,-0.030373360983506716],[0.01818599502355295,-0.018288655565752168],[0.020806315782374962,-0.009576071813698217],[0.03815507401674718,-0.00012367197882696675],[0.025094064815398873,-0.01385797315407826],[0.04290914683255473,-0.02480558669032263],[0.006152483705303746,0.0010613487620342269],[0.021937737213529214,-0.01635511247924278],[0.014090102207940007,-0.01823091127753941],[0.02203559565351893,-0.03774660577809471],[0.006149377596127726,-0.01720670239050427],[0.014484666629778044,-0.003966604968770985],[0.027919565329752507,-0.014903254843477253],[0.012064859249820422,0.008902220423539383],[0.020905905640625645,-0.02689605762985031],[0.00885317550331401,-0.021494021654037115],[0.03353471812147215,-0.025936947076453457],[0.031876828588148665,-0.022767401832478405],[0.01661219552534914,-0.030052354921009425],[0.007015887173271813,-0.012226696152943427],[0.011601006095438033,-0.01106009185359478]],[[0.00712403594500811,0.017496180044356307],[-0.011475108956773165,0.010772172067086883],[-0.005153360771180317,0.01059992729736002],[-0.0007097603378405918,0.0012926031049075516],[-0.004064682424824017,0.023852573025829566],[0.007132545391678598,0.020475357075803207],[-0.014327842606383525,0.020742790583426193],[0.010204746563527833,0.01515005559525344],[-0.004819815337418557,0.020301299640462064],[-0.015561750822665688,0.00834496753144578],[-0.0030387748649162495,0.033485344969658534],[-0.01956467572285884,0.005770722081352306],[0.0010580948867089557,0.022815511844672426],[-0.005002671133045018,0.028049893790176004],[-0.005106920447385471,0.008196230085556824],[-0.012764136033059821,0.0031215119114877147],[-0.0021834192103681914,0.0376617658021695],[0.00045650691874734044,0.013292770190236568],[-0.00736604361946092,0.0241262986404655],[-0.012134209440247023,0.03139306301964314],[-0.01696854342629031,0.03164985725583677],[-0.012500191507974753,0.018555897396323736],[-0.00934501733782406,0.021287963227926462],[0.009198128657326533,0.01910821217899216],[-0.013711356566182283,0.024534703588206253],[0.005649086739766379,0.015541719323823077],[-0.005706130130088948,0.024238303067004075],[-0.02602674100782207,0.011761342264967998],[-0.009647692011412676,0.02244238043569216],[-0.000248312901609211,0.025824153194443613],[-0.00655376947924405,0.018378437267542874],[0.006357243001082923,0.03921085433561563],[-0.0005004526690308246,0.0334549664426769],[0.008408398546138517,0.01972992875688769],[-0.00528079648814179,0.04021942555782136],[-0.004522868893246208,0.022404039130685345],[0.0055717325556231745,0.033239955123172384],[0.005313607601505671,0.006570922931957747],[-0.009558115523121876,0.01821387618811857],[-0.0014646947939931864,0.014162285122694592]],[[-0.01831564824231876,-0.008462382644223202],[-0.0006483360659382033,-0.04132037751412794],[-0.0021820557561447523,-0.024897942002964888],[-0.004645589718407802,-0.024943397891537888],[-0.00808628863143891,-0.016090915137984257],[0.0030157823509159285,-0.017281315507355545],[-0.003537228002836527,-0.023014490831567144],[0.001946672889127676,-0.024839698167981344],[-0.013598195117021036,-0.026785011657915005],[0.008368696708361633,-0.023575112855946604],[0.0014442978003540582,-0.024789191639553055],[-0.0112422559894585,-0.02332800343614537],[-0.010844158834910994,-0.028192869727226996],[-0.0005742820137076645,-0.020360327501680476],[0.0017204165879774456,-0.022521355567631653],[-0.013187036582148893,-0.037621966159917614],[-0.005143258043273273,-0.02510933230724858],[-0.010041169328773381,-0.02277005048572362],[-0.011215618776477207,-0.004675301585465029],[-0.009579027781785732,-0.006906179671909254],[-0.012752342703678239,-0.027328355311495793],[-0.02526625780897211,-0.03993689881049324],[-0.010464331168311204,-0.00812998987316163],[0.001242574133068968,-0.028319248984524727],[-0.008805971434985868,-0.03806134767034637],[-0.001613264643552601,-0.018144421488970375],[0.0005174863066539893,-0.012959309744183807],[-0.011786224665494109,-0.024305953516984908],[0.003539877777142892,-0.010895938045600873],[-0.015997328153590163,-0.021744482269113765],[-0.01001674646172511,-0.01877461896668231],[-0.007176177448041995,-0.012893159498276813],[-7.350589730281015e-05,-0.01155749503075525],[-0.00642658484497174,-0.008107382413878168],[0.013482013277313742,-0.012890280516685856],[-0.0008087855366945801,-0.01746731069375906],[0.0011385424132376019,-0.017759647188241804],[-0.00288587858819576,-0.03860119409583635],[-0.02417244362098749,-0.01880526122146727],[-0.010934852105774705,-0.022371630695602086]],[[0.003826404308023088,0.016424310201337444],[-0.0037706245938847823,0.02930254487986629],[-0.007585852481386323,0.03032938820483773],[0.00849414272569457,0.005402472759019187],[0.008084330749933895,0.03991220820067734],[0.015571969822643937,0.027913468755783953],[0.015050720389750182,0.02654051236359134],[0.01255921747893268,0.02841614206308436],[0.019005864889765568,0.01618411912222893],[0.023097359037674504,0.016617837427812282],[0.0013211209524567349,0.014256363642536839],[0.023120172672251294,0.010114154989477755],[0.030513428818534243,0.032689611885865326],[0.010124248091618682,0.026641066861000838],[0.006447890917899584,0.038721387424589776],[0.009560047416825855,0.010908331716895545],[0.0100900339099174,0.015232326432768785],[-0.006597629314264626,0.02698831886280422],[0.021042877531825526,0.02464399954584811],[0.009944418627345788,0.015203919355893958],[0.002003177624688589,0.03641177983777627],[0.008976635510270765,0.03503420547055759],[0.014492409449785741,0.011357543702300141],[0.014432273932145781,0.032868877760333155],[0.008625780723747867,0.014886353139184745],[0.009520532249134815,0.031455702279771756],[0.018879286864743303,0.022759423352143093],[-0.006879326005252314,0.020594728055066364],[0.02051071674455846,0.003149889757377975],[0.012765801284640634,0.02180983206680768],[0.03572883109900452,0.0054328903953126005],[0.002825905384209197,0.010268231761797622],[0.035529377626407364,0.010989958036780515],[0.015068262037466362,0.021542523737438684],[0.014730482612449233,0.03774656019132854],[0.011099978354192474,0.029016258192911353],[0.021837846485019685,-0.002596010109812431],[0.004324420315880194,0.034238094372148614],[0.021159853105653447,0.030695674905329668],[0.0006026116599861013,0.022765446832368745]],[[-0.009125032853533038,-0.016912181735465038],[-0.030130971884367034,-0.03180214598736027],[-0.017014849655737026,-0.02727858557813504],[0.0021461523281685172,-0.019059386587853316],[-0.019763660573153104,-0.0203400135053328],[0.010640715802142386,-0.018585011921778714],[-0.014046685616706736,-0.023404191072568293],[-0.01897110836918729,-0.03128926091811084],[-0.00969806324024702,-0.022126457104433887],[-0.0036158046037718626,-0.031003309181284175],[-0.013748211743385074,-0.014790740085120432],[-0.028509507232957462,-0.02315739744346835],[-0.021671309341494156,-0.016667093636494802],[-0.0024298242010043075,-0.026448758532488032],[0.003159191072295745,-0.01847961380659178],[-0.01818970450618317,-0.020809510268570662],[-0.00852161643661784,-0.005249706188867922],[-0.012223525197477552,-0.026044044306976728],[-0.008773687724257734,-0.03642688346280619],[-0.006043786765229597,-0.032954450682548125],[-0.009150578683004907,-0.030970501002564474],[-0.0020998267958558005,-0.020663035390426646],[-0.007481216509485965,-0.024128222627138415],[-0.01093745839520114,-0.026164444604357455],[-0.014970647158350565,-0.004634169163619528],[-0.021562616901444936,-0.026149214380901432],[-0.020583578334769374,-0.0488972763502861],[-0.00013712964895380546,-0.021208072597151083],[-0.00865652893661348,-0.01609336168053847],[-0.013665589696450403,-0.014805015568916446],[-0.0022781121918625997,-0.017297493926867167],[-0.0005621154396071953,-0.03158644761719154],[-0.009340469526965971,-0.004905055881819595],[-0.015741027636243684,-0.0254764354511064],[0.0001437790431524782,-0.030447068862111754],[-0.014335901668937313,-0.036956235180023216],[-0.028330763889716736,-0.03289241352408108],[-0.014165502666132772,-0.0271018241818598],[0.003604447857728562,-0.03938830268790719],[-0.02631050449441336,-0.027567429374650395]],[[0.00970425173726555,0.015496580987137243],[0.0024110435248439685,0.03263591655103141],[-0.00507455001000374,0.0014896959924643126],[0.02285384142618761,0.03804084302031824],[0.010416802878658324,0.024627740303190728],[0.015232285197741028,0.04305590030440741],[0.013998050480634527,0.021855497366651738],[0.01214203130701692,0.03761841404257945],[0.026864867976031433,0.012101381484835975],[0.015711672576071967,0.010777285319610728],[0.015122390617854461,0.01644455835477114],[-0.0072669402807528415,0.0224195869794568],[-0.0020317588151358263,0.022120482347368936],[0.003180309870312838,0.013100148317381132],[0.00773871041854322,0.031169735446218004],[-0.0016488617272574276,0.03582185146128208],[0.004931953705914069,0.017697854762490924],[0.0048648882745026345,0.01468862567945276],[0.01628919194821211,0.005799602322397301],[0.03007054454761121,-0.002483949686981525],[0.02204845146216023,0.03458539462206347],[0.014490635852981978,0.033798457627548795],[0.016107357901366137,0.03335318451247948],[0.00957211666156346,0.029085442960693347],[0.022358311642999312,0.02269737891176984],[0.020938580286517648,0.018640403466828673],[0.0149730223045633,0.032473850091517056],[0.004009387346960496,0.045184891181866235],[0.0033017803336551415,0.021422713111658945],[0.010733358980950725,0.02518036243101526],[0.009241579424240913,0.006778181454665252],[0.002360602885501272,0.02946945070274198],[0.02780042338359851,0.021984637471216196],[0.002973228655226559,0.028928162679422574],[0.01984368290080562,0.04298920339245005],[0.010220589146349303,0.036524470300612684],[0.0031495189406774314,0.013664547457529718],[0.023468517066601555,0.0331037846736534],[0.009141002503155988,0.030712471174448062],[0.0051458241093496875,0.018848954161779556]],[[0.0010350815175432463,-0.031193943520904835],[-0.023015556485891604,-0.015099251659280923],[-0.012552200135576024,-0.023886651465257664],[-0.018241133195247335,-0.0009106572319616086],[-0.009734771439905171,-0.038252156708787],[-0.024958377255103536,-0.016523890135249065],[-0.010530526601164264,-0.02303872625995588],[-0.015464021788945502,-0.027998505511741437],[-0.00816853484445142,-0.02737669056132202],[-0.021605518125066944,-0.013398727361499895],[-0.027497929615092502,-0.0233771896549679],[-0.007005197923358156,-0.01947832119450254],[-0.00224100809111908,-0.03962921791807279],[-0.005156290842103757,-0.027113081307041074],[-0.0212418150239529,-0.014638315920781906],[-0.013138131058440377,-0.02550881855570177],[-0.018000474970246302,-0.020412279863048808],[-0.0161593404174945,-0.01282123497618644],[-0.012003061296049744,-0.006001700826348495],[-0.013355837106312484,0.023220465658965517],[-0.013723610414914725,-0.01590519496927718],[-0.009870346791926022,-0.016502355056957574],[-0.029745840872608655,-0.007029346908913275],[-0.008077520300338738,-0.022230662088043415],[-0.03368492076466357,0.000539053543057354],[-0.03364374012775777,-0.020583727786495684],[0.00610854974508662,-0.012608294511576936],[-0.025445087388629186,-0.007351701311827141],[-0.01917308427766578,-0.02246397920847747],[-0.016324226892674088,-0.03415298963220985],[-0.023021307939293432,-0.02210867456265001],[-0.026824415730750825,-0.011087931650906335],[-0.01199757466838799,-0.020252002479631347],[-0.013714788995921792,-0.028214768839906135],[-0.005327080240260778,-0.015765936859393568],[-0.013259849830267347,-0.002884352881074535],[-0.023828667392652183,-0.020251434148568732],[-0.009291217089217993,-0.016991923031128786],[-0.02062741886701347,-0.02794207852463364],[-0.02155322711125963,-0.025386331034347235]],[[0.015511768077659012,0.006591071365340094],[0.006497029092343131,0.004431988516181113],[0.010352167409407375,-0.01987244287283336],[0.011475116937800985,-0.0037539863438349253],[0.004434052886807473,-0.008752835653792559],[0.018718830845847186,0.00911805279659241],[0.01794391100302137,-0.0016873470346552364],[0.03461271860143159,0.01674366582605208],[0.021168358535720765,-0.0016330559577986499],[0.009226610764637481,0.00852097925706095],[0.019517103499687136,0.00623847615311755],[0.02095496631571796,-0.0015047675733209419],[0.0023515461943942324,0.01306639583522425],[0.02217916861058161,0.0004113957008999102],[0.01365307566807149,0.006872647665304708],[0.01157173115805012,0.006009226991003621],[-0.0022603856098522054,0.0055070446506950525],[0.005886902340332701,-0.004782455901363666],[0.022529589436693757,0.015493541665189214],[0.017123306713471717,-0.011731264416064483],[0.018661636156815802,0.013895253057662479],[0.02151892714770281,0.026623507807214238],[0.01662806496563306,0.0031134137929441272],[0.007911084838807507,0.029308664173973726],[0.014758204130102736,-0.011069839944761664],[0.01732028263985774,0.018180687644326756],[0.013225054400594996,0.007529223995974157],[0.01729184397118144,0.019602028607605366],[0.0098227802941474,-0.0040936635517069145],[0.013873008333729937,0.01384524728184006],[0.029702118724578612,0.004253328999849959],[0.03319096714560241,0.00594913168956939],[0.01812080783628891,0.005390957678823747],[0.038081088873376155,0.0050478791223487795],[0.021897469039837636,-0.004146408780096403],[-0.005143053269634317,0.007918856219543802],[0.03589065415260705,0.003352547078011832],[0.014951322346598453,-0.003633804552694923],[0.011824428468422684,0.020627177155262525],[0.027088610611925842,0.008196439587801125]],[[-0.016748520376542668,0.005860770791994747],[-0.01643245025809905,0.01088555654081673],[-0.031647678053360814,0.009146802224802441],[-0.013407703554519836,0.01885781023838041],[-0.01357335147505626,0.007862955099530024],[-0.027940854457267027,-0.006238789904051381],[-0.021933893988489713,0.017781440115101247],[-0.01814552305728055,0.01385239197286948],[-0.009601138827526471,0.022896272219072204],[-0.02782497834646781,0.011293637013768907],[-0.029568676157759564,0.020439078055459057],[-0.007400401643088657,0.010217256507892377],[-0.0018298497329405608,0.019683221849008167],[-0.029338493322509426,0.01270900181839822],[-0.03260788267671266,0.0063256552412814014],[-0.019493661662733457,0.020144223587060545],[-0.021217167888025,0.006255805675122972],[-0.0044982165596103366,0.009043287642143325],[0.002455860951793269,0.002987214342748677],[-0.02305317498231852,0.020147877657201108],[-0.013836604953630887,0.022773301956841924],[-0.025269806911081834,-0.004682763765705416],[-0.011927705774596913,0.012769932778490816],[-0.021542804874961442,0.011286881672475891],[-0.009048377929108347,0.007415950363146047],[-0.0022747774981050585,0.017674188222846183],[-0.024372500949318816,0.002262225679232053],[-0.02255496287151696,0.026164093059687123],[-0.03928827404090084,-0.005483997922246248],[-0.023811070633034004,0.013981544517484986],[-0.0017883548250372371,0.02858255102575646],[-0.016469101573131615,0.016809636724709913],[-0.0303045756149914,0.008539488967591592],[-0.013769280382842796,0.021225558530400476],[-0.021262881583991686,0.03190345557850837],[-0.024106318736016232,0.0022847423420830943],[-0.011505840431712806,0.01343751702122098],[-0.018586657499931963,0.01268037419918172],[-0.02422058549710987,0.01491916493488407],[-0.02435013333406836,0.011558308687442488]],[[0.03799976264392828,-0.0385961497516523],[0.04169538775332074,-0.020053357417377855],[0.026562470233974463,-0.014184227794158519],[0.005433425765068718,-0.02302769022676036],[0.01868068077520049,-0.019736569278614457],[0.012578218208021255,-0.011580756974173738],[0.009959247683762284,-0.0017764363064148722],[0.026700850928410767,-0.02575500112595104],[0.012869455273822605,-0.024470957416861616],[0.00692492309627652,-0.013462695188162522],[0.011900462540308415,-0.02960077479872418],[0.013508239654981876,-0.028977215477931886],[0.005194449417369094,-0.024964786381162365],[0.028181134711008554,-0.012060150382116639],[-0.004515251191408613,0.012073987663709124],[0.021168961210997456,-0.015467665430275892],[-0.002447338010984913,-0.021195046294378562],[0.024523571810477866,-0.021244264352500163],[0.030939887090183547,-0.018086108022962663],[0.011050252543624788,-0.009149400104507998],[0.03271868803893346,-0.029968206322076134],[0.009664481764675109,-0.010224564892727448],[-0.00575906687362193,-0.009734652311972297],[0.017151158784883738,-0.026025811297580713],[0.014172119221284144,-0.0235697849589022],[0.003303142724085019,-0.014695937449971004],[0.02599371905645028,-0.02954008711390295],[0.013391384283835768,-0.0191159465670647],[0.005927010258217809,-0.017813383651598156],[0.017842656114239665,-0.03630624983313497],[0.011750088201011548,-0.015275978781037107],[0.03164898511524784,-0.021387233376198484],[0.006058469422907686,-0.011020235764301325],[0.005752052515600144,-0.013436016449042435],[0.013798705243187446,-0.011201429173068458],[0.008427609369386895,-0.01380384217282524],[0.028965982006101114,-0.0164269564134683],[0.025892654459833107,-0.03910003018922611],[0.006004288840929681,-0.031043466415195783],[0.014430605704885652,-0.010312127467784033]]]},{"Name":"Tanh","Size":40},{"Name":"Tanh","Size":40},{"Inputs":40,"Name":"Sum","Outputs":1}],"Name":"FFNN"}