{"Layers":[{"Bias":[[-0.01705006108361942,-0.015397893505352079],[-0.011905932103944273,-0.0215384282509179],[-0.001483047167024447,-0.004020709136309149],[-0.018712554396526894,-0.06655423306104069],[-0.027780990905652326,-0.04253550553592447],[-0.021534812709495626,-0.009652951432002406],[-0.020286600164104107,-0.024856017511447916],[-0.022675680980170122,-0.01774522418547245],[-0.019506278781861345,-0.0026126812802291562],[-0.008960832509317703,0.00996991973972477],[-0.003939981237746921,0.023705296965114135],[-0.026218545537696165,-0.025406086966663695],[-0.0138945955702711,0.019704639928245456],[0.010663450208417398,0.011893035731913911],[-0.01818530488633905,0.0033653309907762377]],"Inputs":8,"Name":"FullyConnected","Outputs":15,"UseBias":true,"Weight":[[[-0.014892786699252715,0.025429448972518916],[-0.018798260266669014,0.04816378039619114],[-0.01651491196924806,0.07036357672542372],[-0.008203143797625798,0.03177024824079932],[-0.022646254253010326,0.03002517279917764],[-0.016293707311745967,0.04353639608784905],[-0.026091524486284833,0.04032080369491047],[-0.026169770178622286,0.05310321196206233],[-0.025599500369208755,0.010612656145960806],[-0.014583186876697612,0.013076207853805462],[-0.024899793507399938,0.026331736234299075],[-0.016587007381984216,0.053932188902051564],[-0.009487650569521043,0.024116837415803494],[-0.016177453473408068,0.051530831343759374],[-0.011612122442533174,0.034191224875616016]],[[0.041502411521997004,-0.03144315118480483],[0.016431024766692608,-0.03163238007918861],[0.03471387145061696,-0.04102276741267269],[0.039145615998690944,-0.022692789981621365],[0.030538656598726205,-0.02407765893862677],[0.03884855847648044,-0.02801602167472356],[0.019231124668321005,-0.02436555313903345],[0.031575319922807134,-0.04724558661397798],[0.0141554743088912,-0.035584239414711734],[0.030120597795667847,-0.030641149969729102],[0.03712781152080776,-0.030995524320851536],[0.017900554830249455,-0.027485039817752306],[0.04054430271397997,-0.014730315931044619],[0.015245961952334078,-0.023765814928248603],[0.03448693616442594,-0.0029624574758672145]],[[-0.010378421051140818,0.02849475552715807],[-0.02621072381754503,0.030286841244272243],[-0.031391003343161,0.029802117515558262],[-0.028015200822185917,0.04370093275317855],[-0.030539900236370248,0.01864162449725326],[-0.021051297033710774,0.01584564747841812],[-0.04014234710468646,0.016297951594240495],[-0.025496021537816382,0.01249280743069886],[-0.016654331577214666,0.03151978399658056],[-0.031931730592516784,0.005823992780565596],[-0.03450402374722661,0.009789206399594932],[-0.028326422981858442,0.02394499635349931],[-0.04228656199750133,0.016849946007684337],[-0.028256245185292257,0.019312105402235463],[-0.03900875061268197,0.02235600683923744]],[[0.022414295142968926,-0.03221927967619136],[0.027490059145559274,-0.03576047517842941],[0.018973639165712496,-0.02794853296186652],[0.027760665078114703,-0.02821981004251726],[0.037996164335867166,-0.043719795593653014],[0.006578613073371409,-0.030696793012326945],[0.02474204425164463,-0.030543263295629203],[0.022980350616852163,-0.03422229704033832],[0.0185204330118594,-0.048151757146497096],[0.0386969597327457,-0.026965271978554],[0.0337602147413978,-0.014093782912192182],[0.026210143404648546,-0.051580939145008824],[0.037788145271157626,-0.013742675244525862],[0.010788486686755454,-0.04702229768662648],[0.02383242154785266,-0.030178957012730295]],[[-0.024425855983944107,0.03160375831777498],[-0.012558115044382083,0.037214261955917295],[-0.018635243772425654,0.03979906320298019],[-0.025275544710443642,0.02356312967120384],[-0.027867123424535407,0.032914964619115715],[-0.030532505760674136,0.02373097216467425],[0.002722662324591147,0.028192921738887006],[-0.038407716267667424,0.043280659395416136],[-0.038431411161723494,0.039236077798442404],[-0.014142580300363541,0.046634381633763405],[-0.027027538155241983,0.03178476081112129],[-0.037341986797811616,0.017422185565775784],[-0.01171286753118376,0.03248994534705888],[-0.025458059432669284,0.036130095884182166],[-0.01884849381854139,0.037762991735504306]],[[0.01811718194888354,-0.025481682926117254],[0.030505303875376765,-0.03402570959461094],[0.010180366476055561,-0.0267117491074475],[0.030429674096278867,-0.029711669423164788],[0.01816210783834881,-0.03997126121415651],[0.025121310186437724,-0.05025603839403748],[0.04455719642752635,-0.010063853512379432],[0.00591964486912503,-0.03893343322867726],[0.036250356875733684,-0.04097949148980768],[0.019352795923234925,-0.015440300884702957],[0.019603130324297953,-0.04615123806571517],[0.020022742526725285,-0.03745984284398562],[0.024253678771989837,-0.025580740562355486],[0.007104696175183518,-0.02868712927346756],[0.017548716966445256,-0.03243553209746862]],[[-0.012072835900529039,0.04870461473204687],[-0.0035514781627520196,0.028518366805699708],[0.01485281528737478,0.04356762006299012],[0.014154707399546683,0.02747870845585413],[0.023359892677860865,0.007700289875060896],[-0.011215724318286784,0.038195588103463456],[-0.005988717994395533,0.03785588062688346],[-0.012420993048707498,0.0073693229176445335],[0.006236512805117228,0.03446040729919778],[-0.005640029700341727,0.023076492585747975],[0.0022022684890414938,0.034975092543448855],[0.006325197097568929,0.026733046561396252],[0.00905345277392026,0.03762802038495381],[-0.015202020523037605,0.015043746187576767],[0.0045889017889761095,0.028227970590584336]],[[-0.00673687936926971,-0.039906793851156766],[-0.0074557786310876836,-0.04126998217953477],[-0.017540547573593905,-0.04237019166537128],[-0.018105586635888175,-0.01984234238870856],[-0.0028731605228740826,-0.03703287717984912],[-0.022764646329607074,-0.043208831255558924],[-0.0011665665449203397,-0.025392788917966064],[-0.004603328551182319,-0.040681504362107705],[-0.01710991755428905,-0.04537360866448638],[0.0005226669034169751,-0.031073742988664093],[-0.007317808131159194,-0.02861661326534856],[-0.008739347072160928,-0.043332517218240316],[0.014852296178845547,-0.02994717219532336],[-0.00018177460128595982,-0.028787314160375232],[-0.0025491622531712537,-0.03908517244944252]]]},{"Name":"Tanh","Size":15},{"Name":"Tanh","Size":15},{"Name":"Tanh","Size":15},{"Inputs":15,"Name":"Sum","Outputs":1}],"Name":"FFNN"}