{"Layers":[{"Bias":[[-0.006110729205907187,-0.003447941656679488],[-0.006419123288889274,-0.007969781533618967],[0.008997342435429453,0.021554996023888752],[-0.012057411413650168,-0.0554850926690029],[-0.01727597843494121,-0.033894501779999434],[-0.030534274630369288,0.01968334297891581],[-0.013520363269443718,-0.009829996240997296],[-0.02163818471494151,0.008496908904915862],[-0.007263031479760746,0.023228086267763043],[-0.0018092912093929801,0.008477366244063892],[0.009646634910275603,-0.00236416764798927],[-0.03241517124417455,-0.010901440282264217],[0.00802494247473213,-0.001390991394534859],[-0.004326274158045406,0.028247557672126066],[-0.01600417277893836,0.012835845764362837],[-0.0122701634930396,-0.026788667164162512],[-0.006636744574091985,0.005291056916553449],[0.014887069721077532,0.012758708716686828],[-0.010507745725548093,-0.013255387910700477],[-0.009492323802739828,-0.015752132081405378],[-0.020240602380894264,0.0034928444695789098],[-0.021128559571098004,0.0175170297916633],[0.005692276292372863,-0.013257646612194512],[-0.021351943928753198,0.0069560235307517424],[-0.01984592899347259,-0.015855424078371958],[-0.010326407337406291,-0.012170305682033875],[0.0037857633968576094,-0.00441429156696105],[-0.009258136255578515,-0.01136563741232515],[-0.0009161106754150705,-0.014315192308481583],[-0.021167621275390076,-0.01319006474308715],[-0.01885791859633305,-0.01851275416446599],[-0.005622715027824609,0.030570884068297735],[0.004942544214505367,-0.0011174318434384407],[-0.0034793015236714107,0.025934295804151745],[-0.01015725067391567,0.002076858076373883],[-0.004014664447228382,0.0013364108873819547],[0.000315556774614628,-0.004672055924382965],[0.011935649334150528,0.002797392080982028],[-0.0125589276014693,-0.02272578375149834],[-0.0031667850215279115,-0.01661762916457743],[-0.008315896004017574,-0.0018682085089364127],[-0.01605668295308606,0.026223996912127463],[0.0015618447171633085,0.0017944860909773392],[-0.020057751833542855,-0.01713582563430844],[0.004329921044209028,-0.016224948729620322],[-0.0036389519774165054,-0.015936843476117596],[-0.02936937959161937,0.0036581605899381176],[-0.01936470226914064,-0.019195504894811227],[-0.007888621215521047,-0.012875526146091703],[-0.012388893580950138,-0.022468789438392762],[0.022820316642261078,0.00047064815208857833],[0.005340547123472048,0.006305140492950126]],"Inputs":8,"Name":"FullyConnected","Outputs":52,"UseBias":true,"Weight":[[[0.013737650795979066,-0.02445631200774786],[0.016591275769767697,-0.035338399330812245],[0.03724023267998562,0.004961650580130352],[0.006947857079633256,-0.024842677919863325],[0.0274441785783823,-0.02733807728023892],[0.010793677803167326,-0.0001681664126483641],[0.014492837131213968,-0.030780995772278868],[0.015494889255907964,-0.02226826595899444],[0.017444249777098995,-0.010852455235523605],[-0.0038412546989423533,-0.014135653158037801],[0.006817472338903749,-0.018579377891382684],[0.033719932101334234,-0.013358435825448118],[0.0031610958283930474,-0.02621923408645567],[0.0160132277490961,-0.009085086781670715],[0.019015087269367775,-0.00835825679887669],[0.024718895506464927,-0.01833841833574507],[0.02270957912291122,-0.03911579106434933],[0.01086128338388092,-0.010236026375688937],[0.015911207532216105,-0.028599545587406128],[0.020862746927428892,-0.019009025598822744],[0.012796424916904987,-0.021015844316483488],[0.02871158406057136,-0.01049683900515058],[0.017508804071814096,-0.014659221329260222],[0.017187268105221448,-0.007897067743711088],[0.026980293725196912,-0.012223711625907917],[0.004256814210662812,-0.021155201571480788],[0.014244099467907247,-0.022898994215936396],[0.024992843491474973,-0.01588662679868107],[0.007921556029449042,-0.024020152159525063],[0.006580104540998406,-0.01731809771541944],[0.02586712848913518,-0.002652772758604959],[0.016308701969167488,-0.03124073907716178],[0.009385508545473445,-0.009948893665270825],[0.013253394279076946,0.02120959228778551],[0.016812219572151926,-0.019499432750106595],[0.014220144491211926,-0.007751863998489363],[-0.00993415280090385,-0.03397749165672998],[-0.004962383633472649,-0.02256160224185547],[0.016041429652751887,-0.018542227374761647],[0.009768994998095776,-0.02246684953715418],[0.016911971444614773,-0.01923034996214014],[0.04117442074386711,-0.02280559756842893],[0.01923322072824069,-0.024387200838919557],[0.010825159592178715,-0.012022763903107716],[0.018249090192202732,-0.023516621510553493],[0.001802005866514809,-0.043394546472607605],[0.016071607439500295,-0.0235775365045199],[0.0008555647022944785,-0.006269685618932489],[0.017734675144975037,-0.03786180135332227],[-0.010932619914934109,-0.037305172080318486],[0.0006320365705766103,-0.01529283257411923],[0.007132197962399236,-0.021078129126778568]],[[0.01566911127708255,-0.006530167474000866],[-0.02061740306734346,0.02295361265710841],[-0.014820739088560391,0.02210530066627522],[-0.022091244860984804,-0.005850520293435397],[-2.085866946152038e-05,0.020010414109762138],[-0.014040799267335115,0.0074493192499220755],[-0.003771534658300884,0.018562764193724792],[-0.001530028811286207,0.011882632217540202],[0.0013009510653201326,0.021003050996709592],[-0.023798311653173608,-0.000759995480603852],[-0.0009395325049652368,0.012643246121349708],[-0.017424919549038673,0.015038542605959243],[0.011535113314609246,0.021292229085443173],[-0.0067679106985250245,0.015267678656940484],[-0.007179962655044818,0.0076477949775688924],[0.007496709773200433,0.010744421543707588],[-0.01768894237121622,0.007906513754332179],[-0.0036249165958353717,0.008529366321241079],[-0.024015726870026934,0.005134507827192444],[-0.003296404260929317,0.008418492466697685],[0.003042277385863846,0.017510533085131407],[-0.016426154848717425,0.006912592999474125],[-0.008223458642811522,0.020888968336820246],[0.0020108763526369266,0.019987667718755535],[-0.009766211281688806,0.020374885811188657],[-0.015379878718077713,0.011509354082980499],[-0.013957475524308227,0.012104094148113505],[-0.0004458750276091583,0.03264431903241706],[-0.02275390214234603,0.010230723204815379],[-0.022858752026605998,0.021584453475540808],[0.002678536028632339,0.017359856198403446],[-0.00280840115730305,-0.0024803853551269577],[-0.007592031300343253,0.020590953252545965],[-0.007911232696976573,0.004637386373919338],[-0.020770842865787575,0.026937056189580158],[0.014270706994903083,0.002131293696179774],[-0.0058678377082495075,0.02821091051138566],[-0.00747999349168036,0.025552432310088982],[-0.0014602809359012636,0.02391528016810978],[-0.009005714704574537,0.013257025413292517],[-0.015155698084407088,0.035015144434684724],[-0.017536252484153775,0.019319689345766767],[-0.004481782211959401,0.009150048406033683],[-0.0021357660809580396,0.024647000615110836],[-0.017617292804316745,0.020969644731064767],[-0.00190817714227827,0.023483969512275774],[-0.021430827845197318,0.013023466607508945],[-0.006480257027771796,0.02741366442230744],[-0.010014306183815018,0.017684030845836588],[-0.012186845339371451,0.01467997222142574],[-0.004265183664710964,0.015730987580438976],[-0.01364747475410234,0.0098418980547206]],[[-0.006314331282639602,-0.014848956433284774],[-0.027966399911214933,-0.021125918048229976],[-0.003620771129302938,-0.002885532927217435],[-0.006938879623768704,-0.018431167898103114],[-0.01985476976073516,-0.02207850671159588],[-0.0033301838724451127,-0.008275381316474888],[-0.011168566798873483,-0.005443547285771828],[-0.011845958591238877,-0.021750970818049678],[0.010471883513319874,-0.006678654407388398],[-0.003419011526183622,-0.006321172183588346],[-0.006197858784578166,-0.0152258204334007],[0.006696554215994306,-0.01693814818565074],[-0.011377959257604153,-0.00938768528196139],[-0.016876349579521718,-0.016634812037586114],[-0.010142261749653554,-0.00985956017626401],[-0.001048597109760115,-0.020811127881788884],[0.005800329000306459,-0.020489639168248308],[-0.021296196952620892,-0.018495459974215055],[-0.012723222962314176,-0.029940350868881672],[0.001720687441342307,-0.015752653810950687],[-0.011913173572417883,-0.016688512817284933],[-0.011213600105735083,-0.015497790604562927],[0.0008357624132353154,-0.016061643441378642],[-0.016195610669970207,-0.017782024231017646],[-0.014474748211487767,-0.006160798844944098],[-0.01763622370407726,-0.004068370218892191],[-0.010706948386992855,-0.004548706669891862],[-0.005524034465170579,-0.013849539007306934],[-0.020330729849831926,-0.002453852668524137],[-0.00894375019667282,-0.016180766687081526],[-0.00494055470491278,-0.02877287425850543],[-0.004553530477232143,-0.00019146720014577405],[0.004418268288172707,-0.023277312643908317],[-0.0154036341003708,-0.0089723112328595],[-0.01793181793523583,-0.016650320040102293],[-0.010779289411119705,-0.008371823862378292],[-0.0017812499350733024,-0.008685529797631777],[-0.019359227679106167,-0.005841891789208567],[-0.024024407380745336,-0.0005109223936626886],[0.0013328270883475213,-0.011949373037725843],[-0.011677396103310384,-0.012829469831767797],[-0.012685556244400929,-0.028625795677246747],[-0.029769702493573403,0.0023113237037067228],[-0.01884134822763734,-0.015650602287996775],[-0.009449987637813571,-0.009424919564946647],[0.011435900795542134,-0.007371832641202982],[-0.009134136938624237,-0.014148450692794185],[-0.012961693085834133,0.0014459353383843776],[0.0009630583450068006,0.00029132516311827404],[-0.009341605003807428,-0.016564953307643137],[-0.01106016846918997,-0.004434458018480119],[-0.004152328108109643,-0.005227668636061862]],[[0.017675698847911207,-0.00417594477812514],[0.005910613567447724,-0.006165314661060022],[-0.002272170389649897,0.006069403884306659],[0.005937241117296978,-0.038900544755418175],[0.017862641742657327,-0.03383303982136582],[0.004000905589583351,-0.018545097545818828],[0.011686677501397534,0.005207260178461695],[0.021962989312097288,-0.020848416751369447],[0.019209536079066905,0.0035591437292492693],[0.021936890874225397,-0.012643514844747043],[0.013659091894149758,-0.025329498828707],[0.028415252980119217,-0.018931936908286907],[0.029411835477272004,-0.023678951997423175],[0.022754344408939458,-0.01762820377288039],[0.027537936741016702,-0.01141507760518086],[0.01808505026599908,-0.027645647531047084],[0.025355759081171596,0.006523735117853833],[0.015635460123915246,-0.012105592521283372],[-0.0016792453342696246,-0.028090721915661237],[0.013366586737204918,-0.02597721365377095],[0.03270715053667375,-0.002663734683810638],[0.010823998475261323,-0.02734041054085819],[0.005649495701146597,-0.024954717491407617],[0.016230144998653585,-0.03503992450752159],[0.008373241240868268,-0.017276900977468444],[0.006035457154764194,-0.030729950090150424],[0.02087958842646537,-0.01263384532029837],[0.01151011438173342,-0.019954336579335208],[0.03329461602703212,-0.004158965507374055],[0.007251157720871214,-0.023061929389245516],[0.01690747561793163,-0.022244516116399167],[0.018441790200940052,-0.002967735079673972],[0.004518514950350613,-0.001818523493745113],[0.013115768465771688,-0.0033819342089976734],[0.007320074743470445,0.0018953771553925033],[0.010095140125761383,-0.006375651871572672],[0.018908697224675232,-0.006605223810930546],[0.015417795604781005,-0.013251883658174712],[0.012248824906000273,-0.018237861297544376],[0.027594446209098393,-0.014548531060131245],[0.016927369217823205,-0.023836297567093365],[0.013571432532133795,-0.017709835911253878],[0.0023449628864404396,0.0021264320331681966],[0.02359262419418296,-0.020318250482227043],[0.0002770234177083191,-0.027043583284311872],[0.008698546358410227,-0.016164012861635157],[-0.008744682143127264,-0.02254024979888449],[0.012941397487206872,-0.016842716438771187],[0.02391822445996546,-0.03142074909373682],[0.031853244630070665,-0.003045815539489625],[0.013407915743875214,-0.012293080830294761],[0.010735396910458233,-0.007856094198612783]],[[0.010377789745469466,0.016152418191804914],[-0.00819033808419264,0.018689475386849414],[0.009178610199620414,-0.0028619877827131606],[-0.012601115056701905,0.009139392386928567],[0.0030229297177244126,0.01294018036473351],[0.012042932665892757,0.012349815355284375],[-0.005698352838429608,0.016614105923957338],[0.013827800083031624,0.02796624239896419],[-0.013881800287448688,0.019479800327807058],[0.0062596982336141525,0.04026915744193668],[-0.0025185105740104822,0.020566187690905895],[0.00445039730825333,0.01288352049933353],[0.01486450096380113,0.02858628695071678],[0.0032657381477657526,0.014673828886970209],[0.004260775166249834,0.020152449948164102],[-0.006245955387743072,0.01989998191037401],[-0.0021317851624277667,0.023442538702123827],[-0.011628700689518804,0.021038480199925515],[-0.004567877092644681,0.014498914520801697],[-0.0058452389330635734,0.027977414210790242],[-0.005645248208313766,0.020805515727477703],[0.008266983510733723,-0.0023701239660884363],[0.010907144998633145,0.006701706775233562],[0.010962707997865416,0.010619896867553597],[-0.011893938272299823,0.00907026486286221],[-0.0073830621266675524,0.0007734525488702969],[-0.00655104958222643,0.014169028936951746],[0.007547138608842106,0.03199213707168332],[0.006588683562091032,0.019215896856367713],[-0.00059273515951156,0.01991870524541172],[0.002774160330438143,0.01347026782156857],[0.02116745123747924,0.003975356924116131],[-0.002528430808593371,0.029912503794800382],[0.004415221581843523,0.02739173627871168],[0.0027285840656299195,0.006415858555840608],[0.004123517924507581,0.006896062276784465],[0.0018686382127195665,0.01908540785970404],[0.023384110129138068,0.03045975433269805],[0.00712023125563042,0.014607623044571798],[0.007257290717702345,0.010594352851727825],[-0.003630468244807592,0.020423719967269462],[-0.002576152436496165,0.031141936892018555],[0.005853413832370224,0.030727385719635],[-0.018263789134845828,0.013132502144958818],[0.007761127136000825,0.01293360521004677],[-0.005705691900806038,0.0058135933357460895],[-0.005486501447862984,0.01361650587581119],[-0.021637921261898885,0.018213319369358022],[0.005756239394233737,0.020399514311624435],[-0.011755304681758358,0.02838338417925887],[-0.00019701985778279997,-0.00028584023443137247],[9.463883138974947e-05,0.02852864244251853]],[[-0.0002009033889367822,-0.019711958373730073],[-0.02066157005496524,-0.01921985727659437],[-0.007881802848683147,-0.023389202541163123],[0.004314773173018654,-0.008751426213211847],[-0.009971543590674974,-0.0268054598677358],[-0.01504824480845416,-0.022919075094944848],[-0.0074228541823584205,-0.013362113281255077],[-0.021275739658725413,-0.01475551106995503],[-0.00636762578834537,-0.0165354077004452],[-0.017074142255976678,-0.012803343336701335],[-0.009752001714762409,0.001277749514507083],[-0.000295571263314577,-0.005587056113782087],[-0.008060432457748427,-0.03153498561007405],[0.007562896036063256,-0.024610969490300245],[-0.025430024248913337,-0.006720137544331993],[-0.01606316665867313,-0.01162758347838693],[-0.004437273784103426,-0.0010726664447122016],[-0.010827351450358165,-0.025892046873378136],[0.0049994353311629,-0.02347341382584322],[-0.014716959477009248,-0.011685049386377553],[-0.01889165954525725,-0.015712733556200342],[0.002266207959289604,-0.022632477074110553],[-0.004816372110851819,-0.019490099053629868],[-0.006312887548810895,-0.02389453489957171],[-0.02759146889122527,0.013730489982991994],[-0.008090818989537445,-0.023187415175043566],[-0.020971096857487142,-0.007687140983780363],[-0.0120978801838643,-0.019941515679195273],[-0.02240262811121451,-0.026023005688006917],[-0.020130918287960556,-0.025253857378406644],[-0.010531861842238447,-0.008908632454398298],[0.007940061581754157,-0.01395399540352616],[-0.00890413777045485,-0.01803356157227813],[-0.018533107151094002,-0.03596151833704976],[0.0035967269137512294,-0.001665742179788301],[-0.016263090404145846,-0.015573997749254746],[-0.003545580219969633,0.002359622919765242],[-0.011754889499284436,-0.012138417838903761],[-0.027638185039747395,-0.006986684869431228],[-0.00241153740564712,-0.001811095910273564],[0.0023728170283604847,-0.028099097268093894],[0.003115074373566115,-0.01392600564966106],[-0.006001015126642396,-0.026458370284677925],[-0.0067245244679743745,-0.0056574464139747035],[-0.008658170037058247,-0.008676919105536071],[0.00477125670016266,-0.02684662752765488],[-0.023881883450893857,-0.013308185936116466],[-0.021251371407455536,-0.014496492605625426],[-0.013989373854105223,-0.015035698958302429],[-0.0033304264611989823,-0.011420598690126363],[-0.013235689401568546,-0.0075576077219325815],[-0.011021590538427,-0.015563087272629238]],[[0.003735982590689976,-0.012334429508215056],[0.021196469099815114,-0.013698835262367003],[0.021200373321297886,-0.015487680099264019],[0.016454096786120802,-0.0307611185339468],[0.03398129868063251,-0.012367074655109323],[0.032372064058422696,0.002674924501124754],[0.02278499340381669,-0.032810373483971936],[0.03330797433319722,0.0021464440760997875],[0.007406308472722968,-0.029290571589113953],[0.018838004785272526,-0.012540202685581274],[0.03407042596807382,-0.025508110696719717],[0.00621927871958721,-0.021866582244206456],[0.028376106336488176,-0.030177420640182324],[0.025249225215564004,-0.022280640780133646],[0.002700769912522098,-0.020661402472429466],[0.008535910830545619,-0.01561037742831025],[0.024843648622962577,-0.015035709140239367],[0.022634209919509908,-0.018731917051211484],[0.0029334932611063255,-0.014449525592376986],[0.008811925129166428,-0.00808754936261645],[0.031285487380855674,-0.03373010835224413],[0.002099506590373641,-0.017072670350252887],[0.00784200802789587,-0.013390889132320631],[0.025694035760478084,-0.012815051817036772],[0.010837775947848282,-0.017411436405608043],[0.012622672977450485,-0.011643682785981331],[0.0003641741893263966,-0.0030170227025130606],[0.016908733532462035,-0.015311662517896635],[0.02083260372805412,-0.03087950083125715],[0.03242737409865055,-0.017199922123251908],[0.013106168516618288,0.004806881554823958],[0.0031255554851258487,-2.0503736721273725e-05],[0.025175371243065726,-0.025211752156966707],[0.027128734435209585,-0.016910442931333487],[0.01721155988753668,-0.011042948185175294],[0.024485260339483467,-0.01078778038378079],[0.010886768428194585,-0.028256472471999527],[0.012759690678725245,0.0017802996677644728],[0.007425936016170322,-0.0014224537558359476],[0.019163301465810408,-0.016266723584992097],[0.02929593791719876,-0.016396162043490488],[-0.0022299000542411805,0.004397666511628016],[0.010813460154663175,0.0024756375812275593],[0.0332263793795798,-0.007216361813292575],[0.023403611073238434,-0.00356398163432243],[0.04162534349600927,-0.013494422418904814],[0.03131240890033045,-0.012001423553020687],[0.012788581333081372,-0.016717178149009526],[0.014729713715553611,-0.018779133104119654],[0.009545448971386775,-0.015991587557663924],[0.0128662031324743,-0.01137562359705946],[0.01400250903087737,-0.00893500572894565]],[[-0.020319032667892166,0.008407709102094416],[0.012354488164658659,0.013582079058885048],[-0.031704898753955,0.027989703353286134],[-0.02876645876258891,0.02423290248114896],[-0.00330842366123582,0.03397930442426136],[-0.017809460629849585,0.01758685322441685],[-0.028134441757686875,0.001838005329929399],[-0.001469479892149969,0.018847282812689947],[-0.014717464137806554,0.020546079963268356],[-0.008091401447588508,0.02259135506869843],[-0.016641321560085173,0.02553862279995522],[-0.010794973570249467,0.03047705091738083],[-0.0037682151941626613,0.007681949488192103],[-0.011233632483389665,0.01138105047900564],[-0.02520777925314606,0.005857618690663702],[-0.021339297032649678,0.020956670661856098],[-0.022886384752034545,0.011813322121180808],[0.003927339069968672,0.00951636190727924],[-0.03376760032250837,0.01667572806399926],[-0.016657399295188675,0.021263540290108553],[-0.030352945098732955,0.02333433002324882],[-0.014441736337646055,0.02570432767397509],[-0.0010253976304183596,0.021872633276192474],[-0.018812249818536447,0.03488782624740317],[-0.01378398239557572,0.018810903773849377],[-0.02730043700908564,0.02918628473085132],[-0.0035571640774471796,0.007372539856503016],[-0.03489208465750208,0.016952099645812093],[-0.008710404233164907,0.011129918829883208],[-0.00392761911600834,0.013239222091343074],[-0.004311097665218993,0.021517141940405212],[-0.0011725339771042505,0.014732542346834448],[0.004023662497815369,-0.006277167224222951],[-0.013073491576484485,0.012436844579836034],[-0.012614707591685637,0.025430447654299387],[-0.0211055567860715,0.016055274785284557],[-0.01850322676290878,0.022292171057707144],[-0.009274699860630963,0.00764433334785389],[-0.01253911253870632,0.0117975171596857],[-0.015990640722651744,0.022238682661215058],[-0.008557026447791483,0.0034932069703402352],[-0.01697697039700237,0.003620848301723325],[-0.0034055703764894183,0.013106013512822872],[-0.023502393244249905,0.019119028975900964],[-0.0041421755387045225,0.01915454400737411],[-0.01707397411032185,0.011880926876267904],[-0.021845763262828097,0.03946941617193475],[-0.026799910533030026,0.02299905602632736],[-0.021948919891162516,0.010597061220900372],[-0.009552839716597265,0.02367634292047457],[-0.010784284528957135,-0.0025080985339892767],[0.011461122785125776,0.002819477922238975]]]},{"Name":"Tanh","Size":52},{"Name":"Tanh","Size":52},{"Name":"Tanh","Size":52},{"Inputs":52,"Name":"Sum","Outputs":1}],"Name":"FFNN"}