{"Layers":[{"Bias":[[-0.008706594902189405,0.0062664164962282385],[-0.0009718533176499716,0.0050228080844364744],[0.013265498512828617,0.012287211711459044],[-0.0009686068361511132,-0.03686609815766105],[-0.0008093431070316708,-0.012293973521885672],[-0.016867513138267724,0.003828041673452962],[0.0008326812633344382,-0.005366830121856838],[-0.0032701526137299737,0.011986847288082303],[-0.005061179488169877,0.021675369024549678],[0.009257749997529359,0.010887414085955558],[0.026759695745341823,0.017739797463306187],[-0.015755609813304497,-0.0017907493096906723],[0.008984257950612994,0.010217093664100873],[0.00756729258790797,0.017383308611110877],[0.0007221262780939194,0.004988152865290706],[0.0034711571270415755,-0.00860980456073884],[0.013449034663726716,-0.0029937530504415737],[0.018093557926696483,0.004849755885665939],[0.0016138303777685295,-0.001546015564185926],[-3.610618843004042e-06,-0.0009538451853580373],[-0.0015704788013173729,0.005762643945269465],[-0.014591476723308483,0.018646482018222037],[-0.0012539261536140705,-0.006182897054282314],[-0.0037471097523986098,0.013857972425183916],[-0.009566525389068655,-0.002722430759851943],[0.0005191122560488053,0.006564117983717891],[0.006129431653137826,-0.004700774799227799],[0.010097766188205157,0.0041243808374645296],[0.014784947229417873,-0.00246745381238391],[-0.006551466730465954,-0.0008794230472753088],[-0.0015831004858716526,-0.008022350937901905],[0.0007708890026808506,0.03641336007915175],[0.008060770976198527,-0.012013025515049245],[-0.0032317338589162277,0.007257135631930159],[-0.0031011167590107407,0.0029346576700426713],[0.004664072712883466,0.007239675715098748],[-0.008079590026005954,0.004160777614194906],[0.01555102651375599,0.014630076400177857],[-0.01330280916916902,-0.010059225648153062],[0.010107330142008649,-0.0024444748260108225],[0.010383482870314239,0.006120621642060392],[0.0015422172467935377,0.01662515791996684],[0.005956420733763842,0.002638093701738165],[0.00020823660636106885,-0.009579636210820376],[0.01084446224340279,0.0017845322758511296],[0.012359813178703685,-0.001875851531378285],[-0.013075130007696034,0.013480817526767086],[-0.006604408243747199,-0.003833403060172096],[0.003410319248973115,0.004775014854278591],[-0.0020515877648623598,-0.007858903099471225],[0.01718174579385188,-0.013310237292405781],[-0.0031065926468712697,0.0003066106418028527],[0.0014863993509873674,-0.008085304889688406],[0.02306457830848227,-0.02126866624575688],[0.0029379935615725717,-0.0033539229472341297],[0.003329364609516453,0.009653390529846272],[0.009856809261694958,0.0004215758120260146],[0.008242301891806952,-0.006141222508916918],[-0.014807365128648227,-3.916503100757527e-05],[-0.005686496445268033,-0.00864132489585651],[0.004171588574502981,-0.01893980316419192],[-0.013434403220817933,0.008206943281937489],[-0.018297035423579022,-0.009450100637945274],[-0.00841469958454966,0.008000580036371746],[-0.00866081519256299,0.0035550675337686632],[-0.011997978406463588,-0.005111536800098031],[0.0019142677153731415,-0.0012108267197189217],[0.026891216967297057,-0.0037994793205867817],[0.026087462127701216,0.021333360552137887],[-0.008542962462440675,0.0075219505010470705],[0.004059335629586455,0.008775132594922542],[-0.015552940778614582,0.01931206563713008],[0.00881427262273157,-0.01835235785169234],[-0.0005674884063618059,-0.009537219414364459],[0.00347956047617013,-0.0036265240080615357],[-0.017968589894149053,0.010997918595805534],[-0.004440373947366681,-0.006885028066798043],[-0.016756738789683857,-0.021046819635861275],[0.002212594606468775,-0.007365089820019616],[-0.007871000147311761,-0.02346285218272619],[-0.013726678201147037,-0.0068304172360141606],[0.012120935442245462,0.004285409445204753],[-0.0023518862080074694,-0.01719161782701365],[-0.013926483709450026,0.006524680456618508],[0.0167044210616696,-0.00942013208388606],[0.00503294053930446,0.004673263519072894],[-0.012110337662542187,-0.011757740144622776],[0.004331267866481777,-0.018394225320764176],[0.0019154978596619954,-0.0031927611889441963],[-0.0031779350948281473,-0.01427264928487334],[0.015205635535814289,0.0013828497377852236],[0.010641035388760867,0.015961618760037943],[-0.0009411547154776394,0.01594537239726703],[-0.007285321914143763,-0.00713875246345196],[0.005235476369818539,0.003534239696736507],[-0.009892394845330901,-0.00508011159131151],[0.011656476608902056,-0.003484116185172448],[-0.0071035663038611875,-0.008771787356792838],[0.013910533937545275,0.01469399091907504],[-0.0034551151104034107,0.0007418785529277348],[0.004540371758190026,-0.014453883140516993],[0.000897456391497586,0.00419546171190221],[-0.0035993840741621493,0.005916094718357472],[-0.001453085859186568,0.019505100013684995],[-0.008196288206363875,0.001517140778354925],[-0.0008532092536125422,0.0009931584519674611],[0.004627746568727843,-0.02032312776639367],[-0.013940072763197395,-0.015621654560168752],[0.004132536171973032,-0.005827563920250369],[0.00451511267767024,-0.0027100160035844496],[-0.003593723421961641,-0.00987809546218186],[0.008173464767588469,-0.006805270785694775],[0.013289938922672263,0.012291996613663215],[-0.014246939449796346,-0.0008501364817435273],[0.014959218001545942,0.014512285516364208],[0.01268600023216445,0.0016415505304185833],[0.005548643708870215,0.005689935749603394],[0.007987297519457585,0.006453125440491238],[0.019637770527607505,0.00473035380413368],[0.005184052229695254,0.017784794821976417],[-0.014666861430999488,0.00387332850841751],[0.0013900184197319417,-0.0025386175709838834],[-0.010889284928139486,-0.01692623608060768],[-0.0002458359254274868,0.0034137443342055467],[-0.015188100615639846,0.0023135292214423843],[-0.01795518954412866,-0.01519652157711187],[0.00543366702742979,0.005417980190099837],[0.00795839083334619,0.0014014968123414306],[0.005681918823355472,0.024862406812236552],[-0.00978018013209064,0.0014709048610910375],[0.0002327225739355671,-0.00027899827199394324],[0.006392146454060368,0.005510115015462791],[-0.0036030531125437184,-0.001082440730067769],[0.003571748327240889,-0.0021149659275897462],[0.002159337037587851,-0.0045715875919861365],[0.00032982486696616834,-0.01014613730303369],[-0.004256197318954512,0.005071811021630821],[-0.0031690941277877,0.014545477972738393],[0.015652616082295498,-0.01216384177824279],[-0.002646634346506724,0.007757781543333711],[0.022295904179967945,0.003924907959883579],[-0.011630143431396053,0.00010354889225449566],[0.015873015718205704,-0.005587483896550813],[0.01455760076410927,-0.004269502658833331],[0.0034360225658665367,-0.0029324590630272784],[0.007002588219013225,0.007558723816027335],[-0.012151744239722964,-0.008801671670092147],[0.0034199303958167737,0.013041777761516486],[-0.008850990131212752,-0.00895099241955942],[0.018263644510834478,0.0063585927257569196],[-0.002375591162018639,0.0015884082478760237],[0.015180303763518695,-0.009140751777008255],[0.014943956297882368,0.01253394385367583],[-0.0011170549380432012,-0.018353357774163814],[0.009425303783816376,-0.017235733371883364],[0.010667930105583501,-0.009836014998718182],[0.0046526216254842365,0.007395422730842287],[-0.0004598853613500712,0.0006357160068149305],[-0.008510767811253064,-0.004754441449185461],[0.008961680047648211,-0.0038226019829570956],[0.002104264575163958,-0.0011613540859374714],[0.015347127719874598,-0.010722611848574468],[0.006923286857404662,-0.0099606587999539],[0.0030662993543737137,-0.005836088900078223],[0.008122167692178743,0.007803455837218321],[-0.001319809290780247,-0.00662721423709381],[-0.0017113568386894376,0.0020761439676062914],[0.01384226777470669,0.0023115272294106236],[0.0032965563156458254,0.004803891265550134],[-0.018341772507270836,0.007511529087924075],[-0.015533579011068745,-0.008506584391133323],[-0.01086988589877657,-0.011199145287776888],[0.013434194200144392,-0.0012278123218453724],[0.013145411521945458,-0.004025765692676054],[0.007869253825126902,-0.009590727866981136],[0.004306656173631829,-0.01292708314451036],[-0.007248041949858174,0.004266228765166097],[-0.008841426638228792,0.0017012856095380347],[-0.010005023317113306,-0.002549691577454115],[-0.007076302817965511,0.003532061869975589],[0.013450246266111101,-0.023506828427672235],[-0.013962665477320316,-0.006086846231992882],[0.013676355915429773,-0.008478408629224807],[0.012445200005762281,0.020258443162029852],[-0.0055111193810557,0.008769778598508445],[0.001587652029005868,0.013951708279403676],[0.007088404136691658,-0.0028582153347724787],[-0.009002179547895103,-0.005451533817072274],[-0.001409389776049204,0.006200854134962898],[0.0036177258245164473,-0.006191678113750016],[-0.011988630124489726,-0.006751293712481485],[0.001474559496758371,0.0018156896016169963],[-0.011807734804682522,0.005282117830629774],[-0.002177814786904421,-0.011898879201752357],[0.003984201820576836,-0.006517202736920048],[0.018503695860745774,-0.007673559471635906],[0.004398520124370595,-0.011920032567897311],[-0.01781513960197931,-0.009727624713554976],[-0.004070525866388268,-0.018137055143458997],[-0.015553651941811021,-0.013882406153030212],[-0.0053990943041366665,-0.0013435620257745415],[0.012877206992624138,-0.009928302499793809],[-0.015712723556723315,-0.0016868993425048517],[-0.01920119729845015,-0.0004896759867423265],[0.009399007907978008,-0.002251652743332786],[0.0025720164941986133,-0.006190050098526942],[0.010774779863290587,-0.004195802748398186],[-0.000510053732380253,-0.01162729121431219],[-0.00675912046721513,0.012495598969515331],[-0.007261699403872974,0.0020989709710675904],[-0.00986591754584838,0.004658561203844188]],"Inputs":24,"Name":"FullyConnected","Outputs":211,"UseBias":true,"Weight":[[[-0.012726093018741209,0.00011980532305814168],[0.0031208574533023335,0.000788204492314678],[-0.02328781550330465,0.007940852104092488],[-0.0047808198282000575,-0.010240361549097254],[0.002812804660208867,-0.0061655081361464414],[-0.008919075867377774,0.0042350331695885975],[-0.005566000810624846,-0.013233251176278953],[-0.004947331615428084,-0.017813170690304896],[-0.020257397438362905,-0.002174281268683918],[-0.018165826870524097,0.01796244461790783],[-0.005446979417269846,0.002508849751522515],[-0.004562005847840629,-0.0029426907833442926],[-0.009707805064905754,-0.0038162065675351052],[-0.006256472499517496,0.013915023070095308],[-0.011548325010612419,-0.01117098589558553],[0.0016686269330264051,-0.02584031547569852],[-0.015745968704252836,-0.008996036470228768],[-0.038357539097847455,0.001346114211848884],[0.012382057686243677,-0.011214557974690577],[0.003316491086124049,0.0015774639718327667],[-0.014417019649155972,0.0072377821787053456],[-0.007588932779678643,-0.007997463168911784],[-0.001402028220129731,-0.0173977228308214],[-0.02579108867753375,-0.004050854565130841],[-0.015275664126329516,-0.013853058694910119],[-0.01897476375780388,-0.010667533080148995],[-0.016997143964209004,0.0026879231829196448],[4.545472979196477e-05,-0.0024117923504707005],[0.0015395138474546505,-0.013787193298900227],[-0.012990450802694124,0.015140353381071496],[0.013132171026518476,-0.008423141639064135],[-0.02086216953956529,-0.0012526653809260826],[-0.016702897696674837,-0.0007999150278587157],[0.0016606547407069894,-0.017086468828022106],[-0.015504361010772846,-0.004598840690986723],[-0.018381861079601304,-0.016928243277286092],[-0.006818944379748566,0.006839793835331648],[0.005818459873837054,-0.004947500682918035],[-0.009751235207171655,-0.009280440068859122],[0.0003582492266645235,-0.015158231890497692],[-0.00913287758265057,0.012580474809002802],[-0.002939514268662926,0.006695780267032956],[-0.0032869538548772406,0.012712020367072715],[-0.0008996470481244328,-0.005222860673016755],[-0.009897530576255045,-0.011165843466817489],[-0.006179329022949181,-0.017122095358484857],[0.005620024318971389,-0.0008658184977950364],[-0.010202496827581047,-0.007378832816487112],[-0.008704584054560666,-0.01075563396196171],[0.0036212516008789237,-0.006304515022783876],[-0.011419944386631294,-0.0051828088098707925],[-0.015229535374972078,-0.003175417399587297],[-0.003875419609050473,0.014286121508455764],[-0.007172407230922506,0.0028890792112192688],[-0.023144177021667874,-0.005306980004820518],[-0.0036947624774084794,0.013230848421738408],[0.00828116613694166,0.003393341345373115],[-0.011810730594102974,-0.003519470891040161],[-0.01143584789981,0.00525608267055285],[-0.0072377073443357235,-0.006630129441835541],[-0.005537458895236195,0.021213250212310596],[-0.014218299899983912,0.003435850779334142],[-0.0267097682816622,-0.021743291092209554],[-0.015919525193790196,-0.0012752346074191587],[-0.01498390854525865,-0.006582040949377539],[-0.001444383053374998,-0.0018051397158989283],[0.007583472233958934,-0.003996467442511279],[-0.008906309477192136,0.0001485442870785543],[-0.020794651663158022,-0.005790926383567813],[-0.01438346370206235,-0.0004513148848200827],[-0.029832671635475837,0.01685967250880368],[-0.007057123328196606,0.004390610865113203],[-0.008526090015498995,0.0019525292092728533],[-0.007529743540690242,-0.013502272095250614],[-0.020461848530656277,0.002623531511910861],[-0.016325781637174498,-0.015425298717676578],[-0.013588408766070243,-0.02017408286225555],[-0.01261341364698916,-0.0028725176415625754],[-0.00557481715198966,-0.018016329026791397],[0.011814921058276957,-0.007256458421606554],[0.010277004869409273,-0.015416965791596422],[-0.025593973497713255,0.0072405808388123945],[0.004390795411566469,-0.004581080160785407],[-0.01191427676823334,0.00659246043199912],[-0.01984527644495763,-0.007469742769657867],[-0.010623584180889777,-0.006912422364518344],[-0.025737332924150407,0.0007202665204708906],[-0.012610606711675215,0.007932611204174767],[-0.016087729889161642,-0.0020235082594065217],[-0.007050832571440347,-0.0160357560988847],[-0.009103517154470444,0.0019328521733225977],[-0.01829319989241292,0.010323103829796721],[-0.017275486939402573,-0.004550224059079634],[-0.018939923137353865,-0.005581455707463228],[-0.01818334240897621,-0.019121129781115007],[0.0035720371713024186,-0.020713553247859985],[-0.024044163608622795,-0.023327028044695698],[-0.014893068000884045,-0.001385107302520005],[-0.007041449191388654,-0.018182961310577443],[-0.018319912237914095,0.0025426458911863518],[-0.011365129698656105,0.004666935193708217],[-0.005797311798718496,-0.017078578062621228],[0.0010590144574874154,-0.004566483736499957],[-0.010180983017450896,-0.002912555166948602],[-0.005879209417168263,-0.0031840960892457397],[-0.014046194386761522,-0.0035783346832561212],[0.0010807750158095596,0.0072615972541268435],[0.009813779199272671,-0.010519754259737708],[-0.0052324483177839335,-0.0072047129662070695],[-0.01867446593377084,-0.010942698216925749],[-0.03694195060469553,-0.0032278244903880147],[0.019289124278269197,-0.004970804516320385],[-0.016044684948424946,-0.0018723919694423137],[-0.005395145023418025,0.014039468015788308],[-0.018306995995747963,-0.01565415716685803],[-0.0243280546349414,-0.014960315767554539],[-0.005802565295106964,-0.006532878320247034],[-0.00345752284684112,-0.010063474512699674],[-0.019458655132754098,0.004729805293253372],[0.009080428722322191,0.0031234547256691067],[-0.000503459170659532,-0.004250678030764259],[-0.006668825926997919,-0.006329627991928188],[-0.01665239561117245,-0.00012242588601376323],[-0.008757679024608389,0.006568921540621921],[-0.010251691740772015,-0.005243736796843545],[-0.017426433784495113,0.0032897112879902144],[-0.008006216662821988,0.0035547119792271793],[-0.02102103140904791,0.012309692292567766],[-0.0175363348997042,0.006720344056777951],[-0.003164733957596577,0.009512890272121691],[0.0069865900117109525,0.004400559768326197],[-0.02023077236288047,-0.017845816563545388],[-0.031136151921651763,-0.02293491181299663],[-0.01724225005172151,-0.0011288771934538455],[-0.0005792367291000576,0.004861227731517543],[-0.00020844244408549159,-0.002458219103078931],[-0.009423820931507681,-0.01846172096038882],[0.0030555304099590063,-0.01615459062458902],[-0.00672499716739014,0.013223872782055824],[-0.01675650066724593,-0.0041045591551092725],[-0.008088104826923993,-0.006277309191156755],[-0.0016842568783337665,0.012219418059651765],[-0.02675046999216308,-0.0062155932780732035],[-0.007256570496335645,0.00012692830724068672],[-0.022769098763008394,-0.0077818609428056285],[-0.020898452991031408,-0.00500494311535235],[-0.04108923880490427,-0.0009560770235235484],[-0.012009875409355199,0.007256151289131311],[-0.020879936770485212,0.011532601135648886],[-0.0037712959980211,-0.01607886391651387],[-0.007070494351992475,-0.00767126059387876],[-0.006917460968589103,-0.007904700913315018],[-0.0063957293071124684,-0.0024934630764603233],[-0.019483088007315776,0.004634991112830957],[-0.011467658290078724,-0.009013437298394275],[-0.027845756241057514,-0.020840898174102084],[-0.00011123510169033576,0.011111901106717727],[-0.007673647386037194,-0.006847973009267526],[-0.0038442350702363034,-0.004036721081111649],[-0.029299061207468478,-0.02554888997799597],[0.006445955772920554,0.003728281637239292],[-0.03099342131152369,-0.02349792526923657],[-0.009726616459972758,0.0004833133952870001],[-0.03227648186788402,0.018948307902547958],[0.0023330715630090213,0.00471586654470039],[0.018779424342387604,-0.00189820943919194],[-0.018878873387345063,-0.007284785323883738],[0.00011687410227991135,-0.00862785272600401],[-0.031068353068273415,-0.01645902197123387],[-0.0030974349911433723,-0.013002362373193493],[-0.013769127850447009,-0.009213523749425346],[-0.024437724523607644,-0.004404672999072382],[-0.0008388568542503089,-0.015263658013043437],[-0.018716718785667625,0.003642374782203415],[-0.007626004922353439,0.02665038360131805],[-0.0126114027049416,-0.01299383122128785],[0.009736386377613567,0.005072600766767075],[0.006515392811283407,-0.009761330924344941],[-0.010223300581312458,-0.01880679641007123],[-0.02294237087207505,0.0029781862901037833],[-0.012061291577526912,0.011459335480825013],[-0.014969705770084484,-0.006401521841559469],[0.0016462224382092121,-2.1210076744133518e-05],[0.007442787787188727,-0.00955233107150807],[0.010275718551251182,0.01619811947476952],[0.007993614069166025,-0.021768040029493122],[-0.006060087605158511,0.00215862453748802],[-0.021575007416392778,0.012886094703937277],[-0.008032264796708554,0.0033228840269202108],[-0.007912475115707213,-0.007985364415997618],[-0.0020248874076072404,0.0034091021890044846],[-0.030398788153853207,-0.013917282629055932],[-0.01884362276702926,-0.010154156652549666],[-0.016314983898668013,-0.004573758586953538],[0.0026047004833682228,-0.008958219308997087],[-0.02072757824562517,0.0024872587481171264],[-0.02313343617581094,-0.005250023775949281],[-0.011949274129745993,-0.007016463431743905],[0.003437054577162479,0.0008428476401295812],[-0.0074157808163334196,-0.0052755196427605976],[-0.03815517653642115,-0.011664703348569106],[-0.0006978798712010617,0.00505322285928248],[-0.0036851763549471256,0.008123431985302791],[-0.01737649739890827,-0.004389086189145655],[-0.030240283534927668,-0.00819770390589546],[-0.00013472875511612664,0.004135578951408452],[-0.0038561354787987976,0.014848566419748447],[-0.012408478624806709,-0.0051775073134084585],[-0.020422348972310895,0.005422025337575407],[-0.015547818199457013,-0.0032075931214000765],[-0.01609501347368581,0.009741484904354409]],[[0.006921927177355423,-0.00019573014308902048],[0.009006823121581171,0.013649345353502478],[0.0050821711225087565,-0.0029156257828152595],[-0.002063388545184676,0.003257153323615078],[0.00029968840406117145,0.009968912091126582],[0.005303713273182534,0.01263380811586997],[0.00726535164862243,0.001889202271603573],[0.03266829491631911,-0.003239238762416289],[0.009296785300097027,-0.0027359362544152033],[-0.007255808525174665,0.014709169101138848],[-0.00837899134291675,0.00481716511761121],[-0.004779799952275825,0.014579704204154446],[-0.010342853928913454,-0.0018278077912118908],[0.014745322062985233,-0.004815944542882633],[0.02091769282538727,-0.0030069693214770437],[0.006389005101105528,-0.009763241558215608],[-0.005512032879618831,-0.003089307443777907],[-0.006867590590954311,-0.015866242836611363],[0.016319646404656024,-0.014223024313960268],[-0.005774817409466814,0.0068701761077452775],[0.007181622894431219,0.008813543716880937],[0.006030276048728508,0.005044444764588885],[-0.029663152412617397,-0.006867979208548079],[0.004377710326373208,0.01402002033193172],[-0.001264001480552881,0.019603508050787078],[0.010952745019689783,0.013050760695582954],[-0.002468808672576301,0.012315605615289143],[0.00445906799608436,0.0015860258730134985],[0.008305356616194415,-0.018241056070940367],[-0.0036544896557427907,0.0034701787473412245],[0.008909110112882708,0.009463613333973431],[0.021023682000874247,-0.0004562766603572588],[-0.008655499263357267,0.026994408778570095],[-0.0014052784504296051,0.008410641149171737],[0.033338597915252795,0.0072577608216812745],[0.01597454234333284,0.00593437498746847],[0.0011487523631852866,-0.0036850174482628974],[0.0002593528096082533,0.017226958160885736],[-0.0014163299576884587,0.004586181418095592],[-0.005038852792510323,-0.005850189679349061],[0.0036104019148330765,-0.003391861644399959],[-0.004168208460844054,0.0005269020353194268],[-0.0006716636085336917,0.009161492266588883],[-0.010844704247293254,-0.005086204424157792],[0.010925102578098802,-0.006481772313419307],[-0.014860968882061653,0.016758275038290003],[0.020352538234306817,0.0024457987015390334],[0.010566803279925631,0.013760879400771293],[0.009798191331955145,-0.004536399227769949],[-0.008329930316785215,-0.008880184302632573],[-0.003030786478767784,0.008210261647982267],[-0.006792280592188258,0.002380088875939161],[0.0043549504483551705,0.012382549975527587],[-0.014953428553475414,-0.005214778445391685],[-0.01449581681239195,0.002140740517899711],[0.014051401738846779,0.019412358968085304],[-0.015073984937563267,0.025945057204422962],[0.014705447761065932,0.011293695237572612],[0.03115628149536723,0.01017667486394749],[0.013685064301267676,0.017016201756006176],[-0.008060474244204653,0.014426310918537967],[0.014373502331225734,-0.0011115551810427359],[0.009849097266291237,-0.006566642629317645],[0.02180710240414498,0.007034698471623148],[-0.0031249367228310836,-0.00022449303327684605],[-0.0047815604472776895,0.00346715979765849],[-0.0012819703170324915,0.0090008635899887],[0.002618549737554602,0.021551624568591488],[0.012806642218044253,0.003211485925836113],[0.016041447412782645,0.015748641825432775],[0.0020444114077503572,0.020593874868392672],[0.004698435207341506,0.017076446994682856],[0.0030027487367729686,0.0057399654264783315],[0.022595905942183924,0.0010476175392478563],[-0.0020526140625444496,0.015476651713691445],[-0.0028813165170058193,0.020050640304146748],[0.017813812897144198,0.009159456044665337],[-0.0033030374202815565,0.007963382300518074],[0.004864813106070268,-0.0010034099896200533],[-0.0029335280421734127,0.01131779673774716],[-0.00139187756994325,0.013985085137253524],[0.00652056872956455,-0.009124855758505123],[0.012794660890439983,-0.003982111071138963],[0.023653332445615682,0.016725782056766555],[-0.011153451523846935,0.006019542249604144],[0.0012638619440635047,0.005199653644051516],[-0.006101033419538283,0.003135704449225982],[0.011204157508934609,-0.008555754213787702],[-0.011676843773420865,-0.017879762371657726],[-0.011838429324683274,0.009276433578518775],[0.007397924941323536,0.001416458381142132],[0.017189643613125697,0.016824973242267924],[-0.0047996991607546936,0.02787988252593101],[0.01216528991546182,0.005865250102379719],[-0.009796066851072573,0.012524592444185767],[-0.004344640602451034,0.021689307004344512],[-0.009534532842128145,-0.016018522275923958],[0.006584962996109805,0.00953424971419163],[0.012380558045692684,0.02496561563174338],[-0.008728326540963147,-0.0023675724579451875],[0.01011145000519784,-0.00267100014915852],[0.0005433464140642202,0.035802466551637546],[0.00846084589176136,0.006814161976742204],[0.0021437009660003085,0.016464445357619886],[0.01377685204359156,0.0021484062215872952],[0.00792377303477082,0.013382156392100155],[-0.004701619869818177,0.006957559334671346],[0.009143226211488716,0.005005200771019679],[0.006254643155420256,-0.005918758804281422],[0.006148722096731325,-0.0002841739153122986],[0.004110295824598619,0.014281523707124958],[0.004722854902033432,0.0035895279452846725],[0.01792673214397641,0.0003974050138741318],[0.0053474099485575485,-0.009977734212202315],[-0.00886692776484583,-0.005662774287536497],[0.0055369732070598586,0.008496027275964992],[0.012110572603824005,-0.0031421428158430564],[0.014157623718820674,0.012559342006991095],[0.025375824525821582,-0.0036014639067901096],[-0.00447383861141808,0.0019466783451136394],[0.0029015283348390927,-0.007466873228137153],[0.01000232224476479,-0.01632769388376326],[-0.0014177853122506765,0.01237642410637065],[0.010079423206078564,0.02469069590710078],[0.013478560105973862,0.025429137121433763],[-0.0010006519245924481,-0.0062634773601719235],[0.005519189597493568,0.0007677670067734052],[-0.011434513219963905,0.008180960835198606],[0.010484781145882999,0.009069011194799493],[0.01149427195408741,-0.006178398688586176],[-0.009784271639670463,0.010776240542801062],[-0.010694242385627325,0.00926706876523048],[0.002583720416890545,0.0021749257835329285],[0.0017777596469503575,-0.006608774250066767],[-0.011376230895996896,-0.01655651500949165],[0.012984814776243116,0.007563881747297387],[0.018702877631367916,0.0029730312936848053],[-0.014831793164383305,0.0008661439644094242],[-0.00454509440542714,0.009048500994212356],[-0.008195538126742268,0.010971709531105137],[0.003166900410637662,-0.0076311229044057315],[0.006586739692264547,0.011896288981520927],[0.006367016761805007,0.0031919279954758313],[0.012029861433301575,-0.0003145645919968402],[0.008069708975157124,-0.00018145158217031357],[0.00043072401473239554,-0.003120577314802766],[-0.007089757912694563,0.009099933295200476],[0.021946646599146125,0.0005405213167680717],[0.007087796316573629,0.00800904442585966],[0.0008845980536403937,0.0040811650350192075],[0.007080567033251224,0.0030360602712992493],[0.009694639874998367,0.023538009200111887],[0.0035813202669312035,-0.0013438832351496586],[-0.0017571775364761798,0.012752042341295065],[-0.002066909709526052,0.006665336322468306],[0.004560278042112578,0.006869108556719986],[0.002744057033920961,-0.00011509712577292399],[-0.013860401792299392,0.007924959796636292],[0.00017943489096428793,0.0064410722618437],[0.0005868357752357735,-0.009932041050969632],[0.01654008217330482,0.007259003792856301],[0.015977734420950265,0.007386007990100782],[0.0034192626861593847,0.007277455678358996],[0.00946468635036305,-0.005924074036168863],[0.008315251431360846,0.012932763337189191],[0.016291840681037617,-0.007052245763614744],[0.012510103532415802,-0.0009186444606702845],[0.01970898848798315,0.001109339108871311],[0.0010281997071270273,0.006043068063131717],[0.03435997020855282,-5.524723181264714e-05],[0.01896502492213766,-0.003033256922587921],[0.005130962800373598,0.015287315048652305],[0.01523667216042228,-0.009487172005467172],[0.005067501122185271,0.006605789304578421],[0.011692337283628786,0.011230477251993156],[-0.0024753648465112993,0.013927611834291554],[0.007686757403607787,0.00013491230431264564],[0.013345656599017127,-0.0041631910981298976],[0.003436287297480689,-0.01236527775677061],[0.016853167091959036,0.009197399413100047],[-0.008050160716525782,-0.002890955522674783],[-0.005305729128586629,0.005197722515080646],[-0.01462485927889586,-0.009295841536455634],[0.008579344545914734,0.017257823432728945],[-0.0007707372640238679,-0.004232150247582367],[0.004282316878877224,0.003353139140318386],[0.021480771451073827,0.001898200523384886],[0.008435683387168621,0.01264953606319231],[0.007003723609908099,0.00577945565738237],[-0.013753962430717274,0.011858982882982672],[0.0015926041353181907,0.016928452305146887],[0.004947352880990929,-0.0030984126937057487],[-0.0012804194203228122,0.003018157290757177],[0.004326011661069612,0.015619082779246663],[0.01350793505941071,-0.017310973715178108],[0.01751766785563377,-0.013742480146668928],[0.007958297185913732,0.006540985073197687],[0.006751548756726564,-0.00879027100443336],[0.010300804815185938,0.004941180191629021],[0.004471794495138429,-0.003526710389880281],[-0.022633245114251428,-0.0011570633058940562],[0.0005081283229549654,0.009174718659007297],[0.009342231119093875,0.0009273941541330004],[-0.0021816910325948144,0.0261244911357866],[-0.008684608578271717,-0.006086851115223035],[-0.002808738125812506,0.015607577738106292],[-0.0026142249973272937,0.024222971228985427],[0.011899032598595377,0.013994307385850916],[-0.0007951661391902994,-0.0003614570449403087],[0.007150551870209368,0.009338268902430167],[0.013269828663607491,0.007769651752459385]],[[0.0016112521348041321,0.00021941447112435017],[0.0033208016172520042,0.0020853864686265215],[-0.011476773973399934,-0.005229494954373323],[-0.02120148027199784,0.003939886071327391],[-0.005171902110588297,0.0031949032547257867],[0.01650577650527744,-0.015469658235979046],[0.00034041710361427984,0.0065750150637978065],[-0.015736128680042392,0.002010142802255159],[-0.01585108902523896,0.003200440518126391],[-0.005550381313735604,0.010070296011241228],[-0.0016604450511377635,-0.001746875429740496],[0.013253347914579916,-0.012545786759021722],[-0.011263626490368493,0.003334229812601668],[0.0035835766858162347,0.01761227858030622],[0.004920214536069739,0.010792312664726274],[-0.005741046181662205,0.01684718597654528],[0.004921643041560667,-0.002455605694440579],[-0.0013596938281802901,-0.001448504203211853],[-0.016553861958732645,0.0019241335067130807],[0.0011171868691949567,-0.01383586293522864],[0.0015662821635133233,-0.008286399703522738],[-0.010797395051673936,0.005370933400906044],[0.007148314717361849,-0.0033173352216769795],[-0.016944506763260585,-0.010630278562224404],[-0.012364577131790412,-0.009341225031219154],[0.01563591151776154,-0.005864333277617724],[0.004678479046246973,-0.0005445380062490561],[0.020501726193359444,0.006237774223630056],[0.007179183800236413,0.005476040145698505],[-0.00044166065816993817,0.0045610660781083496],[-0.008407817410918079,0.0012684614301902756],[0.00318093516202267,-0.01309344838121002],[-0.0144061987877516,0.0069494180505369355],[0.007229307042172994,0.010857008774277017],[-0.01533914320801573,-0.001922703885237004],[-0.005402668195183005,-0.022351726090253116],[-0.008033828518211923,0.012299314011688758],[0.002721170917863731,-0.0023413183708085625],[-0.011790982044569884,-0.007560467746771644],[-0.00012273537184711645,0.009971873022138913],[-0.023490254941550093,-0.003688642094584986],[-0.009209003842193189,0.0001650997808147297],[0.01525309187609565,-0.007284858979076167],[-0.010559971194052796,0.003725671866924381],[-0.010526440529514566,-0.018896944432629955],[-0.008891081291368935,0.01983195511890706],[0.004561387419202004,-0.015550477140503742],[-0.0231284590483394,-2.9380162294343466e-06],[-0.002118655966573893,0.004144459396422519],[-0.0032038000059910776,-0.004403887793318626],[-0.004246637651388462,0.004065328296524774],[-0.01542752879690519,0.00518098918738502],[-0.016342848101523196,-0.025952187706220514],[-0.009504936438343152,-0.00496021750677074],[0.00554677604695589,-0.018150908771971275],[-0.008630767960829743,-0.0009207246121363919],[0.0013448314987318094,-0.008084269646245566],[-0.008662991322810286,0.006254527269265334],[-0.030110825760511557,-0.019976789746066613],[-0.007715764295062939,-0.004799233367161697],[-0.002858413408982525,0.0010448009905122675],[-0.003551203845764907,-0.0007688010568130202],[-0.002158409421748271,-0.008962198592604682],[0.0006221733608795408,0.00022759867423923662],[-0.009009240235131444,0.010050524679240598],[0.015336838307399047,-0.008880945960350942],[0.010071994192179816,-0.015291014764593259],[-0.006206985091083033,0.0022678609485946746],[0.005952346157550487,-0.006864791932716728],[-0.010832328858123588,-0.00984610319275008],[-0.008643105772493692,-0.0091252708363983],[-0.009682269663578205,0.007221250301507642],[-0.0025045374064771695,-0.018484625277161614],[-0.006886959875367051,-0.0031748881096257593],[-0.008378750248798765,-0.0006771061547801467],[0.006307202780994305,-0.022300528822094916],[1.8380403392900657e-05,0.0032615652424522446],[-0.012103230559830352,-0.0031671065095432087],[-0.0054702709521584104,3.442853505604214e-05],[-0.0016381710644277386,-0.005992288397216719],[-0.003966278899979541,-0.008045449795160295],[-0.021387050936565496,-0.008014948622523258],[0.0051478889805500055,-0.014760368445323356],[0.003242577286133189,-0.00042837908673988903],[0.005555215451946795,-0.004536121874027598],[0.01020044706777711,-0.009563813775137686],[-0.018051709663661993,-0.004284654655941737],[0.004959274488460071,-0.012607033600831005],[0.00648336230234154,-0.0040774631335037705],[0.00034478741579914825,0.005444961409477239],[0.005778390052665221,0.012804396674681156],[-0.0001343894638576283,0.00014245639223467273],[-0.008620211765802258,0.003237955806711854],[-0.0010613911862371568,0.0005530186836543063],[-0.008969791561017404,0.006224343863595427],[-0.019263460753766566,0.020453182539569247],[-0.0037190935812545156,-0.005166878078002898],[-0.012672076028308528,0.005602485944097288],[-0.008257805864884834,0.015897458310016904],[0.018212342249270784,-0.016342480031836134],[-0.006104783484823042,0.026102191231201458],[-0.02214683874889358,0.002066850988818665],[-0.007012209667894755,-0.023113543231804385],[0.001675580894677845,-0.0023729264839159082],[-0.004993792446730431,0.01269391305076776],[-0.008671613717792528,0.0017987184680432248],[0.0055254881476166536,0.002092923463327865],[-0.009480650202721114,-0.012357391689917618],[-0.013348707011844152,0.0027179048907048],[-0.013046912003033304,-0.008591918290925088],[-0.004655277447727342,-0.010046670403135177],[-0.0008652663775875038,-0.01826974469240537],[0.005429458785786781,0.0052718457886147116],[-0.017310085710838925,-0.0096251230792924],[-0.007325779839298904,-0.015618812497198037],[0.024452946391481083,-0.00848217918359451],[-0.004969631603937466,-0.012645365029529058],[-0.01757193144862194,0.007627248371896142],[0.0021617873733188126,-0.00426278994733405],[0.004856418267749451,-0.014716154722048094],[-0.00911203392575875,0.0014942043371706625],[0.0010610701081833632,0.007456451676622188],[-0.024477748548040894,-0.013345183791111982],[-0.004246502781887106,-0.0005452675623986422],[-0.01105322903388491,0.0018268666582711157],[-0.015576851010983824,0.003752146558330275],[0.004894654884927888,-0.010854654131861069],[-0.03891322511078594,0.009448818114583299],[-0.011483357816634013,0.0007564131907534964],[-0.0070458834447841324,-0.005949743768878455],[0.01798407963015052,0.0012040203737548414],[0.001337151126531253,-0.005240506036572059],[-0.0025795031970859356,0.002801155826652497],[-0.0129322613875173,-0.0019855844143489582],[-0.0071651733954047146,-0.022833117666447297],[-0.005946354202411236,-0.01957739515202468],[-0.011878241126571206,-0.01438059286956134],[0.005964657090917881,0.005681815282399552],[-0.010773512103244912,-0.02515752521683971],[-0.01535872013203593,-0.02240612855293866],[-0.0007308563988942241,0.0005406756288041943],[-0.023104773007606234,-0.011117863308831542],[-0.012028902619832516,0.00785043807822545],[-0.005756275970419982,-0.03490118952759309],[0.006864019005466052,-0.004167494034257656],[-0.0007178441262025573,-0.0007489563553417463],[0.0015481542458070264,0.0013117603205006498],[-0.008899107809643123,-0.008323098323792008],[0.0025476724776683887,0.008078272825048303],[-0.008056768466383493,0.011870464914457965],[0.0013091990343801782,0.0026342055467846433],[0.0021630347260677774,0.0017568329583822794],[-0.01618292340867754,0.007976104928873426],[-0.008751840565152404,-6.444955741175509e-05],[0.0064717342466199725,0.0024615000591749966],[-0.00029246151405831717,-0.0202407778549815],[-0.006331221527650878,-0.008411492743020488],[0.010740329135753856,0.012561431926690427],[-0.022261172806719586,0.0037488315569876073],[-0.0005294464287050046,-0.0014393971154228226],[-0.011601540738353821,0.0022904669368269195],[0.008931379399744838,-0.002524973918196968],[-0.007770706516876342,-0.010636294084638571],[0.00419561629023633,-0.013204494171645768],[-0.018457521785080318,0.012231895221265044],[-0.0016904174651607737,0.00648782017701364],[-0.015149810089955182,0.0074504035213627945],[-0.010984669696979435,-0.01418520422693166],[-0.008499452359550632,0.0017029526090162788],[-0.015430658876405478,-0.007882089049570414],[-0.005134175268685872,0.011162681701922004],[-0.002502268090199505,-0.0019278664456808293],[-0.008181535027175516,-0.01246184781677535],[-0.043761177910888065,0.008447911889000874],[-0.0032414422866678515,-0.004986948188891542],[-0.006615326982033656,-0.0036205438752006077],[-0.0186589777003113,-0.007405691413002555],[0.013358015211521352,-0.0016475306360971235],[-0.004454664365850281,0.0058444430762538005],[-0.014713249432006161,-0.0046758035937021596],[-0.012207678886769251,-6.026914718990631e-05],[-0.014756043078775337,-0.010150099888102015],[-0.008511942627087944,-0.02514086927019183],[-0.0082671050359729,-0.005646905466113401],[0.007416702866691022,-0.003537810815690278],[0.017015872184083077,-0.006525138870505673],[-0.011285929213968005,0.001997403936398202],[-0.00591481240055567,-0.016742087428877877],[0.018684375237769446,0.01396398673667315],[-0.0058501663012235534,-0.002200535149252545],[-0.0056775602554167874,-0.003977536937803098],[-0.0089735465856315,-0.001442932336970105],[-5.519456017383242e-05,0.00814153345127471],[-0.007614051877839127,-0.020243278127256337],[-0.006272011847537918,0.014340620216935435],[-0.007187730718548201,-0.004185047773450943],[-0.004571279698502691,-0.008321347667115083],[-0.006632165257213093,-0.005471628865689507],[-0.003821685415378343,-0.00137457282027399],[0.005345553954530676,-0.010545047535676252],[0.011110347938552506,-0.017400633774181256],[-0.009436885242361135,0.00888253056164522],[0.008783623403905313,-0.002912566372371534],[0.003513394065201423,-0.0037666129951470827],[0.016802102701300024,-0.020907186895442294],[-0.005498155579252013,0.01042561312924883],[0.007304554460316505,-0.006925765514052013],[-0.0023087551805893863,-0.016250062497331345],[-0.005434383080040471,0.003849473342456436],[-0.01049179575546923,-0.011925616620426207],[-0.012461321420807102,-0.01658141570475355]],[[0.00045325910518158617,-0.0026502550587798185],[-0.0025873990330798316,-0.0038584450786710344],[0.004887539706943332,0.010232478720387133],[0.005886600049498125,-0.0016172189660027768],[0.01967839484457336,-0.00823171914415445],[0.0036838243729844706,0.0059020713746903465],[-0.009171729496073719,0.013938651291800696],[0.0023375408513562224,-0.01313992623475622],[0.005377678639067885,0.004931410506880115],[0.0015819831195509051,0.015595495093241912],[0.0041285908619515255,0.010298156152735006],[0.018795171459617763,0.0023304845279669235],[-0.0008008041367621952,-0.0061854839077254455],[0.016785079315761234,0.004853427208768241],[0.01128769180967778,0.00679546158470819],[-0.014325473579405177,0.009220707895276131],[-0.0011978814191642266,0.0011112167298232617],[0.004915742744172113,0.0064866374559548025],[-0.0027503649978603485,0.013057620490782225],[-0.001142091872866993,0.004932764330076813],[0.0010974545300640836,0.010620594829411556],[-0.0025896225492937287,-0.007387310626183745],[0.02450167048254429,-0.001841155497384548],[0.009264433248984063,0.007529388267331493],[0.005197899830514485,0.012184178314992805],[0.0015488876861160978,-0.0119614733515517],[0.015085213726311381,0.0026605811995114],[-0.0033135136640592765,0.006510803579294819],[0.024578196818938965,0.007684403428656593],[0.0009499369004362445,0.01606013025840625],[-0.0030085212310186306,-0.010910572266591487],[0.009069267321622559,-0.002061217362842918],[0.021814537397074316,0.006791462724547171],[-0.0026945982080488384,-0.0028626670439563175],[7.95916053432991e-06,-0.019943925779232576],[-0.014413777943930834,0.00538653512132637],[0.001478422302676222,0.007762044506898723],[0.01214340884979835,-0.01103245940286564],[0.0159055564446806,0.003235704831298512],[0.02232478707644497,-0.005651416656284368],[0.008037443006355538,0.0005309776782915414],[0.004980715708699322,0.0007882598183104021],[0.004033747019111727,-0.019488874298977804],[0.01087918774054202,0.011158829288325506],[0.01535544004982064,0.008166082213594526],[-0.005581818166749126,0.005216356391000273],[0.006872920040645881,0.01090899635270704],[-0.002615238532224065,-0.012437832576672527],[-0.0024766655766336222,-0.010701234383246357],[0.00926576417130926,0.007180526527210763],[0.030027014650406088,0.007695360818257996],[-0.011670000980603773,0.00031076953667530144],[0.01857882412718063,0.0016465287309277348],[0.001978839684212934,-0.008222986710237107],[0.002330265051288435,0.008953300514800613],[0.009476973716059984,-0.03044817677053167],[0.01616922114129245,0.02175306961345527],[0.020777725714014327,-0.006634302218344756],[0.010092327093351236,-0.01195120132373312],[0.02253799845863617,-0.0005491742058471433],[-0.005651426203234577,0.0033901714613744733],[0.008548751651554108,0.007955520811236695],[0.007232107515652025,-0.0043892031213293116],[-0.006661598114757473,0.010360644707905013],[0.006622743352199498,0.007501092513822522],[-0.0037337213376622746,-0.015554413284123969],[0.012168133958862985,-0.001284972519670697],[0.0158324218830852,0.026143326568299634],[0.004362551234951888,0.016624508505000933],[-0.005199319175494629,-0.006994790687207995],[0.01747337349664215,-0.008679653310728513],[0.01763459750999209,0.012308781466153823],[0.003830700020065407,0.014190421262002815],[0.020644562398581836,0.008078280299395287],[-0.000533792834732624,0.01448499510837608],[-0.00503816721254386,-0.013487480936527801],[0.0016181650767606048,-0.0075245907611155285],[0.005322443544323516,-0.007014149288528559],[0.008473370529089462,-0.006357181863296916],[0.029305374260865526,0.02316076672658333],[0.020932436583962443,-0.011778373983980338],[0.007225799040853941,-0.0081623814279915],[0.001185809537844453,0.00488797343223498],[-0.009759409980242205,0.01872448909620694],[-0.005793958770733809,0.027013579500380375],[0.014591634246678076,0.012511990169129924],[0.006780742572261445,0.015284342622464924],[0.0006718846004252148,0.0008730235667052696],[-0.006983029102292065,0.003930782376223873],[-0.008044038936661339,0.014466800671093433],[0.006343270854393293,0.0008015646351056611],[0.011941543528039675,0.003540330948961304],[-0.012149730947267975,0.0034217689983885692],[0.034249554659619964,-0.007925511570268795],[-0.005370548875707534,0.018332801728943932],[0.011823085186539269,0.012362867987934017],[0.008341384951987057,-0.0007388177649701209],[0.013041366665715707,0.006425600499680628],[0.009183670508497013,-0.014423249031827802],[0.00619731052458001,0.012985130900250995],[0.005921837254779857,-0.005433894958765148],[0.003525217416840788,0.003809036893841227],[-0.005351309231899078,0.007304256624749169],[0.0059729665703091815,-0.00656503205048922],[0.01797868267245831,-0.0022325217204481047],[0.004667480713964057,-0.0037618569142031724],[0.023394527782051967,-0.00838072695702056],[-0.009396862309861174,0.02294299386977819],[0.008442082640299617,0.004106351378532008],[0.017225781678727334,0.002652421733761452],[-0.006239415353526453,0.01979245578056374],[0.0003983985464117751,0.003434183299598664],[0.0341381425503318,0.013490831143810519],[0.00019177823057965485,0.005435533142674832],[0.0034141010497148946,0.0012778557985307995],[0.012166729397770611,0.0034084262235889937],[0.00675557770856044,0.016944092995369572],[-0.006678550906109783,0.003068750822953247],[-0.0038028302084391037,-0.0051027574999506975],[0.007901183821273167,-0.00016923127047835737],[-0.0034591439106235345,-0.005065666967774731],[0.013435053695540329,-0.000826132997013261],[-0.004685013511550625,0.008413152821062487],[-0.00429141764441807,0.006965706231707849],[-0.0058767107688508236,0.0012660699954826062],[0.026145664174506807,0.0017361523312383286],[0.004064970918162609,0.007387609487933174],[-0.006898631000445033,0.011889338888651473],[0.0018549783201175264,0.0019061642829880147],[-2.854023631341892e-05,-0.0037895460421940447],[0.0021291845204848693,0.019823051129131422],[0.011811184403011718,0.006619154099596172],[0.009709863206010326,0.010961921907229227],[0.012393547027164449,0.0036641937129662846],[0.025738588241336503,0.007890017200302133],[0.009002170348384629,0.008561371757886961],[0.008862565708653703,0.0008635379430238697],[0.0016564692088151289,0.009299112777178148],[0.004597041082686268,0.004345633640720703],[0.0006444137580743985,0.006566175588350065],[0.004963504168073436,-0.00197349520879914],[0.011664441190351914,0.005489109038602077],[-0.008311896078895105,0.007537955544067099],[0.009580200287850215,0.017781308010507077],[0.008427465555105446,0.003418405910900908],[0.00682395071740138,-0.0010006943870144766],[0.010415618252251683,-0.002978644255506855],[-0.0002101569772416448,0.013247331767202742],[0.011707709750699185,0.012129428071141769],[0.006989204528573588,0.00423969898247949],[0.004450826758639284,0.013678999300729121],[0.03328853256401519,0.003816766295921943],[0.005828977483645947,0.008294146412164664],[0.0009873601069229064,-0.007479591775829043],[0.012324812466192379,0.00018684796461365623],[0.0029591451312593426,0.015083162669826245],[0.004593916646917427,-0.016007926015926183],[0.014760473412542014,0.004151138140343354],[-0.005529195950432588,0.0024665190998894087],[0.00466785812802548,-0.01694833008431805],[0.009811250360825646,-0.008984206334867911],[-0.005084432154665555,0.013963005263887182],[0.002511804372899331,0.013763540704955788],[0.014125511607392179,-0.002626438409110527],[-0.00950686699682916,0.01410049249781444],[0.018838743906351773,0.0013945105179396199],[0.011782243088638431,0.016846745728211897],[0.012035276196758263,0.0071304393170676895],[-0.006974433189375621,0.020202503201603526],[-0.01178806714920661,-0.003137406854324525],[-0.0035744182048678404,-0.003893815278715779],[0.014187525396384005,0.0013992251963457479],[-0.00529652495976233,0.017096251275381162],[-0.013969906957456972,0.021989480897463033],[0.002524452719044642,0.0018787384138953488],[-0.004656775469325186,0.021260365243210132],[0.009434907680180724,0.010457148171073747],[0.009825088381657843,0.009483800634698591],[-0.015136637587381629,-0.00925885041489311],[-0.00014348691192800567,0.021757216405642002],[0.015590854275423947,0.0042112345576777],[0.022461590001537114,0.006723952956184882],[0.012810488613945742,0.01471404976898058],[0.014910079086817275,0.007758460318324647],[0.005804590032054609,-0.0010845174051674121],[0.00041462315847322204,0.0067872660071644705],[0.005689847280043233,-0.016165077143089894],[-0.007564948613110961,-0.0006047755559706774],[0.003300088924259473,0.019713566913578725],[0.014215446030079909,0.015611049425374569],[0.010160160782681832,0.006498266083571714],[0.010540276878922374,-0.0010239736879681912],[0.0035807878319147704,0.009104278146238891],[0.006456451487896577,0.011764948373928387],[-0.015205053399013556,0.0043336547257475586],[-0.005155198549302191,0.008971679038656958],[-0.003271946203831168,-0.0022145800715932668],[-0.007336139273567192,0.010537507235881519],[0.0037282777813971934,-0.003797613648303755],[0.008371393310858923,0.004528974778701294],[0.0047007587889881484,-0.007777897899187918],[-0.0025271158530991637,-0.0020933119763461194],[0.008379998958340459,0.014240193024000376],[0.03120780928740945,-0.004234772704097221],[0.011332956453810996,0.013250924465973467],[-0.000947181773516877,0.008778550105501269],[0.013385049916668577,-0.003114486465321561],[-0.0068545206100353055,-0.0020369900842544413],[0.005892228125656028,-0.0006912850263755989],[0.0008527957559952406,0.0025961666983389795],[0.006573874003960436,0.0030336928687601204]],[[0.01355028443324638,0.009038700367015888],[-0.0038780448712326704,-0.023424762641353226],[0.00014198381701664386,-0.001905191769555643],[-0.013116246851805253,-0.011806518013737341],[-0.01620050823034764,0.008854420682897773],[-0.010247650282048546,0.004478928439511082],[-0.008117147143226311,-0.007221879514617101],[-0.006917384800849475,-0.007441222172595522],[-0.020014509566198126,-0.015660197265513702],[-0.007166340810270982,-0.005157597113917391],[-0.0070889257933642105,-0.0016285880449313603],[0.004745700595817386,0.01688429585285535],[0.0006299830754837038,-0.0079050207860798],[-0.0026939017524977844,-0.011581716739715827],[0.007008339597538078,-0.02574460143069252],[-0.010766612440689651,0.003941733347958574],[-0.0051370464894174624,0.0036045115236128717],[0.004601793824426178,0.007802373867986886],[0.0027881557047925577,-0.010198487337356262],[-0.01858175894718309,0.003650117738320027],[-0.018437894683204663,-0.01217032253258562],[-0.015456370477569528,0.001814398458457451],[-0.016814902784937,0.004732267571678966],[-0.009246692651086767,-0.003422903830826571],[-0.00709547630952936,-0.02027095333609313],[-0.03402448056480834,-0.00956182511646377],[0.002775781027741064,-0.007768242728942251],[-0.010401573010765795,-0.014201932506223479],[-0.007507278517975646,-0.013518249590826736],[-0.0038883545465632084,0.01741010218812815],[-0.009478226625123414,-0.0008402018369494864],[-0.010101640662715362,-0.006252412724424793],[-0.006576142385015044,-0.0009069927459776768],[0.007093457531737912,-0.006422224980919364],[-0.001213740212521515,0.005609092353119084],[-0.006921538862801117,0.017165262348643358],[-0.014404841179556396,-0.009717419175497793],[-0.0026875898373036667,-0.008575057800897524],[-0.014021953942249744,0.0017068835594703342],[0.0033389359965116964,-0.0077268119897411424],[0.017443839261209022,-0.011819833516469301],[-0.005868540894264648,0.004958280786782839],[-0.005185193076230056,-0.00884510901990256],[0.006739395525685579,0.0017353068245587096],[-0.011020108159492344,-0.003099021284036318],[-0.0017473987874175566,-0.004930387757885745],[-0.005903071411579092,0.003932420865354132],[-0.015630734253341886,-0.014594330880652958],[-0.011562938355067076,-0.008401908333379298],[0.004468289336758487,0.005137568715051824],[-0.0034236261707286603,0.0030223880947966423],[-0.016579119000951298,0.01632938794596621],[-0.00933507351257284,0.002658030416351378],[0.013311538452152825,-0.007065327770189381],[-0.00014769466125816663,-0.01495259698173165],[-0.0038808657484855143,0.008128326622786335],[-0.010016787600950651,-0.00012945553263301753],[-0.007808333371814549,0.015407715984591213],[-0.00962758541424958,-0.006498025457443095],[-0.004536097085682359,-0.013477449856977892],[-0.014994827648302131,0.0024961964960446732],[-0.012252864779396728,0.0005528468243045454],[-0.0034909950075783743,0.0007043086157593274],[-0.016765534379256153,0.005757967380532861],[-0.007514394928435613,-0.007657203479790042],[-0.013129177439050984,-0.008500519865967223],[-0.006194102872797511,-0.016044860565263396],[-0.009560577695363686,0.009156504685583195],[-0.008702576490630769,-0.018901320444191294],[-0.003326492572871994,-0.02015971139792355],[-0.025939400040782472,-0.012248118407340214],[-0.012683226332269275,-0.02400625122396991],[-0.007300194723510401,0.004252816754872953],[-0.026295204653641487,-0.007178021162743305],[-0.003958404655538268,-0.007195661714449651],[-0.015205341392636287,-0.0032590557050028806],[-0.004733464531167374,-0.003616385970107738],[-0.0156320779020749,-0.010982665423495656],[-0.017466737255960926,0.007408892181604723],[-0.019421594006270124,-0.00730322543871991],[0.004821917674698879,-0.013975028857194498],[-0.014416056401758916,0.0013537933103720914],[0.002077955675590865,0.00909312680299717],[-0.009766279841403174,-0.012602399610945154],[-0.027997496792561822,-0.01126347047394585],[-0.009305412862605188,-0.010602147154068377],[-0.008177469608853785,-0.00039915781932827626],[-0.010252126245653028,0.007357520545449385],[-0.011192485340632915,0.0034660953990262753],[-0.00018109528998301567,-0.00807569880964329],[-0.021531158255092973,0.001905138358104559],[-0.007060349753393329,0.0002635983710662634],[-0.008762425223937864,-0.0043222932941456745],[-0.012294821917797077,-0.007467984633422072],[-0.009754204903805574,0.018441517745858498],[-0.007639173515992781,0.0012180981272057819],[-0.011307601801974395,0.007174484184810275],[-0.017300985936197638,0.011610116729334393],[-0.005542859891740235,-0.01567869073436668],[-0.019947722404508258,-0.00025423388507963673],[-0.006261726156487714,-0.0015707401423461283],[0.010605287808494155,-0.0011511966666345552],[-0.015735940036647043,-0.004008984799701482],[-0.002792170341577092,0.010584276908349876],[-0.012115424928475725,0.00094510567435945],[-0.01337608484883689,-0.004435423906965856],[-0.01651429357705437,-0.006484177618923469],[-0.009838343143769007,-0.006575883837523227],[-0.01434156583013569,-0.00869633977489478],[0.0037200317267306274,-0.0058161654830583085],[0.001297638626929138,-0.0013467767632166152],[0.002049260575349503,-0.012648299146270059],[0.0005210171419763061,-0.006132004460760036],[-0.006110164035881355,-0.0018409347767902305],[0.008349201882737965,-0.006660039774721604],[-0.0018177514071343345,0.0036048055266666044],[-0.004787700640400535,-0.009531329949717745],[-0.004081134944254431,-0.00018811827328491946],[0.011295585224110026,-0.005797915866111605],[-0.005416012339675743,0.0017775140898846394],[0.007009154330827128,-0.00439479889438602],[0.003761306636253221,0.007428944756053504],[-0.0014875021720155066,-0.013077185495103295],[-0.008612668134886833,-0.012595783309891783],[-0.0047799556453877465,0.0004687540447650841],[-0.0021015147869973784,-0.0062786257114312],[-0.013573713332009707,-0.017701423238033493],[-0.016144760682096988,-0.022665770722751086],[-0.018439809800339088,-0.0033821185606849923],[-0.013777909209602451,0.01361550827250589],[-0.004862685111971957,-0.004326583249547556],[-0.010354183782603865,-0.008347666002278499],[-0.005286572840053799,0.003058204007207203],[-0.01638688707821491,-0.006734060170740339],[-0.018576020411991724,-0.003399376229806513],[-0.008150961026059458,-0.015992531556757186],[-0.010470011456865913,-0.017004438821920986],[0.00032890573759494605,-0.012929801547363057],[0.00035492270414784303,-0.00045375342431424616],[-0.009435548344285014,0.0036378307104041564],[-0.004388332032691058,0.00360900310036437],[0.0012181503110229098,0.003212532321283295],[0.00019209009798703796,0.009272844517637801],[-0.006649359754601772,0.0012763224623291876],[-0.011449818980371248,-0.01361469155446794],[-0.0021489986944043934,-0.002792586153921121],[-0.003965592609097384,-0.01882546941959938],[0.0005526987926578793,-0.01189595274943575],[0.001352381308007651,-0.01995436828434537],[0.006068768464467457,0.007668455886421269],[-0.018131584883315944,-0.005069593827890536],[-0.016059700868278112,0.0003065467023416791],[0.0253123546162989,-0.0016571081372461053],[0.003252978119840001,0.011142562328482852],[0.010469709789060585,0.0050169345263589606],[0.00837049030990371,-0.01562795328077951],[-0.005238455236149617,0.0062826895428823165],[-0.013585051083984157,0.004077150028761453],[-0.0032489667104995132,-0.004728995916327507],[-0.01421760563130242,-0.0015153677924415877],[-0.003338821421202864,0.012455862538353148],[-0.007361217012669858,-0.007320019870419112],[-0.012907986625489117,-0.007035389502578156],[-0.006381594120418985,0.004337735491932773],[-0.020033228392314275,-0.006991137553743407],[0.0068241142864523315,-0.01023921324388594],[0.0012909712155118802,-0.0021704148260007056],[-0.010150882668846948,-0.0057572270954198874],[-0.0023281941335474717,-0.004513433053267707],[-0.010598209148482442,0.010307118381376854],[0.003501009608024113,-0.009242171793730951],[-0.009119788209008002,-0.0007225551328631411],[-0.005033155434058186,-0.008270611348743614],[-0.007020987494326843,-0.013649096674616633],[-0.006417908421028896,-0.004533585298130704],[-0.012141116406613741,-0.007319217011306351],[-0.0034859483098003364,0.0006958481071133253],[-0.012016275780970991,-0.010439502560244803],[-0.021738064399794834,0.009330292905787303],[-0.0038156054612972063,-0.0013270544109394995],[0.0019430175463861347,0.018530187784888713],[0.005166312439822858,-0.01957564900969301],[0.010249161171530631,-0.00042011580958080727],[-0.011954005232717795,-0.00927134792091579],[-0.005804462296243335,0.0006380044262703182],[-0.008665766390959367,-0.01059464527016843],[-0.013230114456279196,-0.012721326143740552],[-0.008630134642054157,-0.0016258393353635514],[-0.008629212410545366,-0.021536170057236355],[-0.010007513840376904,-0.020559227788942345],[-0.014313427904294074,-0.013909049188053434],[-0.0024656811248812676,-0.0006259685113825627],[0.001154765564519683,-0.006932612444152908],[0.0018354637159421544,-0.01927559205147485],[0.0010803920070751143,-0.00040112263706377664],[-0.009266552695491504,-0.013369848263283874],[-0.0027710613929955046,-0.006468061868625209],[-0.01816261866109899,0.008008325916754398],[-0.007124086137849681,-0.0014079051639866896],[0.006389578967947087,-0.010937808495322856],[-0.0056084011445689495,-0.000481638480359131],[0.0015422103184730025,-0.004407150573548364],[0.00494842091066716,0.02474050163833881],[0.004934168159644861,-0.004099458233563039],[-0.018470447923042633,-0.0008633830704634951],[0.005009968919391759,-0.017766487349831328],[0.0059832838861130725,-0.010254792804627362],[0.0014631354022832967,0.0002701189443762816],[0.0046854336918449955,-0.0016078957125173555],[0.009551174018503743,0.0015546257864583817],[-0.013409097092872132,0.008485470850853277]],[[-0.002039850844316683,0.010620092273163921],[0.0171688369160408,-0.00038941234204199456],[-0.00013028940456756745,0.004159663508770902],[0.005687792252928738,0.009689471549401396],[0.00356874443480535,0.01977666528331321],[0.010497387109180883,-0.003627748754405383],[0.013372928613212588,0.00474645318222888],[0.002931759067443739,0.020983342757041248],[0.01402242696313934,0.002705957045133258],[-0.016163355322357683,0.00822564414496232],[0.006174000886941716,-0.010511845700275246],[0.0044399740456912765,0.014416524364102429],[0.006822273592019656,0.021393193125519242],[0.0029362574549742296,0.02225945694194045],[-0.01074130605381519,-0.0060540337022260355],[-0.0022348687210301094,0.006246314605353812],[0.017456661027364047,0.0044513839232907465],[0.009194987519196661,0.00413453587323243],[0.0020820337672596166,0.00522184498129956],[0.00960832634596515,0.01050846644167837],[0.00895837064464927,-0.008382901220463326],[0.023235721367940127,0.017824339977092967],[0.0027506809078620413,0.019553613819240426],[-0.010103991324264948,-0.015316672338593086],[0.007405705364530727,0.001544959468658371],[0.001218908378958047,0.004709794474807347],[0.02056745183869636,0.021845948611874774],[0.010450135528212296,-0.016052057826544192],[0.01665658251481139,0.0013989222341545117],[0.00981492675563496,-0.0043995495547904705],[0.011680109037839425,0.002627170277644751],[0.007074159115649789,0.01285788432861247],[0.007345717733151659,-0.015285435558006082],[-6.932599298152721e-05,0.017850812704681456],[0.017053267049006813,0.01661439736760443],[0.01500587608686672,0.011456200194337018],[-0.0007201294867745889,0.01773308827586225],[0.020403834744757942,0.0012334601904185265],[0.0069879863265643345,-0.0038678300190484287],[0.013861159705446015,0.01832217319387155],[0.011711149187347501,-0.01285066379605846],[0.024281835559882902,0.00034597551816021807],[0.00027286728455753074,0.004775744623668403],[0.022476629068824663,0.0018531090286767278],[0.0230087382590168,0.01692210974350494],[0.00514324182689782,0.010553642428891834],[-0.024699329015837837,-0.00510375646518315],[0.011908954523843189,0.007359695917176223],[0.01040336137960513,0.01108908020906559],[0.021497719702912275,0.008237622824218803],[0.010940540418719613,-0.01438294436146421],[0.014096040567318568,0.005808472103279727],[0.0170323852919602,0.005784117706599366],[0.0007777302293926261,0.0017045862273329803],[-0.004167459546901174,0.008932496642971232],[0.017948458313608487,0.00047739736051890044],[-0.004156320312743858,-0.003585204141206138],[0.00849187639199902,0.0034628917703941418],[0.0034217239693371854,0.003897418384515211],[0.011294044524778148,0.017345994331824904],[0.016488526559742596,0.01755575383443276],[-0.00629955127782089,0.011926074913990939],[0.011709940838213922,-0.0022387568992789067],[0.016683946312447878,0.00883976531440771],[0.004455306339749988,0.0003629275316508318],[0.014037636268598889,0.008528561468115174],[0.01485826647336055,0.01162430063742448],[0.000624376995817303,-0.0012943070852474918],[-0.014511957645641019,-0.004188689742116808],[0.01754231071720604,0.00037335235444430943],[0.011650507380643356,0.012034662511209373],[0.007526144488129553,0.0077722859675272175],[-0.013716342704544473,0.0013473189999594168],[0.014890486565100801,-0.0025461719726554235],[-0.0010607828443996393,0.006416425767813268],[0.02274094118054465,0.003139984380785663],[0.026859466082286176,0.01209084771424151],[0.006954171108929271,0.009142673084988893],[0.018383988642112943,0.020802718757321766],[0.0030668786224751763,0.0030702771324547435],[0.01799487668688346,0.0013488594400199096],[0.007747940439010821,0.01292561301750676],[0.010527081026612529,-0.005838153495131601],[-0.00620738427253568,0.0070429091781972555],[0.027175602691082545,-0.0008401319006748977],[0.006667203657889577,0.011902415441616012],[0.004859598971928528,0.006900620646044733],[-0.011306982341277938,0.01494268146661048],[0.010290108780282957,-0.005228326294439284],[0.0013656792836891254,-0.0020187546759177716],[0.0162561839551637,0.006530733956525588],[0.012071249766234452,-0.0057036097029399685],[-0.0007955817283139843,0.017867175325162833],[0.010611477839792709,0.010451880817991454],[-0.011249447056440744,0.0008796946921433379],[0.017361645248880155,0.007781135016069858],[0.02149708945270252,0.005800565768240014],[0.010980253763377768,0.005641457742098869],[0.001544494400875414,-0.0004425083225283232],[0.002432135636642136,0.019081056528603584],[0.012304236042246357,0.01300882614526498],[0.012249637262209965,-0.010679757491734759],[0.013018092960908606,0.01593132941506184],[0.011125072541008732,0.018800051112732936],[0.011177965227882102,-0.013564752225948985],[0.0028126312158047615,-0.0004053967953993989],[-0.011529405984571075,-0.004092830665137561],[0.002285472986398117,-0.002148560825589313],[0.008727074956277623,0.005527541542683793],[0.006499118508647908,-0.005418248170522684],[0.005588358476406244,-0.02400622364554368],[-0.003074866795215801,0.0076304185832716045],[0.006307187629424815,0.008608915640817574],[-0.002801760180088235,0.0024809632695050074],[-0.011796980630943926,-0.0032648317314604267],[0.007256337509545619,0.030746580719636072],[-0.004495624966777082,0.018512123736820228],[-0.002201086814801474,-0.006939559540189831],[0.008627152927998146,0.02003743175224389],[0.008257504532417905,0.01989707832667059],[0.006527292363990645,-0.0021848947308987874],[0.006789680582789306,0.003081910946533917],[-0.011342889435198478,0.015310821780435099],[0.018070731314255684,-0.002077381357826419],[0.011658809815552439,-0.005747214766008711],[0.006523133422217057,0.018806139305412896],[0.008857625005386189,0.013703966457631049],[0.018233675954799702,-0.006495672894367046],[-0.0028174946791500446,-0.005433737896266462],[0.022490354914897186,-0.0037628506359369813],[0.011370264801014817,0.0011984159749782082],[0.010369765153893441,7.970330550273112e-05],[-0.005966374797425801,0.015087689192994462],[0.026420483543688884,1.236518581916822e-06],[0.008485519501658018,0.014647422021230528],[0.006740117407004758,0.0005434278086108027],[0.012804761193049704,-0.004738134296517098],[-0.001200916311491032,-0.0011721614255077416],[-0.008653924425102629,0.004747176781854206],[0.012034741210439648,0.003064140929734899],[0.005114481458309495,0.013094015306923099],[0.000285922477847297,-0.000147537916930363],[-0.002355507310197849,0.011168639231517476],[-0.0016040222522206455,0.007634600831524127],[-0.004223145238622187,0.008593837118496171],[-0.006605952665162047,0.011134755532337021],[0.010984535302513037,0.028233603497175325],[0.013035504325521826,-0.0006979802056090318],[0.005404438843001399,0.003321280617156095],[-0.008408570177175978,0.010362423513331668],[0.017014908996382475,0.024136555723118947],[0.018595616353791738,-0.002975141450615512],[0.004849969306558507,-0.021995056987732842],[-0.0007613593207348136,0.019590018465345607],[0.013737313606211143,0.008143634601053168],[-0.0005730291608713964,-0.020795500590686782],[0.008537511536631867,-0.00011066427083984549],[0.009826022268286409,-0.0004982110133582859],[0.015885482047193013,-0.006453241648781488],[0.010971407879415685,0.011674692564123578],[0.018584936431096658,-0.0038323279868823757],[0.009207612433030329,-0.00975628279597841],[-0.013538509935737563,-0.0037832463144184263],[0.005310320315662103,-0.0004774905099878396],[0.0007714840015410229,0.000605292903011083],[0.014202673696648686,0.009505407225176806],[0.010333888973006798,0.022458174566302936],[0.005948964733647162,0.0025197454845076145],[0.01464239349385167,-0.003573951592403988],[-0.0027506177396973822,-0.007827303850233253],[0.0022915561079292174,0.00753525868651512],[0.006750791013494644,-0.012714657647632195],[-0.013676923151187586,0.015017605734932129],[0.00710093219168505,0.0066102979119820994],[0.007166925569489879,-0.016312170202490792],[-0.007839509455925325,0.011363163831856378],[-0.005042949767382511,0.01766143217350061],[-0.0016784914596533814,-0.0020944626613151147],[0.011632522039774643,-0.008235002195262318],[0.014862253340665118,0.004653664917105131],[0.01990484850092205,0.0067292874300344295],[0.005990844836125795,0.0079180437388483],[0.0035859312799693846,-0.0033641181690453755],[-0.0025493852243010915,-0.0015952204263912182],[0.00864307864507501,0.009236815954628684],[0.0017620228629828046,-0.014083502664315866],[0.0011102485243455209,0.0006411231696303736],[0.00688168825154069,0.0032737066736825697],[0.011165126453649057,-0.015029998283015907],[0.007094104151330392,0.010426515454766243],[0.001329377921636396,0.015412109515488293],[0.018606035019287537,0.01003231639575403],[0.014779340562203017,0.0053578742495537955],[0.006312084197756736,0.018159067870959493],[0.016062611899172654,0.01780542612231901],[0.004496007859315479,0.001883949481693818],[-0.004861212167416357,0.00119444635371496],[-0.001131285196574354,0.020285779431754587],[0.018677649920987915,0.0005541772924562766],[2.7438017091648237e-05,-0.0033994778308359575],[-0.0015773546453145889,0.011688346097751094],[0.016600169508212612,9.547262761522158e-05],[0.0075536423318193924,0.008368520183109004],[0.00762476549327206,-0.009325028936003517],[0.015246307858147913,0.0166186919370028],[-0.0047149862488963705,-0.0031776298782071684],[-0.00707073597442946,0.01220264580655852],[0.0013834015518299524,0.01290617971273492],[0.0073154314094458954,-0.0044078678123213874],[0.01436592341465995,-0.017522404345636323],[0.017267575150764724,0.009944855784678838]],[[-0.019728907656713205,0.0031097500982550344],[-0.0052993655454719865,-0.006497800729252672],[-0.01810840887731017,0.011114990238134321],[-0.01852047978226327,-0.006499343925265933],[-0.006396797979972235,0.0009659042676933189],[-0.014152208297737882,0.002828303354418546],[-0.025713808623192436,0.011505925249576556],[0.005454879947119837,0.005363636124753685],[-0.006731479996002726,0.009507084161325693],[-0.019821194995001182,0.004355574541486649],[-0.01054116483533398,0.010971520947371747],[-0.01276423547950381,-0.005733211832476653],[-0.0018282413586238877,0.0013418143340998927],[-0.005610369326987008,0.010838254125396641],[-0.01324499886944805,-0.005444990377534411],[-0.009928468452143999,0.0032387284229898386],[-0.011399266318437146,0.009096057100007328],[-0.00032857897570953595,-0.011617534607014519],[-0.006333199140489259,-0.004002022939881804],[0.002097239996077359,-0.007130276030186611],[-0.00447148642941953,0.0028923498152282766],[0.0033033522113675123,0.007605079788608937],[-0.01359922751387929,0.014321255150828443],[0.006351505572840051,0.009484295359799196],[-0.0020367793840876326,0.01467207317028439],[-0.027308686315677948,-0.0019434814440247694],[-0.006560184456812834,-0.0020602419065937198],[-0.0024877125424837506,-0.011525431052992996],[-0.025723668323683273,0.003279564043595843],[-0.010827978428206321,0.0033717417643107143],[-0.01447809581967048,0.02165889247506908],[-0.018612367165916556,0.014764103785455668],[-0.00772188009578487,-0.003692710178378047],[-0.022678737415509062,0.016522465837918256],[-0.01430771290309013,-0.001071669277212537],[-0.017573131255522383,0.0036164825364254772],[-0.0003356450779606177,-0.02386057033820644],[0.007726885965021409,0.010860342184004166],[-0.018530823789648862,-0.010487130446462914],[0.00036808573850793095,0.0001715925364369804],[-0.015409523338722081,-0.0002597800216637898],[0.012537827314831579,0.0039918081770495524],[-0.012020178022442554,0.016636504515044455],[-0.012490366748525418,0.01471192443535666],[-0.005944598329343038,0.005514096795077122],[0.011284079120437468,0.009291867506457588],[-0.004508980917512223,0.02507735962219943],[-0.01384445075412058,0.022699065613725145],[-0.014869884150830633,0.0037806929679222246],[-0.0010786755164356667,0.010697055445380558],[-0.014858507372952284,0.007279960201801528],[-0.027071558961296746,0.006326060901343261],[-0.004039630220479227,0.024091739189854976],[-0.012906873428834384,0.013344168437672383],[-0.015914639046262093,0.0012084173334793557],[-0.017699059925477382,-0.008498337732613001],[-0.007775206656811028,-0.003831018155854561],[-0.018559291328657024,-0.009109882917753135],[-0.009622535275221916,0.007710345631032332],[-0.011776780275790676,0.0080400146978],[-0.007390063201246198,-0.003121070724835218],[0.0038441990039991786,0.01857990107239609],[-0.012750955131871095,0.01098816863556725],[-0.0044665000957148805,-0.002810902099629341],[-0.011069203608053302,0.02026785309493545],[0.006236658546822005,0.008460147077342205],[0.013534710052223245,-0.013104856222642944],[0.002262466798078809,0.0011475776067607622],[-0.005385601975353255,0.006018762589087218],[-0.005597316690304402,0.011119160438348794],[-0.0034567004770626997,-0.0024853599233689147],[-0.004943822261282269,-2.7698656454929808e-05],[-0.005876083416661012,0.003341848892034832],[0.002127867357248826,0.0023674228753588003],[-0.003833157611147398,-0.008980244907140692],[0.00036596972604489565,0.00031423837562345475],[-0.01673934336346188,-0.003163532536819844],[0.0052005749477026415,0.01055459149278503],[-0.012395354034327656,-0.009258132667174835],[-0.009144000606069968,0.006699946332487091],[-0.013764980873492469,0.017327632448074053],[-0.0060035546384266305,-0.015235240164113683],[-0.008743864053143374,0.00657947518789138],[-0.013125744111119948,0.006161695981680349],[-0.015823169693265426,0.006410720702964245],[-0.0032803941250097207,0.006747284223920944],[-0.02451163060727802,0.005857652880532221],[0.004295164774541591,0.004759511526786101],[-0.008785779174713775,0.0008295377762497444],[-0.017261335160771097,-0.002013281402070153],[0.015232532025933849,0.009174418261388427],[0.007678094929715862,0.004521198102680218],[-0.00853333370440367,0.005434547425210855],[-0.011520598994234962,0.005289870775646701],[-0.014467553351280391,-0.011319103540161834],[-0.0028913079392984473,0.009086062649675413],[-0.02184138070356082,-0.004040878853062307],[-0.010462956356430315,0.00867800895188893],[-0.006015200691849104,0.0036273458540536643],[-0.00586219970788183,-0.0026168425785334107],[-0.014714665258861333,-0.002849649227212347],[-0.0030029483529585353,0.007034921577453112],[-0.0058683266950897706,0.015121825858746194],[0.0031390034264904376,0.02413890422535026],[-0.01466697438046809,-0.0051214538341408],[-0.003250228415190573,0.0017310133209483083],[0.003464698966037023,0.0013147226499992408],[-0.01602047442866041,0.021259658670240926],[-0.001600883505545412,0.0039884875602354385],[-0.02022641904457793,-0.009545172494108262],[-0.01978622444324465,0.0010618943521967872],[0.005619106483886048,0.011056261835047562],[-0.014181429669405374,-0.007921547501207566],[-0.020227911283094365,0.0033007607919448775],[-0.018760480583881037,0.0016464652580944603],[0.024389930876003937,-0.0008993735389293357],[0.008270878326220976,0.021430097310845615],[-0.00747646176716728,0.011285110688289158],[-0.0013256365206730566,0.0038006113725495214],[-0.00035513733412530023,-0.005663840428319848],[0.004471578700973505,0.010136289880470828],[-0.0006132076189300997,-0.0074203751254733104],[-0.021458655676580254,0.020437263227282388],[-0.014049740724078427,0.004834068715800039],[-0.016811943294183177,0.011642344175519377],[-0.0023001121783907683,-0.012165433541706773],[0.017022155023834144,-0.003446903978876617],[-0.019078458569405137,-0.0011941937867000854],[0.0025030625875641526,-0.011078471591965962],[-0.013661835824051893,-0.007541049055080465],[0.0108149443266609,-0.006438227970761185],[-0.0027269473113161924,0.025775910467432103],[0.008636989282753079,0.011151778024381552],[-0.0077286224248875445,-0.016710007260331117],[0.009381515145900032,0.009578493529591208],[0.003825338108572116,-0.0016685961262837845],[-0.009868988658968915,0.019858082500343155],[-0.01980701440013565,-0.01435633456815114],[-0.003143177144621479,0.010693499939400592],[-0.002909777337048836,-0.0025936236362496443],[-0.007872447406358419,0.007866110248848769],[-0.016388540463594916,0.004901073545822635],[-0.006234202978462404,-0.006095218557848997],[-0.010028393933516767,0.010728074862804096],[-0.012307931181959395,0.019340787973467548],[-0.014706117396696146,0.005698084833081271],[-0.004954185240229218,0.0064973530536589835],[0.005757106959356849,0.005195098455865588],[-0.003325653366834079,-0.0024088636799830428],[-0.004220108436682896,0.03250947053252497],[-0.030525810017749868,0.004942994105596276],[0.00025951686510463626,0.020706119838657392],[-0.018019526128379704,0.02826395123062144],[-0.015659787112290113,-0.00896523638623099],[-0.0021381620887559864,0.014336573269028704],[-0.011693823451171122,-0.0005081480535601456],[-0.010434248881200477,-0.022546571569268373],[-0.008149861053163064,0.008498942834950144],[-8.168291384368777e-05,-0.0008588646335266816],[-0.0015756019399282627,0.013037646127148056],[0.0023208349797086054,-0.005844244128142034],[-0.0202764573740115,0.022065722477973632],[-0.015149917507364965,0.012476340106269454],[-0.010848161869092062,0.014781970214201984],[-0.026235616703305566,0.012419919871643047],[-0.001446282991802026,0.01115595275155104],[0.01972346686138196,0.010568326849993799],[-0.00033337155905490676,0.020535782440795392],[0.00018351684272652818,0.026135926205202487],[-0.0018538192011732086,0.023513095614263724],[-0.019545859547529482,0.006472123831903243],[-0.008337723750514668,0.0024498894198768787],[-0.016716959582635346,-0.0035805410853731808],[-0.005008490692742689,0.007269661170984885],[-0.02103778034813962,0.010172941378447275],[-0.003307778874293607,0.0016332094380861776],[-0.012014149682191656,0.008515309330481755],[-0.025197234718988007,0.009540980040728456],[-0.013193709946375889,0.01143179856797968],[0.003109702169155913,0.026955915874424943],[-0.025251771060548166,0.005406869814494],[0.0022096049015669296,0.021624203726378143],[-0.008387681568921196,-0.0046708475742976005],[0.0015261359348994086,0.005283077584333755],[0.0038862094724620337,0.007781042855964832],[-0.019446016814074384,-0.010268860123434375],[0.012886384002599418,-0.0008315981723319729],[0.00944566474953561,-0.0033037539557243013],[-0.00833083940555816,0.006742664248084],[-0.006718903355144183,0.007778839070591775],[-0.01723343426305603,-0.01306347819950408],[0.004039508269069535,-0.0014045202500494018],[-0.01652041064013211,0.0005454841056426728],[-0.013408169788568666,-0.010629036901631275],[0.0050097379466659195,-0.01309570693380794],[-0.0047722401256775435,-0.003105232733125176],[0.0031842367467193452,-0.008728555824089868],[-0.0179145598422802,-0.01209510150888328],[-0.013216740575458824,0.014367620229632096],[-0.01073529800039913,0.004115227056833596],[-0.006869202018616167,0.0025122432925057114],[-0.001133182007104973,0.006119531371364281],[-0.00592691558154821,-0.015813259877610484],[-0.003953014079932504,0.014838442237010838],[-0.005380889511361167,0.008591590832518486],[0.004074779842402825,-0.018307729893573346],[-0.008900860060378954,-0.006403423000303742],[-0.01610367491645952,0.0017808324946454609],[-0.020792625650776025,0.017243365175252826],[-0.01706094720846472,0.013809794006864887],[0.014371336719207057,-0.009548583630485465]],[[0.022068514005098877,-0.027591882452271645],[0.015520730794102983,-0.006586371919829202],[-0.01046070539031087,0.0023970547402033847],[0.021782566809958805,-0.011452713956354141],[0.014637887298213538,-0.020136223852798802],[0.014441870703101147,-0.0053743828170715],[-0.003214204423998538,0.004343809848042826],[-0.012717222806925967,0.00957968542582164],[0.012814818059448648,0.002458722757020971],[0.002217434288879832,-0.010612624055288882],[0.0024994393036040868,-0.0060693994758969135],[0.019736639501782536,-0.015904467411104333],[0.014544486489460407,-0.019114840835464386],[0.008088140997622133,-0.016741292615361933],[-0.002379127471707683,-0.009297785464410081],[-0.010909955000864505,-0.002900254806369345],[0.010852609435397795,-0.01670483591032506],[0.010245840606846376,-0.020165810837791332],[0.01373460924728224,-0.006749426438038492],[0.007200065269696189,-0.011199479565000591],[-0.009690378667521973,-0.010531223796420268],[0.012129148615715853,0.0049487543272184265],[-0.0037503119780204377,0.0012896663688643669],[0.008368951414263968,-0.00494868677928971],[-0.00819966160865067,0.007479409718535986],[0.008922700486213655,0.0036900342301835008],[0.0025212753698847248,-0.004170868867589893],[0.015372502384942425,-0.008775511050640073],[0.014069552779369108,-0.0034409994037841183],[0.03159362809767589,-0.016892177304721024],[0.003138054127333541,0.0028159433705764415],[0.010516234888426795,-0.019541207016701163],[0.008282967488937735,-0.0049839641292861395],[-0.002696324274971063,-0.007834834553546168],[0.002721995623412113,-0.01623255089111585],[-0.0017728657333585262,0.010926748340832217],[0.02747528976937616,-0.006843631178620778],[0.003935195295243181,-0.01685769856166873],[0.011946712132596031,0.004778552835935039],[0.014599740861558368,-0.015469099616993671],[-0.0019521283987468045,0.005025861927466999],[0.0038404714374975996,-0.009738119149501772],[0.00855998560233042,-0.013734466334410545],[0.007703436071304522,0.0020391625394945833],[0.02871836466675781,-0.02552112293873581],[0.022281283949290936,-0.0028001925969057444],[0.010570867654074135,-0.0010058300843011478],[0.014461969604324254,-0.015524098052208],[0.004991351466866057,-0.00497206501943153],[0.008176527726627199,-0.0006322617274931295],[-0.002018770117547615,-0.02787113673315617],[0.018211314385929645,-0.020069893167056627],[0.007772983780854827,0.008133280048644534],[0.004083103842700191,0.0004110288496108656],[0.008658386642105336,0.0019532506246943276],[-0.0019162277064753578,-0.006786989698759262],[0.016682192779182054,0.0008671298189240987],[0.02007688571004979,-0.0015256512122395528],[0.0012104946362059951,0.010575997948136595],[-0.010357970064270075,0.0034842266006460025],[0.010733685026302028,0.0023863134143378376],[0.012366612944096656,-0.011360847379834766],[0.006354546803295663,-0.012941404724565614],[-0.002887952855394576,-0.0012176971359235545],[0.02435695063487493,-0.029533270702215477],[0.013982606073662465,-0.016058809022266838],[-0.001561928874581328,-0.025580238514440093],[0.025595291321369805,-0.013395964138170713],[0.022511202369145167,-0.005392961748210543],[-0.0029135184061452137,-0.013242603563592517],[0.008190971395355233,0.0008247726596846066],[0.012325907564228479,0.0031900953024930076],[0.0046551003561094125,0.01360761559566936],[-0.00535564537145775,-0.007890538908126053],[0.007514703564459226,-0.009083873897114942],[0.012540183594443527,0.0075145146486439],[0.026005063942437838,-0.01601497134662943],[0.014599381334853811,-0.004908369771975374],[0.024142428731427266,-0.013545993683316987],[0.008097129521200992,-0.02640752781961817],[0.008996002002556099,-0.00568093352162031],[0.0012485430104041218,-0.014409124623728923],[0.01940525754169033,0.0025451605339145648],[0.02428947770344588,-0.022669318277402848],[0.015650721519174828,-0.00931443774822527],[0.008617762373854193,-0.013189350517865536],[0.004713868964505752,0.0017463837089740988],[-0.005391039580290511,-0.014958010934033315],[0.0012842534226828303,-0.0165685144744964],[0.02260387919014595,-0.009241500242438637],[0.01550326994154892,-0.017936751184561246],[-0.011485117801983516,-0.012044619663851385],[0.0061291108954916835,0.006674328496235572],[0.0032682549239991692,-0.023082087153101435],[0.017304074031019374,-0.017376056710731207],[0.010661971245306023,-0.015134498282853967],[0.017181675366646842,-8.145261702317144e-05],[0.025281207312012163,-0.015402654010636887],[-0.008312489172753589,0.01809633761347201],[0.011502642490700868,0.002467684205661449],[0.006592164081355308,-0.02485678965295999],[0.002210586729020999,0.0013952383840376184],[0.0021893847072997773,-0.015988861314420063],[0.008118725572376119,-0.001606703120770312],[0.0007988708085505989,-0.008398774832191473],[0.011971581541618495,-0.004600670637405108],[0.013716158205568908,-0.0064071475784357],[0.015043576072679688,0.007436280306329899],[0.024529334104447596,0.008848420959759705],[0.005324859201192676,-0.00419718823830925],[0.01867249021349352,-0.009415093008597827],[0.003949661166204977,-0.015361872446635061],[0.01597342178397454,-0.008316479907111068],[0.009470475215194039,-0.011423523424775709],[-0.002073733321274295,-0.012983710653256713],[0.011080630236376593,-0.026016490424112235],[0.007958047927793994,-0.0029695211636206927],[0.007060303791602333,-0.0021837195791058724],[-0.0022864813339017825,-0.008754935983693937],[0.015983339676785117,0.00110559194121641],[0.027170614990925237,-0.0059341302447813975],[-0.011924873025940714,-0.009468042879100656],[0.010957774368233385,0.007592893034087157],[0.005165963975540402,-0.014725531766731945],[-0.0029332598534686683,0.01398530191161522],[-0.004025397639353245,-0.018449760648692876],[0.009390806147967775,-0.013363560434257522],[0.008570033364990626,-0.010804481455523013],[0.013060595326614403,-0.015734482525664534],[-0.0007134462931430119,-0.0016278740459445028],[0.020906123453894903,0.017258386964585787],[0.021495020951078598,0.005281021463012154],[0.00902117519649865,-0.006498456766662227],[0.024019373734234573,-0.002976050102329442],[0.006202002260986243,0.0007627947589995773],[0.00918224426978163,-0.011739723386784123],[0.017284415938050895,0.0006203176380276521],[0.013165924412488282,-0.010936970437083684],[0.007391686992217168,0.003751925128518212],[0.013690635484392966,-0.009547065521492471],[0.011400801328732797,0.0039044198560529066],[0.011481093923329692,0.008229932187877726],[0.009591616000800409,0.001565790335013404],[0.010546222356728807,0.0017109648372036527],[0.021428140975751582,-0.0004312163735358159],[0.014142957083981385,-0.008567712630023918],[-0.001157204700740053,-0.006982054883867772],[0.015866757148187624,-0.02857479048921894],[-0.00500131815359032,-0.002414743442983912],[0.017353006235608204,-0.01170258145780286],[0.0035463701545833184,-0.0026146325614691164],[-0.005521013045729792,-0.006236455745125815],[-0.0037887398427585133,-0.0003016942690238127],[0.01707358078327975,-0.03332836564602612],[0.00644407180865283,-0.01544491850914866],[0.017086799430653745,-0.023723498139055884],[0.007083438878895107,-0.002977728593364797],[0.002845120895236692,-0.010120506818679736],[0.00020255272341405863,-0.01736314000716077],[-0.012345719337506158,-0.008367405804063891],[-0.007009191948142545,-0.005697951050159603],[0.004691571470201815,-0.02296232277067468],[0.01400891819792516,0.008363463226770352],[0.001819397273483843,0.00297992844226261],[-0.006955632619062152,-0.00699056080872938],[0.007731522403332787,-0.018042224833282043],[0.013846274071939188,-0.02072690465049035],[0.014831136446769847,-0.0154373028436564],[-0.006740899931286152,-0.008840477591399309],[0.020050999226451278,-0.021472944230172045],[0.023984662551788643,-0.01725621204812789],[-3.137407112721992e-05,-0.009067829268888092],[0.0034415056317596174,0.01070479093023806],[0.006458547155858802,0.007815666058264193],[0.004997629560396117,-0.012017920411598899],[0.006050399143195516,-0.010104162558878227],[-0.005543094941518844,-0.01423049126555166],[0.012076114045751618,-0.008034068439985867],[0.021600082486299018,-0.016676856997081935],[0.008415139897997392,0.009500952119365082],[0.007089969506163715,-0.01998614246201057],[0.016902393877612814,-0.0023045445157486985],[0.01124780471726876,-0.011360518532496191],[0.018220882753926693,0.002268842714868569],[-0.005560876168135102,0.015785828003412373],[0.011963515071244487,0.0008134840623337504],[0.0048372881762915425,-0.009344570773124401],[-0.002311216141951212,0.0011221289343607407],[0.0031467450103015546,-0.014531964965392783],[0.0010164899666124873,-0.009566699554891618],[0.01927289247812303,-0.003740032542690264],[0.03337202960946356,-0.012212717648010815],[-0.01652301325500646,-0.028849112785367333],[-3.2224190682157206e-05,0.0031058315219084564],[0.014836144867349197,0.004990694449077375],[-0.002335014468440817,-0.002785846480477917],[0.01815870196261995,-0.013607977221468032],[0.0018816530787022718,-0.02339236145258401],[0.0025906429442121314,-0.0052310291036222365],[0.014061188436869492,0.001089499058552595],[0.0046866383774621535,-0.002079429221798927],[0.01037691238001229,-0.0217423316009638],[0.007552894587644109,-0.00030179288013066263],[0.02473587621385566,-0.006371356621269936],[0.0014288378988942336,0.013944417687069343],[-0.0004963765315706766,0.0041482283555163615],[0.01318364790245676,-0.004904994729176985],[0.021619332365140596,-0.010657938221296083],[0.010393009338344793,-0.012527893841913086],[0.01986918535211585,-0.005627040122715368],[0.025316535324998207,-0.00032804437292725753]],[[-0.01697170642008101,0.006045443913448411],[-0.004893645771391715,0.017776523801021658],[0.010677270321955722,-0.009288575969879134],[0.010222684300113489,-0.0038009697874259074],[0.01828523070123033,-0.023078803224749905],[-0.007084310811143872,-0.000685178942389272],[0.001175423475440085,-0.005013764231751199],[-0.002725635058855323,-0.012780739608594199],[0.009716912105571103,0.002050338653725],[-0.012721777364297486,0.006065921030039132],[0.003291163801827938,-0.019307921681343345],[-0.00921760078336328,0.005477105850939652],[0.012965280007114874,0.0006348155723697545],[0.0032868766467419666,0.026195090176118443],[0.017925804810179635,-0.002152622615636697],[0.010276893238371205,0.009920211643396938],[-0.01703729649829823,-0.0016913221493619426],[-0.0031462234333956866,0.0031337704291621075],[-0.020659049756016408,-0.003902223535603072],[-0.009470783471830765,0.0004427479105900887],[-0.01652239839912724,-0.004855292269937653],[-0.0029084544692527707,0.013025386206821726],[0.0023013502189661956,-0.011298013542461058],[0.003014730672695939,0.012478263190972606],[-0.017988536839156608,-0.005542685486390693],[0.004768137875175847,0.01126312667184036],[-0.012867445348435256,0.0023159073040073057],[0.01887928046652255,0.006532817127264862],[0.006167196091712139,-0.0011232093143710889],[-0.024816124430476066,0.00651610986954642],[0.00842419337655227,-0.004099263921937609],[-0.01335027852242441,-0.0017917059977743826],[-0.010450214029234187,0.008971970979614288],[0.01681483774427856,0.01136176919483883],[0.0012788711384606017,-0.003046719093863968],[-0.005793791452171437,-0.007454221324007681],[-0.0026999767093343714,-0.015545347486435407],[0.005870770393013572,-0.009364254749951622],[-0.004223713445488519,0.009618550923263688],[-0.01260667920155323,0.005819334926159634],[-0.007222566459390948,-0.0006342943147944345],[-0.004408546677338259,-0.002175210149465679],[-0.01193485333209738,0.003436084348226638],[-0.003291236338846785,0.007449085162446449],[-0.013257310878762151,-0.010166774510922863],[0.00014168032237849178,0.010118931029017238],[-0.027223958141222287,-0.0023169456225687313],[-0.010119325289275356,-0.0008497649890453869],[0.006099986084754341,0.00802093183390367],[0.02056976310734981,0.005316530471139659],[0.0039050984686526996,-0.0132795647824305],[0.0014432701708819514,-3.15941208190586e-07],[0.024182632478947107,0.01070882833350971],[-0.004677689041566511,0.007259772808764421],[0.00012470251737587774,-0.02130233016317825],[0.004734818680463562,0.00014737346656977298],[-0.0002904954631750578,-0.008245690705564895],[-0.004048965025900098,0.014595389424316697],[0.021310228649263695,0.011198054150504063],[6.353674258843066e-05,0.009553876477562652],[0.008308754694346238,-0.0023202022222487562],[0.01255848906135017,-0.010928312433617578],[-0.007083353980794656,-0.002917020240370025],[-0.011522408787596718,0.0036868443987902884],[-0.004883963812650797,0.013006810596772054],[-0.020207764075253386,-0.017917711880176268],[0.0021650630414379655,-0.008357120472511153],[0.004232600595865373,-0.017947540311853562],[-0.008708932144830012,-0.004794508528247475],[0.008290742882268106,-0.0020963582635462013],[-0.014928212731184168,-0.004382799890352881],[-0.002372248971429105,-0.004447235716508256],[0.009514569634571047,0.015197129063466224],[0.0026368778398840114,-0.015502263938496717],[0.002536007784634013,0.0048530883411519],[0.00376826319391057,0.012621126878651788],[-0.006779301543386218,-0.006236994902823786],[-0.014355387493980316,-0.004563999012766663],[0.01410238053187585,0.014498156669998184],[0.009975923381165088,0.00046572009692258674],[0.01827902562844358,-0.015636734280156276],[0.0013362630639795596,-0.007799391443296942],[-0.0038483390342371813,0.003167892372053796],[-0.01191733714106377,-0.0026677103181986677],[0.008583947503520237,0.006938495649300919],[-0.005803533427313804,0.004774984087720443],[-0.013307486808987587,-0.0021618273710304284],[0.00210567476892428,-0.0017992888732498958],[0.004086614727906082,0.017963125083842152],[-0.004337755971838268,-0.003558541893054752],[-0.009067596406897586,0.003732724326647859],[-0.005742374416743466,0.004894803620538924],[0.0037916419471232194,-0.013985505030645887],[-0.018914454327586233,-0.009531042918942209],[0.010990292084915426,-0.0022242089420853933],[0.008099722524674374,0.00969142667511826],[0.010387802153217668,0.016715902275111834],[-0.005153021991103679,0.017242952739499738],[-0.007426232393173606,-0.023434929600163523],[0.008864329995952283,0.003502558533136874],[-0.00671758692178181,0.01899791673622659],[-0.003978544449701169,-0.0006710004819059318],[0.001329501315794224,0.027027068329988174],[-0.0009787085216481964,0.005438010170465884],[0.011680418218426613,-0.011087363150908911],[0.024310333723042154,-0.010592814438964778],[0.00782136834464569,0.006485350404659244],[-0.003105572905903743,-0.00972959933165269],[0.00875399575241986,-0.016547367987170554],[0.012525838371020524,-0.012728704896263791],[-0.00856767254088406,-0.015502134961525327],[0.002750776519583167,0.0018776011031297224],[0.0007826826464735904,0.011633664219535248],[-0.00814732742008094,-0.0015539428072050606],[0.00508850991999008,0.006427927285222978],[-0.008859028232535291,0.006892006417200186],[-0.014539358795987096,-0.015991189399544414],[-0.0035909620324118528,0.0013667374546455877],[0.023405363432192856,0.0071142442782312],[0.0004429702400396387,-0.005510593416804525],[-0.01371019054890592,-0.001042066614954031],[-0.009367196911870868,-0.004041947543209113],[-0.01663446325739837,0.008798111014614874],[0.002205315851574131,0.0006215685800575038],[0.006143177602189773,-0.002360146630278568],[3.379785860552091e-05,0.010561354977289676],[-0.018115230621126587,-0.0061641287332399874],[-0.0006911110726698926,-0.003291961832902732],[-0.003550297992375001,0.00954507498830485],[-0.013214357784776436,0.0048992367297287665],[0.0013623426301224261,0.003892377009059455],[0.008425143627585877,0.004645606912175253],[0.018059896472970186,-0.017691930554600593],[-0.021812960588712172,0.007959079486580315],[0.021300036584036626,0.00565262369627925],[-0.008911332449473583,0.01311135596487285],[-0.008317027022789523,0.02559670927413475],[-0.0009789343806862719,-0.0009247432412761685],[-0.003975743337094656,0.007998481951338456],[-0.0012603689410434391,-0.011779366810191842],[0.002379188341668905,-0.0029833506514594928],[-0.006772427690217925,-0.0005945700597243611],[-0.011556934029891643,0.020782404381598136],[0.014457777099212739,0.015237363518447278],[0.0035077906288149695,0.004295619971655379],[-0.0007870352684008564,-0.004180192336866068],[-0.01984116792491995,0.009392787051155862],[-0.0021425340687537334,0.01836633269402577],[-0.002600128882797392,-0.014917998768072085],[-0.030348865480435187,-0.006118221096312928],[-0.0024253541696675645,-0.009429433700538191],[-0.002795700629927421,-0.010731921914462065],[-0.0037723011144266353,-0.005612338182364546],[0.016368141084028825,0.003217372961642454],[0.010737138381813293,0.010404203185772997],[-0.006148103717679796,-0.02216835606618398],[0.013549205059771715,6.49369508779916e-06],[0.013845503418477024,-0.008711714289176345],[0.004597579183655047,0.018527793750052732],[-0.015177475672369897,0.012683341503899385],[0.004612323008991498,-0.0059489426043844405],[-0.009789506225366921,0.0033298432323807864],[-0.012580259825917284,-0.009409576825620354],[0.00027343121307064064,0.004604850860187756],[0.00828040644201738,0.0004932220647676169],[-0.003923670660125309,-0.006462508440041336],[-0.0010586472788071573,-0.0016515448775241057],[0.014941022517532964,-0.002800829512788891],[0.005806145323566672,-0.014174458418345548],[-0.013978089085685944,-0.0003960499917825079],[-0.005325496796085783,0.026214343530245213],[0.004444715638430334,0.0013917964643823083],[0.013131973384798002,-0.010294872559377458],[-0.017430035798247614,-0.001979234436497549],[0.0013029826126678243,-0.000508554264680236],[-0.0026038370041118076,0.0033125606878684263],[0.009863536252118386,-0.005023072514769985],[-0.00456004858864336,-0.01637583954908322],[-0.02500092695024324,0.0009088589921220707],[-0.01737436244839448,0.003748375992821687],[-0.00494774462828442,0.011937012796346244],[-0.01578646870552543,0.0014367194485614685],[0.008810571616859556,-0.007537056793593426],[-0.0017384557325065102,0.0031256010452265204],[0.004962970426822474,-0.00504049225583167],[0.007982847097461802,-0.0026693252009898296],[0.005192119314845025,-0.01347079906613499],[0.0016162374489207686,0.0050724406853691305],[-0.002879881725419876,0.013918564128003158],[-0.007373824438718366,-0.021366122847780607],[-0.0059416082334933455,-0.0003214623329840857],[-0.012755131697389554,0.007379870496555504],[0.010757437392131251,0.006118153863526539],[0.013007692894956175,0.010789511637648143],[0.0022129543708229384,0.003433509690084897],[-0.0034848582216413775,-0.014863209160026486],[0.01429978520493405,-0.01089167766247513],[0.00918288301963827,-0.008959704661952506],[0.0056176170523292036,0.0062740762024962775],[0.006059941909172084,0.009211316463873494],[0.0018716255738267188,0.001167221610273761],[0.005129619714352987,0.00023390836455291838],[-0.012437184701584907,-0.0012258495534771027],[-0.0017257435725040928,-0.003295263207318631],[-0.01004778839639353,-0.009518199028765209],[-0.0005076375883982427,0.011438227167961263],[-0.010894122482355459,0.013888568596863833],[0.0013700888109050278,0.014620744421703014],[0.003291084309355947,0.011771974935126607],[0.0008108231132269721,0.0005879484186837506],[-0.000416116779277119,-0.0033949068197325102]],[[0.01654654376657935,6.866714734239871e-05],[0.015414715270478083,-0.0016688206539785108],[0.015194865904774701,-0.005057446214314209],[0.013611829028007836,0.007781232494353015],[0.0009391071620333617,0.03088827348859112],[-0.022382352321109533,-0.022665470038083543],[-0.001694254674063909,-0.011530054301730536],[0.006665771294470908,-0.014351153352074672],[-0.009793266228287429,-0.03238777632263377],[0.007592919771464615,-0.027146480507056626],[-0.005741031302865302,-0.011281998184140185],[-0.012393761415009965,0.0018252501377101636],[-0.0029334257335266443,0.007853202925398853],[-0.0034215519059160046,0.0010356157966876134],[0.0047213827326096905,-0.006867601096924575],[0.01579866747747008,-0.022929846285119165],[-0.017428441234512898,0.008778738230662783],[-0.005456119813729318,0.004123584599943681],[-0.00015601468665294146,-0.011451688255025879],[0.008726013359065461,-0.021842902481788846],[-0.0042488665876763915,-0.004137525079218613],[-0.015983535099082524,-0.02783272302241307],[0.0001454058787191395,0.0016545284869561808],[0.0043892918964334665,-0.015460149515710656],[-0.005446359625031973,-0.002791275468104353],[-0.00254500188493486,-0.0036163442448912887],[-0.009034973399427474,-0.0028223325678904203],[0.011443240992721133,-0.00794462333546018],[0.000291671529786302,-0.008660701048860131],[0.022783348500699834,-0.0176497443663481],[0.004199719356470437,-0.001448309489934643],[0.002400446322464414,-0.00543423188973281],[0.011314925800945346,-0.005998849544110383],[0.010758652135333334,0.0035543726518354446],[0.007463290992534154,-0.009661072815496026],[0.008294758935613598,-0.004754344911928821],[-0.001957874842092084,-0.002391826862914173],[-0.006623314104326748,0.011403231877312127],[0.002066160130115452,-0.010398756575206272],[0.0055006868624151726,-0.001772339271887682],[-0.005044388533423971,-0.004520374118848254],[-0.0021355043698117163,-0.009316974207966518],[0.009364100118324599,-0.013306743095713043],[-0.004189908089521255,-0.019341994639196853],[-0.005149034562977936,-0.005866191957351556],[-0.014213814137713414,0.0008495173314309028],[0.001894269055385023,-0.010026438574778942],[-0.004560775416244567,-0.007653852591140775],[-0.001110602773959028,-0.009139690022756141],[-0.0031330638385373894,-0.01514639511981227],[0.006245034837933488,-0.014847669542538517],[-0.0200900341043493,-0.013549483514402908],[0.008104287041057702,0.0018844166461166796],[0.002516455693073509,8.534171039473241e-05],[0.008608763080168913,-0.009721371874747309],[-0.010113759644882073,-0.017328470323303504],[0.005147987721745334,0.0015122764535760828],[0.005195892125259466,-0.01145142729517813],[0.0017466046058741025,0.0011065658185991142],[0.004517987904492536,0.0069773448419990485],[0.0030417252008742178,-0.009569360225987415],[0.008678683610488949,-0.010711024724638654],[-0.0006669476075715452,0.035218341442903006],[0.021584598322753022,0.004730781168465136],[0.0005698025496335286,-0.022902616294621238],[0.017992525629429747,0.009334172923273222],[0.006018578694921183,-0.007902525209707216],[0.0030082128536993735,0.003637293623593712],[-0.004486051549842593,-0.0018456163668185191],[-0.0031712491430273947,-0.009063298974842067],[-0.011031599790992387,-0.0036371420197462384],[0.004264354848034691,-0.01737381514042198],[-0.009315331337960414,-0.028596949759605212],[-0.005270034798716079,0.005263863675212184],[-0.00622484548384639,-0.02471790650420972],[-0.008151912073732403,-0.014950027001373671],[0.005015025003080397,-0.009143237697092176],[-0.01172930227972314,-0.00523130000701155],[0.007061522364210824,0.009719352208797957],[-0.0016148395567897446,-0.005684269173392705],[-0.005182916366060237,-0.005895123158110871],[0.0016604670256952934,-0.03203386430806422],[0.004944330418168235,-0.0006038677631708721],[-0.004559990771168652,0.010305185472009813],[-0.016068209801838387,-0.010370715319575891],[-0.00947649981275315,-0.009977313671064978],[0.001871614783744566,-3.3645454887731426e-05],[-0.015452695989784467,-0.009933461698072998],[-0.002162404314554127,-0.017959036936367787],[0.0054639901842846944,-0.002354610302914265],[0.004092220354258077,-0.009058412596894492],[0.002501102938889343,-0.02132502317429381],[-0.011344287702011931,0.0063463179728408],[-0.010591639544521808,-0.009429022567464106],[-0.0016327549853385893,-0.019186252263993214],[0.009584108050306224,-0.018499941950395837],[0.008458111795671906,-0.010022658062697611],[0.00038294350240337656,-0.019138681696788524],[0.010389732993724575,-0.0030305746205697465],[0.007364440971089045,-0.002167726369082869],[0.0008428684168868743,-0.00725551717102737],