{"Layers":[{"Bias":[[-0.02642575712718169,-0.0011255570765687653],[-0.026732943749612714,0.0030812885669391035],[-0.017182322105657025,-0.006114791231690772],[-0.03090508187202205,-0.06257223783024948],[-0.030063842955920836,-0.020901364361246608],[-0.0393387641139528,0.017280079955262508],[-0.02149911690567943,0.016231687177568847],[-0.02379486584343033,0.012491837090889824],[-0.031142471797409983,0.02905156548254148],[0.0054986865702729365,-0.0008395675749285162],[0.004715755463683,0.03390908245004216],[-0.04514871879606706,-0.007383688970773016],[-0.021550112958318,-0.0037411391807996293],[-0.022796663678012457,0.023512176692230897],[-0.026326396855152825,0.009881833003649684],[-0.028074045769100272,-0.01207340916735033],[-0.015628762691837057,-0.0251502573351569],[-0.013522815146819642,0.0161859077695939],[-0.014563659958610985,0.00624373133728837],[-0.017511513629569497,-0.02140986063025246],[-0.031104715362329085,0.014345628462844706],[-0.02036898404275626,0.04457030587156136],[-0.018083271364078037,-0.02843694253317483],[-0.006634424514411855,0.037950662571918016],[-0.0270556090822378,-0.021678772858373788],[-0.021559102108763318,-0.01255632734896826],[-0.024936298823798678,-0.006857758769659409],[-0.020540310491606813,-0.0055268273373829295],[-0.01685041204152024,0.006404026246909163],[-0.026102736059000903,-0.0018928529541996824]],"Inputs":12,"Name":"FullyConnected","Outputs":30,"UseBias":true,"Weight":[[[-0.008838728928150397,0.015511728099733724],[-0.00017829247208272302,0.026301770035857312],[-0.0032330215674240517,0.02032440452211454],[-0.0035545886040637925,0.022701931529788794],[-0.003768916512413424,0.016291549767795475],[0.0084728125863396,0.024820275038978684],[-0.010889401524246176,0.029325171259279706],[0.00747447971206101,0.037991343333421225],[-0.0016541280515634971,0.02896476234219449],[0.008018070254809495,0.01141726650976314],[-0.009321479417575869,0.025041133990568624],[0.0003822458654943779,0.013627382953433465],[0.002041316636941426,0.014028342892851656],[-8.038968385129378e-05,0.02069931585808971],[-0.010273781601439323,0.005240932404226396],[-0.01551058850629057,0.02831402988814934],[-0.007613937159543562,0.0199504509115274],[-0.01746417217521748,0.022286672174046],[-0.012039761273703892,0.02868253446681588],[-0.012841749329668115,0.025053843640999704],[-0.005927881207588963,0.020910259575831945],[-0.005137889987029873,0.004967238932548334],[-0.002213693298442787,0.0066149230098457275],[-0.022332891855339657,0.03531793798076027],[-0.013078900577384865,0.027206595866140545],[-0.006769143961149267,0.02538380994524174],[0.0008328618734262277,0.025890137510868667],[-0.0114455051981333,0.037873763559339337],[0.003734528767530367,0.022804804720114615],[0.003135310229863643,0.019819969672345655]],[[0.004342269130026739,0.012666864702553148],[0.0025535967174917873,-0.03348314969849921],[0.005338927507829262,-0.014288073845823798],[0.02801434805345023,-0.028153890531760938],[-0.006179937840970829,-0.04732825884927886],[0.01328666653915187,-0.007761630195863026],[0.0016594919084558638,-0.003859640632650684],[0.01604921052499407,-0.022284950934310346],[0.011058853069447512,-0.022570754856695137],[0.0017796812369007806,-0.016139801334984192],[0.018523636088258823,-0.032909552473166084],[0.005958824951635162,-0.029826041193355905],[0.005876422940800414,-0.0370593493082742],[-0.005678728461380074,-0.029234638232373315],[-0.013315533263521334,-0.03748558426217593],[-0.0008842176355347922,-0.019786117628033846],[-0.0022397686139437336,-0.03720689022298014],[0.01592953356120104,-0.019014237755298292],[-0.002066259562770737,-0.02654649231590131],[-0.009743335145855332,-0.011968650905485838],[0.0019508381255899337,-0.02908012906212697],[0.009407015528715791,-0.029756584474380645],[0.005551981295487384,-0.03210506830431389],[0.016490184985137733,-0.0253889575390923],[0.001872822069079929,-0.014493396107779846],[0.003234611294609345,-0.015988327816447618],[0.007089409883438247,-0.014771872626844922],[0.006444211924142858,-0.033140226241991116],[0.016211073536371516,-0.02358665763597759],[0.010011127746164167,-0.03768115436699389]],[[-0.0015446035069142956,0.01678723656399293],[0.0008279644706234894,0.03099754580993573],[-0.0004286549996629762,0.02956320892632519],[0.01569061543978736,0.05095485681467048],[-0.023735148975350985,0.022213705541035262],[-0.01054657727549993,0.04497557836066936],[-0.018230311233577816,0.03009650546748677],[-0.004259414414749239,0.03465503074911061],[-0.004089651546159774,0.05385458483495343],[0.01276624251361133,0.03275277000244969],[0.005131078986363084,0.04159146018480559],[-0.0018176828375568014,0.036914906828492106],[-0.017067187692217243,0.03369166058851534],[-0.011339027880254315,0.0351998951636916],[-0.015561126527689827,0.027715606578717442],[-0.006289929724421872,0.024843831433451813],[-0.0023329564675672746,0.01111161448392443],[-0.004124298121896033,0.038532216507101945],[-0.022975270574139353,0.023217508295895365],[-0.007146925670581477,0.022128555278710264],[-0.005018149874180948,0.045744230038952324],[-0.014590968589683943,0.027943353546459746],[-0.0071140189360791445,0.02710754859746917],[-0.011922960654285933,0.034672252761768496],[-0.004728084391038698,0.04082503003700775],[-0.007142220207145877,0.03808820770743522],[-0.008396405529979395,0.031569889478543396],[-0.005518028572755388,0.027209211211370803],[-0.00417452659250625,0.0238696037513762],[0.02004897850518373,0.02156249828660761]],[[0.018616723493806553,-0.005427693702811866],[0.0324880299466267,-0.014778788212991749],[0.028834720528193997,-0.019636203953778388],[0.01181286531637079,-0.006606077365727966],[0.031738772053973976,-0.008384659600089259],[0.013283428586831254,-0.019797332093440118],[0.019527189359775158,-0.010696750265582826],[0.029200728977957564,-0.006496925959497612],[0.011217201654810608,-0.011368105638752051],[0.010790295199103777,-0.012957452989506573],[0.0201852843038656,-0.030902506925947485],[0.01959659370319179,-0.019822472842786813],[0.0111940410964487,-0.011781481342910655],[0.02424804935385101,-0.01887710807310821],[0.032599754089838756,-0.022082587477024563],[0.02514181671207956,-0.010017341211463545],[0.029444180946947,-0.022604408115393694],[0.027985430959868295,-0.007313443354321734],[0.0008467963538813761,0.015913805773618946],[0.014647178668499405,-0.015109910013453146],[0.013919750688083689,-0.018602308821528572],[0.004208240265314024,-0.0045246665744713595],[0.018346336790672647,-0.008600459816664161],[0.02008992127138536,-0.004047596424165965],[0.01127659155292732,-0.03535832953573366],[0.041278164526857127,-0.026127756717577295],[0.02448177298418091,0.002588892571606153],[0.025039728266292065,-0.002921572166876917],[0.025297437003126,-0.0006107635183453654],[0.010835569888913668,-0.007331987691584255]],[[-0.019305424599249405,-0.018199682419559833],[-0.027407028128449074,-0.0075046051235883775],[-0.02989025354044583,-0.020605154519001214],[-0.010964533030778628,-0.01121294341260289],[-0.016907613914444567,-0.03847392738053203],[-0.009667943770915339,-0.017481886496037078],[-0.009983503057587845,-0.041766364348577445],[0.004013908531577031,-0.016338513559675808],[-0.014833492524769903,-0.021343354091378608],[-0.00062719650685582,-0.02656136261616792],[-0.005640300263734767,-0.03865893505577368],[-0.01674282933675831,-0.01875026218192956],[-0.02471771217910738,-0.023268999459065805],[-0.02677457366207459,-0.02792273993923022],[-0.029805834005660784,-0.023062669088244746],[-0.018765038134555698,-0.026184806016517834],[-0.03037617467762819,-0.025587639505872152],[-0.022521827569079507,-0.027629735038395286],[-0.02325491755076449,-0.026171711310686692],[-0.017097141827307455,-0.013827748083473536],[-0.016285861890690773,-0.02338654902343564],[-0.014990913250521078,-0.02623121775838698],[-0.02080566506931699,-0.0036263928663846884],[-0.001111365118270858,-0.03358812851777495],[-0.00694651645302011,-0.02593324288318448],[-0.017059124775668053,-0.017758572855666614],[-0.022354300495473347,-0.03641054464704582],[-0.029932021376854558,-0.010299025380171151],[-0.014188049963572483,-0.0247940784209591],[-0.01963701746770367,-0.03746252510209279]],[[0.0011974285437742495,0.029683721092973948],[-0.008100952043235538,0.018526264776920473],[-0.007400910242232354,0.014018245461627157],[-0.01638007280202827,0.04222614394935507],[-0.014905707774194582,0.028974307399090196],[-0.01184922888363098,0.017210272686668995],[-0.016158259720627233,0.006672338754751306],[0.00207204546014456,0.04037498554016737],[0.003674931162063649,0.02803368257963085],[0.01107910138690358,0.018252358444621065],[0.008004388847401605,0.012637061388916246],[0.011401801131572206,0.024953125207103737],[-0.008418063902558007,0.02608894439765976],[-0.0010603308816952823,0.024299637287595325],[-0.020422855882321126,0.021700415565998533],[0.018216449771597056,0.03445566534221011],[-0.0007005221763960617,0.030759532229551946],[0.0006126323387911459,0.001839617661958785],[-0.0023162846974329326,0.023536459593842842],[0.004023881472571232,0.023368407415181036],[-0.023418673288326395,0.02212548763032362],[-0.00948960638766455,0.013202848828862114],[0.0077043678147029615,0.026758735016521384],[-0.012449544807521732,0.033774453781914744],[-0.0008385233639014681,0.018679706496911672],[-0.005190321180365983,0.029883840360891863],[-0.00629682796535724,0.02754398645871818],[-0.0025526960551765588,0.017800848742488523],[-0.003610132486018603,0.02711814972314865],[-0.0032865973530250506,0.017919830147825323]],[[0.009579095567768148,-0.020354168710009894],[0.019234399165917324,-0.019689452079419443],[0.020705805213577146,-0.043959739285339444],[0.02466451205829698,-0.04378490870797984],[0.03238901882574095,-0.033977092741126654],[0.028039464106343476,-0.027881327297672297],[0.020730264218680728,-0.030163032500003302],[0.0024514604159863403,-0.020880382875552172],[0.013243128668325681,-0.025713765170371963],[0.021345043510909243,-0.027523175318086082],[0.021597170534470023,-0.016949493473016674],[0.019937425744925654,-0.020004442382169686],[0.029242222739986105,-0.048363379191264926],[0.004905688040626715,-0.01915539222282075],[0.02514090609108823,-0.026416236754978277],[0.0064231184242457846,-0.01936316851921762],[0.02005419527166562,-0.022307286705689346],[0.02652080751429472,-0.030048990591758428],[0.009660847695865548,-0.027950623003219748],[0.010062161641316975,-0.025411859987970145],[0.014719008860607053,-0.032365422855375345],[0.01570080705089135,-0.019361762095850873],[0.020915849638263918,-0.039513730346409225],[0.013404456006047049,-0.008945909455938778],[0.021999641874993734,-0.027892464727801505],[0.0193594330773344,-0.03339003485313277],[4.656974426573294e-05,-0.03072213207267199],[0.022164727316723552,-0.024636624524171483],[0.023152693533441692,-0.02738951160154228],[0.013581927695080327,-0.008381788166783736]],[[-0.0002176587921339635,0.039580379125719434],[-0.015525013930465889,0.01733246504514723],[-0.027403442563242716,0.03381578066647371],[-0.013503779648395131,0.016529431136198373],[-0.008224551680739144,0.02945993758191775],[-0.0211174347395214,0.016123772069488253],[-0.010041907003310731,0.021488358692130755],[-0.013686329574174465,0.02266588492585388],[-0.011087598036048248,0.022907013725256043],[-0.009100367163456798,0.03296700113480981],[-0.01527792029441566,0.02525596031985546],[-0.03266714489751888,0.032847380117352],[-0.02725942413748824,0.01974323899819188],[-0.016557673172489497,0.012981862711010206],[-0.010791508256247292,0.018320833531254153],[-0.026517023813855387,0.02385462630797438],[-0.013069298822236052,0.03095996548717628],[-0.013032860160634666,0.013707840261332621],[-0.023888521865659436,0.020896251889559365],[-0.02719837888104969,0.0314385516125159],[-0.03262560399650931,0.020716182791792787],[-0.027487997564436668,0.012955558924160115],[-0.009805005407413633,0.008138855877438497],[-0.015596778409452342,0.01946506972774131],[-0.02888016018179034,0.03830715633796298],[-0.021595135030080207,0.023722602495562],[-0.015267791507118404,0.03584606207962031],[-0.03301163818570769,0.03155631297504097],[-0.02426004251836913,0.0449606322661443],[-0.004335932719291101,0.025403494845041147]],[[0.005868616788833504,-0.02732681247949572],[0.035859828495945864,-0.03086666971136714],[0.0011012131432040875,-0.027353209219262903],[0.02266901400985164,-0.022052355409614116],[0.007059727581082839,-0.029146612350123474],[0.03291888066407876,-0.0025383963911262673],[0.015638934635586056,-0.02655686392641217],[0.008309278443529623,-0.03436667863304829],[0.021280389228065508,-0.0218881239019462],[0.006916186402055853,-0.026283923191746206],[0.010725253669241272,-0.02192928575521546],[0.0036477748925157517,-0.026089837820691502],[0.03242989603907949,-0.026671231906068564],[0.023112591010430065,-0.023564937606863196],[0.029548908181398784,-0.021182982376117047],[0.032807278456086345,-0.03844334979570768],[0.028855006567397007,-0.022041143649303208],[0.026643933286369614,-0.016848593054257153],[0.010073852867686377,-0.009711360203225172],[0.00030460539087151625,-0.008289326994430607],[0.0072512890143001125,-0.00843392736226161],[0.032352927190318626,-0.0210431926454639],[0.0232565382369147,-0.006369560299034049],[0.025186026987045612,-0.029316723024115903],[0.009899618085087408,-0.023428587494075098],[0.02497072909311531,-0.016667008448122658],[0.008536032376267119,-0.010784897396456944],[0.007744048578374461,-0.0062222979876832615],[0.015306472900772047,-0.01823830378504939],[-0.0016565530125029898,-0.0003290392042854609]],[[-0.012245384948674182,-0.013112899366240076],[-0.025214243303419585,-0.009850318855063479],[-0.029935529158220616,-0.001554181658597245],[-0.04037952932738607,0.0024649016986178496],[-0.01766916781383493,-0.02904288190444851],[-0.025217292101461165,-0.00986334741117546],[-0.013939244358532768,-0.018250763960326336],[-0.02204593251200093,-0.006999275423805483],[-0.021840085922131765,-0.02075869463325496],[-0.019031412100344213,0.00268185122909609],[-0.013409065580098783,-0.014707928480247797],[-0.0330655678572465,-0.02148151060295661],[-0.009398642159351408,0.011056154102013587],[-0.003553814258883391,-0.01851154929926503],[-0.022448927732728996,-0.022504169999922052],[-0.03806830459585181,-0.0043698370605852474],[-0.027838722928057832,-0.020501103459163162],[-0.02334892616293184,0.006539380743891617],[-0.029260047388910145,-0.027607447006180955],[-0.011253878035913436,-0.019971789531861767],[-0.0025468705508613324,-0.0005617663994173485],[-0.011793614194264392,-0.015897402405106887],[-0.01811943376147522,0.0008146679291341374],[-0.00413446792097357,-0.03586557066405869],[-0.02851765652643207,0.007032853706737922],[-0.028982630258582068,-0.010307082950682387],[-0.02045850832362824,-0.010423777458412348],[-0.020671540738729986,-0.015528304177985891],[-0.01856276712044367,-0.020821339859983537],[-0.024918701815651936,-0.02422188758814329]],[[0.029383157919340264,0.030578160841720513],[0.018451044387344625,0.01588978087354689],[0.008580927926702061,0.02719265797238634],[0.01235135614232711,0.01585288432583936],[0.018713689184011225,0.02116086239307499],[0.02181008258069622,0.009820049113339082],[0.030377127248455833,0.03715368061191256],[0.0029918799722679717,0.026441067235293422],[0.013508709012956033,0.029202003995951558],[0.010645873196948668,0.015215450857976548],[0.01981440834490025,0.023395604183916303],[0.031025779886896362,0.022714107922000487],[0.011783844983706708,0.03223852454573002],[0.021704182811191675,0.01235775929263054],[0.009995075464089556,0.03702145128676104],[0.03258112950732012,0.029800515696120005],[0.02742778642825079,0.014970555012120672],[0.03190344001231549,0.028512856468210477],[0.009745496005057376,0.010059941668704152],[0.03451484679703393,0.025449267748777312],[0.02228685823404129,0.0282316437487873],[0.03188680864858565,0.039042032462809156],[0.038663874786836104,0.012358501395700291],[0.01938971533805212,0.06299945166678335],[0.019897065484206874,0.014149208565701682],[-0.004673662759888119,0.0070708897375805855],[0.03992239957273111,0.03936626670176247],[0.015812992994868536,0.01907614987578392],[0.011531772723176218,0.029963073972441735],[0.025879476399886452,0.016456519446052937]],[[-0.010853349200971621,-0.008707805728080113],[0.011877227966717566,-0.04649933918021034],[-0.023216339563720677,-0.030295729178043525],[-0.02797119647020581,-0.04576847604122644],[-0.013655398463124397,-0.03966853826399833],[-0.010004757319680459,-0.02116655411165685],[-0.024686012346870134,-0.02658143456883617],[-0.02928347739882853,-0.04047850617868939],[-0.01427073178405184,-0.010555878324704778],[0.005380744641238837,-0.018753136116649114],[0.004019901212587836,-0.036051352875049965],[0.0017666225934908522,-0.029157324114789048],[-0.0093798169817215,-0.010841966158322683],[-0.028551407170097184,-0.03507173593043511],[-0.017494376076809322,-0.023287954381692424],[-0.019204512343096256,-0.03320014184977243],[-0.007084657398262779,-0.03164987580655057],[-0.014043572568891601,-0.01921752837726713],[-0.011835169766960118,-0.03574274880603939],[-0.009322379773375127,-0.007328778676881069],[-0.027241654795263155,-0.03732117943509498],[-0.0014963995083182714,-0.0229184437947175],[0.0040923597011130255,-0.0254594503840254],[-0.012036347802214686,-0.03566786970721221],[-0.0007729286916770453,-0.012837472525896402],[-0.010358373079266242,-0.011805564486601042],[-0.014801343708982966,-0.023700613593444313],[-0.014781120428098093,-0.027344065145402927],[-0.001737157300658145,-0.03931983093291598],[-0.009732350020822667,-0.030847397185330108]]]},{"Name":"Tanh","Size":30},{"Inputs":30,"Name":"Sum","Outputs":1}],"Name":"FFNN"}