{"Layers":[{"Bias":[[-0.027640480778835904,-0.015961204899225832],[-0.023947543614299665,-0.020047157244329886],[-0.02103613096627538,0.0007862573364563089],[-0.026948819746470558,-0.07035543762409914],[-0.02368286370107759,-0.036925374671692976],[-0.036545655262465816,-0.0002892338486310931],[-0.026546764387410042,-0.0065767476468512245],[-0.029676444794462783,0.012127256615063857],[-0.034343403848076756,0.016731376157088883],[-0.021847508062272293,-0.00948536002070846],[-0.00027986205423940466,-0.0053616305106613995],[-0.04468062748534827,-0.033250633147645814],[-0.01002309613234618,-0.0016244729711234625],[-0.010148295697500757,0.025772891295299315],[-0.028254595462401322,-0.024582569799853838],[-0.026956553178953194,-0.03975855291561843],[-0.009147168207203203,-0.02429603714226742],[-0.011681954839975247,-0.023715091977562254],[-0.01708439624734267,-0.008206893599057222],[-0.03664223320747563,-0.026223428306406338],[-0.035333364072385576,-0.01263777071030341],[-0.043987307003466584,0.022684253820521062]],"Inputs":10,"Name":"FullyConnected","Outputs":22,"UseBias":true,"Weight":[[[0.009886309264853782,-0.040066613301178965],[0.020761441363250352,-0.04440314828172118],[0.01683234168113558,-0.029082769289769318],[0.01435367670400477,-0.04097057482575244],[-0.0072760975924226375,-0.04227028431601569],[0.024088864111217065,-0.04951220342476726],[0.009674706697247761,-0.04884299549015656],[0.013573237593573602,-0.014996277043224529],[0.01192785909612237,-0.025055172568367992],[0.026707845521098436,-0.019179068599162404],[0.003278631307172909,-0.04957156535551209],[0.006529641898479929,-0.03409396928202709],[0.03151257450980163,-0.036487269824081826],[0.030297133572350695,-0.017731734430353082],[0.019185035501295078,-0.04202833030133455],[0.022066950503490966,-0.0346250510432992],[0.027947421942266147,-0.04061366215356828],[0.0030497734703345053,-0.026122347400031443],[-0.0006884613745849518,-0.03291471004716559],[0.011824696491765804,-0.037009023002127356],[0.009484064455970382,-0.03497142066964131],[0.025631370311433792,-0.03968409398272103]],[[-0.0019872118295064995,0.0407991994624779],[-0.001975675392331903,0.03329179227822414],[0.0006280139570974322,0.016082733516500868],[0.021188826125534396,0.004101634068760545],[-0.00688415249451237,0.03414896154671777],[-0.0036802833836772305,0.01582628255226362],[-0.013070629253173746,0.03304116502977932],[-0.009185958883713213,0.018786476667973596],[-0.0057905678655515175,0.04569547948381806],[-0.013235796868534584,0.024788438716380482],[-0.0020763354867885816,0.02992003549936971],[0.0062077392306522676,0.023318446739422627],[0.012073754086338206,0.021662449822754015],[-0.0036364801999023534,0.007592743609757487],[0.004096028786130997,0.019914433070714423],[0.01643573205134384,0.022036238570664637],[0.009591958738381126,0.04678086968720403],[-0.004963714005723914,0.013874280412085455],[-0.02047788663240939,0.025332713585149626],[0.0064573695808215065,0.029199588061860036],[-0.0037220283890266933,0.012277731868072619],[0.0005301242281742404,0.01929379264573139]],[[-0.026914302884593688,-0.030269496878273357],[-0.020987694305635386,-0.0246941231430757],[-0.006009201282554123,-0.02581690818137434],[-0.015314905732167912,-0.02994532279794042],[-0.025785284185726225,-0.024457214468419145],[-0.01351742085959328,-0.0321273252086601],[-0.0004938786988570391,-0.038048330939536426],[-0.011808949946903817,-0.02469087697476825],[-0.024129668024089026,-0.026738127487089966],[-0.002960298205043001,-0.013272417603502215],[-0.0320979481042769,-0.02541786754420717],[-0.016525451187270473,-0.031227658854323513],[-0.014008990719451428,-0.030775994454284097],[-0.007948840513728309,-0.04516841901473359],[-0.009997319470063212,-0.019455174361690242],[-0.010827243831067817,-0.03609002646626358],[-0.021654400668802906,-0.019211567127509026],[-0.013179610714667406,-0.03415919698078562],[-0.008265613191062884,-0.03045245130624796],[-0.021537257385354266,-0.03330027299778042],[-0.009778414114110056,-0.04614427256192595],[-0.02725992788551217,-0.02925718401959719]],[[0.021388708075546294,0.02350032445017604],[0.026534743797065215,0.026929619105383475],[0.032949345346258645,0.019566682819339175],[0.025673657069066384,0.028223476011260257],[0.008453804947570408,0.013392573871316336],[0.0040213826302565115,0.03356315940580585],[0.0256382934589876,0.027548783703904282],[0.011825221761197978,0.017478951458708814],[0.02073852389838491,0.023677449423769696],[0.034637006011392454,0.02338066747447331],[0.0033688317361604088,0.003957066951924676],[0.021674453389791917,0.006742934295602448],[0.029559954576269195,0.02969621864266311],[0.032661783241796,0.013761631182667078],[0.020317268437291546,0.012956161224197705],[0.025043832728865848,0.003874416168819317],[0.023049331931825866,0.03474560273315567],[0.04045392282769561,0.014070374149886074],[0.024553167561359248,0.016381185352113158],[0.03961739427086725,0.03174012668140972],[0.031219022234706524,0.012687212099524416],[0.03499486596480098,0.027778922019831873]],[[-0.009805703126967283,0.02280732493436171],[-0.025213403313957286,0.030619179561994392],[-0.0293039404416005,0.038174125320007794],[-0.00826764329972729,0.02803131915497823],[-0.013662186727252041,0.026184722815947283],[-0.023982617723532062,0.016481521334093474],[-0.028450061156058963,0.012008061632059312],[-0.007405059002670592,0.019805020807278147],[-0.015008228049873623,0.0030704860959418576],[-0.012623357202375405,0.030007782957803663],[-0.012594186068159633,0.03203893391718831],[-0.019946030996499223,0.03281721530293176],[-0.03168930679002431,0.015608276947445487],[-0.01501044486968983,0.029906553539702074],[-0.018869869972584302,0.028102057505255115],[-0.022173770249398105,0.03189781100676546],[-0.011818914438047032,0.022752075504844337],[-0.014994086982166616,0.012909732174944104],[-0.008563606780432229,0.019934327268006966],[-0.023273964697103085,0.03245101305615761],[-0.03300778266154401,0.019511003780377154],[-0.012661724219952594,0.03317095541865049]],[[0.0002831614815726347,-0.0227480037252169],[0.004974647080044763,-0.012175252939942968],[-0.015217652533561823,-0.03193855908084436],[-0.002541687460145872,-0.03330422656749737],[0.01584155137048488,-0.0319914866839531],[-0.024307218552656846,-0.049575659675676016],[-0.005050143631500716,-0.046743587610319076],[-0.015134748384763485,-0.03730382173102089],[-0.0207583903253275,-0.043983515192016036],[-0.0016028850790245647,-0.021502594530245032],[-0.0012475926129078701,-0.026858730752127535],[-0.01258608919196095,-0.012256602696709206],[-0.005583824368575947,-0.014740974927005936],[-0.00871346536149642,-0.0271206832366514],[0.00295557658664344,-0.02561227234891746],[-0.01894616721785881,-0.0253925931244461],[-0.01652495529234114,-0.03337720081082201],[-0.025367027608903178,-0.03723389867217203],[-0.009388679402924404,-0.039740992903412424],[-0.02093946542810025,-0.02890475848106461],[-0.008777017706037461,-0.018984432012792152],[-0.00018141041315931786,-0.022591799014740545]],[[0.03873346446048303,-0.004327622057620912],[0.011893334914424862,-0.008027763041624756],[0.026853916170768877,0.01229660558054828],[0.011134793189512743,-0.002812004339367061],[0.050709233105254346,0.027968499454424978],[0.027582777537516156,0.002696373239932275],[0.02523057118212589,0.006717141739247861],[0.03939306895414501,0.02586189241810683],[0.029411735632179616,0.004219034161263208],[0.0451668605909051,0.013744941878146425],[0.031648963121799815,0.030814359068577386],[0.039514935421530846,-0.013255433814495322],[0.017330614276830535,-0.000389504370152983],[0.017122430033101942,0.0066423269276838235],[0.028592412093636645,0.009671157632205708],[0.013315152847328999,-0.006647057135653852],[0.023756146290476496,0.012742504263207874],[0.02117173695671625,-0.010872693936800801],[0.019377818104547306,0.022354271596150086],[0.03463518909148733,-0.019086458904125976],[0.028938404637660224,0.010271764447803661],[0.016592342672786125,0.002742585296590214]],[[-0.027932531035411608,0.027656196947728175],[-0.012807012711767157,0.023495662183948707],[-0.023657808709325958,0.015321341441150344],[-0.029618209219677002,0.018762752262118133],[-0.02951273993855905,0.03322968281638652],[-0.03225318855261485,-0.0017257950853683808],[-0.024510552231009262,0.007621356506897212],[-0.02755885887880658,0.02216571480585638],[-0.01990733856219728,0.01868555366148875],[-0.01821447452720771,0.040055099770559155],[-0.033327830201351966,0.026913868623280553],[-0.024355756769379164,0.03487372685611867],[-0.0065612454743827426,0.028747001687521624],[-0.01555241393107133,0.016199188114398414],[-0.041417239024031396,0.03168192756453915],[-0.02822745721725787,0.031070769624633628],[-0.020003626396227273,0.018708168784496042],[-0.039918316061981034,0.009830021880460784],[-0.031658291751913564,0.02419413583440314],[-0.03625334516228221,0.031267035486600286],[-0.023005627817828268,0.028431244397279013],[-0.02133462920349719,0.0005376199862250413]],[[0.01620794061428527,-0.038459425616995294],[0.02974399509123213,-0.02229846198612177],[0.03514027009066021,-0.04009022711804695],[0.023888183911029735,-0.0484653915188151],[0.021594457062890975,-0.019300186135007003],[0.007310317482612919,-0.03316551501422645],[0.03310655696762205,-0.024910195133699024],[0.02548003651345959,-0.04028392809350127],[0.017909542863855273,-0.035940470030852496],[0.0053728301020500285,-0.022524899494105924],[0.020296388847713502,-0.028638231734325618],[0.040118576543447894,-0.024810927900111843],[0.0190025440731854,-0.02468253454538775],[0.02353208226795733,-0.026062722775260234],[0.003333119649633639,-0.03614717315126859],[0.030105982617413804,-0.05278193086831131],[0.008212152610190464,-0.034801292372921844],[0.015575942546505444,-0.028167883938873903],[0.011165602766747093,-0.021688048409457112],[0.032086554055741394,-0.022434945537561878],[0.02877000114203181,-0.03033131366557521],[0.030840676130099002,-0.031143663880214494]],[[-0.016820604996222604,0.07291070884659712],[-0.01754782895329607,0.05197439863311612],[-0.020936335933390733,0.03312391336152951],[-0.03358729546926451,0.043313915081535564],[-0.03295545802123505,0.05416043395528688],[-0.009871564301631223,0.037109710447361825],[-0.007900121445800618,0.04866031891983858],[-0.02043922098521366,0.036708236706751274],[-0.013617005111212539,0.02610300357405321],[-0.018875020750672104,0.031764284963012375],[-0.01395643025393484,0.0407429315005886],[-0.028968323299891338,0.03602080904690642],[-0.006666041789109639,0.024486341411138247],[-0.006430427384519459,0.021066035440905687],[-0.030152052155887517,0.023624879921603767],[-0.030441106405001236,0.02947323754797989],[-0.019019368171026965,0.03627137522143646],[-0.008591830478914342,0.023505167905907228],[-0.02422241340227773,0.03711262834301366],[-0.024731522926293624,0.026323353471552017],[-0.027532870799282787,0.02214021448098448],[-0.020269922174531725,0.021657353638486657]]]},{"Name":"Tanh","Size":22},{"Name":"Tanh","Size":22},{"Name":"Tanh","Size":22},{"Inputs":22,"Name":"Sum","Outputs":1}],"Name":"FFNN"}