{"Layers":[{"Bias":[[-0.03214258878367447,0.023579163272761165],[-0.021377363719826865,0.022722435478450324],[-0.007723663726923191,0.025646224459023724],[-0.024127968939709324,-0.025220069960726718],[-0.014915447398696744,0.001095855845585832],[-0.04594934069575268,0.02324065054923276],[-0.01716462141825412,0.015248581980565208],[-0.028027026318273307,0.018092996042797526],[-0.03321752350263346,0.04567893220254717],[-0.018092886260874835,0.016081267887027663],[0.005593125474764315,0.02363338468559392],[-0.03469421429990608,0.010930627642842012],[-0.00678144676542069,0.02497304538517832],[-0.0005752133785360906,0.03612346839581987],[-0.02204492083898727,0.027088343914327382],[-0.015300822049535865,0.00901201760827032],[-0.009143981973135781,0.009682923869243035],[-0.011393753410782274,0.02540436715768435],[-0.019062361906835284,0.01462839168918464],[-0.014727203811711767,0.017998190058753208],[-0.0276846402820241,0.015819917277104446],[-0.027063125316391486,0.04312202201460111],[-0.013206942174487592,0.014026523187556613],[-0.025462948362294152,0.03552076857443766],[-0.026945076270830363,0.019006422563620617]],"Inputs":22,"Name":"FullyConnected","Outputs":25,"UseBias":true,"Weight":[[[0.00662015649342385,-0.01706534324470214],[-0.0008189587679064295,-0.027283000506779356],[-0.0035125354988876025,-0.015579618551380174],[0.016487761021645987,-0.0077075128364136065],[-0.007147448227769013,-0.02482567821001919],[0.006200962428520721,-0.033535406864205704],[0.005853111331850987,-0.022935618835117872],[-0.0006117928701501724,-0.020045587201232555],[0.018307156610377875,-0.0338925813582639],[0.0035680121482062183,-0.03808941085265273],[0.00125324623678287,-0.017958504980788784],[0.016668493582362515,-0.033690447455414295],[-0.005527375105174555,-0.035299389570866174],[-0.00426929370241783,-0.011193213579744754],[0.025744144636656772,-0.03584428635151447],[0.010644321112240016,-0.03367028183213421],[0.01566809969229938,-0.03779610291178546],[0.016532411147140155,-0.029989840720943222],[-0.010366401856352292,-0.025136202961492025],[-0.001413796727424163,-0.03056595157911074],[0.004120058461745063,-0.025952313400289518],[0.022931343902922383,-0.027200425344064232],[0.011038736003198692,-0.021599776264295358],[0.0096313487346555,0.0021317121770160342],[-0.0011023632231268938,-0.033579642183852225]],[[-0.010220602310127684,0.005061622347040897],[-0.01436920738772518,0.013600025622370665],[-0.011603189318162952,0.015742683907873496],[-0.017219503699151897,0.025228474964891046],[-0.00322261555479711,0.027150784185215746],[-0.01881441768174421,0.010187980150010448],[-0.026303875781248296,0.002523917723027684],[-0.0031879425989288475,-0.013476181172957208],[-0.029947829879273802,0.004011945575889463],[-0.007426616785777805,-0.006980987792296377],[-0.022085206430076304,0.01628916539372211],[-0.0007795658952070148,0.010013407229236503],[-0.005140335341506328,0.005276002522292938],[-0.021329128247666872,0.0229436990030884],[-0.01857474916401321,0.00917101201087966],[-0.012175844806240435,0.007051469036660134],[-0.007627052155282592,0.0060053757961999405],[-0.0362648337172916,0.004051943664314654],[-0.01756021073162817,0.00416413288885938],[-0.04026912234846878,-0.013895807535728222],[-0.02146504013280096,0.013354661838346629],[-0.034441708503828224,0.010157644874193782],[-0.021971823390755353,0.0005535612453385184],[-0.02007490186184557,0.0162522313609129],[-0.0285141812405668,0.004255832168026381]],[[0.020229523096259194,0.022431586562912706],[0.009949188437559398,0.011825336894368089],[-0.005048423512368535,0.04028294647793478],[0.0030435008992651435,0.01259966776212674],[0.024695306622698098,0.01906062790283027],[0.0045637952287404995,0.035890380561655624],[0.021056948151353453,0.01580781937861682],[-0.002273688792885844,0.01228777478032282],[-0.010287214534460591,0.019800478956471555],[0.019021049215821755,0.008570073264313435],[0.006515442752307309,0.015873201929051346],[0.013434911916677715,0.03835195016375341],[0.02307302366602685,0.014799178880450582],[0.012430959937450848,0.016619917056967755],[0.007338353695009517,0.02751922192503986],[0.015542214265900214,0.029402044913257302],[0.018718482855066866,0.004632927493835868],[0.008418282691295272,0.028427120939384133],[-0.010056945484937647,0.012032735324580265],[0.006363790819397203,0.01936026174777306],[0.0357439731556563,0.004641281566077557],[0.006109932293297136,0.024212262544260104],[0.0047341920123002606,0.026771013485560425],[0.009545251069412551,0.01124501241724751],[0.030378897372551217,0.017477844604794773]],[[0.023381786931098086,-0.024370920496994453],[0.026341622770817967,-0.0343252622619913],[0.016877495753967433,-0.03982996965847579],[0.013769738317073609,-0.01852802655518745],[0.01608839574640387,-0.018119501617460648],[0.02253776420928738,-0.032889825933865295],[0.013100031691818032,-0.02217198396439993],[0.02326569266010353,-0.03214065638632834],[0.016743507629537933,-0.021685504887538034],[-0.007397074227699408,-0.027927910180518323],[-0.0037545553066542906,-0.028536522476145177],[0.010131287639539176,-0.02438994780244021],[0.024569776918944897,-0.008302053433293448],[0.017068401177885054,-0.03395326456436779],[0.012859402382115463,-0.027797570143615648],[-0.005407279205921862,-0.009929865175994408],[0.03939535211412935,-0.02927903725421048],[0.022263978813901516,-0.014101509520089537],[0.0023745941044991214,-0.023341378889641908],[0.011290506877424823,-0.026205953081498912],[0.018554532850816183,-0.01948220331579485],[0.02337115353729987,-0.01352811142381996],[0.011059393938006633,-0.02884651656262492],[0.027137419734628278,-0.03493297667386301],[0.016471429108153558,-0.021418421232099485]],[[-0.028041777417833424,-0.008721078132914157],[-0.025581297980422718,-0.009026023184851283],[-0.022293421333308968,-0.020218972736027276],[-0.03168748473665171,-0.01456942163783801],[-0.014704657764103716,0.001552791861309181],[-0.023293428516841252,-0.004630345498186045],[-0.007333072907548882,-0.021428028929690167],[-0.0095251823459053,0.013694894207162304],[-0.018122661219144683,-0.018674742309343215],[-0.02108698078061273,0.0021242405016399734],[-0.04213463105116398,0.021692303952126252],[-0.023087058651514076,-0.014785472498361745],[-0.013459165917169438,-0.0057558949537565044],[-0.004510313624134439,-0.03370772611385287],[-0.030223825180575144,-0.012918121005229254],[-0.023675509065833475,-0.01389391865812744],[-0.0342439301983742,-0.002379726985154901],[-0.030998008149281896,-0.009502158168473496],[-0.03908180520799407,-0.00995745724011661],[-0.005488824530559262,0.0015798416773299595],[-0.02353240733609358,-0.024472767217013754],[-0.01506627680073925,-0.013520592385341385],[-0.0031876857528184885,-0.015467886282298043],[-0.02024853302974384,-0.005628698949898064],[-0.006036110674878943,-0.009682378667480403]],[[0.016739030839394167,0.00797589322092692],[0.022046878102975485,0.006432134788391401],[0.02166624740041664,0.013450553493228852],[0.030041781637021148,0.013583846889899982],[0.04077327012191157,0.0186371199210495],[0.03833637368553212,0.020160444781913395],[0.02758845395578284,0.007769321829327689],[0.013718920325303901,0.02465058723983319],[0.027321608842403377,0.014204847523116815],[0.022453553694795188,0.018008463830385155],[0.012001933728730076,0.009366033474820566],[0.023906937769910576,0.03162158911872197],[0.025301034339069436,-0.0018678952359456131],[0.022884845219604266,0.05180723072321464],[0.025341906611078213,0.01896307565908806],[0.025905205048374114,0.017007886421873612],[0.01740007181445467,-0.0010474641450486921],[0.02295855532110944,0.011414535091703632],[0.03218819833768307,0.016662518976051303],[0.008303510817940035,0.030621968768103372],[0.01014104898118182,0.00964138298268157],[0.018960545251075392,0.04331705546849629],[0.024833976728114895,0.026458764352882268],[0.024176578516349835,0.021696351533532138],[0.029041653444653717,0.025025334455648803]],[[-0.014959983208468253,0.021853154118238707],[0.006088394743075144,-0.039962731027292635],[-0.033308856797461726,-0.008497168566572916],[-0.022641276006026473,-0.026367775370249084],[-0.012299971832865903,0.002575098631294546],[-0.025337776595672403,-0.019770518822429348],[-0.014113775215589345,-0.02444742278984368],[-0.014505416336704744,-0.0027483511954646323],[-0.0147026315186352,-0.03041712813295571],[-0.015508480152302113,-0.010108622241042833],[-0.016540702849295798,-0.015322077490237134],[-0.022894390111771683,-0.02420157740511915],[-0.014657959609360569,-0.025865621006826593],[-0.01866447909651157,-0.02873822374836935],[-0.02289326162359211,-0.020023261646723328],[-0.03624296358107322,-0.011219946741497977],[-0.018019786169612757,-0.021708859951509916],[-0.025436247806411776,-0.01232819592034998],[-0.024060269853721256,0.003211376716393881],[-0.013537840206859003,-0.01623410406682636],[-0.004027599429034286,-0.016852947715026486],[-0.01415680556580268,-0.005196345390049754],[-0.02508525285279228,-0.017432981007894942],[-0.01591242625988991,-0.009717426384691169],[-0.017899928875738366,-0.014662896644619203]],[[0.021891458510954045,0.013063568319135506],[0.018935559944026556,0.02226188495236277],[0.00926698046277688,0.01947967769871534],[0.028246347431878125,0.04001977857944247],[0.001592402435479787,0.028378062328277987],[0.027359734853991187,0.020477480573163773],[0.023855264334443616,0.03337827115474283],[0.02190892592284931,0.022261264152749056],[0.005523861031815924,0.03830060475683934],[0.023425326903016862,0.020546289246005798],[0.00851477753975797,0.021130289206037562],[0.013095282933598401,0.02324604784673368],[0.01852373615200812,0.0231594438093362],[0.009910488532056378,0.029005195138536964],[-0.007649727734157642,0.008941518427558517],[0.003206346507838749,0.03667277112896512],[0.012813467908575887,0.04108802736411998],[0.011941733233684951,0.02779901573573359],[0.005139962543136341,0.036784392285327566],[0.00684094913877228,0.022295922240081117],[0.03050534107987012,0.038441852867625144],[0.020750330827152365,0.036726743598076164],[0.0289234255249472,0.04642179679914305],[0.013401291444134378,0.011106463744790632],[0.009096083337380451,0.028256704958300825]],[[-0.008512664811369563,-0.01839677669657201],[-0.0036773524806158427,-0.016820864967928565],[-0.02158487608169903,-0.048354423959614985],[-0.00853899994344222,-0.025427560962152224],[-0.00620354007548962,-0.027435475863977626],[0.011649256807459402,-0.03164901981968311],[-0.00812256807574302,-0.03325631649066386],[-0.015142556728112816,-0.03127027119765305],[-0.010893708516980516,-0.024789308600090074],[-0.012982036903986605,-0.03617528128832962],[-0.016189208347948025,-0.029240656679462892],[-0.026632492289838106,-0.02701592685133902],[-0.010184647871735729,-0.021792740907782923],[-0.008110054036896085,-0.017159334188022204],[-0.004671576066760254,-0.013322427229488626],[-0.004891682525475308,-0.03185442778202101],[0.002808396076014482,-0.025428459320001776],[-0.01662717533336,-0.03940989363530408],[-0.007711836725878324,-0.013859172402735603],[-0.0017911142635877774,-0.01999816025201839],[-0.007297175689255618,-0.023243605505853346],[0.018418022878520342,-0.03587402694411356],[0.005980973925823475,-0.04602258743003916],[-0.007318576067903872,-0.014379820597911935],[0.0005242623294054753,-0.028715721362222207]],[[-0.004072969821860795,0.029211758699008],[0.009717258465577602,0.026603910947586802],[0.0011583192707052474,0.01905201742656157],[0.003250786960762852,0.011669248575771042],[-0.009979627139665478,0.009417004093978734],[0.0005732883089925681,0.023373323250974857],[-0.0017935777756916426,0.02839441333073019],[-0.0017793622029991902,0.032628970717936634],[-0.013112025301280068,0.031134129738054184],[0.009511209114347578,0.017417619009302002],[-0.008309919072524943,0.03321656990660551],[-0.003411979278620418,0.018589687770183726],[-0.004684801048936559,0.043511558617934334],[0.005232215273788021,0.0380570527231811],[0.005861396434344686,0.028343735395621888],[-0.0017773429714212595,0.020757414877785037],[-0.018882660634741023,0.042861714714976816],[0.0036174296661760914,0.02374245282330239],[-0.004596839104797474,0.03888297414476456],[-0.011123288845210537,0.02700136613580542],[0.007399714614383932,0.02082636046258812],[0.0016364278450184595,0.0424647781998087],[0.007271182715678842,0.020082506116891732],[0.0007746176228770009,0.04229650119949282],[0.001636599903267715,0.011319971484815889]],[[0.0162043994593022,-0.011403844276113765],[0.02000577469154083,-0.024896354596754294],[0.0036324919856258573,-0.04228441106318196],[0.01252975118532457,-0.014420445904901996],[0.01229871980415343,-0.01643553687784338],[0.016966527807496933,-0.010173943890594637],[0.026257719425406025,-0.016271355249340178],[0.015636118781008415,-0.025877087981113177],[0.008649893336596146,-0.012985574024885808],[0.015030141906284364,-0.026057558243284814],[0.004292727277288261,-0.03569237966551669],[-0.006114902185323069,-0.023108856540392922],[0.022181159274261193,-0.014438054273813738],[0.002527655508863079,-0.04000386500493071],[0.015950331879078662,-0.00813766771697021],[0.008183146755423249,-0.019826100318967494],[0.009564180029803745,-0.03208890621739716],[0.010402710908533938,-0.012365657589826468],[0.010939366665742125,-0.020917773705166114],[0.0158809819405777,-0.01718315033324212],[0.017600710532702353,-0.018430116825096887],[0.028650658026365565,-0.017280102529136226],[0.01651996371970354,-0.02100572207430911],[-0.011019656321538653,-0.02094711144258772],[0.022703726846801046,-0.03114902117820044]],[[-0.02577561027712272,-0.012938632097639232],[-0.033952333152249325,-0.017006986489265505],[-0.031543141522029465,-0.025050015687964788],[-0.02109601534376327,-0.012199503965587458],[-0.034883100214297705,-0.012612003838113537],[-0.028074020191692063,-0.028325339589650046],[-0.01585982159643804,-0.014258697102143798],[-0.030337192644393954,-0.023582509147590375],[-0.01194479967637632,-0.023685590256388125],[-0.02808304709934591,-0.016966649800602616],[-0.026873918905321405,-0.031748813720309216],[-0.030263957320138188,-0.008982797208562682],[-0.015601947933328848,-0.03278118154712786],[-0.011079021202424516,-0.023286009501656723],[-0.016239927648878324,-0.015221386806522743],[-0.008168063054907715,-0.01891435055901662],[-0.012418298224541744,-0.0253011912743342],[-0.011765103885500273,-0.010419251799633523],[-0.041564026155436556,-0.015749618882857475],[-0.021518758982876456,-0.011984220118641344],[-0.02550041827297385,-0.0073509907858122425],[-0.01817218985701785,-0.022069261525316623],[-0.02520079076396504,-0.024201589966906783],[-0.023315510246729662,-0.028168683143031607],[-0.01778025957838195,-0.03507701382301723]],[[0.03175106146828687,0.0365082461470786],[0.012855619441647316,0.014514376563953789],[0.02809308278545578,0.028227156515612247],[0.014721395061181215,0.04250245382426738],[0.001112951958057117,0.005560360884028049],[0.016673614152667635,0.03770244080578304],[9.630884717843718e-05,0.030908778794893097],[0.018661377406868594,0.023733706767946797],[0.020015330142112035,0.026887124658537206],[0.028752089864619013,0.026463616093844875],[0.017797904519709744,0.012140665435993219],[0.03619601031017213,0.03329835013911456],[0.02354549502492594,0.005529522757817751],[0.020982968744863117,0.018898153451160832],[0.02063136249020635,0.03862390766772776],[0.03107028716051039,0.022929550812813213],[0.021723473440178744,0.017270629424376304],[0.024043862145407942,0.025424723994769693],[0.0032713734826105693,0.023220322623481053],[0.01831728211383284,0.024796809425146154],[0.034307152499570136,0.01270457456798657],[0.020070177708337168,0.02449945213631541],[0.01675199126638451,0.045399269322181385],[0.010270281519020607,0.024301757421157956],[0.013687934896296591,0.036892530391193855]],[[-0.025165238118016065,-0.03649220742386302],[-0.009171029511687282,-0.046116465824861196],[-0.013907898211343842,-0.0449278008199609],[-0.020036242228036606,-0.025433418824557345],[-0.008598893035337578,-0.019766949703268463],[-0.01825299007394759,-0.03753661119389092],[-0.02887525752442165,-0.03602272144164353],[-0.02430552579583269,-0.021091572692460852],[-0.015259210398266302,-0.03334660114826881],[-0.005119611259752538,-0.01648569328245398],[-0.01933355694351236,-0.0249031761806062],[-0.0073194968196685735,-0.023101963993260616],[-0.009527311783365744,-0.015351928770294603],[-0.008797363608697185,-0.03010794119112027],[-0.01959471107722013,-0.042657727959220265],[-0.006675309818158411,-0.03206837146980184],[-0.03477708874117741,-0.012978145781807084],[-0.019699281530192517,-0.05391062302239016],[-0.018604572929257452,-0.031290721431347236],[-0.014448634524089133,-0.04333447865567867],[0.0007131124160187124,-0.0272792910544638],[-0.026854054319374952,-0.03398812989947638],[0.005703787790563301,-0.01973489150478333],[-0.014344077318383143,-0.0330946315466975],[-0.016680564175705154,-0.032945063171779615]],[[0.016050763422196388,0.024166613593139274],[-0.005388958912407511,0.03578711047213018],[-0.007327127028834039,0.034618268152059345],[0.00538180796447451,0.02787388813942396],[0.016417280646967115,0.026557663540393163],[0.02142885119203075,0.03513181797739414],[-0.002930175894744901,0.016557913404251973],[0.0048024360637995665,0.014206573050887428],[0.02349893111863496,0.03912889029271776],[0.01314690977144094,0.0306356245284936],[-0.00494600810719068,0.03814149633056155],[-0.009141022737318974,0.015523666880633374],[0.012633742110669342,0.03765444769111157],[-0.005435327548310245,0.04021612326534875],[0.002384817889590085,0.03275492025943101],[0.011652515573945971,0.03865878790076952],[-0.002822603574156924,0.042570970740402135],[0.008448276462087016,0.035542355969480084],[-0.005019299329186619,0.03373352234862525],[0.0034206517683713837,0.03404579124732107],[0.017456222874333023,0.04597326448453897],[0.0017670428226953696,0.03482512295683129],[0.012062214074238334,0.04709878000534799],[0.026876318949102015,0.03419227540220771],[0.02041974540372968,0.03751313689882111]],[[0.007782805954518389,-0.023476785169193767],[-0.020763077466201034,-0.03967538703099165],[0.013648304861507383,-0.04011364603092727],[0.0019033149530129313,-0.05022442964906478],[0.0024408563049201685,-0.0046260399244865864],[-0.0030475392099347017,-0.028451288507457182],[0.010929714309894582,-0.03139891747621491],[0.0015997686272499598,-0.03641410862794171],[-0.010450418036153033,-0.0242320951042297],[-0.010357562177154545,-0.036263179450078405],[-0.0011095082560572487,-0.036853519697167714],[4.613370479767732e-05,-0.04838080505829495],[0.017436957197917224,-0.04174795901072063],[-0.01184852015674587,-0.035127453522123264],[-0.018288671272250184,-0.03605530290733541],[-0.001792350761446619,-0.03359139854490085],[0.0017092412055611699,-0.014640758316067292],[0.01737044401894898,-0.026311962055082166],[0.004611493584512901,-0.051242154277474666],[-0.007740919026229875,-0.029448147126864565],[-0.004944346058899227,-0.02041675491108307],[-0.008597514484640878,-0.03832650483493209],[0.009455023275438611,-0.03866078420945631],[-0.015917245734527328,-0.029301517272788326],[0.0026342895778544615,-0.029193942497587708]],[[-0.007994654830459243,0.036705516306952325],[-0.01723576344206233,0.02822265625431947],[-0.003885346887180794,0.02504127838674871],[-0.022762432189541666,0.004701229911484904],[-0.019297039770789802,0.021482593958312417],[0.005846402994940149,0.009728169940643537],[0.003048680247445862,0.015584399167502611],[0.00860430856644854,0.012361472308717173],[-0.022825724443410265,0.017921147400640908],[-0.006187572693668532,-0.0006036100293368708],[-0.015686722389606545,0.01747283155381547],[-0.0036732590647648943,0.014162143128205042],[0.006401360745978975,0.0196191679387759],[-0.015493213321105023,0.03615620076830604],[-0.010570940035553691,0.030608916056027027],[-0.011097420121976268,0.02489910502041191],[-0.007233965973527045,0.005960718071163145],[-0.013510855739833835,0.017957319856108402],[-0.015248928628850737,0.02325149395896374],[-0.006451372780476058,-0.0007057641845982127],[-0.015880823900400073,0.0093733458452142],[-0.003263860252233486,0.0126170771394918],[-0.0014229399785156333,0.040520482146272234],[-0.010864023766966924,0.012339566618018917],[-0.01271952189638562,0.008422593276303703]],[[0.022503851999080584,0.018782448700578522],[0.009933043116099806,0.020936053946864444],[0.00527254572668159,0.006764375881070679],[0.020583743567923102,0.011074920607781228],[0.01826461121497539,0.013523265154700849],[0.02982150247094463,0.03230110514786947],[0.025992890028923285,0.007927706665849153],[0.02142364017257813,0.003827905525617912],[0.02911123646811419,-0.003059849957237033],[0.02598068604373445,0.009760204157078938],[0.016651183115690957,0.023248312068460692],[0.012359713837572337,0.0168743374187682],[0.0029629920942921962,0.02889492415405441],[0.0206658101939956,0.008108717959490985],[0.006706177596447768,0.024261807023141128],[0.024173199106999867,0.014358988023465719],[0.010291179837766397,0.031056478482161393],[0.0087722719051458,0.007802268256992256],[0.026422242936641263,0.02870889403532141],[0.013269225199850538,0.012525760934243213],[0.028250355729478697,0.007246696345617054],[0.019249200221821826,0.035292847487431014],[0.02942322738675336,0.021002910621689744],[0.035628618311984286,0.009560328461907778],[0.017182444235094654,0.01675477336628613]],[[-0.01917922850852976,-0.030178988989446792],[-0.033257624232414615,-0.02700337488792305],[-0.015152148159342786,-0.04102163245717731],[-0.014857711286034999,-0.024088463421032543],[-0.015308551396743789,-0.013578808957736853],[-0.018268311834022916,-0.041855403202983255],[-0.016800932382810763,-0.03545887372345882],[-0.03791357492260419,-0.03011028327042253],[-0.03451454520461336,-0.01711524042088556],[-0.01815745575387033,-0.030827985384339555],[-0.014130260024754766,-0.0192854892910962],[-0.03634708398570207,-0.015050629826844224],[-0.008475841920458041,-0.023490257290359334],[-0.010486189582142985,-0.010971078344147196],[-0.018349546817587267,-0.022138313102568363],[-0.03045985429203835,-0.001722439531056294],[-0.01052577003145181,-0.024634617285720608],[-0.0056495605554915205,-0.03556683368674623],[-0.009580010285042611,-0.039116799994753156],[-0.02779509730601887,-0.027363793599326523],[-0.028576920174905165,-0.01563609184361332],[-0.017590073455396205,-0.027411939211751335],[-0.017467870726227686,-0.033707267472683856],[-0.010932680778160854,-0.007754441724155684],[-0.009119135173520029,-0.04454167112948504]],[[0.027617366175569258,0.024921555922288615],[0.020017997693439083,0.022088232707846087],[0.0182879100653501,0.020975863077583916],[0.012866694475622246,0.014320254057637002],[0.01558155865901774,0.02147050267370133],[0.02319558842894134,0.00765297686582021],[0.01111638447144074,0.028517221938616333],[0.013447534414220853,0.005107511171482863],[0.03137056362848878,0.031053152933660733],[0.02301061499044471,0.022953205242495056],[0.011012771297658161,0.02214056298225725],[0.01681669620834514,0.019608038950323085],[0.0166098614953278,0.02927852607541603],[0.017902066621086083,0.02544648041707778],[0.03971083959157104,0.03873676901634138],[0.01342882998547674,0.02298005254622854],[0.020989623073138598,0.027099413526815545],[0.037576938772616725,0.0241726226664383],[0.021140791623304504,0.029600003108523777],[0.02412329153442058,0.030678864951136253],[0.004724062080870749,0.03150776912197889],[0.025197935734639552,0.01134574492560152],[0.01407455064875885,0.041617464314841174],[0.02290583172374888,0.027793972125950125],[0.02200566040398974,0.010350432543094012]],[[-0.004543670027111686,-0.027362403426970647],[0.00874417747705582,-0.030584648262219277],[-0.01917861365740158,-0.04181153464806801],[-0.008198541084690555,-0.03362459930663157],[-0.0156293608132698,-0.027059160296675346],[-0.003058104543150422,-0.03752045267172602],[-0.02696905412953031,-0.025217935383393755],[-0.032874074658563145,-0.039621841203103685],[-0.02418737505133649,-0.035294792290764807],[-0.020310869151924774,-0.00862830605631339],[-0.03035896678367908,-0.0195803392152867],[-0.02301399130855345,-0.03578473570701163],[-0.019315479792141745,-0.020383329386506083],[-0.017469968824517748,-0.018705031636119775],[-0.02129251297794657,-0.025142579866482412],[-0.013722843723877118,-0.036747144625821314],[-0.017550312264953394,-0.015776521715500428],[-0.01720527960228578,-0.033077961560050856],[-0.025613103480751794,-0.027915997842647904],[-0.022372296196018163,-0.02120544677596261],[-0.0020895537560071003,-0.028389362839471563],[-0.005644589886023823,-0.026101783842759893],[-0.017459621816553153,-0.02118750798116892],[-0.004015777133640879,-0.04846511569638374],[-0.019757224108228583,-0.007201962001964877]],[[-0.008381786897595753,0.039465029426445156],[0.031052038967347404,0.04770643487130459],[0.019094211683938878,0.028034237122238015],[0.017640148459401837,0.03869830812859054],[0.008169268718006191,0.0214395774653047],[0.007164654243260592,0.03447176915273843],[-0.004466331249831935,0.02404524348708242],[-0.0005293258868700839,0.02473896867492022],[0.0005940678653788788,0.02271549406060547],[0.019453130894136663,0.030808454388756023],[-0.01278898863900899,0.03522235014563974],[0.0035551643953182143,0.03132544737910558],[0.019278727272289072,0.015334096427947445],[0.008480875384624453,0.03476472384114572],[-0.0008641703354309712,0.040759144747686146],[-0.0007286886597298438,0.03163393410295576],[-0.005384620255410409,0.022404730237232325],[0.008003336615206035,0.020587358420017056],[0.0013302180666721899,0.020873295797957447],[0.005080183753049097,0.03989964112204827],[0.006228534201228767,0.030089048256220774],[0.003402359525717296,0.04054614959915495],[0.00546202019496139,0.01657950950996061],[-0.01252111766496708,0.014954972769584126],[-0.014595484116975907,0.03268581533659839]]]},{"Name":"Tanh","Size":25},{"Inputs":25,"Name":"Sum","Outputs":1}],"Name":"FFNN"}