{"Layers":[{"Bias":[[-0.014604834388888724,-0.01715351580669211],[-0.02332081618987097,0.011931918943197617],[-0.003592357857952939,-0.009450592909213615],[-0.020737493926485318,-0.05651763473354532],[-0.010026746934899309,-0.007180833585863986],[-0.03439025257571158,0.0013319382135206944],[-0.018990928632330935,0.003482121061358832],[-0.011029692100320163,-0.0005783190212489602],[-0.01864446802981881,0.010596656583216256],[-0.013261658735294168,0.0020811899630383333],[0.005731533531401731,0.0008364993847416331],[-0.034766557617421326,0.011858132660011358],[-0.014513472392270464,-0.008905558677107989],[-0.00020418824869331405,0.003184218975858113],[-0.02597017753624258,-0.0107067362530324],[-0.019598059371417176,0.006762204301268493],[-0.004094983089932054,-0.025893384167723143],[0.007441863010891105,-0.009695464442240967],[-0.016110266670307617,0.002678551285593897],[-0.017767649262090273,-0.01829269178675122],[-0.020154108447080543,0.022885927952053388],[-0.03345930900722235,0.004443491416511139],[-0.01826783204552101,-0.019066226955124166],[-0.013976588140446559,0.003748085361203005],[-0.03049949792192479,-0.0034639318513615446],[-0.00940935536408801,0.012626214510512072],[-0.014413637177277908,0.007103613405939091],[-0.010659478160424233,0.00870081682281341],[-0.007785170644587867,-0.018766664310084117],[-0.024706768410305762,0.006175232599400434],[-0.02165484734469095,-0.01108303320132531],[-0.021499614513776646,0.05201389044122334],[-0.002618637307525265,0.008155758774038796],[-0.023754206022265037,0.00992396215721546],[-0.020874247707091086,0.017361802182269948],[-0.010724264398512793,0.010249691041624159],[-0.026929577087437675,-0.0040782713260421885],[0.003377252552945059,0.029816725281977173],[-0.029543568533860306,-0.02752919988215991],[-0.012388935857439467,-0.027184303588546965],[-0.012265594738562938,-0.015128819897958983],[-0.020296795287427317,0.015743820150949297],[-0.015263758645936583,0.004003781431423523],[-0.01181911733768561,-0.022505828999826914],[-0.009868611321913771,-0.013369353153163212],[-0.009296278145578055,0.013765134305484003],[-0.013042217209028524,-0.0016398884218003363],[-0.015433901142727779,0.011923383373861013],[-0.0164991504842762,0.012440541098099419],[-0.024956820158849462,-0.006824920074725063],[-4.074825252109363e-05,-0.02563932493563252],[-0.018305669865315066,-0.012303317100493264],[-0.0031520615469335022,-0.03011761863245397],[0.01056634098667142,-0.03635821508288154],[-0.017564902426325253,-0.015007587530957947]],"Inputs":22,"Name":"FullyConnected","Outputs":55,"UseBias":true,"Weight":[[[-0.012527941322241045,-0.0012699475532929703],[-0.030198433771220393,-0.03643646741689575],[-0.01931265470765092,-0.012683531006458467],[-0.013399014355103413,-0.0151535187270907],[-0.001492136519823314,-0.019712922260055575],[-0.017017124353842984,-0.021890303670809103],[-0.024070724257414442,-0.0214458819791471],[-0.023652281908600872,-0.012776268797413174],[-0.02451904069369159,-0.025598910421759054],[-0.024122173499015763,-0.018330540683640137],[-0.03668190539058085,-0.015020096494963433],[-0.01830235849020432,-0.012683761505566809],[-0.01580999439916151,-0.003936992107375024],[-0.015172345442406306,-0.0008969540019386999],[-0.013751250079075522,-0.01959997441233608],[-0.003129803498306856,-0.016259661613423262],[-0.02837050573022599,-0.02612478778288289],[-0.016810506444929214,-0.0014454444368614948],[-0.010942885213653603,-0.009493696646369329],[-0.016759162313553858,-0.011449570872764858],[0.010809796496440318,-0.025676259936197817],[-0.0020277168017217005,-0.03159308470117959],[-0.01689973941950476,-0.003332016948564329],[-0.00837164288128482,-0.016899127214726764],[-0.02214580135347343,-0.004249617809080639],[-0.024656599395858937,-0.02447805082508853],[-0.01839768786842124,-0.013456959559918314],[-0.016087240931454687,-0.024442556856803223],[-0.027130057016880732,-0.0075952940023308],[-0.009536061994153964,-0.021662886472926267],[-0.01327900664557796,-0.019435791346985833],[-0.0018586662460888105,-0.02562224468737249],[0.012177151585225606,-0.0161224986150544],[-0.015412821290707052,0.011746123132978795],[-0.014900406442063219,-0.013274449500836534],[-0.01880174142065757,-0.025336232528664716],[-0.01593243044970054,-0.005855522004919046],[-0.0008803925942245368,-0.02526331088478063],[-0.00962761704463513,-0.015147831396360922],[-0.02019002234373918,-0.015368670132985375],[-0.017362476596619103,-0.010930462584897764],[-0.00717682865652145,-0.025033665650658933],[-0.021965257986608807,-0.012765539430045823],[-0.00949387720545622,-0.00478659083062831],[-0.008694756153897436,-0.015640391746222716],[-0.03077402815121143,-0.02940439954282377],[-0.021334617432853673,-0.002230265955680292],[-0.01403934051322584,-0.021319535739116074],[-0.019946396475204582,-0.018016727428314692],[-0.015200433797503667,-0.022657888151249524],[-0.027601960534267913,-0.009060846604996125],[-0.025780399720662067,-0.01982656492408396],[-0.015398320356984324,-0.006367646633738145],[0.0040669675447740075,-0.017573704436265953],[-0.0056954500954453985,-0.015367958100268026]],[[0.021308886112285843,0.01525423256943777],[0.010422673443612696,0.011097408445840826],[0.015557234048469407,0.0021457733831664293],[-0.000873574581987721,-0.0005852332361908262],[0.014659668671964131,0.014933194357453751],[0.00923532973785938,0.019578635364415915],[0.008639360799384158,0.02436170035774687],[0.0016553266935248755,0.021706518512376913],[0.021929889286061637,0.008212567246610127],[0.0006505727055788833,0.024570293112747423],[0.0078377438106749,0.009375350429983076],[0.0053679309027102155,0.036304263720000333],[0.01516807860847861,0.028450944451128547],[0.019086228057570476,0.019418959598858785],[0.008952142874338887,0.011638458898121203],[-0.011424287779567504,0.03557819826608788],[0.0170024285006822,0.013812297197796955],[0.006859042176431836,0.02954231438543562],[-0.00023968268914691695,0.019061827658708008],[0.01860372988389758,0.011381285608095761],[0.012288678716427142,0.03507589924869454],[0.018281222780332337,0.01076051146494846],[0.012654134626529789,0.032998343281117004],[0.012783609351816277,0.0026630969198060644],[0.004653934993152503,0.020136937555300136],[-0.007938407365413083,0.0191320336301081],[0.005638772472742562,0.028291646073555634],[0.016099437196159198,0.018212224589992176],[0.0129530191491852,0.022220034563468154],[0.0058566086422974055,0.02603891318954694],[0.014278515757143818,0.018645298768291112],[0.010788198708869452,0.016626229740745825],[-0.001504404287034991,0.02687750540246828],[0.010082337368149182,0.016309159564490458],[0.017183934426990656,0.018066959877185686],[0.013172995838384265,0.01526854047831371],[0.0030945417504323184,0.014725701534211072],[0.0005674124203932104,0.015102374569769999],[0.011887142034817045,0.013932736146899426],[0.033514425338959465,0.006635586612658049],[0.014146787108704867,0.013312981748206084],[0.013258056400910274,0.012889680403335789],[-0.0008677333976811848,0.040402508530323906],[-0.013666602022210584,0.020800888666047335],[0.015845754193285926,0.007998940106458817],[0.022980900145425226,0.020058790273200636],[0.005266541093171901,0.029167918715534424],[0.00908305063379996,0.017206599653799202],[0.023053533228785228,0.04823342694192956],[0.020893470953940264,0.01364125193073672],[0.016140420360366038,0.02135409890352287],[0.0008596014650378783,0.028910985687167018],[0.02871229634525237,0.012258899881293568],[0.009129175931017048,-0.005697454318832796],[-0.0034550277008266973,0.00786830744668668]],[[-0.0022999841336802814,-0.013078452671114009],[-0.016347342830572438,-0.03500721544906185],[-0.009600057631841854,-0.004716167402157784],[-0.009847881030784354,-0.0051234017582575],[-0.003634072391301062,-0.0027810343902041007],[0.003741556408679428,-0.007879099262053416],[-0.00615171294574273,-0.017648972967395246],[-0.013222403729040644,-0.005900321048705213],[-0.006921838045341042,-0.01633435029148013],[-0.01723868799278539,-0.026765245273127233],[-0.027859462929719723,-0.014393547678341478],[-0.000383813458274587,-0.007050861660947955],[-0.020048793673135584,-0.030593135606796582],[-0.006060300463262803,-0.00018497096107941943],[-0.01309573129646071,-0.010940603413269918],[-0.012045386581355948,-0.024838337105468337],[-0.010452355729183585,-0.004033267917370008],[-0.011197633653529868,-0.01215505690481499],[-0.007544752013376123,-0.009624880348522005],[-0.003572867270124325,-0.00877435961555443],[0.006433811708697201,-0.011633002735045294],[-0.004859787036584838,-0.013396464723104184],[-0.03407948420622755,-0.012072951016032014],[-0.0004472659072558202,-0.022375009026019802],[-0.018948786355321517,-0.025441556336243808],[-0.008415118532217986,-0.0243673338807068],[0.010466306861651455,-0.010186097737466876],[-0.030627919299038166,-0.01501948871115065],[-0.0017705013408237389,-0.021237163582910504],[-0.02218811000042257,-0.02030305222458504],[-0.016758869399208547,-0.002058219767829142],[0.00016177497354337656,-0.025349031923366985],[-0.009777195533170191,-0.010939213008702955],[-0.01784397198768531,-0.020588220325084648],[-0.028429967156709497,0.0026870771181253276],[-0.0011565689362724022,0.003584099068131021],[0.00022908165295493975,0.015458683654446822],[-0.014279512626760716,-0.013577718686972372],[-0.00985110433990228,0.0011395195503650021],[-0.03437381118030671,-0.003202149561414952],[-0.017827437033327093,0.00877055954084022],[-0.013240527308238952,-0.013496458968730425],[-0.020080653797975048,-0.0009899591170677575],[0.001047130346402414,-0.02348068160036907],[-0.015283678024037909,-0.025443166127351615],[-0.008224124598508211,-0.028477860749857378],[-0.011575451306555644,-0.009147831522735813],[-0.01798919285611836,-0.015522632384298667],[-0.0002682204536145863,-0.036966658776084516],[-0.007856125852340043,-0.0068774169694755406],[-0.012901486078026547,-0.010921318828867307],[-0.01750142734953246,-0.010903592413979825],[0.007845302650440414,-0.010152558603080768],[-0.009233321311598538,-0.014846281851779691],[-0.01584317220027786,-0.0028559497727694114]],[[-0.010954782842402385,-0.017372673187050006],[-0.007716614846184199,-0.022523654696718225],[0.0006674624911816303,-0.010852673604817998],[-0.0115547764460536,-0.013465337526705104],[-0.007558704092651732,-0.024292391792785768],[0.007392380064145153,-0.010570367372723278],[-0.006877469304050443,-0.02157663352162552],[0.00833501789775105,-0.019427785963895116],[-0.006223541476134663,-0.0162420603596275],[-0.0033293413315911807,-0.029828206771941077],[-0.007244767790105038,-0.006523618311595666],[0.009019801502834232,-0.028946937713710902],[0.012404816894414207,-0.021380514697368718],[0.006036669005387217,-0.013552608915270426],[0.014505394701851061,-0.01597246609166018],[0.012099512229154015,-0.022381722672802064],[0.009159294549189612,-0.006927395588165653],[-0.018976562321662154,-0.012958990458406719],[0.0026642840652163612,-0.007527456743207205],[-0.0027471613939454016,-0.0039983866990564556],[0.0062428989957047185,-0.017377034951646622],[-0.0014287664507419617,-0.021582411860489165],[-0.0007864903452419808,-0.025009133947863475],[0.005747618088507424,-0.032215897579864344],[0.011321203107809283,-0.02476216421280377],[0.01099799685420506,-0.008648388974881101],[0.005351207574244739,-0.02529388154442206],[0.004716883953302755,-0.02018409502541143],[0.0030507511797474617,-0.020449156780043214],[0.006378289404109212,-0.028093216630422396],[-0.00448025010113853,-0.025811221053318362],[-0.025813234214427064,-0.02561815491110067],[0.02518251679038567,-0.0136346328469704],[0.0034360707967663975,-0.005512946418422845],[0.0190373297616136,-0.012054908500283087],[0.017009344545772277,-0.02330625868912361],[0.006874407549939238,-0.010434734604304587],[0.004487084589038798,-0.021294033282841584],[0.005592623659669116,-0.02337074090722563],[0.027163739044298914,-0.027503970047619838],[-0.00043550419870451635,-0.0062220837880737085],[0.0044917044872495645,-0.008092200428130107],[0.020155532930924158,-0.010675491161731773],[0.000206955456883484,-0.010961689122112506],[0.005484158269793122,-0.00956787950968374],[0.013145339615256471,-0.013622351619683443],[-0.0044109056419883615,-0.01717091988287057],[0.008598915413521596,-0.03609121558276453],[0.003076953495709819,-0.02250149027233326],[0.005394731168073406,-0.027947614954200405],[0.0004305634411393047,-0.002819990306799324],[7.094967347584248e-05,-0.013686345585096966],[-0.00010645019062197628,-0.018514493606677312],[-0.002669975790944037,-0.01693976063499781],[0.009321746227108773,-0.0076665583960267005]],[[-0.0082214708706043,0.008126016165196518],[0.005925214886690753,0.020411853121532878],[-0.004237842744936342,0.03553122206742151],[-0.02053344115518147,0.0010251992387251092],[-0.00010183048765660456,0.02916338751186147],[-0.021437047977489652,0.023487318375259327],[-0.0032606640762714626,0.017746728738509576],[0.0032425214682506075,0.019211893090351664],[0.010450666488427783,0.02047270258940725],[-0.00482738270069349,0.006288181610138129],[0.01607697242507099,0.02582546905180154],[0.0017563824750171807,-0.0012154738134286624],[-0.0004280112755945086,0.012251765070009048],[0.0011082914170518702,0.031223172936976663],[0.011685686991237409,0.016268574652500825],[-0.001754772923006238,0.010598647289971511],[0.006633190110579808,0.017954139382145174],[-0.01784033150318668,0.0157325720105038],[-0.003591659358203962,0.01726919698884178],[0.014340499349609244,0.006267210062316232],[-0.0026320375954947475,0.016145416283601326],[-0.004299090157349717,0.036784373578968896],[-0.0105679169276867,0.01806509799737256],[-0.007944625181836999,0.029948200961186725],[0.012498672028481227,-0.0009276618903508638],[-0.013292939895438696,0.019791011974834134],[-0.0017189091267037332,0.03138451513439838],[0.0024631113622642256,0.011738594720191821],[-0.012106967265912824,0.016495042120826718],[-0.0018954449074188267,0.014395233702268584],[-0.01159534453061676,0.020739271692036387],[0.005439673233123287,0.01554804499866412],[-0.01718195773408675,0.01552003170411986],[0.015286704747740845,0.009771671765542361],[-0.013666977148141336,0.013842132782814385],[0.0053780325669719135,0.026683600445636564],[-0.015726490572371868,0.02015432365814314],[-0.005282997365572724,0.016777682717684764],[-0.00339193365246195,0.02690565043178563],[-0.009593013929285814,0.024386566593324555],[0.005538132881345547,0.011521057203372187],[-0.015481393292742444,0.026151381874719406],[-0.002372851394550305,0.017938802367019745],[0.008762787419077035,0.029751807731425564],[-0.006973317836663162,0.015267216716663132],[-0.0019520405416458013,0.0073567327875789824],[-0.0035873923735034886,0.02145755360399372],[-0.0026846187394060288,0.022582098120969517],[0.005927318035446629,0.031180369928516548],[-0.004771571199632132,0.007844762648283625],[0.002222363914020891,0.022532004980079165],[0.02074088492292991,0.02042612393841235],[-0.007253084140201197,0.013572758672546365],[-0.008986887281505145,0.02820522265000411],[0.011396989505844397,0.02073524772848194]],[[0.010598439895795024,-0.032528214947100786],[0.002965272719732393,-0.030062735887494425],[-0.0013149228239975577,-0.011922251199961967],[0.010724810638700406,-0.007589436229723377],[-0.0020207036445538257,-0.021603448997328002],[-0.009452186004292523,-0.021314274117055297],[-0.00566637807627917,-0.00726848973930795],[0.0017560540868717257,-0.01850513664355916],[0.01296819689363477,-0.0033037873182815724],[-0.00034581272140754435,-0.011231175752996323],[0.011346347493844017,-0.008945612680471927],[0.010797373439274812,-0.0004430281260668057],[0.011080141066786986,-0.01570800584085198],[-0.0005390930350564756,-0.02831437367456729],[0.012209245381700724,-0.017895466890912627],[-0.015319356048893833,0.001940969523652109],[-0.0030782493234604025,-0.0396647243442739],[0.0003207621925997296,-0.016777187337166388],[0.005610532777060416,-0.02799970177865098],[0.018977338905499783,-0.013211508098304176],[-0.006799990059770787,-0.018012567783745038],[0.025129032710360665,-0.004126972452018559],[0.004691996567634641,-0.01915080142364764],[0.003385252187883309,-0.018363073237637383],[0.01007405371214539,-0.017843375598081863],[-0.0044599480377682955,-0.0228756078359492],[0.01084869167300994,-0.011499702063572554],[0.005213818385257051,-0.01600491509328893],[0.014925848496306718,-0.028583738948985464],[-0.011658710206525763,-0.0160855201439067],[0.02310302489879394,-4.222124505280098e-05],[0.024261586061114105,-0.017106381806206383],[0.007472820263626011,-0.0020646382438955493],[0.0029515731041599032,-0.023966085196120323],[-0.008225705624300094,-0.00517423747608232],[0.014772141221783063,-0.02124257536291722],[-0.007469936341697385,0.005522116689765851],[0.020147042232333615,0.010154124064999104],[-0.0017419903159042944,-0.020977192324437306],[0.01029540505433243,-0.004744717455251789],[0.010261938510382342,-0.008351014892282465],[0.007734601813704355,-0.025410384688805944],[0.006751040429012024,-0.032861839637888746],[-0.0014640494298402147,-0.018493525578557622],[0.03630145284962215,-0.00970745181407409],[-0.0002955262189453762,-0.005903731147434101],[-0.01021056560664106,-0.03203599356430098],[-0.00912754744654762,0.007160066708705386],[-0.010338809699389067,-0.006145768331315905],[-0.010073309752208243,-0.015376441152494901],[-0.015062348955638499,0.004395375596911538],[-0.00041271975839688807,-0.036553196731551774],[0.005078570998731961,-0.016190864412450566],[0.006754949171404585,-0.020162709283683855],[0.021763161009393767,-0.016204471630414496]],[[-0.022062424597026113,0.02943756383870739],[-0.02079039157332113,0.02294473424896521],[-0.010134977019563202,0.02008366334986428],[0.0008003997285657765,0.0197736526941175],[0.008357141458695384,0.02380127088463727],[-0.020134534470328216,0.006710346988690959],[-0.01122924454884331,0.004799874154076773],[0.009796539284298272,0.030464450274310686],[-0.0015651942596944994,0.022972864086401708],[-0.02101226975447881,0.028905851054509414],[-0.024558197736419235,0.006296912631274333],[-0.005572272290106476,0.026926980185030175],[-0.02237974313492881,0.030257036045481217],[-0.013598592317022528,0.02376834935030684],[-0.003608005847549944,0.029444064952643793],[-0.019851860652759203,0.031239419974971393],[-0.004069250710914558,0.027524378605132068],[-0.02195860879804116,0.024194476777953337],[-0.014022110372128525,0.02351399717761877],[0.0035694787513445144,0.03731180977951194],[-0.016271826037883266,0.022976013248828454],[-0.004141843517484075,0.03604466144796699],[0.01099773101006993,0.025462113258302617],[0.0032137343882315296,0.02735909855668093],[-0.015221572855414782,0.023401026352016328],[-0.00997106361084191,0.021598879953058266],[-0.01845272469870691,0.01651836447665491],[0.0009613854091554762,0.020582455576815286],[-0.010701685029987383,0.03345718429413304],[-0.02581144142300818,0.011806329285191196],[-0.00041391696519832725,0.020581536178763286],[-0.01804434615826709,0.023346070604301068],[-0.021864034584563784,0.00817572397656321],[-0.012040882521608476,0.006985909881130778],[-0.03415290865843664,0.009589991158407855],[-0.004938195218564282,-0.007032890652539392],[-0.00045743389081450466,0.01864513815341498],[-0.017453179956420168,0.005433126197996135],[-0.009586227014525809,0.003436511039264255],[-0.010411178522153562,0.020069713402760102],[-0.019003432670115228,0.025543075166431197],[-0.020954914778031433,0.015322450451049494],[-0.011095901050111398,0.00914060892509353],[0.0036827916152916726,0.014394184779998489],[-0.01873927255498619,0.0191220686460657],[-0.015941105125238247,0.0030463862178661907],[-0.004431066246413648,0.034084739776043455],[-0.0024659913081381893,-0.0033841074917767117],[-0.013838250299485063,0.00023786842024941827],[-0.02418047563650141,0.022450476447733476],[0.008665392870126225,0.03424652300705264],[-0.015602304282293691,0.011239357939759982],[-0.011352754809014055,0.03394416831892401],[-0.020844017206320623,0.021792844590896806],[-0.014740315951974147,0.028135887930653147]],[[-0.0026400608736131944,-0.013865103824273774],[0.029502468388885733,-0.0034304906539184307],[0.02015212815170728,-0.017960021519842377],[0.020004818175232877,0.025865890270937084],[0.013452514637890196,0.007670367742546881],[0.028725654718156194,0.004259327788208657],[0.018725879602884146,0.0011423072333837565],[0.007035974687331074,0.010072922557484827],[0.007037900363764778,-0.0022629390733530604],[0.01658934624947111,-0.002083963643417716],[0.01736045111258715,-0.01411686985085927],[0.035643882382732556,-0.002924852394236552],[0.005611550661122866,-0.0037771357128675775],[-0.0007029839807836497,-0.0029929729528626325],[0.015609594725697463,8.033619515025819e-05],[0.01932224939269852,0.023253613797930672],[0.03450616717806922,0.005133107974756708],[0.02371517651169468,-0.017238850593928594],[0.00976795584039584,0.007299688711414776],[0.012035042713482685,0.013379457428895273],[0.008641688413186242,-0.0016876973665167585],[0.026610467574869328,-0.005376273116458812],[0.0009768477054578513,0.004918221758747526],[0.02024895581789955,0.005699606964655953],[0.012151994186131401,0.009008325282191266],[0.013464405010323909,0.01875897365561168],[0.016328172739168985,0.013653438588022006],[0.030539332633718635,0.0073430339280062505],[0.015067835259377764,0.016112481935625717],[0.011590795766688223,0.008829857969919032],[0.01956676947176471,0.017183078484341863],[0.008975171763540341,0.022900381712140407],[0.01848000425424694,0.013525242332382177],[0.00932641840010425,0.021154443493934343],[0.007617388052234968,0.018186253476378634],[0.01762587405189358,0.0074263993904011465],[0.013773486335408435,-0.007271870455900737],[0.026107659364483754,0.011483457588325016],[0.017554230809387783,0.009739826274265692],[0.008583451715926694,0.0082078993779458],[0.0043718431215278636,0.006869975562389403],[0.01738462188585467,0.005957449557367177],[0.0151586362157477,0.007895971510045728],[0.008918109352806486,0.01774841152535255],[0.008438602022207293,-0.019424059644192023],[0.02707434060421509,0.009835506687410595],[-0.010006053241259086,0.0014793775294668944],[0.012212567580558966,0.0003443555927493346],[0.011028663436001567,0.018861074079817394],[0.007068186381456467,0.004253101080439143],[0.0045404092416975635,0.012278260060614967],[0.02482523534912042,-0.006954311219106822],[0.021809853904416397,0.011627673442661725],[0.02538935853053472,-0.004501751422938624],[0.01421512585455696,0.012266789013748966]],[[-0.017902682453971783,-0.007007147175525326],[-0.0022871230383713086,-0.011202262685382674],[-0.0228183716253946,-0.03125436224060446],[-0.02046131185442587,-0.014058887666896122],[0.006301412148383693,-0.025275801091166658],[0.004461911069153495,-0.019922370895989104],[0.010420898071836257,-0.023618229108828055],[-0.022962282615027214,-0.017198870624359],[-0.006156319654124831,-0.036310843285178626],[-0.015170374006381814,-0.01824409188949229],[-0.004880033300353107,-0.022047274379419685],[0.007432984707237041,-0.01701305141322056],[-0.01518093637602226,0.000535891924012562],[-0.01005805172755456,-0.004898261767724168],[-0.010301182079379648,-0.01078130603282833],[-0.005885784106748852,-0.028896034803782465],[-0.01336555306227888,-0.016900779404503612],[-0.015365782369909724,-0.012821390559947373],[-0.005508991539100217,-0.03587118350403527],[-0.01533430527217053,-0.02602042659399072],[-0.0017096688246225923,-0.021309934360023444],[-0.00022309160222844265,0.0049354552397528765],[-0.0097508032201889,-0.02297617361201791],[-0.012226075097991543,-0.026224694502316296],[-0.005229591872794372,-0.0211219005998082],[-0.009308202813976171,-0.009551997746960682],[-0.016822346826849428,-0.0403459393259059],[-0.0030872208757557343,-0.02602432637274584],[-0.0035508882056535726,-0.01359563558875377],[-0.001448314184503278,-0.02121466944318633],[-0.011768504344890967,-0.0031878472888589005],[-0.01528611566983256,-0.0063652588006006035],[-0.011413580023454205,-0.016927171140519563],[-0.015546285778772248,-0.022489714657945373],[-0.016918550151804265,-0.02332156761959139],[-0.0008367566466522124,-0.016826316002290877],[0.008511879063196628,-0.012708179520855824],[9.2304410187845e-05,-0.0096792888867228],[-0.012070571012107505,-0.02342861314210231],[-0.005529065337177914,-0.002469957504515238],[-0.005101672814651743,-0.020185813317494423],[0.010103355715139213,-0.03176124292091156],[-0.018860762291665906,-0.007493639819698698],[-0.027901911456580598,-0.004291889690847508],[-0.0029816207903146717,-0.007167916739209573],[-0.010882930335692006,-0.035749458749677485],[-0.005775045551281449,-0.004874105816174769],[-0.0071778087268067805,-0.046401962389454626],[-0.022546310601701956,-0.022394428145975198],[-0.00641542017551276,-0.015763967848274624],[-0.023690400919050975,-0.020168502620044545],[-0.003288466641652829,-0.011331180394915074],[-0.0022620575382395554,-0.02401107860672655],[0.0021770174362416754,-0.004728223419831047],[-0.011742993826976276,-0.008505981152430429]],[[-0.006644722416634638,0.02066688848666026],[-0.011953432827478893,0.00538283490690561],[0.005280102731033098,0.011800608490595381],[0.0023063595822004597,0.01670129366711376],[0.016049650364813442,0.030215118843372805],[0.009200052083230293,0.00809113486010227],[0.004668131822230037,0.005582105587791587],[0.014764857884498465,-0.0033217972793115414],[0.011357086310422624,0.012151605358932893],[-0.00018693053248593545,0.02461020700335704],[-0.00413368637794027,0.016794811358685168],[-0.014134108880903376,0.02982061227058894],[0.0035902000983585275,0.007968457553454367],[-0.009393519373955196,0.0235111153253719],[0.0077961365576043,0.014167444184979708],[-0.006856285317829524,0.03216095764478469],[-0.0054349029141415,0.007270197472985394],[0.010515349425129081,0.02849055644492662],[-0.004238127285124199,0.012605531238737708],[0.01242726602929705,0.00844328148206201],[0.0010342985217074569,0.03393751658658313],[0.011940273439049071,0.019281433326831337],[0.01909036211282777,0.010286726009494733],[0.00018565452806368351,0.016715157921275935],[-0.0058207548033453625,0.0174785881667696],[0.0004986253618269542,0.008524637623902745],[-8.648608480445375e-05,0.012546296038783976],[0.015196380850176697,0.0050359024167614865],[0.006870570001925526,0.012383084468050287],[0.015952065721399126,0.01087812563546472],[-0.014742560103644844,-0.004125201653260855],[-0.012547537878667773,0.02536762964835597],[-0.01617217555521039,-0.0028167868872470323],[-0.00035550041400994744,0.02680905719914863],[0.009131775439749266,0.026508241013166223],[-0.017183375226644745,-0.0024285373949351117],[0.01658170465946762,0.017919154853487527],[-0.0007313717151967303,0.01754551213302136],[-0.0006497903883198879,0.01571609329241934],[0.015515515036721717,0.029694261235116017],[0.00187587250345302,0.05359065629814673],[-0.018941044922958457,0.017268383468854336],[0.012308349905700925,0.017681679258630033],[-0.009595723877360823,0.016377740568300547],[0.011149009951994221,0.02876463539180152],[-0.020074684216191824,0.020028548010075434],[8.381732612819764e-05,0.009720950719301711],[0.020414892293767473,0.02350130834418676],[-0.01021388486772871,0.009031516989262696],[0.010891328567573319,0.024646207175962064],[-0.007408085848351609,0.03449686836064887],[-0.01683306563570488,0.015474453063612205],[0.006972562811553218,0.02315091425440666],[0.02299607922020519,0.03636640989252458],[-0.002651966571517745,0.003965521728443681]],[[-0.007424061068384332,-0.0213313033056355],[0.008825904712160364,-0.033357518193994955],[0.009963743765334859,-0.018196175907240576],[0.010507657082039976,-0.010381140399274121],[0.005357010686291176,-0.03372804124614578],[0.01038646504847306,-0.028253958067017138],[-0.011433851774968876,-0.024592238426640507],[-0.010166733568629726,-0.009542205597965826],[0.006770393999254655,-0.026641364495221958],[0.011681210867206098,-0.014503711691803634],[-0.011417262849697294,-0.00860884873883876],[0.01887149747079911,-0.01744336076897967],[0.01562897041299264,-0.0036119586196792517],[0.0072860767732860175,-0.014962689444568288],[-0.005500101399016349,0.004933875730515984],[0.0159151567377877,-0.019112519145073534],[0.016972520577240694,-0.028818750828059524],[0.016924798527404826,-0.03257353953934166],[-0.00039764074437715615,-0.01982877547326154],[-0.004309924792974149,-0.010259304827176708],[0.010095058352943772,-0.018550630942712632],[0.009098168363451118,-0.02415336700510346],[0.015293711306469,-0.00159756627365372],[0.017751981088101495,-0.037530374680783816],[-0.003244593256518833,-0.013247710345462923],[0.0031793045117473957,-0.018248800313019647],[-0.012687248785080549,-0.013289770186877497],[0.0039520984516444105,-0.017256884380563654],[0.01222953971102807,-0.011151255452937877],[0.010181659634838414,-0.014973322891014725],[-0.0015534270170933333,-0.025323847693307554],[0.008240140818422217,-0.02678513722097247],[0.018153304433455975,-0.009824699404729879],[0.004347139437097317,-0.03280540638960523],[0.026103366858123377,-0.018209185690113636],[-0.001276239879431439,-0.008446170077483092],[0.014619129139692936,-0.01684456636576381],[-0.006119779929676713,-0.018272271552411304],[-0.020960366926881184,-0.018285904984026383],[0.0073850150070598865,-0.021038617634062833],[-0.0008296716392668727,-0.035189935416548225],[-0.0017502906885146702,-0.005480735230534129],[-0.007952324940859744,-0.01450932833894691],[0.02316888147895988,-0.00438771713004802],[-0.0034948055987423544,-0.021153373803285115],[0.004456813792129135,0.00520084571771728],[0.0025075034306135976,-0.0003688218873497357],[0.02268030046828902,-0.016386374385841097],[0.01038742981546577,-0.028007812396417336],[0.010304726315460984,-0.021938792890470675],[0.0013359861699218354,-0.01910908751546177],[-0.004064791881551526,-0.007204433519388781],[-0.00192077963578945,-0.01373579572304841],[-0.0013759573276027122,-0.015785742696930963],[-0.0028419293018204523,-0.001189067605925919]],[[-0.009711179097276439,0.01620390140410024],[-0.008324037120856206,0.010694082158216107],[-0.015961749281399817,0.006235685949974744],[-0.013985812672602897,0.014849373128505795],[-0.0036434326007018887,-0.002166884464001707],[-0.01985200889579984,0.019275577527043807],[-0.016634400653570323,-0.0038932522792193267],[0.003473393969487051,0.02200364246811131],[-0.005461706110150228,0.01575396452031088],[-0.018355831318062916,0.01408610827420508],[-0.012088446665436403,0.010785222273265742],[-0.015271961789051026,0.020417587909425956],[-0.012160451659720763,0.01726841876246996],[0.009983766977919903,0.030802681735946483],[-0.015272191675172736,0.014299504840753683],[-0.009297453162813132,0.018009856671716423],[0.011828722279798934,0.0154015273621757],[-0.009095148342975411,0.020945753537706457],[-0.007411503975984488,0.02141238209649257],[-0.022947965486749815,0.023039179779092343],[-0.006300588413734385,0.0020170425370959373],[-0.015812124457314062,0.03288690071022695],[-0.006981859665560749,0.019312505677281915],[-0.008787111820880447,0.0016212095561370697],[-0.027032254326961287,0.009153918308586763],[-0.015406868273025348,-0.00044191109007536575],[-0.019957532846311365,0.013500084133378236],[-0.02103398517297137,0.03177240895152295],[-0.01531735246664967,0.02752344887758845],[-0.0018570518360376154,-0.00897399636556458],[-0.016909383324751146,0.01728503087678913],[-0.010719958856222487,0.021388613786480142],[-0.012564147535397452,0.01568316771271562],[-0.010275383464595736,0.011022344695581733],[-0.016613450415427018,-0.00034341772190667056],[-0.0176009444780241,0.023355809703735683],[-0.016636784210464176,0.006997965525512867],[1.768338124304983e-05,0.011906623588471388],[-0.023237834545510948,0.018485920635091427],[-0.003660746123012599,0.018900746131959332],[-0.014837752814089823,0.016827342232686504],[-0.012712720837087894,0.02382828834686032],[-0.03511699169912707,0.01557963860461658],[-0.00201958566483184,0.025197027648494907],[-0.016898405390920242,0.006304031517866752],[-0.0034397510533693576,0.02015831732529872],[-0.017594633640074436,0.021114804701113953],[-0.015562886662146795,0.02746257106985332],[-0.005102265070001996,0.030450081929441056],[-0.012531855746878186,0.0021683429425390834],[-0.015808435949271886,-0.007457486781520947],[-0.013370867049248399,0.0007177560465935492],[-0.031592477063813004,0.012273057997186457],[-0.004954205980391397,0.013101085121140098],[-0.017626601360877125,0.024871887594247456]],[[0.03873812648832052,-0.01998957949281095],[0.0077610821801502574,-0.028469203577793832],[0.02020578621234369,-0.022122351157440604],[0.014173915662226547,-0.017270111383879308],[0.023267630125890757,-0.02413600655239142],[0.002968668373868494,-0.012891414348406977],[-0.0035779386873667934,-0.02760556498395824],[0.0029383728246501427,-0.022717742152052803],[0.007407783944040273,0.0027220614732373825],[-0.00115793000630101,-0.007825193538017325],[0.005126343073326228,-0.023479944391927472],[0.011835409270964126,-0.007506366893473876],[0.01253938496430274,-0.006789125284910026],[0.00798429794256365,-0.01336348121034557],[0.014778198840844798,-0.024713839753219845],[0.012619557662204293,-0.003184873571684258],[0.008679792106966719,-0.02089598041169818],[0.003840488587329928,-0.015854177990340747],[0.008553912749402677,-0.008465270903764482],[0.025737849229197685,-0.016455598858602153],[0.025451149254986122,-0.013587733250972121],[0.011489545778889798,-0.008845166712033241],[0.025437120435535254,-0.037281029971583446],[0.010657352294881179,0.005113008950144704],[0.0058481428423782,-0.01918536376323606],[0.012952619064582747,-0.023745381333719572],[0.019381475416377386,-0.011263024725592942],[0.002560585178570815,-0.032074087807568485],[0.013526977902211473,-0.010525934420926194],[0.012729497900448417,-0.016374092930538413],[0.023453531207840383,-0.009953971828246654],[0.01302004823360227,-0.02219390229253694],[0.015265649631077424,-0.0014762139156806093],[0.014590293901635763,-0.004254127027490517],[-0.01562701002623711,-0.020415012442755596],[0.02115779035733337,-0.012286068602854127],[0.022350497523823957,-0.013093498099365069],[0.0006653086608758895,-0.0153341577623218],[0.01538497760868083,-0.007060020148434314],[-0.008677222209298011,-0.023534550116191818],[0.026808493033496982,-0.0055639586653325026],[0.020425347853328526,-0.0320809128229518],[0.014249583135217542,-0.0053060054678409204],[0.0034992793270854643,-0.025387353207648122],[0.012529990988883606,-0.018122598495247635],[-0.00045319479892322377,-0.014759495261892606],[0.0046374151414105315,-0.02191304539562088],[0.019852157899593256,-0.012908770685299534],[0.012276062962090089,-0.01932240068716107],[0.012932559711507056,-0.013443781093024226],[0.022505268804505752,-0.009572611376049147],[0.007181024380404029,-0.018023705981928803],[0.016612096485602416,-0.02022698768802174],[-0.002220531950804026,-0.018818113376025434],[0.010538059290681282,-0.02604661063365348]],[[0.018486977379979903,0.039995987699599944],[0.009074981188943508,0.016872147025509057],[0.005185573299110856,0.02964130045564069],[-0.004692345392534596,0.012782045910529666],[-0.003642329845062703,0.023458540429598478],[-0.017995013540901158,0.013776039328540234],[-0.013112752793282277,0.014343425377302911],[-0.011160542031163621,0.013156880975701456],[0.0076822938610934515,0.020900630314231932],[-0.025874175086285367,0.02550106996792581],[-0.009125891600656416,0.021134919621274197],[0.005757841884592334,0.0035820624412618955],[-0.00457704984623237,0.025630136616971094],[-0.014049936988513263,0.031129981429700318],[-0.013220525006707283,0.022137194010489067],[-0.018445453121342294,0.010707809398272873],[-0.002223188205048985,0.011324681461328784],[-0.01186452867467507,0.01126251965333268],[-0.008225834293800553,0.028756717315499444],[-0.005245349983149038,0.02008007868876977],[-0.010390867364396539,0.029215499967324306],[-0.007433269999791386,0.0070136765087325335],[-0.02555355466841512,0.005552825116422733],[-0.028149810004904838,0.022535567832977523],[-0.015593460366660815,0.009030454385777362],[-0.01783101084834175,0.024079375479801796],[0.008826495691759419,0.0214541187569977],[-0.008892766475322464,0.03039056337073691],[-0.012188100818805789,0.022168949236419842],[-0.020350386906215972,0.02651609924278811],[-0.00884360609520816,0.005020213990618998],[-0.004300448798157926,0.007843001803708895],[-0.003117709581964358,0.005140106728328804],[-0.023177596114980933,0.030049074509555764],[-0.01363388190671976,0.01530395532102463],[0.0015001649425657488,0.01593356507143572],[-0.006051756799048746,0.013954722099198654],[-0.020757749002132002,-0.002377337180370124],[-0.01130886084423025,0.019028924200369116],[0.0029196930460263855,0.0087563449816709],[-0.007253154079158626,0.028079065583139905],[0.0023110445210863797,0.013520356051742522],[-0.010144744011187746,0.019540762326387455],[-0.004572257271264243,0.020618664275099795],[0.0007918526034578277,0.013080080015583872],[-0.017204736976767866,0.03285096574848331],[-0.016218113881417,0.02997507304706288],[-0.001634968012896398,0.0009372631826001318],[-0.011235930054792644,0.015920795453860073],[-0.0064322610236750314,0.007628589075891554],[-0.015026553061229402,0.01109784132488485],[-0.02255117188326444,0.016129177944833],[0.01198954615799476,0.026559744260263307],[-0.0211849218081711,0.01906171277589478],[-0.025862050873276973,0.03362734979819451]],[[-0.0008601598941389369,-0.009186563800369977],[0.014430162764698485,0.0019914438101013513],[-0.0060340735033077575,-0.016669968136988428],[0.005410325945213742,-0.02556974220879089],[0.007750353630687636,-0.01397226877796351],[0.0005413805441630811,-0.011045036044411132],[0.019504984619717117,-0.02400399386431309],[0.005655227894364422,-0.02871196377842956],[0.0038278912737290793,-0.009034272827930507],[0.016679503411471158,-0.024351923283660797],[-0.005184010844730887,-0.026058932221467063],[-0.0020709850631569853,-0.0017292822515613765],[0.027289930347269824,-0.027772621799680874],[0.013322060901686205,-0.024855631851923455],[0.01617391027372494,-0.028821576580048674],[0.015186882757002617,-0.019378285984949117],[-0.010019585626104275,-0.01733216673869431],[-0.0007027134143209148,-0.022409376903602087],[0.005293061712859546,-0.0155804752854001],[0.02282188964546452,-0.019689747133054686],[0.01360801053981758,-0.013021704837051373],[0.009668442865437128,0.010010945336593012],[-0.00029653234150830667,-0.025108334223636904],[0.0030182794093375474,-0.008039530744924943],[0.01534528494162919,-0.0137793997503511],[-0.01980558093506542,-0.009034570608522523],[0.004404004962143056,-0.02430409307072639],[-0.004350548537218427,-0.009107304473749304],[0.006108040045461851,-0.008345996109697836],[0.006857842697874989,-0.003489168337656034],[0.022133181273425735,-0.009451069740692456],[0.00795096345230407,-0.006416167467973022],[0.017163388031911787,-0.009256350124143716],[-0.01295432630403633,-0.02041987252731644],[-0.014029423226694355,-0.02096170054448618],[0.01688569126982622,-0.019602597998678712],[0.032354988918162936,-0.005840339426500982],[0.01903747821937242,-0.023242751795039297],[0.010384750867168674,-0.0172859898692628],[0.007835883810407627,-0.0038281089470482027],[3.1782580004378837e-06,-0.02218228682653089],[0.014362367972162254,-0.027057914930015303],[0.017698832144823387,-0.01647715920332301],[0.007477078491459272,-0.020005155719028504],[0.02013959341411308,-0.005652972255255503],[9.366086953184324e-05,-0.021647943488041096],[0.014544668931958576,-0.044129704748559526],[0.011844294904888605,-0.019096952627858498],[-0.0017045721432811412,-0.018434958857437306],[0.017181252409437988,-0.025881545028352163],[0.008737965587412957,-0.015638323605951507],[-0.004500586096960753,-0.010226693335431235],[0.011119141867915303,-0.01796532637440359],[0.016165998934329177,-0.030286789933596646],[0.0112974190517429,-0.0016334643838535217]],[[-0.00252675934002515,0.02544991646839418],[-0.006908564818506872,0.0314163837069828],[0.007675797476087392,0.0307061539825069],[-0.010386069189594338,0.02159160656360717],[-0.01610523369734725,0.01092480391054028],[0.006036277003023596,-0.007694708304584137],[-0.02299148071820109,0.013884108424660849],[0.000163176296145826,-0.0021277546066580466],[-0.01256870894062545,0.021293089994056016],[0.008883660809890696,0.017053829375581697],[0.006445839839594017,0.011320822801262816],[-0.010990443924588734,0.030032577033233816],[-0.008554392258828982,0.019455701383191637],[-0.0029922100813187234,0.014199471187379716],[0.003909839444838262,0.012570494480410038],[-0.027811677828983743,0.013639584953415815],[-0.0074152418369747885,0.013262004344417645],[-0.029702555791534916,-0.004307469433491043],[-0.012259863754349974,0.01846041920820007],[-0.022977445499242088,0.02322760950672337],[-0.01233415576920109,0.012372888499739724],[-0.009573525548152948,0.02329326263409418],[-0.0178894291492026,0.013424702374798262],[-0.016405387603669743,0.017162090183749455],[-0.013845511223803217,0.014008696239284647],[-0.01747411232603579,-0.004466795621130897],[-0.033473913836931574,-0.002006597466748455],[-0.008018728003614323,0.015015623375719754],[0.0015363064668155342,0.01961202035144905],[-0.005911504321160675,0.031646732983615616],[-0.014850181086835975,0.023904113119105536],[-0.0070297964661001555,0.009285251259432251],[-0.012006849446196835,0.026430986423749303],[-0.011511485895385642,0.01909285912496507],[-0.006829177053763554,0.026020230786324015],[0.006204377414072113,0.032616090381922515],[-0.01637168225292732,0.019608882489343102],[-0.002004998067168303,-0.0069133545644544945],[-0.01572281561809238,0.030608421060758218],[-0.008525614673063644,0.02520337943640663],[0.0008232005082558701,0.0055109376786266215],[0.0018812775421242524,0.03773389071031561],[-0.0012874721028212181,0.018033616986601914],[-0.004738498899744858,0.02104440003212391],[0.0037063679324241877,0.030111681315588865],[0.0016939322480322104,0.016805483778068956],[0.011381629450652422,0.016382157031207656],[0.005595548610212066,0.011234998280754784],[0.002755551015445927,0.015614227594277157],[-0.014796627968613967,0.0061165724066897485],[0.0006394346969985824,0.016559443046878546],[-0.012352711631580107,0.017559999509674545],[0.01798360398481001,0.02353594299621305],[-0.0071168549145137925,0.03771346499059481],[0.0036529136410546966,0.0463238353809103]],[[-0.026471379057604934,0.019887770549555116],[-0.016405310702191103,-0.01348072386463261],[0.0019573812998593563,-0.0015476763247526386],[-0.01318902282808437,0.012622815434251741],[-0.0016916530250126775,-0.009177293159570584],[-0.02432615664114422,-0.01092360322875955],[-0.029114431663676967,-0.007114497685827495],[-0.000659187610380149,-0.013911840594721022],[-0.01578988003695597,-0.0074549452935639944],[-0.006596122102630409,0.013854037912311337],[0.00023109172985875658,-0.008049569602440673],[-0.010766263834049038,-0.010202435936560575],[-0.014025165166828592,0.004595312044705501],[-0.005949246237900954,0.006054181491065706],[-0.004730468275207021,-0.017431010798668833],[-0.009649714574991593,0.0022453581915613226],[-0.0322830066431096,-0.010364299603262947],[-0.016987555762097355,-0.004514531017270855],[0.015415070759422757,-0.019702238719380122],[-0.01701088465900192,-0.0005996036413785616],[-0.018161251111733244,-0.0013090914949280723],[-0.012009481875522393,-0.011511483883439689],[0.007745009444704516,-0.006737537536977714],[-0.014570592111758115,-0.006355756921941114],[-0.008540234097129434,0.0016077363613967444],[-0.0072728694129246575,-0.004190786675001081],[0.012537741121851922,-0.013167419498013436],[-0.0038884615607332946,-0.013892066740430205],[0.0040436298167783775,0.011988746779079065],[-0.007255218974867141,-0.0013889434140788503],[0.002234591354672786,-0.0040898278827773485],[-0.011116326757488288,-0.027121554491481438],[-0.019993220079054654,-0.0012677339463642934],[-0.03137374299227371,-0.010694924815951492],[-0.005028465638751908,0.005300457672022672],[-0.010931317490026016,-0.01212706610680116],[-0.014389739778906112,-0.016050758423181866],[0.0024257086003982814,0.0015866443476993254],[-0.013192446746965882,0.015506058749219781],[-0.008178657874273881,-0.00012995373861848108],[-0.004369474949638521,0.0018123865710099512],[-0.001015786646722743,0.008931161993105629],[-0.02045534166191248,-0.0011366053153137427],[-0.023334451725202154,-0.02117162614779218],[-0.014709217860037805,-0.0009483415409314212],[-0.01169023954843123,-0.009771359533981195],[-0.013495796160481919,-0.019440645660332326],[0.003481677316655794,-0.00011818701784814582],[-0.01694867225006418,-0.0018164266908718384],[-0.005568111854831633,0.008322100695529244],[-0.00882863907622412,0.012397709031843068],[0.006917384239956116,0.010189289532115212],[0.0003224503598436483,-0.006153087471188955],[-0.02034140974787153,0.013739544354127917],[-0.013796722228128194,0.0056232965041801775]],[[0.02629577758219029,-0.031355223836685785],[0.01978633302809903,-0.0016879081011896364],[0.02365969604277875,-0.004087552130399128],[0.03175314649683277,-0.022406883312018788],[0.020495511123110734,-0.007396597390523226],[0.03160956793909366,-0.015660455379686255],[0.02679584444630329,-0.006959455754501573],[0.0024630163130891078,-0.012662149648847066],[0.004675649895737581,-0.01325269072986416],[0.017405468146768712,-0.00973252130738794],[0.031304647584601136,0.005531055930732987],[0.02455750614020945,-0.01713201317722789],[0.020053508215607353,-0.01859700278114934],[0.0034729488532145875,0.0020242242800181933],[0.04674364368239645,-0.016179396885347412],[0.03137642133898596,0.002076578368747913],[0.009855066889912724,-0.012101221344746133],[0.017552884678449728,-0.013625411661556903],[0.027502057774978453,-0.002511450755377166],[0.028852342150939823,-0.006399320866935069],[0.018311262582062893,-0.014320732760006461],[0.03393931954542037,-0.02094461389078939],[0.022797960218332778,-0.008509914384601679],[-0.0014121697195817271,-0.003973289334382088],[0.02723193991992673,-0.007423316701092378],[0.01746759655936932,-0.0023180300480069873],[0.031431962754810104,-0.022971245534950564],[0.010238618923588615,0.020985525426814495],[0.02432954573427278,-0.026658807347661732],[0.007361313055896745,-0.006628177639699592],[0.006590541456837721,-0.0016987061141806733],[0.03275103289297401,-0.004210206443634848],[0.03033375429954187,0.014555410291345553],[0.00943266655589556,0.0187608086410937],[0.015324340684269971,-0.002816405956811051],[0.011824699271708252,-0.004062794346350106],[0.02105415644457714,-0.02862658259167576],[0.03589740895383258,0.0023397252188914193],[0.011800704171967512,-0.00977053960969193],[0.021177262832159708,0.0038275684111262935],[0.009572276221276937,-0.02232942731194691],[0.03097015670430138,-0.013043700665890641],[0.0033779075279201896,-0.005656188600542889],[0.019159987800757595,-0.006540997199112369],[0.01614875585501767,-0.0039276831873444745],[0.0317205872135489,-0.0013881261639578227],[0.01709615293800844,-0.005659553256994811],[0.01382314235308717,-0.01358586324172555],[0.01618429506931751,-0.013463559845221828],[0.03361108829763502,-0.015393010326458104],[0.01809449295807022,-0.015607616064882182],[0.02407311861453469,-0.01609245311487841],[0.002273495328350686,-0.01329084530495437],[0.018441125725071447,-0.000524875496435638],[0.015625602454245963,-0.004971005837682667]],[[-0.01752837312942184,-0.01900558768742441],[-0.0258776166510581,-0.01888111628601853],[-0.009132930048541732,-0.0057587628130294725],[-0.019105304364332838,-0.003886121179193605],[-0.0020658106082286636,-0.024458167422221677],[-0.004735214926010882,0.006561063611727544],[-0.014529472206005384,-0.02049435490290963],[-0.017622723601902666,-0.004494350896348731],[-0.03713926444522091,0.014484429591436523],[-0.01788610189003561,-0.018915549883248266],[-0.007495811684396757,-0.010419671170124727],[0.0014303530372855888,-0.03830388469901046],[-0.025092133656549297,-0.013759746289864306],[-0.019076356197882956,-0.016755228436424525],[-0.02806463407759356,-0.007707437955477065],[-0.02606674621444299,-0.01327022908392508],[-0.03409484578731903,-0.01179110975706925],[4.87131300802228e-06,-0.0008763337277934588],[-0.01925738703321405,-0.03014234600450945],[-0.008240842467620173,-0.013809317396079726],[0.0028081230947533016,-0.016986083219697874],[-0.015374654373925361,-0.009755171402696225],[-0.0002765972758443659,-0.012378546361934624],[-0.006733726252043621,-0.0036136030448790666],[-0.022292702697213965,-0.009016341946502027],[-0.006205535730895259,-0.0033770928681796327],[-0.029057882196031903,-0.009815255840318136],[-0.003418699552674553,-0.008535711486666996],[-0.022750301790338136,-0.021209344821614115],[-0.02240939441794484,-0.02719621235066659],[0.004748276332585736,-0.01563068127499724],[-0.027014452724426007,-0.02699355904944209],[-0.015729587472523322,-0.015146946141646234],[-0.03138620134044758,-0.014622334506099451],[-0.008054706361519852,-0.025288777830516505],[-0.029870634782375977,-0.011835994470880873],[-0.013822806109128713,-0.029581421644488508],[-0.017532157519327504,-0.025220984977704475],[-0.013321005723239044,-0.0051224495386444505],[0.006599797281250968,-0.01722843845975441],[-0.02569590512079542,0.0025609830074846173],[-0.022138538628144258,-0.024364031152110544],[-0.005760693485961902,-0.00848737590786785],[-0.013170161390121936,0.006552110554865719],[-0.03239532261925277,-0.01703062506506809],[-0.039500421657547635,-0.014860233239334416],[-0.0042891697932371025,-0.005633910616421421],[-0.010903129019771704,-0.024753260034033792],[-0.028993778596458127,-0.030029936643033883],[-0.007147545764320065,-0.01845257473738586],[-0.03578124489316749,-0.013830071354194054],[-0.01017842687408553,-0.002599437060332853],[-0.02396887744579744,-0.03471036547671873],[-0.01840308167799193,-0.02769165160334122],[-0.006421362478925507,-0.017823825281160017]],[[0.016913928965431334,0.006113966260412352],[0.022325405785502746,0.009702265011795353],[0.03304075837396357,0.016649070321590877],[0.03435156468635646,0.015636288682822977],[0.020381815794345542,0.003142041797260974],[0.007684436288485058,0.02134544222459002],[0.0233291378699866,0.009167609567878321],[0.018718458411727933,0.014325231152137458],[0.005338020488155835,0.0078698480612875],[0.017320400242297796,0.02960585964391098],[0.016828883836355658,-0.004579392346091033],[0.014435424927215505,0.05119925924798705],[0.018872028067132087,0.013319207081546323],[0.0201312994856961,0.011722769830220817],[0.008985761259150628,-0.003952478447193732],[0.018045481163209656,0.007462380011385333],[0.02495621553518131,0.012466204143757544],[0.0007166950149213945,0.024617409048709002],[0.004783185599767871,0.008090532332948689],[0.01045986220202101,0.037265717840670495],[0.017037930829730374,0.02168881062057169],[0.0169913216303479,0.016570184646976276],[0.021150345332476256,0.021595683982750604],[0.029329568657754285,-0.004057898989511265],[0.015064024521670268,0.0033444307175249212],[0.015567462674097273,0.01238278806694014],[0.00416281106375477,0.02360459610550307],[0.004538201251095602,0.016250147551783313],[0.008453973457763308,0.02076627866839492],[-0.00341601242543719,-0.002633311041647953],[0.0009942168901012685,0.004211180369123464],[0.03239552260442162,0.009435005876345064],[0.014780216320347539,0.005647046984003383],[0.008262497447625571,0.010653881382424074],[0.01641702906620162,0.03782243738245829],[0.004277803504574595,0.01601567548944317],[0.020069571177731303,0.010558275959250359],[0.021988031294196318,0.01001607177472766],[0.008566839772596268,0.024895719901417247],[0.019009745226743528,0.01747185369903522],[0.01836413489957052,0.02380302208394419],[0.017300023261033526,0.014346296389999302],[-0.011775125732468132,0.023593797258294923],[0.012547154249102509,0.0022252632508417843],[0.010666632538066002,0.009107273236223007],[0.014371095994890814,0.019560762198911875],[0.004214948006055641,0.015565429012875723],[0.006736714405058731,0.03184621186095283],[0.015209302867406753,0.025219549615838666],[0.019503231027206473,0.02609060226566459],[0.014764980721289164,0.010022581342259553],[0.0066286996038573374,0.009299434480398482],[0.00827351491504908,0.0006599247602463244],[0.004644134328105205,0.030328145077768806],[0.017884045605944004,0.02352409743764924]],[[-0.035466135232185,0.008791538278606873],[-0.02201121890326346,-0.01802925991380366],[-0.012509285917656465,0.011554402950878732],[-0.02801957126050729,-0.005349597575705203],[-0.015083523994637197,-0.014451271897278227],[-0.016030637798215498,0.0057866231306068815],[-0.017445345942474176,-0.021142465048334835],[-0.019096757966006746,-0.0013530057123513773],[-0.017556611294608043,-0.006268518676400019],[-0.023891573460670498,-0.01415724882658103],[-0.014317523083512262,-0.015516772473685117],[-0.018581102154438357,-0.02004150269541346],[-0.023683228630761378,-0.0071275768731155955],[-0.038113019579788875,9.904661331067293e-05],[-0.017270323056217545,-0.01121009631874084],[-0.027444490123812604,-0.004232608507280849],[-0.024128598925649315,0.016039777964352332],[-0.01379140214262141,-0.004654708207826429],[-0.006129451677658238,-0.008908529921747612],[-0.012705822311145929,0.007011518225751548],[-0.025462169591881655,-0.006437884094393188],[-0.016511985245319823,0.0007271980091457824],[-0.017688560692511037,-0.0035998934216886092],[-0.020123837223368742,-0.0016949806633128877],[-0.03360998494806068,-0.010662846519919326],[-0.012463884621560537,-0.025226888077224296],[-0.008223658672992153,-0.016709592614975333],[-0.011930982156453489,-0.019827572509286705],[-0.020885281067703713,0.004509193826881872],[-0.01731032883901152,-0.014957434718504265],[0.002337644338558101,-0.0020465228595756796],[-0.015226171424638928,-0.02360886162653957],[-0.008738519994851649,-0.014573323086501583],[-0.027879790780194917,-0.013312639695279987],[-0.0013192600977669684,-0.006375345736855147],[-0.01844254411984158,0.01258785644412711],[0.0016626090533944317,-0.0014846896186566758],[-0.03704802043873197,-0.011891827141687137],[-0.015359488821521114,0.013826627976207827],[-0.02128675830424922,-0.0027384252195363037],[-0.02658144472677383,-0.002997132147942887],[-0.02159497614522286,-0.0023171315082388855],[-0.008977585821619906,-0.02570901652893779],[-0.004568724197679718,-0.02596000591909182],[-0.010926135619065337,-0.008823063458039133],[-0.01618076653469338,-0.012728243365774428],[-0.029815643572921293,0.006362414048818688],[-0.028848352427215503,-0.02198213730249256],[-0.02020537368879801,-0.0006674235203536072],[-0.010962390448426876,-0.012633671874010986],[0.006963941491459278,-0.01611968244030035],[-0.022801572500068062,-0.004408744888924542],[-0.010946275400351875,0.009648173658293555],[-0.013528418540177556,0.011320012223769195],[-0.03688343988145617,-0.009560259480014337]],[[0.010230426975986284,-0.019956935232489256],[0.027600542748057223,0.012853649309252107],[6.49277856426651e-05,-0.0039388301243994854],[0.030050234091085388,-0.014301917632620424],[0.02309212500280394,0.004360851276098715],[0.021882527209006616,-0.0070837527769706055],[0.007648008496901181,0.010870487103485272],[0.02525576130061561,-0.009770392898823008],[0.007668108621248262,-0.00911627426671392],[0.013268000581023525,-0.006666799600994349],[0.016919839917476462,-0.007497382127463244],[0.007916246937608477,0.0020272857963523952],[-0.0077548978697366076,-0.024233687846113558],[0.0035610628800867208,0.004189997429776851],[0.010357154098742405,0.009097339164081841],[0.013478000025540017,0.001147047977443137],[0.004350141359132831,0.0026299672822046724],[0.005721020058491378,-0.009554366189588456],[0.030878503113306623,0.010490964963317232],[0.018657514328798027,0.004826711270857403],[0.02781362823319786,0.017684079587250708],[0.013010509455312264,-0.020346413396598224],[0.007569214854456867,-0.002029870975582963],[0.010201504081433733,-0.013629349937796123],[-0.002793861693694701,0.010816355301502828],[0.01686559973801088,-0.015992932606561275],[0.009691928501357836,-0.0017374297076378944],[0.007668398213993634,-0.0010885151655952998],[0.018741971005347736,-0.0019280050840285122],[0.019136656032689613,0.0008440699731577641],[0.0206233914558991,-0.010059815681244113],[0.02620909446372537,-0.0014134696787600945],[0.010909376098296866,0.002968845887025576],[0.03444690824263561,-0.0055024842805183],[0.03008452446251891,-0.005088955536757993],[0.019663503685071308,0.0030472990867087494],[0.026629669590987178,-0.006641618218669699],[0.020035597525067384,0.003666954830208051],[0.017768109010660955,-0.016298795039417165],[0.005585201568420001,-0.019835791947828165],[0.032319504310803965,-0.013014038614520808],[0.01611152021447718,0.0059690954199533],[0.010508242116015434,-0.00979773053597387],[0.019075688807679556,-0.005548015752845621],[0.02287832759983009,-0.013202810584477335],[0.002246483514516285,-0.0045476814730187306],[0.028201590569548924,-0.009315302244040796],[0.0038569502807131576,0.002753565963053054],[0.016606339732834922,-0.005147254247326051],[0.020803005925722744,-0.01273615615982853],[0.01916002006155896,-0.023323416089274407],[0.014048552775812571,-0.007272487461759966],[0.011467445901913375,-0.0009971166235816543],[0.007452455956424514,0.004608540305023793],[0.01595314101582336,0.0043686278513049475]]]},{"Name":"Tanh","Size":55},{"Inputs":55,"Name":"Sum","Outputs":1}],"Name":"FFNN"}