{"Layers":[{"Bias":[[-0.009326923894318582,-0.011724277960287183],[-0.020452057527580503,-0.0021549956995670647],[-0.007119626252643465,-0.0011213829496507627],[0.0023340633582359313,-0.04563347707612565],[-0.0009894108874474474,-0.02356107625762986],[-0.028736139618765408,-0.0018263499523013178],[0.01142459574817458,-0.0188538442089384],[-0.0019206376570814786,-0.0012177781805647807],[-0.019221580173725612,0.03677750628740754],[-0.00017890855883137237,0.015359957555620456],[0.01162389457419242,0.01561968818464772],[-0.02375356605366588,-0.016494295435063554],[-0.009493344782925095,-0.004333966924117195],[-0.013037799133741345,-7.418249438646943e-05],[-0.006161537561105232,-0.00617662002449982],[-0.012808348730867405,-0.027565368773580772],[-0.007923156876095083,0.0034200601952899647],[-0.004168564575343673,0.009271342798296162],[-0.014533214054238321,-0.014036861700119644],[-0.006977852549621672,-0.017116846893471444],[-0.014462174566020823,-0.01261311849006508],[-0.026481794448569504,0.01166215662103441],[-0.02161080246921632,-0.018541859837753166],[-0.011247092825141095,0.0032626477294436284],[-0.027868788576390656,-0.01685411234217324],[-0.005378609055657972,-0.012091854461946829],[0.0026751312993017824,0.013876889444135638],[0.006076295715010127,-0.014185647172269568],[-0.00329454056811366,-0.009021904934852122],[-0.016584718651405275,-0.0028146526069156032],[-0.016501231915820095,-0.026411490743462107],[-0.016300595345291224,0.020367579932458763],[-0.010958176549486737,-0.028147401872953046],[-0.01216660274595921,0.0024464557413544433],[-0.00736421197347019,-0.007835311867000195],[-0.003625425951280986,-0.0013228194658118661],[-0.019913214132816923,-0.0003391047312414838],[0.01900122495066951,0.008632830645230119],[-0.030271597376092543,-0.015862548687470068],[-0.004763609486745863,-0.019458726755070554],[-0.006833134220112672,0.006008664320737394],[-0.007646005690551586,0.0016956791576777754],[-0.013533327628518565,-0.0028878838182766742],[-0.013568389743589065,-0.025639588451342184],[0.00902839740008621,-0.013596396127438402],[0.02112732244488505,-0.0195213325337033],[-0.020596108986219303,-0.001680192159950407],[-0.012854600315569231,-0.013416166624203148],[-0.018870955325387045,-0.011440023326480664],[-0.008102472471755088,-0.01957239758402148],[0.0030815591063612577,-0.010054251827408118],[-0.011904207548873624,-0.00614952157223224],[-0.008129569370234733,-0.025665512895897233],[0.004503061773770971,-0.03175153782140907],[-0.012226130901353315,-0.019236756977701074],[-0.015354145856176064,-0.005218081359468432],[0.011164353807864309,-0.009224209191759312],[0.015698762489078377,-0.016993449751246323],[-0.02472406443686354,-0.010868527345855906],[-0.024944661594705434,-0.026761027962142123]],"Inputs":10,"Name":"FullyConnected","Outputs":60,"UseBias":true,"Weight":[[[0.01775887878501574,-0.03284644801466873],[0.017276170790909928,-0.0044256530102641705],[-0.0008844701091498988,-0.020188970595049618],[0.028934863363974144,-0.011934812267041529],[0.01805522303721965,-0.027846644195230454],[0.009798743801194464,-0.023027284737593145],[-0.0006906655923682064,-0.00975652894107029],[0.013863006314514094,-0.0136194887542218],[0.03550376201791189,-0.008978092499271154],[0.010929292097484847,-0.01150937309546779],[0.015426877573585676,-0.014438741024170958],[-0.0022958391152351496,-0.02194077403465441],[0.026490251405314837,-0.03699359055287793],[0.0013878338561133963,-0.020031707667869027],[0.007973393435962145,-0.014706071519477594],[0.0032882853699302233,-0.00885219847377846],[0.029857473950253167,-0.0069175664168879],[0.023041103083191395,-0.017429564172802257],[0.023074281026942985,-0.018869682786419813],[0.0055576536162465565,-0.018054336251085698],[0.015755754554621037,-0.020407263809588565],[0.014776537558584197,-0.015713108984671473],[0.018025091121882962,-0.009252148098571517],[0.02689080293574617,-0.017962200048570374],[0.016836632724395367,-0.02840939259174708],[0.026746712920199672,-0.025295510298700394],[0.018283488543019307,-0.0014964375191253085],[0.012469217136024034,-0.011658296614849354],[-0.008785577576278155,-0.02988522704160192],[0.002484950727874538,-0.007081924128621018],[0.019932677582538028,-0.013757601663292481],[0.013981842253718494,-0.016783859283641955],[0.0426716882622109,-0.0208737140068126],[-0.007225937295362314,0.0007419307278958864],[-0.007954309294539679,-0.015243143676025599],[0.01789104917649567,-0.003986672801837152],[0.01848579848394959,-0.019397176412153074],[0.009362672792920818,-0.0004756149025426002],[0.01674521062641278,-0.008240731784605142],[0.004350679682646869,-0.016278352624080006],[0.00788251961131673,-0.01840104342939053],[0.004842962294503213,-0.018750779376951403],[0.010177764170264504,-0.004149915821727938],[0.025702348500721412,-0.011177982886533953],[0.00037303091862851917,-0.01921054788385716],[0.00879940661642647,-0.016628109287639994],[0.007054592601577459,-0.018454721832409197],[0.013180670509402527,-0.023283410928633046],[0.015013029559595565,0.002452703036556248],[0.01875927008055668,-0.009514607857664099],[0.0063427190023721235,-0.009995364247682633],[0.012228955074449727,-0.014390271193339825],[0.02963323147824691,-0.030529986710480926],[0.010857232194572913,-0.010008308898827497],[0.023772993431557473,-0.014338484579922317],[0.002210976271771913,-0.023989724632111905],[0.004004130368702173,-0.033287096931195706],[0.014216878461662284,-0.023603209415441934],[0.030081648530489273,-0.007338092634257607],[0.018785842878975965,-0.013294257498780819]],[[-0.02370253439225216,0.022599191780431294],[-0.025533645608170952,0.03286398840203059],[0.0023272599494792196,0.018154102118762575],[0.00047010416543400324,0.029963313129870547],[-0.009291351734663911,0.0182648483915189],[-0.0019328431732316285,0.007032642938126827],[-0.009123667728418848,0.011648226722616804],[-0.0038441997509055933,0.019379539306147497],[-0.021547812814373974,0.013379101188180012],[0.005118535491242646,0.004383300855105551],[0.005382851703779989,0.0030987394764465863],[-0.0209679409248103,0.002862513120363107],[-0.023916322709254572,0.008123670003882982],[-0.008698738290454524,0.01549543114182573],[0.002745502584601752,0.003998489839983829],[-0.01229754496061611,0.01802085562936258],[-0.019514240987534532,0.005637446454194684],[-0.01851293454580043,0.002782934889227705],[-0.009068583328217642,0.0028371416199457562],[-0.009925663139139401,0.015326086189221263],[-0.017044478530653256,0.011812546005718535],[-0.011573860367012943,0.00824196935755528],[-0.02595646919835886,0.001859456304400054],[0.0004479650052131408,0.009869059039002717],[-0.00518229237057712,-0.003021595220432655],[-0.01935160606892136,0.026471301655558752],[-0.020420697859145364,-0.007915712055330882],[-0.008760071995550824,0.02182310152642411],[-0.009103860715511086,0.026976626872616725],[-0.008574313054695823,0.014184002091943922],[-0.030004087388654666,0.020686395499209507],[-0.01170191873439386,0.018873088796155568],[-0.020779595011115422,0.019053264492378003],[-0.0221295138704419,0.02931333257533908],[-0.010344797058705562,0.022579112613413364],[-0.00011543004042303743,0.015615660579839392],[-0.02633002102827958,0.011817991393069898],[-0.010974574026084701,0.011223367951861357],[-0.018188101379180432,0.012753676402141409],[-0.005253931589603215,0.02000990029495994],[-0.016188321101847862,0.00897997982459724],[0.0017517166681335536,0.014120190068747063],[-0.016493439807027763,0.003453381725906046],[-0.001205256763375186,0.013245487028268322],[-0.01696642899984435,0.02016539210931349],[-0.018193013655335707,0.01886991073484536],[-0.011293347540574216,0.034965174827881626],[-0.0065162591350632,0.03973047944093107],[-0.033812908262435014,0.01202155988349426],[0.0033925778553653336,-0.008814410072077462],[-0.002789898854942485,0.011496527223894553],[0.001981008455897656,-0.00786070458445385],[-0.012599220381636972,0.020271926406812836],[-0.006787754643273461,0.008644191015637839],[-0.015375063315181764,0.01847428406423574],[-0.010066989152357937,0.01831882326425675],[-0.007151101578461405,0.01564315457411008],[-0.008588935350532397,0.029447633350456418],[-0.012666712291592568,0.00367294274624957],[-0.03053823748424045,0.009632466624064615]],[[-0.006711198882516738,-0.023293298897565155],[0.020347718134148703,-0.031623977080561506],[0.00889219555786052,-0.03048546456435054],[0.010844984949592995,0.002437271045175056],[0.008157845300935015,-0.007628537045607576],[0.02498740020942142,-0.0011082528789546314],[0.0011267903802245434,-0.03059834454645945],[0.008236563872752425,-0.014601867353210535],[0.027469893236782943,-0.01870506363675016],[0.026602348532825233,-0.0007504355571435362],[0.018504008441964464,-0.023250027648795323],[0.024989797124904446,-0.014721593482912519],[0.025059328548100182,-0.022073682755808385],[-8.552542368430927e-05,-0.00813312276132188],[-0.004125697310787151,-0.015120119188056239],[0.015612924091744078,-0.01773915708555963],[0.008689827637409971,-0.01707613044123989],[0.022396766086068876,-0.022386807514157343],[0.01835260151781392,-0.01304217449366986],[0.004508947580561239,-0.01732213142861104],[0.010603886805531123,-0.006264811872858365],[0.016925037764554913,0.003201870166598378],[0.01393127898923063,-0.031531500561471304],[0.02564003008426337,0.0004006723273925108],[0.015437140915516899,-0.00204428648489934],[0.007531468548658969,0.0006998037390511955],[0.020732494082641943,-0.01859482250426404],[0.014354649624569452,-0.004793103645081985],[0.019281710903882362,-0.010857570483615787],[0.034589269121525254,0.0016508980574884283],[0.00019365535341780721,-0.0022920357131852097],[0.01812926860897434,-0.016635753235872172],[0.007322306939223853,-0.029515690719739772],[0.017168194887599183,0.0017905253127980586],[0.026901677147262094,-0.007830576078346252],[0.0021970418430557206,-0.03963212811696058],[0.010803527271042763,-0.016722502123730523],[-0.011187650184162066,-0.010228126114510539],[0.007829851754555766,-0.01905627465592614],[0.0006126259813616233,-0.01256042951753325],[0.016922953441049937,-0.0064534429127607405],[0.027617920349175675,-7.931593602482821e-05],[0.022589380165699235,-0.02241298705937623],[0.009525758747426146,0.011602094051082734],[0.005060763733119946,-0.022524551650153043],[0.012087673143652233,-0.0234106972994831],[0.0302282030679628,-0.004384797179100907],[0.008591563931661394,-0.006277610591585193],[0.00628319236530142,-0.022960802915327913],[-0.006088028836155285,-0.024631441273314365],[0.013493184362323727,-0.028218696733328604],[0.01516379763108147,-0.0272178023981146],[0.006852929620829461,-0.022457347868968292],[0.00474176765287158,-0.01329913594898759],[0.013882579222322628,-0.023323675131816372],[0.00934416859457273,-0.0013604064292948865],[0.010919239439302416,-0.010077425478669015],[0.01645785105873264,-0.012625737635225448],[-0.014603334787252578,-0.030840074100544904],[0.01182554353285609,-0.018798825415204955]],[[-0.014872417777836627,0.021606694495740382],[-0.006937968331900609,0.0038969572426708903],[-0.02003160835937982,0.02003482445346265],[-0.013911858936649774,0.006437685152910699],[-0.008096382546377024,0.0330519679944674],[-0.02070879746165239,0.0125945157848425],[-0.0072853631039813595,0.017009702522099594],[-0.0031796473897016076,0.011464539228991455],[0.008097673175834156,0.00901757425399826],[-0.007711213719700937,-0.004846012401957472],[-0.003223657604045596,0.007545898446633169],[0.00678896739165743,0.009546939225730832],[0.006354524383116614,0.03366535886998304],[-0.008794331635746704,0.0016323800514599133],[-0.025794641323327556,0.013048112788616653],[-0.0002601787010172572,0.0167043341669189],[-0.00935126155229168,3.521769772661769e-05],[-0.0028773084092056384,0.006877428769728018],[-0.010354532283682272,0.030685790857744855],[-0.015878455343115175,0.010007073685593577],[0.0001515074700206224,0.01449574632103051],[-0.01403599841547182,0.007579912808004386],[-0.0008256781437882777,0.007050185489484309],[0.003034123392483412,0.016168543003156403],[-0.0015747613947033874,0.02413805700321845],[-0.00625996008218512,0.010108635452662072],[-0.005464905398273693,0.009122278127609868],[0.014351324332498106,0.000967245932469446],[-0.0017583023294933493,0.022299872582529162],[-0.01090276992758877,0.015119349496360079],[-0.005172754612693238,0.008108125327061884],[-0.016511574114891542,0.03383216064638388],[-0.005929407615447782,0.00873776949249156],[-0.0043021639622547354,0.0010839865666473654],[-0.016499276937548837,0.015306415329147617],[-0.0023462763886558918,0.02191784509253398],[-0.028717620740927072,0.005689036243939724],[-0.020900407552935568,0.013187712883684734],[-0.014655654528187572,0.006406758192375517],[-0.0038137427966952455,0.014655380015992746],[-0.009927683712896401,0.018980494974430318],[-0.008371116418129657,0.016329906650032793],[-0.014944050556319909,0.018312394916294873],[-0.002250712868759429,0.027706687878420365],[0.0006851499345035348,0.00848446511181916],[0.013470930615551926,0.01101130724900696],[-0.0017688628962163524,0.03141132215374001],[-0.008302143878556482,0.0061955593257294215],[-0.013430679822213144,0.015266025313181325],[-0.014064394026276593,0.003395483848151663],[0.0032768085585602774,0.000586676959056458],[-0.007775918902232028,0.033142923379659246],[-0.013372919287099848,0.024868246494553752],[-0.014728680755151461,0.01546410560589668],[-0.022902121932115507,0.011219024290989869],[-0.006748699724304519,0.020209200055632447],[0.004369860997730098,0.024387502968817292],[-0.015841798227923757,0.013224456374522735],[0.016278096068934076,0.006328756851411786],[-0.0007856867051027288,0.009187509840138719]],[[-0.007353781243360877,-0.01217020947832286],[0.004871143486314144,-0.018747550464494948],[0.0178848446938754,-0.024738797398596513],[0.006751689021001323,-0.011937401989606439],[-0.006318230079627947,-0.01393161602433892],[0.016505615473069796,-0.0007958390026784745],[-0.013348087608206325,-0.013326018076718254],[0.0039656903786497305,-0.01989501616298753],[0.005203728676563645,-0.017748630215227334],[0.011087280038779988,-0.03228287924168677],[0.009388442331051206,-0.00725713776791218],[0.009330699422727334,-0.024803426052701374],[-0.003999570639809852,-0.006535897744854607],[0.005769104135322383,-0.021747933637049435],[0.010940848464358888,-0.017672375234293422],[-0.0037656939374305126,-0.020861590095795503],[0.009097246799967694,-0.03321815796290443],[-0.009370747027335058,-0.015878315447037234],[0.016694846331393103,-0.01063683921227839],[-0.007673775142764371,-0.008268203128406605],[-0.005543744447802171,-0.016349542654390273],[0.0008932342089143458,-0.017618564718909772],[-0.0033655091323846415,-0.015893977718754997],[0.005534195225505456,-0.03231027348677],[0.021398694079769586,-0.026832850006659196],[0.006881879389545362,-0.028938239626580715],[0.007151964853073953,-0.017775983410909853],[-0.00032478985726744976,-0.012212557048450276],[0.003344875063442096,-0.012359511960103242],[-0.00419243038182211,-0.000977167526522187],[0.00026862230935500195,-0.020634908996099675],[-0.002488964167579072,-0.01655937312461839],[-0.0033649871136787047,0.0007301859437880124],[-0.006206616078841841,-0.000525665214104054],[0.008158756858875665,-0.02218229288728362],[0.021595805445344736,-0.011778102449977753],[-0.005103535483049255,-0.01703666702948625],[-0.004076788309130948,-0.019063076338723877],[-0.020905744987834957,-0.03561880162676827],[9.890369893977049e-05,-0.007904195840849233],[0.0011579600033630067,-0.0019077537623357543],[0.010032033739085086,-0.021144159638114834],[-0.010918477369357488,-0.006972950809779407],[0.005739729777240445,-0.004423969765650674],[0.001374198565161143,0.0009958542276461268],[0.0055252491036283016,-0.0073503727987593095],[0.013169433576547119,-0.024228236709513233],[0.018221649111530406,-0.027758084471207905],[-0.00035409763990468094,-0.02152095235700759],[-0.008977727857375963,-0.017751417346351397],[0.003255588936828281,-0.0313673894068281],[-0.018424497637527747,-0.00901359624719209],[-0.0040825842606612185,-0.013080862456393418],[-0.013853649282816263,-0.020815290856280155],[-0.016167627303507175,-0.0003519571753418267],[0.0009088469774194599,-0.024350896034655324],[0.004093414545563362,-0.01647707129330931],[0.002446398425577325,-0.009289092169105558],[0.015145157462419147,-0.033451407001852534],[0.00028684691342456873,-0.018775691195618043]],[[0.004385991069816465,-0.013558147809218234],[-0.0020607409932268,0.004543600014707139],[0.02091656725446519,-0.00220803390352032],[0.006383317425178233,-0.011679385311078034],[0.015317212278829822,-0.005686513014507174],[0.028975695164787985,-0.004456688359041327],[-0.0015342981349732614,-0.0222227399660054],[0.01651905782248988,-0.016473432029717457],[0.022930060506615786,0.0020345587847415154],[0.026641512559771253,-0.01559666767537968],[0.014743004352249341,-0.013410718813449015],[0.02042650384805515,-0.01981941569645058],[0.01781901221844774,0.006569905078370441],[0.03457793919981117,-0.013607982785277098],[0.018712621493094193,-0.012726993552378465],[0.036205620654574174,0.005286784836706319],[0.025971019016410482,-0.01577099216786191],[0.029532872119188754,-0.0013414347503275346],[0.011803635306700443,-0.0015704188984844028],[0.008479520816817474,-0.023581094163872232],[0.00407881076631102,-0.0007252198106741813],[-0.005116769865903566,-0.006390018660491079],[-0.0006126648335169862,0.0003673630984490986],[0.01903273885043664,-0.014842327390140466],[0.032219863242546685,-0.007764092524608268],[0.03471788096723774,-0.032737277994958985],[0.0015799019770214463,0.006789393158890993],[0.012463906339817823,0.0013475954171489272],[0.020207949628152932,0.008348470322746649],[0.02092726831396923,-0.015593089253838288],[0.012693203023117185,-0.0081162008997206],[0.01963853083366784,-0.017063796247925794],[0.027338326047314874,-0.007784049681195958],[0.027070021107558788,-0.009679806818108946],[0.0049354408189047835,-0.0002491268020743719],[0.011195940220934715,-0.007846213436451128],[-0.0009742265810019853,-0.006485396062409181],[0.0035829239046600955,4.45374585625828e-05],[0.009687570660629023,-0.006881488334491727],[0.015531777373332145,-0.0046142331924530905],[0.013729174434525001,-0.007983111184315217],[0.02216889372578041,-0.005933916541370011],[0.030662671618350516,-0.009006273470868456],[0.04262733170639603,-0.016185397068103558],[0.020285373953814773,-0.01000829030984526],[0.00866698341479585,-0.0037483376067338372],[0.02439680747610164,0.013211154890445585],[0.017758337281481486,-0.0038424536935584026],[0.03624790054984564,0.0010183333733939262],[0.03428841183215143,-0.008950195578507559],[0.010869171268994018,0.007728334037467582],[0.011928866668017936,7.780473467853936e-05],[0.0067543223984876406,-0.023400043387740863],[0.010729159593184906,-0.011946788337727192],[0.007505560463442975,-0.016588745696781766],[0.012941791464518529,-0.010358350231197019],[0.02188494392469559,-0.022855785097086728],[0.00795088914090485,-0.03132650408024186],[0.00391376309744404,-0.0016579790405518349],[0.026478278429019512,-0.0030197719286611693]],[[-0.011500977320286028,0.012205983919593235],[-0.017598342947156866,0.005831145700625262],[-0.02511468102523226,0.0011355598503703392],[-0.0018320993370036388,0.009479225804108428],[-0.008921868318609347,-0.0072958450444642504],[-0.007783810400051182,0.01846850455554119],[-0.008423197963936846,0.018556669365623227],[-0.01780945094299959,0.018013264261172758],[-0.025188043616987007,0.00370330247360266],[-0.008702119811837326,0.02014832272528682],[-0.014936079445514134,0.014877626502818852],[-0.020557264244913075,0.017241108319630796],[-0.0057765482538423415,0.010137870241436456],[-0.009044493587162795,0.0009536949775097584],[-0.002611807088270486,0.008757353149555445],[-0.022207925469701784,0.018484589611314807],[-0.029152949411259763,0.008155827028553938],[-0.006694136630022476,0.022325939859320073],[-0.01777497468545498,0.017886777672391947],[-0.02173701370090975,-0.001970111881988644],[-0.032098625925217714,0.022245975677049175],[-0.015775820374528543,0.0050296393253021505],[-0.013191388347075901,0.008209794821787157],[-0.010900593053492972,0.010704412475611413],[-0.028162575502163383,0.025103827717182125],[-0.011365206025048782,0.050701247276086686],[-0.02260728292647683,0.007540986984759982],[-0.01003383878605485,0.004118616782622093],[-0.020759113340518203,-0.0023487616168872453],[-0.008814327809009561,0.010652090598463225],[-0.0031805357885374085,0.0122642088243667],[-0.01905709247353375,0.018095507747377112],[-0.03359359474159625,0.02950518520033411],[-0.01189342235569617,0.017168708478603856],[-0.013926002802967194,0.014833365035896967],[-0.020200092016650698,0.0027480459495388995],[-0.00047479520391805196,0.013738213434610241],[-0.005626803294694402,-0.008258829706456743],[-0.013391272826994902,0.007934221058721045],[-0.01428944721621599,-0.0028287665349112207],[-0.018102326886161695,0.015731431439049506],[-0.02085625378930127,0.023551485553611987],[-0.011025605719348368,0.01643580020237138],[-0.011795397224369257,0.029547028637882177],[-0.007205282791642038,0.0007143828721982631],[-0.0005045554374379312,0.03276329286075968],[-0.0018084345197001465,0.015027641215971319],[-0.008709384212812924,0.017779693540651464],[-0.027215471737456726,0.013022155857483503],[-0.008223281021799462,0.01228153894064519],[-0.01628907919201579,0.0073450280077501425],[-0.022485487282870458,0.013934913269682726],[-0.006696592421330226,0.0027149241334489546],[-0.021615406883946565,0.00582899005862586],[-0.032126219774192825,0.013901183106101566],[-0.015547123947060822,-0.0021109004720669356],[-0.011737804651998775,-0.00019909495892692355],[-0.013966401517409134,0.007776612793269392],[-0.021880562429847712,0.02304377447226925],[0.0018818978874860126,0.013762360754293806]],[[0.037818968065305755,-0.015693001116240196],[-0.006549345045550108,-0.032438324135947244],[0.01420864660691489,-0.029882260908118515],[0.0037405293084667194,-0.020324786404811775],[-0.003403563125966265,-0.027237581776727474],[0.018649518095478903,-0.005020822383967619],[0.019421619372754346,-0.010394421035293014],[0.007590805880680552,0.0029424131996159536],[0.013502987187434246,0.001765667937664742],[0.010050012933586549,-0.010835959341661735],[0.02425917003533082,-0.009224149379540312],[0.0015028941012826356,-0.00999290932679831],[0.0009065575204592499,-0.01714772531284651],[-0.007229982812536249,-0.021249967210635764],[0.010107558381802438,-0.023232649040310784],[-0.0036610175425126853,-0.013132684320587036],[0.009777358070049529,-0.0028631523927878898],[0.01780478861968139,-0.006431944487842375],[0.004159350300654017,-0.014346599384290224],[0.010428655814955808,-0.021721889114081544],[0.021495433911237205,-0.021304136147788432],[-0.007233867903006547,-0.015785496272801826],[0.003775505093219175,-0.020357483368916972],[0.007875894253912413,-0.007120566613327728],[0.022815597806774918,-0.013978161003298784],[0.009112359871706326,-0.021957400691668773],[0.004273617905828636,0.004772388588346499],[0.0025283874619234517,-0.013356918173746464],[0.006264249425459193,-0.006590506338087956],[0.015329604950725627,-0.001990149085983323],[0.024537577309793036,-0.011537760581698961],[0.01976910135680715,-0.025210723541182735],[0.006856716276838093,-0.024798383468546164],[0.012302368293867003,-0.0011909724074544385],[-0.002947234716360846,-0.02420562508823579],[0.022692958766522116,-0.02477491738521485],[0.0027758514989585543,0.010383808377237642],[0.004451650961685601,-0.00841001839256519],[0.02783186197593168,0.0001821519203451523],[0.005982571351000528,-0.005188808325217665],[0.036325891363419655,-0.025710117265587976],[0.02825703909873308,-0.02123738401890421],[0.02711184015344555,-0.016432321515638736],[0.026934413141900808,-0.01233395676813823],[0.02395296067153728,-0.01133337613051386],[0.02375957862808627,-0.02961238429102998],[0.013624721210492309,-0.020358914555859524],[0.01073591971835024,-0.003816078140093249],[0.008784479558938721,-0.01874986696509853],[0.027428811503371214,-0.010826559910398586],[0.022897312160345278,-0.0018932281933137026],[0.006367085643382543,-0.013028410723201066],[0.02558302500348559,-0.02890471924469209],[0.019856357292076438,-0.011093261320073636],[0.012203122979337643,-0.02515595526504595],[0.010769021214032438,-0.02126661103269559],[0.00804606023824395,-0.00898566147037726],[-0.008153275347165336,-0.009814873131751091],[0.019746545008793224,-0.01891708527086153],[0.015846971372666913,-0.02145524012667225]],[[0.014783607744049078,0.0384727979110877],[-0.008897638003795425,0.0084909826540426],[-0.008752529577722384,0.013143510982682273],[0.0023994121355427707,0.030718944074169186],[-0.007243102174873112,0.010463679167573807],[0.008284325719609468,0.0207336161915302],[-0.006198251716922727,0.041265981761477534],[0.0042363446606567285,0.004002494215748808],[-0.019885247777802272,0.006439254435325309],[-0.019789693748566088,0.011103315009648715],[-0.007887670361179903,0.021180442964418966],[-0.02110799417763742,0.013795416575993499],[-0.012190302438724201,0.022741091416315327],[-0.01544919754770437,-0.0020447481661532534],[-0.018082502788863298,0.02873615347856389],[0.0027765092281167155,-0.0043075654111292125],[-0.005785250355284626,0.01805757738519254],[-0.019240751192310522,0.009114705981752094],[-0.023845526045309276,0.01081885814161137],[-0.017622180076432854,0.01807417825077591],[0.0043867331340630075,0.017575623811837717],[-0.023847061179156987,0.02444159749257627],[-0.012433968626960333,0.020467486114455542],[-0.01642790508940799,0.03342063327670632],[-0.012773409256452418,0.02260639659233451],[-0.017235854659187717,0.021044530489450954],[-0.010022424999322982,0.006291645894794322],[-0.00534703333761311,0.017458323207762697],[-0.027646845987279352,0.010094347488349588],[-0.026392033975372632,0.027074223782950005],[-0.005359200073798121,0.01127543639573839],[-0.00019030956300714315,0.012768177170180839],[-0.003366537679550245,0.009023308800516923],[-0.023307307373852306,0.01220299335965311],[-0.004231202403387388,0.013547498624083151],[0.011838955741940278,0.015596837013014214],[-0.021377578332711682,0.026493893435430443],[-0.0025786584839853233,0.02665822822472834],[-0.023627642080931807,0.028810153871899388],[-0.01723304162759905,0.01666135053975419],[-0.0018184931669469229,0.01970118226019786],[0.0018118190297272039,0.015861865542286926],[-0.02709958265654467,0.024042948714353456],[-0.009219666743880412,0.014102382334707328],[-0.01400136179199302,0.030563744788126828],[-0.0032628698751008254,0.010406512556615557],[-0.014461181154218945,0.03387802922029006],[-0.012367451795974965,0.0020615211479056974],[0.007328639821801807,0.009458241409878745],[-0.003083186048125547,0.025598423749289875],[-0.006283199899417236,0.016851590950563454],[-0.030372217195792396,0.020248476806574073],[-0.006972848646973825,0.01145949138039805],[-0.01824340027122238,0.014636765950557313],[-0.004166257729697273,0.022950356369696345],[-0.020485157401433113,0.024721744597326734],[-0.01662236667207247,0.026613784775178208],[-0.0189361323361051,0.015271816734752156],[-0.015923035255912783,0.016261905809363403],[0.0031932047930172012,0.0037523711246298355]],[[-0.022593070411021345,0.01723423477879912],[-0.021357674262833706,-0.014981017529544392],[-0.01642588874920272,-0.00539268626879596],[-0.017287743607801026,0.009541056346753354],[-0.009269208169745712,0.006205743419259296],[-0.008459873928837439,0.02640912186716036],[-0.02412558976197341,0.010458727087929545],[-0.016421790703344943,0.016479731198246004],[0.00516897710423702,0.014480893811512236],[-0.004522222446995607,0.004596645884886829],[-0.03183963472073955,0.016203595298134477],[-0.020669999752974674,0.012479750452211958],[-0.009770013680287412,0.0031213628647948077],[-0.029196365318760385,-0.0053478471614974415],[-0.02094247619700595,0.010841342161860869],[-0.030124211086212438,0.014642248767159409],[-0.013630586699692476,0.014491465302167043],[-0.010428874126719528,-0.01195925574947093],[-0.03282850319906856,0.03660371406999672],[-0.026702874060632237,0.02081811055572862],[-0.010588961953961936,0.0270988178324768],[0.005931655229289443,0.01828315051537846],[-0.02623482013247176,-0.002605959198550678],[-0.0035424473405126847,0.01335676450557152],[-0.013576971716675042,0.015369631919252655],[-0.014172608014495628,0.02056019023274023],[-0.002086528292686573,0.019729372226425467],[-0.020618230494497264,0.007454613778846294],[-0.01427041909119466,0.019693114207013453],[-0.015149586621228487,0.004217178117862377],[-0.008902633032597878,0.020214316953440413],[-0.00792996526386189,-0.004733252924333309],[-0.010402203225068555,0.0043999728224236095],[-0.00285110379812676,0.0022896858306814113],[-0.01453151554273083,0.013501263316748082],[-0.016178307321634697,0.0030442681159119013],[-0.014667122021769397,0.021535712231257113],[-0.002932476165786628,-0.008569446333549032],[-0.009333390015338885,0.011122390427134721],[-0.010217638882136068,-0.011230079243580757],[-0.015474954873508183,-0.0074957484150347965],[-0.0022373857501954554,0.028889681258213513],[-0.01996430754425971,0.012357946388170449],[-0.012535270422681134,0.009333611900867655],[-0.007674578674480822,0.009848130014900534],[-0.009177982552105241,0.004845808300245211],[-0.012783800116040557,0.015566068991835018],[-0.014985935804144892,0.020597031122626654],[-0.003510138913321271,0.022590070969763978],[-0.013952834078748307,0.012914203582057462],[-0.016836381314227787,-0.0019216398842194333],[-0.003064263382744745,0.018406062521251453],[-0.020732906467580373,0.016454165798144398],[-0.012174943163018353,0.015357925922513652],[-0.02394804601494063,0.013211790951242338],[-0.041415226084402866,0.014167304413676095],[0.006330355222743807,0.00986206975005883],[-0.006895714435980679,0.011985825347645907],[-0.014104296600700119,0.0001656327158494855],[-0.01578526060452084,0.006718046580515398]]]},{"Name":"Tanh","Size":60},{"Inputs":60,"Name":"Sum","Outputs":1}],"Name":"FFNN"}