{"Layers":[{"Bias":[[-0.00041405682504939273,0.0047592392555645385],[-0.010844381016832457,0.002289113627749087],[0.008395235701129143,0.006537538611759285],[0.005154740121477342,-0.017842902090405132],[-0.0006482913498571265,-0.015643606566530913],[-0.025453646291946283,0.0016385673608440032],[0.013056516352689387,-0.005824720882616617],[-0.004797769203744327,0.016094850157645675],[-0.011667550068337336,0.04210042109292777],[0.005760637516720237,0.023460950333407903],[0.023856825465418494,0.021267992800123092],[-0.01464692735972477,-0.007931983020643739],[-0.0014290536818066032,0.0038261536676155736],[-0.002900358687801673,0.02083564081492875],[-0.0016319590420769048,0.0033368968822094095],[0.0014631427707480192,-0.0003396913039427428],[0.005098279685694814,0.014350054354240072],[0.006813889554768098,0.014361421835830083],[-0.009776700219681394,0.0009850025372472018],[-0.001197756992722027,-0.006946625099181485],[-0.0097944981898263,0.002913198333606387],[-0.002144178723534404,0.03124414751117215],[-0.007177482090454864,-0.006694056926946843],[-0.0005711979295169359,0.018632955175411015],[-0.014463789007713938,-0.00929570960786558],[0.0023058735752862674,-0.005743621878618614],[0.02394266344277798,0.010952414840573186],[0.006957826370614985,0.004701980382004143],[0.007068729134213237,-0.0020335046943982444],[-0.011914777163052453,0.004390609804926834],[-0.0072322559090870885,0.00601838604487251],[-0.006637920283044558,0.03626526583948579],[0.0007797336803306233,-0.0205313011106356],[-0.008981473637956656,0.001406958166569273],[-0.011726194194586028,0.0011545352821296746],[-0.0024498783749876355,0.007185988797880904],[-0.009235203012059346,0.01655282793307515],[0.028583923828660693,0.017026474321684103],[-0.02408287866361176,-0.015091725021129772],[-0.000690094001567552,0.003285065298497559],[0.0010167358952049214,0.003452790893574535],[-0.0034768758169711183,0.013858163230002229],[-0.007067560013522808,-0.0002964695731314272],[-0.0030418432754138317,-0.023204973755507213],[0.011857307420513915,-0.005137270114813686],[0.014558319349267343,-0.009030328093767389],[-0.01270062443728602,0.0032788754382086244],[-0.012161620326715444,-0.003545474204930042],[-0.00464391217665348,0.018681154632322804],[-0.00784210527020888,-0.016434306003777047],[0.010182175129517284,-0.006183228316685648],[-0.007046104528875007,0.001489354339140117],[-0.006076614614419104,-0.013096989991708365],[0.011580690234435488,-0.015668705464434378],[-0.0029052558569380286,-0.009417046772532028],[9.308847685095755e-07,0.006044003343380466],[0.0156968329562586,-0.005950317030821585],[0.016135645201451124,-0.005683337223711865],[-0.022426033077832166,-0.006088192263349701]],"Inputs":10,"Name":"FullyConnected","Outputs":59,"UseBias":true,"Weight":[[[0.001383349872568752,0.004309049315709013],[-0.0010400369673291188,0.01995787721556097],[-0.0014742965468358975,-0.01145605367814943],[0.0040756442342546224,-0.001474772447238759],[0.003741135168374298,0.01342536244338962],[0.011664285413592,0.009671734044099522],[0.012453048230622186,0.029879187630007926],[-0.0022509446754227056,0.01382477763583285],[0.00573197059972986,0.020703281103124287],[0.025484962788447044,0.018855212898615376],[0.016373458601632383,0.00888496632379269],[-0.011035558839803844,0.019989991674208625],[0.00017784966075988054,0.016707917982958377],[0.010967915979606987,0.006367930102972187],[-0.008443731672927512,-0.0018752194213769997],[0.00020365576095795183,0.014541663032380272],[-0.009049832843975808,0.018162932571307217],[0.007048120343375499,0.018751767365591428],[0.009806779147388377,-0.007776388575924858],[-0.012471631115807449,0.03992816373575247],[-0.00527556387154534,0.02434666277396255],[0.010976234193857215,0.03035462307457913],[0.027364519450004003,0.022705716944605218],[-0.005075887948452052,0.0014621970927315756],[0.017096931252273278,0.017074662418355542],[0.00699337528309204,0.018723530429979582],[0.00743286731154434,0.02227217862411116],[0.018964356011863834,0.024349999793909356],[-0.00013988114887606036,0.012052070602685547],[0.006510265991341526,0.023279610153663272],[0.006015836094212054,0.008243963390757293],[0.012246223895980691,0.024016232428720807],[0.01348428079566318,-0.000540132750464207],[0.009570345394844347,0.006890444691394869],[0.01774375557984361,0.006092452808557435],[0.00649090610698274,0.017212183033423308],[0.005120918254948152,0.0067169362262345135],[0.006796845083136114,0.02525599738133308],[0.018013469077349194,-0.00447017209766824],[0.011275542359800906,0.014945795881608576],[0.010661096391228765,-0.006845991877349966],[0.005015505501288615,-0.0036941394683155855],[0.018585127911737317,0.03222119124631286],[0.0006125477331864052,0.015772246599537056],[0.007512025522012206,0.012840829384189446],[0.013278202591377422,0.01358695378949745],[0.011444951832818727,0.00809189860662098],[0.007575754596283558,0.018753755004842332],[0.0061246546522802465,0.0240756024726884],[0.016749175190274874,0.025981363142910077],[0.006862835306789483,0.016753444065698307],[0.004149076901301992,0.0024681666819921524],[0.018040960018703218,0.02277261578561979],[0.0005346435943479964,0.01906629789589656],[0.009420469154430957,0.019263106784084848],[-0.0032780662147966627,0.0164136435313717],[-0.020840730148647662,0.017809870099306534],[0.02777521718736487,0.013744236147369816],[0.014386771057446802,0.015521379886493804]],[[0.0034355045628501335,-0.029802973441849064],[0.0028036492357335413,-0.0025821839110932807],[-0.015211654791520035,-0.01810618132644986],[0.014554933916972978,-0.009609663849611535],[0.0035582943318346254,-0.02578657169080003],[-0.004276998154777302,-0.021313096415056916],[-0.014477802052669419,-0.0074994704125340836],[-0.0005184964022623378,-0.01182176640480449],[0.021581988594626768,-0.007622078013925986],[-0.00240776273415649,-0.010270875606564464],[0.00188741211483467,-0.012304066826719034],[-0.016487705838064293,-0.020171998426520656],[0.011776708157095889,-0.034688185035697316],[-0.012745682654554346,-0.018326102228156907],[-0.006384153452941439,-0.012931416085623232],[-0.010754853973148107,-0.007063616981437371],[0.016091151681278375,-0.005367664207003234],[0.009172400315728562,-0.015854243115171758],[0.008785535972969986,-0.016268074059778943],[-0.00863280591483513,-0.016546134752260987],[0.0011911109429314877,-0.018423790082339624],[0.0007796092820213411,-0.014297281634674516],[0.004182820662455691,-0.007119439710622071],[0.0128977792266187,-0.015942946931366584],[0.0034522187384057805,-0.026367486992091686],[0.013545847775107365,-0.022576448258925453],[0.004652905388037517,-0.00016724493810559132],[-0.0017115395213754534,-0.010016259437480857],[-0.0233670747093728,-0.02818419808498369],[-0.011105799684501705,-0.005680539918243689],[0.005695136021425323,-0.011798662111369323],[0.00024278965030117343,-0.014689789875043963],[0.02851840409941292,-0.017772142835695268],[-0.02130119011982747,0.0021112688483494444],[-0.022400106843309908,-0.01322128946225314],[0.0037414512010127323,-0.0021109303949757964],[0.004401428173667365,-0.0174651335490196],[-0.004874056607121742,0.0009783212510346992],[0.0029017290135986955,-0.00593202897561003],[-0.00989469588307055,-0.014662856598167632],[-0.006447487377680366,-0.015709707614490843],[-0.00930994880893078,-0.016510630918462908],[-0.002995860858052506,-0.0025400547601930118],[0.012077623764102886,-0.00938194626080566],[-0.013944772499596287,-0.017227786717369242],[-0.005707159504807886,-0.014369164098774553],[-0.006783180329655302,-0.01631963212030224],[-0.0010992820892276884,-0.021476090238494176],[0.0012463351104207356,0.004053201193837581],[0.005103773991643908,-0.007795875371943105],[-0.007875659605603606,-0.008337324823251556],[-0.002292928560143398,-0.012042974901546735],[0.015476057296497243,-0.027609119493822706],[-0.0032009843240180845,-0.00819964797661016],[0.010036967661383267,-0.011689853463758858],[-0.011875594895421828,-0.02203309819491444],[-0.010693172362187853,-0.03169332998509098],[0.0006100464801800919,-0.02108546669817199],[0.015738603441502626,-0.0052813876353632275]],[[-0.018378428430296075,0.0204736105873599],[-0.01968596464829398,0.0317656840625987],[0.007825616113794807,0.017299227456407225],[0.005919583958088733,0.02854028992810105],[-0.0037039854625247485,0.016999061976205824],[0.003416782382610786,0.006148296504958406],[-0.0038978478962644132,0.00990819844875792],[0.0015535422400245896,0.0183763543489573],[-0.015993035902584347,0.012712731653318864],[0.010578547913217842,0.003753678047899571],[0.010697509748102072,0.001962457227848917],[-0.01569207979498602,0.0015816986675798164],[-0.018208393462741706,0.0066394734556962185],[-0.0033113939156971064,0.01475705414118179],[0.008008364412426786,0.003145970538290736],[-0.006962967483809631,0.01680705969817361],[-0.014226115789256281,0.004847241166328187],[-0.012838178474939916,0.001850591835756477],[-0.0035672084753810606,0.001597849497736892],[-0.004546346529209788,0.014187742773426734],[-0.011540660844832412,0.010282330871249521],[-0.00624893266097039,0.00760888643955785],[-0.020539861262121248,0.0005638501111248027],[0.005731301240340918,0.00871271675661195],[0.00011766868230083923,-0.004263328792743597],[-0.014333660760459535,0.024654533271400582],[-0.015241607525860233,-0.008393934110868813],[-0.0033169076184407244,0.020890491072269885],[-0.0034493633414286865,0.02612033334758133],[-0.003200103717680268,0.013474053987793144],[-0.024600333474056553,0.01953020328184631],[-0.006314441701313558,0.017486103098955808],[-0.014850109107824578,0.01704028346860129],[-0.01661639689211321,0.028562902297159375],[-0.004779080051484703,0.021534570529218405],[0.005243903589179793,0.014522459464323192],[-0.021064225514238807,0.010921484634861454],[-0.005670526410467003,0.010788104615843192],[-0.012654291173020055,0.011580066418567134],[0.00020756659324730557,0.019281887822026743],[-0.010628905401417641,0.007528759579459761],[0.0071360340156909705,0.012792955748710198],[-0.0107939590774155,0.0023107009360761963],[0.00414886880250401,0.012186988420641023],[-0.011457793970856509,0.018868571350120576],[-0.012570591713764453,0.017109325500592472],[-0.005892385994644083,0.03387270125208475],[-0.0011113610627651205,0.03873955945898411],[-0.028382464444994218,0.010868883987538476],[0.008731273364183379,-0.009846522906315517],[0.00269808710506413,0.010559116639826175],[0.007628926723183794,-0.009284878490475284],[-0.007127277252580174,0.01840679880653001],[-0.0013074342208011884,0.007511633555503418],[-0.009903321075381062,0.016748386001294763],[-0.004810018187763251,0.017212918418867643],[-0.001741564235742349,0.014397550995053725],[-0.0032544510828369988,0.027983585464909092],[-0.0071856364387189505,0.0023291370832407895]],[[-0.014119058581731249,-0.022667218560530576],[0.012459948961738715,-0.031891360007379126],[0.00124908002030531,-0.031555638526952874],[0.003324986436054123,0.0020416088129282728],[0.0005063840078658261,-0.008254942239449762],[0.017433454862530562,-0.0020456842753087618],[-0.00635754236830543,-0.030646710946423197],[0.0006312217701245329,-0.015401945451053316],[0.020079275990098525,-0.020327794221578096],[0.01892312975696478,-0.0017478457800452337],[0.011067618559247329,-0.02385233279318269],[0.017640344255881617,-0.015314500182352555],[0.01742225768884,-0.022110303167873574],[-0.00767911194898922,-0.009040646297409364],[-0.011469266884761815,-0.01642898668331883],[0.008201493810704485,-0.01864924777571062],[0.0015304190119860206,-0.018166110214782157],[0.014788879137830075,-0.02314931992665888],[0.010953859167843803,-0.013834855478923552],[-0.0030847932197795333,-0.018115518221818876],[0.003044720896624242,-0.0064651557126329156],[0.009317316579151434,0.002113972337210712],[0.006348384123263112,-0.03181156355819814],[0.018277977681650175,-0.00023344274556469062],[0.008255521039156529,-0.002835921077915604],[0.0005767991561610559,0.0010994311833344653],[0.01329470886789566,-0.020172480956022063],[0.006760842166297876,-0.005408852089746555],[0.011508637267042567,-0.011692051434477083],[0.02692796316494022,0.000505188786360111],[-0.007325317912609607,-0.0028467292661573666],[0.010609417415397008,-0.017336766662761995],[-0.0002166316806627466,-0.028583642597670544],[0.009330584174226747,0.0010217512532014654],[0.019172643571552003,-0.00852293317963294],[-0.0053133258825605245,-0.04044360385868246],[0.003199096525735257,-0.01749637965359704],[-0.01886768389477629,-0.011429285377861727],[0.00015640573479637734,-0.019583350817479934],[-0.007049336487194374,-0.013498892230555549],[0.009199921164158008,-0.006604627720833715],[0.02005281918426428,-0.000562601304109088],[0.014948074688730181,-0.02348923135621343],[0.0023221459335339796,0.01065849923804124],[-0.0026176651441686457,-0.02274058992653089],[0.0043767557575946,-0.022972847534259756],[0.022870701496668915,-0.004835213499051678],[0.0009936605640380315,-0.006978186481887369],[-0.001084294649225027,-0.024005700600658392],[-0.013516795068768957,-0.025533812399083006],[0.005795228128857922,-0.028858553883666215],[0.007525446907309767,-0.027895468347680395],[-0.000741163367813179,-0.02223453517245673],[-0.0028676133204947247,-0.014195393921409092],[0.006392194135826652,-0.02330713229471943],[0.001952452715814434,-0.002145439431369707],[0.0033972411839196417,-0.010690331650150832],[0.008781962636332994,-0.012941083632686597],[-0.02201785418313413,-0.031203367757081175]],[[-0.010088141059037868,0.018603642114456167],[-0.0009037093044004863,0.002051928805465479],[-0.014218105105409294,0.018441776974586953],[-0.00843912404587355,0.004024263505086916],[-0.0020021866170863616,0.030640338767007058],[-0.014739216285917239,0.01047503031914495],[-0.0025550470316063954,0.014502190476980467],[0.002726134507762945,0.009337829742893154],[0.014594341819078958,0.007706239597215881],[-0.0011242662070778057,-0.006279461996099493],[0.0028157672692145,0.005778149185628227],[0.012481707135152597,0.007920369064100149],[0.012881647071830402,0.031532001442611333],[-0.0028813351115129964,-0.0002471861716142304],[-0.02064739500382177,0.010971576609823477],[0.005599913530324302,0.014827042555573041],[-0.0037604843912722057,-0.0012237738099173828],[0.003231104342559517,0.005537601729530939],[-0.003762775570573579,0.02886381094320728],[-0.01004293930463576,0.007890175281974136],[0.006153826685939097,0.012331808302283687],[-0.008047512424699416,0.0054960859436680755],[0.004894249817074011,0.0053366655548479315],[0.008788684171315137,0.014332774332251347],[0.004831399722995336,0.022709813979030682],[-0.001194347707530948,0.008442819782389952],[0.0008535311303660422,0.007431290236963603],[0.02035478577402433,-0.0010251193140753917],[0.004918397389673642,0.02050915090733488],[-0.004682492752699021,0.013224366639191375],[0.00047646157474686866,0.006081313666699002],[-0.010544260871608549,0.03186400302229368],[0.0001313629328504071,0.006653983391282855],[0.001881707091933336,-0.0008226705180902774],[-0.010471335402994367,0.013260207254770267],[0.0034010094891653887,0.01997789699608732],[-0.023176691379775096,0.0036510893805874675],[-0.014954289828638622,0.011152162690162004],[-0.010044304995654972,0.00494444472381812],[0.0021683715986765863,0.012602475330931777],[-0.003425313136618595,0.01679440665758267],[-0.002076890858363651,0.014423860482799623],[-0.008984131591140962,0.017039583288716045],[0.0037562527302740364,0.02561184437384205],[0.006645515070875322,0.006448534430301809],[0.019638231479942342,0.00890417017475569],[0.004368822288771171,0.02977109549636544],[-0.0022859604142057032,0.004285838396243006],[-0.0076004988314640545,0.013783850506899408],[-0.008729908636837697,0.0016489806937576169],[0.00924478466746116,-0.0009591928182406538],[-0.001894705456774065,0.031144658922748588],[-0.007705490590296915,0.02245983788291966],[-0.00920642458524466,0.013660340689140373],[-0.017436006186059817,0.008962572685436281],[-0.00102136738000613,0.018214730104983704],[0.01012004727983031,0.022278264813510126],[-0.010068740270855211,0.011116424572220831],[0.021395222346684915,0.004735563454705584]],[[-0.013770843256979422,-0.011491508829846578],[-0.0012804174863107441,-0.01829283246802855],[0.012483708695735358,-0.024165499160815163],[0.0006330162803413138,-0.011197835009351741],[-0.012091174483558061,-0.013277401667242832],[0.010768836336748333,-0.00022137314959062444],[-0.020272535957010795,-0.012485455063471597],[-0.0023293058541686154,-0.019042467399481726],[0.00013860412500197848,-0.018151064037597236],[0.005540431173921842,-0.03141111801085702],[0.003574350322577772,-0.006870736157121858],[0.003616551361778858,-0.023851728783473282],[-0.00893224824312621,-0.006267686138559772],[-0.0003030776786314682,-0.020955880262516945],[0.007109877223432917,-0.016846306753508046],[-0.00925166317211763,-0.02027248803554473],[0.003588667198307639,-0.03258077512101424],[-0.014672389750372512,-0.015776150792574106],[0.011431807398225533,-0.010689358171881335],[-0.013774819334699135,-0.007569205454678465],[-0.011665015313841402,-0.015824193002917108],[-0.005888884784427936,-0.016848861866404198],[-0.009737129698581167,-0.015606530517792403],[-0.0003390367250462693,-0.03137939715208882],[0.01648695249836308,-0.026444819981289877],[0.003362482015533628,-0.02688227683882431],[0.0003695785795617795,-0.017716473326471503],[-0.0063831182143385245,-0.011597059799962483],[-0.0018860493013202941,-0.012261468373470294],[-0.010023971224853007,-0.0007628880583830842],[-0.005972673187330425,-0.02004290013128632],[-0.008317858351307628,-0.01621707961000407],[-0.008846956501739011,0.0011894887849658842],[-0.012187867992807074,-0.00010196256117031398],[0.0020952043827793757,-0.021488794207436608],[0.016014457875279626,-0.010966405354779893],[-0.012017203522615323,-0.016551199805052492],[-0.010920188642392099,-0.018372104610628943],[-0.027766284754439853,-0.035278812995318494],[-0.00597337284327279,-0.007417690011447772],[-0.0051001609311620575,-0.0020648980704784667],[0.004300433562844874,-0.020537024870207563],[-0.015848392466916057,-0.007184453872756633],[0.0007991115319003682,-0.0038927599995530367],[-0.004444138777304152,0.0015626197131602426],[-0.00028101798709135445,-0.006417969343954148],[0.008528565802805544,-0.02367047249531189],[0.014240003713072673,-0.026756445977203905],[-0.0056911613377945685,-0.02136979586228039],[-0.014918530401920708,-0.016987450222357026],[-0.0028824991230516537,-0.03092059381636439],[-0.024379743020143792,-0.009083320208160758],[-0.010372564503376824,-0.012607950377350203],[-0.020080078409146385,-0.020545603729519798],[-0.022900163469444144,-0.0001353954314965973],[-0.004839250608959703,-0.023816559767294583],[-0.0018666047159310642,-0.015294086239985244],[-0.004324196964775688,-0.008478501758430925],[0.009221114070757885,-0.03246388270718471]],[[-0.0007892483530245513,0.007988483086661835],[-0.0067349122274189205,0.02441093771480816],[0.016235729897461717,0.018314325232420534],[0.0012917602563575791,0.008376770055143347],[0.01033224596468295,0.014363808964003856],[0.024079227690692054,0.015003143375464557],[-0.006832529458672176,-0.0019513320490321894],[0.01155516460008801,0.003383090567092034],[0.018739010327648336,0.021499550797740248],[0.02177494580358849,0.003938011038718393],[0.010070554961719715,0.006653017917136384],[0.015660485792215344,0.0006786233252717991],[0.013192027098661019,0.02721666200163176],[0.0297330842783951,0.0059336848485595775],[0.013771350390901304,0.00716234902633972],[0.03131480823372469,0.025637802654943614],[0.021574540553623872,0.00421022301569018],[0.02496810506263598,0.018092926921848856],[0.007491762593265595,0.01917509281760942],[0.003638584256751377,-0.0031210045837082754],[-0.000879412723249639,0.019749516413506342],[-0.00999774518624397,0.012836056725571563],[-0.005213073481044748,0.020350157440549334],[0.014247389068539293,0.00535162808510212],[0.028005829947062397,0.013085193906235486],[0.030155620802983427,-0.010114809671910217],[-0.002809423450582727,0.025759966789218627],[0.007469386036524512,0.021024135595994232],[0.015428469692178233,0.028629879282159588],[0.016174221222471523,0.003626772146883179],[0.007778955788713178,0.011908276987613181],[0.01508170686918466,0.0033130435218930152],[0.022984787501146044,0.013074018401087802],[0.021947670418908233,0.00932216196062166],[-0.00024110771641611627,0.019557575487380966],[0.006396912210106177,0.012388282820810021],[-0.005695336252045105,0.013085974320891524],[-0.0012304593238220054,0.019080753836264865],[0.004778630037872458,0.013167208176838313],[0.010628436245148002,0.014755005596838207],[0.009149544080312712,0.011325864211777855],[0.01721668346053779,0.01439777691003782],[0.026148584688816902,0.010905821282733659],[0.03798910600806545,0.0038295426860155825],[0.015282813378280542,0.009903492006739723],[0.0034551371681350333,0.016714589861405463],[0.019530839623393248,0.03424976955590741],[0.012906771303310308,0.016593861469143788],[0.031654924452828144,0.021288314112406927],[0.02923709794870286,0.010730678076384122],[0.006110327523171079,0.027660018034633103],[0.007044714413270821,0.01988440385743901],[0.002115373303076674,-0.00161793559730195],[0.005868841397022943,0.008181228529128034],[0.002955113107920108,0.004030249921658173],[0.008231229263437787,0.010340010968089995],[0.01678895054777479,-0.0026814151185291448],[0.0031916095233426407,-0.010985228551473833],[-0.0008003468739109625,0.018888257163619172]],[[-0.015235428767976981,0.006774055567289611],[-0.02097781365290886,0.0008591196498210838],[-0.028234930881691746,-0.0035027815932126083],[-0.005232338413949176,0.003962681445749872],[-0.012167780180581922,-0.01255086452525309],[-0.01116136390853772,0.013528902898550181],[-0.011663744236793451,0.0131754149869447],[-0.0212240028500231,0.012739845794540268],[-0.029388078175584986,-0.0024832575553982448],[-0.01174189729582616,0.014865475118160932],[-0.018382447215793858,0.009863584371000166],[-0.02431131444303674,0.012035033504693529],[-0.00955256424066505,0.005030759365508686],[-0.012344759710494126,-0.004285203199545715],[-0.00619224561897672,0.003840250897170845],[-0.02589447426465593,0.01309789597692331],[-0.032983974756425415,0.0027617455981531823],[-0.010287660645312925,0.017183449011811548],[-0.02152007652948241,0.013078367731453319],[-0.02511098816816515,-0.00711156611494564],[-0.03559953314183846,0.01686480305670759],[-0.019283895577080063,3.9145329092566266e-05],[-0.01699134642559392,0.0030691277792957135],[-0.014665634648418283,0.005474302821190712],[-0.032076560032727096,0.020288604007496762],[-0.015606040748649953,0.04587207428082764],[-0.026523808729825297,0.002005332255192177],[-0.013428650689936983,-0.0011771657389773905],[-0.023944024392399926,-0.007708116680240657],[-0.012326065231899259,0.005826481970110236],[-0.006765589877089229,0.006967969426190521],[-0.022792830842580828,0.01298045534642711],[-0.03751306184160774,0.024920711529900507],[-0.014886001879111762,0.012285490405870613],[-0.01705829502801508,0.009881492754230026],[-0.02360615149535417,-0.0024822292315700286],[-0.0044738662182923945,0.00879665446413202],[-0.009093382653880868,-0.013207437106413302],[-0.016890963745563432,0.002959762042336263],[-0.01750082094344942,-0.007985304994719845],[-0.021625102990672957,0.01108910489613837],[-0.024233263079933818,0.018501302252872925],[-0.014600352566912937,0.01184539915925531],[-0.015443589011521784,0.024979437100646703],[-0.01024919285644857,-0.004248160559624492],[-0.003445637398162833,0.027647884968676095],[-0.005577155331886934,0.010317614143551802],[-0.01221620778509061,0.012545594311191639],[-0.031101694846728707,0.007640017524541351],[-0.011316496008390681,0.007284778105084013],[-0.01967005225128037,0.0020211272618978374],[-0.025664208820186357,0.009048380749519951],[-0.01041452892317838,-0.002560144338364644],[-0.024922392284897607,0.0006662476424835534],[-0.03628468957914842,0.00911888620035593],[-0.019171142749774956,-0.00739392046800863],[-0.015057733480321234,-0.005393568843852665],[-0.017407565329705124,0.002633555214276118],[-0.025142520174142185,0.017809242352807935]],[[0.03981596987336889,-0.01690700213521173],[-0.004899909125077115,-0.03435858247485537],[0.015977324655190854,-0.032351679652301034],[0.005517196560746362,-0.02195074625318278],[-0.0016118498515579648,-0.029089251369814082],[0.02056091991986488,-0.007101030265777086],[0.02109707896102617,-0.011970182334591864],[0.00958770903314733,0.0011845296344189505],[0.016224898764326628,0.0006089259224975424],[0.011895336449341851,-0.012774738292948836],[0.026405254469510957,-0.011137003264224446],[0.003937783390539242,-0.01182425250633902],[0.003079379337151548,-0.01911889543717761],[-0.0051959953780206306,-0.023078729788097496],[0.012229728596969582,-0.025467679378926005],[-0.0013277405887710376,-0.014768579704438603],[0.012449467868894028,-0.004660995488031576],[0.020137032510853702,-0.008259864338752402],[0.006747860870008824,-0.01649191616017318],[0.012300232106874991,-0.02361648094179346],[0.023482497700532207,-0.022952583157047957],[-0.005181587931526816,-0.017813402315512494],[0.005972129779439087,-0.02212340015165379],[0.010229511010384551,-0.009026367695314699],[0.025458354661592558,-0.01615875289855938],[0.012154969707111192,-0.024127500864909376],[0.006835114420159235,0.00313189437061481],[0.004423471654103135,-0.0151111650591893],[0.008137106545645272,-0.008393990508162006],[0.017363055696499333,-0.004145622239856685],[0.026715850485577477,-0.013297859271832323],[0.02212103750416469,-0.026997804926028525],[0.009164125116958717,-0.026798677348190206],[0.013864084339313184,-0.003203101283512848],[-0.001188929901918164,-0.02628907204853826],[0.024746668845434885,-0.026632133697734036],[0.005155928831251338,0.008280668879721865],[0.006482193816578462,-0.010430537448226284],[0.02999503002972697,-0.0019480583304883898],[0.007808011426502021,-0.006992091821454644],[0.038387457160638475,-0.027552020940222077],[0.030224084069519968,-0.023177360576114133],[0.02940192113871784,-0.018744229697285928],[0.029222734503786135,-0.014705806916196263],[0.0255068386894902,-0.013167687132797408],[0.025331563638523732,-0.031208927774845362],[0.01609185944048957,-0.022702719651854355],[0.012913599715805813,-0.005641294187572218],[0.011310950358476193,-0.020401721818243884],[0.029330127631629663,-0.012930457213942058],[0.024868253857246905,-0.0034904517586724863],[0.008212974237611866,-0.01498271211685398],[0.02781498880789781,-0.03044657637599152],[0.0217979707576671,-0.012992446997592179],[0.01458708439365944,-0.027096186604537196],[0.013057880073818603,-0.023110757774245483],[0.009831283782530823,-0.010803426956017492],[-0.006329912324788659,-0.01169091325587328],[0.021689175240326066,-0.020784092167270223]],[[0.008767005523347731,0.027243817815416023],[-0.015212120409420906,-0.002437583347106804],[-0.014966060542603335,0.003252367311870517],[-0.003411983484642985,0.018593728638935356],[-0.01328887523820996,-0.0011711513576530032],[0.0023603875864130182,0.009769066916319291],[-0.011853116088047054,0.029506348158250182],[-0.0017269665544500567,-0.007740202867135772],[-0.026547468604322992,-0.007765967145379264],[-0.025623351474618507,-0.0009280189449096666],[-0.0140240006297258,0.009478139770673053],[-0.027635791800795027,0.0020737758933365084],[-0.01900432062545663,0.011562265326209341],[-0.021329646790382042,-0.013946363522656617],[-0.024176676471444957,0.017744706535513067],[-0.003489486476564581,-0.016524821838631173],[-0.012229296557263491,0.005808787349092728],[-0.025834154020209874,-0.0022642534697228925],[-0.03079416428505117,-0.00047688484249682524],[-0.02376483439099193,0.00655249186068435],[-0.0018795580975504143,0.006361155530442429],[-0.0297937808973548,0.012968162054181972],[-0.018809336615262375,0.008794400509453692],[-0.02273005732175896,0.021761692814864064],[-0.019954118812107853,0.011787684473502324],[-0.02482455295084076,0.010711859148281225],[-0.01615371145075386,-0.006602718629968357],[-0.011184188063365448,0.005486203669436398],[-0.033751574083527476,-0.0022312141033919404],[-0.03244540125931518,0.01580656811584525],[-0.01152277366050405,-0.00047944205180615014],[-0.006920961612817213,0.0019443057292034386],[-0.010459514757729863,-0.001012178369029672],[-0.028896740443525824,0.0010771892521441184],[-0.010124514756337848,0.0025809085715574887],[0.005530281266270068,0.004464811595422065],[-0.027685913284977114,0.014869451475809349],[-0.008489116070468209,0.015251204552655898],[-0.029900654198330785,0.01757971581063826],[-0.02299157848441307,0.004810998982939201],[-0.008027998485004345,0.009480155794256507],[-0.004311932073915781,0.0051918041542130455],[-0.033925250625337994,0.01332880337363455],[-0.015733432908879817,0.004029256012014982],[-0.019632972324785166,0.019031081669745577],[-0.00926424101986648,-0.0008609308425164057],[-0.021193015845821474,0.02342046583845568],[-0.018764886192480484,-0.009906985229790149],[0.0008455090397960514,-0.0024106046898980985],[-0.008994941557109674,0.0142843886737321],[-0.0123262019037632,0.004815626623868083],[-0.036573687504144234,0.008965624315870358],[-0.013977650906454062,-4.993572422517362e-05],[-0.024440677963357565,0.0031161033508658653],[-0.01093307801616795,0.012516095018300052],[-0.026885028419094997,0.012941662348078324],[-0.022573495952805923,0.015437940859740467],[-0.025109548177114905,0.0034773346414585663],[-0.02220757019132708,0.0045414099601829554]]]},{"Name":"Tanh","Size":59},{"Name":"Tanh","Size":59},{"Inputs":59,"Name":"Sum","Outputs":1}],"Name":"FFNN"}