{"Layers":[{"Bias":[[-0.008706594902189405,0.0062664164962282385],[-0.0009718533176499716,0.0050228080844364744],[0.013265498512828617,0.012287211711459044],[-0.0009686068361511132,-0.03686609815766105],[-0.0008093431070316708,-0.012293973521885672],[-0.016867513138267724,0.003828041673452962],[0.0008326812633344382,-0.005366830121856838],[-0.0032701526137299737,0.011986847288082303],[-0.005061179488169877,0.021675369024549678],[0.009257749997529359,0.010887414085955558],[0.026759695745341823,0.017739797463306187],[-0.015755609813304497,-0.0017907493096906723],[0.008984257950612994,0.010217093664100873],[0.00756729258790797,0.017383308611110877]],"Inputs":12,"Name":"FullyConnected","Outputs":14,"UseBias":true,"Weight":[[[-0.015659520889357927,-0.029762790741973827],[-0.010252215514314024,-0.03945171840649232],[-0.02968445633662087,-0.04481016925541757],[0.0008000986264000285,-0.04806118089967029],[-0.034678682591030865,-0.04420104424520979],[-0.012902086691281718,-0.038377467615326066],[-0.02849198482999404,-0.046508683751887284],[-0.002471113229906573,-0.020056952688189484],[-0.019975370589413493,-0.04462903906944636],[-0.02727093209559134,-0.05167717968787221],[-0.014222310129863995,-0.03932253119925066],[-0.028533391407174816,-0.043552615277356654],[-0.024892414978704917,-0.03950538505644999],[-0.03191522617852059,-0.04325752799839784]],[[0.03042941394470659,0.017499777795529796],[0.03705602300587017,0.030233963193733157],[0.037065586959673665,0.023665107530257808],[0.023851664170793752,0.026416192998071478],[0.018543557233115356,0.03411016239264037],[0.008989666923515964,0.037107500952074164],[0.031289524684146794,0.007715357035504462],[0.02350314170726161,0.026851460909196365],[0.03513172158525348,0.019304311570573864],[0.02671242089223753,0.029523326690474173],[0.027288081684631184,0.01596344505323494],[0.03037818721348179,0.03915136011778512],[0.03591993686531323,0.02228698037331154],[0.01608837091888845,0.014910437068491746]],[[-0.0003787555554202502,0.017486156991092572],[0.0009571570102709044,0.018012456229150233],[-0.0034443073488327315,0.026600531683594542],[-0.0123413908681596,0.012394605151845735],[-0.022488605411709967,0.0240349775753028],[-0.01826816416651365,0.0135948819747361],[-0.011912292359484971,0.01728714885258995],[-0.009287418460956941,0.006026026901017149],[-0.0005378512964747055,0.032771906655197365],[-0.029015890834786826,0.022793439262976525],[-0.018083987538101483,0.025551721063164962],[-0.022678780350359723,0.011528917621974723],[-0.011723525643983008,0.019318555955596672],[-0.0003935960190025741,0.019252097719688773]],[[-0.006672674547628299,-0.011368179704833095],[-0.03131769920479073,-0.01709735863777435],[-0.02322401522753124,0.00040722232946780476],[-0.0017016541658425176,-0.03748660183625591],[-0.03676421088078836,-0.02132947239059707],[-0.04152297126400864,-0.03726475522636031],[-0.02794416756915293,-0.030490584875372383],[-0.023868776082827194,-0.012022473878596824],[-0.039013171924121126,-0.017068072072242566],[-0.04272142201845344,-0.03141445716761091],[-0.02793532660211248,-0.0016724576177606413],[-0.006502587963490304,-0.009859342864742113],[-0.00941910475445018,-0.0269405474390735],[-0.01162082095237932,-0.02024370128317509]],[[0.030019435319431655,-0.01607228272127651],[0.026822504455791468,-0.022548618094992503],[0.034362025675426976,-0.011888173455352419],[0.0313435985032357,-0.017880190104324716],[0.030319872657036267,-0.015737093876809504],[0.030618199548131903,-0.021891356977110213],[0.04361124047747742,-0.013143417419305359],[0.024806220867500978,-0.008610172438733119],[0.04336482294320908,-1.3981640726376497e-05],[0.03383927196909292,-0.009108286966990752],[0.044058221023958635,-0.026690108935333384],[0.026030013779644482,-0.01293785890921456],[0.035328891799067785,-0.0244869259570445],[0.03627485876679003,-0.024116995024071733]],[[-0.01996159856957173,-0.02256328446132261],[-0.019187098948047876,0.014803920803187178],[-0.019749751344367655,-0.031189075486784956],[-0.016628623341212276,-0.011956048746118312],[0.006933229016568338,-0.025408918596551363],[-0.027828988098040495,-0.04507229145869079],[-0.009316952561967864,-0.005647820515926646],[-0.021411073809915294,-0.00210433926227959],[-0.007271987718564281,-0.019967888745545996],[-0.011999597117382538,-0.020207942463623146],[-0.022604622297235453,-0.013851657732630872],[-0.004777684187210041,-0.030750191052972834],[-0.016891688596355016,-0.027445528176042802],[-0.015651331777096898,-0.03453652242047497]],[[0.021534008356607248,0.03802314079192799],[0.03116525813412314,0.02024747133160928],[0.0339489494013274,0.03404502912250966],[0.03296129641961957,0.032682072658684544],[0.049191949285625855,0.05359385739879645],[0.009377808956777584,0.025430079610644366],[0.022163332442446983,0.04820586924392557],[0.014908198951560743,0.03377763762501346],[0.028653130866794833,0.03795043259626192],[0.02878640598128009,0.05712290365889511],[0.04540039133789259,0.0361854048065421],[0.03804844345580699,0.04479444070033438],[0.031226654850103355,0.04006395268387686],[0.015856445208066443,0.03652672561182463]],[[-0.038951298749309214,0.01488597421839621],[-0.027591555884916973,0.0034966278321043316],[-0.012000008847297045,-0.005636359331204113],[-0.016117520134193777,-0.009901730308742746],[-0.03290278448844142,0.003761442701221243],[-0.012238886583755267,0.0005249016453789255],[-0.031645143940144504,-0.01089926026327779],[-0.025213031279613284,-0.0027673493478583655],[-0.016372524506543144,0.0026926176406654114],[-0.03414000215809138,-0.002289602938734789],[-0.03598996545739679,-0.003656958907571331],[-0.02547687696404394,-0.022113865573989654],[-0.025679631316780988,-0.01038772203691964],[-0.033201248664229535,-0.0020592221902877923]],[[0.03198086619083007,-0.038400585163314294],[0.030133675585433402,-0.029283030438989315],[0.020159662336748114,-0.018736870582264902],[0.01842742721579592,-0.03225685314003956],[0.0372941279740306,-0.023442555514109443],[0.030882906136436676,-0.049409305936045644],[0.03847026871426268,-0.02868344841229548],[0.037862538913171984,-0.052540815875425674],[0.052872562872051665,-0.0274873343048983],[0.03346751491837971,-0.03249668638102592],[0.049107808062649846,-0.03780517200558279],[0.04266009612826052,-0.04945342148091536],[0.031523435505754704,-0.030141544141425693],[0.02322976902733084,-0.03476737968648609]],[[-0.03135621248554527,0.0436072374729979],[-0.02294503002026319,0.03698894076291274],[-0.03421351097689386,0.02591586198764189],[-0.033295599178414695,0.021107940151957473],[-0.043162043511761256,0.04906133068494407],[-0.041535586442596695,0.03627394550443249],[-0.037501497578477566,0.024669153456502474],[-0.04154917549634406,0.01412761048764523],[-0.0224250505034514,0.047534059869790396],[-0.021216956279086287,0.03525938006327677],[-0.013051501969037389,0.025479762388980653],[-0.016941172627563155,0.0199132500490958],[-0.013766834958439972,0.03206079227722461],[-0.03468540555111217,0.033281326917789573]],[[0.01831827331211462,-0.03315715976958714],[0.019805208675177315,-0.026273951395540292],[0.031295117950156374,-0.025659714155456606],[0.03205638727568624,-0.049374532173927115],[0.03669907132391484,-0.04878708686142754],[0.04458921976285286,-0.03985486109362125],[0.039541275310085326,-0.03391884519490765],[0.03201733487315629,-0.03626229292998556],[0.013217937270183784,-0.026561400501317688],[0.024281745588639544,-0.03151716973980297],[0.0313208212670498,-0.033367188072762476],[0.0325374203266675,-0.023039306278892908],[0.031181355016829088,-0.025630837744185064],[0.041335044967294364,-0.05394155743740742]],[[-0.012366873527297043,0.04090650113157192],[0.0026650407304101417,0.04897245954803188],[-0.014937573548208207,0.0264834800483828],[-0.02632038900416378,0.04254932642979151],[-0.013453474189707654,0.02480516373348957],[-0.00785304524404139,0.03901564666692692],[-0.01998955208720704,0.025570595791061187],[-0.00837087310567561,0.03163236714426957],[-0.011495967363613906,0.03180376557687014],[-0.00931423745610496,0.03222741722026428],[-0.005883397564332624,0.04190110696388136],[-0.013345871144695919,0.03497809915466896],[-0.031227758290616688,0.0418539122357781],[-0.026848651260666163,0.02825553691586114]]]},{"Inputs":14,"Name":"Sum","Outputs":1}],"Name":"FFNN"}