{"Layers":[{"Bias":[[-0.008706594902189405,0.0062664164962282385],[-0.0009718533176499716,0.0050228080844364744],[0.013265498512828617,0.012287211711459044],[-0.0009686068361511132,-0.03686609815766105],[-0.0008093431070316708,-0.012293973521885672],[-0.016867513138267724,0.003828041673452962],[0.0008326812633344382,-0.005366830121856838],[-0.0032701526137299737,0.011986847288082303],[-0.005061179488169877,0.021675369024549678],[0.009257749997529359,0.010887414085955558],[0.026759695745341823,0.017739797463306187],[-0.015755609813304497,-0.0017907493096906723],[0.008984257950612994,0.010217093664100873],[0.00756729258790797,0.017383308611110877],[0.0007221262780939194,0.004988152865290706],[0.0034711571270415755,-0.00860980456073884],[0.013449034663726716,-0.0029937530504415737],[0.018093557926696483,0.004849755885665939],[0.0016138303777685295,-0.001546015564185926],[-3.610618843004042e-06,-0.0009538451853580373],[-0.0015704788013173729,0.005762643945269465],[-0.014591476723308483,0.018646482018222037],[-0.0012539261536140705,-0.006182897054282314],[-0.0037471097523986098,0.013857972425183916],[-0.009566525389068655,-0.002722430759851943],[0.0005191122560488053,0.006564117983717891],[0.006129431653137826,-0.004700774799227799],[0.010097766188205157,0.0041243808374645296],[0.014784947229417873,-0.00246745381238391],[-0.006551466730465954,-0.0008794230472753088],[-0.0015831004858716526,-0.008022350937901905],[0.0007708890026808506,0.03641336007915175],[0.008060770976198527,-0.012013025515049245],[-0.0032317338589162277,0.007257135631930159],[-0.0031011167590107407,0.0029346576700426713],[0.004664072712883466,0.007239675715098748],[-0.008079590026005954,0.004160777614194906],[0.01555102651375599,0.014630076400177857],[-0.01330280916916902,-0.010059225648153062],[0.010107330142008649,-0.0024444748260108225],[0.010383482870314239,0.006120621642060392],[0.0015422172467935377,0.01662515791996684],[0.005956420733763842,0.002638093701738165],[0.00020823660636106885,-0.009579636210820376],[0.01084446224340279,0.0017845322758511296],[0.012359813178703685,-0.001875851531378285],[-0.013075130007696034,0.013480817526767086],[-0.006604408243747199,-0.003833403060172096],[0.003410319248973115,0.004775014854278591],[-0.0020515877648623598,-0.007858903099471225],[0.01718174579385188,-0.013310237292405781],[-0.0031065926468712697,0.0003066106418028527],[0.0014863993509873674,-0.008085304889688406],[0.02306457830848227,-0.02126866624575688],[0.0029379935615725717,-0.0033539229472341297],[0.003329364609516453,0.009653390529846272],[0.009856809261694958,0.0004215758120260146],[0.008242301891806952,-0.006141222508916918],[-0.014807365128648227,-3.916503100757527e-05],[-0.005686496445268033,-0.00864132489585651],[0.004171588574502981,-0.01893980316419192],[-0.013434403220817933,0.008206943281937489],[-0.018297035423579022,-0.009450100637945274],[-0.00841469958454966,0.008000580036371746]],"Inputs":14,"Name":"FullyConnected","Outputs":64,"UseBias":true,"Weight":[[[-0.010249817020729845,0.01524926762687646],[0.0006235927783019164,0.004329110273088174],[-0.0025301565436444966,0.02763957249037482],[0.0030387447405609853,-0.00862892767328588],[-0.01625586325916635,0.015567528601525308],[0.000570335209420993,0.0071226125011216515],[-0.010439991959379608,0.0027432076735483717],[0.005334285029237804,0.0017335412931538893],[-0.008837043778025027,0.015960428858273888],[-0.01357763195265658,0.004942906380626305],[0.007810006079811151,0.009442547349775007],[0.012226805230835266,-0.009082736300263856],[0.009416545961897463,0.002611910123422893],[-0.006697535543547853,0.016871966209652194],[0.0006729152802907211,0.004772267493842403],[-0.0025611408042384882,0.009378900658575724],[-0.0028495213562718144,0.01624619364648451],[0.0028654429523516677,0.023094712969663145],[-0.0002248407122431353,0.04871252206258311],[-0.0027626520664080427,0.013290315783039276],[0.00019700513824730912,0.014547754401149238],[-0.016651239876895284,0.022707906011542947],[0.00514475260177748,0.008604618986885172],[-0.022558931581189587,0.028088831577829432],[-0.02294582785119414,0.009795419729295499],[0.01846527763080152,0.015275251806477968],[-0.011665064367392694,0.02239706237779651],[-0.00522071114201973,0.006076783557264185],[-0.0023633127222588376,-0.0039551236031921235],[-0.01003123986176384,0.006330156893012688],[-0.013557709289286459,0.019649498711702143],[6.884686312632346e-05,0.008847775666260792],[-0.0013130860977085845,0.001794746325919001],[0.009305568934939674,0.013622681928510488],[0.0005229000385241765,0.027512935335104877],[-0.012220836245971289,0.009211360687597713],[0.00324269094127918,0.012705956541713415],[-0.006170673950506001,0.0028076423207068707],[-0.009921288721836863,0.004598585832879755],[-0.012551013622973471,0.0012845122381990848],[0.0006576739099961076,0.010691257970315553],[-0.00897741761546676,0.010754023362030529],[-0.001319962560929438,0.006372560318966098],[-0.009177321681042202,0.03867759628984382],[0.003781211644366361,0.006798372225326343],[-0.006382055850757482,0.019389849549153806],[0.00013234298705858778,0.027851582987043128],[0.0022874398414522382,0.023457900479226225],[0.0041063233007396045,0.005585495642035157],[0.0010430810710368547,0.0047456704092861245],[-3.154551584482563e-05,0.021707913608589383],[0.00037436695648298776,0.0030615672744565264],[-0.0011316082446698257,0.008101681565741491],[0.01320883301340734,0.013882578898163304],[-0.003708949759211357,0.014207904329100692],[-0.019679151353896772,-0.008022200733712018],[-0.009264922962295948,0.009250621716992456],[-0.010793024044880839,0.015280058299037075],[0.01009798970984844,0.01431743343294637],[0.00422784400510549,0.015068146748223685],[-0.004788475336840772,0.013487353474938124],[0.0026306290880667,0.020108964481082736],[0.004499854270664677,0.017151506610631098],[-0.006126806026950859,0.012247471494777923]],[[-0.0009084752761792193,-0.019877501032928825],[0.003218502982972606,-0.038228816415556977],[0.0038041812161406026,-0.02190471669628276],[-0.002850569632913024,-0.030387618792999553],[0.012479521550016312,-0.01730458180381468],[0.011419327997250539,-0.02491210153586449],[0.029353147641118845,-0.008407371507073881],[0.014155802484658085,-0.020602053132909016],[0.0022480764920555767,-0.013064678623292768],[0.012564062627042741,-0.012950274631213806],[0.013661519624482985,-0.020956014331357735],[-0.005665843739038312,-0.009060684960317658],[0.014585482636397196,-0.021133830036584707],[0.005860651525856802,-0.017647266654504692],[0.004164858422390356,-0.01705472384497403],[-0.010238337870223529,-0.015258838275807375],[-0.0015701892280701676,-0.02589880015706298],[0.015198360725343587,-0.0040609840126195835],[0.010432061699623824,-0.024466608529199074],[0.012593531175475218,-0.006628995347180027],[0.01514396662928376,0.0002615614529202696],[0.009487113151423072,-0.019044260457283628],[0.0008502187162245187,0.0056122059779526974],[0.00858022762218738,-0.027886868482360265],[0.010888588067580357,-0.00603318236587039],[0.006228230096844002,-0.01602182901057111],[0.010091251082054688,-0.0017549328793594857],[0.0030695297748194825,-0.021778367646753796],[0.006409125718859098,-0.008427935284425299],[0.022783294012743597,-0.014678969795516228],[0.025724294901372055,-0.016594508908961976],[0.011804801977947236,-0.014680235084303732],[0.031055614274240525,-0.0173085523546917],[0.014910358542151602,-0.023404097682382358],[-0.0129167220686408,-0.016558057775068226],[0.029231667491222333,-0.01725875148940276],[0.007759200122618559,-0.025069057432156414],[0.003917887764669984,-0.0034300699195909676],[0.020563275437350956,-0.014280834585041289],[0.010963114238493358,-0.010423663155121565],[0.01662171157848355,-0.031016990838811563],[0.018189964487867187,-0.011861704096387957],[0.016730635218559758,-0.019073200427531106],[0.024829098128977035,-0.00928656454493586],[0.01868361648542736,-0.010411433795259667],[-0.000833634388555287,-0.023992703475252147],[0.014098884202464362,-0.01031570974153317],[0.008397408211789937,-0.0020807426669443357],[0.022961907129950415,-0.024109205050024306],[0.014181581664849598,-0.007867983531570172],[-0.0013028743674702973,-0.02245550745282511],[0.01979370354043147,-0.018831293198235455],[0.014913511170105453,-0.004727383061512655],[0.0006550530420734671,-0.016896048178675047],[0.020019855966254253,-0.025623689558526494],[0.0045154630786439776,-0.00817610533384898],[0.021304263500633084,0.010589583132285148],[0.007202687283883587,-0.02602431344889001],[0.018886165615302136,-0.00826134428039757],[0.01747305877275485,-0.01622933818813715],[0.013457776788493627,-0.016194272009002923],[0.00947774617026864,-0.013191412067454859],[0.007233814984872212,-0.010556767460410434],[0.027178393754711157,-0.005003171524612334]],[[-0.009343284609625387,0.010721171372349174],[-0.024984230526145578,0.00510158085605394],[-0.006022075955179985,0.015466237788804606],[-0.007125016153025492,0.006104434171817732],[-0.02214683725313803,-0.004994237988539577],[-0.015513749643953034,0.017003809113698927],[-0.013633143487017161,0.013520406339944124],[-0.0031353846328197807,0.01973545392928643],[-0.02126257564211185,0.009382306514613983],[-0.023065287129681065,0.017214115922697882],[-0.00048277246170793845,0.007736195343669915],[0.005714045395471175,0.01813071372029469],[-0.022209051263577088,0.01096624430569813],[-0.024648725611342792,0.006461881596433518],[-0.012260521170709901,0.019239531439089696],[-0.013432596604227456,0.004246320998740323],[0.0022723075388635253,0.007294230194613962],[0.009214943520357443,0.0002942674664917034],[-0.018116371170267594,0.015277878716214392],[-0.008774093065867171,0.02055949939148795],[-0.018839802100365215,-0.003303494411103494],[-0.004832935492819628,0.011540973278272307],[-0.015098697307859791,0.010787199166215195],[-0.004166727076637255,0.0037108932208776146],[0.003939875687955609,0.01758011186734839],[-0.01810168313706597,0.0017744149506442452],[-0.015566077758102325,0.02460254781194448],[-0.033672750672535195,-0.008524500447120078],[-0.017010819967491195,0.012677544675071189],[0.004822931643956752,0.025373880375977903],[-0.009664025491725955,0.015576931398961557],[-0.024420660267963166,0.006097883484406084],[-0.007337260697440641,0.019962783333442386],[-0.015269606651057989,0.029053977037983885],[-0.01619116927671452,0.0023764031899400962],[-0.006111115638498474,0.011194445476027708],[-0.012394789680748966,0.010886830794569913],[-0.01640622149485707,0.014274692037748723],[-0.018345942296817467,0.010118269448525816],[-0.013371791562307023,0.024041985552139992],[-0.009264418664248906,-0.00141886668682324],[0.005497940392009807,0.017950187242998593],[-0.012504379087250262,0.00836435008727704],[-0.01985262374851653,0.014795867383363252],[-0.015374186278235731,0.023909373335241155],[-0.009247493461382952,-0.001588381124419899],[-0.022040307942047657,0.010592390907339572],[-0.0268160334701907,-0.009770676449460787],[-0.009361830509840656,0.009821676266683878],[-0.011407327126572865,0.006021286113566685],[-0.00788362762866917,0.016536440986034052],[-0.014900507048008639,0.015265384992744414],[-0.02770992087974597,0.026226353869504088],[-0.025366681598073468,0.019222105881263257],[-0.007423926489265744,0.0360970089006769],[-0.016546615011625996,0.020241296890907125],[-0.008328778088644545,0.01685805536479463],[-0.007755728577819925,-0.009257537730500764],[-0.011606373759000478,0.012065104237006099],[-0.010540826841321864,0.009401345524092157],[-0.019521066273466493,0.0261955479641249],[-0.017657885900995263,0.01667541191937191],[-0.020156582108671876,-0.0019035195478889293],[-0.01191669354876558,0.02248149077670346]],[[0.03813928999978046,-0.015255204261325728],[0.023369008474728864,-0.007170315495534198],[0.0013556781871524976,-0.016535836532050464],[0.015763185710153647,-0.014165740944323395],[0.01100223710705591,-0.008041980606533406],[0.008078978904695697,0.003089753031999442],[0.026428376796002098,-0.020596476717747215],[0.00992826374170315,-0.01808293917783277],[0.004171770214517886,-0.007923663070763363],[0.009070258245578977,-0.023354604142491315],[0.010738019300103145,-0.023083016155051147],[0.0014898257195346094,-0.01939935938395107],[0.024792034398354354,-0.006765584732362099],[-0.008632374288810613,0.016233963454760622],[0.017904814013865063,-0.010417333420130324],[-0.0067942835229724205,-0.015790107611591064],[0.02168711688335523,-0.015596859369100121],[0.027505695680496392,-0.011888898790117227],[0.010402715016859127,-0.0015939320763296947],[0.032305978803266765,-0.023984647834487918],[0.0073849705318661946,-0.006512390059513712],[-0.008604948166800304,-0.004583291690128638],[0.014798878603646785,-0.021336521224575408],[0.013790449355944827,-0.016892419063807913],[0.0014137795066891114,-0.009728070493360694],[0.023530746260067327,-0.0247228961474365],[0.01059648938657743,-0.013669738764492071],[0.004917326731324046,-0.01164840889654417],[0.014755596385069673,-0.03110381126301757],[0.009251941712902723,-0.008667724386416664],[0.028788819273084486,-0.016344676753044657],[0.004536575807620829,-0.005180759785907188],[0.003613530999705177,-0.008277483904574534],[0.011498491129405108,-0.005250962814308552],[0.003986480549973071,-0.009608424719867644],[0.028055538918664667,-0.010626863124035844],[0.02333980387807842,-0.03339410470037529],[0.0018423049516622845,-0.026286345193126448],[0.012625783707430949,-0.00490763012696181],[0.010827758824769388,-0.004752801480442607],[0.00831820914984605,-0.00866211915251211],[0.008697332866935614,-0.02174375531544341],[0.021569019764206256,-0.007981248447438409],[0.016917389167184282,-0.022350852533737506],[0.013548363902461006,-0.0070239180594799935],[0.012637374026972585,-0.01319686712447692],[0.006218598595284295,-0.0245556242336069],[0.003881278931010888,-0.021468360892799476],[0.020269148724922297,-0.024951512055498185],[0.009234816309386312,-0.030676254666528888],[0.008516137545761648,-0.011935045481401249],[0.009586957522778194,0.016280210543598645],[-0.006524104255914879,-0.017338575068064917],[-0.013935908748717979,-0.01889769107639522],[0.027167356367944758,-0.008347676910681917],[0.020478681344236305,-0.009059527604757915],[-0.0017782162798402926,-0.007057520376347197],[0.01462114791390836,-0.027614647992698197],[-0.001674368148063443,-0.014895159586171044],[0.011961213644499005,-0.001259506640439246],[0.00868072614235789,0.007586564156394731],[0.01419903448011459,0.0019305951825717834],[0.008284603571724999,-0.00935234348752417],[0.006174041185645513,-0.01767929482127729]],[[0.024398347519267033,0.035311994193584634],[-0.0040410008164416455,-0.003212984185566881],[0.009967362000467873,0.010494517456274324],[-0.005282838030395815,0.00410053817926491],[-0.016877215224074028,0.016292162862889162],[0.013963501473861325,0.0018147918632039788],[0.013254841689448193,0.026512577495122615],[-0.0034004714471236146,0.01605477760905307],[0.011761131657676921,-0.00952819478622546],[0.002295087212142657,0.007461430904526721],[-0.008448235075649301,0.026474232610962115],[-0.004214855335001747,0.01007267338941728],[0.004497454499095819,0.023621672178499132],[-0.009651595023659552,0.009448964781062953],[-0.008767715794035433,0.013000819154193006],[-0.013893144460794322,0.022808926004480302],[0.012347768373464024,0.027889914616683983],[-0.01713707429086526,0.02614800891707234],[0.0030628618191155827,0.025418989016361717],[-0.003895798788104413,0.01695575964277158],[-0.018310265780118212,0.007760489476773074],[-0.013156025978529481,0.025137389548389608],[-0.007665347226907247,0.0191007516659317],[-0.022408537008740598,0.02798712990342941],[0.004787416677611675,0.007236390570581439],[0.021223778346748788,0.013396551274283283],[-0.024800781711825554,0.01706679979038443],[-0.002039567070503771,0.00894714848963502],[-0.007005091957409114,0.008826683938190775],[0.0069728181667018385,0.00818699527045264],[-0.018304109816599565,0.02124782215157719],[-0.008380427297851073,0.004868204360355781],[0.01130005992644721,0.03364828391047947],[-0.001853680556908806,0.004052287084984845],[-0.0033539769603005195,0.007587310679990215],[0.006483971937725847,0.02309306491046481],[0.0018796364786201729,0.0002090852667810339],[0.004790053669891068,0.003458383975226425],[0.008819234637896174,0.01329253956871285],[-0.00216383569914215,0.004884250014279414],[-0.006720180468273131,0.02423226672227465],[-0.027856144824188953,-0.0034989703920741285],[0.01334485164685464,0.014764009666526495],[-0.00872171503395587,0.01598645259815805],[-0.006804238587874779,0.019392462382833143],[-0.019632200222052913,0.010262355903926506],[-0.01815188391842281,-0.0021432286038349014],[-0.005519184464466388,0.016023829988721462],[-0.03417252103510272,0.0031043476164485675],[0.015249739931283039,0.011403341626371584],[-0.018741417713732826,-0.0064755166931709796],[-0.00037462330362942773,0.012749227942104974],[-0.006710420279575786,0.017317406654226607],[-0.008840247533855225,0.024970158290084424],[0.013777258268454173,0.01135239442599574],[0.007505590565222496,0.01371426946759263],[-0.015331825026325211,0.03235862549721726],[0.005430680830411492,0.012018068649706698],[0.010979320447749756,0.011956366090239302],[-0.0003442349986008809,0.006766486093036395],[-0.008163858278228138,0.013442505572337872],[0.012895213505827919,0.02639359742198826],[0.0030426826483715514,0.011468325923066854],[0.005122956850186347,0.0032237798552341317]],[[-0.01475702428698193,-0.003078733560265007],[-0.020140545533991278,-0.0040760036046935694],[-0.013317628128402445,-0.019372471418104914],[0.001959402943047216,-0.017405954847006848],[-0.02416925136866991,-0.02579720563842395],[-0.008860696171047976,-0.002842902517978367],[-0.007331116762584457,-0.02895404183547589],[0.007628205950165436,-0.008289156831901453],[-0.020176727301861565,-0.016687530293304956],[0.012289634036204521,-0.018274243532947976],[-0.013475761228414235,-0.008501713090244487],[-0.009389327656151969,-0.023989292479149594],[0.0016588690582166718,-0.005574562250455463],[-0.0059653310055511185,-0.009248599795031388],[-0.018461683277942686,-0.004119185822144],[0.01350281214743395,-0.0006392905803808675],[0.003341627172878564,-0.008038939068765643],[0.007021846748236231,-0.012864256481396346],[-0.016416943977431313,-0.03180248363782926],[-0.009946954942224783,-0.0031781723316367237],[-0.007103103011341816,0.000356726329447864],[-0.0048222787983428295,-0.01595461293399854],[0.0034757971378842766,-0.024176999999552008],[-0.0180906666393002,0.005236607530333736],[-0.017513021584274292,-0.004459508200955593],[-0.008887478408871635,-0.01634550499726067],[-0.0201744693956337,-0.010878601518791685],[0.011387067409832625,0.0012110212967567243],[-0.012455599118673865,-0.015293760959906123],[-0.0003529637598132647,-0.009641439128594198],[-0.013231148158560697,-0.007103700119981064],[0.0009306784153074666,-0.015562121557227606],[0.00672448296682837,-0.028570637253290378],[-0.002710825627040948,0.015254241473871097],[0.013985064742602245,-0.002927453120918824],[-0.006593407063120709,-0.006509150065563531],[-0.00740297874069754,0.009187237257463296],[0.009218760808566262,-0.027782531004173355],[-0.011752540719069685,-0.006138118960270994],[-0.009312468251867568,-0.013738788628708826],[0.014159204389885952,-0.009767279122858909],[0.016591099774271045,-0.017913306319940474],[-0.0007638151810260449,-0.020526053346418358],[-0.018281063607359337,-0.004006983032827781],[-0.006108713370850787,-0.0038870223585399494],[-0.02252010067291016,-0.015796140972184996],[-0.005994569165300066,-0.016404593668234303],[0.004721608980548414,-0.005970818302200574],[0.005486382158326515,-0.01097728394075897],[-0.017084835583623545,-0.02267244272581067],[0.005998231172207514,-0.005749880700479128],[-0.01521258746400916,-0.0203842592210378],[-0.028231597087540528,-0.015775256197897287],[-0.01476572166977652,-0.017366281425398894],[-0.009521250575653593,-0.020712356180789617],[0.00307647636756483,-0.01542534350009006],[0.0023762263215551427,-0.009523454837255868],[0.012881578192739633,-0.004408031574982484],[-0.017199916250936344,-0.01239853236370509],[-0.006678835341486592,0.00010158436866698241],[-0.002103593217205271,-0.0030988826409736364],[-0.004733289695045636,-0.01594795248402639],[-0.014831370220303017,0.006424716414790759],[-0.0008068342749414742,-0.00652701244478439]],[[0.017395187732999404,0.023677204242105197],[0.03004027316508254,0.005481939563296578],[0.027246386040958217,0.029596062566257696],[0.026625791026085203,0.02719406826084587],[0.018769519130842738,0.020320051837282492],[0.035631756283380875,0.018826979607066228],[0.02276115588722932,-0.0023336617247007216],[0.016632408419058775,0.019705962912732786],[0.02701220801884271,0.006423663017957834],[0.01773437222778354,0.0029820390792853276],[0.0034699345575645627,0.019560632851026837],[0.02125148364566956,-0.003406781620966957],[0.0048579445176784065,0.008118681195146063],[0.006171156217710359,0.011013420437301946],[-0.005377560232994684,0.024114072446286043],[0.018034101640034352,0.018917953488953605],[0.017270774183664114,-0.0021445902349977956],[0.010815286493422945,0.020864676921859112],[0.022206225230655553,0.009386307725204093],[0.01688492743156014,0.006136844896752588],[0.002480553642158497,0.021093541721968773],[0.012066651383239396,0.00950206582633629],[0.024013271358334008,0.01114964684348085],[0.01867097997394783,0.030063450267444423],[0.012823022189826122,0.01690853678069721],[0.018335378930238497,0.008753762736388714],[0.007300579446196017,0.01110439365079376],[0.000582479009627857,0.02744111679580589],[0.01874800265750844,0.02175602034164829],[0.00573579813708594,0.025475469034886976],[0.02588939952121751,0.017212938753707604],[0.013209813914398903,0.031157786776677226],[0.02146893574632031,0.008803745042981079],[0.010339354151387302,0.022067735924754455],[-0.0009605508160494208,0.015030354865028914],[0.006356350249387847,0.018052399996918884],[-0.006880130028646937,0.021197834169093245],[0.017335443660179722,0.009371277912171115],[0.015935754592713992,0.005012181795757583],[0.010961330708622893,-0.00028393076454153463],[0.013868248820844744,0.0047118911756484335],[0.026835244494017804,-0.0033272594832277564],[0.02768474887441318,0.002303212896896748],[0.01599586666834441,0.020273060092836352],[0.021233639995766135,0.018700258384370796],[0.009512039469626915,0.016894595048848212],[0.017777872121729918,0.018335982829077],[0.012770013558192248,0.003569020816555931],[0.031947014033302495,0.010135970776432553],[0.034552257081425286,0.010507298828973177],[0.013452096571580155,0.016768330926792935],[0.011192842090170525,0.023858488120250734],[0.007368079218604594,0.040489376526530466],[0.021468343109051557,0.023946525526315484],[0.015843052353649818,0.012622873618488418],[0.026954992161075605,0.03161054226303276],[0.011832208049933108,0.002147494980913851],[0.025204147050024436,0.013087496792606644],[0.0003028636901500304,-0.0026444689564816934],[0.00489316011346976,0.007028229606272037],[0.00839528045119448,0.028037256532223376],[0.02201999303236976,0.01789763515564043],[0.008221199284649726,0.0245329610766591],[0.007321489547666482,0.002969880006276054]],[[-0.029075122177402296,0.018921776216212705],[-0.00848924085948325,0.004282974098155509],[-0.016977296509191123,0.00035158913201035157],[-0.027769120848584062,-0.0012404259026609107],[-0.005563790565441519,0.0010112073914240473],[-0.02515232483018377,-0.0002867405286628876],[-0.002854251293204206,-0.010226304419635566],[-0.03186395390605854,0.007121239667006688],[-0.0010769813930254285,0.01986815374111248],[-0.03133732100076703,-0.01011791413447236],[-0.015825170504960302,0.0036314516182029324],[-0.0033346247011625946,-0.00990096872126806],[-0.01088546910565537,-0.02087146877210633],[-0.022827053167031496,-0.003850898867320604],[-0.0026285515260736493,-0.01001903003173178],[-0.02938094894502658,-0.01227315626289792],[-0.010622053361095167,-0.008621731509997168],[-0.014141954243870089,0.005745349176038493],[-0.012200830178964476,-0.004579406035312725],[-0.021813602272616882,-0.0021954780654650876],[-0.012066088264933302,0.0002192658953446455],[-0.01700809875332492,-0.001904893644445537],[-0.008046409101647176,-0.014301524395160102],[-0.011129898905087941,-0.01268250453698217],[-0.027021933800620825,-0.013106903396266812],[-0.029700560972097233,-0.0022866314415541417],[-0.026027599212326866,0.005335466968186477],[-0.009480632253669666,0.001927389958604572],[-0.017210941025039395,0.0053833232477015725],[0.004283295781298125,-0.009995340837709017],[-0.004958732206304136,-0.0011669534364214715],[-0.009489635333502887,-0.0036819670857837403],[-0.008752747966375936,-0.004610308712590136],[-0.01537961908871546,-0.007809283505878618],[-0.014647402496831512,-0.007659339600440741],[-0.006226175239895805,-0.0024666398838162564],[-0.017774036675112345,0.006495027217205456],[-0.020440025531859973,0.006302560576424403],[-0.030343118346327615,-0.0024217762112145936],[-0.012944141732993672,-0.009993945279803159],[-0.011844759187171977,0.015012785897220103],[-0.02552391409201444,0.004474579428025787],[-0.01580221601190387,-0.0025073502055412288],[-0.005564153978801636,-0.012154057450070243],[0.0007301908041278013,0.014682232683073235],[-0.006417202095864714,-0.0053662234995254495],[-0.010688010265897739,-0.00448581687376699],[0.0003534331550453793,0.004948491922905163],[-0.023822327019359706,0.00728556144092585],[-0.012875426453719497,-0.012964149405706017],[-0.010291091175333437,0.011747809129119957],[0.006545683055358265,-0.006275243776948774],[-0.028370249934883095,-0.0013421651448108092],[0.006665859384479753,-0.0033138873563050173],[-0.004881809056280479,0.01332484574522782],[-0.014221578431691828,-0.007084023326477355],[0.003665887637838938,0.0028117722754926887],[0.00012091252398353051,-0.009363351262785124],[-0.0015595636387644432,-0.010275547003755435],[-0.013807547091193513,-0.01591421374953976],[-0.010895778780985908,0.019963396057375047],[-0.03396073097435792,-0.00898393252522924],[-0.004881628471477101,-0.004829717983790261],[-0.02279499119457942,0.013937236595593023]],[[0.02030095849100624,-0.03229707435650537],[-0.0006236517942675146,-0.025702456649435795],[0.0160270576264647,-0.028398599645330015],[0.026445903869820615,0.0005675690115511758],[0.01716860469163014,0.010917690307423521],[0.02735970158648038,-0.019532200401363844],[0.01613930749375891,-0.006549293773970745],[-0.004046893142794072,-0.022451300895946345],[0.005975566487218972,-0.0051749379063045844],[0.007416160001886404,-0.03208177164827202],[0.015588359031578914,-0.018146753464352176],[-0.004775062998685273,-0.018506420797440925],[0.021707211003281778,-0.019471606842879692],[0.0024397687632944846,-0.006927938559972055],[0.027106605726939726,-0.012872114238243054],[0.013828948908254557,-0.03216166798799228],[0.013809804821684655,-0.016213801231886947],[0.025274572160193323,-0.025101381022333016],[0.016776205798055725,-0.0166896869929305],[0.01767584962527906,-0.012504153262984527],[0.0343677985696299,0.0010273775055352921],[0.021614640828243385,-0.014686689463645264],[0.0413347267705426,-0.02119026208367944],[0.0034134577758492633,0.0006254841185656692],[0.01856080105038032,-0.016376237455704445],[0.010586218441967816,-0.017275588938502538],[0.019504659593629653,-0.03496114853098547],[0.002307637736872085,-0.01700782507479546],[0.011322673927708438,-0.0007293297653754444],[0.024391348775237725,-0.014539177350211648],[0.009655735982298656,0.01121473281264208],[0.01777846541163832,-0.026244611281377415],[0.005694927356677211,-0.01879289070684292],[0.028303161502853516,-0.02636862365036647],[0.02958412467961078,-0.020957992642740196],[0.013284150556638097,-0.028898296744437182],[0.0023035053662108676,-0.012835879895483886],[0.009038546358341669,-0.010535376021377494],[-0.005516701412347875,0.0009640702067339382],[0.0020115408028227445,-0.0057829553151768],[0.01609599454133331,-0.013042548042356349],[0.0028458123177596177,-0.003812041387396349],[0.0033183861709189175,0.002927551715086971],[0.010434044191874102,-0.018329250010913622],[0.019266299155597248,-0.03175883845589906],[0.026575592252412582,-0.020718630066702867],[0.014696707902952006,-0.012906578556674268],[0.004243190423065115,-0.005821052243807466],[0.007289054995103017,0.0004714193184027266],[0.023858137712966354,-0.016706807374791823],[0.016301031718598497,-0.023274817539639496],[0.008621183443419203,-0.02541084598695459],[0.008367836475500762,-0.016328627984133707],[0.007145065001736062,-0.028831135229730263],[0.02403053679371723,-0.02151016671815413],[0.005755254292062636,-0.01130063931350292],[0.02628466680607588,-0.013530472743620438],[0.0024446943370934958,-0.017433971416042235],[0.01697178847041791,-0.0361920793922035],[0.013376215608641663,-0.00717498865025947],[0.014353300842875937,-0.02348174405562816],[0.02215328432823444,-0.022203070304297384],[0.01611145917863547,-0.009262977513863487],[0.017869901595321397,-0.00142576487931571]],[[-0.012054259642765887,0.0017778066423608122],[-0.007155503369922302,-0.007079199264038901],[-0.010589314844906494,0.015510487768627483],[0.001199228995760368,0.012956576587143852],[-0.021266951368494727,0.012785930917816305],[0.003070829527705186,0.007045523397891936],[-0.011946656597754152,0.011950742063540198],[-0.022356657135180657,0.000115880768948381],[-0.009899119207398211,0.025266734336128947],[-0.027040423178215103,-0.0025673800963049447],[-0.005323389836094026,0.01447517587007971],[-0.011526235184818916,0.019884811022507772],[-0.01092534935796735,0.00018373332850634658],[-0.019144780555670298,-0.004986599161501844],[-0.008457127497338218,0.029394584316643605],[-0.005844487152035518,0.00497660022369019],[-0.014039858678957162,0.015885146397090755],[-0.021172522302386712,0.02311303002978731],[-0.02584394692949905,0.023567111998538982],[-0.018354722496789617,0.01028968247340073],[-0.015880064917905914,0.013125647875983169],[0.0024642488904774752,0.011330977488296989],[-0.022670770650940555,0.01626590420121053],[-0.0005353264305081282,0.007467627972886482],[-0.012357463808498089,0.016188618219084728],[-0.033548883300715274,0.0036090219156644874],[-0.017912139566861163,0.014354522487727648],[-0.006510646741105306,0.017725811524309965],[-0.013838506912595847,0.009968454451637274],[-0.00022631347622168067,0.031142905199744886],[-0.007658049683884473,0.025648229729774447],[0.0016948683214691295,0.011609676988159755],[-0.01308139003901433,0.03212986374631444],[-0.009876494062631051,0.014175122697947837],[-0.002014427434828421,0.025048074063681636],[-0.0016033467489077672,-0.0015706623416523718],[-0.01555445226463937,0.009920262480748855],[-0.008261768480663748,0.006084425166460967],[-0.020116558044276124,0.0030656597276433307],[-0.03942120642168289,0.016563075984636334],[-0.02068386890397841,0.010978780401944227],[-0.002183858367246506,0.004060122009533275],[-0.021110165882125345,-0.006511933563627293],[-0.020741195157476515,0.011417609326380088],[-0.017497330046329564,0.0027167385600741153],[-0.007697773563285715,0.011434188464737257],[-0.017732037022572093,0.019626694799861406],[0.001343163237674473,0.012330783406832123],[-0.019225211326374655,0.021002789208587468],[0.01605271254494875,0.012592885177236402],[-0.0019486560634050817,0.01527807168602881],[-0.01633933145016498,0.001363903077877327],[-0.023656914517774054,0.006720452632023961],[-0.038996494636847394,0.004696784230425765],[-0.00394820438918927,0.02195139522144937],[-0.024137857034081008,0.013290768719797307],[-0.0025879610643563923,0.00982901789770512],[-0.016545351936728302,0.009580926504634766],[0.0002445418293382532,0.019731801544653867],[-0.014521374567019466,0.003502248820730486],[-0.016453962240701687,0.01005327582206973],[-0.010876429189917151,0.023176205956234333],[-0.023430678189979227,0.017890413168211893],[-0.021925836863400758,0.01396429639186136]],[[0.020491483849188016,-0.004259315050161279],[0.01892742123267988,-0.003825552231043943],[0.013412539298855745,0.0052833036762577265],[0.022560567081888104,0.005057144707503649],[0.017244645946953453,-0.0009117893140936903],[0.020447945938884424,-0.003565250105127026],[0.008501155561764832,-0.005387232491285206],[0.030446117573162283,-0.0018606033639451197],[0.024100327509709547,-0.0034910063768722258],[0.011612829068881229,-0.0019763530678742884],[0.011574673925544773,-0.006207991474245105],[0.021965847116525997,0.0014620080723387482],[0.02427994722102412,-0.000404216903028946],[0.008823314418244806,-0.01563710240887707],[0.018135495364615343,-0.003210539833790776],[0.012128280813782043,-0.0013819445349347956],[0.011696142108854087,0.016597474050727683],[0.013632356026789548,0.014006396245188795],[0.007879058485250348,-0.005552031902275717],[-0.004945374994201289,-0.017168212599299116],[0.011257528035981916,0.01343297931368969],[0.022910803075711188,-0.005691590078641855],[0.013458955671719407,-0.01669766265022152],[0.01862420498823004,0.0037586714419482322],[0.021574034486369784,0.008640877773821231],[0.010473587315232426,-0.00243498812976211],[0.02597260102256431,0.010276966993070796],[0.0058126780160499695,0.00017806725906133864],[0.012055574835530495,0.002358019621689483],[0.014503585637675474,0.008646255325978016],[0.02138786981865973,0.010145433617669551],[0.014503551593381608,0.013350460364183296],[0.036049781336429214,0.008632963196690966],[0.02152732742431972,0.0041623449197565315],[0.022409106630040965,0.0032377251692428995],[0.018581704722141847,-0.01690993194663257],[-0.0021507385739433643,0.0032819002104309096],[0.01020352276172007,-0.0005482076150245903],[-0.002029196124548549,0.00026343316953519175],[0.0073240787680124075,-0.02050534069516124],[0.0180516515132385,0.0055252323506915935],[0.012145645359243817,-0.0005484240568248563],[0.0161472667419221,0.013785067814190102],[0.026162990685973712,-0.01634564504300442],[0.012894330826438509,0.008046184700653807],[0.027941122926421823,-0.02412639312598156],[0.008531792271069462,-0.010945047041649033],[0.005247273121611701,0.004762981798783362],[0.005008904448900697,0.007471821385664625],[0.004716963318876066,0.007084706506476161],[0.0126998159533106,0.010604116494555298],[0.012927667878413837,0.014964410192237215],[0.03745596251483788,-0.0026974490379498375],[0.011282519970942246,-0.0010604745633170697],[0.02535203697933759,-0.009145841985536435],[0.008402003927480783,0.002674924870894016],[0.012564085098746302,-0.008973223545576704],[0.016423258357303943,-0.007716707454013374],[0.03569961163930217,0.0041266670131913045],[0.015543951795062383,-0.0023652042744595186],[0.04035284452459706,-0.010710022287920763],[0.015633559054844804,0.008361848368535454],[0.0073205592105553266,0.005201530308423336],[0.035215351359841,-0.005095374518907129]],[[-0.03132502664484656,-0.003774517454835374],[-0.016534371845525656,-0.029045085335514264],[-0.014809522609884074,0.004732663963044086],[-0.005369139231239917,-0.008319310610149667],[-0.006964290296637136,-0.009262321035178111],[-0.0063538485316842796,-0.0072137122346135705],[-0.004394756703049293,-0.018595038033598014],[-0.0002110252287520468,-0.01879820174331697],[-0.022358616298592614,-0.020223969867713198],[-0.0004792297580733678,-0.024700738550434732],[0.006708604846913887,-0.0027901523934607533],[-0.014044366645592818,-0.008797114492563188],[-0.01803372297133088,0.0026639231094454773],[-0.013556586524099622,-0.02484815653736329],[-0.014644664553210115,-0.020129520178560237],[-0.03000578775718942,-0.007891814637083421],[-0.003354943467475934,-0.010362907632831077],[-0.013892447306761025,-0.01844002378191385],[-0.019780504894131037,0.0012664634885770673],[-0.012456625224478726,-0.0015911056954704564],[-0.00849933364875373,-0.024103751510857703],[-0.008621253431040206,-0.0033474451798672896],[-0.013759064387181967,-0.01927007493307218],[-0.01176580082835774,-0.004452467867988279],[-0.0034231650943680695,-0.013062262037851168],[-0.0304456460723911,-0.014724523849222257],[-0.0025085155487718064,-0.031579022635560686],[-0.010464752536329348,-0.013578576138151307],[0.012625049257583412,-0.029013799985480763],[-0.0202598848062926,-0.025139139882083827],[0.013163699811071503,-0.023945634804680132],[-0.007199728005115812,-0.013767745672229041],[-0.00918980533764638,0.0030445227355165782],[-0.012958142434949386,-0.0070207251827693025],[0.0001666600112055868,-0.037573454191169156],[-0.01849172082846326,-0.0010582447274036914],[-0.002863183961567964,-0.005192389048179236],[-0.02147213018308064,-0.012692375521208197],[-0.011259474516039408,-0.02828565981178057],[-0.010164001313371876,-0.013280204911622663],[-0.02160925850038431,-0.03898413074711522],[-0.013828848467278049,-0.02340795098948898],[-0.025369675829185083,-0.009353048278608446],[-0.01616762796186349,0.000719271476123927],[-0.017350352487284858,-0.0036327181558733915],[-0.012815156534278643,-0.017209523312126083],[-0.022298050063902022,-0.01001445430201918],[0.008664480086843788,-0.016903947462053787],[-0.010838726980972971,-0.026410614234037243],[-0.013195290932575104,-0.013831818883103916],[-0.023259242725123308,-0.008939256008892399],[-0.021168884616981992,-0.021172925739629988],[-0.013131133959585652,-0.011751817747785834],[-0.0348043356424667,-0.021349409493631944],[-0.009382337944856267,-0.03941383318984487],[-0.014448801589202044,0.006225265283253147],[-0.002887878108336921,-0.01328229268504943],[-0.015126061612721382,-0.013593414978526081],[-0.014348958104308139,-0.025347102351303392],[-0.04012453974263538,-0.017535385544474466],[-0.037956201630415215,-0.00859649082202975],[-0.011342523675274578,-0.011072263373309894],[-0.010059300121157013,-0.019216499001666554],[-0.005623372323168914,-0.024925149089620856]],[[0.002121879499326445,0.005063156423126411],[0.021767888982507415,0.013331034227709674],[-0.00163403475967075,0.013465325268279376],[0.026200023974300633,0.01667853829405813],[0.0029592003341494073,0.010865743759856683],[-0.00558949079302984,0.0031465128198323073],[0.008666518021857078,0.010786830403986982],[0.014431507271820024,0.0023574566229433206],[0.005152863670643922,0.01814903862488735],[-0.00915047011003019,0.010261285147419601],[-0.0024259091786572535,0.0174307987670637],[0.01665356074857592,0.007637504802749872],[0.02240202267106156,0.016409412316830126],[0.0004425345187510242,0.013369204793463948],[0.011601594733026275,0.02851543966223697],[0.006558344943536542,0.007406020150556136],[0.010746272571221342,-0.0030744364276614317],[0.012947433798809905,-0.001373093303974355],[0.008092694790264731,0.00300149745063906],[0.014318696940739555,0.014463792914589184],[0.01100735108126438,0.009831079945077899],[0.007434490149962605,0.00863663767401894],[0.002545700733103169,0.027794049250941033],[-0.005201741778665571,0.008125757629138187],[-0.0028059588277039417,-0.01430954335182513],[0.019310632115978436,0.012952989544584141],[0.010138651621023953,0.01710611238628224],[0.0048003357559899444,0.01932139526929391],[0.01582592807346033,0.015341147168099272],[0.018046186002378905,0.0028586631377201213],[0.00777057656446506,0.028454471569604983],[0.0017357278841819794,0.00877777484236571],[0.018487321495627183,0.0031259331305916985],[0.005189468285390756,-0.0022639003067302997],[-0.011127364388155758,0.000756672791673747],[0.00354188793515978,0.006559810945417155],[0.022785974878053557,-0.004851613314310523],[-0.008805886313356107,0.0063180641095991665],[0.013441907748287546,0.017931233087556273],[0.005587487638210531,0.015509876572513714],[0.006189261593176956,0.006749140992381742],[0.012044155747878604,0.012013704110785962],[0.006078408541062208,0.011569327483139531],[0.006724759176381568,0.02500678589251132],[0.010923622327073168,0.016755421390355265],[-0.005772443647133572,0.02293709661040802],[0.022849663033599563,0.024635046470992752],[-0.005884174726208836,0.003394437988236861],[0.007132713279302625,0.019732761457764814],[0.02782985380915134,0.012163810264575156],[0.01902709926213532,0.029796923776103018],[0.005869644724552902,0.02120741743155171],[0.013677545642628741,0.011993901976930064],[0.007232246986810024,0.022453164779007953],[0.009318257556650899,0.013736731702987776],[0.011511007167643788,0.018657338113756992],[0.008201067428726304,0.009527903546487825],[0.020639250908018877,0.03457727388958119],[0.016270524180470824,0.008209628728054292],[-0.004013768406823748,0.014378288704864002],[0.029770655901283312,0.000428488604460538],[0.01018611288211813,0.024547942427734733],[0.007083671131378273,0.04811299071756259],[0.009741012215660975,0.006962021753715995]],[[-0.019201585773015332,-0.03345201124983286],[0.00819618840542939,0.003556427146066359],[-0.003298056236944018,-0.011412033162004126],[0.002739205246363775,0.005379603208004837],[0.0011269013439094097,-0.014520157541561331],[0.0009750834124852947,0.0006365861475449023],[0.012902280736543115,-0.023127803462546056],[0.0018618091903003506,-0.025332274758481946],[0.0011728788411849685,-0.0185968697277216],[-0.021646044281781626,-0.012894867600713912],[-0.01631296721613595,-0.013928933514682804],[-0.01112971072534675,-0.023214493397736284],[-0.006622632859407665,-0.006318410267216622],[-0.015309558574067503,-0.0005624037938169244],[-0.009639584515391346,-0.018282924822812005],[-0.009046336670771723,-0.02126812633754466],[0.0019430439016345931,-0.02958477262380151],[0.016056743268657175,-0.03582415947965677],[0.00900346577056201,-0.0006038681746819251],[0.00209102164671792,-0.0034825425308098227],[0.0024476993857887215,-0.0028894412079436874],[-0.0042884449447362725,-0.007591025498425314],[0.008870820387697079,-0.011675047488184152],[0.008347802482556689,-0.01850495557992068],[0.0015983187989808366,-0.0040051836988018175],[-0.01018756994128696,0.00945918871999842],[-0.010678457174040224,-0.013524923583808227],[-0.003019015612330671,-0.011090196368738677],[-0.004456928997650152,-0.028492259889723863],[-0.011446088215936427,-0.007268250403967201],[0.014385539150164191,-0.013014575203140024],[-0.010287222274455764,-0.007589761355787502],[0.0056908589679906755,0.00814782230856473],[-0.003908846719856431,-0.0006913241966179051],[-0.009829058428870817,-0.02248367399047225],[0.009990255186841128,-0.002828757232030256],[-0.0050470700451193135,-0.0063696606836420155],[-0.007767711775015703,-0.017499292368138176],[-0.012894458865846852,-0.008534526122347697],[0.008671704005459717,-0.0016592344558204303],[-0.021297068276018433,-0.010579177135102797],[-0.022887537188589553,-0.01664757979050992],[0.003958078596946459,-0.020614435911910915],[0.002672576898223346,-0.010389695600721052],[0.003673564445687764,-0.017750855975264237],[-0.0033037627969971757,-0.0014725302376749811],[0.006719292651944748,-0.0094336038243289],[0.017865770817116718,-0.00633607328137952],[-0.0009349694770565852,-0.020890658352609018],[-0.017812831748296603,-0.012554110463040254],[-0.0011154519165548318,-0.012384988899403189],[-0.0030255661284958207,-0.02973256165990044],[-0.021249554927344004,0.0015216977341838253],[0.002539650442602707,-0.0014822295830664901],[0.0053743329586720045,-0.013553151561516324],[-0.0028562596632545527,-0.0034541074725811887],[0.02260900847553389,-0.003226682048111438],[-0.011018401467631956,-0.023122254551936793],[-0.022307727883106015,-0.013759119569341994],[0.0008022620811915541,-0.004330218611839221],[-0.010012351284965982,-0.004253756701111492],[0.021110427955755625,-0.016926397536973545],[-0.007786655227492988,-0.031151926396063446],[-0.0060317304816818245,-0.01571402104823211]]]},{"Inputs":64,"Name":"Sum","Outputs":1}],"Name":"FFNN"}