{"Layers":[{"Bias":[[-0.03149729032876886,-0.019160191970584765],[-0.01935174053285942,-0.0050327819800489474],[-0.008601815657975758,0.0028941270426964083],[-0.013857054350119417,-0.025240065897497093],[-0.0035870021760623524,-0.019817144446685836],[-0.01043818737951243,-0.021370141093995466],[-0.009681185256942594,-0.04024686135766786],[-0.02667821834435694,0.0015597705989097218],[-0.024259561286277334,0.007663974834190451],[0.0004430532316932943,-0.02084324680222824],[-0.008912938543269652,-0.004184558143247035],[-0.02943809519928552,-0.02272448681658557],[-0.029185905205885918,-0.008848485394649738],[-0.03189431281342656,0.0044442697784036625],[-0.02672311200402711,-0.025968547870684408],[-0.013111805390116284,-0.012359589491262207],[-0.016396279528964736,0.006870436144570044],[-0.04543379540092383,0.010292312958577356],[-0.031145711629940058,-0.005529234990106817],[-0.023694398755433693,-0.011604987096492356],[-0.037194830250291196,-0.04199991773783472],[0.005792021175864554,-0.012967804440199444],[-0.02614349992068724,-0.0389245961403056],[-0.0096181551183846,-0.023189410366871024],[-0.00878617872028827,-0.010064016199781553],[-0.0272729306981001,-0.012274897105193056],[-0.03230332408807164,-0.010599321650928136],[-0.0030542166445785925,-0.017867003981445268],[-0.03565550110400352,-0.015123158605738138],[-0.01208255409206804,-0.0157633848970828]],"Inputs":10,"Name":"FullyConnected","Outputs":30,"UseBias":true,"Weight":[[[-0.015376230106417033,0.022105283566852922],[-0.022867839330779634,0.013599153597615782],[-0.02025150056307063,0.011677399629461077],[-0.003223393870215924,0.013960836735251485],[0.0015727373575699889,0.04179001636880927],[0.005130289092003229,0.03283046149666257],[-0.01969248031553209,0.007166003839256751],[-0.00016086080993979208,0.019597264164375103],[-0.008683939266671483,0.020492254553627322],[-0.012393284263184787,0.030651541596811407],[0.000881664191009207,0.013025660159703871],[-0.02198525348178284,0.010581469013650154],[-0.023212745133580157,0.007942765217076203],[-0.020262663068677175,0.0190656833380252],[-0.04045558924921683,0.014937137906823226],[-0.023724142660857893,0.025916262954552127],[-0.01234938227618199,-0.010158120693171596],[-0.019425949911391256,0.015796179231597145],[-0.02260666264648763,0.026424930023707917],[-0.03118388832027768,0.017139765783625468],[-0.031408179317265895,0.02021655061789026],[-0.002360551889506357,0.02092073628231491],[-0.033194464857694214,0.022212206898340137],[-0.028556696323965243,0.0419886626260994],[-0.025006214443063203,0.002771502586640689],[-0.01446324817553593,0.008299795278413237],[0.005544273338715677,0.03316784338900691],[-0.03136488482102827,0.0325515213132511],[-0.03332014783843615,0.026048897777715446],[-0.028290863278284492,0.024742496876660847]],[[0.018043972943148055,-0.032355220267930224],[0.03271947649188897,-0.014707843560931326],[0.015628330435453187,-0.020289305023898613],[0.014461632821549174,-0.023157876393291168],[0.023044028771268384,-0.01790547815312926],[0.010902093688545863,-0.029344936255167434],[0.007832288023987066,-0.03563173366405264],[0.015601628668215574,0.002818356300348104],[0.019051603944660885,-0.02391456502157731],[0.025808175805457908,-0.039623694418216115],[0.004893474427372967,-0.022841976030354653],[0.0070152738646928154,-0.021320316636263218],[0.020894187615467488,-0.024306092879724548],[0.019259676298174898,-0.014274997118838761],[0.010274792791778876,-0.03398432254823355],[0.010504930274947213,-0.023404888744456363],[0.032040656720279385,-0.0011390924104373475],[0.01765993547733739,0.00037760176950702167],[0.02618687508314336,-0.020062115480281136],[0.01541543190927727,-0.017660612483152656],[0.027034610400438683,-0.010853812332912511],[0.025987438079313648,-0.03378616560528803],[0.031066876392346333,-0.01457098652500622],[0.013571789692782693,-0.027899823563793145],[0.014946515732574,-0.02793273579983855],[0.023880539058081515,-0.012037923283068543],[0.012029957519614637,-0.016443254274144743],[0.025798507623698327,-0.023818348265782774],[0.029723266272571956,-0.03712659418658198],[0.016634956972118264,-0.038627054660333004]],[[-0.02068929281827109,0.016033284863836646],[-0.024343593941891613,0.026445881217764883],[-0.028913419100943163,-0.003280486554760839],[-0.012615269474926144,0.02201635502783764],[-0.006914129963767345,0.021308696507557453],[-0.018828067423673246,0.025348921029196135],[-0.02714404242370352,0.037130673844446134],[-0.015335538854810529,0.022542900777128318],[-0.01479384620925032,0.03238914155204554],[-0.010479314507286308,0.025699663729844068],[-0.018911309007389986,0.03288697536892883],[-0.01970038158980446,0.03340391492728081],[-0.01924963801731254,0.007688694135098161],[-0.030346231860112042,0.017737375260119613],[-0.019014875208014898,0.03135069794270888],[-0.017834500886127126,0.02623546633967252],[-0.040292623406697654,0.011054516342566382],[-0.014795693817931199,0.029944575628120574],[-0.008542376682396415,0.024541355499556685],[-0.0190300438562267,0.001203710152101702],[-0.0042195672426983775,0.012198355616369448],[-0.011203709006319618,0.03352416730931017],[-0.021208331285116736,0.0386375359799279],[0.0029547969509493,0.009742234716201977],[-0.02074551402936624,0.026093081147926887],[0.0022969159087779367,0.009636113756146083],[-0.0075705936614091675,0.02277658345670554],[-0.020034296674639598,0.03267939242337679],[-0.01469012014470579,0.01367454769902136],[-0.015303048198247885,0.041523999294072224]],[[-0.003578232332894084,-0.03726759853190225],[0.018005657611901704,-0.030876929111907717],[0.018747839063987824,-0.030239702229775706],[0.025983966020054615,-0.030684195684089005],[0.01579566060857518,-0.0426927837610727],[-0.005435632279482473,-0.03484907756692443],[0.004816101391473102,-0.04984205938750433],[0.0068147270734792076,-0.03766594620989379],[0.0189132285375416,-0.0430112038521807],[0.009158766425323817,-0.02203357631856163],[0.02151626006365643,-0.02861334973127716],[0.015294698576979852,-0.03256222052401119],[0.011667288707196589,-0.038938481142432264],[0.034401035605162854,-0.013969776604101224],[-0.012164923415247466,-0.026609354753584388],[0.02450833595086077,-0.021485862073985583],[0.007503330598652017,-0.031824822776836736],[0.02338207123037121,-0.030007263083963346],[0.00895608392662667,-0.028222756872602905],[0.01563244490411156,-0.02285206201356884],[0.013348191235898841,-0.01501547832929647],[0.00020693574953228755,-0.031242257344369005],[-0.011672350541330612,-0.02868848073296064],[0.017059839883264254,-0.030838036295914875],[0.020490552188987016,-0.034553950776129085],[0.007112931162717854,-0.02490164757094871],[0.009986185922168057,-0.023825927346903406],[-0.0016692475761841915,-0.04518377203238187],[0.006480007311407557,-0.01583519624472892],[-0.010475057842154576,-0.02386202938985925]],[[-0.008426069874170111,0.02042562465497656],[-0.01722812582629772,0.04209451494898283],[-0.0066408353805043965,0.025780790118394598],[-0.0036707267822193093,0.04312730933954532],[-0.00780839728463852,0.03556190727150011],[0.0002876023872136652,0.04521711109757333],[0.006596575706151095,0.002186260146894836],[-0.020106273219100582,0.016834528992934254],[-0.004598252029446077,0.03654834015880207],[-0.022138226706831975,0.01909624915332357],[-0.016319109192327524,0.022155609304199443],[-0.015268470029308687,0.03546769189037968],[-9.063807927846938e-05,2.2402419916080945e-05],[-0.008081468825127867,0.04788255384720352],[-0.012741910480668759,0.012204048566847052],[-0.0011093282634314027,0.044354182926357934],[-0.001960208440756026,0.018693348951582218],[0.000831411175985195,0.02783549777844008],[-0.0021694697289451345,0.02928970485015744],[0.00220062275248824,0.032324257679779624],[0.006155785960020007,0.028357359452463503],[-0.013322311729138402,0.0411457385388998],[0.015785130492448802,0.018608451888121193],[-0.005769600699437814,0.03857557907250802],[-0.010171532524614878,0.02128431412745928],[0.006001595929498511,0.041547786347498776],[-0.018769306007740256,0.03382437900348644],[-0.007094551911452324,0.03635847673858634],[-0.013198169919492067,0.02404844973517868],[-0.015218077408783054,0.02638400028661597]],[[0.03226010494147844,-0.0240775162812581],[-0.000497244293123785,-0.027716066247050225],[0.013511374407372548,-0.03322310095886287],[0.003406515882755225,-0.024754396855758056],[-0.0035740861473528805,-0.030867606611882387],[0.010019049720855015,-0.0467424784650663],[0.014342378135131763,-0.021081837204696866],[0.026798672005345955,-0.024624417161914224],[0.011934150790626652,-0.02102195966972799],[0.016876703869397287,-0.03468063060446997],[0.0033043911221727396,-0.02718753262719475],[-0.008128446359926317,-0.055625483501851446],[0.02945707587169807,-0.01696347594467125],[0.015288726349667029,-0.022244649142712198],[0.012379227260690323,-0.02073863161580493],[-0.0017205409998646303,-0.04389782189649242],[-0.007042397158638758,-0.022006001022346094],[0.009488366767502164,-0.026944529502350312],[0.015618812101814669,-0.019852768163018227],[0.012349388375857825,-0.019716361432009315],[0.013230402382929095,-0.016276910607984005],[-0.01892884535845471,-0.018697837602209274],[0.012829226449707765,-0.027962386980818908],[0.002858258748035659,-0.032706258882612964],[0.011136475564072459,-0.0377995607436231],[0.008430713192224453,-0.03670202600324155],[0.015406027410741418,-0.036881160260482215],[-0.003925612487007026,-0.025444694377266104],[0.016165306100006167,-0.040073145681864736],[0.0011591986341364761,-0.04132207257052034]],[[-0.02765772288939155,0.024175680545123198],[-0.017740203905942664,0.007028447515568303],[-0.015229504403159316,0.0010452973417719282],[-0.02859632196114719,0.025054374175775367],[-0.0076060874781705345,0.049817544580066264],[-0.012207114770363032,0.03478020518883015],[-0.022589287486428446,0.023831933633170325],[-0.018032905051026626,0.026487476020252722],[-0.010414270311235879,0.016705223196605258],[-0.005999744136369749,0.004778413498938769],[-0.016353024049217686,0.020756685432994592],[-0.01210900100751916,0.013545871226049815],[-0.019780979335483322,0.029588545612914526],[0.00046939053172214833,0.007669361337344168],[-0.026269608451144785,0.00906624850237142],[-0.013572883581240085,0.004249558641148956],[-0.03171962492627295,-0.0007704841717094982],[-0.024055522199824,0.006054492289219006],[-0.019576999918197575,0.006447314978473344],[-0.025136578897060793,0.018017296492071264],[-0.029305990680097267,0.010723092923565795],[-0.004850452003512317,0.03349153228833849],[-0.01898011734249551,0.0230282478116445],[-0.028240995111322956,0.00622728337766677],[-0.020768775133555444,0.027408593287969883],[-0.044492875956655374,0.02176324910368332],[-0.016367577672579445,0.029711225308970645],[-0.01917842801543034,0.0270585680639854],[-0.021487255397123907,0.019736879900896107],[-0.02527371983350557,0.02538140478698687]],[[0.038201946637613754,-0.004993310909183588],[0.017261387218081854,-0.0063134468011497615],[0.03597343465239782,0.01200162165727533],[0.0192750539490369,-0.0044323570514797185],[0.01547079322894344,0.001890542348745972],[0.03788166521035254,-0.019291099999581056],[0.019409295564576688,-0.0075727639984045445],[0.020788983273790567,0.006964320321473332],[0.02142555111292574,-0.015204372756810657],[0.026303641142871054,0.0016307238890734199],[0.02894519538321389,-0.012017831636220293],[0.023245107488552626,-0.0031242474503841156],[0.030446406872715714,0.006570319078160579],[0.017859628116045967,0.0013317450342881251],[0.020791156193151663,0.014389490982049074],[0.023467155822743533,0.011882197250459622],[0.030386160871664823,0.010181479880501573],[0.022744639582909062,0.007884967806616737],[0.024125503601249907,-0.002884939808283218],[0.021880769089098688,0.008340812788077436],[0.02118445806280769,-0.0033452146072981874],[0.02286043431106269,-0.0206648819085382],[0.03359956824521539,-0.0015805045699705277],[0.0345346676140988,0.0022187383746700732],[0.015362282596463044,0.008274257882660835],[0.029271161623472087,0.014485439765365874],[0.03633366050684328,-0.0037033896817394306],[0.0020876634242746983,-0.025065275784157206],[0.025000819119882573,-0.0016729631132513742],[0.003585314063250351,0.0017844212590667754]],[[-0.010178412449088792,0.011011096395932576],[-0.01767055205476945,0.02031802769699186],[-0.0010658634665650115,0.0019044855231112729],[-0.005599455698005913,0.03576890605398398],[-0.03290257628384197,0.03057485595270567],[-0.02684355832127033,0.022747073354984555],[-0.02117181826341192,0.029888091030263013],[-0.026997829278962347,0.008144576737619237],[-0.027440587449401237,0.011393792121930965],[-0.017170693689303154,0.025907672707563983],[-0.023752530926071838,0.02018292763869656],[-0.01720204474151483,0.025030965861081056],[-0.009262220571632389,0.0034628042990781844],[-0.02165638031366848,0.011641087148856064],[-0.03227220861067557,0.01697051370862648],[-0.021582685408518574,0.026626018916653095],[-0.02628253553812137,0.00507707891979054],[-0.020628310716680528,0.02772358590505258],[-0.020142646069015835,0.012193634750119512],[-0.023192857883198914,0.02710438479499468],[-0.007709024030049395,0.041579139795943014],[-0.04096040915246755,0.029594895037584685],[-0.024707981547033173,0.025508322053576487],[-0.013151706627825957,0.03576078864089071],[-0.01657474283755717,0.044480197923193],[-0.026044083565285134,0.023382835433650762],[-0.028464926234293426,0.017144376679207374],[-0.0023101283169751907,0.023227123410220908],[-0.02043497920006022,0.021864266519218696],[-0.01968366243122546,0.030712479392472024]],[[0.025320908601857393,0.0009605389821120475],[0.026216733953846997,0.009249167414466493],[0.017432498426410408,-0.011523057261652158],[0.019300678362224658,-0.023431678929058106],[0.01887639178338258,-0.01854703319364947],[0.010501812030114794,-0.004772000723104301],[0.021964606181500076,-0.025093902060501164],[0.03160604703793901,-0.0037152027024094053],[0.026105508382483357,-0.02827493035177358],[0.017777116703007145,-0.026609947695324467],[0.014633356947144571,-0.017996653549181053],[0.021062907983666692,-0.020512646205457966],[0.03196400680916652,-0.0064961557996288015],[0.04333648303074299,-0.018680810264726167],[0.024385890710346688,-0.0017075378333105972],[0.011889827813708115,-0.012070298449354812],[0.013233459308476452,-0.011823348724111223],[0.04949443314505294,-0.013005479297814974],[0.014914893302628946,-0.012956370713818617],[0.022223061697778167,-0.010485112497836836],[0.029815155681755905,-0.019061567800812487],[0.02224335680725167,-0.023017170370560884],[0.018199585643430903,-0.023552586774092787],[0.028503945384314784,-0.008097244827411865],[-0.0013731559581278644,-0.021377484096933783],[0.007071278519788042,-0.012582473249938525],[0.026885422361634836,-0.017610682042856263],[0.0005719748567711399,-0.045678184296871545],[0.011312033007192438,-0.013886338698719377],[0.02279000105641285,-0.034593955352310544]]]},{"Name":"Tanh","Size":30},{"Name":"Tanh","Size":30},{"Name":"Tanh","Size":30},{"Inputs":30,"Name":"Sum","Outputs":1}],"Name":"FFNN"}