{"Layers":[{"Bias":[[-0.029733753686520883,-0.017130863845103622],[-0.021364509266594046,-0.013473846453218868],[-0.012243490284309483,-0.009618603290966568],[-0.013048669257474076,-0.023647191729339077],[-0.008811892634866572,-0.01807939679785716],[-0.010242913606592376,-0.017851344730546947],[-0.011503597483629162,-0.036873771795427335],[-0.03134937757189926,0.004121600854400007],[-0.024989092517586933,0.0089034263345115],[-0.0021714747557692368,-0.02122338175879999],[-0.011787254972702187,-0.003427465620802681],[-0.027083629120810575,-0.021376936570978392],[-0.028711566215307346,-0.011184176268623666],[-0.03477782715528117,-0.0019279275937685307],[-0.021857256789293025,-0.02718505715433087],[-0.005376201482969728,-0.018383588086941745],[-0.012159635814611693,0.005356164460936919],[-0.04778574216007895,0.003897738154443574],[-0.03388575111255751,-0.004009213562467879],[-0.021377636030767536,-0.012285355493873655],[-0.03222727082268116,-0.03333435462931211],[-0.008099134967550834,-0.009453808854164868],[-0.023660728911303934,-0.03460565311382469],[-0.008664923406457706,-0.024534194860527967],[-0.00876120070793104,-0.007593968900411243],[-0.02850106896085449,-0.0162990402562073],[-0.03125748715043189,-0.012528330372712363],[-0.0063442181339369505,-0.010778331568505418],[-0.03607773883502542,-0.014488176262290185],[-0.01318355894271079,-0.013877885733298317]],"Inputs":10,"Name":"FullyConnected","Outputs":30,"UseBias":true,"Weight":[[[-0.017334571474444976,0.017555663270172456],[-0.024701589417309492,0.007126134491197624],[-0.022491638660561957,0.006387415419574117],[-0.005827890063156048,0.008850953732333003],[-0.0001321021694957222,0.03924495909020164],[0.0029859149525062983,0.02873038521466352],[-0.02158255754833428,0.0017934161874603796],[-0.002128575833697301,0.015315600395668304],[-0.010623121413281943,0.017289928195482956],[-0.014762473659811122,0.027003516695906633],[-0.0016068434784807161,0.010132527478752667],[-0.02488478093075189,0.005494532624810935],[-0.02503513255196853,0.0030632269329881555],[-0.022363644055454403,0.013885743519314497],[-0.04278268834296509,0.009966971996809699],[-0.026648939704395417,0.021814542124007692],[-0.014031652543598543,-0.017108802301271268],[-0.02137210993319673,0.010178389361847413],[-0.02516985672844447,0.021645512606488046],[-0.0330149986728712,0.01155714472988852],[-0.033351746597747096,0.01509169253750448],[-0.004618314354429948,0.018760480632097946],[-0.035519173062702115,0.017911429447764207],[-0.030347268452167984,0.03713241749802819],[-0.026992578100230456,-0.002416491954934219],[-0.016724872348522653,0.0022719668179536877],[0.003931814125175748,0.030393101238552104],[-0.03326998038867453,0.03144951313676832],[-0.03536560172574171,0.021298904955134597],[-0.030768168539211806,0.022125156137289048]],[[0.018075849632070644,-0.021024399959156424],[0.03302703212714766,-0.0026760803892482143],[0.015573277070367013,-0.009995098466022917],[0.014053129819109979,-0.014700557324366183],[0.023808680894364925,-0.013496554632353408],[0.010845134428859884,-0.021755421044994568],[0.008271935442054715,-0.030517907260268144],[0.015713619163194758,0.014938716213452458],[0.019310947638108252,-0.017867700558429445],[0.027103555885579618,-0.03385420279902572],[0.004762673962705462,-0.015807334424824047],[0.007790535343994475,-0.015183640939578217],[0.020790066855872362,-0.01153751878800463],[0.019902646997287013,-0.0024321707908842994],[0.010705714786830656,-0.024301457517232193],[0.011348270346436333,-0.013476181859479859],[0.031443697027133316,0.011516594308541761],[0.01752763408513882,0.012970939744335115],[0.025957131635906332,-0.011046415571362486],[0.015170383485572243,-0.008058389362119224],[0.02604008294595208,-0.0029649613252340306],[0.026543353250931448,-0.02793368807217524],[0.031442841836201635,-0.007533489445991365],[0.014106430156047981,-0.020423872924921208],[0.015416229575894096,-0.022311722836722826],[0.023421416055496296,-0.003284710651582431],[0.012242863981181037,-0.010255806532495231],[0.02582112076796969,-0.017232042850786215],[0.030273233336128313,-0.029382984509693795],[0.01805839834353511,-0.036375591414232335]],[[-0.022249545403369375,0.017297376541554565],[-0.025673438682074282,0.027335439028226168],[-0.030576995931938678,-0.001909839338821701],[-0.012975465591921666,0.02245284598740497],[-0.00802308271980257,0.02154064622006143],[-0.018943940136043835,0.024791513958816402],[-0.028355027355349057,0.038655510055755654],[-0.016878581394263233,0.02447452493951376],[-0.016209114240692858,0.03324498541515408],[-0.012975730758090732,0.026552343857156397],[-0.01968372822733784,0.034154258355413226],[-0.021255203695399023,0.03258936852312457],[-0.020952181563181703,0.01005414047435236],[-0.03187837323842584,0.01940172624563957],[-0.02126219616619979,0.03277643840661099],[-0.01983437925839103,0.025534191414200984],[-0.04133477871671534,0.01263952723042843],[-0.01635850020823645,0.031113305540803986],[-0.00987400772931096,0.025305168871962373],[-0.020655607159456135,0.002364205437384508],[-0.005204089241303811,0.012955505267510343],[-0.012335905167108219,0.03350179855010565],[-0.02330407058447269,0.03913761923622979],[0.0005880057175713658,0.008853786200533072],[-0.02225434853791174,0.027239471976647493],[0.0016328443625579219,0.010409071311765147],[-0.008751425576250338,0.02315952333949613],[-0.020455365485344077,0.032727292469734943],[-0.016836695520087035,0.014585397849541975],[-0.017131369519669662,0.0427048677428842]],[[0.0011657465578893103,-0.03706657252524479],[0.022105334912266666,-0.030693937164232313],[0.022991087973563713,-0.03032699815930827],[0.02943853997532602,-0.03227222787079671],[0.019455609144618434,-0.04552711126422018],[-0.002420685835929237,-0.03842095739894228],[0.009222525668287898,-0.04944439961555852],[0.011144217149658738,-0.03787216368007201],[0.023187204381801326,-0.04221576855329134],[0.01496588580727965,-0.021227584337466313],[0.025340511279818713,-0.028682523580742258],[0.01947195314398184,-0.03336096436616127],[0.016267708718368603,-0.039587000499702964],[0.03909514217041419,-0.01383765103531222],[-0.0073876729328563465,-0.025464126139622206],[0.02899562658151473,-0.020447913290073238],[0.01078774259307494,-0.03191624888390669],[0.027132444252788192,-0.029529823966201213],[0.013097948955244531,-0.027540143562781245],[0.019569662251811514,-0.022619403733164532],[0.016653293339060904,-0.01479028717453886],[0.004270879005722215,-0.03322016643890461],[-0.006929943441305814,-0.027667737842407714],[0.021827728911675823,-0.02932646333789076],[0.02482227716523156,-0.03490141015690805],[0.01020276491959645,-0.024829499131541692],[0.01415571647192667,-0.023935684123977348],[0.0020323190565445727,-0.04874660125470694],[0.01168845390809369,-0.01565272365955944],[-0.0047130929856031,-0.02390626119480393]],[[-0.013002933751586749,0.017419322081611545],[-0.021825715685654064,0.03942835312528905],[-0.014137762729851422,0.021717748316750378],[-0.010661662431945404,0.04312999682220657],[-0.013071193367526802,0.03536902750244284],[-0.00560491094134985,0.04468765089259823],[0.0010496811598509263,0.002365108076178102],[-0.02732765048071892,0.014010768440327602],[-0.009761159435888222,0.035510418001716434],[-0.0268074101507897,0.016458325000111525],[-0.02386676519521097,0.021468202122157734],[-0.020881334941069283,0.03493104966703884],[-0.006826165952691428,-0.0031553733416648188],[-0.013125598049712014,0.04437301846474256],[-0.01890970495798722,0.008363154017780981],[-0.008113404271562437,0.04176021683091151],[-0.008500044539664665,0.014062414173424251],[-0.0043523323961460495,0.024171206384134857],[-0.009913277879133233,0.02692977624814496],[-0.003982111819857324,0.029038003517414007],[-0.00024437233806089864,0.02636637979048901],[-0.01909477334916113,0.041122731216313636],[0.0116440286632222,0.017046885484863366],[-0.009363349501848325,0.035106910882447814],[-0.014721512016044293,0.019939822140318374],[-0.0009192530996346773,0.03906674414430964],[-0.023453682174708338,0.0325451804496724],[-0.013552387611927324,0.036222318293661654],[-0.017039344353750988,0.02112436210690807],[-0.019869708993021398,0.025891908728533995]],[[0.03427476380651839,-0.019990202801928314],[0.0005993259086825229,-0.023582350266737336],[0.01599846355272005,-0.029994224835293536],[0.005729378000457206,-0.020038780477508365],[-0.002013133990040168,-0.027171299784371782],[0.01145078233495746,-0.042889039770845426],[0.01657876931906292,-0.017134514793242815],[0.029301126330224175,-0.02117285058524241],[0.013832398410825335,-0.016331719190004992],[0.01949971169999988,-0.029548894701648776],[0.005895483985479061,-0.02224169374441532],[-0.00614984072164658,-0.05019811724014641],[0.032084042912096544,-0.013707382859019004],[0.01708414809570633,-0.0179099754839316],[0.014919212768952856,-0.01658380594213688],[0.0004861585087515838,-0.03865099485707497],[-0.0055823483901484665,-0.018560433844079818],[0.01086332951318117,-0.022740191567518428],[0.018292401920754632,-0.015768374109475795],[0.014095390662007155,-0.015735508561103277],[0.015113244080775877,-0.01225234211443766],[-0.01670993699793689,-0.015044763265809223],[0.014747224649393875,-0.024167983311067832],[0.0035998166509730494,-0.027403805888156777],[0.012971260045179643,-0.03306004165105696],[0.010217518973975926,-0.033102965867440846],[0.01701127971581491,-0.03208590781808349],[-0.0025372843693844843,-0.021906288394067087],[0.018132994717560313,-0.0354545842489008],[0.003363591936858201,-0.03713178006640559]],[[-0.017927409523161734,0.027848250848449725],[-0.00791162219607793,0.011923911612786024],[-0.00349636898451754,0.008162669841754275],[-0.015139862162592298,0.025845507244356865],[0.0019085714222613775,0.047980687050112165],[-0.0010673955329637986,0.03451670545122069],[-0.011989870577302572,0.023713523366460067],[-0.00606530902819574,0.034712251862239765],[-0.00012252823697475704,0.0173386153749331],[0.003211480698260735,0.005773434016126901],[-0.0037779370469309265,0.023203114335423422],[-0.001233690487214597,0.01383512399574566],[-0.008214305201634244,0.03697016596709607],[0.008912306183321967,0.013148667840601641],[-0.015551998982100896,0.01370452514472644],[-0.0012887944325727652,0.0051791009369667705],[-0.019663377154659507,0.009537814425741194],[-0.012489446856106819,0.011042756516101952],[-0.007046180684601725,0.009748637405635767],[-0.013208358619416447,0.022964524826119218],[-0.016101636301165827,0.015843001904225933],[0.0049642201811144855,0.032340157940434176],[-0.009775089755596551,0.023057020617421292],[-0.017866411382890208,0.00701048571829485],[-0.010129985639932747,0.028847307492651204],[-0.031931867007558117,0.025709703763182566],[-0.006099461186430693,0.031059637365168976],[-0.008150918056774953,0.02627287208164517],[-0.012469152968123374,0.02189919578305741],[-0.016020248433571093,0.025617826154595257]],[[0.02442737714568451,-0.022725234776688037],[0.004366794396906486,-0.02552441630647739],[0.022467138145310126,-0.007395272803492872],[0.004980892747459435,-0.018810160009456327],[0.001188707356228311,-0.012008477063068346],[0.023718121858750246,-0.03455383815158928],[0.0050551065521026,-0.020633714381259688],[0.007561174758188268,-0.010668834071051566],[0.00742034320902198,-0.030858268156790172],[0.012447210598590278,-0.013135473968463587],[0.014806707580427647,-0.029605808640039435],[0.009060622821291555,-0.01927828059103454],[0.016816648665275474,-0.013240334120269846],[0.0058594482368760515,-0.01751887180854565],[0.007223720589229145,-0.0036100247557650303],[0.009082283596390493,-0.0051329617124770055],[0.01709960636991582,-0.014100490831003227],[0.009538509797557156,-0.011257951137105312],[0.010214908826504531,-0.021103558630500376],[0.008363088722963301,-0.010820933274602127],[0.007241265387606516,-0.021067856511656068],[0.00846989446289138,-0.03433387431268121],[0.018840770951695066,-0.015654840639419756],[0.0197034704032009,-0.013287434696181393],[0.0015665926098429924,-0.00781505231072547],[0.01494249495973383,-0.004972827422972155],[0.022047399656915313,-0.020332925504466456],[-0.011763231456503603,-0.035662149766542695],[0.011409587636640147,-0.015817560199932936],[-0.01128779097528028,-0.007538368805712855]],[[-0.004085593405697771,0.013733357263563752],[-0.011737289181550857,0.02391089309550041],[0.0031609537170021605,0.006323560907474931],[-0.00013207322132092694,0.03912377530458107],[-0.024562579165662263,0.03456990148216112],[-0.020367511156424555,0.026199248545994275],[-0.014107655253957532,0.032608754791155804],[-0.02249441279920486,0.012986896596160792],[-0.02133333175440525,0.014437591833828417],[-0.011289920039994737,0.028525340612512332],[-0.01909773544355244,0.024002588956807954],[-0.011428186948260984,0.02784838713105883],[-0.004189157860089514,0.00800404652750101],[-0.016333574652097338,0.01541841332722058],[-0.02717933960271726,0.020455633063496247],[-0.016551338907067486,0.029097991862276906],[-0.02149456982133321,0.011777499342369295],[-0.015177609148314872,0.031488650540015],[-0.015619367496015694,0.015564136079897213],[-0.017881207379004692,0.030907807794431134],[-0.0021866503829415075,0.044769585019077275],[-0.034563102782706474,0.03281941390838723],[-0.017562825056901835,0.026943094688285787],[-0.0060036273717749495,0.0369831566691084],[-0.010414761229907555,0.048117108668394186],[-0.020837294054958433,0.02714128543124703],[-0.022293682445638976,0.020348691969683027],[0.004934050455051597,0.026997215650402348],[-0.014120128342524504,0.024228035114035894],[-0.011753616434326764,0.03269108164187787]],[[0.022798322720768264,-0.005523426662940028],[0.022909105673868318,0.0015996623890635405],[0.014634669168866922,-0.01826177771649296],[0.01620711663082607,-0.03067534352579461],[0.01617394199235029,-0.024973994882054835],[0.008265666680325029,-0.010057491010903892],[0.019000894340346446,-0.032100162178049396],[0.028592177997043087,-0.010498920568787762],[0.023263203549680336,-0.035119936480525304],[0.016177947407978628,-0.0336976458042341],[0.011655362826899007,-0.024969674375839558],[0.018909625240174616,-0.02722619406557475],[0.028619119384570835,-0.013358829617472484],[0.04031865928787948,-0.026088527427688888],[0.022167259193192537,-0.008239132799144828],[0.00971287755595758,-0.01827798504251528],[0.009995459992695636,-0.019228316575820085],[0.046208605557537336,-0.019678269141111624],[0.012214668607588018,-0.019238556450039457],[0.01903330196971845,-0.017253056431257595],[0.026216536752387273,-0.025552492365572478],[0.019943395065923124,-0.02881452056904252],[0.016256120227842317,-0.02883731149254323],[0.026353715038164412,-0.014134972855247896],[-0.0040462056359213405,-0.029450431664833507],[0.0038083106465260637,-0.019108986586484928],[0.024212722207685763,-0.024183288110693365],[-0.002221087971524472,-0.051523040349405816],[0.00918454620225527,-0.02064582326314539],[0.021628064591642508,-0.04142469195787008]]]},{"Name":"Tanh","Size":30},{"Name":"Tanh","Size":30},{"Name":"Tanh","Size":30},{"Inputs":30,"Name":"Sum","Outputs":1}],"Name":"FFNN"}