{"Layers":[{"Bias":[[-0.013419339960558318,0.006695113932047312],[-0.011292072715011153,-0.002341577800021464],[0.0056918168818512055,0.013526520502622192],[-0.010452187660827285,-0.03839802416025254],[-0.010622107045490159,-0.020322430059744278],[-0.032164690915233024,-0.001288438626561095],[-0.010343986904269574,0.0010107490514568206],[-0.012293905535780839,0.011240015029981352],[-0.010265390260371342,0.035268603366849095],[0.013866387387404366,0.014490240025737159],[0.02051533562321745,0.02251524228823722],[-0.026223480021530018,-0.01584857613929407],[-0.00035394469693891394,0.013355444632150588],[-0.0039223616501091,0.016395970659509953],[-0.01220693183012299,-0.008720154448320689],[0.0021945906948473357,-0.004407006940908598],[-0.001279878709050299,-0.0020939226246163263],[0.003998753499536564,0.003077754419733885],[-0.008744546739989659,0.0002224224126467619],[9.219589031014903e-06,-0.006656476237217756],[-0.001484821669756615,-0.005424154987729344],[-0.025919160347917886,0.010710368891962507],[-0.00418923369688969,-0.005224102448922779],[-0.009275457438343473,0.025722023509272725],[-0.014036356300441526,0.0016344911154315518],[-0.012686000105459855,0.012038140528951538],[-0.0037822182142353946,0.004748003317030591],[-0.005357430819880978,0.006565753554643806],[0.01147084943009252,-0.0028185153555013395],[-0.010907683223024416,0.009263397527628574],[-0.008076509783023496,-0.013829043951547746],[-0.004952245050244827,0.04420441760680965],[0.00505873526193182,-0.011806092251164349],[-0.014528475341248931,-0.0030387197100406275],[-0.022257283685935502,-0.005639821426928564],[-0.008570965525398488,0.017922832776301346],[-0.015270755346318544,-0.0011187973951677698],[0.010070672907310287,0.012379215457077644],[-0.026498477886092355,-0.025899779548018642],[-0.007317276172423268,0.004041267558123709],[0.007258261739501555,0.014306833031245633],[-0.010382439580917065,0.022321843502311003],[-0.0004918570226828932,0.0053024630659335055],[-0.009275622079592318,0.0036618010401710138],[-0.0032962367637095966,0.0033122911927712145],[0.0009176992200644631,0.0020726866636946455],[-0.017246497800684702,0.008934711871379487],[-0.01857410529563507,-0.011311619632828935],[-0.007946605823069374,0.003645795446190877],[-0.011270190159415699,-0.018408280006591067],[0.023665566718129093,-0.010962658466583784],[-0.01897555564887972,0.01027000602613545],[-0.01055867554640395,-0.01528536802536304],[0.009034205109177977,-0.029515121637824555],[0.0009173008710795637,-0.010886790319314034],[-0.00493310019225142,-0.004418182304236338],[-0.0024095920685839366,-0.001270793453881725],[0.008090286708982987,-0.004974425805225353],[-0.026236323328740412,0.011540226822268762],[-0.02002324788163676,-0.018152245118648196],[-0.0002509609982244699,-0.017619095220079414],[-0.02345338679913193,0.016253494374239046],[-0.03358309560912902,0.003186609831644537],[-0.012364394310874601,0.01850204366656748],[-0.007799012000541921,0.005209455015973623],[-0.01925602100603484,-0.0008155964461579124],[-0.00816514004598186,-0.007015703003351092],[0.02452824534289047,-0.00037698359786217356],[0.0109052045731962,0.032087154851814854],[-0.019653242340461324,-0.0006461713564214327],[-0.007931780274512457,0.020270464086946327],[-0.014607180542399765,0.020658584554401536],[-0.005715554124227303,-0.010650131853205937],[-0.017201822513365266,0.0012033335265863386],[-0.007829881714612063,-0.010241234325269405],[-0.020004433364582904,0.024623952808759158],[-0.011553211574043383,-0.007632141873971291],[-0.029985998642642953,-0.030443925176563774],[0.007627139104621799,0.0004363198012860286],[-0.01715682552724129,-0.021287065935851248],[-0.022823827939254495,-0.008819274183065804],[-0.005094224299392467,0.017235418942885602],[-0.016250296080119537,-0.02538908911447024],[-0.02099568581401651,0.017633693232098843],[0.0021393198920247815,-0.0219314022005994],[-0.00531333048531865,-5.7956532346969226e-05],[-0.020878584647950175,-0.020189673721683062],[-0.0005370413915341636,-0.013545782578435214],[-0.01675937473847936,-0.0002754925650550293],[-0.014561460361753126,-0.013208942454765869],[0.004186959156944352,0.0007140777075563485],[-0.004959307734254906,0.01736581513413787],[-0.0045290360381549785,0.023519900511680805],[-0.015359770561732133,-0.003185091513603726],[-0.007676416832162267,0.012636865536558342],[-0.02233756591962798,-0.01520629832777247],[0.006126737148567583,-0.005721564292081042]],"Inputs":24,"Name":"FullyConnected","Outputs":97,"UseBias":true,"Weight":[[[-0.018691964882668888,-0.007006820981046898],[-0.009438246747280356,-0.0010316543616780238],[-0.004443219632414808,0.0042992034199662],[-0.03202168841948427,0.007432466564472618],[-0.012891880461289444,-0.0103439855189309],[-0.024086247236374207,7.031265707029032e-07],[-0.009784836761271473,-0.014412864388952649],[-0.026001666711036157,0.005820257626991534],[-0.02254783551512416,-0.022158769200382365],[-0.014776791684797487,-0.007615481663867473],[-0.02003338150046341,-0.004185744667511051],[-0.03272589084448489,0.014748142479044617],[-0.0011425681648471108,0.0018516052194749533],[-0.013163667662527316,0.003973768145262802],[-0.02475910087094248,0.005285470753069808],[-0.017404924621961686,0.003870004571635545],[-0.01813443783846264,-0.010138777858036912],[-0.005167686215045128,-0.00593976562413606],[-0.011840814274833996,0.005499436148153317],[-0.02097545604337803,-0.009553360033014152],[-0.01724006670393035,0.004607248450037839],[-0.017451181566986995,0.007226265755296954],[-0.00512491765088103,-0.014421707393491655],[-0.008264288900326164,-0.017865245639023176],[-0.004977924106666367,-0.014835706900671061],[-0.010483974660687652,-0.005664555554833697],[-0.004078546422410992,-0.0013036563904460943],[-0.018160819797146423,0.008071297708791291],[0.001614018848223073,0.004461977619098147],[-0.008184537254671364,0.005174932011059662],[-0.03261738515317134,-0.006601612563598986],[-0.013992460780451844,-0.008539490794980975],[-0.008310016451994388,-0.014008753693216735],[-0.031292575276478114,0.0027304647159668133],[-0.01473256178306322,0.001667167490935832],[-0.01645367944577705,0.008667275131929159],[-0.022359229283436057,0.014988272341542756],[-0.014875406214992951,-0.007028972792571128],[-0.02849891844396343,0.01891506287954346],[-0.01943492987316356,-0.011018803689245078],[-0.02430914065708059,-0.012124389240811008],[-0.004522179809637879,-0.030709644659815283],[0.0010835376872143196,0.0021948490721451722],[-0.024997090652056745,-0.01990238178751394],[-0.005578413286486274,-0.006895734190275429],[-0.021912253957663715,-0.007759643611966428],[0.006656435415055113,-0.0007832739555298403],[-0.015188380256336497,0.01708932158169449],[-0.016118336390432357,0.009289027713871795],[-0.012271061375565639,0.003931605244880765],[0.0033556169859952716,0.002856433168629235],[-0.006099196677408632,0.009713211136852884],[-0.019487165645878518,0.021179410049472745],[-0.020761091461205947,0.006101728275970979],[-0.006616371328890606,0.011463682665510136],[-0.017437233688861565,0.012026627109660756],[-0.031664068839435226,-0.0007809273235575262],[-0.010774068451371605,0.0193135028266624],[-0.02018660483841749,0.00022735506376821436],[-0.021522459928841053,0.001341084552146138],[-0.02618796513270224,-0.009002405072405729],[-0.01092405072353644,-0.012801109416397375],[-0.019785960717748376,-0.024237538951189578],[-0.013380660391170017,-0.0023226244463523623],[-0.01838040300388437,0.0035623148803337387],[-0.012658838257795003,-0.00922830592856849],[-0.002294883559907009,0.013586430598617477],[-0.018224300415495918,-0.0009439692537451185],[-0.006726998850459854,-0.016562434808255977],[-0.01499209260365614,0.01709376284164103],[0.002084552406921126,-0.008075291270314247],[0.007406265755310628,-0.01856959146921465],[-0.0021856388336083986,-0.006920671084940398],[-0.009683175105300769,-0.008381065412476886],[-0.010846691485449264,0.01152841387822514],[-0.00822733755395861,-0.01760407696133939],[-0.013249575713070947,-0.0021992885743642655],[-0.009654533557896998,0.007801878620196229],[-0.004060624952215141,-0.008365859645629371],[-0.009776627830775165,-0.014563528388085502],[-0.005254410960316006,-0.0030644032888732116],[-0.020133703145545866,-0.019748860382166382],[0.0007971078095820335,0.010112430895390654],[-0.016562423377637615,-0.023390919887709076],[-0.01543216550467961,0.006824593994068202],[-0.017520429249736662,0.013020548709199784],[-0.012868508619933017,-0.012134448671410945],[-0.0137823819953926,0.001154786730827636],[-0.01646073173948017,-0.0015363417523812644],[-0.02188865146854409,-0.00125116876528856],[-0.00816818619421583,-0.0006178074829283996],[-0.02964869474743923,0.003382723425477314],[-0.0018479479192386704,-0.0031244053358806937],[-0.015506978140554416,-0.004036115309382137],[-0.020942399649777028,-0.013522810052066965],[0.010615604169166445,0.005807488355232046],[0.0019423582581681597,-0.00034195151147500564]],[[0.029576279842895955,0.0038145545533516513],[0.00023802897018262694,-0.02922588006823363],[0.003731849320169163,-0.015490285725805505],[-0.000344514552561071,-0.018911482113014407],[0.017243513166707605,-0.018749344683096126],[0.027756210033234176,-0.0323606256951035],[0.021649119939371443,-0.00912761275782362],[-0.004511598188695894,0.005425303266377066],[0.026237443584832293,0.003007569422026544],[0.02161163516425982,-0.011960985855718316],[0.02118759184018174,-0.005848611453614569],[0.002803844691523599,-0.001254695017291331],[-0.008640983673813921,0.01143434526721496],[0.021571668625147006,-0.002615483173877197],[0.007132973125709353,-0.015216799386399246],[0.009801105887418896,-0.002745903169413711],[0.02724174153562225,-0.018300471704785857],[0.020676974463560954,-0.020389179210749075],[0.014751740891831044,-0.021230008277100698],[0.008181962166032102,-0.013966132448190222],[-0.0038942257754786672,-0.004810589211807226],[0.017622754275080546,-0.020711315615100066],[0.01763316875302344,-0.0200081812995953],[0.01695404859929593,0.0010201934291605552],[0.015976359054571947,-0.00992600226525391],[-0.004123307146036526,-0.012793980659943728],[0.0192141929272705,0.0013928348006607707],[-0.0005960240859654133,0.004330413653175165],[0.01464746061232625,-0.008288124822959542],[-0.00491029591926136,0.008173730229581594],[0.015084370908087862,-9.06959276674325e-05],[0.008767741187294745,-0.006936954065787806],[0.022864089069588655,-0.010881899331943062],[0.02206356069261514,-0.006318549026119675],[0.03701871143658578,-0.021173111286761227],[0.006365398422031534,0.008984516735594363],[0.013101120591763054,-0.024743472133002466],[0.01508162158404886,-0.005495974066084677],[0.001471536398470623,-0.013626459187724418],[0.010396435665316681,-0.010427491547026687],[0.004977056312844845,0.02101647211595826],[0.03278986485451581,-0.0043910801795259465],[0.00878861945472565,-0.013086618766991102],[0.018255646501689225,0.002267289200437091],[0.021094380862654336,-0.019840845116101784],[0.003999682286668579,0.0005289430837775727],[0.011332005640353636,-0.013155240391908117],[0.01300880065803819,-0.015382011485493006],[0.013253447498003976,0.004236633962817656],[0.035540671877736886,-0.027151237934943156],[0.030081585665129293,-0.007353259979117312],[0.014362486253759976,0.006252038820485497],[0.020420997727594262,-0.020467433484626426],[0.010968881120805194,-0.005808645225718046],[0.01365158670816244,-0.005683598319561323],[-0.00032223919712496857,-0.035647191554332526],[0.022386021916269296,-0.022818626890361793],[0.01601249121743234,0.0037730540321963364],[0.011237847046841373,0.0021257801619624277],[0.012036598570473367,0.0007516170577196287],[0.006402867544616688,-0.008061730552724723],[0.020336969473548624,0.0028300334479269646],[0.02361439880237937,0.0031225674207615087],[0.006643964869781402,0.012398725587740807],[-0.004584835994365439,0.001011745063551246],[0.018824907268191908,-0.000997568753468887],[0.019471869723599065,-0.016462739645293944],[0.010551970730452569,-0.0037800898626631978],[-0.000579140142129883,0.001743070980634236],[0.032082063473779315,-0.03465918995439493],[0.014284237928514758,-0.0036814811985138134],[0.007019214947874722,-0.0233901148596218],[0.03344960040212473,-0.00888528603425313],[0.027730039456113405,0.0015561447735710078],[0.0005242526512763912,-0.0161419553467476],[0.012072195365743006,0.006772786289415348],[0.01960753426191602,0.002890285715082482],[0.00913261465385039,0.010737694962378185],[0.0007666123236037451,0.0005037482263637901],[0.014190245117125843,-0.010259370983934596],[0.019750007581041666,0.0024904378091260837],[0.03098340624115961,-0.0057899967252089245],[0.01896248174593997,-0.011568956600173423],[0.028392642448636367,-0.0005586533868204477],[0.01512578102353809,-0.03024612822169253],[0.014392877714526412,-0.003945363627166261],[0.00845328203075012,-0.019250031672741544],[0.025628279952087343,0.0025136998828794526],[0.026588377291665827,-0.021635095871031237],[0.022528044461982106,-0.013310157305915407],[0.015591493231804613,-0.016784566369127996],[0.011250484360730813,-0.00014845278133054763],[0.0014855628262021902,-0.016277340183829606],[0.00905324650775338,-0.016650691675330048],[0.028012855111930204,-0.009681692708431125],[0.020804696732052094,-0.023255900383792057],[-0.0033249487480687887,-0.015572590802483662]],[[-0.014864476268648402,0.007157122993531611],[-0.00859705321982702,0.01854778750471069],[-0.010971590708821696,0.02556476372423402],[-0.02326599261817895,0.004349276456609504],[0.011736783101422933,0.0064324661399802405],[-0.02269014305899815,0.020264396671727906],[-0.014964998705694007,0.02690245690653944],[-0.002928518599733545,0.002790778506489652],[0.005220513501278233,-0.004585233680029211],[0.006912559727108098,-0.01704096123499081],[-0.020902494137421034,0.013969164247224738],[-0.0054635077622924005,0.010474824191984911],[-0.01124316942849731,-0.007098559924535838],[-0.0033659336838690987,0.01648485704527893],[-0.022489195525034613,0.023975367678418118],[-0.010376112317627122,-0.009816299759915244],[-0.018020483706681644,0.01669058922118189],[0.001602850410499022,0.012176153863176092],[-0.006233454661998617,0.03807994359083447],[0.004715247646327089,0.013858777804731291],[-0.003341220371564759,0.025567915371990935],[-0.02759717117303057,0.010842410834976533],[-0.01553308195652671,0.015915540101887015],[-0.029278542175560317,0.0016195456196112287],[-0.023713236751482843,0.013592168887221279],[-0.031921190408221695,0.007564561856901309],[-0.013418284855142461,0.026601994998802257],[-0.006397402356089482,-0.0025224867507356035],[-0.008662100985449889,0.024227027439851643],[-0.0299988225840762,-0.0036244978616293364],[-0.0010372550200105234,0.026509641657889486],[-0.027216548301058314,0.015155500749768997],[0.007837616822811127,0.01614996892850258],[-0.0036791675696910935,0.012928757462632272],[-0.024769475483172626,0.01801274865945473],[0.0023546104089989727,-0.001123030513566747],[-0.0164166746421465,0.014383221316085186],[-0.024266023679234004,0.020391982917046227],[0.009799202398645953,0.024493582287064705],[-0.00983587554854599,0.00617872533951266],[-0.019226247961500634,-0.0020787320337767065],[-0.008018136919857227,-0.004293067581381442],[-0.002366777210723017,0.0013029212271478917],[-0.017232264133290532,0.02268841200829249],[-0.019414152237918116,0.01652574112245972],[-0.02171966332073676,0.013525705570902376],[-0.014565216280341407,0.012485072605760136],[-0.01770702056477321,0.018860549729686205],[-0.010150064361828448,0.021637208665374597],[-0.024032504194126707,-0.0006566727586124215],[-0.014528571750136873,0.018895886917950973],[-0.03417960888703167,-0.0016642297653550282],[-0.015787221384220358,0.014781629240687839],[-0.003096071162337394,0.02383507400526756],[0.012878404252648721,0.018564041882509385],[0.0032765609668802035,0.0029751941334551298],[-0.008988417187245953,0.009526948953449126],[0.011359885595221065,0.020620699541034487],[-0.019389672854984226,0.015670801995574975],[-0.004402344442441128,-0.012638529510553912],[-0.01019332706653435,0.014094068130499566],[-0.00586433020610661,0.003261676305383217],[-0.009563152446200016,0.015554999305319808],[0.010053901714985035,0.017818533026219458],[-0.012247132260332453,0.013052734302237154],[-0.0028741394783909345,0.011259929962278467],[-0.0008391858681022181,0.004489452104046768],[-0.011754382999040157,-0.0023816485120394504],[-0.017763031977069917,0.006523804471729369],[-0.0077847101255679695,0.030558740552409053],[-0.019446363936248715,-0.018986436989283668],[-0.010387449333187585,0.004995830252558898],[-0.005594719057485685,-0.009886236576273378],[-0.01714110924600878,-0.00484505128068881],[0.0011193356563658902,0.010947267229153379],[-0.027807288196885285,-0.0036616725012193034],[-0.015062173336982265,0.00828606466398561],[0.0001723745094883933,0.027784372979326767],[-0.011813892638709826,-0.009142326635890832],[-0.011592077853708041,0.01805385262558411],[-0.01178169464044568,0.025816134039003846],[-0.012082513922201119,0.006672161870143124],[-0.024732112769661675,0.009266169849837065],[0.010544580867494071,0.01764588159980205],[-0.0009164570568849639,0.015837569349505573],[0.01012394307043249,-0.00027428680936724423],[-0.008913309469987715,0.006348616820839026],[-0.012353228224325875,0.0132087701622787],[-0.013333240856843885,0.0004728390684146412],[-0.0036813877479818214,0.020764054218325074],[-0.02170899707052757,0.020017377572929897],[-0.02453614935860039,0.005879745612218789],[-0.010265924066847404,0.008628184036214294],[-0.008837005799217503,0.03183569953465458],[-0.011167717019554818,0.001549021958100042],[-0.016709423411722317,0.01929615201592544],[-0.020597459892966127,0.01996782645947722]],[[0.006207838634903427,-0.023297079987602002],[-0.007136378512945584,-0.005405041352718611],[0.005216572295894722,-0.011953179426014758],[0.01897081543069908,-0.007281810534062238],[0.00923775422943502,-0.014019787070343369],[0.015461919461633578,-0.00048196897834395776],[0.02244088027570668,-0.0018595704132942383],[0.02236507946668444,0.003627430495648815],[0.016438257593556844,0.02159072701045593],[0.006947362752503759,0.046367140523449035],[-0.017496513187254675,-0.02406518808709074],[0.0006022876708897076,-0.018704481785210995],[0.013310749340390598,-0.005753690512249995],[0.003550776757042598,-0.03249924720047881],[0.011133505066133063,-0.02739724642745437],[-0.0038041162239531236,-0.0019865820147247385],[0.00012406383533388355,0.007700918663029663],[0.0037554562157585793,0.011514726118781803],[0.008734288027166956,-0.002620700921387708],[0.014613056674036356,-0.0075873709206389405],[0.0312853095451825,-0.0303650083478478],[-0.010012626678332028,0.015743780160302853],[0.006417644749649004,0.0019013703121558067],[-0.0002793180296491124,-0.00239922642297723],[0.007107287269864952,-0.02203040791705276],[-0.0026396001928160125,-0.005102847520793273],[-0.00767983448522089,-0.018430947902634477],[0.003038282805077301,0.012114470278318024],[0.008530965500509689,-0.00856352509146443],[-0.0012619533052095982,0.003581178990288215],[0.0036262403081638852,0.002539862379730632],[-0.004737625536386432,-0.006244776253595618],[0.02582347614541126,-0.003894807137039649],[0.007967570574915884,-0.011964748690428838],[0.019435648526334805,-0.018062727459608695],[0.006562921850657351,0.011504806765488752],[0.002286095772064476,-0.006984867940635389],[0.018652689793324205,-0.0015465411678774294],[0.021654182785399746,0.0007826940417456755],[0.014171263552031025,-0.0019071176208638801],[0.010479457651599685,0.004578002219558666],[0.003754500616023081,0.0074427907854360915],[0.005790532960985729,0.023528271342218098],[0.008488072962061272,-0.006039999390501225],[0.013573746199275299,-0.0007515647615672403],[0.011067608711891103,-0.006027807024848016],[0.0036169575266219636,-0.010556955135336835],[0.00813078068577919,-0.01907164840703156],[-0.0007442236398614778,-0.021175644463726627],[-0.0032001565380701683,-0.00875807189715678],[-0.004648303492330211,0.0002007698311176687],[-0.00959468710190023,-0.002940371500528075],[0.00038615568721981383,-0.004103147986391498],[0.004746161858616959,-0.008418616459499473],[0.00468107672227482,-0.017516526082228468],[0.011320535936991808,-0.016374299132188873],[-0.010556232292876869,-0.012401702327039245],[0.025397840085287816,0.005087124131921709],[0.015892311240456893,0.002239080877701083],[0.00623396942211548,-0.006260684914301773],[-0.007566775484140796,-0.00915313198977444],[0.011199774063198565,0.007827281981456593],[0.006024782072974311,-0.002874331272634416],[0.008514546857017415,0.00272655507930081],[0.012289299256086437,0.014531512524912903],[0.013012993658267934,-0.0043446425303008684],[0.014940393055293391,-0.015415890100668829],[0.001549505721349368,0.04205656851561919],[0.023517761763133936,0.020694007087120075],[0.0065234366597765,-0.028375202647968948],[0.01007778881977821,0.024953955336097875],[0.015627015987440002,-0.0025894091555646506],[0.007208914846879335,0.01006000624927476],[-0.004506895212530083,0.0048476250618185255],[0.001159164109412819,-0.010466161320221833],[-0.013677800965423667,0.0052902776544104775],[0.007470321876637852,-0.015054943082614595],[-0.0017326518087960037,-0.03805058759077002],[0.005242967308503086,0.015627855616025102],[-0.0005003588185334306,-0.018752256730139655],[4.591816385923509e-05,-0.020854329637924347],[0.006278281296962002,0.005719427701504775],[-0.0037532653498666625,-0.009372074669717734],[0.01108265297109546,0.024895406609706395],[0.00012312593443422645,-0.0064254309787331425],[-0.0005178822987853759,0.0011115418472242668],[0.006427794820773406,-0.0317099376000564],[0.007566236854942228,0.0062005267298289955],[-0.004644746435468253,0.02083288477836419],[-0.0050234719336282735,-0.008347223612109112],[0.0020858149368525114,-0.012810694162724621],[0.010889909098892514,0.002765775836641991],[-0.005507558529537464,0.004073469761250619],[0.007135130663543118,-0.01914638235460438],[0.008429499474583652,0.006649215724559763],[0.011386694221603169,-0.011991743983500398],[0.006048803168257752,-0.023114078142575642]],[[-0.004614373217314177,-0.0010443532311952425],[-0.024820972798672108,-0.023015861813566917],[0.009272245253529323,-0.0006913786098096917],[0.012554409429014392,-0.012046137035544769],[-0.02634373523375123,-0.017433246444103413],[-0.016511021007039297,-0.018477412182286372],[-0.006551740047753444,-0.00995100178916909],[-0.0005131133750695048,0.006986181827846323],[0.01478812525524489,-0.002931845294421995],[-0.009843555285626002,-0.02694828412104787],[-0.002195997612365003,0.00812932015652403],[-0.00594128067667476,-0.009001166855012534],[-0.009638908821844731,-0.021415932490672168],[0.0016642870465989497,-0.001976193869656011],[-0.004342645793578447,-0.0073788820578428865],[-0.011463930831877047,-0.017967487778005886],[0.006301352953437856,-0.014791442995984864],[-0.008257407463019947,-0.008277819097897198],[-0.005088446360404761,-0.01556885528590727],[0.017138933003436243,-0.009956331257691475],[-0.007187864632384564,-0.0003170870153613508],[-0.019287767943495543,-0.01909745907126635],[0.015085552984761469,-0.0022620542135103204],[0.010354259480911922,-0.009016896418469339],[-0.0037247106695302698,0.003417009151064235],[0.005879856043643158,-0.013910001694899228],[-0.019178265205321083,-0.02257188449693613],[-0.010022419125213691,-0.015931839980597044],[0.0018130472359598575,-0.010540095626438225],[-0.024147510354901456,-0.024678512831152837],[0.0065910181216674935,-0.028133385738659273],[-0.008955482628283865,0.009965184818162588],[0.008219937381480856,-0.021893173317621577],[-0.007401721035651388,0.004866641983655789],[-0.011860274292168965,-0.0030593321130548386],[-0.021185925335093114,-0.003456570722554256],[0.004345927226013273,-0.022945932639176873],[-0.024032386678379744,-0.014003236228582577],[-0.015043138130808606,-0.01916241054930321],[0.011897940640389399,-0.008420305652830007],[0.008097660048664702,-0.011900705152098146],[0.004988165791128461,-0.0020296425284297144],[-0.016036231946885585,-0.018644663974917],[-0.0036609620258630693,-0.018610069352721737],[-0.008928045331012744,-0.01308097700991012],[0.01335197098065576,-0.0016287193594875919],[-0.004506130583778915,0.0049893606027301635],[0.011524871210875972,-0.00126537214329832],[-0.014781756993865636,0.006378150589790291],[-0.0067258816684400615,-0.011315340494685334],[0.0024698273985175045,-0.024670921809343483],[-0.011042631441882228,-0.007780114280006856],[-0.004732543213487274,-0.014124871012403551],[-0.01093798407505028,-0.018789985714140124],[-0.016999326807153978,-0.02003808796072231],[-0.006820036209348991,-0.010039134832379264],[-0.004056976235764124,0.004009643091686107],[-0.00016411325615542995,-0.00996010397056024],[-0.003460872781930106,0.0026543175455810827],[-0.010555307768139814,-0.0304553664921363],[-0.013639402057519739,-0.015239912337142345],[-0.0010251896200326835,-0.013303652636115604],[0.007062359354220912,-0.003710010469412021],[0.0055040136709705815,-0.02644227444870417],[-0.01368480434430989,-0.03145790996261029],[-0.0015212060021071378,-0.01682499027076041],[-0.001666563016133512,0.011489634446626349],[-0.010979153583548165,0.011401464889722173],[0.017273325835650048,-0.014073623311137429],[-0.010152525200852544,-0.023573404640992352],[-0.016700052893602064,-0.003935250490264091],[0.009308261440636017,-0.01082419275316689],[-0.004193713557811146,-0.005723700674462182],[0.014029888161802888,0.007295244923042456],[-0.018591779744939495,-0.031320312107062376],[-0.007474674166543637,0.030670898049431582],[-0.004648947572191653,-0.007112091026869837],[-0.008966470428611088,-0.019647413749665457],[0.009874105787304584,-0.008594643030155568],[0.008704005646567325,-0.020501150691141678],[0.014375976897578543,-0.01742218585537719],[0.011249347455984368,-0.01587527289357732],[-0.010364425477178939,-0.00019983663084018695],[0.00813197323958417,-0.011879658875519228],[-0.011763528108595564,-0.0003435949290111248],[-0.009344587978472407,-0.005892558734077095],[-0.0031427650358130713,-0.026524825181295307],[-0.016414422757725512,9.163385668249429e-06],[-0.016221537157955677,-0.02197010743266469],[-0.007382350022910261,-0.008338131904397337],[0.009136434187836696,-0.005308312091686111],[-0.011350133753879386,-0.015438564982766313],[0.0011151585985962112,-0.009498375020711457],[-0.0008926109002032672,-0.013440132783376125],[0.002640379571236264,-0.023717184159839602],[-0.006098893467554827,-0.013841538939952446],[-0.0016081079326598145,-0.007353872761972918]],[[-0.00854746060630531,0.009261152014063393],[-0.0011987502075512485,0.018379103613341684],[0.00949898354810545,0.009212573987691562],[0.018441850213339165,0.00672539777486135],[-0.012686265172550925,-0.0035339973861271165],[-0.012628387539664035,0.012476654854257087],[-0.011766442064903059,0.014040285836984214],[0.002699506561989841,0.0024661085685117635],[0.011499143683684172,-0.005044754646562274],[-0.00709547200771194,0.017825840104465102],[0.010346458929652707,0.006408425044801632],[0.01695700883084947,0.004767207213284178],[-0.03151633010344206,0.021816831092235388],[0.02595636338938592,0.01065179726838306],[0.012889125071834073,0.023476272673462157],[0.003788387046632974,0.016270284966134686],[0.011247728840390388,0.012605137110301694],[-0.01114137789711826,0.005878545612499267],[0.015979999983797784,-0.0013848811836954286],[0.0157172031523786,0.015876535478192292],[-0.0032489098588104107,-0.006082652154680468],[-0.0271862749772864,0.013010201962154185],[0.008839788983875331,-0.003649411909500464],[0.0063765384527479695,0.0027587537962053955],[0.0045614516343491646,0.016340084415382178],[0.028813913342527656,0.0030698416816530194],[0.0005045881890202204,0.014969944131264151],[-0.0008605016160685661,0.005199595191216595],[-0.00970394077115739,0.01766817106532368],[-0.013019051438052045,0.03544197642200142],[0.005592476061602276,0.037961116602103565],[0.002706526163920937,0.009943887832867144],[-0.008358549570255863,0.011248737449713839],[-0.00026062090967850796,-0.0023231385807790106],[-0.004186193362708224,0.013105106673594172],[-0.02215119449921541,0.015277710676188775],[-0.02458423587037939,0.010646496712104948],[-0.021830046079612163,0.009336476763956717],[0.0009492742887797036,0.01613942174401786],[0.010602867383095453,0.018343143902290887],[0.008669641043316684,0.014578542087853629],[-0.007798512307347206,0.00690080688879108],[-0.01219260935060796,0.016804000361825062],[0.015311989223885486,0.008085508083762715],[-0.003250430925874748,0.01826175342327485],[0.0017676259501165986,-0.012079815345958268],[0.010254135446788095,0.01225931518319296],[0.022692939435685185,0.020955795215373954],[-0.01420398943852014,0.011870477998608155],[-0.0021368449037627245,-0.0015800279456428244],[-0.011468365740999846,0.026476032678649262],[-0.0006750290673404885,0.019360178709650688],[-0.018106440767526214,0.022344042141165008],[0.014758866220947754,0.011950797447774516],[0.005999706727920904,0.0033743493408197357],[0.0027751866173798007,-0.0027927805629712516],[-0.014264266331396469,-0.006130553161613019],[0.0066341849639002005,0.01245733936344271],[0.00018886653036299486,0.001683212125668008],[-0.018961783994437067,0.00869947381001349],[0.018403939666914493,0.015756219755939757],[-0.011005970291984964,0.0012225147629869508],[0.0012203112079594962,0.018752038377299638],[0.006115316643815856,0.01626045623847719],[-0.005662018810714241,-0.0011886561854542242],[0.010195573703303292,0.014662918510499555],[-0.0066165328875030386,0.00866298708454189],[-0.019652254187504603,0.01652316112046232],[0.018492538128217308,0.011249457972149482],[-0.01359065044518756,0.013265667510564384],[-0.004254537587635535,0.0049515468876792906],[0.011536032214746882,0.008211306253706639],[0.006104728750011041,0.02046517837773314],[0.027885479788753595,-0.005805460918452769],[-0.018106026386163585,0.018237621998990632],[-0.0008938577555182663,-0.004015157193318228],[0.004828904389545179,0.01602368115290582],[-0.001616792391588452,0.005900666761891361],[0.019998289712173746,0.03507313521275196],[0.013106210168775416,0.015391056763176153],[-0.00022769887757516157,0.016716913371253063],[0.0049735423321061,0.02713806565144645],[-0.01995819514715552,0.006851635606086537],[0.0014040234587489012,0.03305991679600272],[-0.007657080285161169,0.015192467156702626],[-0.010456308370997659,0.010962087004130107],[0.004182827678955487,0.02695106804683144],[-0.016805394471825986,0.018834053227098583],[-0.019034420665118127,0.009237652885633262],[0.0026011185522383856,0.012949035476396597],[0.012564137813572273,0.010082161980938942],[-0.010061378306088163,0.015700455539455482],[0.00984560525041848,0.006656767978532432],[-0.006284833870152928,0.014241273919814319],[-0.0028856729440685943,0.005107626108546382],[0.011426985456466737,0.008865439245561121],[0.004591208728957864,0.010332890649384736]],[[-0.004578720303242171,0.009141419259196249],[0.011276019518030884,-0.014876997225107876],[0.01737362549735761,-0.0221355171548723],[0.007366084350066373,-0.021588972873354574],[-0.018641939932586962,-0.019548901207440947],[0.001030752695718141,-0.01940584919361468],[-0.008542612453201141,-0.011129227148241296],[-0.0014125979728430871,-0.017875975079531335],[0.006867723360571706,-0.015867436339817322],[-0.004992223260733833,-0.004436532043986751],[0.004094030967381158,-0.0008463407931566005],[0.019955922401553534,-0.007268643475589964],[-0.019914660677117734,0.0007981535032857551],[-0.0013812242831646715,-0.008035684684103627],[0.015325172040334041,-0.029987902228242626],[-0.0029030258587357904,-0.0066776770840831865],[0.01966293830579417,-0.017963073585576656],[-0.0017032088268292727,-0.001000112720166169],[0.0033139625673423096,-0.007262121078163497],[-0.001590588216546468,-0.007498008605073843],[-0.010732398233031825,0.004850412670321925],[0.0004205152576825847,-0.023967372915004632],[0.00246355816220998,0.006999061129459389],[0.01650763178007092,-0.008462533041880542],[0.007126859877752522,-0.008933309048122966],[0.012089516773743354,-0.0055947063145271895],[0.012398163079907478,-0.00526762503942544],[0.004768887556805247,-0.0025539666206959807],[-0.008125962679463042,-0.009249333691215823],[-0.017717058110299118,-0.013961725670006435],[0.019448512183023153,-0.012553282467346416],[-0.0025099033066325427,0.0018878929787442223],[-0.0053261188549817194,-0.010670163980951212],[0.0004142226618849981,0.005616026137580491],[0.0021782557652753652,-0.009969597040599628],[0.0020430072211475338,-0.024200716233980665],[-0.011592508096679867,0.002688770523028153],[0.002699379182672142,-0.0007609080662708246],[0.006234653790087028,-0.01611899312131785],[-0.003026867992994103,-0.008288139220972929],[-0.02138566308842666,-0.013337461565145961],[-0.013788224481566393,0.0028534505851492845],[-0.009283800673969281,-0.017890600897064297],[0.005129830065560336,-0.0066867815086350925],[0.0020844125412590657,-0.006819198837387776],[-0.004170429862534193,-0.008142223442335006],[0.011086131268837,-0.01889179012338518],[-0.0004123896433633424,-0.011673739689618476],[-0.006101604060391441,-0.02128949691476663],[-0.007358226094524426,-0.00028832768655802544],[-0.025485845823026942,-0.01489926945327142],[0.02435677521376709,-0.03053753051490133],[-0.007595137650120206,-0.03478821807773446],[0.01316182873064684,-0.016862907295712392],[0.0015834401380217793,-0.013189063915478897],[-0.005361122730889335,-0.010120252842296966],[-0.009902468712037153,-0.005055513771542676],[0.003157912608763916,-0.017186600270034765],[-0.02297142701315116,0.001887715632887679],[-0.027039657693796543,-0.015731315032528972],[0.02156425232454826,-0.018409377969581288],[0.0011030584107157733,-0.005382629084353732],[0.014892509177646588,-0.003270853229895733],[-0.0024542860585115315,-0.006756822481394707],[-0.006545448775009652,0.02137865616601193],[0.006712018610491011,-0.019452644944862457],[-0.012244179326504531,-0.009221048886864603],[-0.00621624849704881,-0.0036277865786117592],[0.0039203102773179895,-0.018228766440478317],[0.016341469190859898,-0.010361576776270608],[0.014372477246733448,-0.04036268465846095],[-0.0080942970087426,-0.021746012069641763],[0.017011830602516147,-0.013056726022309974],[0.016024099982487952,-0.011452783418915464],[0.0038169493522723485,-0.007241378911675289],[0.0015352012029075386,-0.012767709750219378],[-0.008056909321958386,-0.014220399490361491],[-0.004984479449082311,-0.008973647999792576],[-0.00045445069127515947,-0.030818960645529178],[-0.004165618786068358,-0.002712263718053007],[-0.012357398394043902,-0.010543348565995635],[-0.005872087478752775,-0.0265347989685448],[0.00013749061021834608,-0.011560607482403075],[0.00564092205501194,-0.026446689019045167],[-0.03256302413315352,-0.016506155725489566],[0.005690649287558012,-0.023484229818433067],[0.013405507071350674,-0.002173706965395703],[-0.013922632662702371,-0.0020960687861342653],[-0.009322004402672194,-0.01590451659831001],[0.012498208936907998,-0.010076520797150736],[0.0054723658513826275,-0.004738989010041906],[0.005651189763536035,-0.021235904918563947],[0.0013165513986938202,-0.01810589631461497],[0.003966368715925858,-0.0030819350856076113],[0.007940399635923426,0.01544017306862435],[0.007229404233971029,-0.0207924047028267],[-0.000727116782006269,-0.008270882528059948]],[[-0.012922178734347523,0.006330627815012612],[0.006779874578339985,0.027190605275863637],[0.023623285596621066,0.025147487579197506],[-0.0063535227443127906,0.01704975795336005],[-0.010146431395967966,0.015724615050848857],[0.00867312113124011,-0.002144220782971736],[-0.019312455185581993,-0.0019547950819331266],[0.0030183103106826946,0.030455886549273243],[0.00677082012041943,0.009626154774840164],[-0.0008311726493551963,0.020150926502088013],[0.0009025713837643313,0.004978266014946141],[0.014453460185628094,-0.004803758984689839],[-0.009237623199940348,0.020211895542790452],[-0.0035021763573402196,-0.0006374571266082701],[0.009446041355012634,0.01850132207050508],[-0.0014608728255378523,0.01752376892306698],[-0.014679259246183083,0.014164776460171061],[0.005711171270730008,-0.0004611094829704309],[0.005344139279288056,0.01090335413188197],[-0.00732918837427832,0.013023679453453832],[-0.014591113397271318,0.010028941097541247],[0.007444601921030228,0.016762043117889924],[0.005589865793969648,0.008995630304194986],[0.02263890063904056,0.009716727503730644],[0.011323912741838357,0.00030511243719074684],[0.015287740764599657,-0.013010972021136907],[-0.00156715722450223,-0.005702424325619977],[-0.0021943519384031913,0.004776747987610779],[0.010284159268661119,0.021658527107638468],[-0.012965291454190817,0.006883760108012333],[0.019914104053172184,0.009814921555400553],[-0.008503210777288361,-0.0005910086366528608],[-0.006514731564666434,0.006412143203863307],[-0.010110392530129629,0.0025161280312491056],[-0.008617317118679312,0.009925177442418652],[-0.006631220895637266,0.046204761701300646],[-0.004996649114901604,0.0152448961588571],[-0.004763891182861871,0.008729660836147157],[-0.002662006857470772,0.018537830551836092],[-0.012448420972705534,0.012443947543440676],[-0.003425425790610645,0.016828452260826],[0.0014292413787500276,0.005760886650688467],[0.013871175775110184,0.04051745550413082],[0.0010298443297374052,0.0009751731652923987],[-0.015246243241367152,0.01671585842003354],[0.011388497686600293,0.0009338483929823947],[0.014923641922015417,0.014891637778376848],[-0.0007261703220643474,0.00312271552756265],[-0.021956567512231955,0.021942825816639214],[-0.02005543775880352,-0.0010218285966676203],[-0.018464097774676808,0.01100559636727366],[0.014885335585352983,-0.0014243729286135625],[-0.010583578989973755,0.02601147419111432],[0.021683192564484838,0.014852207121017431],[-0.003418734104577356,0.01967916026400422],[-0.006153698609847565,0.020514352338400793],[-0.02305508877708553,0.019939020552658986],[0.008705898113123294,0.013024992221010959],[-0.01277954322528273,0.0029417456260851177],[-0.024826861123362385,0.011802962898308853],[0.003962794891532549,-0.007599544697505211],[0.02782820147581742,0.00605228395923801],[0.016716389456431086,0.001315864845622055],[-0.016395298228179273,0.02130926851824037],[-0.0013050788036886233,-0.013912611716071291],[-0.003997630525627494,0.003841653750038075],[0.0018423022927566688,0.012088033758873462],[-0.015521522520013816,0.0007163446879513693],[0.015093280476187276,0.008261869091191929],[0.0022654780778001136,-0.0004757061235858938],[0.019695605279198076,0.028684711665520335],[-0.021088117472718815,0.01496100530834524],[0.0067998491211623035,-0.0004506003471540385],[0.001166573844515438,0.007413938480923323],[-0.013637058404321396,-0.0004731943203209377],[-0.003211371907430332,0.014863364065024236],[0.011566132116751641,0.015220490542291711],[-0.004598818641044927,0.0019807220137435704],[-0.009167484658095375,0.013306434318298548],[-0.010233056228700129,-0.00990096829869293],[-0.00583859460589949,-0.022582652042819115],[-0.007747617927635937,0.031648280028771084],[0.01244606819732729,0.012020543153778486],[-0.007029748979209166,-0.003707865138709717],[-0.009338835289099132,0.011328515439305565],[4.5721775056690544e-05,0.013116724478378193],[0.02097708496159663,0.007738741510484071],[-0.004411457289191768,0.026040266555957075],[-0.0002602277429524344,0.0076426382779404296],[0.007482806937748811,0.01154939040448639],[0.013940174590708733,-0.004140093953287502],[-0.020138431195268543,0.007418999529089038],[-0.019140242007226062,0.027170285289509166],[0.0012928773850726025,0.023267470712630068],[0.006456980523375014,-0.017935547811918015],[0.011480005616800034,0.021487829555830545],[0.0033760019237752004,-0.00028858456568926923]],[[-0.0026472578611104326,-0.008937875790206372],[-0.011469542019563675,-0.012467270977323112],[0.00825367017600145,-0.029643586323572974],[-0.011778891929756759,-0.009773486380708433],[0.01151800434356884,-0.019619060608446755],[0.007516072722822112,-0.014338181394091404],[-0.023710725378988433,0.01931676235201003],[-0.006749015769430129,-0.021014735760118884],[0.005414439515086633,-0.007288953981761348],[-0.0035075163519712495,-0.02824930687412225],[0.006570210511168588,0.0044302250795043244],[0.007686753969662326,0.0014396976941644139],[-0.0017833466503253174,-0.022826749270292806],[0.017628053435579605,-0.01956199893917893],[-0.008183786057347252,-0.01599732063072868],[-0.0032454404556111613,-0.013479144766827381],[-0.009008069780549953,-0.005194626808336147],[0.02497972680605068,-0.009749913976490903],[0.0025079981470022498,-0.00479409280983288],[0.013226515786767718,-0.01427505371451185],[-0.006401417450485776,-0.02502228068781325],[-0.009880282356398313,-0.007958962144538008],[-0.004678374196512593,-0.008294131346481097],[0.01860987203558199,-0.01462817785394175],[0.01373138734458715,-0.006105187073397117],[0.001624819198121391,-0.009832588392237693],[0.016728896835073434,-0.003563466355891928],[-0.006294088368378179,-0.02571180971453258],[0.008076056669248688,-0.010537169047874526],[-0.014512455274700712,-0.012180438934219839],[-0.0020694853394505643,-0.022655606205264838],[0.013110571523984212,0.013376666151375631],[-0.000841242912375862,-0.008758767663471586],[-0.002243849499025788,-0.026671641174865854],[0.0009744507768709814,-0.005580116978643233],[-0.009866793547859484,-0.03247174541227282],[0.004654692077480068,-0.02676374198378354],[0.015173575246344464,-0.011846644408361983],[-0.013907415652803071,-0.028162005797456566],[-0.02034215331931546,-0.016872654872380214],[0.0024175518499125054,-0.012244471146676617],[0.004822377932426561,-0.01267423685204387],[0.009813246567815502,-0.03517499107213117],[-0.008623705987276685,-0.015313253541432552],[0.01390698055220984,-0.0005711588799681776],[0.011540170348879036,-0.004137111740674141],[-0.007227453240897755,-0.01248545889058085],[-0.02055853808285977,-0.015501098667319689],[-0.002607704544753322,-0.00403499380225225],[-0.006007861035927567,-0.010392807630543417],[0.00951768556050088,-0.02643909717093476],[0.017527187570787917,-0.007191728062155559],[-0.009500508057596673,-0.007084358647509577],[0.010191512563595215,-0.018843748059164334],[-0.004142805131421847,-0.01772631156441728],[-0.021458833080142202,-0.01466321028371137],[-0.013941767976767544,-0.014426838716232997],[0.008390638060072236,-0.0023451923410607242],[0.0020629630181671368,-0.01127715530210446],[-0.004831859552465709,-0.008578428726860411],[0.004567345603954468,0.005219672337334369],[0.013811954338084737,-0.00031582784504185227],[0.031868603408955996,-0.0012580980019470413],[-0.0007902390244121212,-0.01296009872885454],[0.01923578452426504,0.003098924172279075],[0.00853962049846956,-0.010519992614019862],[-0.006955231278540733,-0.008033536135847485],[-0.009585510086337666,-0.012301029056050858],[-0.0015152895050136374,-0.006068349407163394],[-0.001998087737444794,-0.01919078566363286],[0.009824758197570877,-0.013333836187406946],[-0.012831402277922793,-0.009944732192207878],[0.008520479648790108,0.0011527497347847103],[0.014236187282438986,0.00024237421642627426],[0.009756975475639421,-0.01598995541140548],[-0.007755421374419445,-0.01572583370814935],[0.023636411974631386,-0.006614952443484536],[-0.0029350190663385216,0.0033153030316464085],[-0.013523757151549905,-0.015274959234687304],[-0.00370544973056654,0.00098255290311333],[-0.00366685105264674,0.003616155073018046],[0.01443841086974442,-0.01627811326336397],[0.006206130075958752,-0.0036495628512202474],[-0.015146464521885877,0.0022836261927363095],[0.006138657237069589,-0.010192749556652194],[-0.00639633307584884,-0.017488562089389],[0.01538468267438237,-0.019549863546880944],[-0.0016838465095429939,-0.021524527347613853],[-0.011426499707528496,-0.001586191547335636],[0.013475872961431169,-0.014812653413429763],[0.011302451579465212,-0.015921756217202647],[-0.020348372470126972,0.0008529031262398163],[0.012208035017481755,-0.014113225488360963],[-0.00790940717652894,-0.011704810334062165],[0.004173261846310334,0.018919779642702115],[0.00589700349569618,-0.01803310051814123],[0.007585035302895947,0.002876491803815106]],[[0.0018111376327235751,-0.01083124769043229],[-0.0007652114537495447,0.012570832957478262],[0.008940717272413209,-0.0055043734632899575],[-0.014092404754512919,0.005440422880369992],[-0.018630534377214843,0.01024337074280006],[-0.01661463964238133,0.0066088176036175105],[-0.011589760497056944,0.004723518617990221],[-0.00667347417863089,0.009722010169061702],[-0.005779930838333478,0.024350819137649356],[0.006227436689917041,0.006552584439627323],[-0.010744473091440597,-0.004567905933296604],[0.004209529923032776,0.00853194420132],[-0.008868475575285195,0.026491817071176683],[0.020610962972182255,0.010559603544061305],[-0.007480397704078359,0.008725201821847299],[-0.004976548420449361,0.01683312362580392],[0.01251696220393161,0.013207605555558739],[0.004599299582172099,0.01697490891572599],[-0.004301821993652449,-0.005980555616899704],[-0.0008481928311663079,-0.001449507584947857],[0.0051174131663884286,0.004164658509167182],[-0.015951278446187142,0.002461007630701551],[-0.000491967198486082,0.01806059378811596],[0.013954058275974592,-0.0033437122147983926],[-0.005189574363201474,0.022414745870160003],[-0.013017755343109864,0.021291978496798283],[-0.006602727537346014,0.01846852570322777],[0.017079746280147027,0.010975353062887955],[0.0005572580478008317,0.0030099350230117367],[0.017979366530203742,0.008674211276554808],[0.0025784109984973327,0.01043447913151716],[-0.0006338494795453083,0.014333234967904365],[0.011859856635694556,0.029551435795433314],[-0.0003277007520725144,0.020105324424052547],[0.01753172891235932,0.022895547652489658],[-0.005688206645520625,0.013730389494260628],[0.010316134626134593,0.012182821312086445],[0.0022050540489685004,0.011547467451532714],[0.0007564381145986464,0.01297272164566809],[-0.002085704351980985,0.00718398128224821],[-0.018031064385790635,0.0014798538645250789],[0.000631753214707514,0.008253321070393109],[-0.0038212532831278473,0.006396395750537052],[-0.020127667642477996,0.008056252498710809],[-0.010729645850905422,0.017813912063795803],[-0.020756968642890956,0.006012532539194903],[-0.021270331166568537,0.008635707526634874],[-0.01212992437144831,0.014549756383926648],[0.012226269529444507,0.03890714010488775],[-0.004874479831759655,0.02230022921509043],[-0.003477608032614337,0.03459290347540124],[-0.0051882815934778965,0.01305703719828092],[-0.017788856693333764,3.7827721045295224e-05],[-0.010484553643986805,0.015047617920982205],[-0.006399296205091399,0.013496868635573724],[-0.02902647737504181,0.012063468943497229],[0.019460797069219042,-0.011806045624894436],[-0.014367857600200578,0.0003722443716464954],[0.0025714670364133936,0.018673168616034724],[-0.019236852683599336,0.014984543443989808],[-0.003097641608367145,0.01178909242764028],[-0.020061524294299554,0.007490719820127235],[0.008747717237953936,0.008726582353992615],[-0.008649226176119728,0.03291240478449409],[0.008173977965014512,0.01407115871254041],[-0.011827314970087656,0.010001311402207926],[-0.004857140471195125,0.004378150499912403],[0.013291274507805931,0.010917390980527438],[-0.0034171309790594477,-0.009517130262624915],[0.006991763957044098,0.007797226777300394],[-0.01726980913545047,0.006533571266404984],[-0.017609169088906577,-0.0015652113735669074],[-0.002719423418559825,0.01348354808731895],[0.011230721055729635,0.010364963740214495],[-0.001852861179844152,0.01388349602137468],[-0.00101234610131594,0.006681968088217782],[0.0019248601297554386,0.006743235321609951],[-0.0027164908474089744,0.026711854971587446],[-0.006773307139119793,0.009970430298908086],[-0.00011096001964606058,0.000633003728608901],[0.01292339495399083,0.011279222993048411],[0.008335349725270391,0.011728924029777354],[0.00041508801531103584,0.021466988040731647],[0.003921630366347493,-0.0027750038618325704],[-0.000789225887025115,0.013646733994075904],[0.005830140674062964,0.02026029358265875],[-0.008006432182033936,0.031306918828148005],[-0.009037513268155259,0.019490905135239964],[-0.008314957704094563,-0.006328996057688476],[0.005203301147585622,0.009928184937391593],[0.003642353405635478,0.01593690737925967],[-0.0012730779934009811,0.0025944284398639952],[0.0028302122752992018,0.017887277042817163],[-0.010286061239336036,-0.0013936743899640412],[-0.014877807421935238,-5.767052146061366e-05],[-0.0010531224081814486,0.012911264145455681],[-0.01974193969659989,0.023373330884577652]],[[-0.018673604667251962,-0.02373921745185424],[0.003981712539618833,-0.006028186032905988],[0.01376521993639241,-0.019444434769243606],[-0.01042975974967432,0.004259062253664065],[-0.02095873829757636,-0.012541836645851803],[-0.005208434198815127,-0.0012995731352056688],[0.003897357805426743,-0.010268642309523426],[-0.024006632753192255,-0.005849615405423682],[0.0140261597142594,-0.004224382602208317],[0.0038749330885050385,-0.010064569939425198],[-0.0031589167107317724,-0.004265816659698939],[-0.0009638997708418748,-0.0044587838063677955],[0.00530509397711382,-0.016602034235550876],[0.004346525474620944,-0.014998064824147637],[-0.013805492841611177,-0.011724885121695361],[0.02497803154950526,-0.025813268951738303],[0.008821945178491327,-0.011311555377329476],[-0.006216652475770572,-0.009459466401468978],[-0.0028089010512452727,-0.003292478562013905],[0.01405936928559204,-0.01791977234306595],[0.021610636905269216,-0.025111627508294113],[0.0002252355172179435,-0.010849009637464086],[-0.008866689772018542,-0.03380784158453382],[-0.005912739170688446,-0.003920115300956853],[0.004488007758944642,-0.00567712416105228],[-0.0051954140134312125,-0.0031674692995774228],[0.011328646393718878,-0.012420668083634992],[-0.008944468395706904,-0.020911347098454203],[0.006109177010157332,-0.01437467183712347],[0.006667803164965601,-0.007657300863691304],[0.012665497948424734,0.004020881438353017],[-0.01018997844242384,-0.005166223845418162],[-0.005314748876041881,-0.02080159070474565],[-0.004163557791805579,-0.018664430092850914],[0.0018058901769207466,-0.014236443666026603],[0.01724133678540337,7.731334020869165e-05],[0.0055213023025256465,-0.021601337614900813],[-0.009795188311005388,-0.006861653705109788],[0.005162034928461007,0.011264173641489206],[0.0025152901755285157,-0.010973184897008553],[-0.007880561403366067,0.00924174852138161],[-0.010270713569444688,-0.007004289373632125],[0.007951482006338077,0.0060282381183899775],[-0.018458663007793995,-0.008103251873186204],[-0.016508850259702897,-0.013797240022706875],[-0.015111410925724792,-0.004108195739573974],[0.007528587286769072,-0.011309166823149875],[0.004909578025820556,-0.028535926111563463],[-0.0021127211583857708,0.0011278157300016907],[0.0076067399682012,-0.007614045645738658],[0.005180759355484294,-0.0004930745954695076],[0.022214654379434286,-0.014438191626660794],[-0.013655210684089505,-0.003396145947731924],[0.0076804900037301,-0.019735700770368528],[0.0037195494475346707,-0.008465010209973318],[-0.015309847336501701,-0.004610519696417077],[-0.0011778575366139235,0.005528168612861275],[-0.007442359969326831,-0.02186176290839452],[0.004080045094192141,-0.019951942032503868],[-0.013848531476631565,-0.009646676198364115],[0.019479823279983224,-0.016504976185489496],[-0.03390575641718389,-0.012072294283128946],[-5.2883897005662594e-05,-0.00896430687875064],[-0.007816038561180877,-0.030519447119146784],[-0.011537637759228855,-0.0040924729485560815],[-0.00098463154180332,-0.016954931704878766],[0.013190233624349977,-0.007390660371410247],[0.024645393214852103,0.009979264072220669],[-0.0008957266093023983,0.010191518624627192],[0.009331910741702629,-0.0014712421818183442],[0.005095182630495129,0.0073378985802713525],[-0.019543506293612477,-0.021233356347845105],[-0.006350717317405403,-0.014288779872031261],[0.008335500969592194,-0.021043092961973115],[-0.0012230181432641336,0.0035496857487107773],[0.01447126317969339,-0.0033468533176545193],[0.010388645010256381,-0.007877903762082585],[0.0059561852806402455,-0.010646616316135771],[-0.0006464122893379877,-0.016036177844944714],[-0.003962144161179146,-0.011929115616533642],[-0.011363756747727162,-0.01560938694461463],[-0.0011085705123824838,0.002787093058024127],[-0.0032608421896477757,-0.012908065847568246],[0.01288460849230224,-0.009707118672156057],[-0.012637602843053741,-0.019444941791037028],[0.002626077378017142,-0.01314341751600438],[-0.0016072500407872926,0.001811076342600948],[-0.0012588975704063052,-0.03702744765924027],[-0.023608396398875003,0.004727133203992648],[-0.014829254048405354,-0.013052623059109581],[-0.00987004986737309,-0.01856039834810246],[0.0016358368152968206,-0.017293553821612358],[0.01194674317211952,-0.02412994629875652],[-0.0153693179777918,-0.012214248543304558],[0.005808068931138151,-0.013586053474625432],[0.0015630327803028653,-0.0003876036457156425],[2.5011004012691673e-05,-0.02438895392952535]],[[0.006994367002791237,0.006613509602961511],[0.0023690724603220364,0.005741639943428173],[0.013593463376357081,0.018690449998453203],[0.018641001154596673,-0.013971646951869289],[0.011676266776130434,0.005455610936596487],[0.005086179160419033,0.011396085080260973],[-0.00675916966013677,0.006045007780278751],[0.0007895633227781075,0.003017022587747681],[0.007584244265892622,-0.004095987199132187],[0.012365202941325402,0.009881885125783122],[-0.012147046288390455,0.0038470246884053923],[0.012466261665177043,-0.00031140196055356816],[0.006985558098000845,0.015228960719523354],[0.01403034629020513,0.0017303926889919337],[-0.02073851809745142,-0.013918357728678872],[0.02059428625062752,0.016443648374540765],[0.0013561763113642902,0.03258628883587832],[0.014864887570366855,0.028950136293870492],[0.004661682647865805,0.026295177485909628],[0.009968250479867886,-0.009974948096397889],[0.01502470183198903,0.006984562038577888],[0.0023333339355848396,0.023622442592259443],[0.005602651472638321,0.004028334650878118],[-0.009378502991772845,0.02769512687496486],[-0.001059513785798185,0.013433411015533511],[0.00681680262655585,0.027175435622685713],[-0.004016300428998485,0.018991933512075832],[0.025293434342530716,0.010661658066106522],[0.0024149491405398883,0.012140286862326906],[0.011267653929883499,0.012255157817182553],[0.019866799384825752,0.0033689480516717863],[-0.007259686934871992,0.02966965984044389],[0.018135576194985983,0.014040785304037644],[0.0004897923395580835,0.010039580042774672],[0.0078042286875097825,0.010582796311971942],[-0.0007621056344571226,0.01808335069553597],[0.013246238584985253,0.025352066047169726],[-0.009679793828874485,0.014210395835814934],[0.0031241468089396643,-0.00920296140464226],[0.009985316578683996,0.0002487813188929518],[-0.0048690637530794945,0.020504166729123096],[0.00577726935306005,-0.010694731416691236],[-0.011679194586970485,0.012800128633675186],[-0.0054828978471939535,0.010540424725339812],[-0.008950249711759218,0.025584368113498405],[0.003863293724999684,-0.0025327558106691913],[0.0291821529051638,0.02018096767365638],[0.0017619134905440164,0.027732820765661654],[-0.002616424100358171,0.006454838449569321],[0.024119589310103422,0.014753523354602529],[-0.006798367759068691,-0.0005456510184244155],[-0.0007496774511644052,0.02213878839238261],[-0.00014356161357433278,0.002406836592587707],[-0.007860929303613486,0.012166259047217918],[0.02054467532596939,0.007378310797565585],[0.015034878455810882,0.002249157392810532],[0.0063258837166020225,0.011709013985060754],[0.00481701914706412,0.004095601192888456],[-0.00978141366000246,0.007209958941716172],[-0.0008651917902680244,0.0206227608765347],[-0.00047071652274483205,0.028353027112843893],[-0.01576756265272178,0.011994718353351181],[0.001636574360570971,0.012863423006441544],[-0.003745771668427925,0.006247796943288329],[0.009511740398861698,-0.004891364153135457],[-0.020086144608180104,0.004921870778759832],[0.010492011362147351,-0.010171890176505842],[0.0037454374719789033,0.0008879809229658976],[-0.018382548418053896,0.01322712531666205],[0.0326069024425652,0.00370034946905821],[0.014081072544549286,0.0188544768931849],[0.00381322580300207,0.017388607109969267],[0.00687987363651101,0.019959779114096972],[-0.0009372447834464704,0.01993047057349191],[0.006868857463801255,0.004709760853678248],[-0.002219305262054923,0.0035027883773037947],[0.005825070806625023,0.005040969672790743],[0.008849692702363713,0.022010703477941766],[-0.002109076264673545,0.012587258616104659],[0.016196336275392895,0.023985011646902196],[0.006317829414927655,-0.003045797289028213],[0.0031623017361457344,0.009014962524137516],[0.006558345432136888,0.0017853339682642635],[0.013419136796277077,0.008341925589130031],[0.0029893183401482064,0.00443580898114116],[-0.0004593847705924846,0.013782996913706254],[0.004395964413637869,-0.012915165375087011],[0.010484707301360835,0.019467605388960394],[-0.00269442236939589,0.012743030592337739],[0.0004443800412162386,0.009392474914873399],[-0.009661765372773159,0.02361574726507472],[-0.0002794369530443459,0.01707627601509208],[-0.008277584187116091,-0.002631698839699206],[0.010142042373825023,-0.0035257003080434],[0.013809546077001852,0.03797682381652826],[-0.005951053215047868,-0.009336223631186037],[0.0019982213366907618,0.018680587913459026]],[[-0.002027447100316301,-0.01394988552308528],[-0.002608583600052761,-0.01240053143805301],[-0.009516202600915966,-0.010998324893671961],[-0.020624647792879498,-0.0169425685263781],[-0.004262344305709122,-0.0171676288367283],[-0.00636563148113059,-0.005594062993489074],[-0.01538227611051548,-0.01556431602022521],[-0.02706393592984558,-0.01573022953442583],[0.002031151268840991,-0.029022233109988582],[-0.02471935137772233,0.002096772827752737],[-0.007711911929057261,-0.0006031955817263176],[-0.01910459411772833,0.01164179854103516],[-0.007317145078311678,-0.00031453378222100914],[-0.02597002627004509,-0.013887997477084607],[-0.012461851066858909,-0.008799871683466786],[-0.01101434262046254,-0.02730154898817876],[-0.0028387964054048757,0.0011286162709380997],[0.007055653452897262,-0.028919335593583447],[-0.031299008635281164,-0.011945159711767309],[-0.015536671152347513,0.002456533767735828],[-0.017810913395601043,-0.005245340879631846],[-0.008618221610682337,-0.004580931211257951],[-0.027930115032974594,-0.009099510523611227],[-0.012613825658047282,-0.029766323691618666],[-0.005129594083268105,-0.003690190004094668],[-0.003177960363309159,-0.007851733417607634],[0.013093821758934195,-0.014376067356075611],[-0.006754318558592827,-0.024873858765208857],[-0.01008083606422909,0.019125883346272125],[-0.02581999972560904,0.001079921669835882],[0.0008524774736888621,0.0012655110161172971],[-0.0009468355880714682,-0.01100474677447088],[-0.000840324119693007,-0.0039407418979385146],[-0.034296946994090326,-0.015206676310923381],[-0.024258506401893577,-0.017063984928529462],[-0.007103109364196407,-0.019364065763671154],[0.0027557573464055025,0.004673177478627796],[0.0015620661169921345,-0.006912075182261409],[0.006151739871688158,-0.027776841629328218],[-0.02037894836428073,-0.02520080274018639],[-0.007441366049841909,-0.012821735779110026],[-0.004508990120719907,-0.002786552775664642],[-0.01351787518685568,-0.024240235564336833],[-0.004382002290131434,-0.013237026366504357],[-0.009649621121710809,-0.015108039824869739],[-0.013250635306710876,-0.015103435087593606],[-0.006257072151273036,-0.011426819980001987],[-0.016891404507408447,0.00821783228134978],[0.008710474257037403,-0.013711017483845797],[-0.02983491321130421,-0.02083567172693994],[-0.006936900278119417,-0.019240683662986893],[-0.013304312339220102,-0.02061213135904293],[-0.02171537381120732,-0.02560022763178403],[-0.010934180831344611,-0.005263787054859625],[-0.012092469182226862,-0.025057564597190284],[-0.020560790710795338,-0.007191517786624869],[-0.004586604727625549,-0.013579849667690902],[0.006391842544517308,-0.002618326825530789],[-0.007054844386371947,-0.02395754122198707],[0.009579524293653502,-0.008087261807045769],[-0.010903827886826731,0.004908329245409795],[-0.0003670589182665735,-0.013774773412449934],[-0.0043662336262917404,-0.017351224298285308],[0.00899570366963962,-0.03438477833481047],[-0.02849004987459709,0.007090414657539858],[0.0015134766867527882,-0.021809711222959906],[-0.01833526057538659,0.0033532798432463744],[-0.01632052699493229,-0.025805730224015853],[-0.017510801466166542,-0.01923695063958465],[0.0011262636398970674,-0.008326148975575013],[-0.017927425008501453,-0.027701065184868343],[-0.010306858163136555,-0.01282164507816432],[0.0022266526326315942,-0.01688265995791415],[-0.012473592603883909,-0.006624780956322866],[-0.007886427106031992,-0.02253632512833099],[-0.003838841339075115,-0.010529770554519396],[-0.02108726267076332,0.004592024905072526],[-0.021590343056364217,0.007810221526652535],[-0.00859279047793194,-0.022020528579462753],[-0.014998912744713083,-0.00767286818764984],[-0.012457191251579205,-0.02318099960250215],[-0.009346619633559875,-0.0041482147281281],[-0.014181429571298568,0.008544959146943032],[-0.007658135469527055,-0.020355627898926882],[-0.011392127455174705,0.0010282134728498002],[-0.015478799938575535,-0.00019416630160793384],[-0.010502441451216328,-0.005617457183934494],[-0.01212664460591852,-0.015795974198789458],[-0.023496095548647924,-0.01550591800404209],[0.00463959080902049,-0.009222394224420873],[-0.01592127450103125,-0.009302827781282495],[-0.001517074583267628,-0.012060896453066725],[0.007354668399353862,0.00367463042752814],[-0.007726449474547131,-0.0103208070764236],[0.006965995945408026,-0.019270215406272204],[-0.010653736554441543,-0.009135680339666922],[-0.008460089358862641,-0.006921907824268931]],[[-0.00287322935992682,-0.0037758864839033002],[0.004187924872826833,-0.0011738430219622425],[-0.0014406299945198457,0.0002389099330233021],[0.01755618881028576,-0.004422933581313322],[0.012855766979947336,0.0020674731153285946],[0.009574732110307335,0.002806542812296215],[-0.012917034704206104,0.02012772396841984],[-0.00864225028559491,0.016807904981658243],[0.0033214104546500254,0.020704981969148294],[-0.005155569467409017,0.004985727922462016],[-0.007528167496391189,0.016220787838742503],[-0.0008255650837924152,0.003095531207033578],[-0.010608329919521002,0.004163494135711981],[0.0013325919726428271,0.010025045330306823],[0.0020361385555034447,-0.0011973474907040651],[-0.0010393098804016916,0.005273264883775868],[0.003767389547360404,0.019630386350474472],[0.006375408995850361,0.002025486217198313],[-0.006431278548407134,0.00012534836589303135],[0.0023737375339202534,-0.00032851322024644744],[0.0030452345534702397,0.01499203337566458],[-0.0004828851519275147,0.0011133313430721603],[-0.001010979341481007,0.007528765405204336],[-0.001198866033899318,0.02528722581217021],[0.015701401246043387,0.008089064046817876],[-0.00800881083661892,0.009823081377769056],[-0.014741513366923416,0.00449140476858342],[0.008386762061745715,0.008512366054965697],[0.0020125101886375096,0.0030183660547240623],[0.014794106540166843,0.01031488812683593],[0.007509355083495896,-0.002407512989669509],[0.0018835048918492989,-0.009619014782542649],[0.004537667585273922,0.004722891817575351],[-0.011821629881667628,0.009957909357789261],[0.008768329197499921,-0.004721441839166445],[0.007673103639555038,-0.002129272196520846],[0.01214919170159549,-0.010460886987500808],[-0.018277262608010304,0.028205364954486317],[0.004862357902854245,0.002367200425141969],[0.011132868059014362,0.01278870849336188],[-0.005896971405039206,0.004224701251761068],[-0.01655488398087013,0.026822059559806485],[-0.002087842094939563,0.018445365190599784],[0.007604253028998636,0.0239561637947198],[-0.006931017618913315,-0.01832351992965035],[-0.013458491390897775,0.015098606175198034],[0.03141613304989007,0.013030934505992714],[-0.006965940833095529,0.01450081306562274],[0.0017091041779729507,0.017212286917128512],[-0.0028118463632398586,-0.012521842441293405],[0.017251450959483036,0.00885335550944927],[-0.006151073550895708,-0.0038179708178350874],[-0.009469407335192559,0.01106997904626527],[-0.004583088923532586,0.002770907428647135],[0.0034670900903820663,0.009193136870291264],[0.024499769053041263,-0.0036618617062955513],[-0.008981065786665965,0.013906607058648676],[0.02526975653285088,0.00537690632477441],[0.015722507277624576,0.009264540075350613],[0.004559124249114414,-0.0004698937487328416],[0.0014726550704073833,0.018001997219109514],[-0.002920688039858029,0.015698028561701126],[-0.007988771415226496,0.01943024998903166],[0.003586023641682316,0.015268700760741332],[-0.007006103765959445,0.010886965468657287],[0.001492457394363403,0.011789230660444294],[0.002436344076059902,0.013672541598966897],[0.013067179868437806,0.01419864327536652],[-0.011571659032207363,-0.001932967363802695],[0.012890819692587811,0.01227655381121214],[-0.00633384737377539,-0.0027209088950785353],[-0.004571515026624139,-0.011212166381323194],[0.003115370883086641,-0.004731175237862117],[-0.005183718900264432,0.034689011492118206],[-0.009405373967255519,-0.0067243327465687265],[0.012097249885611967,0.007959698072386612],[-0.004572471189693329,0.012709687551146143],[-0.004959954217482415,-0.0025969057517556565],[0.006724716224405858,0.022534066338233048],[-0.005111035422832666,0.008792413296516822],[-0.011141567647843279,0.01407910455885398],[-0.0032823928969571868,0.01966711753248974],[0.010433224124942839,0.010733193633682058],[-0.0018048052974923593,0.010743694210879553],[0.006970365197104304,0.001983127603046703],[-0.013554974148587261,0.021767562773551487],[0.008245801432379761,-0.01599171934243569],[0.0068896424502093885,-0.009126652837879863],[0.004652257040657136,0.0068017858669624795],[-0.0063017161334916645,0.00554724597551192],[-0.004386323431574715,0.002935059201060213],[-0.007161226234545194,0.01835550309171535],[0.013448720089478363,0.007459714927079558],[0.0027606213053843337,0.017986386340749456],[-0.002857986662007738,0.025376977146731546],[0.0002430025720075685,0.00944102066785815],[0.01100086275288995,0.00599147966751292]],[[0.012220104855640448,-0.01864338478946152],[0.0013456173163521013,-0.02136705784314931],[0.014772249388055148,-0.014052562390746247],[0.01614661486724444,0.007920430581484833],[0.001762856773922773,-0.024974837239433955],[-0.006936830727729014,-0.025511605771309256],[-0.0029963583854013993,-0.030247651665231783],[0.024968830436566638,-0.004610902859974726],[0.008890515478852805,0.006227902868600527],[0.001346442129032448,0.005929118132091574],[0.008701611591685447,-0.008772629553950083],[0.0037736415974762494,-0.02356336364749796],[0.013917052865012566,-0.01751102749804481],[-0.017870851151287916,-0.019103490559828136],[0.01798116050463429,-0.0037129224827962843],[0.017261910968075268,-0.011425644485314551],[0.02969957628342029,-0.023144184342445934],[0.010738079201783863,-0.019359002805105455],[-0.0032569290232564384,-0.006626543106977581],[0.01878586775070397,-0.0035307166522444084],[0.007589606938902967,-0.017826100928084027],[0.0023090699960854996,-0.017354716489535474],[0.012362660953478512,-0.008643870120696593],[-0.007735572970368729,0.0014392718863365094],[0.020545890599491475,0.0027756550919136656],[-0.0013527583838808968,-0.02721362707740469],[0.024622589110980492,-0.005673026781438105],[0.029793861769361114,-0.014226007000794608],[-0.004623829226765768,-0.023230283939144898],[-0.007147215509777254,-0.011273167109853162],[0.006142382412726911,-0.03794690895923015],[0.023256028589944692,-0.01070559229405777],[-0.008366586113971137,-0.0133298715691436],[0.005958446238855383,-0.006352599554243907],[-6.58703055262197e-05,-0.002634668527164056],[0.006867788832772319,-0.0028645552869524336],[-0.0062993977206822005,-0.01908359819057743],[0.014781491950572191,-0.030101324170837038],[0.00790504104362497,-0.01600966295141005],[0.004723323364153834,-0.028333204954089093],[0.0076946173917161065,0.0011170713094333833],[0.012523649018286407,-0.032049051972935255],[-0.007959163807257304,-0.016503145981183867],[0.009239964372518098,-0.019462028978144693],[0.01463725821375721,-0.005557493881255593],[-0.007560118890735899,-0.004146488295858221],[0.016750857482069205,-0.01704499285057866],[-0.0019061687075764772,-0.028965280655380347],[-0.01790527220401602,-0.014440454185985137],[-0.00810819417978365,-0.0026888615108543444],[-0.0001427868123431564,0.006612834804048454],[-0.0072706672560051136,0.019377351162129706],[0.0058480395912198285,-0.032708854427839086],[0.013256853373351609,-0.008777983813331615],[0.008345059322317239,-0.006236846799117981],[0.011867048518745071,-0.014027318600485634],[0.015650334097643496,-0.025762029015393113],[0.014670817600879871,0.01019558851932241],[0.01413347443863081,-0.010707083236616776],[0.004787568767841157,-0.010666039346315891],[0.01876246139576158,-0.02704066288293767],[-0.0069312748538305335,-0.013133410177124796],[-0.0011555316977595598,0.00371945943684612],[-0.005371237429624833,-0.008759743842246428],[0.007570277981522931,-0.004793600138140403],[-0.003668728206760044,0.0002297938119144776],[0.0005495078566837048,-0.017616555565179444],[0.0028359688576819176,0.02053311190480008],[0.003969383645037549,-0.0021576515197420593],[-0.0017389701037564083,-0.011727078228125519],[0.02339103051754129,0.001281171567092963],[0.007597144303215676,-0.015803719555847716],[0.01973476342797508,-0.018107770162932357],[0.01603651553901201,-0.003313507789900291],[0.004222194464636437,-0.01963207208386334],[-0.006687853155561051,0.004814012602970439],[0.027320820005835238,-0.027112352767586743],[-0.003513854787324485,-0.008360302331264247],[0.006557337929457675,-0.019902757160436584],[0.004964630909258961,-0.010072084258806967],[0.007807302425635067,-0.018576530129261675],[0.02062463779809877,-0.0020555434461101726],[-0.004534673765086462,-0.031029263450605603],[0.012279153137398635,0.0081611581140267],[-0.00628278304245254,0.002499325078377764],[-0.004732389113019539,-0.014574266554703102],[-0.003257273952824947,-0.013048309856013166],[0.011529286556965907,-0.025851223051714445],[0.015141117155551262,-0.016641382743288226],[0.019411891832621916,-0.019230712936769624],[-0.0009930775986555995,-0.026630733775549163],[0.012907091065213075,-0.01934309630856122],[-0.005196482699675662,0.009596342109333515],[-0.007172144024819058,-0.020159549858074027],[-0.00041573579166131764,-0.010364669474441573],[0.01056508169016776,0.00037794618456261106],[0.0069838559068685245,-0.01695554245875532]],[[0.006999566237386187,0.026264937961409114],[-0.0063206062930303356,0.017445855033332774],[-0.0046011983434086565,0.014539324041188927],[-0.011603317519146021,0.022214849059047654],[-0.01007898109991042,0.024273307797007836],[0.007955456132898359,0.007911750757083216],[-0.01352341605812145,-0.00373465273870469],[-0.0015468248335652013,0.018041184307066874],[0.015653553929708037,-0.011336746341224944],[-0.00658910529733185,-0.002833752135968754],[0.013241207597423817,0.02772511439400347],[-0.010638292784098542,0.020924376379092113],[-0.02487522866703703,0.01162494075441241],[-0.01348950680254661,0.013558866418756912],[-0.015741473555882384,0.02759818274919999],[0.008005401156628752,0.025284898695240553],[-0.0037867089249245217,0.029976310156708468],[-0.01341443244642113,0.006733181509435203],[-0.006392286134262101,0.0062187343875974134],[-0.0045059835386672695,0.013665897377234877],[-0.012270600597739104,0.010476109866359086],[-0.010065233384069425,-0.0028872065967641978],[0.010301770500221621,0.017075662714946198],[-0.009123418554226347,0.00547046554862652],[-0.0025351012956633247,-0.003716093633240899],[-0.022583599563335877,-0.002336180664877345],[-0.002402513969863589,0.007920922540015574],[-0.013491891069232697,0.02236160669658382],[-0.010183729389068091,0.021252131935955033],[-0.0215020684021132,0.016634886735560322],[-9.304959370066374e-05,0.016271761332587942],[0.006487229922882836,0.01645935025661181],[0.004636845767012799,0.010034815087464224],[-0.00848369609725421,0.011764464574575055],[-0.0029397440051942836,0.02440920113535914],[-0.011268983689259007,-0.0030731953407034],[0.005827242066246703,0.016035387134723897],[-0.01041213263952865,0.0030576310956941365],[0.004688251125838975,0.0025350946536998493],[0.0002723082673500049,0.013272324445949548],[-0.025690338945092085,-0.013701460234281159],[-0.011327401337614087,0.008009967109358728],[-0.017227911619119386,0.001485931923673703],[-0.007526363070633432,0.000950048872023848],[-0.010456800647212014,0.008889183517463777],[-0.011362624231944082,0.010273778924376142],[-0.023996106240131338,0.012238599617680273],[-0.00874002729829256,0.03323695644403121],[-0.0019908566685595507,0.021936665922510708],[0.000188964904940391,0.01374181191748832],[-0.01989463241251029,0.011395902025341556],[0.0006869375491848565,-0.0005942305044265507],[0.0027496077622919898,0.019534226661693105],[-0.0026596841923991373,0.02603529198802407],[0.015832636289794363,0.03182078372269019],[-0.005785744816399258,0.012600325246872426],[-0.002095595523891534,0.010526696736864538],[-0.01007415227310584,0.02388380423883309],[-0.03215767243642093,-0.0041584763282497056],[-0.002358767368905061,0.029462307950337947],[-0.009562500927233689,0.02435164777288067],[0.008095185009454605,0.02528626994991902],[0.007230714298583284,0.006029449908162304],[-0.013925448304118298,-0.0049317575332722945],[-0.02877153665515079,-0.0016963433598178106],[0.0021699038674740352,0.00841295836607716],[-0.006202152916155309,0.004713310853144046],[-0.03203581181087492,-0.005121198928221281],[-0.00402757714076428,0.005443804006523696],[-0.021111024345650257,0.010057247700588162],[-0.009270120103080369,0.005758815245986418],[-0.01659771142771706,0.012303445517711113],[-0.010791831991677523,0.015858444841786182],[-0.0029132190734067966,0.014872773625384488],[-0.0030329510338952324,0.017604600696723118],[-0.006084954473204806,-0.002280899410068503],[0.004234627729482781,0.019483740006131758],[0.010572373449669317,0.021699658684508075],[-0.01968047677311237,0.01043997601485934],[-0.0016991874454507234,0.02629366900836224],[-0.0011864920320414118,0.015106084555408997],[-0.012497175608632524,-0.0032625458572531673],[-0.0129822114797852,0.004558158223940499],[-0.0008175132494190732,0.013889654201880418],[-0.027234218594830325,0.0272217294209417],[-0.010413242929783947,0.007715152427052775],[0.008954911023693845,0.011479509207511639],[-0.005004703091165749,0.014428758261314742],[-0.01018198412364969,0.03195225808772339],[-0.0018639539292120094,0.014081715265405255],[-0.0038179115029777656,-0.00794791179084179],[-0.009608545812880512,0.041250266270842384],[-0.011125232240591918,0.030349930756044616],[-0.012813460085332686,0.0010542168147281534],[0.006260127482180992,0.02092986549400292],[0.008177108337768224,0.016304076295018326],[0.004899513814674708,0.015093164489371322]],[[-0.014138717976310914,-0.010024668834428598],[-0.009017059131647642,0.0087776625024627],[0.014651661039277683,-0.014489338856983024],[0.0003866679349903561,0.005441020336282049],[-0.008696327019997516,-0.006154252082532219],[0.0027591116561566454,-0.012931178335377784],[0.0037385705211394646,-0.020129098769485407],[-0.011566798819537467,-0.019284055015560953],[0.023117740880150683,-0.006195175679921566],[0.011950500951939592,0.004638842600648028],[-0.004180067676133587,-0.007302902365919276],[0.0054224874515897935,-0.025237750613211967],[-0.00046302594890318687,0.002458149672835345],[-0.01736912304967127,-0.004859991783673732],[-0.0015113630619635996,-0.0054815995264217605],[0.006382243058437621,-0.0030050045208180453],[0.014533889305297719,-0.010769158436387403],[-0.004268869825159015,0.014590035167544176],[0.01954598297465282,-0.002116904136802892],[-0.0037866174127902693,-0.01926705567709131],[-0.013011522235215955,-0.003380141358510774],[-0.006801527220783069,-0.017903849030693364],[-0.004623440310113778,-0.014245864725813705],[0.004259384259188479,-0.013908507099384822],[-0.005294326598666831,-0.015667316860132285],[-0.0021138929282270773,-0.016630033149947404],[0.01108123402771187,-0.01431438419244796],[-0.00013201095118066774,-0.006989784864791201],[0.02710677996920855,-0.013108969652003324],[-0.023484924808509163,-0.012993682382968188],[0.00766030364998281,-0.008032502728732646],[0.009236847905183733,-0.013133036149308306],[-0.01190992506929085,-0.006259271095366978],[-0.004554360919172792,-0.011098320789099276],[-0.0006041009023487749,-0.006042549479881606],[-0.016181342809513465,0.01233309820277037],[-0.001920270326367775,0.006676504402115158],[0.00824821860316548,0.00042150390253773974],[-0.01022608474593834,-0.023592326547350828],[0.0008812296555331266,-0.010048076953459325],[0.003138939382121221,0.012085643978744374],[0.009149792860161208,-0.039079777036162146],[0.008410109672932441,-0.01706917848504967],[0.0011212736981520404,-0.004554517109490227],[-0.0004719042822041397,-0.005253506113448633],[0.02058300165115907,0.006768377247460176],[-0.007764333842327533,-0.032080116211714874],[0.0029146660693834554,0.005088387243438934],[0.0011497522453613304,-0.01092543512292794],[-0.010057567685936703,0.008004798667068994],[3.908015304849816e-05,-0.004068911882310536],[0.0022600093081112205,-0.003109822690109148],[-0.0024843609469446483,0.0002938262707931821],[-8.404020294151804e-05,0.004278762643143035],[0.0022894490620526888,-0.016542938783982993],[-0.024688540731241247,-0.0021629280697168084],[-0.0022956475658788204,-0.003953257362078727],[0.004503060837904399,-0.012869009493646682],[-0.0058362605471396775,-0.023539710372453528],[-0.016311703937797215,-0.0035066586016397026],[0.019846567450858773,-0.017999467940737337],[0.00951355891525579,-0.024806663919781126],[-0.007038084489989138,-0.0029445421951790644],[-0.004073936398033034,-0.016389693811205256],[0.005084271845785583,-0.007330409936616617],[0.020970863502830082,0.005120214099551647],[-0.004634977570277259,-0.012128645226996108],[-0.01273698109233184,0.00712524182670238],[-0.004583579474606132,-0.02097857413259153],[0.009408330366629676,-0.015993172258544776],[-0.008169671158135737,-0.0009801598210930562],[0.0056586535852353285,-0.0029707703534656783],[0.024871607153455745,-0.008127992823501802],[-0.021671426185914004,-0.0015396684503108664],[-0.00962759930923852,0.03339954416004919],[-0.0050186587592898225,-0.009716970838471447],[0.016588342804931887,-0.007973914783718075],[-0.004747345501870216,0.010924006023871644],[-1.0331510379971938e-05,-0.006787984928627126],[0.020866109627646293,0.0007269789348949858],[0.0035017598309086883,-0.005997239760567907],[0.010015766138264538,0.014585478501802192],[-0.003035781411923874,-0.0030417682854669394],[0.008898695779314658,-0.027373386892641478],[0.000157202374149326,-0.012155977172475591],[0.005021016422153266,-0.009372151410354773],[0.007893453117839889,0.007318872142851921],[0.00025076105274824404,-0.010825262718511303],[0.01454955828118055,-0.011386490729380753],[0.012367125308321488,0.003463201105775076],[0.01108216879817732,0.0008475668703913725],[0.0030626087874345348,-0.015614169484774933],[0.004357827171350912,-0.01658885274289612],[-0.007840835898538972,0.0025763725541649656],[0.015358850724247985,-0.006828414610347882],[-0.0011432963516255874,-0.019911856642438698],[-0.003688917828903023,-0.004413460282162246]],[[0.017272491928318666,0.026269321335938817],[0.015012811238133994,-0.001575357350414891],[0.01080376901372445,0.004921780768006842],[0.007957408913342689,0.00890426413558842],[-0.007583141384484232,0.01622409024645802],[-0.00855754066688625,0.011137185563116362],[-0.00648137674906227,0.015300420134593682],[0.00679683689131959,-0.0040271838866069885],[-0.017063397124624798,0.02466252250234238],[0.0044290119881879525,0.009517474324954282],[-0.0026633174653999067,0.029064257748515235],[0.018024100009489983,0.007797433646869851],[0.01638530846159268,0.015451768566434463],[0.015436527988723593,0.01408713186268842],[-0.0064839655842971545,0.007054922198136224],[0.011460293607534299,0.004246974538313684],[0.0032438051553468844,0.012148881063603203],[0.01430453767261895,0.024224921153987385],[-0.011804308576781965,0.01393650445356909],[0.005389319277942598,0.011895806743129135],[-0.010564742695098245,0.006921668471473064],[-0.008531239716039432,0.020878944590257156],[-0.02155694299631507,-0.003686568023386231],[-0.0093021846683672,0.036869880944908236],[-0.003150511688947665,0.02096172763563013],[0.0066050034846329595,0.017562876085773966],[0.005626560441209059,0.01391923031427113],[0.02177838763251171,0.013476172390738629],[0.0011923914201260669,0.0008823430377285635],[-0.007084739302944306,0.02535567048951534],[-0.013981448543193371,-0.00902926792275253],[0.001441058482461761,0.007505135342234094],[-0.00978521932025713,-0.004152536940762905],[-0.005373842076819217,0.024579344403480665],[0.002777356029653178,0.022427326055689454],[0.0014989235487095826,0.025143698041024957],[0.001519378615767039,0.01849254877618985],[-0.019152667356580666,0.01672924524061346],[0.000700522213107351,0.01772925536092549],[-0.0076580374534179025,0.019402716053818207],[-0.026836604117955718,0.007084904263539702],[0.022663486093201252,0.02273000965135562],[0.008744767864374281,0.02688068679936082],[0.003420490634363567,0.006118906579178473],[0.00684747743109076,0.013620867341354873],[0.00887003671199264,0.005775688596505749],[-0.0010367202029204446,-0.0018968844278503037],[-0.004477655749266963,0.018711092991289938],[0.023528674125547207,0.028592926930244695],[0.03220802382693001,0.012950927951532642],[0.00857247466324704,0.00803951670654527],[-0.005733997132297166,0.015006561640618945],[0.006954551802352959,0.007878530042050195],[0.011615331618856854,0.0035855918907807187],[-0.004933752754818633,-0.0012579536834427466],[0.0034586952374994367,-0.005558112515974061],[0.012934225924420062,0.00607199806328902],[0.019957558842480613,-0.005510836283095499],[0.010166816234164515,0.0125387770016187],[0.012002835289349999,0.013937375177882143],[0.01074245197288974,0.0060160276330185995],[0.0048479846763671555,0.037395927177584554],[-0.014432396848975012,0.033445667352830256],[-0.012782236019874476,0.004756765313128017],[0.013375441760119514,0.01878123522442002],[0.012767326641832152,0.013348421596304337],[0.013722884735534962,0.01115037248886741],[0.002955970216314947,-0.0030241800220168163],[0.005831348199454325,0.03396311586969356],[0.003329122968869367,0.009533114673446507],[-0.0005203943159185094,0.00606445744743793],[0.004998423650137418,0.019304776819997517],[-0.011414935031702452,0.01733643924621481],[-0.0066376429407263345,0.024473075922376165],[-0.0027794860406655008,0.0047018620082540106],[-0.00683999834580747,0.03530767032324893],[0.006854622742659662,0.0026803030320478906],[-0.00048684548855562447,-0.0066983454522835445],[0.0028686561572953007,0.006892953853131253],[0.01042159327184599,0.02497016186320781],[0.0028908434184077274,0.010910973667132527],[0.002375699871956704,0.001566579138594197],[-0.015303732923765434,0.0155393174830261],[0.01698242045858823,0.025658018487039164],[0.017820572745070106,0.01792080416626159],[0.02008714811577938,0.03439446851524688],[0.02876588522676546,0.02271706445239466],[-0.010281501482738238,0.0071027885033734615],[0.004377622445524529,0.003883216947932782],[0.008660849413995194,-0.0037606950937874987],[0.019960012914709425,0.014012144878707226],[-0.013017607889471625,0.008182781361102565],[-0.0021023430299205825,0.011311358003805795],[0.010147215894772592,0.02502429418308025],[-0.00858126189530668,0.01677527703674097],[-0.006925412683928761,0.0019298128857527998],[0.008463401133575178,0.021890305788113698]],[[0.0040398783671513755,-0.012691296970507799],[-0.01013467048201518,-0.0010843267821375457],[-0.007789973074212012,-0.01627963942484143],[-0.017712632947440517,-0.016561923826140572],[-0.009155809685768799,-0.004282996006945536],[0.004383582915703538,-0.0053282413044501015],[-0.0203828763261549,-0.0031069680350648433],[-0.004932398028503861,-0.018280291421913602],[0.0018121629379850995,-0.014922149407157689],[-0.0069798590468694785,-0.00652243053568021],[-0.0075107040078811575,-0.022563696587377106],[-0.0025373722061152377,-0.01993302274390208],[-0.021656606595566934,-0.011433269895920513],[-0.024283368846288598,0.010361505058835742],[-0.007554793566427528,-0.0021840252097922665],[-0.0036113384897720332,-0.006603779543297934],[-0.007771331660630738,-0.014213464317814424],[0.0019324867512547743,0.004449289721992534],[-0.01316961336445124,-0.020279904733682713],[0.0024350880652695738,-0.0335000105497402],[-0.019126854573020154,-0.009417773593986352],[-0.04037525894634566,-0.006281753655466694],[0.01028928360176794,-0.015323034526849817],[0.009121038130090438,-0.004657437242266053],[-0.013386634548203994,-0.002281708311265623],[-0.004899863186503235,-0.012502572559025638],[-0.006547163425492338,-0.026863917026970555],[-0.028183877742826473,-0.015477160301783041],[-0.015451904351166739,-0.025031502527590038],[-0.02009689415127513,-0.022685914565793056],[-0.02070144257471804,0.002173280654235992],[0.0003756134930647604,-0.011431463675452277],[0.0012122818390435817,-0.0186843788234931],[-0.016724479256330624,0.010166801737524154],[0.014105381539092788,-0.016056038625568436],[-0.009395484031427224,-0.013359610266152072],[-0.013494330542721533,-0.004718155468864162],[-0.0038521823972817912,-0.02762239607289786],[-0.015326706293260916,-0.006566014118062508],[-0.01690283733718806,-0.022196085520136435],[-0.0015869384906755687,0.0026111883725312684],[0.0038763866269314914,-0.01873353884833001],[-0.007763940588100021,-0.01650892140330811],[-0.0021918693010179687,-0.021458325024414332],[-0.008056487843148897,0.008071296948917115],[-0.008862982074663562,0.00438004685817179],[-0.005552648097767026,0.008105820907536206],[0.0017095592135208501,-0.004175582636167227],[-0.0072727337134258566,-0.012040881800940463],[-0.009881537963504937,-0.017472012624488685],[0.005404695361789502,-0.0062115489168652355],[-0.007058792001345383,-0.02061746395853554],[-0.0010146006645120258,-0.014882667047859755],[0.0064711766527321595,-0.002859685355091192],[-0.007639846651616852,-0.006992292199328288],[-0.006436235759333334,0.007204341678578638],[-0.0026879904391264985,0.010971818152235828],[-0.008645574042607228,-0.001197992681218067],[-0.028156061048739175,-0.015919214084298396],[0.0005900899021864142,0.004748587727956571],[0.0048368759160809455,-0.003030524374230383],[-0.009670841649415575,-0.01334074373781449],[-0.008319267200946688,-0.007038378393042268],[-0.005431889967880123,-0.01778938256430853],[-0.008473522575288668,0.018601590455758862],[-0.0173704658853463,-0.009046144490230858],[-0.026449962033332098,-0.02204288704345861],[-0.00763222765912256,-0.00800819248560445],[-0.012408657895362964,-0.018049392937255063],[-0.0008274900142474377,-0.003779475987730958],[0.01382057498682424,-0.00776238516715115],[-0.011864558284737469,-0.012569982773443374],[-0.023720007430291776,-0.0139282205651028],[-0.014387643778227422,-0.012493260364664846],[-0.03017748417397104,0.01874437308846607],[-0.007503927061476353,-0.004131714858010929],[-0.013012881101932609,-0.001863872067209458],[-0.006070275715943053,-0.012317252986439535],[-0.02346274930906471,-0.0077531043047422265],[-0.015165844735334237,-0.027804340543200138],[-0.018332762748855726,-0.028621867391118744],[-0.007720851148445171,-0.012054821493820393],[-0.006490338334736437,-0.02433164660374348],[0.01445389000854966,-0.019816446821126796],[0.009442858810741134,-0.025348559550500104],[-0.027781491735000136,0.002643351092922262],[0.0036403448469490714,-0.004110183236187384],[-0.01367368673575095,0.00040171764054910063],[-0.01795149627086642,-0.013817126421323966],[-0.013600432574413426,-0.013639422595716886],[-0.027576385864879743,-0.004093196056397338],[-0.014799385426352278,-0.0015648432725961885],[-0.01956639910926012,-0.0098342432391452],[-0.010495423273343282,-0.02465417883702603],[-0.0071549955588205896,-0.009402211375814635],[-0.01418647357859509,0.010568032582037415],[-0.018384874752512093,-0.013973682605725847]],[[0.019158978144397164,0.014705292365064689],[0.032022719259725385,0.012885510973449461],[0.01813311694470941,0.022351394631077815],[0.007841409520147648,0.011528768242801243],[0.01377592328026808,0.003487992392605764],[0.01495054811936724,0.020177395474199222],[0.011380738319759342,0.007044109302738474],[0.002788276555336938,0.010158672584828169],[-0.008894007003443422,0.020431606257493795],[0.01558995638384164,0.022822220282037335],[0.0121153247825375,0.008606149967385361],[0.04224051036841976,-0.004712459052752443],[0.016095420892173962,0.006367696279481814],[-0.004821524628684553,0.022402258985503246],[0.001785779420424141,0.009961322035129744],[0.005956303110155509,0.022298882550512947],[-0.0028301490730217077,0.009673921173215543],[0.011511636235486494,0.002165513075267659],[0.028436028424252125,0.006269661761250415],[0.01792305160146049,-0.0017329405291978042],[0.008105036350014657,0.00011337892709932027],[0.00044758263748121915,-0.012659164026305616],[0.028400782206047154,-0.005020730372091329],[-0.0033816842961294155,0.010007450118079776],[0.012943244278658514,0.019118363839773937],[0.012939293349090265,0.01664173528028372],[-0.01703721899278559,0.007158190108255614],[0.008325292166749312,0.02354633853383973],[0.00297524484241722,0.03108585197221995],[0.017767549995681788,0.025001872926534233],[-0.0016622143133237306,0.01724925517329315],[0.015324486375147137,0.011830795882265648],[0.02146679298321565,-0.011387269173430784],[0.002179752846978846,0.006815226578208629],[0.013024113183886826,0.012630488672680006],[0.01984404520077629,0.009259599949205301],[-0.009846989736839324,0.03284689600357402],[0.007441418253824676,0.015607804783759574],[0.04320325920731153,0.005422235443413939],[0.019655329162229944,0.015659048310206685],[-0.001520858008807179,0.006168383145136008],[0.00807654487924935,0.02779696120245838],[0.0036361084169740142,0.010606608690810964],[0.0034794104878353403,0.003098749541697116],[0.005139596901166972,0.004923820172548874],[0.000895111751250301,0.0037075418265856623],[0.009206496190975638,0.009398335314931746],[-0.004405152557771925,8.285110793398633e-05],[0.016797916275658107,-0.0011715584901248433],[-0.01248003175378841,0.0211456398770369],[0.02602486547129555,0.01199471182019799],[0.005529317800597578,0.025488014228031892],[0.012819892047774268,-0.004454414896459608],[0.0017391099749692086,-0.007895986485976739],[0.007020465179077524,0.010646113648589401],[-0.00038749886502829,-0.009669406995690254],[0.00987692128605411,0.021110374034868803],[-0.006776943665221394,0.001244014135080621],[-0.0036713107635507,0.013304262597982707],[0.019808537447379915,0.025769062891469838],[-0.0025279369167787082,0.03766648681227286],[0.020312974704506815,0.017741496577938144],[0.02946779834470964,0.02158713735011452],[0.020371046917916205,0.026857281577128026],[0.0009915637514874701,0.017409966886195158],[0.02221687788489466,0.00973823609853926],[0.01650459272675214,-0.0017715444847804208],[0.019952430204457125,0.015624528108433452],[-0.01124468694521677,0.011255850855400715],[0.005606343604374793,0.005404657693503592],[-0.001118037295870011,0.013851490523599158],[0.015780909781648856,0.028085918097486142],[0.019747397375497827,0.014555157116462934],[0.015878686850038702,0.027027006817955043],[0.002102716260452924,0.02462437287106766],[0.009537455111833302,0.026903462799375902],[0.011644486355640143,0.013686935174076447],[0.0275791086000831,0.00018372019600514209],[0.010781949461241032,0.02549475479000721],[0.0047590073382574,0.03027381136915046],[0.026114252930906887,0.01713016984345731],[-0.009304108103726332,0.018425920761881803],[0.015980918445951897,0.0079890832608766],[-0.007510258440281377,0.021423448028155344],[0.005677535707165806,0.01899275681908253],[0.008039427864229,-0.0006080201230133708],[0.019831618604491695,-0.0017112475727736414],[0.023002520364576298,0.025429403130098997],[-0.009163022995828855,0.01828285934126699],[0.0127261256112204,0.016197099918279067],[-0.0002262797103130526,0.015150159095954407],[0.01828418261873095,0.0016577770126250833],[-0.007134802412604114,-0.010236981401517086],[-0.0027074875422995782,0.016570871590385037],[0.00683197871493528,0.013702920336340999],[0.024953745185377213,0.01625081861968323],[0.004375393561915951,0.03624712138935715]],[[-0.006655836046882587,0.010258871888906599],[-0.027672230715597674,0.004750882712429588],[-0.014768100815628734,-0.01476995662056754],[-0.010189213930172952,-0.0024280735830492844],[-0.0100520332718641,0.010593870694773081],[-0.008283322780270557,0.004361376601954051],[-0.022150577935595196,-0.012663865905057291],[-0.02865132532344151,0.004388173110664486],[-0.006924922102724313,-0.006350979878306021],[0.006060937809886467,-0.01947081168627985],[-0.009294172592010526,0.005936958137215908],[-0.02639539425824397,0.013681076464154644],[-0.02613787733650188,0.0018210141101338319],[-0.017104887759190758,0.017942021283898654],[-0.013424385885763022,0.005265796239770227],[0.00017226932077221322,-0.008793836012883326],[-0.01909813793770359,-0.002846293401020657],[-0.0035813640001504323,0.012956923035989585],[-0.002681486245789297,0.00965466657856697],[-0.018552813572699046,0.026987895496382207],[-0.008985099975735288,0.0023229339491452924],[-0.006854398785716393,0.003069555188832933],[-0.028810259284703214,0.006408198710678359],[-0.003923786244857309,-0.01917644916539033],[-0.011139016002153198,-0.015329295342612553],[-0.020257056596567687,0.008863158409301367],[-0.007474084009963644,-0.006901265112235714],[-0.03203137812863812,-0.013517164196898001],[-0.022132818880310868,-0.01342643882624684],[0.0061236580410675085,-0.006264444899878951],[-0.0024119377137076523,0.005306032602385562],[0.007372734823787284,0.006496760727274502],[-0.00433483991530632,0.00953847679346077],[-0.011795178877525962,0.009368765316711537],[-0.013405458624377056,0.004140585196262022],[-0.005088602359336477,-0.017707052389039524],[-0.016881255206445046,0.017269623674218013],[-0.0015977536363755989,0.0062116137705668355],[-0.027455901192411487,0.010711446330031833],[-0.01616511633979236,-0.02502049418362682],[-0.014044116828324607,0.007544382839198462],[-0.007172349012052188,-0.008515842295869717],[-0.019132831216562087,-0.008825525355592168],[-0.011798531711186758,0.008670981179525682],[-0.034886051808775444,-0.003497946223063759],[-0.01909140525522896,0.0018542147765129042],[0.004531805533437645,0.0005746521491428159],[-0.016828443165334776,0.008025542474932416],[-0.018293364072690946,-0.021434223040635646],[-0.018558265986415873,0.026822680800395113],[-0.006926943425191822,-0.013845348638593125],[-0.0317440077456644,-0.0060378133099432],[-0.008220992714767356,0.012759328365128386],[-0.015579746647793382,0.009280035489382643],[-0.0126399708970906,0.017706947718886357],[-0.022114113302334974,0.024132470317106823],[-0.021848553881346846,-0.026616781900052594],[-0.02272696221787022,0.0003836000094340767],[-0.009107769552755348,-0.02585721232399481],[-0.015851025269225317,0.0027331004570314925],[-0.009106755237275723,-0.012236320083428847],[-0.01661220241276654,-0.0005897293094240454],[-0.036257873981466834,-0.028469418785974823],[-0.017082228414873335,-0.006093426626162237],[-0.015786592044862963,0.0007184951401388601],[-0.016627197548976937,-0.009587109874440976],[-0.013393020377408721,-0.005113889692060295],[-0.004529383901723802,-0.003691163628848359],[-0.014867613584339974,0.007848478750761447],[0.0051320410071263815,0.0032050317441710903],[0.004330042426816437,-0.02042077131837994],[-0.017694430366431008,0.0009751748913530258],[-0.005093522452368271,-0.016700944495097632],[-0.02287029418573291,-0.01820805966131789],[-0.022443898511747922,-0.004210487577725484],[-0.020311487664835492,0.0006310011315882436],[-0.016099402230222177,-0.021192802116620356],[-0.017790277195118685,0.0027291561473775645],[-0.019279170074014515,-0.009612172564673093],[-0.00767897203698449,-0.027722656816873664],[-0.01230113890803857,0.00672817935337544],[-0.017758968640270482,-0.012837498467098335],[-0.017759029042015716,0.005012142782503645],[0.0033614778523231594,-0.014785758859379123],[-0.015659822513098293,2.94092115326423e-05],[-0.02708024773143514,-0.012941770805542752],[-0.006406500654897069,-0.008618647302807753],[-0.0018147980270899955,-0.004858332129327256],[-0.004228175129099424,-0.0063143851928128105],[0.00043819858278470623,-0.01065082758784457],[-0.029148913483173906,-0.0072796140175691235],[-0.003004342360311374,-0.018008901641516903],[-0.003320655816673668,-0.004255421785617272],[-0.00966329066704369,0.0004759574908806906],[0.0003216554663237651,0.009940456782931161],[-0.011099403948171634,0.010663916070609342],[-0.021146044621555823,0.00997525165263679]],[[0.03264296131060126,-0.0023641650704720003],[0.026583079069019196,-0.01422165896635398],[0.01228479458956031,-0.0033909830002375025],[-0.0017841849083366562,-0.014254750964666085],[0.007703942908969999,-0.013654916350364223],[0.0043687475226870335,-0.013277847203648557],[0.011453892332589245,0.0024383998276856314],[0.013181674505900466,-0.004253191935479502],[0.025120396711790716,-0.0027712594809348534],[0.011896477876423167,0.007999738474408602],[-0.0019889076715272776,0.0061528200929996035],[0.005110519296284539,-0.02712937810617104],[0.010240711541441698,-0.0022987458020721084],[0.006663637821352376,0.002165560195052864],[0.007501189111327142,-0.003975490976681621],[0.02648326976430578,-0.00588023094748441],[0.006891585444336772,-0.01340775034040667],[0.02396270734272715,-0.0009712035073132884],[0.017023913198307934,-0.004170813486866777],[-0.006546577119365471,-0.004470654289333017],[0.006116400558147919,-0.00893960123922234],[0.011620162478459577,-0.0021414896922572037],[0.005069603474445825,0.000396461250263291],[0.00024168385739210867,0.010967972914323085],[0.008819267176713013,0.014246767406230357],[-0.0008428471734939442,-0.014038276549439618],[0.02822016063226779,-0.004517444262977729],[0.015204283405772004,-0.002856639878300062],[0.011183889535173264,0.006425845529533953],[0.007243960472234194,-0.017131071334922286],[0.016472300939989942,-0.011013168847518087],[0.004175770955781243,-0.0019996670600401167],[0.03120731024029522,-0.005625453077451805],[0.005280578469950111,0.006535812291997786],[-0.0007711039423456125,-0.023303611801308854],[0.013204833037512135,-0.0015881627101607372],[0.02418519004786556,-0.008417337791099006],[0.00168729448450295,-0.011795296398909803],[0.004350499056438867,-0.03110312801156077],[-0.009080554733916321,0.005873869434373401],[0.00752425678331473,0.009588683147803739],[0.017301889434112122,-0.008289965125058823],[0.02309837338391147,-0.005672111808893679],[0.025461377526692253,-0.009601323888793463],[0.015126737147591367,-0.01003098210272214],[0.012309551517515291,-0.01042601416592594],[0.011743352559152232,-0.03024424931249479],[0.01660104788930663,-0.0025044996682417634],[0.02056082427465212,0.0024402368442479274],[-0.0008059580290357785,-0.008041659456930163],[0.010919194710080585,0.0052197604317539325],[0.000756764612698164,-0.008748968896317648],[0.0011376770245807328,-0.023574560292127848],[0.015590499293418561,-0.006078759850312036],[0.03741842847217129,-0.0030768269448594064],[-0.00968784087559388,-0.013609737734448454],[0.024926049642601804,-0.006556170554371762],[0.00610083147576867,-0.01576349537614716],[0.009495119273884071,0.010111715714284443],[0.010788234094975658,-0.04288954444775629],[0.020083340984251293,0.02031096150108574],[0.02341139131456876,-0.006400064317457278],[0.012087220547744372,-0.009629359666363019],[0.02635590463150941,-0.006947195705770927],[0.002349317478999518,0.0006203654793141906],[0.01592585182349307,0.00011057453292918155],[0.013688721498887014,-0.014748723017093705],[-0.007232746341817559,0.015829378831444016],[0.00974790522455131,0.010780777828455374],[0.0016586290200947247,-0.02692596024856385],[0.014113197817422124,0.0020885806735503653],[0.024740863563598874,0.020096881883144492],[0.010607048854188306,0.017297517247776648],[-0.002892558265167817,-0.007639839585258484],[0.02349405783135569,-0.02069260865370819],[0.02508722424475741,0.015458482796272294],[0.011141899612554103,0.008668485815412403],[0.026530084235909062,-0.002148653753454994],[0.007973679929469091,0.01521475564816376],[0.001187074934572826,-0.019375849231937917],[0.0069578011353099945,-0.017552329232594043],[0.009169900686553071,-0.005559309951981049],[0.014362366257754743,-0.01925836437199458],[0.031165541278372906,0.024115992962244526],[0.026147842442704128,-0.026441614152850196],[0.01282231069779296,-0.020196228953851477],