{"Layers":[{"Bias":[[-0.008706594902189405,0.0062664164962282385],[-0.0009718533176499716,0.0050228080844364744],[0.013265498512828617,0.012287211711459044],[-0.0009686068361511132,-0.03686609815766105],[-0.0008093431070316708,-0.012293973521885672],[-0.016867513138267724,0.003828041673452962],[0.0008326812633344382,-0.005366830121856838],[-0.0032701526137299737,0.011986847288082303],[-0.005061179488169877,0.021675369024549678],[0.009257749997529359,0.010887414085955558],[0.026759695745341823,0.017739797463306187],[-0.015755609813304497,-0.0017907493096906723],[0.008984257950612994,0.010217093664100873],[0.00756729258790797,0.017383308611110877],[0.0007221262780939194,0.004988152865290706],[0.0034711571270415755,-0.00860980456073884],[0.013449034663726716,-0.0029937530504415737],[0.018093557926696483,0.004849755885665939],[0.0016138303777685295,-0.001546015564185926],[-3.610618843004042e-06,-0.0009538451853580373],[-0.0015704788013173729,0.005762643945269465],[-0.014591476723308483,0.018646482018222037],[-0.0012539261536140705,-0.006182897054282314],[-0.0037471097523986098,0.013857972425183916],[-0.009566525389068655,-0.002722430759851943]],"Inputs":20,"Name":"FullyConnected","Outputs":25,"UseBias":true,"Weight":[[[0.010879558092199119,0.026456983541075417],[0.02272025901485401,0.018017014025979244],[-0.0016375325703132737,0.014781328757259496],[0.015393386375454772,0.024566129076430424],[0.009507236582537772,0.02088602400932499],[-0.007594743707978346,0.004696343980245657],[0.01736303405516354,0.027451589373384856],[0.009040636545370068,0.01326565132026372],[0.011948097865156182,0.033844573836761205],[0.012932462330348928,0.013702815458830587],[0.02054800253377543,0.010382186257006853],[0.0061826599600741305,0.02597964690411249],[-0.001887175617251117,0.0263743637965256],[-0.006288905170341606,0.026773486970915007],[0.02661806848416332,0.01945969170797925],[-0.003996729856944656,0.032144951499171244],[0.014414909335149701,0.034920391243108605],[0.006874528481613104,0.018378261333829374],[0.021676113207178875,0.020623009683144962],[-0.0009385139235827237,0.02603404141771401],[-0.006728763485543282,0.019940777758776174],[0.004029699534990962,0.019700181601552305],[0.008008710159958547,0.018546293952269532],[0.024995237607238017,0.018064320881226354],[0.01439299190143514,0.01660118789249117]],[[-0.01998669683572252,0.014360854709524704],[-0.03919125849655641,0.0325424470355196],[-0.02420186077348721,0.017850802789033587],[-0.03822646615140256,0.007303889364129726],[-0.02148838192013251,-0.0012614982576411643],[-0.020682461461430556,0.024479609698852357],[-0.038267872728583334,0.010259957838660355],[-0.027827485327549785,0.021137773476358805],[-0.019027724352168693,0.016203414173980028],[-0.01534134862556977,0.014865826760354318],[-0.042377877355820326,0.01449992521612461],[-0.03122466220424134,0.024239395625296922],[-0.044829540825268015,0.02827363030785591],[-0.026120036992016933,0.014519465169384184],[-0.04156408817129145,0.031231004784378083],[-0.03524899337662791,0.01414238864857653],[-0.03369837826422704,0.00382613700558091],[-0.015988173528891644,0.01831965654992028],[-0.04708605824188311,0.03545626099347416],[-0.026628958402447174,0.021068094642267086],[-0.013367749819575045,0.020066434563412203],[-0.02646658095092994,0.01403014435694075],[-0.03107247702634774,0.022052440172541748],[-0.02452260165558778,0.022706562815645977],[-0.0198243489454967,0.006761734732188113]],[[0.020818575458028347,-0.021074017561259914],[0.004116401026075982,-0.029031801458896538],[0.03761202623712023,-0.028997877719311223],[0.015052077136304961,-0.04359262371948862],[-0.0032192634933742117,-0.040820052958893197],[0.01867920010316938,-0.02379690158638301],[0.014140739665639954,-0.012156620637207958],[0.02456307704452988,-0.02288687116931382],[0.0017186297219280804,-0.03064993221579671],[0.01021075553744293,-0.03682568961303662],[0.01068134532140835,-0.016628613432941943],[0.00549195766539562,-0.028079700820398342],[0.02161443914253725,-0.034827139009538835],[0.004119319582382942,-0.034061333122297505],[0.023956717842600676,-0.02746197081880871],[0.004296741126389656,-0.00915949885950647],[0.006857706769205981,-0.020255063517499207],[0.024671829396704748,-0.025182446967152716],[0.008211533761726198,-0.03831930264825391],[-0.0027789431320099293,-0.03791501237407387],[0.0029780863118677044,-0.0033340180647544425],[0.028321938504197074,-0.013386693040655645],[0.036702295278104105,-0.03943976233356428],[0.028261555510424276,-0.030087350211030144],[0.0239024488276964,-0.024903747467289954]],[[0.027660503959194206,0.01509601002888844],[0.016285875978749448,0.02233847869555094],[0.038963018857477535,0.038896824393410266],[0.01479105458943833,0.014370702652328154],[0.017008092901749372,0.011735899921021984],[0.01855747555313181,0.042425870653508925],[0.004024566598563585,0.008612471421712937],[0.01617211304542216,0.022367355106822483],[0.011466166953727132,0.023764317976235242],[0.006116436262561205,0.030059062810787688],[0.017829480473284448,0.019658262955710843],[-0.0005156165565679152,0.012093347345637767],[0.028495476588441385,0.018636066107842325],[0.011615037201671376,0.022115457394649072],[0.010354991119786328,0.023526069115948806],[0.014405998073347945,0.00861677680198696],[-0.003745594441907696,0.011345319676598657],[0.01877443643246964,0.012504664804730241],[0.019966381978137604,0.009342358970081874],[0.019949671911881982,0.015131942890380938],[0.0027994941905504925,0.028266326125961073],[0.0001221836359912463,0.030102508989895586],[0.02213923135654354,0.02095642651944717],[-0.0037394384783890483,0.02483265235140276],[0.010367184950140045,0.03154671524755539]],[[-0.02690225650204672,0.021026499660439762],[-0.022402377536443117,0.014047019608243838],[-0.02889375223402144,0.029427873208762147],[-0.02352872486640891,0.007633273422841723],[-0.015835677093910525,0.01919590670413062],[-0.03013096990367141,0.023376827568806106],[-0.0020871452607462895,0.02826451543347199],[-0.0386925622788516,0.02941745179563915],[-0.01673306394706432,0.015714244593965046],[-0.02761248917545374,0.024004893678782658],[-0.021038719666476063,0.027881244265792783],[-0.040231237092874766,0.049595611103214636],[-0.017321146032514903,0.03998548096763339],[-0.033010482129935306,0.010773086783482882],[-0.02097056261666313,0.02804156130467095],[-0.008902477017687278,0.03370724614700471],[-0.021239830958381313,0.032863333098475],[-0.01561560645192347,0.033330913578488684],[-0.017808413448119332,0.016469228584646105],[-0.02122148234367476,0.026779514870074524],[-0.021349041819810434,0.03491695406118636],[-0.016309240626462714,0.024223602087237023],[-0.022362871785899432,0.005818854431962789],[-0.02736787610560021,0.025402906649046084],[-0.014194081025999079,0.02291061308612693]],[[0.014720405020558172,-0.033644436746991455],[0.03348525130028172,-0.03893232310149534],[0.020362841136016285,-0.016846953214167005],[0.03150914104224413,-0.024239236071304324],[0.012709782084468189,-0.03550018127127142],[0.01653622808036539,-0.02590108408108349],[0.01392791434441119,-0.024033677561213527],[0.0007699264953610866,-0.03412867020022287],[0.004314875381940107,-0.03237337952157104],[0.006437587960581454,-0.02096352460524536],[0.026394812808312632,-0.029932765496264124],[0.008341025091204452,-0.030151754669473365],[0.01742707749802729,-0.028199834600780568],[0.029833365370291885,-0.030259853706543684],[0.030091391798348483,-0.03677875032660955],[0.015129855268188639,-0.024025970119158063],[0.005448207045175389,-0.019430615734303432],[0.017175742209699304,-0.028933632624995053],[-0.0044159168938765906,-0.01161358954710693],[0.02086561661978172,-0.016348416993168576],[0.011994980073326025,-0.012951536089213182],[0.0071244573750272435,-0.02868519437907197],[0.00786126747283285,-0.03098612900918465],[0.028857052924234402,-0.023311218702564595],[0.011476979943918683,-0.028792495456648286]],[[-0.019336511967884162,0.05867476995876527],[-0.02321399361743629,0.022568020521416376],[-0.0356603417491796,0.041573475516743605],[-0.009466365581804153,0.03822302863965147],[-0.011933936202976555,0.015456139093918752],[-0.013715254516504656,0.02777152489507631],[-0.004927097207046323,0.01312065810260527],[-0.030977286869341574,0.011062264591836636],[-0.01863284147380664,0.02407709948123052],[-0.022410390076737608,0.026283150918733837],[-0.02879226471258027,0.011452108095848826],[-0.01985867015157488,0.023613494145894216],[-0.021395628773077623,0.01690432575169421],[-0.009668357119693195,0.018120275451252353],[-0.02979315203654763,0.03405941385267556],[-0.018603372925374166,0.030398378765264293],[-0.0186513078367106,0.022870965195875552],[-0.02195099893196981,0.027075575995159792],[-0.03198400578532396,0.038098701471259336],[-0.010174129314235583,0.023971583892403257],[-0.02075898461647098,0.020047396055860398],[-0.015131276475266247,0.028672195347198212],[-0.008413610088105785,0.022348404316928097],[-0.011543951778081448,0.021484745864109433],[-0.027949776261689287,0.027076840137797605]],[[0.03259649821453836,0.005110380779708041],[0.026022126589327198,0.009038101405068883],[0.0333499998610714,-0.0012289515569350528],[0.023594572522862185,0.033068778692024334],[0.03782566616101211,0.02941540290842051],[0.020932674125796105,0.01604096556468952],[0.039479683536222214,0.029657350148433126],[0.03796992143848424,0.015895593972911917],[0.012727992433657303,0.022405524125387075],[0.028637400401644073,0.01292136933521814],[0.03554127502840415,0.00804111632507239],[0.01737103135263724,0.01323475508487659],[0.029575068524672975,0.03369066146706982],[0.03857261022023804,0.0310346872699945],[0.02115615989211148,0.031762593582045834],[0.027019186497471183,0.025750907594177138],[0.047416839939695074,0.03209550030510562],[0.031269481668284166,0.014033825188534667],[0.029870855108874706,0.03228478491501907],[0.015167514963942757,-0.009134321546992296],[0.001424060134948461,0.020211572443694953],[0.013336481881371902,0.017934264595918376],[0.040616211207295125,0.0305652885786671],[0.022704777352363807,0.04228285561221241],[0.0248116429687981,0.007223952527568497]],[[-0.024869368479338346,-0.018033132868187602],[0.001426943688060159,-0.04655893474587466],[-0.02220512302678392,-0.03482748791448222],[-0.02892295653456588,-0.03242902096356973],[-0.035884574070218465,-0.026140404981861275],[-0.018065886293181226,-0.0274052344277075],[-0.022754689558465314,-0.04364362627428158],[-0.00849222309847666,-0.02931603419279381],[-0.023815449407326533,-0.03718914770187013],[-0.015474253220112066,-0.022130118686763314],[-0.01814165511430929,-0.03165813430387167],[-0.030942506388665903,-0.028750877946520977],[-0.028832372152481984,-0.031168001708958174],[-0.012081945623002301,-0.02272852350757132],[-0.022173645176485627,-0.028957856231390685],[-0.0005797288496387526,-0.03781919139386674],[-0.02603092830192395,-0.02347964668085985],[-0.03187691903448196,-0.004912098289334258],[-0.019245352126722338,-0.037582483616182556],[-0.0175944688381098,-0.01689026058494799],[-0.035598042191514565,-0.025568185957597352],[-0.018745950406053955,-0.024096408587628158],[-0.02363376594000279,-0.022502267945795466],[-0.01780891306790251,-0.010957064827068586],[-0.0016715234764659546,-0.027832856621978656]],[[0.0023869766454712067,0.027013434022963755],[0.008426086966054519,0.020724853405686958],[0.008967653880652076,0.020452252344859555],[0.010723569774300485,0.02761301604965759],[0.020447311406027895,0.0385910618692853],[0.0076474304420698,0.019507188760934952],[0.014913397188298325,0.006843042981037723],[0.01335734722960885,0.014488048485939953],[0.009472295225058784,0.01756157361600104],[5.0843957008825296e-05,0.018503575920775728],[-0.005463405534096597,0.023113022566551115],[-0.0035588237004982406,0.031095554297762062],[0.004515954428410314,0.021763476918389014],[0.009423015484733113,0.0070321144707406495],[0.01187327375659873,0.010757498559022275],[0.003281409224811709,0.027055902354245886],[-0.00026630193255403176,0.03814454670871053],[0.0016469484216206768,0.02293397742706818],[-0.002585134687943462,0.03864897697629979],[0.025542372863450347,0.027659828066291255],[-0.0005471792527349797,0.020281098356532207],[0.0037261757137787657,0.031451987132290554],[0.014150026179617971,0.018287137981926955],[0.009864039850123787,0.03485700101269039],[0.009408385032039833,0.032109561594295365]],[[0.011545289122660835,-0.02130696100512897],[0.010210581019293823,-0.018893246190381446],[-0.011087373484371688,-0.017548718124422182],[-0.003011178435553531,-0.03362674831153924],[0.019567216641941818,-0.026905086189809125],[0.0072110412767435374,-0.03869277402326143],[0.017549146515360867,-0.03838265171894592],[0.0111878725834092,-0.0414737198647381],[0.025384912270523138,-0.03622019619186364],[0.026946258007388754,-0.01656435306304756],[0.02042517777564832,-0.023856496511850858],[-0.0007767929094888473,-0.04484826193845485],[-0.014446624590730536,-0.029039510763204286],[0.009781344447469916,-0.036778078809307516],[0.025382806661766025,-0.05196560458591291],[0.003148323292093837,-0.021124124990552363],[0.011738319511721143,-0.03787795218044451],[0.010432021980940757,-0.03842743300406419],[0.01783266121567332,-0.0323940348040665],[0.002019943376337006,-0.029802501497968027],[-0.00562420140376178,-0.02282088033112385],[0.006307047780778174,-0.027231641474994798],[0.012742314474505356,-0.027587391787509827],[0.033401352971546366,-0.03771983547426694],[-0.0007533256230008531,-0.02536839568406329]],[[-0.018314909214714282,0.02882543440662995],[-0.00037850992701337054,0.02508623260446105],[-0.014675693136075018,0.017779628725636994],[0.001421157420193728,0.02118054060726259],[-0.004686675479838108,0.03035459254203843],[-0.014491516507662843,0.029736467814065862],[-0.005582697563224088,0.03206007952327733],[-0.017483361138566505,0.02893088555760114],[-0.00583679906433773,0.012744624224537725],[-0.019223481814058713,0.03014727106957429],[-0.004048750081178325,0.034307695329487395],[-0.018423928143481417,0.009660345425657725],[-0.01241036346793726,0.016978979699107263],[-0.007912200235298346,0.02239557206536112],[-0.008871158072784607,0.06168297876191034],[-0.006686243860561139,0.01589943004200499],[-0.005790221554137068,0.02254755224758848],[-0.016211551807181406,0.029786774816919964],[-0.008623037573496169,0.029056119276483022],[-0.017079450000775768,0.014507073651011185],[-0.0022173454633533474,0.0036482247662626005],[-0.01100963008280031,0.009015333096135123],[-0.017835373155035337,0.03523805418013935],[-0.00902699607093639,0.04117094387211555],[0.0027538553461730645,0.04433430706146774]],[[0.006549974135904124,-0.01126345912488102],[-0.0007587504860449133,-0.0320347580339758],[-0.025757791167535717,-0.04694035516092014],[-0.016104618681713048,-0.03466532288185171],[-0.00101375485839428,-0.01944041008456764],[-0.012170146505639563,-0.011348057552320484],[-0.009460937739201935,-0.025257819518243945],[-0.017842479016080652,-0.024192249915520842],[-0.02681619197983117,-0.03562116023861384],[-0.022869172610656338,-0.027417277425770093],[-0.0011281214950939413,-0.020867413714202258],[-0.009201202151253978,-0.035969256011781234],[-0.02704340893330768,-0.030227918195911],[-0.011554139820404945,-0.021323415184693394],[-0.009658493808512412,-0.035594179821427145],[-0.017292473251681026,-0.027698724169606583],[-0.0041085060087316695,-0.01637778511903098],[0.0006888065845736634,-0.0394698514632988],[-0.0074104164555121015,-0.015573567342406253],[0.003281620849732057,-0.039160706731756416],[-0.01542642070830894,-0.022854039094056495],[-0.013681429789277128,-0.019555506576653375],[0.008804424802233974,-0.0354985869418505],[0.007829333755643809,-0.02650291911422732],[0.003937492413517758,-0.043863488717037165]],[[0.007409486266513747,0.01042775237565306],[0.005904930307034541,0.020447812992798547],[0.02292489004215154,0.013121888203786508],[0.03462282937322805,0.035180968942881155],[0.04035006596329028,0.025217331827939796],[0.03636491151797828,0.00832313624556333],[0.012201527624429703,0.015732536574620665],[0.010707272118569462,0.01793728644635201],[0.016641769569294494,0.0023499228803471237],[0.0345281024946849,-0.0002899583695655292],[0.01223438784994823,0.01370358757176955],[0.014592576507740668,0.021907998327345617],[0.008508265583322626,0.02931727038683964],[0.01539651417151896,0.03771724311663357],[0.013853476590413706,0.023832858647952412],[0.026901459192687154,0.021927541265634624],[0.005650057386954345,0.031500683942241266],[0.03138971469060383,0.016734553220104337],[0.00894830021032407,0.01666455116301986],[0.043625188390865745,0.01990489565664264],[0.02967297308522919,0.03139673605897665],[0.014959027793190095,0.02123252460680921],[0.03361695834264583,0.01989251717840751],[0.022370144126975945,0.017640553596959124],[0.028845379078590132,0.014388651419604567]],[[-0.016030891885250073,0.009524969308265196],[-0.03182471847252676,0.0033281192384195107],[-0.034009222174570496,-0.011493408048450168],[-0.02959333713766214,0.012711322687203755],[-0.02095416979756347,0.02975423895625244],[-0.028784856373765454,0.01972722567760973],[-0.01717654197961051,0.00814684215131892],[-0.03321452484522424,0.015501506004251608],[-0.04169187396906975,-0.0019129620187541933],[-0.042893568896581406,0.01767472340678916],[-0.02350150973412638,-0.008511735216912935],[-0.039002933617994756,0.023812231954430683],[-0.006421348055283529,0.021930837615207234],[-0.01613672874403715,0.01637897255208584],[-0.026983580042883,0.021831236998685277],[-0.03300617328764426,0.010944100550951484],[-0.027740612006120026,0.007691147909823184],[-0.020662449730118188,-0.0019417908399667026],[-0.015345572561370558,0.005869680168326922],[-0.028811638611589113,0.0062246231983274225],[-0.015290300825333026,-0.00483714245064374],[-0.022630698674672448,-0.007678642188002602],[-0.014877764267076323,0.03179732327729566],[-0.025422923179595866,0.012055173282803089],[-0.02136878859484694,0.007749424842603268]],[[0.031047476868421103,-0.01847295758357584],[0.024835582572609836,-0.04353338238982815],[0.006937315796959815,-0.031423996461650394],[0.025204365756296886,-0.039047462366153224],[0.005997132567107367,-0.020720250717218718],[0.0429598981780748,-0.02066867126575265],[0.02276825857327082,-0.0257549333115737],[0.034114240264217964,-0.04810040765330847],[0.015264899693970175,-0.02593714125141077],[0.03763559171857657,-0.018394863597409647],[0.03088451913311397,-0.030120469563702897],[0.022925911106564438,-0.03151551182490162],[0.02536224353472826,-0.020577697383865272],[0.024848013122635078,-0.03961620014322212],[0.025415970425656617,-0.013153223850721289],[-0.001293304369112333,-0.04112900078283559],[0.027088610830285756,-0.024984604039432017],[0.050512034900374786,-0.03183912480450264],[-0.0006928320249204314,-0.026492359589448525],[0.02566352082493241,-0.030741888136430157],[0.02424039217243769,-0.01943565132927844],[0.0153480166491319,-0.02974552892889223],[0.01815565626276443,-0.015314532857558473],[0.007500886055142228,-0.030427693833298245],[0.014872235486509382,-0.029441753427666122]],[[-0.019897759040492444,0.03787861544905848],[-0.0348743795081039,0.029460400811029165],[-0.009319040845040519,0.02553886697429643],[-0.020542519895788397,0.025448919240993885],[-0.020049957867554043,0.01871483995810778],[-0.033070119718682026,0.021357006421346164],[-0.006092848567411383,0.010530845680517193],[-0.03540264176460629,0.015166611297098778],[-0.008562769294661843,0.011325155029297847],[-0.03119822360023477,0.013309823085879547],[-0.02087855440884925,0.010122164800872737],[-0.02836462099517999,0.018964697916948433],[-0.03729874383352484,0.009370590687111121],[-0.01705208540231991,0.0040738765192617375],[-0.031642858440176044,5.165795257448382e-05],[-0.020540164761067202,0.03443478788426211],[-0.041292997486569685,0.02812589077970199],[-0.032623975701822454,0.026204335673576926],[-0.02164089134998999,0.029986239396052092],[-0.0376183558605955,0.019357115508454908],[-0.02967358647799472,0.02013372555925503],[-0.02768151358141859,0.016560380630497615],[-0.028343424342881073,0.010886753697648752],[-0.02815147351214855,0.027528422683923436],[-0.023034595089896234,0.0420682952186808]],[[0.02599853165285996,-0.02039671579118992],[0.0017450754955170833,-0.03248491013087336],[0.01769022471108864,-0.04022642731994173],[0.016442726844933954,-0.017118714774570613],[0.00915282599095662,-0.03996104557353576],[0.03591512663730182,-0.028622293389478894],[0.026965397776500775,-0.03299546829288198],[0.03371846683452588,-0.031513218122152895],[0.0043293873623727955,-0.024721708835432933],[0.017516370192528538,-0.02694076974495757],[0.02731013476710234,-0.022806235353857285],[0.01903914207338473,-0.015727276145906494],[0.022384373959075998,-0.04125176097610733],[0.024496555699614633,-0.011634296616372731],[0.02891248404633872,-0.028550573414906626],[0.027798554413142544,-0.02051920106826335],[0.008575199549000812,-0.011876053585985253],[0.016489143217797618,-0.03909968110104983],[0.03523953893205024,-0.0173866957176478],[0.019141643492789254,-0.026365681926617583],[0.016410401605243232,-0.028652226028771682],[0.02545426147319161,-0.01618086079846245],[0.031526043474781905,-0.03212433084513243],[0.013350798229679205,-0.03214523877401908],[0.039079968882507414,-0.013769055254137373]],[[-0.018717104973536635,0.016530306954692837],[-0.027340041164447357,0.034110523201884964],[-0.032851825289347734,0.032634623622131716],[-0.02037842743908427,0.04561504317919823],[-0.01917117750532519,0.029523687499718752],[-0.004367740815788436,0.021840440506679885],[-0.015859042225523992,0.020273854265434987],[-0.006480141574135422,0.04636838632754308],[-0.038126538878347854,0.025620267178770886],[-0.02210060741150842,0.012721334747675693],[-0.023602627800531076,0.04354630232559962],[-0.012268600598516047,0.027148334686121836],[-0.013283057495529143,0.01977151733247813],[-0.01481648398483849,0.03681492338572444],[-0.017603990360074467,0.021920826551117874],[-0.014389472949848308,0.03503259224867498],[-0.017533558553699282,0.020756014292826745],[-0.019327969216382163,0.02161230428308196],[-0.028759635105691985,0.027837597612891465],[-0.04098745364420892,0.018403939024452427],[-0.02694531493536258,0.019097539751590214],[-0.022614101206149383,0.03188355583413216],[-0.02792658281250264,0.031246884375517592],[-0.011780601340048984,0.02114850566959768],[-0.014758710166846583,0.04392690195167071]],[[0.022681613754662475,-0.020897060285579194],[0.0031763363186966933,-0.019126525027661656],[0.02854157257292929,-0.03210172464531639],[0.0036408633048958085,-0.021164451783075394],[-0.003350949104380163,-0.020368063339987936],[0.015273174077126216,-0.0256140516244576],[0.01995931920343842,-0.014878136724211998],[0.006326032130203986,-0.013911813962921873],[0.021236159419237687,-0.02493324530476311],[0.01975278305351629,-0.04099044582957993],[0.02767692073562812,-0.018220364734524642],[0.004758550325658422,-0.023659407048684092],[0.0069535089520238345,-0.023430746054265376],[0.03230964735661566,-0.03431932318700673],[0.01712667144104073,-0.025426563049547792],[0.013623158477673845,-0.019828038253388882],[0.010567950791086134,-0.028081598382276668],[0.00782059879766973,-0.0068357278004137385],[0.018313682797305532,-0.02942383563229565],[0.005298815453474218,-0.024483789649092688],[-0.010578046836276982,-0.04313809110061852],[0.011673139570693446,-0.009466205821992733],[-0.00013155594985991796,-0.014726293942835969],[0.011711113322245639,-0.006425877431935749],[0.023762219560193747,-0.03150384392076308]]]},{"Inputs":25,"Name":"Sum","Outputs":1}],"Name":"FFNN"}