{"Layers":[{"Bias":[[-0.008706594902189405,0.0062664164962282385],[-0.0009718533176499716,0.0050228080844364744],[0.013265498512828617,0.012287211711459044],[-0.0009686068361511132,-0.03686609815766105],[-0.0008093431070316708,-0.012293973521885672],[-0.016867513138267724,0.003828041673452962],[0.0008326812633344382,-0.005366830121856838],[-0.0032701526137299737,0.011986847288082303],[-0.005061179488169877,0.021675369024549678],[0.009257749997529359,0.010887414085955558],[0.026759695745341823,0.017739797463306187],[-0.015755609813304497,-0.0017907493096906723],[0.008984257950612994,0.010217093664100873],[0.00756729258790797,0.017383308611110877],[0.0007221262780939194,0.004988152865290706]],"Inputs":10,"Name":"FullyConnected","Outputs":15,"UseBias":true,"Weight":[[[-0.0262797462982225,0.0036187066026307085],[-0.029231791169215274,0.018792629147087427],[-0.025086830712380607,0.019468186878468283],[-0.017391090246560378,0.010352659631991262],[-0.026421538815747624,0.021881901693215813],[-0.04174888183172767,0.007116974363271518],[-0.04771949331941312,0.023226429759175077],[-0.024717962885959614,0.016901774682442434],[-0.039643298270594984,0.007148399572058039],[-0.03060411267887662,0.013221669615337009],[-0.017064903193099615,0.013870061693788129],[-0.04770609296939273,-0.002968010413742326],[-0.02942107855829791,0.002082373860335858],[-0.022748315206250848,0.01978723497939687],[-0.019082973319680563,0.0023924961646513672]],[[0.008861078217181292,0.0168629800116587],[0.0015414752065924036,0.01515595826287248],[-0.012667546472551378,0.024017510676295185],[-0.017663086454241445,0.03333755058886736],[0.005268852815149532,0.020278308874126294],[-0.002673688731172281,0.018645906342381353],[-0.009028330393912102,0.012971704995302235],[-0.016698294109087606,0.008098992917477505],[0.007068520162356628,0.01637261687692783],[3.97901221824204e-05,-0.0004663947042933965],[0.0009606872623247924,0.025546668811703675],[0.0008457105808843674,0.025274713252200116],[-0.008844153765499935,0.0249285440837311],[-0.016739700686268382,0.01105506139200813],[6.466517893881398e-05,0.02725215579294257]],[[0.024408937032712914,-0.022842591578946272],[0.01641314529422159,-0.02356796662714768],[0.02186640561977242,-0.013062271064434354],[-0.0002890291377307762,-0.03152575052478432],[0.014557680997823378,-0.033833569973529126],[0.03320659607331348,-0.031491826785199004],[-0.010441359683667436,-0.04873916710047348],[0.010646646972498194,-0.046086572785376374],[-0.0007881871978447656,-0.03646413482140504],[-0.007624693657180971,-0.04331400202478095],[0.014302676625474013,-0.021239222024120975],[0.014273769939362618,-0.02629085065227078],[0.0031462849782287233,-0.013146869491873818],[0.009735309501833192,-0.014650569703095726],[0.005855493744666351,-0.027056631457797287]],[[0.023793660539105334,0.024704803586245015],[0.03696477739075469,0.02378336533804703],[0.008877020992167785,0.016191593502277876],[0.02559014941030992,0.031025834004709534],[0.007372465032688581,0.026211654119423368],[0.048267292289038054,0.04758417970256882],[0.02439242476780558,0.01888572933041132],[0.024095328020998803,0.023058057961486744],[0.03609036409888209,0.04094481006950597],[0.02631236633330984,0.020423255230180577],[0.041817600688944336,0.030981172954564623],[0.027861748984692274,0.05111322596266748],[0.03783244624363232,0.014086977372188147],[0.01332884003012406,0.01729982673087152],[0.013669062350083746,0.021496377701245482]],[[-0.029274567680971995,0.020179837339941376],[-0.03582242379259494,0.020254259478024103],[-0.019163626920120337,0.018689207699288595],[-0.031322544826991344,0.01327477942582819],[-0.03495745350739702,0.012492357629442908],[-0.03781391952456966,0.028655633026346477],[-0.037141957209440746,-0.002329169657426784],[-0.032448892156957135,0.0068610332404260704],[-0.0327260721725324,0.02187556107822715],[-0.02475584438445875,0.018423666521714968],[-0.024086904832433736,0.03891847734727582],[-0.039051137194219626,0.02260458738639045],[-0.03191759140863571,0.028891464068633115],[-0.011007312551294505,0.027492275251056325],[-0.020309277014480775,0.017311080542342323]],[[0.02765707100215408,-0.02495330903870489],[0.027644449317599802,-0.03873830392187625],[0.03961103267378569,-0.024595331341913964],[0.04640929559732332,-0.044026190276380134],[0.03339913837797443,-0.049655756148166266],[0.033286885433057904,-0.021940820389051815],[0.015500871602324426,-0.0375463702199885],[0.044433185339285725,-0.029333103246189134],[0.03376792156166148,-0.04516983612449134],[0.02563382638150982,-0.04059404844615622],[0.014560688372471976,-0.026842624475556843],[0.02946027237740702,-0.0309949512559683],[0.05152345398343939,-0.026791045024090774],[0.02685195864145282,-0.02912754473609833],[0.031331814378635414,-0.03187730706991183]],[[-0.043649034960367115,0.051013509560842996],[-0.028286669234377792,0.0687803876217727],[-0.027515340990265102,0.048992185462587795],[-0.03216415088392991,0.03267363818442381],[-0.04249196145787657,0.04057397082455845],[-0.04461049901567322,0.051679093179751036],[-0.01693662279481318,0.036652436987825714],[-0.018416522848297773,0.0483286463026589],[-0.028160101845561055,0.03656248925452317],[-0.020884093469470174,0.02556175675692618],[-0.0276675398173267,0.02982840997163707],[-0.022665411782998277,0.03787714255808375],[-0.040687701668454694,0.03247057643487545],[-0.013877254473539944,0.023226275765612703],[-0.01371043051718404,0.02164441569404649]],[[0.024747605490145763,-0.03387512805161442],[0.03406230261995836,-0.03970525651238135],[0.03195795237752367,-0.02505413729559395],[0.0274879309947472,-0.03577753588702051],[0.00770449622018081,-0.03714233163527738],[0.034815804266491404,-0.04604458884902444],[0.02364964543575236,-0.04488384882434575],[0.025060376928282193,-0.01174685860006508],[0.02240214756959768,-0.02177613627897464],[0.03929147056643209,-0.015400234383668894],[0.015112246715620331,-0.04461846707793978],[0.022398478531216112,-0.028774671727399875],[0.04187454736196554,-0.033279714893882914],[0.0409454879416422,-0.01515828714365628],[0.032924818501164486,-0.03765288979728601]],[[-0.030156490873027256,0.03830294263031711],[-0.029641114979544872,0.03170210583706336],[-0.026201144514267576,0.014865333994312824],[-0.003344802812146385,0.003176303959376324],[-0.03482408070517831,0.032445550241504945],[-0.026976869526990445,0.014907750790768743],[-0.04033586483007869,0.03096965066175171],[-0.03369470303477241,0.017306217741681243],[-0.02786246697981521,0.04395007021881819],[-0.040656320570425016,0.023594833723389674],[-0.026655217046056133,0.02785871453933875],[-0.02283763279338775,0.022330004277543454],[-0.011851780356519374,0.020175467546299876],[-0.027526436058671847,0.006091612430969385],[-0.023343081766254926,0.018608881305054982]],[[0.018841513791429718,-0.02089979423562555],[0.025306922421487632,-0.015242705805730932],[0.039252501423901166,-0.016392831199922474],[0.03134603274207094,-0.021531286423007737],[0.01974722398793538,-0.014622295942004941],[0.03188759965666849,-0.021803887483835143],[0.04511246024216796,-0.027597495559659665],[0.03364351555031691,-0.014643123779037098],[0.020211750974134496,-0.016660222697418677],[0.0433672571820443,-0.0036650779594093984],[0.013219938564858523,-0.01586383425433122],[0.030567376218086223,-0.022748951067759742],[0.0318440617463649,-0.021109822538800886],[0.03783334296431475,-0.03541309684765696],[0.036530206872677114,-0.010373907638555281]]]},{"Inputs":15,"Name":"Sum","Outputs":1}],"Name":"FFNN"}