{"Layers":[{"Bias":[[-0.022460343485836753,-0.013119998783873831],[-0.027908699395599427,-0.021432991240915678],[-0.004036763535803433,-0.006298811634245143],[-0.02472248361849919,-0.0609941094845885],[-0.023144456751896338,-0.0401836438707325],[-0.04392305684823671,-0.02189408812918297],[-0.023235155726765083,-0.027385518534590987],[-0.025304840350148034,-0.003947862072873119],[-0.030590584792150828,0.018497391271703176],[-0.008079012823970718,-0.010633655660201516],[0.002215002271817475,-0.007893095476372358],[-0.03914322915844037,-0.017675775628326226],[-0.015648881514760342,0.00014105504126494568],[-0.01785172395539086,-0.003699997841850503],[-0.026164095437443167,-0.02113344698480786],[-0.018724974732986285,-0.031152156644579772],[-0.013226052915222735,-0.026648805354028117],[-0.004171983279413725,-0.013619046690535114],[-0.025804844791046794,-0.027159878723177832],[-0.026945242308359995,-0.02400527426252027],[-0.028140562321689214,-0.013300904513038449],[-0.03495126534402177,-0.0038890240722751455],[-0.022150973643564262,-0.03304736619965963],[-0.024789684796121633,-0.012239421455342805],[-0.032495950160038554,-0.022769603628925793],[-0.027651143107383005,-0.002435342851183171],[-0.014393335705133172,-0.03224351672068666],[-0.016778349772300787,-0.015728449151257862],[-0.005689418457277735,-0.029355193183502434],[-0.02931198498860531,-0.01783209521752362],[-0.013071875832632612,-0.031372191385560175]],"Inputs":10,"Name":"FullyConnected","Outputs":31,"UseBias":true,"Weight":[[[-0.018188831459436536,0.056031310422615256],[-0.016619863210940132,0.035702018211046384],[-0.02258183902694345,0.01833785907826967],[-0.03230302261107033,0.02838440936212021],[-0.03460760519687345,0.038797754536702096],[-0.0061678362470719535,0.023586445933081106],[-0.008464371120889231,0.03496831167422248],[-0.01876160023498586,0.0233615746661264],[-0.010539060740885585,0.010839536936269973],[-0.018120034140484267,0.017003000292802096],[-0.012421856200741401,0.025184759944548343],[-0.03104919119573633,0.01845384708346445],[-0.0038205712216915614,0.008897934543927092],[-0.0037078776646950642,0.008019711928996566],[-0.02955726049162137,0.008890235335210618],[-0.033452891180227075,0.013242817752438473],[-0.017668444450220294,0.020330312203764016],[-0.006274045700128254,0.008640239452634531],[-0.020712240127906973,0.02411861886444927],[-0.028175311367289596,0.010806298486262925],[-0.027791754642227846,0.007361864254006422],[-0.018239396719156968,0.009126197429310038],[-0.01879888678552673,0.02082416805983737],[-0.026016372098288266,0.01694125202896898],[-0.020954381926602837,0.01269413147239776],[-0.03495895325813447,0.00634187312228522],[-0.00880593363774287,0.015194480340794408],[-0.01371379213507368,0.001856543877605665],[-0.02787045222904214,0.03268034624525881],[-0.029577655882408564,-0.0029658437590305005],[-0.018313370172638215,0.026457724551313948]],[[0.03247718989788167,-0.022792590632365838],[0.029379737017167257,-0.008316638491074129],[0.026249836619168992,-0.01778467801967598],[0.005725699533359497,-0.021033567211104],[0.03342110990942486,-0.02948996480772905],[0.021293121592695096,-0.027929385896707272],[0.023841935294440345,0.005824105477428008],[0.02181699584407313,-0.004189200110317079],[0.037663450576736576,0.003231369536392398],[0.014122231556959556,-0.027411917918140998],[0.0206091324233215,-0.01241417433822388],[0.04079673157419654,-0.015098861150748271],[0.03961908250652518,0.0029825899990284063],[0.03147281805365054,-0.020044410587226336],[0.03728059801208933,-0.012932609166495752],[0.03871268571815551,-0.018830905096997728],[0.01270566535837196,-0.004777672135679011],[0.008930097753563904,-0.011711789273335813],[0.02773842452917064,-0.01601944722002673],[0.021087876572338526,-0.014548579345315426],[0.035469980821451697,-0.01841619506898752],[0.031521048484184175,-0.011127745777654604],[0.017300073571507327,-0.014726309414675013],[0.02353082467728111,-0.003308516072759739],[0.03047906466132089,0.007278150424180561],[0.026753117577395392,-0.02777882104486936],[0.0389713181729487,0.003418502598547204],[0.02766050913371645,0.0008285802915725196],[0.01998307327139939,0.0021723376693210967],[0.03384061419480279,-0.015025186893998213],[0.027958552109173133,-0.0010978569144815353]],[[-0.02656153319280841,0.027599831941632513],[-0.02225255594384964,0.010815479915339639],[-0.000508768927814799,-0.001204327466173863],[-0.03159261343883306,0.02865790004400607],[-0.024016779092245148,0.011122156942577323],[-0.03676581756436461,0.026731745926135878],[-0.03098822837584985,0.013418218185376782],[-0.02557824228439012,0.03978432798131786],[-0.03749523099009337,0.018749163267209972],[-0.024196596785083672,0.023897898125513396],[-0.019564307580080313,0.018365355916485086],[-0.009134043121450443,0.015453856980495218],[-0.024708686744580387,0.0014643474299542165],[-0.02035395239271529,0.014413517652744309],[-0.009501044691961152,0.016806807349008725],[-0.011286244821167449,0.04050259278416498],[-0.025677947841161956,0.008128068337396127],[-0.04291666967256623,0.019664137162289538],[-0.016349081463160036,0.02383182086757479],[-0.0259440442714028,0.006648263550939774],[-0.019835962403292006,0.013300402536921177],[-0.02776394238003973,0.0383411253692956],[-0.032843651684676935,0.017061649587052564],[-0.01666144846379613,0.02138670824647502],[-0.031379904569419984,0.01379427965381599],[-0.017653238499418213,0.013581050819441795],[-0.014095181965636257,0.022986258688945632],[-0.01803773736207514,0.03096623784338258],[-0.023064635219563916,0.017734057219282454],[-0.022454498985307287,0.015399749546919172],[-0.00309230364344391,0.007555387686601864]],[[0.013949389410146543,-0.0167938065238319],[0.026826814023182637,-0.017878881639776485],[0.02035199921318293,-0.022588096181294644],[0.008378343094423495,-0.016929521685694775],[0.020574504927408532,-0.023989172894049844],[0.03314835969019043,-0.0291924081707955],[0.022716967423612032,-0.016536790876532082],[0.009773447575780653,-0.01850353025263651],[0.03210214754776226,-0.00473907816659782],[0.0025223152156067514,-0.01805443889498483],[0.01949499443396541,-0.024266409589738247],[0.021011404925094655,-0.022105136272048968],[0.026665410383721038,-0.03631631633460057],[0.02534221402187711,-0.011833917614146735],[0.024201418126536135,-0.02945720803515662],[0.012130538040257363,-0.011262053623225795],[0.0213897881782577,-0.026103135077028224],[0.026867132069332247,-0.022099146800535777],[0.011038452151308439,-0.025482892548660242],[0.024439849605497565,-0.03760196205129556],[0.0061517973525255735,-0.020019377627418636],[0.032720625623420554,-0.015741883034426085],[0.008120444320026433,-0.013116565544729612],[0.010137336152742562,-0.020717362198439282],[0.01696086878369081,-0.021751809548999274],[0.012266963301954547,-0.020293581367931534],[0.02137116279531836,-0.036916723367006805],[0.03644135575491263,-0.030766853490646864],[0.022202768111458212,-0.03383631375047068],[0.02301264292238105,-0.021870589859100002],[0.01585095814115874,-0.016580925252963372]],[[0.021436594926629287,-0.011614155663261719],[0.027909811219916952,-0.020497932935292448],[0.020591973660672242,-0.00830697505680702],[0.0044843731818336,-0.02413357448273904],[-0.0013235620700998818,-0.0077928392307238005],[0.020816327905366982,-0.01394376963916126],[0.007146661775406912,-0.023562735223752046],[0.016838277400505183,-0.01756444494746251],[0.029313099543798987,-0.01615072252528885],[-0.0003749148538100315,-0.03395813471704787],[0.017046729135513847,-0.029061284360649555],[0.024381481574194137,-0.010572586238186651],[0.027536205362662738,-0.02773274160504489],[0.015581468565433134,-0.025010380395764534],[0.02021432579606759,-0.03190484663563216],[0.01896500377310992,-0.004658955352393247],[0.035457523608435244,-0.025870624717518317],[0.019666371956416413,-0.024486638368752724],[0.03602567350080098,-0.007098376970407592],[0.026101762406436167,-0.027862806086592484],[0.030355574655276787,-0.013280127184780784],[0.012271714197734809,-0.01294536555777809],[0.009102760333761561,-0.03506342009710196],[0.0046343881351692045,-0.011948189644302368],[-0.003610173060569496,-0.018457205352917647],[0.00015925054116036256,-0.01116734423089724],[0.019995736632761087,-0.02678337089301288],[0.031680306610103445,-0.018720436341079248],[0.03400030670796075,-0.04292429291704932],[0.003034709831397372,-0.005784390219550454],[0.014185990819729224,-0.01068709977346367]],[[-0.02386920233149788,0.025908384270036073],[-0.02782293443379302,0.03503282214016968],[-0.006701572244926966,0.021754508935402168],[-0.01376639713292617,0.020771823645808395],[-0.020316542480823412,0.014968156065154677],[-0.027223063323286556,0.009868564209453862],[-0.00472605233487551,0.0180942174416621],[-0.012334118137918099,0.0013435362528921042],[-0.01062205815087834,0.026780302441765397],[-0.011378359701781728,0.02720990259081743],[-0.0199804965649657,0.026789365418623243],[-0.0287199173141323,0.012619352149842025],[-0.011653259296435183,0.02854716306544869],[-0.017899836985338046,0.02353403615064592],[-0.022108310851905885,0.02605779406741181],[-0.009477658897593456,0.018837297298746804],[-0.011882551210806912,0.009509796701624891],[-0.005741473982902898,0.01727709086431312],[-0.023877839596954702,0.02732242218295491],[-0.03130094134558891,0.016931436610842652],[-0.009929038031992613,0.030910604831459847],[-0.02055444086228831,0.027026001039172517],[-0.02422305559891667,0.0067324689880433695],[-0.03486843965921738,0.030850687999817116],[-0.019375384660580485,0.013631143585180267],[-0.016216362532778125,0.01680133012634378],[-0.01394676452815445,0.019330274741883473],[-0.029977162801729122,0.03352842726623895],[-0.013124162930833757,0.05898892260654478],[-0.02573280713522514,0.01638320339097743],[-0.013686465727342062,0.012670771303721424]],[[0.015650363328485132,-0.01048799216369282],[-0.006279777434541611,-0.028752990814308647],[0.009733208830230607,-0.03115358209584441],[0.027561786207271746,-0.02890380971101029],[-0.015250216228425355,-0.04615699056490057],[0.004476453857289928,-0.043262093529688815],[-0.0049852732124474825,-0.03385634896099517],[-0.011658406470482743,-0.0407809203144803],[0.01017009000036794,-0.018306687483831782],[0.010134784009160647,-0.023981659622250896],[-0.002543177252522173,-0.010258834507024622],[0.004952592324242227,-0.011965151927523116],[0.001085328174198589,-0.024302937420764104],[0.015149220676864975,-0.02260702491001159],[-0.008800228119205803,-0.02323188879660397],[-0.006958776438856147,-0.030663119264815936],[-0.016443543712096047,-0.03450554056103613],[0.0012003247663861891,-0.03665885623423145],[-0.0135727950926049,-0.026268388594459333],[0.0002522226853694408,-0.016202092334446288],[0.009387766848302198,-0.019944140463412724],[-0.004645445488043469,-0.027820937873396536],[0.0007535686166610708,-0.03507852648934562],[0.012011486273533916,-0.03461716493266439],[-0.01554856440841118,-0.02963168148977137],[-0.004735269350238983,-0.033912072232855674],[-0.00097671476069283,-0.020706250656197293],[0.01261737921363189,-0.02702995683682361],[-0.0013606476777543865,-0.034727742772513816],[-0.004369804423306169,-0.008926214800694438],[-0.005877147772055205,-0.026929240237715743]],[[0.002489949904488507,0.010500248113308429],[0.018496440679606617,0.025825746790977155],[0.0009407712975694232,0.02236019601070863],[0.041763514476274445,0.042931887738022013],[0.017639053908005468,0.013718459354482581],[0.017153660613018918,0.018214681390420435],[0.02937999352642464,0.036681858796992636],[0.019829842599053904,0.015976444694768624],[0.03476207543323705,0.0273682074356094],[0.021527784114126373,0.04665053932037581],[0.031233320780056764,0.008515657253354993],[0.006819309859114001,0.012980848032426214],[0.006923576488772046,0.017574916851151135],[0.018930730462550206,0.026767754762432133],[0.005362404948201498,0.017843563994898316],[0.01422649734948133,0.027659724136416024],[0.011358435397702236,0.003676619591876092],[0.00886029466955122,0.03462100972432894],[0.02890682359201801,-0.0004310363063339954],[0.020209868166068165,0.02355232652305517],[0.006954172386676914,0.015366217211114346],[0.0020963518919465624,0.015130157955720758],[0.009486777853732845,0.02290281621853261],[0.031109328471980453,0.0230697380682702],[0.0034291795417194237,0.0313579924402884],[0.014096478982824318,0.026751664159261036],[0.01041789909901136,0.03899842621533408],[0.01269601283615485,0.02734507636960349],[0.008505919380806444,0.02336359826571062],[0.017094031669995707,0.013196472312840362],[0.022010074903244085,0.023990903071935018]],[[-0.009571152584113667,0.019794276123379112],[-0.02096234908618746,0.013849402857140139],[-0.025631431682948434,0.012384069511559766],[-0.028270248250625067,0.029987942941994788],[-0.027469392079225954,-0.001262380489900274],[-0.022311065815117888,0.007574590261842689],[-0.023327317417371343,0.022420855260826024],[-0.015627838033970932,0.019051277930900865],[-0.014319730211113973,0.03828513249975453],[-0.02999533464614815,0.023595931750198775],[-0.022247655976370385,0.029738834433513543],[-0.0015932458466058584,0.02757345839193953],[-0.010626262233998148,0.017057518037142373],[-0.03813951763586559,0.028804118131363982],[-0.02620633166609997,0.025731864788081524],[-0.01632374503439409,0.01577747605051785],[-0.03529327237151363,0.007444611726675684],[-0.027092677688911472,0.023463615247602484],[-0.03585956305578529,0.02787833598073373],[-0.019752736537495978,0.027403373364453112],[-0.016961142188001155,0.0006539432367488757],[-0.03918951231976255,0.04973621044747507],[-0.0325751339176734,0.033630971322869616],[-0.016645473340721847,0.03958178984486058],[-0.0003626739936096216,0.03109159103807318],[-0.03228688893060607,0.010065648072587205],[-0.009880381224831532,0.026301496452062735],[-0.01941735387289403,0.02749032209006717],[-0.0196273138369271,0.03265061338619004],[-0.008375745027632083,0.032796739832548855],[-0.027213074487370814,0.02013259685912541]],[[0.028992933652953953,-0.018636583857153142],[0.034071742077158816,-0.03806540730574634],[0.023267872952422605,-0.04320741456863387],[0.02231785066598845,-0.016235884798117377],[0.004419101443530913,-0.03178504486758167],[0.03252134011576385,-0.023318915673147752],[0.02340336822860502,-0.039040283931975055],[0.016028108000138135,-0.03443176459646597],[0.003567322550901494,-0.020294999527028974],[0.019634920675049766,-0.025053995395745026],[0.040604655896369767,-0.020993398486672803],[0.01673343037234411,-0.02268765936104355],[0.020663036085432303,-0.025302081612917585],[0.0029966244565202823,-0.03292149697374184],[0.030744041880705182,-0.048350807116614145],[0.007116967665151756,-0.03139024361461902],[0.013229862552503056,-0.025800664069439386],[0.009073138777017441,-0.019789977327844988],[0.03429266751340103,-0.018896592725745745],[0.02734891646325019,-0.028898137170572148],[0.02867408947682154,-0.029783595775393253],[0.009867084691770145,-0.02942806483400229],[0.02082878044355702,-0.03162870559075701],[0.01967719859921322,-0.027111144610586727],[0.02443223297384746,-0.02020039410242989],[0.0320226587132544,-0.029079512373992415],[0.023035635951853713,-0.03950425538017461],[0.03038206416223791,-0.03553938887454517],[0.0215718245124563,-0.01369082153028466],[0.017877081197391186,-0.02268978056440539],[-0.0021406394755612962,-0.04080397506164381]]]},{"Name":"Tanh","Size":31},{"Inputs":31,"Name":"Sum","Outputs":1}],"Name":"FFNN"}