{"Layers":[{"Bias":[[-0.02941951200870556,-0.015909035080247675],[-0.022458314315657084,-0.0017158325096192618],[-0.011562217606139888,-0.00038227108257779313],[-0.008772595319163044,-0.021640817357954954],[-0.010974487743639355,-0.020192563806222995],[-0.010329387136279197,-0.02048295607940721],[-0.010671487215349284,-0.04175921102111476],[-0.023897984401429005,0.007946632553275356],[-0.02337838770106799,0.007985099404807319],[0.0019893325837613022,-0.024181205869757],[-0.006745683175423422,0.0008344308040061966],[-0.02985117334812107,-0.012981072876098312],[-0.023633624856822365,-0.02167123234961116],[-0.035273690601455666,0.0035265168801473894],[-0.023693729988730358,-0.029831920644533553],[-0.011429059124877797,-0.014501578710753842],[-0.01808045998915543,0.0029611185318789497],[-0.048259229487031895,0.009414710063348257],[-0.03175707943520501,-0.002814538269796167],[-0.022355351161063918,-0.007700030819274329],[-0.0297981743450306,-0.040323271334073915],[-0.006240607854492432,-0.01676531793342848],[-0.025800639222712498,-0.03892690027067391],[-0.007014374649954912,-0.027875465429937466],[-0.008932583084446282,-0.007889923333943854],[-0.019772821270099546,-0.007324989296942288],[-0.028144420244824934,-0.015620931638840317],[-0.008173821603526692,-0.01957880645688571],[-0.0359382909109759,-0.009984540294952231],[-0.012781633026445612,-0.018255306804798508]],"Inputs":10,"Name":"FullyConnected","Outputs":30,"UseBias":true,"Weight":[[[-0.021225520162351113,0.009850084533194537],[-0.027739365717424525,-0.0009693109825660766],[-0.024903338939473926,-0.0018984665356044624],[-0.00996978965871614,0.002195362170476133],[-0.0066730422066888125,0.03072814088556993],[-0.003818031928752808,0.01964661208903571],[-0.025553465941132225,-0.00037652459035132337],[-0.004978290676945474,0.0058053103706770665],[-0.01423475384401872,0.008984460538173098],[-0.01874614452171776,0.021733481269707533],[-0.004627225981887987,0.00020827114667144802],[-0.02886811886193179,-0.0034526436183370643],[-0.02756961971190858,-0.002744749070853936],[-0.02533102148871553,0.004581305044288711],[-0.04570124916148817,0.00541089023015427],[-0.029728222053127053,0.01460637238990098],[-0.016575003559493057,-0.023455292804485633],[-0.024375789611610566,0.0039762905743527385],[-0.02764236655616885,0.015150218906616164],[-0.03587735039871374,0.00409794436207245],[-0.0362149465378739,0.00936011928665965],[-0.009806717503456696,0.010909116062248848],[-0.03936842540243061,0.011715091131856138],[-0.03474917815045817,0.031025642652552442],[-0.031076865138978765,-0.008919450792591365],[-0.01956473048955401,-0.0077054258427284306],[-0.0008417833445626127,0.01997810167708799],[-0.039710100000439286,0.022798555470300883],[-0.03935937319347502,0.012726345222529037],[-0.03605478226667003,0.014195662698134815]],[[0.02125976960221271,-0.028957849253328657],[0.03383765264491554,-0.010302989457500515],[0.01711429810061154,-0.016419271574100586],[0.017827024644676163,-0.019434154008323733],[0.028443596672482505,-0.015613893630196917],[0.01715606634137639,-0.024705564227483802],[0.01092235072252405,-0.03487409121047146],[0.017717051682245986,0.007507281868859311],[0.021342225296174657,-0.021332183662390706],[0.029525219107643757,-0.039396490997387075],[0.0072593958712795165,-0.018370238749135324],[0.010739552533014817,-0.016885077056328256],[0.022280643419136124,-0.021397249347412085],[0.02019475232506428,-0.010514702549827918],[0.012587159804986647,-0.03132280977844558],[0.013042074250484629,-0.019788222469684844],[0.032303615754489874,0.000348617299395136],[0.018848486596016508,0.004023600134119913],[0.02789935065176426,-0.016253380318294538],[0.01657169781119206,-0.013504523257679276],[0.028231161013751966,-0.008047467153705341],[0.030132211478749487,-0.030698444000457247],[0.03365174926597494,-0.011896294909237137],[0.016926186964912715,-0.026532995991583815],[0.01854524569986266,-0.02525864220627599],[0.02613507221410006,-0.005596058954141547],[0.01619946251771683,-0.012683268591723992],[0.03133375051659891,-0.024199323191939282],[0.0329956373781337,-0.0339568225057973],[0.02210661121898169,-0.038208836095908805]],[[-0.023807720046656232,0.016466888683450427],[-0.025631127895926944,0.025539799180563302],[-0.03043935359213164,-0.003522936194499253],[-0.015421122352519624,0.020573351188838396],[-0.01249540041047213,0.020841959737379376],[-0.02476858166866645,0.022318514013160914],[-0.02962874474150111,0.0391826119568267],[-0.017152538135848265,0.022519122099445357],[-0.017015652004339587,0.03208406301657842],[-0.014261902442248262,0.027639393665638032],[-0.020707109334792414,0.031682864176829494],[-0.023636198670763418,0.03079733609511411],[-0.020648531988371042,0.008674331838464467],[-0.03156097547527552,0.017540190793919466],[-0.021386127698938287,0.03269387278565255],[-0.020714668732358256,0.0251178092816942],[-0.04069422921284998,0.010954241968822396],[-0.01638426509729553,0.02973375971810524],[-0.01009171729411953,0.024400337242212043],[-0.020573186781167055,0.0007536365459818329],[-0.005671873200127803,0.012373853118782125],[-0.015502596507095632,0.032404531050320144],[-0.024735485002603013,0.03885672360758379],[-0.0012354536562115257,0.009990531689080553],[-0.024077080476730246,0.026499239911098142],[0.00015730647515214304,0.007221095468963718],[-0.011601836134856039,0.021596298042164386],[-0.025309774942529707,0.03491122539840517],[-0.018492502188493784,0.013793970868558644],[-0.021079548502884772,0.04365358030093175]],[[-0.002046427219157734,-0.041348974825430866],[0.017255129296905248,-0.03361518713006134],[0.018138864631929534,-0.033338580099536046],[0.02673474190247438,-0.032953403126768414],[0.019716556435047487,-0.047008938331686415],[-0.0009591905285085316,-0.03705230773088175],[0.005633853997141047,-0.05348504646546111],[0.006442227946089796,-0.04103683987675971],[0.019092948900984962,-0.04543375507984673],[0.011047569567857962,-0.026732125685190677],[0.02097681094008876,-0.030177629399865236],[0.017180056504882347,-0.034798368106818196],[0.010943763422032357,-0.04294570270986549],[0.033421963472771855,-0.01755097290348831],[-0.012412679383573271,-0.030321293803945163],[0.024806856919055036,-0.023688914625335497],[0.005380966219192679,-0.03429194616309119],[0.02232492765974807,-0.032907334987193754],[0.008056688153070916,-0.03082111977029674],[0.014706447895653504,-0.025780809391169467],[0.011989499373786575,-0.017768119467184484],[0.0025106296061781397,-0.03369347449293138],[-0.009994086640285098,-0.03153246464262224],[0.01892053207566557,-0.034475901275027566],[0.022015584471090574,-0.03798000944056476],[0.0068073514951635305,-0.026427373898975544],[0.012160487186503963,-0.026317943392229114],[0.0021352413802481537,-0.051190587915301705],[0.008715699996082574,-0.01961996664262958],[-0.0057021469719006936,-0.02903153505271721]],[[-0.0024996463311039974,0.015575339123018249],[-0.01064689563232502,0.03616723484275836],[0.00021255950251285335,0.020413028501689155],[0.0021749608734659403,0.0383073748262117],[-0.004398442019195155,0.03248478843478134],[0.0033932520694725287,0.04032208378090006],[0.011790179939073824,-0.0002399763497912103],[-0.013333522159250289,0.011709227037116052],[0.0017090712974822222,0.031449374387727866],[-0.0140209206472532,0.015170619915519871],[-0.009408396686410634,0.016411023396615113],[-0.010172517265728495,0.03007935447354528],[0.005648228694197932,-0.005038918359477191],[-0.0009021400548339074,0.04160674016662951],[-0.005133312370237262,0.007042609284035965],[0.004449405609288082,0.03919618002202986],[0.00444670379799151,0.01289298046249668],[0.00764905739874423,0.022256280654629843],[0.004922832479187181,0.02392935622403997],[0.008621331003578857,0.026627616369947465],[0.013179558954346303,0.023202955203928375],[-0.008714250466762108,0.03622768109362815],[0.01997291914705681,0.014902270742355185],[0.0003914642943376237,0.034314509709885685],[-0.004269370392287402,0.016968867145109413],[0.012827067878032693,0.03618511638157389],[-0.012998427185494234,0.028718186168834998],[-0.002950950825824643,0.03327200614780914],[-0.007351418033607137,0.018899132565754005],[-0.009689947750421512,0.023834444101024675]],[[0.016924956891192867,-0.021035340648526978],[-0.013854023730954164,-0.024505943929822843],[-0.003994929765892797,-0.031284735549586634],[-0.014143748341866201,-0.020023209909065243],[-0.015051161329234359,-0.028011077718688552],[-0.004440110316602099,-0.04211688750322069],[-0.000732819125210685,-0.018025740506704205],[0.009037642595133821,-0.02213034146075774],[-0.0028068369141677455,-0.01652680680256521],[0.0014750086110746493,-0.031288218686843394],[-0.014362015767886163,-0.021700987811882178],[-0.022708641010158535,-0.04993634073700328],[0.012619430891310585,-0.01473067409579143],[0.0019096353851987553,-0.01905487034203293],[-0.00418142537947758,-0.01767950963413908],[-0.0179940259818839,-0.03910948026437082],[-0.023983141908685512,-0.02024893875925552],[-0.00656609623440844,-0.023893305564479612],[-0.0025196101812126684,-0.0152222028188598],[-0.003804457387557607,-0.016463745575933622],[-0.0046079168308036595,-0.011653728247155708],[-0.03061943791163835,-0.014771256548289254],[-0.0004563050335289283,-0.024405516228982835],[-0.011221335544588915,-0.0295915504560706],[-0.0038817919130283616,-0.03380767103474964],[-0.00998584311231337,-0.03278294983879279],[-0.0004501999930226348,-0.032373869953258874],[-0.016633190450565858,-0.021195073632082933],[0.0021384872614834075,-0.03649501072512535],[-0.010345423411092684,-0.03835548385033663]],[[-0.004418956935058862,0.0366327818862872],[0.0031044590813410033,0.02079361311499064],[0.009816274590935665,0.016349813625805],[-0.0027478335624056198,0.03340729485507735],[0.01152785134484073,0.056409187568201666],[0.008815265472550153,0.042396106014634866],[0.0016845357278487268,0.0325433429614551],[0.007316315054906247,0.04087653222437829],[0.01179125241811943,0.026011216068635414],[0.015618808407447386,0.015410990595461334],[0.00909773335435448,0.03124640337157084],[0.009112278067346533,0.022880175095456128],[0.00599648384509591,0.04496903302042681],[0.021137962460215248,0.021521405610772034],[-0.0018124488057705834,0.02247876974653095],[0.009901012302781178,0.014124560855993753],[-0.006766129128872883,0.01737710034320182],[-6.294559013580561e-05,0.019300914370881484],[0.00642473669031967,0.017644286373097062],[-0.0006128579203984308,0.030997803334085274],[-0.002431589570240456,0.02164438855772233],[0.014862570984456003,0.04016695004411486],[0.0028742652554989163,0.03196084171699256],[-0.006749387362837567,0.016739706193811286],[0.0017190480629751565,0.037881259573614594],[-0.018404396521023155,0.03308547256422481],[0.005879006380886417,0.03965166189569911],[0.00196181943816155,0.0316396263516812],[-0.000527163786511401,0.030983305591530966],[-0.006546496285062904,0.032332537542229034]],[[0.022796739729958153,-0.027133936644356316],[0.003106437708154131,-0.031215291405643615],[0.021829158204842217,-0.015530629497078955],[0.006528303077824342,-0.02454993973740972],[0.003601191821565474,-0.01658634430615272],[0.02705357758361071,-0.03845801767742439],[0.001498443587590335,-0.02542271684558917],[0.006368271353045284,-0.019014858555012275],[0.005600577679961105,-0.036841128688131455],[0.009515814400500214,-0.01761681599968628],[0.014992809270713277,-0.03520533581206365],[0.011219640315795094,-0.025489104292000662],[0.014964948934403451,-0.01985440883100552],[0.003630093738747006,-0.023442782164388443],[0.0047016133859523685,-0.008041168587194858],[0.009750729771963462,-0.011256773409772311],[0.015725885269141347,-0.020536388043977737],[0.007824677751227652,-0.017516280962625037],[0.00932964368481553,-0.02703449329814937],[0.0070459724313149145,-0.016918537356044316],[0.006254393299714554,-0.024918021622383952],[0.009560699352877147,-0.040469962689710745],[0.01663204218756359,-0.020387717939796768],[0.017580111938620455,-0.019768142310098737],[0.0013485962355780175,-0.01448615504965658],[0.014983561801878978,-0.010635668704891977],[0.022258439805276788,-0.02456667518570566],[-0.00922458123018301,-0.04186333312999835],[0.010154761775192625,-0.024400077227915675],[-0.011207960540072842,-0.015155570089912912]],[[-0.007548004177463767,0.020427459524275063],[-0.01386826878946231,0.029408985011691178],[0.002286169696130594,0.01122721467345402],[-0.003578939047356011,0.04427760070795709],[-0.031882322743821676,0.04003700336157383],[-0.026571079408181323,0.03142559874248081],[-0.017369406433991562,0.03831328501744806],[-0.02377849162753886,0.01783767717750747],[-0.023940211903012147,0.020802918674645572],[-0.01477094437191667,0.0356828054981091],[-0.020669177267481725,0.028860013108909437],[-0.015407713451730413,0.03354756809055539],[-0.005196095189899337,0.013107813656641995],[-0.01774946246815375,0.02108413195903378],[-0.02835832674831907,0.02659687853884379],[-0.018718067966415113,0.03550493428128173],[-0.02200341706713126,0.01687422232052117],[-0.016711372992393295,0.0371065230992644],[-0.016412828015839417,0.0219958182175579],[-0.01933328353208172,0.03613721696107225],[-0.004012989244069991,0.05082227798207648],[-0.03888106550815145,0.03902004045257675],[-0.02092768212872163,0.033655105039651884],[-0.010480642489801606,0.04500725219021232],[-0.014527979886449934,0.05313460756252538],[-0.022745847938198425,0.031003448128171456],[-0.02652545661675016,0.02632326535918929],[-0.002222182443577431,0.033011936913192604],[-0.01807395353210754,0.030541299711935723],[-0.018577810773567925,0.03998849880860523]],[[0.028593037540041513,0.0006906809273059425],[0.02738938527865911,0.009228345752418585],[0.018616676872860914,-0.011907668398580167],[0.02202599808150146,-0.023078710149072985],[0.02479231824314819,-0.019980338936307216],[0.016941910305748736,-0.003892915064006726],[0.024859998830556517,-0.026562309674959546],[0.03298943646677404,-0.0037629986697101468],[0.02853394424248225,-0.02862609260830565],[0.022318230387190212,-0.028638563379414575],[0.016201998364506944,-0.017098399783218567],[0.02489765930021048,-0.01954288146238894],[0.03249717467570544,-0.0073125321408122985],[0.04444354543358984,-0.01922199019093359],[0.02646849999671331,-0.0026383399778494277],[0.014323134680458914,-0.012182780606258882],[0.013468166900299679,-0.012896797856270235],[0.050748387922345206,-0.013471281167389913],[0.016139391037112198,-0.01300879021321481],[0.023174338177567835,-0.010559406064565324],[0.030697261031591476,-0.019472543834887817],[0.026973382236596583,-0.023551689633335284],[0.021868541247563763,-0.023308001885038118],[0.03265517783671628,-0.009383405153416869],[0.0021196262261526408,-0.02195497697950744],[0.008501601870659643,-0.011135150316557447],[0.031062675198326135,-0.017076311317865616],[0.0064240314226495,-0.04991584634945753],[0.015316913193267893,-0.013784956649293098],[0.029614154229512437,-0.03637432419563554]]]},{"Name":"Tanh","Size":30},{"Name":"Tanh","Size":30},{"Name":"Tanh","Size":30},{"Inputs":30,"Name":"Sum","Outputs":1}],"Name":"FFNN"}