{"Layers":[{"Bias":[[-0.026778807826879587,0.010398508720158645],[-0.02168904040184277,0.017760846248988136],[-0.013371457032328539,0.019281065737440543],[-0.025250791244965407,0.009671711867625216],[-0.01950072559046495,0.007459969704919787],[-0.011672615165335212,0.00864716992100067],[-0.010076298656538396,-0.03630241941927306],[-0.013680279081471227,0.023228611254765837],[-0.01902706585322065,0.037581523332537066],[0.0020140615329533457,-0.020168514809990983],[-0.010157762434544486,0.0324920192846114],[-0.040252957558058786,0.016993909294282794],[-0.024913041837283913,-0.00603040673364536],[-0.03492541560931864,0.01787930036113977],[-0.020548157813540403,-0.02435890932755958],[-0.021195590078595065,0.0019753610710580107],[-0.020878874965946634,0.013705323677247737],[-0.043547831572728804,0.03171730338174519],[-0.03909868911957338,0.026352383546155937],[-0.02131130336949733,0.01751924951569582],[-0.03666859177987746,-0.029993931123670516],[-0.014900736034977014,0.004993507581953136],[-0.03067280605663007,-0.03196821221947974],[-0.007307907068314449,-0.014675872502140846],[-0.011323865120214452,0.025231693973915444],[-0.011490649946622328,0.011723279568872258],[-0.01915503789429616,0.014046227495206376],[-0.018927271626336534,-0.016317934382186452],[-0.0335005461110323,0.02391321991363461],[-0.016090736841568927,-0.01405022559331753]],"Inputs":10,"Name":"FullyConnected","Outputs":30,"UseBias":true,"Weight":[[[-0.02318992995645165,-0.018018179216822573],[-0.026907324875216285,-0.026681549962247867],[-0.024802001336759028,-0.025990885890401598],[-0.00817210251259477,-0.026510902356363095],[-0.005565046450518167,-0.0005994126740617952],[-0.00235062782327487,-0.01108429011895794],[-0.025666329585244983,-0.02739901640170022],[-0.00584298008603557,-0.020267637594180026],[-0.013888131754280345,-0.02036313436729127],[-0.019413589358962317,-0.004419688424811755],[-0.003944687506665299,-0.027535415764028955],[-0.02693809044164927,-0.03100266091420747],[-0.028205486523598257,-0.029504162112426544],[-0.024408600608706147,-0.020949022693738276],[-0.04611813515756319,-0.02069597817442623],[-0.02805691989826624,-0.012087727824421607],[-0.016037863039213545,-0.04600547163414027],[-0.024378823194214548,-0.023366823759890035],[-0.027041297313083953,-0.011897491315517292],[-0.03567022310550312,-0.02254619237517327],[-0.03548576870643223,-0.018154582557744967],[-0.007244307520262621,-0.019673450720279536],[-0.03930672526568715,-0.017485804160138906],[-0.03603367353813329,0.0025600323323254413],[-0.030411510624648298,-0.037984891186949934],[-0.01979676915832424,-0.03335040407215766],[-0.0019742677386607455,-0.008616153342783314],[-0.037603962167785984,-0.003608145624739393],[-0.040102059582855606,-0.015073586200205637],[-0.036798167279031326,-0.013589337703530751]],[[0.025988619300986154,0.007928097665112382],[0.035325795326121255,0.025777830976238907],[0.019223874429799205,0.017900413805985116],[0.018714668377030404,0.017739643983912246],[0.030052601848165706,0.023247763012582707],[0.018255167302474687,0.015969145771267578],[0.01440776343618783,0.00018443075174054142],[0.02115004592709049,0.04320297329183041],[0.023737340280617237,0.015985090415349054],[0.032949413709594484,-0.00462405070799497],[0.009535859842040563,0.018065737417291734],[0.01133289248587835,0.020667241326579138],[0.02546735946564259,0.013940876548018974],[0.022109227067222077,0.02480718072957701],[0.01568251542343889,0.0025661588723583355],[0.013647593109172145,0.0152523294234108],[0.0345258313265278,0.03364141819710823],[0.021267276237185988,0.03915931800603994],[0.02962668414041153,0.01871628400524649],[0.01876047675613812,0.02234879222302499],[0.029637977935740977,0.027297051641179924],[0.03026110488653955,0.007308289587321094],[0.036743120541132136,0.024118574209559304],[0.02087106090764974,0.009904868226253749],[0.02079686358859925,0.012612851283614664],[0.028937113763784102,0.030987127474795345],[0.02010745490474937,0.024492665794388777],[0.03193303677419169,0.01253832642574164],[0.03635955896808857,0.003279182333544091],[0.025487853735639613,-0.0018879680834636243]],[[-0.023990309413970266,0.01654589264737578],[-0.024319030198612958,0.02589102943232918],[-0.028156968929287384,-0.0013305721959119413],[-0.011456968297275534,0.019394947345467498],[-0.010032987247634495,0.0175257300672971],[-0.020748648176770527,0.018010746154849138],[-0.02898060221506079,0.03897949955475322],[-0.015698022325330015,0.022747680856286014],[-0.015672718494552713,0.03110794218524974],[-0.014069728099920636,0.028188700601786784],[-0.01801078175743246,0.031152590347657313],[-0.020145959585126723,0.02935097739873204],[-0.01966393776898877,0.009885908034249557],[-0.030294858868810906,0.017642554686938903],[-0.020492744882634306,0.03464040966446899],[-0.017278075352251517,0.02605180293956291],[-0.03875397116480659,0.013819559063637977],[-0.014868679062488632,0.030369052650245733],[-0.007738769168555732,0.025544335464212874],[-0.018837242549483105,0.0012068110040436791],[-0.003578352041253208,0.01296342236851372],[-0.012068191991926212,0.02993993796933943],[-0.024148157691130157,0.03906523103971823],[-0.0015597174105020336,0.010062045107809066],[-0.02191365581214811,0.025261084909104885],[0.0024422021119069105,0.006794622771290586],[-0.010539120310172985,0.019771118391012435],[-0.022696103082767607,0.03189340792465207],[-0.01820273012745429,0.012992792499558994],[-0.021287709626093033,0.041767872811403914]],[[-0.007985386682326921,-0.037588325532104665],[0.010117272049371016,-0.03124639938178823],[0.010261398594417047,-0.03200058709576596],[0.01650474921806623,-0.029001015142062443],[0.011804915401080737,-0.04079231442621596],[-0.010678742956766709,-0.031316136775290083],[-0.0005402942586825916,-0.04852745972412914],[-0.0012405337174988102,-0.03848428257035459],[0.012165435037239752,-0.0414007041049734],[0.004910766694514573,-0.022318058984548313],[0.012100850187830029,-0.026704627430960373],[0.007762161361252973,-0.030243526120154626],[0.004376898418797094,-0.040532631667541244],[0.026090345286282138,-0.015438370056909576],[-0.018805696882810845,-0.027303432582468885],[0.01592412012510866,-0.020352507882562824],[-0.002010360976461519,-0.03360767009219724],[0.0150966990972846,-0.030460055534786448],[0.000328195086436698,-0.027925777299451067],[0.007730491950732704,-0.02320781091170731],[0.0046543651975172635,-0.014209487022191419],[-0.005772079055816785,-0.028542799462750044],[-0.015520172746082741,-0.027078222114027255],[0.013530342219421827,-0.030080419850086224],[0.013743049300426186,-0.032991176820444834],[-0.0017107875510367048,-0.024143781326711845],[0.0047595234710990295,-0.02187581012348638],[-0.005380470781186586,-0.044000089585290204],[0.0026102138194015424,-0.015347677870972777],[-0.011145543054015723,-0.02240768735151336]],[[0.004826770598956846,0.019643893556801992],[-0.00829650626517358,0.04096304060280559],[0.007007589392004271,0.025263129804602193],[0.009977258032077743,0.041526567279346734],[0.001431323501913325,0.03458950495247088],[0.01177183519444487,0.043758992942775674],[0.016528323296096697,0.0019244334451157348],[-0.005312004038269078,0.016692749381887063],[0.006713045198771489,0.03487851921234895],[-0.00926667768358037,0.017722742774278526],[-0.0018252448774439605,0.02072976354854236],[-0.003987754491544224,0.03399478619881268],[0.01290424225743169,-0.0005162152782637185],[0.002389375929711566,0.046120729335883445],[0.0004430579008051831,0.011170394447653251],[0.010867789496077423,0.042516072519448715],[0.009658314408174357,0.01837266196604332],[0.012952514369132286,0.026587571062344866],[0.011066752548631388,0.02794154380413488],[0.013587103083471976,0.03131001443300316],[0.01807083452484871,0.026828336739192063],[-0.004591811603913917,0.03930974587804798],[0.024010626146626135,0.018074972431558308],[0.00563644063633782,0.037529831874175766],[0.001723557429119593,0.02021652645099155],[0.02120979693020852,0.041307448020099787],[-0.004834294118609656,0.032614465394571045],[9.37062952134078e-05,0.0344030529984633],[-0.0027801216725818674,0.023041747063293174],[-0.006558102775331443,0.025412820453725914]],[[0.0065190141245596465,-0.025866382070014765],[-0.02208041363287449,-0.02992883325467871],[-0.013120436357781429,-0.03792404477524044],[-0.02359727454515278,-0.023715630457818902],[-0.02442414537481522,-0.030967830901118244],[-0.014572921285819189,-0.04623083294490462],[-0.008270230072861333,-0.019620073827073748],[-0.0011205793720751882,-0.027871548828237763],[-0.011647024100631717,-0.020126696956966318],[-0.006756893153898375,-0.03388567218219234],[-0.024119574597580865,-0.026459293524644444],[-0.03160348372287121,-0.054326127584858275],[0.003437822255766761,-0.02051766100301536],[-0.007268446186343111,-0.024941108248197466],[-0.013759209848106736,-0.022081723581939917],[-0.026854236347287654,-0.04359322905099574],[-0.03274737621714395,-0.026766683516659426],[-0.015470487097948616,-0.029116187791887065],[-0.011395070270405667,-0.02052493892608893],[-0.012770385420083782,-0.02228955915116101],[-0.01296581163884111,-0.016273146214789952],[-0.039712193280328684,-0.01768752982676615],[-0.008986626991410718,-0.028160201062805274],[-0.02032410719904303,-0.03271114007221873],[-0.012570598686435838,-0.037453431645051646],[-0.020621639050100643,-0.03864875939324092],[-0.011122415313135528,-0.0368559860961357],[-0.023860727241427234,-0.023109344675356008],[-0.006560675055753589,-0.04169544822565846],[-0.018558258700392873,-0.040303444943976696]],[[0.007307143857829626,0.02479622791617885],[0.016086245035704938,0.010542650501984665],[0.022773061495924705,0.005287493615582169],[0.011148963525350586,0.02241404856098834],[0.025134799648651004,0.045633916976127877],[0.023672439835807357,0.03129722672420616],[0.012357692548129807,0.01937340291712882],[0.020336155019515953,0.030201280824980452],[0.024666246105110326,0.014176779088446868],[0.027015768890895613,0.0017007483282706248],[0.022878231914919566,0.020000152090525265],[0.024053979786434154,0.0111272809526272],[0.01787187275063266,0.033938398818291325],[0.03452807349165207,0.011228979562912347],[0.010565004103293285,0.01002349910880766],[0.02415558508122296,0.0020079261675362307],[0.006707790193864117,0.007549224856828251],[0.01309867351120627,0.00842176293032403],[0.01945686008170933,0.005922295775727219],[0.012222329433632887,0.02063547238915004],[0.010234281136891175,0.010209671718873787],[0.028340076149011167,0.02892525046436044],[0.014586857930368364,0.01953700944367321],[0.004982831634665937,0.003536860139311019],[0.014513364114014648,0.026276263846845845],[-0.0052319958375848475,0.02313160679639778],[0.0193125491335273,0.027615808807568244],[0.013869603814854619,0.01951840760956164],[0.011609299103937041,0.019593840368134184],[0.00492144024962079,0.019954944022511065]],[[0.004669795744526826,-0.031551979085639316],[-0.008780643444280882,-0.03354710447431989],[0.005277406483929985,-0.01851297057724289],[-0.013930893430302826,-0.028200999708267196],[-0.013588575863547035,-0.0187700743954242],[0.005854553468688485,-0.040939860136959494],[-0.014805190384860691,-0.02805522150952447],[-0.012701163585748788,-0.022076841042095705],[-0.010024652651131286,-0.038292517759760135],[-0.006883186671026111,-0.020823438784542507],[-0.005626134111198246,-0.037905753237387145],[-0.006466860838200991,-0.02666339771263825],[-0.002725759566518307,-0.02214311597556639],[-0.00896907649268414,-0.025332941003279312],[-0.01359797958410609,-0.011661220134470133],[-0.007785867201616443,-0.012754093307056524],[0.0005941048623474954,-0.022923644808524685],[-0.007792863025143748,-0.02007156258042931],[-0.009039682528737686,-0.02919517273597674],[-0.008864783710967114,-0.019315840200841726],[-0.011255316915273718,-0.02887402946932226],[-0.007666258194271781,-0.040407353946338036],[0.0010491562191792074,-0.02260313060194809],[0.0019228174195176475,-0.02122572696276263],[-0.01554677932673428,-0.01567162016748148],[-0.005253687466906958,-0.013506159449991735],[0.0017577091737943284,-0.028492202382201015],[-0.02275771338865414,-0.04308866161083141],[-0.005334531346511869,-0.025827724807520578],[-0.02482759728411334,-0.016738303012945484]],[[0.0038617965384951593,0.018381801911391146],[-0.0030264573249118645,0.028430493485217537],[0.014339382636309192,0.012042558736358325],[0.010277878606758092,0.04091373373077857],[-0.018509612586511952,0.03533500268499581],[-0.011926436062893958,0.026561480955547365],[-0.004686554762780618,0.03592663616514001],[-0.011087019731941766,0.017907231522283164],[-0.011240561872201803,0.017633270228681743],[-0.0029969856145287844,0.03320292061453923],[-0.007051784191699546,0.027145114340096983],[-0.002052140368727187,0.030238320554740163],[0.0069555130989512,0.013486235139271137],[-0.006430509605523242,0.02022487197890215],[-0.015659519376466317,0.025958239573248006],[-0.005807125747830293,0.033488855718969895],[-0.009919591661015826,0.01845009383900332],[-0.00446405975736551,0.036443603443594826],[-0.0033855843545005683,0.02036343411191987],[-0.007554820470698609,0.03579822442145165],[0.00838705037699776,0.04883631376024445],[-0.02435661048082887,0.034113327568300406],[-0.008793006966084836,0.03127726188178219],[0.0005885183254884551,0.041582458808094955],[-0.0024490399770001328,0.051225649661300283],[-0.009628398932741401,0.031580953174755844],[-0.013666401194999529,0.023417971548062348],[0.009663533260931088,0.027970897152658835],[-0.006972979775677461,0.028869407539629376],[-0.007362735980459597,0.035567957175589734]],[[0.02636775736986947,-0.006077354170213622],[0.023464675801165485,0.002127524362099802],[0.014951315665970952,-0.02089408438637413],[0.01620491327190471,-0.029806100706395104],[0.01953102956715216,-0.022617247918332934],[0.010855918720717743,-0.004631362690659551],[0.021190289163768274,-0.0339965220815311],[0.029333072546920396,-0.010599466437497545],[0.024546206033266023,-0.03470008238489619],[0.019187027277981203,-0.03717332385868445],[0.0114817324372269,-0.024077150878735895],[0.019275245547348007,-0.025465710053125087],[0.029316425751008818,-0.015668904152758525],[0.04099814454576347,-0.027813423030352055],[0.022912247378380324,-0.012325242727759618],[0.008935228999724798,-0.020479317555984786],[0.00953706421211348,-0.021703347643549142],[0.04658581920415028,-0.022002328813821855],[0.011500726948774995,-0.021462173403340154],[0.0192134024603165,-0.018843561558319816],[0.026004922276921225,-0.028296613566825495],[0.020289969320543375,-0.02775441644959123],[0.018127989176686624,-0.03061125132148023],[0.029980742656713442,-0.01680124770736423],[-0.001898819429504814,-0.028709578891607076],[0.004171952680544637,-0.018054262966114037],[0.027511182418169376,-0.02271016650584787],[0.001959803024699348,-0.05333484814355564],[0.012432271313039082,-0.020922122193862743],[0.02656761038083918,-0.04257258037047311]]]},{"Name":"Tanh","Size":30},{"Name":"Tanh","Size":30},{"Name":"Tanh","Size":30},{"Inputs":30,"Name":"Sum","Outputs":1}],"Name":"FFNN"}