{"Layers":[{"Bias":[[-0.028864375282980026,0.02122997778636189],[-0.024276621286373597,0.021240570843187468],[-0.005273663370472954,0.01877412457893113],[-0.02844318791961182,0.002868702729060852],[-0.019627644356418478,0.008298314496139948],[-0.025539515922643547,0.016889538514864823],[-0.01501023254390854,-0.03446165136289932],[-0.019431018606963793,0.03050041314815359],[-0.025265473852739327,0.047405842137987125],[0.0027518784087501606,-0.01933014483981948],[-0.014504790340625903,0.03423203387489382],[-0.037801906517356,0.01879470597654372],[-0.02951593342739717,0.008440239732109826],[-0.037230324678196876,0.021010242911528622],[-0.02721108519206316,-0.01903099839328515],[-0.02680323910858063,0.013512313536172446],[-0.02256230633504266,0.01836501157251121],[-0.04793095923639944,0.04012447490591139],[-0.04004917154591463,0.021671169573996875],[-0.02786176514672472,0.01125011999874752],[-0.03732491665080284,-0.03762303466228731],[-0.01777936035079337,-0.00957675985927815],[-0.03416605757431181,-0.032252114872790456],[-0.01384363435958853,-0.016128299472627897],[-0.010739553046815172,0.015331601509266237],[-0.026558104100051477,0.020074981547498157],[-0.02995610608876362,0.01896302146628725],[-0.022623468114914346,-0.017348792718518406],[-0.039031727184205806,0.02442152108913777],[-0.01617427774660499,-0.014276862070462264]],"Inputs":10,"Name":"FullyConnected","Outputs":30,"UseBias":true,"Weight":[[[-0.022469719151578825,-0.019898869829760753],[-0.026862952150932835,-0.02945564232491043],[-0.02460439813324391,-0.027947284385671758],[-0.008375244257884449,-0.026468601276956116],[-0.005179993018780099,-0.0020701403060023834],[-0.0008490627755023757,-0.012251496755474598],[-0.025432971465458275,-0.028678764915030876],[-0.005466955792634808,-0.022823118136552162],[-0.013744992715818541,-0.022267123092034862],[-0.019652129135682872,-0.005758341973524613],[-0.004015718773906924,-0.028565063920464137],[-0.02655388802396382,-0.033284228005083454],[-0.027950357580848812,-0.03126542891294555],[-0.025256655622654715,-0.02270671144919223],[-0.045512978801947275,-0.02272530326805482],[-0.028128031093214798,-0.014365732324936648],[-0.015444609097530643,-0.048831131673342486],[-0.023779758130250322,-0.025839196921782086],[-0.026853778802366883,-0.012867045975688308],[-0.03532731970129309,-0.023253489956239916],[-0.035459756941678015,-0.017128245245375723],[-0.006658585738758237,-0.017708725618761283],[-0.03829113168902849,-0.017321388430495],[-0.03565153226427379,0.0017871681628803143],[-0.030494584243931786,-0.03829332944258151],[-0.018614984549348387,-0.03476792126204222],[-0.0012171069607553268,-0.01003262266681556],[-0.03821242742017557,-0.0043925976758321965],[-0.039735430788312195,-0.015818142822230027],[-0.036384517856513025,-0.014690113585573046]],[[0.022816474428905605,0.009098362517131982],[0.03494957281034741,0.027754112256309478],[0.017539194369801458,0.01991242364938687],[0.016235201245040767,0.017120028038692177],[0.02801888300062309,0.024203430858353536],[0.014671808220847366,0.015384519668210672],[0.012006880096449131,0.0010176174264556479],[0.01825367147770328,0.04495370422981915],[0.022144026136279294,0.01735454051493873],[0.030886928460425192,-0.0039785328905918545],[0.006865869091609396,0.018114998798596144],[0.009872967810082171,0.02180730389784156],[0.023402255335622305,0.015628627880084556],[0.0223252874674108,0.02649324971357341],[0.013171836987453944,0.003735159623456062],[0.01259817869722682,0.01729370464811368],[0.03296192730376539,0.03634918781575001],[0.019738552066104625,0.04152540777951325],[0.027270240320406265,0.019547744850417124],[0.017426747752166967,0.022935906088992587],[0.027793830764336634,0.02649186983412297],[0.02851996393843049,0.005569460812657887],[0.0338245443643628,0.024202751179934156],[0.01893748099184532,0.010601191920845911],[0.01896860562488724,0.012316328933526917],[0.025024274501050416,0.03143217301061311],[0.016625949099859906,0.025282303720507424],[0.030615113981484476,0.013144872842486848],[0.0344645187405224,0.0035501043241670405],[0.023854444740275718,-0.0014985199584447812]],[[-0.021988270363711714,0.017513413955962003],[-0.023178559181621875,0.027167948123031273],[-0.02682549002086596,-0.0007535648034902347],[-0.010153698505797414,0.02118410940910109],[-0.00832976477108164,0.018610890084910334],[-0.01890847599742074,0.020867595262293193],[-0.026564293625234627,0.040379536309956124],[-0.014352325668268827,0.024421101977502038],[-0.013987835894514028,0.032528157302372754],[-0.011954019155846412,0.029401549161071093],[-0.016180554641813883,0.03340048701469699],[-0.018604486486888446,0.03126913705196162],[-0.017963454383809706,0.010710410145639221],[-0.028907878959951176,0.019190045797464254],[-0.018403675224705093,0.03563621127477275],[-0.01616797410838161,0.026419439286450005],[-0.037001351064363065,0.014189829398081022],[-0.013405000734502301,0.03160937201610717],[-0.006348086547720627,0.026661240737049594],[-0.0173283180168624,0.002732578334752473],[-0.002032225771592259,0.01418442636050981],[-0.00977139761383539,0.031778582005125795],[-0.021721610030540153,0.039657845332483385],[0.00039651483959797236,0.010780557873572624],[-0.020566355190938187,0.027229536005857122],[0.003607833686636008,0.008637959988419758],[-0.00862099064574706,0.02167403710579268],[-0.021749962044348155,0.032978990004840905],[-0.016407527504580702,0.014784044873696977],[-0.01932144663345463,0.04346950857841377]],[[-0.010872715164812361,-0.03752893615412198],[0.0099309458013414,-0.03169626486584338],[0.00849147599528386,-0.03162549232833265],[0.014038101258864715,-0.028642619167917716],[0.010743238541277723,-0.04097575684940694],[-0.011903661529735016,-0.03140336772101541],[-0.004060966834278129,-0.047793452609286205],[-0.0036909015042765414,-0.03898293076287174],[0.010582489793610263,-0.041006678398978924],[0.0012542774055981603,-0.021426019935693156],[0.009038482691319709,-0.026479277691077045],[0.006989488686170425,-0.03044074720444291],[0.0021131757914237023,-0.040364531368822065],[0.024881657035420352,-0.014951785502602509],[-0.021562293147134242,-0.027029645991752956],[0.014262502664152084,-0.020087865612718216],[-0.0027089385993604325,-0.03398247465943115],[0.01375892140323426,-0.03075962587726529],[-0.002207033663763362,-0.027132217772422165],[0.005894443498317772,-0.023137990761816253],[0.001761881326528645,-0.013360255099854402],[-0.0074169606772681055,-0.028261870001878745],[-0.016869151512664937,-0.026507405953575026],[0.010724804492657392,-0.029907147727165122],[0.011739319507571984,-0.03324652250012564],[-0.0030213321249660916,-0.02460829787893897],[0.0017562684318703976,-0.02192680502817756],[-0.006807106055998685,-0.042817133331606375],[0.0005965854878461382,-0.01538419039473044],[-0.013547570704731851,-0.02214111358398727]],[[0.007373229723924421,0.021195224808016905],[-0.002562160049207306,0.04245110574558609],[0.010909718986220207,0.026687122847199273],[0.014543765468676965,0.04268494420352492],[0.004963964659434299,0.03579581971415708],[0.014487233698719066,0.04488367109254131],[0.020443188083302234,0.001539965207526382],[-0.002409127389210085,0.019456540849909717],[0.010368111511124831,0.03610649141562665],[-0.0063048812626337125,0.017351450293018073],[0.001612933499189799,0.022037994363427914],[0.0002856067517646371,0.03518698022111327],[0.016261926806953497,0.0009767170476012894],[0.007152520998328584,0.04753441619982482],[0.0038037898076309223,0.01102166145342385],[0.01586938770339502,0.043310579599605714],[0.014130894066301802,0.020041273114485943],[0.017058010382890516,0.02833186995616946],[0.015483223809807661,0.028678829992409074],[0.018678828890246333,0.03224407983858266],[0.023817592303003853,0.02679569641626329],[-1.8133459676383855e-06,0.03875782536967249],[0.0286486746924209,0.017333405984525613],[0.009425324471998342,0.03788459843515554],[0.006198656273758182,0.020845807352001377],[0.02362679355077355,0.04322263643259043],[-0.002469983403890824,0.03417981568972544],[0.006373688298668985,0.03388023869750048],[0.001386723132526646,0.02334027366027265],[-0.002784561318214808,0.02468529594551924]],[[0.008429031850955272,-0.02199036827504943],[-0.021468223486484396,-0.026239486495327872],[-0.012215200506451286,-0.03355263146762558],[-0.023184900130048838,-0.019498320181338027],[-0.022453312324424504,-0.027311768877250293],[-0.012126670053533491,-0.04271320731027532],[-0.007144424228678622,-0.015700261879369903],[0.0003457037872194634,-0.025599666285863243],[-0.00994078777817359,-0.016602958753448995],[-0.005951895681341878,-0.029130182237146793],[-0.023193277005288632,-0.02268566171021668],[-0.030172748038600115,-0.05084293995725505],[0.004753245342706577,-0.016619391930485217],[-0.006597723063436388,-0.020777583937257527],[-0.011965166126944721,-0.017429028781992373],[-0.02632679263405367,-0.03935897525615998],[-0.03062920283704829,-0.022806872871543205],[-0.013758877159737299,-0.025771912146434886],[-0.010575060269625547,-0.015903906227804007],[-0.012098598954118729,-0.01789426387556005],[-0.013140075511006386,-0.010832467767324022],[-0.037885827697024956,-0.01268229052840287],[-0.00664586079868807,-0.0226277834228345],[-0.01927694612708659,-0.02801207494674963],[-0.012039208874284495,-0.033542393364240454],[-0.018206460092445673,-0.03587984707908176],[-0.009421884298693095,-0.03336303049695203],[-0.023939347381379848,-0.017923851533732753],[-0.005723329990123531,-0.03666017785390641],[-0.01738232438924225,-0.035606961900142536]],[[0.002254743008800481,0.03253705735170144],[0.010508824815354182,0.01804231829552729],[0.017291232714201136,0.013327279279259962],[0.006420153023437623,0.0288677441947223],[0.018890723462835785,0.052390954578071094],[0.017767903396411197,0.039368884537410886],[0.007544245555980198,0.02547398866723557],[0.014632733577891485,0.03786256710816525],[0.019030322475244315,0.02158266728802426],[0.022603464495773322,0.008638400703116476],[0.01791922235003119,0.027141075629752792],[0.01792590329583607,0.018776741432630955],[0.012567296789592343,0.04140409714350741],[0.028691395054222617,0.018807256060332175],[0.005607914082808182,0.016965223049831366],[0.018752765006642535,0.00954840509332723],[0.0007808517807403926,0.015548668879039567],[0.007399222198101767,0.0161443446411592],[0.014514798085841949,0.013147084723205549],[0.007312611173073344,0.0276997942505962],[0.005963196325737864,0.016121571252720932],[0.023192957280289236,0.03548836021630352],[0.009507010720894878,0.02576073873845549],[0.0006212338025739879,0.010707469884280193],[0.009728801108340852,0.03284745941455565],[-0.010860848533756714,0.030689072286883983],[0.014112134752020637,0.03563004411727267],[0.009085881480686878,0.025651054291921178],[0.006914196078216175,0.026510376770861405],[0.00021953337107354141,0.02591010812773446]],[[0.025751873192588818,-0.013627080615632699],[0.006091692611686037,-0.016289943363733083],[0.02359366974839777,-0.0002568684592804059],[0.0063570047356269945,-0.011254333401216818],[0.0037906741964193755,-0.0010256438294124009],[0.025785780029719037,-0.023953024297295584],[0.004548573478532875,-0.01171039141733306],[0.00890927613788862,-0.004117841985158301],[0.008591950413828656,-0.022048963930003072],[0.012405827772016088,-0.005028399364006874],[0.015127817812677724,-0.020903488310181365],[0.01121593005800505,-0.009260133872733022],[0.017033588831739215,-0.004861682054054542],[0.0065758748831274355,-0.008811822032391415],[0.006073673306576683,0.00520899570511333],[0.010169951663016227,0.004517164635669653],[0.017926031752339797,-0.004398239017439202],[0.010439048870838836,-0.0019067169547302564],[0.010378770640621468,-0.012618794386311378],[0.00897100172468353,-0.0015853140718062018],[0.006996735305456698,-0.01233033050773176],[0.008575693453050353,-0.025350847572974317],[0.01831671605007155,-0.006691802157428193],[0.02131023932900703,-0.004391966707593879],[0.0027020031050347367,0.0020048106260538907],[0.016341501255156612,0.005456081146618424],[0.023334692820970386,-0.010856386680602086],[-0.007425044147132586,-0.028078811039125674],[0.01268328683825374,-0.008929113055386559],[-0.007437911358529732,-0.00043131576220407507]],[[-0.01239492736673479,0.011889054644468306],[-0.017458907379910033,0.020194166332108184],[-0.0016548833954529649,0.004277065619812365],[-0.0060212903472116434,0.03603039666650126],[-0.03423399546249365,0.029090868273941434],[-0.02818009357490891,0.019129549477071378],[-0.02104152718170092,0.03179762400814022],[-0.02765274235525136,0.00970547109583483],[-0.027229885184186634,0.011448675693027623],[-0.019380101821014503,0.029282025773870287],[-0.023475417289690652,0.021354754445970524],[-0.01760384283420191,0.022863141833174425],[-0.009212127049380488,0.006522756981489884],[-0.02149753090266581,0.013082367265825807],[-0.031788525100143995,0.021227948358307262],[-0.021504773875829206,0.027296408966612735],[-0.024737029941843257,0.008989195710999603],[-0.02013557092564813,0.029390969805667088],[-0.01949727753151534,0.015072095996999295],[-0.02283356617905624,0.029510316475486034],[-0.007084546673422534,0.045253477445464464],[-0.03962930966227306,0.029463003634556704],[-0.02358512767819888,0.02697593637165982],[-0.015216041835913574,0.036885118637875684],[-0.018427038918689236,0.045671618013550276],[-0.02618176127083557,0.023544440218885937],[-0.030233752525163037,0.016961807225448284],[-0.005772643748719021,0.023880722891403125],[-0.022461094920923887,0.02300416395977644],[-0.023172005008129836,0.03131312050751257]],[[0.031169272753141887,-0.0014747015290377523],[0.02784432336839157,0.00798438950360217],[0.020291240252483,-0.01470662825837939],[0.021811675706715387,-0.025704487013059513],[0.024326945866770172,-0.01856216733556903],[0.015256444894995507,-0.0011423300335898488],[0.025353804638121983,-0.029641337925671488],[0.03472578682453208,-0.00476596083366425],[0.029379163244208376,-0.02997032410139318],[0.024025092375347556,-0.03291050693280048],[0.016729525136625813,-0.02017036986780478],[0.024040763908170955,-0.020298069736604158],[0.034327134267812566,-0.01063301453339833],[0.04609671624781737,-0.022221597498540576],[0.027233136341960854,-0.007750950275388301],[0.013959655488207037,-0.015051449469824734],[0.013367495512655822,-0.014361355012855946],[0.05105740232845509,-0.016283059808194795],[0.016602260127541273,-0.01707243700751965],[0.02408921809121252,-0.014138304556053825],[0.030941978657727753,-0.02464308811370438],[0.024388694962618907,-0.025234023916867302],[0.021456099631294807,-0.02700326458519557],[0.034536877571262795,-0.012492418841130597],[0.003329011056310809,-0.024280151267372537],[0.009938316785322754,-0.012468446770403364],[0.032623983090031394,-0.018556801621791238],[0.007309508304071428,-0.048822563680864656],[0.017197266530164193,-0.016886591729262518],[0.03118113835289153,-0.03842741414496364]]]},{"Name":"Tanh","Size":30},{"Name":"Tanh","Size":30},{"Name":"Tanh","Size":30},{"Inputs":30,"Name":"Sum","Outputs":1}],"Name":"FFNN"}